svm_type c_svc
kernel_type rbf
gamma 0.025
nr_class 2
total_sv 224
rho 0.0
label 0 1
nr_sv 112 112
SV
1.0 1:0.09090908 2:0.09090908 3:1.0 4:1.0 5:0.59156818 6:0.48946023 7:1.0 9:-0.30950265 10:0.32377142 11:-0.03640089 12:-0.02642982 13:-0.14285714 14:-0.14285714 15:-0.2 17:0.20000001 18:0.50000002 19:0.20000001 20:0.50000002 21:-1.0 22:-1.0 23:-0.33333333 24:-0.66666667 25:-0.80022115 26:-0.80022115 27:-0.83374643 28:-0.83374643 29:-0.65723641 30:-0.5712624 31:-0.85549298 32:-0.85713247 33:-0.99963454 34:-0.99963454 35:0.23684211 36:0.23684211 37:-0.99999039 38:-0.99996079 39:-0.99833066 40:-0.99831479 
1.0 1:0.09090908 2:0.09090908 3:1.0 4:1.0 5:-0.11680576 6:-0.11680576 8:-1.0 9:-0.80435334 10:-0.36497229 11:0.12924455 12:0.12924455 13:-0.14285714 14:-0.14285714 17:0.50000002 18:0.50000002 19:0.50000002 20:0.50000002 21:-1.0 22:-1.0 23:-0.66666667 24:-0.66666667 25:-0.71571496 26:-0.71571496 27:-0.89483714 28:-0.82281017 29:-0.4454924 30:-0.50409598 31:-0.78278406 32:-0.75787741 33:1.0 34:1.0 35:-0.57894737 36:-0.57894737 37:1.0 38:1.0 39:1.0 40:1.0 
1.0 1:0.49494951 2:0.49494951 3:-0.37142857 4:-0.37142857 5:-0.34962134 6:-0.33712797 7:1.0 9:-0.87412971 10:-0.87412971 11:0.10693506 12:0.10693506 13:-0.42857143 14:-0.71428571 15:-0.33333332 16:-0.33333332 17:3.0E-8 18:3.0E-8 19:3.0E-8 20:3.0E-8 21:-1.0 22:-1.0 25:0.14653933 26:0.51304179 27:-0.11014078 28:-0.32535856 29:-0.19556712 30:0.22596098 31:0.47836089 32:0.49138464 33:-0.85124893 34:-0.85124893 35:-0.92105263 36:-0.84210526 37:-0.8691277 38:-0.86909905 39:-0.8991745 40:-0.89915862 
1.0 1:0.09090908 2:0.09090908 3:1.0 4:1.0 5:-0.60820029 6:-0.62947277 7:1.0 8:1.0 9:-0.47056143 10:-0.15009876 11:0.21025084 12:0.17145252 13:-0.14285714 14:-0.14285714 15:-0.2 16:-0.2 17:0.20000001 18:0.20000001 19:0.20000001 20:0.20000001 21:-1.0 22:-1.0 23:-0.33333333 24:-0.33333333 25:-0.17821482 26:-0.22312409 27:-0.47850127 28:-0.80543798 29:-0.18211185 30:-0.08217372 31:-0.28396202 32:-0.31243511 33:-0.97509295 34:-0.97509295 35:-0.86842105 36:-0.86842105 37:-0.97679009 38:-0.9241132 39:-0.97972936 40:-0.83997505 
1.0 1:-1.0 2:-1.0 3:-0.14285714 4:-0.14285714 5:-0.14871449 6:-0.14871449 7:1.0 8:1.0 9:-0.46485277 10:-0.47922798 11:-0.86316382 12:-0.86316382 13:-0.42857143 14:-0.71428571 15:-0.2 16:-0.2 17:0.20000001 18:0.20000001 19:0.20000001 20:0.20000001 21:-1.0 22:-1.0 23:-0.33333333 24:-0.33333333 25:0.54659036 26:0.630721 27:0.40040654 28:1.0 29:-0.20029487 30:-0.517461 31:0.88086218 32:1.0 33:-0.9996981 34:-0.99625004 35:-1.0 36:-0.94736842 37:-0.99848108 38:-0.99625425 39:-0.9968954 40:-0.99447577 
1.0 1:-0.42857141 2:-0.42857141 3:-0.14285714 4:-0.14285714 5:-0.4738797 6:-0.4738797 7:1.0 8:1.0 9:-0.40230887 10:-0.47091378 11:-0.53887415 12:-0.53887415 13:-0.71428571 14:-0.71428571 15:-0.42857144 16:-0.42857144 17:-0.14285715 18:-0.14285715 19:-0.14285715 20:-0.14285715 21:-1.0 22:-1.0 23:0.33333333 24:0.33333333 25:0.35306762 26:0.27532468 27:-0.15603002 28:-0.39746021 29:-0.12397923 30:0.01553647 31:0.22239894 32:0.20862152 33:-0.9991499 34:-0.97030222 35:-0.84210526 36:-0.57894737 37:-0.99914962 38:-0.97550399 39:-0.99858923 40:-0.98197298 
1.0 1:-0.44781144 2:-0.44781144 3:-0.42857143 4:-0.42857143 5:-0.35873812 6:-0.3827119 7:1.0 8:1.0 9:-0.31648979 10:-0.11399537 11:-0.55512236 12:-0.55512236 13:-1.0 14:-0.71428571 15:-1.0 16:-0.55555556 17:-1.0 18:-0.33333333 19:-1.0 20:-0.33333333 21:-1.0 22:-1.0 23:1.0 24:1.0 25:0.24089565 26:0.43350544 27:-0.16390178 28:-0.13251585 29:-0.29927867 30:-0.23709263 31:0.61759052 32:0.71424197 33:-0.98676391 34:-0.97133505 35:-0.81578947 36:-0.78947368 37:-0.99024882 38:-0.97866989 39:-0.99349352 40:-0.9865571 
1.0 1:-0.27272724 2:-0.27272724 3:1.0 4:1.0 5:-0.98837008 6:-0.65287252 7:1.0 8:1.0 9:-0.5296606 10:-0.55242031 11:-0.09745826 12:-0.07264066 13:-0.42857143 14:-0.42857143 15:-0.2 16:-0.2 17:0.20000001 18:0.20000001 19:0.20000001 20:0.20000001 21:-1.0 22:-1.0 23:-0.33333333 24:-0.33333333 25:-0.48529946 26:-0.48529946 27:-0.76829862 28:-0.60936747 29:-0.18058867 30:-0.49244275 31:-0.51833637 32:-0.53901329 33:1.0 34:1.0 35:-0.92105263 36:-0.97368421 37:0.88078528 38:0.88079 39:0.59983851 40:0.59982581 
1.0 1:0.09090908 2:0.09090908 3:-0.14285714 4:-0.14285714 5:-0.55086586 6:-0.76359078 7:1.0 8:1.0 9:-0.70948036 10:-0.70948036 11:-0.31852575 12:-0.34081112 13:-0.14285714 14:-0.14285714 15:-0.42857144 16:-0.42857144 17:-0.14285715 18:-0.14285715 19:-0.14285715 20:-0.14285715 21:-1.0 22:-1.0 23:0.33333333 24:0.33333333 25:-0.56944226 26:-0.71937509 27:-0.57001959 28:-0.57001959 29:-0.67406375 30:-0.81011745 31:-0.54963386 32:-0.55935513 33:-0.78828614 34:-0.78828614 35:-0.78947368 36:-0.44736842 37:-0.80181247 38:-0.80184834 39:-0.71017507 40:-0.7101161 
1.0 1:0.17748919 2:0.17748919 3:0.61904761 4:0.61904761 5:-0.85350442 6:0.05624428 7:1.0 8:1.0 9:-0.58313866 10:-0.35365057 11:0.16191158 12:0.15813078 13:0.42857143 14:0.42857143 15:-0.42857144 16:-0.42857144 17:-0.14285715 18:-0.14285715 19:-0.14285715 20:-0.14285715 21:-1.0 22:-1.0 23:0.33333333 24:0.33333333 25:-0.16256906 26:0.02131661 27:-0.92173278 28:-0.82992695 29:0.04731866 30:0.04080405 31:-0.52565921 32:-0.51951093 33:1.0 34:1.0 35:-0.92105263 36:-0.71052632 37:0.65326697 38:0.66779588 39:0.20236225 40:0.14342741 
1.0 1:0.15824915 2:0.09090908 3:0.42857143 4:0.34693877 5:-0.81248477 6:0.00402778 7:1.0 8:1.0 9:-0.40359563 10:-0.09796325 11:-0.01840176 12:0.0055777 13:0.71428571 14:0.42857143 15:-0.55555556 17:-0.33333333 18:-0.24999999 19:-0.33333333 20:-0.09999999 21:-1.0 22:-0.24999998 23:1.0 24:0.66666667 25:-0.61853627 26:-0.80843354 27:-0.83791332 28:-0.89397207 29:-0.39755449 30:-0.61691169 31:-0.76804118 32:-0.78861456 33:1.0 34:1.0 35:-0.84210526 36:-0.86842105 37:0.47653601 38:0.58105742 39:0.05997017 40:8.7039E-4 
1.0 1:-0.28787877 2:-0.28787877 3:0.67346939 4:0.67346939 5:-0.21274902 6:-0.64228691 7:1.0 8:1.0 9:-0.66003958 10:-0.72509229 11:-0.34508032 12:-0.34500623 13:-0.71428571 14:-0.42857143 15:-0.5 16:-0.5 17:-0.24999999 18:-0.24999999 19:-0.24999999 20:-0.24999999 21:-1.0 22:-1.0 23:0.66666667 24:0.66666667 25:0.17323366 26:0.13115457 27:-0.48582529 28:-0.94673291 29:0.15842718 30:0.64622951 31:-0.04034423 32:0.00338396 33:1.0 34:1.0 35:-0.94736842 36:-0.89473684 37:0.5813213 38:0.57774868 39:-5.3471E-4 40:0.01386955 
1.0 1:-0.51515151 2:-0.51515151 3:-0.14285714 4:0.42857143 5:-0.52462978 6:-0.52462978 7:1.0 8:1.0 9:-0.41376727 10:-0.59699579 11:-0.82041364 12:-0.82041364 13:-0.71428571 14:-0.71428571 15:-0.2 16:-0.2 17:0.20000001 18:0.20000001 19:0.20000001 20:0.20000001 21:-1.0 22:-1.0 23:-0.33333333 24:-0.33333333 25:-0.67916027 26:-0.45768025 27:-0.29796426 28:-0.50652441 29:-0.92121 30:-0.55433148 31:-0.46836595 32:-0.43392135 33:-0.92996631 34:-0.92996631 35:-0.84210526 36:-0.84210526 37:-0.934604 38:-0.93451228 39:-0.94299035 40:-0.94255215 
1.0 1:-0.16883113 2:-0.16883113 3:-0.52380953 4:0.61904761 5:-0.62736965 6:-0.62736965 7:1.0 8:1.0 9:-0.7877015 10:-0.67327808 11:-0.06547898 12:-0.06547898 13:-0.42857143 14:-0.42857143 15:-0.42857144 16:-0.42857144 17:-0.14285715 18:-0.14285715 19:-0.14285715 20:-0.14285715 21:-1.0 22:-1.0 23:0.33333333 24:0.33333333 25:0.18546594 26:0.16426333 27:-0.56837759 28:-0.74475917 29:0.35312844 30:0.34950898 31:-0.13976488 32:-0.18964721 33:1.0 34:1.0 35:0.02631579 36:-0.60526316 37:0.64110134 38:0.64204174 39:0.26860043 40:0.26840537 
1.0 1:-0.51515151 2:-0.15151513 3:0.42857143 4:0.42857143 5:-0.69480971 6:-0.75274273 7:1.0 8:1.0 9:-0.72739348 10:-0.47337658 11:0.15289791 12:0.19763821 13:-0.42857143 14:-0.42857143 15:-0.2 16:-0.2 17:0.20000001 18:0.20000001 19:0.20000001 20:0.20000001 21:-1.0 22:-1.0 23:-0.33333333 24:-0.33333333 25:-0.01073822 26:-0.01073822 27:-0.37632496 28:-0.53325458 29:-0.17046125 30:-0.03618725 31:0.13227765 32:0.09157839 33:-0.37404265 34:-0.37404265 35:-0.92105263 36:-0.23684211 37:-0.37298632 38:-0.37307484 39:-0.09812013 40:-0.09810107 
1.0 1:-0.01010097 2:0.39393941 3:1.0 4:1.0 5:-0.71861465 6:-0.69119062 7:1.0 8:1.0 9:-0.21725219 10:-0.39563291 11:0.2019332 12:0.21825706 13:0.14285714 14:0.14285714 15:-0.33333332 16:-0.33333332 17:3.0E-8 18:3.0E-8 19:3.0E-8 20:3.0E-8 21:-1.0 22:-1.0 25:-0.32700022 26:-0.3489871 27:-0.91751152 28:-0.89397207 29:-0.12190953 30:-0.1423555 31:-0.77018385 32:-0.79436882 33:1.0 34:1.0 35:-0.97368421 36:-0.92105263 37:0.73175878 38:0.73175495 39:0.47537889 40:0.47538948 
1.0 1:0.00432903 2:-0.3131313 3:1.0 4:1.0 5:-0.44204333 6:-0.35272779 7:1.0 8:1.0 9:-0.72534927 10:-0.52370438 11:-0.2558485 12:-0.30914098 13:0.42857143 14:-0.14285714 15:-0.42857144 16:-0.33333332 17:-0.14285715 18:3.0E-8 19:-0.14285715 20:3.0E-8 21:-1.0 22:-1.0 23:0.33333333 25:-0.097243 26:-0.48809146 27:-0.93163172 28:-0.7632633 29:0.24581528 30:-0.37172533 31:-0.41434724 32:-0.36425399 33:-0.37404265 34:-0.37404265 35:-0.71052632 36:-0.71052632 37:-0.48706227 38:-0.44844712 39:-0.5375303 40:-0.57655709 
1.0 1:-0.04377101 2:-0.38047137 3:0.42857143 4:0.42857143 5:-0.49135354 6:-0.45362018 7:1.0 8:1.0 9:-0.71783065 10:-0.68294209 11:-0.40105846 12:-0.39391424 13:0.14285714 14:-0.42857143 15:-0.55555556 16:-0.55555556 17:-0.33333333 18:-0.33333333 19:-0.33333333 20:-0.33333333 21:-1.0 22:-1.0 23:1.0 24:1.0 25:-0.27461251 26:-0.36984491 27:-0.78899774 28:-0.5857365 29:-0.23405304 30:-0.53478495 31:-0.45133124 32:-0.45099513 33:1.0 34:1.0 35:-0.73684211 36:-0.92105263 37:0.4972595 38:0.50562798 39:-0.07147244 40:-0.11091756 
1.0 1:0.33333335 2:0.33333335 3:-0.71428571 4:-0.71428571 5:-0.3529304 6:-0.3529304 7:1.0 8:1.0 9:0.22220503 10:0.22220503 11:0.36151521 12:0.132475 13:0.14285714 14:0.14285714 15:-0.2 16:-0.2 17:0.20000001 18:0.20000001 19:0.20000001 20:0.20000001 21:-1.0 22:-1.0 23:-0.33333333 24:-0.33333333 25:-0.04783811 26:-0.16899595 27:0.35676464 28:0.35676464 29:-0.78994948 30:-0.92200934 31:0.34343351 32:0.25886362 33:-0.97551403 34:-0.97551403 35:-0.65789474 36:-0.5 37:-0.97830326 38:-0.97832629 39:-0.96926969 40:-0.96923159 
1.0 1:0.21212124 2:0.21212124 3:-0.14285714 4:-0.14285714 5:-0.72185617 6:-0.691163 7:1.0 8:1.0 9:-0.7877015 10:-0.7877015 11:-0.06036122 12:0.46166665 13:0.14285714 14:0.14285714 15:-0.2 16:-0.2 17:0.20000001 18:0.20000001 19:0.20000001 20:0.20000001 21:-1.0 22:-1.0 23:-0.33333333 24:-0.33333333 25:-0.86517007 26:-0.65259219 27:-0.79204739 28:-0.80461572 29:-0.74121337 30:-0.50581269 31:-0.7682243 32:-0.79143142 33:1.0 34:1.0 35:-0.73684211 36:-0.42105263 37:0.86566619 38:0.86379265 39:0.64224238 40:0.64772306 
1.0 1:1.0 2:1.0 3:-0.37142857 4:-0.37142857 5:-0.6728938 6:-0.6728938 7:1.0 8:1.0 9:-1.0 10:-0.46635927 11:0.74014307 12:0.41405612 13:0.42857143 14:0.42857143 15:1.0 16:1.0 17:3.0E-8 18:3.0E-8 19:0.39999999 20:0.39999999 21:1.0 22:1.0 25:0.48960362 26:0.37298921 27:-0.59332317 28:-0.59332317 29:0.59118607 30:0.43867651 31:0.07621885 32:0.01091533 33:-0.8283837 34:-0.8283837 35:-0.94736842 36:-0.97368421 37:-0.85277805 38:-0.85276733 39:-0.85572488 40:-0.85574605 
1.0 1:0.00432903 2:0.00432903 3:-0.14285714 4:-0.14285714 5:-0.13453282 6:-0.22135932 7:1.0 8:1.0 9:-0.662821 10:-0.35371988 11:0.25181485 12:0.0400098 13:-0.42857143 14:-0.71428571 15:-0.42857144 16:-0.42857144 17:-0.14285715 18:-0.14285715 19:-0.14285715 20:-0.14285715 21:-1.0 22:-1.0 23:0.33333333 24:0.33333333 25:0.46110003 26:0.630721 27:-0.57634025 28:-0.57634025 29:0.430044 30:0.35321102 31:0.02916531 32:-0.03661126 33:-0.92465122 34:-0.92465122 35:-0.94736842 36:-0.94736842 37:-0.93731302 38:-0.93723068 39:-0.95681953 40:-0.95711438 
1.0 1:-0.04377101 2:-0.04377101 3:0.71428571 4:0.71428571 5:-0.19109065 6:-0.11188158 7:1.0 8:1.0 9:-0.33296567 10:-0.41040096 11:0.16028329 12:-0.26381583 13:0.14285714 14:0.14285714 15:-0.55555556 16:-0.55555556 17:-0.33333333 18:-0.33333333 19:-0.33333333 20:-0.33333333 21:-1.0 22:-1.0 23:1.0 24:1.0 25:-0.04937266 26:0.32572944 27:-0.72794529 28:-0.81577024 29:-0.09094065 30:0.32730793 31:-0.3125693 32:-0.34114678 33:1.0 34:1.0 35:-1.0 36:-0.71052632 37:0.49617173 38:0.49287823 39:-0.06142769 40:-0.03373848 
1.0 1:-0.03030303 2:-0.03030303 3:1.0 4:1.0 5:-0.93326421 6:-0.93326421 7:1.0 8:1.0 9:-0.23967456 10:-0.83548512 11:0.30015876 12:0.30015876 13:-0.42857143 14:-0.42857143 15:-0.2 16:-0.2 17:0.20000001 18:0.20000001 19:0.20000001 20:0.20000001 21:-1.0 22:-1.0 23:-0.33333333 24:-0.33333333 25:-0.8498939 26:-0.67684348 27:-0.85473967 28:-0.65321689 29:-0.63946915 30:-0.60805918 31:-0.71943845 32:-0.69935789 33:1.0 34:1.0 35:-0.60526316 36:-0.28947368 37:0.87969924 38:0.87967083 39:0.60328696 40:0.60336317 
1.0 1:0.21212124 2:0.21212124 3:1.0 4:1.0 5:-0.68020445 6:-0.68020445 7:1.0 8:1.0 9:-0.73966342 10:-0.8707593 11:0.23133681 12:0.23133681 13:-0.42857143 14:-0.71428571 15:-0.2 16:-0.2 17:0.20000001 18:0.20000001 19:0.20000001 20:0.20000001 21:-1.0 22:-1.0 23:-0.33333333 24:-0.33333333 25:-0.29307792 26:-0.31809054 27:-0.82251792 28:-0.41051839 29:-0.02876837 30:-0.4351884 31:-0.42357525 32:-0.38714082 33:-0.87909556 34:-0.87909556 35:-0.02631579 36:-0.02631579 37:-0.88908281 38:-0.8876525 39:-0.89496608 40:-0.89976723 
1.0 1:0.45454546 2:0.45454546 3:1.0 4:1.0 5:-0.61670928 6:-0.61670928 7:1.0 8:1.0 9:-0.37240838 10:0.19145194 11:0.70087242 12:0.70087242 13:0.14285714 14:-0.14285714 15:-0.2 16:-0.2 17:0.20000001 18:0.20000001 19:0.20000001 20:0.20000001 21:-1.0 22:-1.0 23:-0.33333333 24:-0.33333333 25:-0.53682185 26:-0.39409686 27:-0.48298304 28:-0.59565762 29:-0.65171046 30:-0.39010167 31:-0.48548406 32:-0.48277224 33:-0.72355166 34:-0.72355166 35:-0.76315789 36:-0.84210526 37:-0.74080728 38:-0.74018216 39:-0.77512768 40:-0.77682333 
1.0 1:-0.51515151 2:-0.51515151 3:-0.52380953 4:-0.52380953 5:-0.32902417 6:-0.32902417 7:1.0 8:1.0 9:-0.36560996 10:-0.81534294 11:-0.58331567 12:-0.58331567 13:0.14285714 14:0.14285714 15:-0.42857144 16:-0.42857144 17:-0.14285715 18:-0.14285715 19:-0.14285715 20:-0.14285715 21:-1.0 22:-1.0 23:0.33333333 24:0.33333333 25:0.70115149 26:-0.07095467 27:-0.49802083 28:-0.81294782 29:1.0 30:-0.05546829 31:0.01830687 32:0.06769103 33:-0.99966632 34:-0.99922935 35:-0.73684211 36:-0.60526316 37:-0.99972179 38:-0.99952266 39:-0.99877975 40:-0.99875707 
1.0 1:0.00432903 2:0.00432903 3:-0.14285714 4:-0.14285714 5:-0.13453282 6:-0.13453282 7:1.0 8:1.0 9:-0.21446531 10:0.30195116 11:0.25181485 12:0.25181485 13:-0.42857143 14:-0.42857143 15:-0.42857144 16:-0.42857144 17:-0.14285715 18:-0.14285715 19:-0.14285715 20:-0.14285715 21:-1.0 22:-1.0 23:0.33333333 24:0.33333333 25:0.16979706 26:0.630721 27:-0.34633237 28:-0.21017113 29:-0.08155075 30:0.43039168 31:0.53397221 32:0.55378136 33:-0.92465122 34:-0.92465122 35:-0.94736842 36:-0.94736842 37:-0.93729966 38:-0.93730519 39:-0.95684221 40:-0.95684675 
1.0 1:0.33333335 2:0.33333335 3:0.42857143 4:0.42857143 5:-0.45645653 6:-0.53161932 7:1.0 8:1.0 9:-0.26098509 10:-0.00450227 11:0.56039064 12:0.56039064 13:-0.14285714 14:-0.14285714 15:-0.2 16:-0.2 17:0.20000001 18:0.20000001 19:0.20000001 20:0.20000001 21:-1.0 22:-1.0 23:-0.33333333 24:-0.33333333 25:-0.39157407 26:-0.89402619 27:-0.86125172 28:-0.87446239 29:0.12338316 30:-0.67054359 31:-0.53046791 32:-1.0 33:-0.60141577 34:-0.60141577 35:-0.84210526 36:-0.65789474 37:-0.64343839 38:-0.64346248 39:-0.55814842 40:-0.55810396 
1.0 1:-0.03030303 2:-0.03030303 3:1.0 4:1.0 5:-0.81717719 6:-0.81717719 7:1.0 8:1.0 9:-0.44054998 10:-0.44054998 11:-0.03261768 12:-0.03261768 13:-0.71428571 14:-0.71428571 15:-0.2 16:-0.2 17:0.20000001 18:0.20000001 19:0.20000001 20:0.20000001 21:-1.0 22:-1.0 23:-0.33333333 24:-0.33333333 25:-0.97246463 26:0.60591514 27:-0.76199419 28:-0.48582529 29:-0.86186162 30:0.69229069 31:-0.88078256 32:0.02141091 33:1.0 34:1.0 35:-0.89473684 36:-0.89473684 37:0.88101915 38:0.88113946 39:0.59945747 40:0.59913358 
1.0 1:0.00432903 2:0.00432903 3:0.61904761 4:0.61904761 5:-0.07968742 6:-0.07968742 7:1.0 8:1.0 9:-0.16410831 10:-0.29430625 11:-0.12487001 12:-0.12487001 13:0.42857143 14:0.14285714 15:-0.42857144 16:-0.42857144 17:-0.14285715 18:-0.14285715 19:-0.14285715 20:-0.14285715 21:-1.0 22:-1.0 23:0.33333333 24:0.33333333 25:0.44932079 26:-1.0 27:-0.96045801 28:-0.96045801 29:0.52067285 30:-0.7767888 31:-0.13554581 32:-0.93375346 33:-0.82294149 34:-0.82294149 35:-0.94736842 36:-0.60526316 37:-0.85290131 38:-0.85301877 39:-0.89641495 40:-0.89637413 
1.0 1:-0.11111108 2:-0.17845115 3:0.14285714 4:0.14285714 5:-0.45113891 6:-0.475568 7:1.0 8:1.0 9:-0.80844046 10:-0.5744497 11:-0.43422965 12:-0.41527863 13:-0.14285714 14:-0.14285714 15:-0.55555556 16:-0.11111112 17:-0.33333333 18:-0.33333333 19:-0.33333333 20:-0.11111109 21:-1.0 22:-0.21432578 23:1.0 24:1.0 25:-0.61931846 26:0.48797559 27:-0.91247204 28:-0.53012027 29:-0.39172514 30:0.04771645 31:-0.64248381 32:-0.0764262 33:1.0 34:1.0 35:-0.84210526 36:-0.71052632 37:0.50497554 38:0.50501734 39:-0.10843725 40:-0.10856426 
1.0 1:0.09090908 2:0.09090908 3:1.0 4:1.0 5:0.59156818 6:0.48946023 7:1.0 9:-0.30950265 10:0.32377142 11:-0.03640089 12:-0.02642982 13:-0.14285714 14:-0.14285714 15:-0.2 17:0.20000001 18:0.50000002 19:0.20000001 20:0.50000002 21:-1.0 22:-1.0 23:-0.33333333 24:-0.66666667 25:-0.80022115 26:-0.80022115 27:-0.83374643 28:-0.83374643 29:-0.65723641 30:-0.5712624 31:-0.85549298 32:-0.85713247 33:-0.99963454 34:-0.99963454 35:0.23684211 36:0.23684211 37:-0.99999039 38:-0.99996079 39:-0.99833066 40:-0.99831479 
1.0 1:0.69696973 2:0.69696973 3:1.0 4:1.0 5:-0.83910352 6:-0.79849238 7:1.0 9:-0.62447254 10:-0.46089475 11:0.09948848 12:0.09754035 13:-0.42857143 14:-0.71428571 15:-0.2 17:0.20000001 18:0.50000002 19:0.20000001 20:0.50000002 21:-1.0 22:-1.0 23:-0.33333333 24:-0.66666667 25:-0.74436389 26:-0.5221663 27:-0.77405205 28:-0.75221621 29:-0.60278696 30:-0.33796299 31:-0.61150419 32:-0.60194598 33:-0.8283837 34:-0.87761782 35:0.39473684 36:-0.44736842 37:-0.84040632 38:-0.87834508 39:-0.85708393 40:-0.87505493 
1.0 1:0.49494951 2:0.49494951 3:-0.37142857 4:-0.37142857 5:-0.34962134 6:-0.33712797 7:1.0 9:-0.87412971 10:-0.87412971 11:0.10693506 12:0.10693506 13:-0.42857143 14:-0.71428571 15:-0.33333332 16:-0.33333332 17:3.0E-8 18:3.0E-8 19:3.0E-8 20:3.0E-8 21:-1.0 22:-1.0 25:0.14653933 26:0.51304179 27:-0.11014078 28:-0.32535856 29:-0.19556712 30:0.22596098 31:0.47836089 32:0.49138464 33:-0.85124893 34:-0.85124893 35:-0.92105263 36:-0.84210526 37:-0.8691277 38:-0.86909905 39:-0.8991745 40:-0.89915862 
1.0 1:0.09090908 2:0.09090908 3:1.0 4:1.0 5:-0.62947277 6:-0.60820029 7:1.0 8:1.0 9:-0.15009876 10:-0.47056143 11:0.17145252 12:0.21025084 13:-0.14285714 14:-0.14285714 15:-0.2 16:-0.2 17:0.20000001 18:0.20000001 19:0.20000001 20:0.20000001 21:-1.0 22:-1.0 23:-0.33333333 24:-0.33333333 25:-0.22312409 26:-0.17821482 27:-0.80543798 28:-0.47850127 29:-0.08217372 30:-0.18211185 31:-0.31243511 32:-0.28396202 33:-0.97509295 34:-0.97509295 35:-0.86842105 36:-0.86842105 37:-0.9241132 38:-0.97679009 39:-0.83997505 40:-0.97972936 
1.0 1:-1.0 2:-1.0 3:-0.14285714 4:-0.14285714 5:-0.14871449 6:-0.14871449 7:1.0 8:1.0 9:-0.46485277 10:-0.47922798 11:-0.86316382 12:-0.86316382 13:-0.42857143 14:-0.71428571 15:-0.2 16:-0.2 17:0.20000001 18:0.20000001 19:0.20000001 20:0.20000001 21:-1.0 22:-1.0 23:-0.33333333 24:-0.33333333 25:0.54659036 26:0.630721 27:0.40040654 28:1.0 29:-0.20029487 30:-0.517461 31:0.88086218 32:1.0 33:-0.9996981 34:-0.99625004 35:-1.0 36:-0.94736842 37:-0.99848108 38:-0.99625425 39:-0.9968954 40:-0.99447577 
1.0 1:-0.42857141 2:-0.42857141 3:-0.14285714 4:-0.14285714 5:-0.4738797 6:-0.4738797 7:1.0 8:1.0 9:-0.47091378 10:-0.40230887 11:-0.53887415 12:-0.53887415 13:-0.71428571 14:-0.71428571 15:-0.42857144 16:-0.42857144 17:-0.14285715 18:-0.14285715 19:-0.14285715 20:-0.14285715 21:-1.0 22:-1.0 23:0.33333333 24:0.33333333 25:0.27532468 26:0.35306762 27:-0.39746021 28:-0.15603002 29:0.01553647 30:-0.12397923 31:0.20862152 32:0.22239894 33:-0.97030222 34:-0.9991499 35:-0.57894737 36:-0.84210526 37:-0.97550399 38:-0.99914962 39:-0.98197298 40:-0.99858923 
1.0 1:-0.44781144 2:-0.44781144 3:-0.42857143 4:-0.42857143 5:-0.35873812 6:-0.3827119 7:1.0 8:1.0 9:-0.31648979 10:-0.11399537 11:-0.55512236 12:-0.55512236 13:-1.0 14:-0.71428571 15:-1.0 16:-0.55555556 17:-1.0 18:-0.33333333 19:-1.0 20:-0.33333333 21:-1.0 22:-1.0 23:1.0 24:1.0 25:0.24089565 26:0.43350544 27:-0.16390178 28:-0.13251585 29:-0.29927867 30:-0.23709263 31:0.61759052 32:0.71424197 33:-0.98676391 34:-0.97133505 35:-0.81578947 36:-0.78947368 37:-0.99024882 38:-0.97866989 39:-0.99349352 40:-0.9865571 
1.0 1:-0.51515151 2:-0.51515151 3:0.14285714 4:0.14285714 5:-0.09907869 6:-0.09907869 7:1.0 8:1.0 9:-0.04589382 10:0.1488396 11:0.08335744 12:0.08335744 13:0.14285714 14:-0.42857143 15:-0.55555556 16:-0.55555556 17:-0.33333333 18:-0.33333333 19:-0.33333333 20:-0.33333333 21:-1.0 22:-1.0 23:1.0 24:1.0 25:0.05825021 26:-0.08275862 27:-0.70437176 28:-0.25888999 29:0.15080149 30:-0.44079379 31:0.04931664 32:0.09779628 33:-0.98432485 34:-0.99892745 35:-0.73684211 36:-0.86842105 37:-0.98715294 38:-0.99914463 39:-0.98687817 40:-0.99871524 
1.0 1:-0.27272724 2:-0.27272724 3:1.0 4:1.0 5:-0.65287252 6:-0.98837008 7:1.0 8:1.0 9:-0.55242031 10:-0.5296606 11:-0.07264066 12:-0.09745826 13:-0.42857143 14:-0.42857143 15:-0.2 16:-0.2 17:0.20000001 18:0.20000001 19:0.20000001 20:0.20000001 21:-1.0 22:-1.0 23:-0.33333333 24:-0.33333333 25:-0.48529946 26:-0.48529946 27:-0.60936747 28:-0.76829862 29:-0.49244275 30:-0.18058867 31:-0.53901329 32:-0.51833637 33:1.0 34:1.0 35:-0.97368421 36:-0.92105263 37:0.88079 38:0.88078528 39:0.59982581 40:0.59983851 
1.0 1:0.09090908 2:0.09090908 3:-0.14285714 4:-0.14285714 5:-0.55086586 6:-0.76359078 7:1.0 8:1.0 9:-0.70948036 10:-0.70948036 11:-0.31852575 12:-0.34081112 13:-0.14285714 14:-0.14285714 15:-0.42857144 16:-0.42857144 17:-0.14285715 18:-0.14285715 19:-0.14285715 20:-0.14285715 21:-1.0 22:-1.0 23:0.33333333 24:0.33333333 25:-0.56944226 26:-0.71937509 27:-0.57001959 28:-0.57001959 29:-0.67406375 30:-0.81011745 31:-0.54963386 32:-0.55935513 33:-0.78828614 34:-0.78828614 35:-0.78947368 36:-0.44736842 37:-0.80181247 38:-0.80184834 39:-0.71017507 40:-0.7101161 
1.0 1:0.17748919 2:0.17748919 3:0.61904761 4:0.61904761 5:-0.85350442 6:0.05624428 7:1.0 8:1.0 9:-0.58313866 10:-0.35365057 11:0.16191158 12:0.15813078 13:0.42857143 14:0.42857143 15:-0.42857144 16:-0.42857144 17:-0.14285715 18:-0.14285715 19:-0.14285715 20:-0.14285715 21:-1.0 22:-1.0 23:0.33333333 24:0.33333333 25:-0.16256906 26:0.02131661 27:-0.92173278 28:-0.82992695 29:0.04731866 30:0.04080405 31:-0.52565921 32:-0.51951093 33:1.0 34:1.0 35:-0.92105263 36:-0.71052632 37:0.65326697 38:0.66779588 39:0.20236225 40:0.14342741 
1.0 1:0.15824915 2:0.09090908 3:0.42857143 4:0.34693877 5:-0.81248477 6:0.00402778 7:1.0 8:1.0 9:-0.40359563 10:-0.09796325 11:-0.01840176 12:0.0055777 13:0.71428571 14:0.42857143 15:-0.55555556 17:-0.33333333 18:-0.24999999 19:-0.33333333 20:-0.09999999 21:-1.0 22:-0.24999998 23:1.0 24:0.66666667 25:-0.61853627 26:-0.80843354 27:-0.83791332 28:-0.89397207 29:-0.39755449 30:-0.61691169 31:-0.76804118 32:-0.78861456 33:1.0 34:1.0 35:-0.84210526 36:-0.86842105 37:0.47653601 38:0.58105742 39:0.05997017 40:8.7039E-4 
1.0 1:-0.28787877 2:-0.28787877 3:0.67346939 4:0.67346939 5:-0.21274902 6:-0.64228691 7:1.0 8:1.0 9:-0.66003958 10:-0.72509229 11:-0.34508032 12:-0.34500623 13:-0.71428571 14:-0.42857143 15:-0.5 16:-0.5 17:-0.24999999 18:-0.24999999 19:-0.24999999 20:-0.24999999 21:-1.0 22:-1.0 23:0.66666667 24:0.66666667 25:0.17323366 26:0.13115457 27:-0.48582529 28:-0.94673291 29:0.15842718 30:0.64622951 31:-0.04034423 32:0.00338396 33:1.0 34:1.0 35:-0.94736842 36:-0.89473684 37:0.5813213 38:0.57774868 39:-5.3471E-4 40:0.01386955 
1.0 1:-0.51515151 2:-0.51515151 3:0.42857143 4:-0.14285714 5:-0.52462978 6:-0.52462978 7:1.0 8:1.0 9:-0.59699579 10:-0.41376727 11:-0.82041364 12:-0.82041364 13:-0.71428571 14:-0.71428571 15:-0.2 16:-0.2 17:0.20000001 18:0.20000001 19:0.20000001 20:0.20000001 21:-1.0 22:-1.0 23:-0.33333333 24:-0.33333333 25:-0.45768025 26:-0.67916027 27:-0.50652441 28:-0.29796426 29:-0.55433148 30:-0.92121 31:-0.43392135 32:-0.46836595 33:-0.92996631 34:-0.92996631 35:-0.84210526 36:-0.84210526 37:-0.93451228 38:-0.934604 39:-0.94255215 40:-0.94299035 
1.0 1:-0.16883113 2:-0.16883113 3:0.61904761 4:-0.52380953 5:-0.62736965 6:-0.62736965 7:1.0 8:1.0 9:-0.67327808 10:-0.7877015 11:-0.06547898 12:-0.06547898 13:-0.42857143 14:-0.42857143 15:-0.42857144 16:-0.42857144 17:-0.14285715 18:-0.14285715 19:-0.14285715 20:-0.14285715 21:-1.0 22:-1.0 23:0.33333333 24:0.33333333 25:0.16426333 26:0.18546594 27:-0.74475917 28:-0.56837759 29:0.34950898 30:0.35312844 31:-0.18964721 32:-0.13976488 33:1.0 34:1.0 35:-0.60526316 36:0.02631579 37:0.64204174 38:0.64110134 39:0.26840537 40:0.26860043 
1.0 1:0.02356906 2:-0.01010097 3:-1.0 4:-0.37142857 5:0.85818338 6:0.7872751 7:1.0 8:1.0 9:0.75143885 10:-0.34776154 11:-0.00165688 12:-0.06405336 13:0.42857143 14:0.42857143 15:-0.55555556 16:-0.33333332 17:-0.33333333 18:3.0E-8 19:-0.33333333 20:3.0E-8 21:-1.0 22:-1.0 23:1.0 25:0.23719102 26:0.2137361 27:0.43762382 28:-0.07635262 29:-0.67273617 30:-0.21686949 31:0.5575514 32:0.54513357 33:-0.99895923 34:-0.99918963 35:-0.84210526 36:-0.44736842 37:-0.99916836 38:-0.99949697 39:-0.99818954 40:-0.99771676 
1.0 1:0.00432903 2:0.00432903 3:1.0 4:-0.14285714 5:0.01755823 6:0.01755823 7:1.0 8:1.0 9:-0.31949816 10:0.02811115 11:0.03289002 12:0.03289002 13:0.14285714 14:0.14285714 15:-0.42857144 16:-0.42857144 17:-0.14285715 18:-0.14285715 19:-0.14285715 20:-0.14285715 21:-1.0 22:-1.0 23:0.33333333 24:0.33333333 25:0.00100313 26:0.00100313 27:-0.79204739 28:-0.79204739 29:0.02144719 30:0.06331936 31:-0.48054599 32:-0.49042914 33:1.0 34:1.0 35:-0.97368421 36:-0.63157895 37:0.66803322 38:0.66793379 39:0.14270161 40:0.14276059 
1.0 1:-0.51515151 2:-0.15151513 3:0.42857143 4:0.42857143 5:-0.69480971 6:-0.75274273 7:1.0 8:1.0 9:-0.72739348 10:-0.47337658 11:0.15289791 12:0.19763821 13:-0.42857143 14:-0.42857143 15:-0.2 16:-0.2 17:0.20000001 18:0.20000001 19:0.20000001 20:0.20000001 21:-1.0 22:-1.0 23:-0.33333333 24:-0.33333333 25:-0.01073822 26:-0.01073822 27:-0.37632496 28:-0.53325458 29:-0.17046125 30:-0.03618725 31:0.13227765 32:0.09157839 33:-0.37404265 34:-0.37404265 35:-0.92105263 36:-0.23684211 37:-0.37298632 38:-0.37307484 39:-0.09812013 40:-0.09810107 
1.0 1:-0.01010097 2:0.39393941 3:1.0 4:1.0 5:-0.71861465 6:-0.69119062 7:1.0 8:1.0 9:-0.21725219 10:-0.39563291 11:0.2019332 12:0.21825706 13:0.14285714 14:0.14285714 15:-0.33333332 16:-0.33333332 17:3.0E-8 18:3.0E-8 19:3.0E-8 20:3.0E-8 21:-1.0 22:-1.0 25:-0.32700022 26:-0.3489871 27:-0.91751152 28:-0.89397207 29:-0.12190953 30:-0.1423555 31:-0.77018385 32:-0.79436882 33:1.0 34:1.0 35:-0.97368421 36:-0.92105263 37:0.73175878 38:0.73175495 39:0.47537889 40:0.47538948 
1.0 1:0.00432903 2:-0.3131313 3:1.0 4:1.0 5:-0.44204333 6:-0.35272779 7:1.0 8:1.0 9:-0.72534927 10:-0.52370438 11:-0.2558485 12:-0.30914098 13:0.42857143 14:-0.14285714 15:-0.42857144 16:-0.33333332 17:-0.14285715 18:3.0E-8 19:-0.14285715 20:3.0E-8 21:-1.0 22:-1.0 23:0.33333333 25:-0.097243 26:-0.48809146 27:-0.93163172 28:-0.7632633 29:0.24581528 30:-0.37172533 31:-0.41434724 32:-0.36425399 33:-0.37404265 34:-0.37404265 35:-0.71052632 36:-0.71052632 37:-0.48706227 38:-0.44844712 39:-0.5375303 40:-0.57655709 
1.0 1:-0.04377101 2:-0.38047137 3:0.42857143 4:0.42857143 5:-0.49135354 6:-0.45362018 7:1.0 8:1.0 9:-0.71783065 10:-0.68294209 11:-0.40105846 12:-0.39391424 13:0.14285714 14:-0.42857143 15:-0.55555556 16:-0.55555556 17:-0.33333333 18:-0.33333333 19:-0.33333333 20:-0.33333333 21:-1.0 22:-1.0 23:1.0 24:1.0 25:-0.27461251 26:-0.36984491 27:-0.78899774 28:-0.5857365 29:-0.23405304 30:-0.53478495 31:-0.45133124 32:-0.45099513 33:1.0 34:1.0 35:-0.73684211 36:-0.92105263 37:0.4972595 38:0.50562798 39:-0.07147244 40:-0.11091756 
1.0 1:0.09090908 2:-0.21212119 3:0.34693877 4:0.34693877 5:-0.65856032 6:-0.64738797 7:1.0 8:1.0 9:-0.73708583 10:-0.60919099 11:-0.19470225 12:-0.23100051 13:-0.14285714 14:-0.42857143 15:-0.5 16:-0.5 17:-0.24999999 18:-0.24999999 19:-0.24999999 20:-0.24999999 21:-1.0 22:-1.0 23:0.66666667 24:0.66666667 25:0.13115457 26:0.35363716 27:-0.53497731 28:-0.70435268 29:-0.14874477 30:0.23750563 31:-0.04910634 32:-0.11111341 33:1.0 34:1.0 35:-0.89473684 36:-0.92105263 37:0.57104528 38:0.58067014 39:0.04486512 40:0.00225961 
1.0 1:0.33333335 2:0.33333335 3:-0.71428571 4:-0.71428571 5:-0.3529304 6:-0.3529304 7:1.0 8:1.0 9:0.22220503 10:0.22220503 11:0.132475 12:0.36151521 13:0.14285714 14:0.14285714 15:-0.2 16:-0.2 17:0.20000001 18:0.20000001 19:0.20000001 20:0.20000001 21:-1.0 22:-1.0 23:-0.33333333 24:-0.33333333 25:-0.16899595 26:-0.04783811 27:0.35676464 28:0.35676464 29:-0.92200934 30:-0.78994948 31:0.25886362 32:0.34343351 33:-0.97551403 34:-0.97551403 35:-0.5 36:-0.65789474 37:-0.97832629 38:-0.97830326 39:-0.96923159 40:-0.96926969 
1.0 1:0.21212124 2:0.21212124 3:-0.14285714 4:-0.14285714 5:-0.72185617 6:-0.691163 7:1.0 8:1.0 9:-0.7877015 10:-0.7877015 11:-0.06036122 12:0.46166665 13:0.14285714 14:0.14285714 15:-0.2 16:-0.2 17:0.20000001 18:0.20000001 19:0.20000001 20:0.20000001 21:-1.0 22:-1.0 23:-0.33333333 24:-0.33333333 25:-0.86517007 26:-0.65259219 27:-0.79204739 28:-0.80461572 29:-0.74121337 30:-0.50581269 31:-0.7682243 32:-0.79143142 33:1.0 34:1.0 35:-0.73684211 36:-0.42105263 37:0.86566619 38:0.86379265 39:0.64224238 40:0.64772306 
1.0 1:0.00432903 2:0.00432903 3:-0.14285714 4:-0.14285714 5:-0.22135932 6:-0.13453282 7:1.0 8:1.0 9:-0.35371988 10:-0.662821 11:0.0400098 12:0.25181485 13:-0.71428571 14:-0.42857143 15:-0.42857144 16:-0.42857144 17:-0.14285715 18:-0.14285715 19:-0.14285715 20:-0.14285715 21:-1.0 22:-1.0 23:0.33333333 24:0.33333333 25:0.630721 26:0.46110003 27:-0.57634025 28:-0.57634025 29:0.35321102 30:0.430044 31:-0.03661126 32:0.02916531 33:-0.92465122 34:-0.92465122 35:-0.94736842 36:-0.94736842 37:-0.93723068 38:-0.93731302 39:-0.95711438 40:-0.95681953 
1.0 1:-0.03030303 2:-0.03030303 3:1.0 4:1.0 5:-0.93326421 6:-0.93326421 7:1.0 8:1.0 9:-0.23967456 10:-0.83548512 11:0.30015876 12:0.30015876 13:-0.42857143 14:-0.42857143 15:-0.2 16:-0.2 17:0.20000001 18:0.20000001 19:0.20000001 20:0.20000001 21:-1.0 22:-1.0 23:-0.33333333 24:-0.33333333 25:-0.8498939 26:-0.67684348 27:-0.85473967 28:-0.65321689 29:-0.63946915 30:-0.60805918 31:-0.71943845 32:-0.69935789 33:1.0 34:1.0 35:-0.60526316 36:-0.28947368 37:0.87969924 38:0.87967083 39:0.60328696 40:0.60336317 
1.0 1:0.21212124 2:0.21212124 3:1.0 4:1.0 5:-0.68020445 6:-0.68020445 7:1.0 8:1.0 9:-0.73966342 10:-0.8707593 11:0.23133681 12:0.23133681 13:-0.42857143 14:-0.71428571 15:-0.2 16:-0.2 17:0.20000001 18:0.20000001 19:0.20000001 20:0.20000001 21:-1.0 22:-1.0 23:-0.33333333 24:-0.33333333 25:-0.29307792 26:-0.31809054 27:-0.82251792 28:-0.41051839 29:-0.02876837 30:-0.4351884 31:-0.42357525 32:-0.38714082 33:-0.87909556 34:-0.87909556 35:-0.02631579 36:-0.02631579 37:-0.88908281 38:-0.8876525 39:-0.89496608 40:-0.89976723 
1.0 1:0.45454546 2:0.45454546 3:1.0 4:1.0 5:-0.61670928 6:-0.61670928 7:1.0 8:1.0 9:-0.37240838 10:0.19145194 11:0.70087242 12:0.70087242 13:0.14285714 14:-0.14285714 15:-0.2 16:-0.2 17:0.20000001 18:0.20000001 19:0.20000001 20:0.20000001 21:-1.0 22:-1.0 23:-0.33333333 24:-0.33333333 25:-0.53682185 26:-0.39409686 27:-0.48298304 28:-0.59565762 29:-0.65171046 30:-0.39010167 31:-0.48548406 32:-0.48277224 33:-0.72355166 34:-0.72355166 35:-0.76315789 36:-0.84210526 37:-0.74080728 38:-0.74018216 39:-0.77512768 40:-0.77682333 
1.0 1:-0.51515151 2:-0.51515151 3:-0.52380953 4:-0.52380953 5:-0.32902417 6:-0.32902417 7:1.0 8:1.0 9:-0.36560996 10:-0.81534294 11:-0.58331567 12:-0.58331567 13:0.14285714 14:0.14285714 15:-0.42857144 16:-0.42857144 17:-0.14285715 18:-0.14285715 19:-0.14285715 20:-0.14285715 21:-1.0 22:-1.0 23:0.33333333 24:0.33333333 25:0.70115149 26:-0.07095467 27:-0.49802083 28:-0.81294782 29:1.0 30:-0.05546829 31:0.01830687 32:0.06769103 33:-0.99966632 34:-0.99922935 35:-0.73684211 36:-0.60526316 37:-0.99972179 38:-0.99952266 39:-0.99877975 40:-0.99875707 
1.0 1:0.00432903 2:0.00432903 3:-0.14285714 4:-0.14285714 5:-0.13453282 6:-0.13453282 7:1.0 8:1.0 9:0.30195116 10:-0.21446531 11:0.25181485 12:0.25181485 13:-0.42857143 14:-0.42857143 15:-0.42857144 16:-0.42857144 17:-0.14285715 18:-0.14285715 19:-0.14285715 20:-0.14285715 21:-1.0 22:-1.0 23:0.33333333 24:0.33333333 25:0.630721 26:0.16979706 27:-0.21017113 28:-0.34633237 29:0.43039168 30:-0.08155075 31:0.55378136 32:0.53397221 33:-0.92465122 34:-0.92465122 35:-0.94736842 36:-0.94736842 37:-0.93730519 38:-0.93729966 39:-0.95684675 40:-0.95684221 
1.0 1:0.33333335 2:0.33333335 3:0.42857143 4:0.42857143 5:-0.45645653 6:-0.53161932 7:1.0 8:1.0 9:-0.26098509 10:-0.00450227 11:0.56039064 12:0.56039064 13:-0.14285714 14:-0.14285714 15:-0.2 16:-0.2 17:0.20000001 18:0.20000001 19:0.20000001 20:0.20000001 21:-1.0 22:-1.0 23:-0.33333333 24:-0.33333333 25:-0.39157407 26:-0.89402619 27:-0.86125172 28:-0.87446239 29:0.12338316 30:-0.67054359 31:-0.53046791 32:-1.0 33:-0.60141577 34:-0.60141577 35:-0.84210526 36:-0.65789474 37:-0.64343839 38:-0.64346248 39:-0.55814842 40:-0.55810396 
1.0 1:-0.03030303 2:-0.03030303 3:1.0 4:1.0 5:-0.81717719 6:-0.81717719 7:1.0 8:1.0 9:-0.44054998 10:-0.44054998 11:-0.03261768 12:-0.03261768 13:-0.71428571 14:-0.71428571 15:-0.2 16:-0.2 17:0.20000001 18:0.20000001 19:0.20000001 20:0.20000001 21:-1.0 22:-1.0 23:-0.33333333 24:-0.33333333 25:-0.97246463 26:0.60591514 27:-0.76199419 28:-0.48582529 29:-0.86186162 30:0.69229069 31:-0.88078256 32:0.02141091 33:1.0 34:1.0 35:-0.89473684 36:-0.89473684 37:0.88101915 38:0.88113946 39:0.59945747 40:0.59913358 
1.0 1:0.00432903 2:0.00432903 3:0.61904761 4:0.61904761 5:-0.07968742 6:-0.07968742 7:1.0 8:1.0 9:-0.16410831 10:-0.29430625 11:-0.12487001 12:-0.12487001 13:0.42857143 14:0.14285714 15:-0.42857144 16:-0.42857144 17:-0.14285715 18:-0.14285715 19:-0.14285715 20:-0.14285715 21:-1.0 22:-1.0 23:0.33333333 24:0.33333333 25:0.44932079 26:-1.0 27:-0.96045801 28:-0.96045801 29:0.52067285 30:-0.7767888 31:-0.13554581 32:-0.93375346 33:-0.82294149 34:-0.82294149 35:-0.94736842 36:-0.60526316 37:-0.85290131 38:-0.85301877 39:-0.89641495 40:-0.89637413 
1.0 1:0.09090908 2:0.09090908 3:1.0 4:1.0 5:1.0 6:1.0 8:-1.0 9:-0.28282114 10:-0.26706291 11:-0.07628512 12:-0.07628512 13:-0.42857143 14:-0.42857143 16:0.33333332 17:0.50000002 18:1.0 19:0.50000002 20:1.0 21:-1.0 22:-1.0 23:-0.66666667 24:-1.0 25:-0.60152044 26:-0.5476984 27:-0.13410933 28:-0.1540369 29:-0.9562062 30:-0.82259693 31:-0.31641098 32:-0.26968598 33:-0.99931674 34:-0.99931674 35:-0.39473684 36:-0.18421053 37:-0.99955084 38:-0.99955286 39:-0.99855294 40:-0.99825657 
1.0 1:-0.51515151 2:-0.51515151 3:1.0 4:1.0 5:-0.36143939 6:-0.36143939 8:-1.0 9:-0.50329226 10:-0.81534294 11:-0.46480695 12:-0.64320465 13:-0.71428571 14:-0.71428571 16:0.33333332 17:0.50000002 18:1.0 19:0.50000002 20:1.0 21:-1.0 22:-1.0 23:-0.66666667 24:-1.0 25:-0.13603786 26:-0.13603786 27:-0.27182851 28:-0.38260236 29:-0.27969304 30:-0.00550115 31:-0.12700941 32:-0.1008967 33:-0.99922935 34:-0.99995233 35:-0.57894737 36:-0.55263158 37:-0.99935002 38:-0.99966677 39:-0.99899749 40:-0.99865878 
1.0 1:-0.03030303 2:-0.06060603 3:1.0 4:1.0 5:0.74473011 6:0.68091264 7:1.0 9:-0.33014408 10:-0.06428327 11:-0.26102808 12:-0.30721383 13:-1.0 14:-1.0 15:-1.0 16:-1.0 17:-1.0 18:-1.0 19:-1.0 20:-1.0 21:-1.0 22:-1.0 23:-0.33333333 24:-0.66666667 25:-0.08556825 26:-0.41695776 27:-0.50204071 28:-0.38486659 29:-0.14199417 30:-0.53455505 31:-0.29313831 32:-0.32210303 33:-0.99911018 34:-0.99911018 35:-0.44736842 36:-0.84210526 37:-0.99939277 38:-0.99924783 39:-0.99838147 40:-0.99817983 
1.0 1:-0.16883113 2:-0.27272724 3:-0.14285714 4:-0.14285714 5:-0.52640972 6:-0.42221795 7:1.0 9:-0.10024046 10:-0.26706291 11:-0.12254762 12:-0.25007666 13:-0.42857143 14:-0.71428571 15:-0.42857144 16:-0.2 17:-0.14285715 18:0.20000001 19:-0.14285715 20:0.20000001 21:-1.0 22:-1.0 23:0.33333333 24:-0.33333333 25:1.0 26:0.83744656 27:0.59123569 28:0.43942059 29:-0.00616002 30:0.09787817 31:0.88382291 32:0.81197598 33:-0.99805352 34:-0.99864143 35:-0.78947368 36:-0.47368421 37:-0.99860824 38:-0.99892777 39:-0.99779085 40:-0.99812744 
1.0 1:0.09090908 2:0.09090908 3:1.0 4:1.0 5:-0.64821282 6:-0.64821282 7:1.0 8:1.0 9:-0.5518284 10:-0.44956953 11:0.35890705 12:0.35890705 13:0.42857143 14:0.42857143 15:-0.2 16:-0.2 17:0.20000001 18:0.20000001 19:0.20000001 20:0.20000001 21:-1.0 22:-1.0 23:-0.33333333 24:-0.33333333 25:-0.18716807 26:-0.19305522 27:-0.69172006 28:-0.40687302 29:0.05078628 30:-0.26734106 31:-0.32466288 32:-0.30582647 33:-0.37404265 34:-0.99045826 35:-0.76315789 36:0.05263158 37:-0.41775325 38:-0.99170836 39:-0.48187608 40:-0.99069073 
1.0 1:-0.63636362 2:-0.63636362 3:-0.14285714 4:-0.14285714 5:-0.34016691 6:-0.34016691 7:1.0 8:1.0 9:-0.13588402 10:-0.54662236 11:-0.20750599 12:-0.20750599 13:-0.71428571 14:-0.42857143 15:-0.2 16:-0.2 17:0.20000001 18:0.20000001 19:0.20000001 20:0.20000001 21:-1.0 22:-1.0 23:-0.33333333 24:-0.33333333 25:0.19113301 26:-0.12237025 27:0.1436126 28:0.45615312 29:-0.33975355 30:-0.91114307 31:0.41227155 32:0.34016715 33:-0.99679029 34:-0.97097753 35:-0.92105263 36:-0.78947368 37:-0.99730069 38:-0.97314337 39:-0.99629843 40:-0.97586176 
1.0 1:-0.51515151 2:-0.51515151 3:-0.14285714 4:-0.14285714 5:-0.52462978 6:-0.82244466 7:1.0 8:1.0 9:-1.0 10:-1.0 11:-0.54045516 12:-0.50896962 13:-0.42857143 14:-0.42857143 15:-0.2 16:-0.2 17:0.20000001 18:0.20000001 19:0.20000001 20:0.20000001 21:-1.0 22:-1.0 23:-0.33333333 24:-0.33333333 25:-0.44091704 26:-0.20511335 27:0.07013796 28:-0.04490731 29:-0.96213174 30:-0.6606443 31:-0.03727493 32:0.02242678 33:-0.37404265 34:-0.37404265 35:-0.63157895 36:0.07894737 37:-0.37275933 38:-0.37284443 39:-0.09841861 40:-0.09846307 
1.0 1:-0.16883113 2:-0.16883113 3:0.61904761 4:0.61904761 5:-1.0 6:-0.40904927 7:1.0 8:1.0 9:-0.154969 10:-0.26600769 11:-0.05800753 12:-0.05375444 13:-0.14285714 14:-0.14285714 15:-0.42857144 16:-0.42857144 17:-0.14285715 18:-0.14285715 19:-0.14285715 20:-0.14285715 21:-1.0 22:-1.0 23:0.33333333 24:0.33333333 25:-0.23416929 26:-0.27959193 27:-0.99224822 28:-0.68338162 29:-0.0341441 30:-0.33236873 31:-0.39242982 32:-0.42347148 33:-0.92465122 34:-0.92465122 35:-0.86842105 36:-0.65789474 37:-0.93745968 38:-0.93756204 39:-0.95588053 40:-0.95586238 
1.0 1:0.09090908 2:0.09090908 3:0.23809525 4:0.23809525 5:-0.25763351 6:-0.87376394 7:1.0 8:1.0 9:-0.67388077 10:-0.71555776 11:0.06593056 12:0.05365851 13:0.42857143 14:1.0 15:-0.42857144 16:-0.42857144 17:-0.14285715 18:-0.14285715 19:-0.14285715 20:-0.14285715 21:-1.0 22:-1.0 23:0.33333333 24:0.33333333 25:-0.40177024 26:-0.38882222 27:-0.71759829 28:-0.83336281 29:-0.43631376 30:-0.2345852 31:-0.47712642 32:-0.43735018 33:1.0 34:1.0 35:-0.78947368 36:-0.92105263 37:0.6672561 38:0.66080884 39:0.14611287 40:0.16966049 
1.0 1:0.52380951 2:0.52380951 3:-0.14285714 4:-0.14285714 5:-0.51463992 6:-0.31204477 7:1.0 8:1.0 9:-0.20321342 10:0.03243552 11:1.0 12:0.9585754 13:-0.14285714 14:-0.14285714 15:-0.42857144 16:-0.42857144 17:-0.14285715 18:-0.14285715 19:-0.14285715 20:-0.14285715 21:-1.0 22:-1.0 23:0.33333333 24:0.33333333 25:-0.11137076 26:-0.11137076 27:-0.82637643 28:-0.64511162 29:-0.14725931 30:-0.1798885 31:-0.33763199 32:-0.34613912 33:-0.99733054 34:-0.99733054 35:-0.97368421 36:-0.97368421 37:-0.99745008 38:-0.99749213 39:-0.99692897 40:-0.99691536 
1.0 1:0.19191919 2:0.19191919 3:0.08571429 4:-0.37142857 5:-0.61400801 6:-0.61400801 7:1.0 8:1.0 9:-0.36952768 10:-0.34776154 11:0.29546219 12:0.29546219 13:0.14285714 14:0.14285714 15:-0.33333332 16:-0.33333332 17:3.0E-8 18:3.0E-8 19:3.0E-8 20:3.0E-8 21:-1.0 22:-1.0 25:-0.59354747 26:-0.62321286 27:-0.60936747 28:-0.60936747 29:-0.62765118 30:-0.65457463 31:-0.59977223 32:-0.60805497 33:1.0 34:1.0 35:-0.73684211 36:-0.73684211 37:0.75801751 38:0.75801751 39:0.364929 40:0.364929 
1.0 1:0.09090908 2:0.09090908 3:-0.9047619 4:-0.52380953 5:-0.25030149 6:-0.34754717 7:1.0 8:1.0 9:0.23340437 10:-0.60677878 11:0.25977606 12:0.22900926 13:-0.42857143 14:-0.14285714 15:-0.42857144 16:-0.42857144 17:-0.14285715 18:-0.14285715 19:-0.14285715 20:-0.14285715 21:-1.0 22:-1.0 23:0.33333333 24:0.33333333 25:0.23305362 26:0.56623768 27:0.50230889 28:0.4144859 29:-0.62761633 30:-0.24863036 31:0.81307801 32:0.87578512 33:-0.89534274 34:-0.89534274 35:-0.89473684 36:-0.89473684 37:-0.91284447 38:-0.91319067 39:-0.93951831 40:-0.93887416 
1.0 1:-0.51515151 2:-0.51515151 3:0.61904761 4:-0.52380953 5:-0.01297575 6:-0.01297575 7:1.0 8:1.0 9:-0.43553768 10:-0.61450871 11:-0.44570142 12:-0.44570142 13:-1.0 14:-1.0 15:-1.0 16:-1.0 17:-1.0 18:-1.0 19:-1.0 20:-1.0 21:-1.0 22:-1.0 23:0.33333333 24:0.33333333 25:0.35084639 26:0.11044128 27:-0.58895559 28:-0.18818145 29:0.35354698 30:0.01033697 31:-0.07317529 32:-0.0247536 33:-0.99987288 34:-0.99990466 35:-0.81578947 36:-0.81578947 37:-0.99997606 38:-1.0 39:-0.99998186 40:-1.0 
1.0 1:-0.51515151 2:-0.51515151 3:-0.71428571 4:0.42857143 5:1.0 6:1.0 9:0.94756797 10:0.1350268 11:-1.0 12:-1.0 13:-1.0 14:-1.0 15:-1.0 16:-1.0 17:-1.0 18:-1.0 19:-1.0 20:-1.0 21:-1.0 22:-1.0 23:-0.33333333 24:-0.33333333 25:-0.51876399 26:-0.56874161 27:-0.76433736 28:-0.74257822 29:-0.30991863 30:-0.36966625 31:-0.65603178 32:-0.66783113 33:-0.99929291 34:-0.99929291 35:0.02631579 36:-0.63157895 37:-0.99967575 38:-0.99954145 39:-0.99859739 40:-0.99859739 
1.0 1:0.33333335 2:-0.27272724 3:0.42857143 4:0.42857143 5:-0.72185617 6:-0.65287252 7:1.0 8:1.0 9:-0.35030941 10:-0.17040946 11:0.15133315 12:0.09074452 13:-0.14285714 14:-0.14285714 15:-0.2 16:-0.2 17:0.20000001 18:0.20000001 19:0.20000001 20:0.20000001 21:-1.0 22:-1.0 23:-0.33333333 24:-0.33333333 25:-0.32835379 26:-0.32704344 27:-0.94298347 28:-0.90498027 29:0.21416818 30:0.14650204 31:-0.50465148 32:-0.47117387 33:1.0 34:1.0 35:0.63157895 36:0.63157895 37:0.83576697 38:0.85309687 39:0.73852589 40:0.68015627 
1.0 1:0.46969699 2:0.24242424 3:0.34693877 4:0.34693877 5:-0.59205582 6:-0.56269269 7:1.0 8:1.0 9:-0.42547055 10:-0.3214614 11:0.34738725 12:0.32730886 13:0.14285714 14:0.14285714 15:-0.5 16:-0.5 17:-0.24999999 18:-0.24999999 19:-0.24999999 20:-0.24999999 21:-1.0 22:-1.0 23:0.66666667 24:0.66666667 25:-0.44361464 26:-0.32349804 27:-0.98493677 28:-0.94441375 29:-0.19097607 30:-0.20260595 31:-0.70338673 32:-0.72742554 33:1.0 34:1.0 35:-0.47368421 36:-0.60526316 37:0.55890653 38:0.56157849 39:0.10740796 40:0.0971158 
1.0 1:0.09090908 2:-0.16883113 3:-0.14285714 4:-0.14285714 5:-0.27687565 6:-0.19068063 7:1.0 8:1.0 9:-0.59259833 10:-0.43108077 11:-0.25681387 12:-0.27114105 13:0.14285714 14:-0.14285714 15:-0.42857144 16:-0.42857144 17:-0.14285715 18:-0.14285715 19:-0.14285715 20:-0.14285715 21:-1.0 22:-1.0 23:0.33333333 24:0.33333333 25:-0.02239496 26:0.04729008 27:-0.71201236 28:-0.70816451 29:-0.07602036 30:0.19035126 31:0.15062168 32:0.12467064 33:-0.91331395 34:-0.88800172 35:-0.84210526 36:-0.71052632 37:-0.92921314 38:-0.90692517 39:-0.93560353 40:-0.9351862 
1.0 1:-0.38047137 2:0.02356906 3:0.42857143 4:0.42857143 5:-0.6177504 6:-0.55342644 7:1.0 8:1.0 9:-0.38395411 10:-0.28917376 11:-0.16158229 12:-0.13371493 13:1.0 14:0.71428571 15:-0.55555556 16:-0.55555556 17:-0.33333333 18:-0.33333333 19:-0.33333333 20:-0.33333333 21:-1.0 22:-1.0 23:1.0 24:1.0 25:0.09775475 26:0.14094044 27:-1.0 28:-0.89397207 29:0.56034036 30:0.39274238 31:-0.22929801 32:-0.18218114 33:1.0 34:1.0 35:-0.86842105 36:-0.71052632 37:0.50410292 38:0.50433753 39:-0.10445745 40:-0.10562528 
1.0 1:0.49494951 2:0.49494951 3:1.0 4:1.0 5:-0.74245334 6:-0.74245334 7:1.0 8:1.0 9:-0.53604415 10:-0.53604415 11:-0.02069481 12:-0.15391132 13:-0.71428571 14:-0.71428571 15:-0.33333332 16:-0.33333332 17:3.0E-8 18:3.0E-8 19:3.0E-8 20:3.0E-8 21:-1.0 22:-1.0 25:-0.22445141 26:-0.22445141 27:-0.59110581 28:-0.57903431 29:-0.34570441 30:-0.34945349 31:-0.32799433 32:-0.32048063 33:-0.98106747 34:-0.98106747 35:-0.92105263 36:-0.92105263 37:-0.98374247 38:-0.98375414 39:-0.98566624 40:-0.98563448 
1.0 1:-0.42857141 2:-0.42857141 3:0.23809525 4:0.23809525 5:0.11263324 6:0.11263324 7:1.0 8:1.0 9:-0.32288117 10:-0.26915335 11:-0.64030582 12:-0.47030155 13:-0.14285714 14:-0.14285714 15:-0.42857144 16:-0.42857144 17:-0.14285715 18:-0.14285715 19:-0.14285715 20:-0.14285715 21:-1.0 22:-1.0 23:0.33333333 24:0.33333333 25:-0.25387361 26:-0.25387361 27:-0.42490459 28:-0.61211889 29:-0.26823636 30:-0.15398533 31:-0.07370584 32:-0.09640153 33:-0.89902914 34:-0.89902914 35:-0.81578947 36:-0.81578947 37:-0.91609548 38:-0.91608762 39:-0.94159591 40:-0.94162312 
1.0 1:0.01515155 2:0.01515155 3:-0.30612245 4:-0.30612245 5:-0.84326066 6:-0.78930325 7:1.0 8:1.0 9:-0.58586115 10:-0.58586115 11:0.02692138 12:0.50465909 13:0.14285714 14:-0.14285714 15:-0.5 16:-0.5 17:-0.24999999 18:-0.24999999 19:-0.24999999 20:-0.24999999 21:-1.0 22:-1.0 23:0.66666667 24:0.66666667 25:0.07097179 26:0.0060009 27:-0.63399626 28:-0.06382274 29:0.10726012 30:-0.46887516 31:-0.04843644 32:-0.00940124 33:-0.8283837 34:-0.8283837 35:-0.92105263 36:-0.97368421 37:-0.86443021 38:-0.86437708 39:-0.91420722 40:-0.91440965 
1.0 1:0.15824915 2:0.09090908 3:0.14285714 4:0.14285714 5:-0.51369529 6:-0.59585886 7:1.0 8:1.0 9:-0.47371991 10:-0.4194252 11:0.19410387 12:-0.01236692 13:0.14285714 14:0.42857143 15:-0.55555556 16:-0.55555556 17:-0.33333333 18:-0.33333333 19:-0.33333333 20:-0.33333333 21:-1.0 22:-1.0 23:1.0 24:1.0 25:-0.38965518 26:-0.20048554 27:-0.70552677 28:-0.5522101 29:-0.53864661 30:-0.48679103 31:-0.29040721 32:-0.33990068 33:1.0 34:1.0 35:-1.0 36:-1.0 37:0.5050898 38:0.50486699 39:-0.10888886 40:-0.10789038 
1.0 1:-0.15151513 2:-0.15151513 3:1.0 4:1.0 5:-0.82963678 6:-0.85921567 7:1.0 8:1.0 9:-0.25805427 10:-0.59853691 11:-0.10647337 12:-0.10647337 13:-0.42857143 14:-0.42857143 15:-0.2 16:-0.2 17:0.20000001 18:0.20000001 19:0.20000001 20:0.20000001 21:-1.0 22:-1.0 23:-0.33333333 24:-0.33333333 25:0.3275235 26:-0.16037756 27:-0.68338162 28:-0.74255859 29:0.42085442 30:-0.07487349 31:-0.1578191 32:-0.18305704 33:-0.92465122 34:-0.92465122 35:-0.65789474 36:-0.36842105 37:-0.92928332 38:-0.92934738 39:-0.93953555 40:-0.93893858 
1.0 1:0.21212124 2:0.21212124 3:0.42857143 4:0.42857143 5:-0.80056438 6:-0.80056438 7:1.0 8:1.0 9:-0.5075261 10:0.06858994 11:0.27424991 12:0.27988531 13:-0.14285714 14:-0.42857143 15:-0.2 16:-0.2 17:0.20000001 18:0.20000001 19:0.20000001 20:0.20000001 21:-1.0 22:-1.0 23:-0.33333333 24:-0.33333333 25:-0.78541124 26:-0.47577959 27:-0.33931773 28:-0.7138957 29:-1.0 30:-0.3685556 31:-0.52370738 32:-0.53036648 33:-0.63832745 34:-0.63832745 35:0.86842105 36:-0.76315789 37:-0.66676471 38:-0.66971716 39:-0.69132336 40:-0.67961261 
1.0 1:-0.51515151 2:-0.51515151 3:-0.14285714 4:-0.14285714 5:-0.2155709 6:-0.2155709 7:1.0 8:1.0 9:-0.47091378 10:-0.55521417 11:-0.66742084 12:-0.66742084 13:-1.0 14:-1.0 15:-1.0 16:-1.0 17:-1.0 18:-1.0 19:-1.0 20:-1.0 21:-1.0 22:-1.0 23:0.33333333 24:0.33333333 25:0.51026214 26:0.73900582 27:-0.2392479 28:-0.22243402 29:0.08812631 30:0.21580367 31:0.70833564 32:0.7321514 33:-0.99976166 34:-0.99965837 35:-0.71052632 36:-0.68421053 37:-0.99987074 38:-0.99979254 39:-0.99939214 40:-0.99941029 
1.0 1:-0.21212119 2:-0.21212119 3:0.54285714 4:0.54285714 5:-0.70544597 6:-0.72219381 7:1.0 8:1.0 9:-0.40794194 10:-0.83400418 11:-0.25539447 12:-0.25923744 13:-0.14285714 14:-0.42857143 15:-0.33333332 16:-0.33333332 17:3.0E-8 18:3.0E-8 19:3.0E-8 20:3.0E-8 21:-1.0 22:-1.0 25:-0.50950888 26:-0.41327504 27:-0.39745202 28:-0.43352524 29:-0.71954425 30:-0.53172148 31:-0.39665394 32:-0.35259436 33:-0.92465122 34:-0.92465122 35:-0.86842105 36:-0.36842105 37:-0.93356466 38:-0.93383459 39:-0.94915479 40:-0.94829215 
1.0 1:-0.11111108 2:-0.11111108 3:1.0 4:1.0 5:-0.60408085 6:-0.60408085 7:1.0 8:1.0 9:-0.4630476 10:-0.50444148 11:-0.19384809 12:-0.19384809 13:-0.71428571 14:-0.71428571 15:-0.33333332 16:-0.33333332 17:3.0E-8 18:3.0E-8 19:3.0E-8 20:3.0E-8 21:-1.0 22:-1.0 25:0.13115457 26:0.60591514 27:-0.76199419 28:-0.48582529 29:0.2541803 30:0.62466204 31:-0.53520812 32:0.18654665 33:1.0 34:1.0 35:-0.89473684 36:-0.89473684 37:0.76777683 38:0.76796931 39:0.33281545 40:0.33254554 
1.0 1:0.09090908 2:0.09090908 3:0.08571429 4:0.08571429 5:-0.61974821 6:-0.61974821 7:1.0 8:1.0 9:0.05766159 10:-0.26439884 11:0.20592219 12:0.20592219 13:0.14285714 14:0.14285714 15:-0.33333332 16:-0.33333332 17:3.0E-8 18:3.0E-8 19:3.0E-8 20:3.0E-8 21:-1.0 22:-1.0 25:0.28087774 26:-0.90056016 27:-0.30292018 28:-0.86605646 29:-0.07366909 30:-0.76451185 31:0.36194033 32:-0.8081376 33:-0.96990498 34:-0.96990498 35:-0.89473684 36:-0.89473684 37:-0.97382254 38:-0.97381941 39:-0.97893446 40:-0.97893446 
1.0 1:-0.17845115 2:-0.17845115 3:0.71428571 4:0.71428571 5:-0.10028862 6:-0.11185342 7:1.0 8:1.0 9:-0.56027648 10:-0.45343813 11:-0.41564842 12:-0.45061861 13:0.42857143 14:0.14285714 15:-0.55555556 16:-0.55555556 17:-0.33333333 18:-0.33333333 19:-0.33333333 20:-0.33333333 21:-1.0 22:-1.0 23:1.0 24:1.0 25:-0.57751815 26:-0.01776894 27:-0.86686015 28:-0.83307836 29:-0.41535943 30:0.14943054 31:-0.68932892 32:-0.36553938 33:1.0 34:1.0 35:-0.86842105 36:-0.86842105 37:0.50070527 38:0.50564864 39:-0.08853828 40:-0.11134095 
1.0 1:0.09090908 2:0.09090908 3:1.0 4:1.0 5:1.0 6:1.0 8:-1.0 9:-0.28282114 10:-0.26706291 11:-0.07628512 12:-0.07628512 13:-0.42857143 14:-0.42857143 16:0.33333332 17:0.50000002 18:1.0 19:0.50000002 20:1.0 21:-1.0 22:-1.0 23:-0.66666667 24:-1.0 25:-0.60152044 26:-0.5476984 27:-0.13410933 28:-0.1540369 29:-0.9562062 30:-0.82259693 31:-0.31641098 32:-0.26968598 33:-0.99931674 34:-0.99931674 35:-0.39473684 36:-0.18421053 37:-0.99955084 38:-0.99955286 39:-0.99855294 40:-0.99825657 
1.0 1:-0.51515151 2:-0.51515151 3:1.0 4:1.0 5:-0.36143939 6:-0.36143939 8:-1.0 9:-0.50329226 10:-0.81534294 11:-0.46480695 12:-0.64320465 13:-0.71428571 14:-0.71428571 16:0.33333332 17:0.50000002 18:1.0 19:0.50000002 20:1.0 21:-1.0 22:-1.0 23:-0.66666667 24:-1.0 25:-0.13603786 26:-0.13603786 27:-0.27182851 28:-0.38260236 29:-0.27969304 30:-0.00550115 31:-0.12700941 32:-0.1008967 33:-0.99922935 34:-0.99995233 35:-0.57894737 36:-0.55263158 37:-0.99935002 38:-0.99966677 39:-0.99899749 40:-0.99865878 
1.0 1:-0.03030303 2:-0.06060603 3:1.0 4:1.0 5:0.74473011 6:0.68091264 7:1.0 9:-0.33014408 10:-0.06428327 11:-0.26102808 12:-0.30721383 13:-1.0 14:-1.0 15:-1.0 16:-1.0 17:-1.0 18:-1.0 19:-1.0 20:-1.0 21:-1.0 22:-1.0 23:-0.33333333 24:-0.66666667 25:-0.08556825 26:-0.41695776 27:-0.50204071 28:-0.38486659 29:-0.14199417 30:-0.53455505 31:-0.29313831 32:-0.32210303 33:-0.99911018 34:-0.99911018 35:-0.44736842 36:-0.84210526 37:-0.99939277 38:-0.99924783 39:-0.99838147 40:-0.99817983 
1.0 1:-0.16883113 2:-0.27272724 3:-0.14285714 4:-0.14285714 5:-0.52640972 6:-0.42221795 7:1.0 9:-0.10024046 10:-0.26706291 11:-0.12254762 12:-0.25007666 13:-0.42857143 14:-0.71428571 15:-0.42857144 16:-0.2 17:-0.14285715 18:0.20000001 19:-0.14285715 20:0.20000001 21:-1.0 22:-1.0 23:0.33333333 24:-0.33333333 25:1.0 26:0.83744656 27:0.59123569 28:0.43942059 29:-0.00616002 30:0.09787817 31:0.88382291 32:0.81197598 33:-0.99805352 34:-0.99864143 35:-0.78947368 36:-0.47368421 37:-0.99860824 38:-0.99892777 39:-0.99779085 40:-0.99812744 
1.0 1:0.09090908 2:0.09090908 3:1.0 4:1.0 5:-0.64821282 6:-0.64821282 7:1.0 8:1.0 9:-0.5518284 10:-0.44956953 11:0.35890705 12:0.35890705 13:0.42857143 14:0.42857143 15:-0.2 16:-0.2 17:0.20000001 18:0.20000001 19:0.20000001 20:0.20000001 21:-1.0 22:-1.0 23:-0.33333333 24:-0.33333333 25:-0.18716807 26:-0.19305522 27:-0.69172006 28:-0.40687302 29:0.05078628 30:-0.26734106 31:-0.32466288 32:-0.30582647 33:-0.37404265 34:-0.99045826 35:-0.76315789 36:0.05263158 37:-0.41775325 38:-0.99170836 39:-0.48187608 40:-0.99069073 
1.0 1:-0.42857141 2:-0.42857141 3:-0.52380953 4:-0.52380953 5:-0.10038108 6:-0.11933819 7:1.0 8:1.0 9:-0.61450871 10:-0.61450871 11:-0.31715473 12:-0.31715473 13:-1.0 14:-0.71428571 15:-1.0 16:-0.42857144 17:-1.0 18:-0.14285715 19:-1.0 20:-0.14285715 21:-1.0 22:-1.0 23:0.33333333 24:0.33333333 25:-0.03974601 26:0.08424238 27:0.35599857 28:0.36634557 29:-0.73170081 30:-0.57458428 31:0.28229507 32:0.33639794 33:-0.98676391 34:-0.97133505 35:-0.84210526 36:-0.84210526 37:-0.98905391 38:-0.97618026 39:-0.99251974 40:-0.98372397 
1.0 1:-0.28787877 2:-0.28787877 3:-0.30612245 4:-0.30612245 5:-0.51275429 6:-0.50426897 7:1.0 8:1.0 9:0.06680669 10:0.06680669 11:-0.37767221 12:-0.38244373 13:-0.14285714 14:-0.14285714 15:-0.5 16:-0.5 17:-0.24999999 18:-0.24999999 19:-0.24999999 20:-0.24999999 21:-1.0 22:-1.0 23:0.66666667 24:0.66666667 25:-0.17197492 26:-0.17197492 27:-0.63852992 28:-0.79083443 29:-0.19741761 30:-0.02860375 31:-0.18410272 32:-0.14652271 33:-0.99545556 34:-0.78828614 35:-0.73684211 36:-0.73684211 37:-0.99684069 38:-0.83327123 39:-0.99546886 40:-0.89196774 
1.0 1:-0.51515151 2:-0.51515151 3:-0.14285714 4:-0.14285714 5:-0.52462978 6:-0.82244466 7:1.0 8:1.0 9:-1.0 10:-1.0 11:-0.54045516 12:-0.50896962 13:-0.42857143 14:-0.42857143 15:-0.2 16:-0.2 17:0.20000001 18:0.20000001 19:0.20000001 20:0.20000001 21:-1.0 22:-1.0 23:-0.33333333 24:-0.33333333 25:-0.44091704 26:-0.20511335 27:0.07013796 28:-0.04490731 29:-0.96213174 30:-0.6606443 31:-0.03727493 32:0.02242678 33:-0.37404265 34:-0.37404265 35:-0.63157895 36:0.07894737 37:-0.37275933 38:-0.37284443 39:-0.09841861 40:-0.09846307 
1.0 1:-0.16883113 2:-0.16883113 3:0.61904761 4:0.61904761 5:-1.0 6:-0.40904927 7:1.0 8:1.0 9:-0.154969 10:-0.26600769 11:-0.05800753 12:-0.05375444 13:-0.14285714 14:-0.14285714 15:-0.42857144 16:-0.42857144 17:-0.14285715 18:-0.14285715 19:-0.14285715 20:-0.14285715 21:-1.0 22:-1.0 23:0.33333333 24:0.33333333 25:-0.23416929 26:-0.27959193 27:-0.99224822 28:-0.68338162 29:-0.0341441 30:-0.33236873 31:-0.39242982 32:-0.42347148 33:-0.92465122 34:-0.92465122 35:-0.86842105 36:-0.65789474 37:-0.93745968 38:-0.93756204 39:-0.95588053 40:-0.95586238 
1.0 1:0.09090908 2:0.09090908 3:0.23809525 4:0.23809525 5:-0.87376394 6:-0.25763351 7:1.0 8:1.0 9:-0.71555776 10:-0.67388077 11:0.05365851 12:0.06593056 13:1.0 14:0.42857143 15:-0.42857144 16:-0.42857144 17:-0.14285715 18:-0.14285715 19:-0.14285715 20:-0.14285715 21:-1.0 22:-1.0 23:0.33333333 24:0.33333333 25:-0.38882222 26:-0.40177024 27:-0.83336281 28:-0.71759829 29:-0.2345852 30:-0.43631376 31:-0.43735018 32:-0.47712642 33:1.0 34:1.0 35:-0.92105263 36:-0.78947368 37:0.66080884 38:0.6672561 39:0.16966049 40:0.14611287 
1.0 1:0.09090908 2:0.09090908 3:-0.52380953 4:-0.9047619 5:-0.34754717 6:-0.25030149 7:1.0 8:1.0 9:-0.60677878 10:0.23340437 11:0.22900926 12:0.25977606 13:-0.14285714 14:-0.42857143 15:-0.42857144 16:-0.42857144 17:-0.14285715 18:-0.14285715 19:-0.14285715 20:-0.14285715 21:-1.0 22:-1.0 23:0.33333333 24:0.33333333 25:0.56623768 26:0.23305362 27:0.4144859 28:0.50230889 29:-0.24863036 30:-0.62761633 31:0.87578512 32:0.81307801 33:-0.89534274 34:-0.89534274 35:-0.89473684 36:-0.89473684 37:-0.91319067 38:-0.91284447 39:-0.93887416 40:-0.93951831 
1.0 1:0.33333335 2:-0.27272724 3:0.42857143 4:0.42857143 5:-0.72185617 6:-0.65287252 7:1.0 8:1.0 9:-0.35030941 10:-0.17040946 11:0.15133315 12:0.09074452 13:-0.14285714 14:-0.14285714 15:-0.2 16:-0.2 17:0.20000001 18:0.20000001 19:0.20000001 20:0.20000001 21:-1.0 22:-1.0 23:-0.33333333 24:-0.33333333 25:-0.32835379 26:-0.32704344 27:-0.94298347 28:-0.90498027 29:0.21416818 30:0.14650204 31:-0.50465148 32:-0.47117387 33:1.0 34:1.0 35:0.63157895 36:0.63157895 37:0.83576697 38:0.85309687 39:0.73852589 40:0.68015627 
1.0 1:0.46969699 2:0.24242424 3:0.34693877 4:0.34693877 5:-0.59205582 6:-0.56269269 7:1.0 8:1.0 9:-0.42547055 10:-0.3214614 11:0.34738725 12:0.32730886 13:0.14285714 14:0.14285714 15:-0.5 16:-0.5 17:-0.24999999 18:-0.24999999 19:-0.24999999 20:-0.24999999 21:-1.0 22:-1.0 23:0.66666667 24:0.66666667 25:-0.44361464 26:-0.32349804 27:-0.98493677 28:-0.94441375 29:-0.19097607 30:-0.20260595 31:-0.70338673 32:-0.72742554 33:1.0 34:1.0 35:-0.47368421 36:-0.60526316 37:0.55890653 38:0.56157849 39:0.10740796 40:0.0971158 
1.0 1:0.09090908 2:-0.16883113 3:-0.14285714 4:-0.14285714 5:-0.27687565 6:-0.19068063 7:1.0 8:1.0 9:-0.59259833 10:-0.43108077 11:-0.25681387 12:-0.27114105 13:0.14285714 14:-0.14285714 15:-0.42857144 16:-0.42857144 17:-0.14285715 18:-0.14285715 19:-0.14285715 20:-0.14285715 21:-1.0 22:-1.0 23:0.33333333 24:0.33333333 25:-0.02239496 26:0.04729008 27:-0.71201236 28:-0.70816451 29:-0.07602036 30:0.19035126 31:0.15062168 32:0.12467064 33:-0.91331395 34:-0.88800172 35:-0.84210526 36:-0.71052632 37:-0.92921314 38:-0.90692517 39:-0.93560353 40:-0.9351862 
1.0 1:0.02356906 2:-0.38047137 3:0.42857143 4:0.42857143 5:-0.55342644 6:-0.6177504 7:1.0 8:1.0 9:-0.28917376 10:-0.38395411 11:-0.13371493 12:-0.16158229 13:0.71428571 14:1.0 15:-0.55555556 16:-0.55555556 17:-0.33333333 18:-0.33333333 19:-0.33333333 20:-0.33333333 21:-1.0 22:-1.0 23:1.0 24:1.0 25:0.14094044 26:0.09775475 27:-0.89397207 28:-1.0 29:0.39274238 30:0.56034036 31:-0.18218114 32:-0.22929801 33:1.0 34:1.0 35:-0.71052632 36:-0.86842105 37:0.50433753 38:0.50410292 39:-0.10562528 40:-0.10445745 
1.0 1:0.01515155 2:0.01515155 3:-0.30612245 4:-0.30612245 5:-0.84326066 6:-0.78930325 7:1.0 8:1.0 9:-0.58586115 10:-0.58586115 11:0.02692138 12:0.50465909 13:0.14285714 14:-0.14285714 15:-0.5 16:-0.5 17:-0.24999999 18:-0.24999999 19:-0.24999999 20:-0.24999999 21:-1.0 22:-1.0 23:0.66666667 24:0.66666667 25:0.07097179 26:0.0060009 27:-0.63399626 28:-0.06382274 29:0.10726012 30:-0.46887516 31:-0.04843644 32:-0.00940124 33:-0.8283837 34:-0.8283837 35:-0.92105263 36:-0.97368421 37:-0.86443021 38:-0.86437708 39:-0.91420722 40:-0.91440965 
1.0 1:-0.15151513 2:-0.15151513 3:1.0 4:1.0 5:-0.82963678 6:-0.85921567 7:1.0 8:1.0 9:-0.25805427 10:-0.59853691 11:-0.10647337 12:-0.10647337 13:-0.42857143 14:-0.42857143 15:-0.2 16:-0.2 17:0.20000001 18:0.20000001 19:0.20000001 20:0.20000001 21:-1.0 22:-1.0 23:-0.33333333 24:-0.33333333 25:0.3275235 26:-0.16037756 27:-0.68338162 28:-0.74255859 29:0.42085442 30:-0.07487349 31:-0.1578191 32:-0.18305704 33:-0.92465122 34:-0.92465122 35:-0.65789474 36:-0.36842105 37:-0.92928332 38:-0.92934738 39:-0.93953555 40:-0.93893858 
1.0 1:0.21212124 2:0.21212124 3:0.42857143 4:0.42857143 5:-0.80056438 6:-0.80056438 7:1.0 8:1.0 9:0.06858994 10:-0.5075261 11:0.27988531 12:0.27424991 13:-0.42857143 14:-0.14285714 15:-0.2 16:-0.2 17:0.20000001 18:0.20000001 19:0.20000001 20:0.20000001 21:-1.0 22:-1.0 23:-0.33333333 24:-0.33333333 25:-0.47577959 26:-0.78541124 27:-0.7138957 28:-0.33931773 29:-0.3685556 30:-1.0 31:-0.53036648 32:-0.52370738 33:-0.63832745 34:-0.63832745 35:-0.76315789 36:0.86842105 37:-0.66971716 38:-0.66676471 39:-0.67961261 40:-0.69132336 
-1.0 1:0.09090908 2:0.09090908 3:1.0 4:1.0 5:0.48946023 6:0.59156818 8:1.0 9:0.32377142 10:-0.30950265 11:-0.02642982 12:-0.03640089 13:-0.14285714 14:-0.14285714 16:-0.2 17:0.50000002 18:0.20000001 19:0.50000002 20:0.20000001 21:-1.0 22:-1.0 23:-0.66666667 24:-0.33333333 25:-0.80022115 26:-0.80022115 27:-0.83374643 28:-0.83374643 29:-0.5712624 30:-0.65723641 31:-0.85713247 32:-0.85549298 33:-0.99963454 34:-0.99963454 35:0.23684211 36:0.23684211 37:-0.99996079 38:-0.99999039 39:-0.99831479 40:-0.99833066 
-1.0 1:0.09090908 2:0.09090908 3:1.0 4:1.0 5:-0.11680576 6:-0.11680576 7:-1.0 9:-0.36497229 10:-0.80435334 11:0.12924455 12:0.12924455 13:-0.14285714 14:-0.14285714 17:0.50000002 18:0.50000002 19:0.50000002 20:0.50000002 21:-1.0 22:-1.0 23:-0.66666667 24:-0.66666667 25:-0.71571496 26:-0.71571496 27:-0.82281017 28:-0.89483714 29:-0.50409598 30:-0.4454924 31:-0.75787741 32:-0.78278406 33:1.0 34:1.0 35:-0.57894737 36:-0.57894737 37:1.0 38:1.0 39:1.0 40:1.0 
-1.0 1:0.49494951 2:0.49494951 3:-0.37142857 4:-0.37142857 5:-0.33712797 6:-0.34962134 8:1.0 9:-0.87412971 10:-0.87412971 11:0.10693506 12:0.10693506 13:-0.71428571 14:-0.42857143 15:-0.33333332 16:-0.33333332 17:3.0E-8 18:3.0E-8 19:3.0E-8 20:3.0E-8 21:-1.0 22:-1.0 25:0.51304179 26:0.14653933 27:-0.32535856 28:-0.11014078 29:0.22596098 30:-0.19556712 31:0.49138464 32:0.47836089 33:-0.85124893 34:-0.85124893 35:-0.84210526 36:-0.92105263 37:-0.86909905 38:-0.8691277 39:-0.89915862 40:-0.8991745 
-1.0 1:0.09090908 2:0.09090908 3:1.0 4:1.0 5:-0.62947277 6:-0.60820029 7:1.0 8:1.0 9:-0.15009876 10:-0.47056143 11:0.17145252 12:0.21025084 13:-0.14285714 14:-0.14285714 15:-0.2 16:-0.2 17:0.20000001 18:0.20000001 19:0.20000001 20:0.20000001 21:-1.0 22:-1.0 23:-0.33333333 24:-0.33333333 25:-0.22312409 26:-0.17821482 27:-0.80543798 28:-0.47850127 29:-0.08217372 30:-0.18211185 31:-0.31243511 32:-0.28396202 33:-0.97509295 34:-0.97509295 35:-0.86842105 36:-0.86842105 37:-0.9241132 38:-0.97679009 39:-0.83997505 40:-0.97972936 
-1.0 1:-1.0 2:-1.0 3:-0.14285714 4:-0.14285714 5:-0.14871449 6:-0.14871449 7:1.0 8:1.0 9:-0.47922798 10:-0.46485277 11:-0.86316382 12:-0.86316382 13:-0.71428571 14:-0.42857143 15:-0.2 16:-0.2 17:0.20000001 18:0.20000001 19:0.20000001 20:0.20000001 21:-1.0 22:-1.0 23:-0.33333333 24:-0.33333333 25:0.630721 26:0.54659036 27:1.0 28:0.40040654 29:-0.517461 30:-0.20029487 31:1.0 32:0.88086218 33:-0.99625004 34:-0.9996981 35:-0.94736842 36:-1.0 37:-0.99625425 38:-0.99848108 39:-0.99447577 40:-0.9968954 
-1.0 1:-0.42857141 2:-0.42857141 3:-0.14285714 4:-0.14285714 5:-0.4738797 6:-0.4738797 7:1.0 8:1.0 9:-0.47091378 10:-0.40230887 11:-0.53887415 12:-0.53887415 13:-0.71428571 14:-0.71428571 15:-0.42857144 16:-0.42857144 17:-0.14285715 18:-0.14285715 19:-0.14285715 20:-0.14285715 21:-1.0 22:-1.0 23:0.33333333 24:0.33333333 25:0.27532468 26:0.35306762 27:-0.39746021 28:-0.15603002 29:0.01553647 30:-0.12397923 31:0.20862152 32:0.22239894 33:-0.97030222 34:-0.9991499 35:-0.57894737 36:-0.84210526 37:-0.97550399 38:-0.99914962 39:-0.98197298 40:-0.99858923 
-1.0 1:-0.44781144 2:-0.44781144 3:-0.42857143 4:-0.42857143 5:-0.3827119 6:-0.35873812 7:1.0 8:1.0 9:-0.11399537 10:-0.31648979 11:-0.55512236 12:-0.55512236 13:-0.71428571 14:-1.0 15:-0.55555556 16:-1.0 17:-0.33333333 18:-1.0 19:-0.33333333 20:-1.0 21:-1.0 22:-1.0 23:1.0 24:1.0 25:0.43350544 26:0.24089565 27:-0.13251585 28:-0.16390178 29:-0.23709263 30:-0.29927867 31:0.71424197 32:0.61759052 33:-0.97133505 34:-0.98676391 35:-0.78947368 36:-0.81578947 37:-0.97866989 38:-0.99024882 39:-0.9865571 40:-0.99349352 
-1.0 1:-0.27272724 2:-0.27272724 3:1.0 4:1.0 5:-0.65287252 6:-0.98837008 7:1.0 8:1.0 9:-0.55242031 10:-0.5296606 11:-0.07264066 12:-0.09745826 13:-0.42857143 14:-0.42857143 15:-0.2 16:-0.2 17:0.20000001 18:0.20000001 19:0.20000001 20:0.20000001 21:-1.0 22:-1.0 23:-0.33333333 24:-0.33333333 25:-0.48529946 26:-0.48529946 27:-0.60936747 28:-0.76829862 29:-0.49244275 30:-0.18058867 31:-0.53901329 32:-0.51833637 33:1.0 34:1.0 35:-0.97368421 36:-0.92105263 37:0.88079 38:0.88078528 39:0.59982581 40:0.59983851 
-1.0 1:0.09090908 2:0.09090908 3:-0.14285714 4:-0.14285714 5:-0.76359078 6:-0.55086586 7:1.0 8:1.0 9:-0.70948036 10:-0.70948036 11:-0.34081112 12:-0.31852575 13:-0.14285714 14:-0.14285714 15:-0.42857144 16:-0.42857144 17:-0.14285715 18:-0.14285715 19:-0.14285715 20:-0.14285715 21:-1.0 22:-1.0 23:0.33333333 24:0.33333333 25:-0.71937509 26:-0.56944226 27:-0.57001959 28:-0.57001959 29:-0.81011745 30:-0.67406375 31:-0.55935513 32:-0.54963386 33:-0.78828614 34:-0.78828614 35:-0.44736842 36:-0.78947368 37:-0.80184834 38:-0.80181247 39:-0.7101161 40:-0.71017507 
-1.0 1:0.17748919 2:0.17748919 3:0.61904761 4:0.61904761 5:0.05624428 6:-0.85350442 7:1.0 8:1.0 9:-0.35365057 10:-0.58313866 11:0.15813078 12:0.16191158 13:0.42857143 14:0.42857143 15:-0.42857144 16:-0.42857144 17:-0.14285715 18:-0.14285715 19:-0.14285715 20:-0.14285715 21:-1.0 22:-1.0 23:0.33333333 24:0.33333333 25:0.02131661 26:-0.16256906 27:-0.82992695 28:-0.92173278 29:0.04080405 30:0.04731866 31:-0.51951093 32:-0.52565921 33:1.0 34:1.0 35:-0.71052632 36:-0.92105263 37:0.66779588 38:0.65326697 39:0.14342741 40:0.20236225 
-1.0 1:0.09090908 2:0.15824915 3:0.34693877 4:0.42857143 5:0.00402778 6:-0.81248477 7:1.0 8:1.0 9:-0.09796325 10:-0.40359563 11:0.0055777 12:-0.01840176 13:0.42857143 14:0.71428571 16:-0.55555556 17:-0.24999999 18:-0.33333333 19:-0.09999999 20:-0.33333333 21:-0.24999998 22:-1.0 23:0.66666667 24:1.0 25:-0.80843354 26:-0.61853627 27:-0.89397207 28:-0.83791332 29:-0.61691169 30:-0.39755449 31:-0.78861456 32:-0.76804118 33:1.0 34:1.0 35:-0.86842105 36:-0.84210526 37:0.58105742 38:0.47653601 39:8.7039E-4 40:0.05997017 
-1.0 1:-0.28787877 2:-0.28787877 3:0.67346939 4:0.67346939 5:-0.64228691 6:-0.21274902 7:1.0 8:1.0 9:-0.72509229 10:-0.66003958 11:-0.34500623 12:-0.34508032 13:-0.42857143 14:-0.71428571 15:-0.5 16:-0.5 17:-0.24999999 18:-0.24999999 19:-0.24999999 20:-0.24999999 21:-1.0 22:-1.0 23:0.66666667 24:0.66666667 25:0.13115457 26:0.17323366 27:-0.94673291 28:-0.48582529 29:0.64622951 30:0.15842718 31:0.00338396 32:-0.04034423 33:1.0 34:1.0 35:-0.89473684 36:-0.94736842 37:0.57774868 38:0.5813213 39:0.01386955 40:-5.3471E-4 
-1.0 1:-0.51515151 2:-0.51515151 3:0.42857143 4:-0.14285714 5:-0.52462978 6:-0.52462978 7:1.0 8:1.0 9:-0.59699579 10:-0.41376727 11:-0.82041364 12:-0.82041364 13:-0.71428571 14:-0.71428571 15:-0.2 16:-0.2 17:0.20000001 18:0.20000001 19:0.20000001 20:0.20000001 21:-1.0 22:-1.0 23:-0.33333333 24:-0.33333333 25:-0.45768025 26:-0.67916027 27:-0.50652441 28:-0.29796426 29:-0.55433148 30:-0.92121 31:-0.43392135 32:-0.46836595 33:-0.92996631 34:-0.92996631 35:-0.84210526 36:-0.84210526 37:-0.93451228 38:-0.934604 39:-0.94255215 40:-0.94299035 
-1.0 1:-0.16883113 2:-0.16883113 3:0.61904761 4:-0.52380953 5:-0.62736965 6:-0.62736965 7:1.0 8:1.0 9:-0.67327808 10:-0.7877015 11:-0.06547898 12:-0.06547898 13:-0.42857143 14:-0.42857143 15:-0.42857144 16:-0.42857144 17:-0.14285715 18:-0.14285715 19:-0.14285715 20:-0.14285715 21:-1.0 22:-1.0 23:0.33333333 24:0.33333333 25:0.16426333 26:0.18546594 27:-0.74475917 28:-0.56837759 29:0.34950898 30:0.35312844 31:-0.18964721 32:-0.13976488 33:1.0 34:1.0 35:-0.60526316 36:0.02631579 37:0.64204174 38:0.64110134 39:0.26840537 40:0.26860043 
-1.0 1:-0.15151513 2:-0.51515151 3:0.42857143 4:0.42857143 5:-0.75274273 6:-0.69480971 7:1.0 8:1.0 9:-0.47337658 10:-0.72739348 11:0.19763821 12:0.15289791 13:-0.42857143 14:-0.42857143 15:-0.2 16:-0.2 17:0.20000001 18:0.20000001 19:0.20000001 20:0.20000001 21:-1.0 22:-1.0 23:-0.33333333 24:-0.33333333 25:-0.01073822 26:-0.01073822 27:-0.53325458 28:-0.37632496 29:-0.03618725 30:-0.17046125 31:0.09157839 32:0.13227765 33:-0.37404265 34:-0.37404265 35:-0.23684211 36:-0.92105263 37:-0.37307484 38:-0.37298632 39:-0.09810107 40:-0.09812013 
-1.0 1:0.39393941 2:-0.01010097 3:1.0 4:1.0 5:-0.69119062 6:-0.71861465 7:1.0 8:1.0 9:-0.39563291 10:-0.21725219 11:0.21825706 12:0.2019332 13:0.14285714 14:0.14285714 15:-0.33333332 16:-0.33333332 17:3.0E-8 18:3.0E-8 19:3.0E-8 20:3.0E-8 21:-1.0 22:-1.0 25:-0.3489871 26:-0.32700022 27:-0.89397207 28:-0.91751152 29:-0.1423555 30:-0.12190953 31:-0.79436882 32:-0.77018385 33:1.0 34:1.0 35:-0.92105263 36:-0.97368421 37:0.73175495 38:0.73175878 39:0.47538948 40:0.47537889 
-1.0 1:-0.3131313 2:0.00432903 3:1.0 4:1.0 5:-0.35272779 6:-0.44204333 7:1.0 8:1.0 9:-0.52370438 10:-0.72534927 11:-0.30914098 12:-0.2558485 13:-0.14285714 14:0.42857143 15:-0.33333332 16:-0.42857144 17:3.0E-8 18:-0.14285715 19:3.0E-8 20:-0.14285715 21:-1.0 22:-1.0 24:0.33333333 25:-0.48809146 26:-0.097243 27:-0.7632633 28:-0.93163172 29:-0.37172533 30:0.24581528 31:-0.36425399 32:-0.41434724 33:-0.37404265 34:-0.37404265 35:-0.71052632 36:-0.71052632 37:-0.44844712 38:-0.48706227 39:-0.57655709 40:-0.5375303 
-1.0 1:-0.38047137 2:-0.04377101 3:0.42857143 4:0.42857143 5:-0.45362018 6:-0.49135354 7:1.0 8:1.0 9:-0.68294209 10:-0.71783065 11:-0.39391424 12:-0.40105846 13:-0.42857143 14:0.14285714 15:-0.55555556 16:-0.55555556 17:-0.33333333 18:-0.33333333 19:-0.33333333 20:-0.33333333 21:-1.0 22:-1.0 23:1.0 24:1.0 25:-0.36984491 26:-0.27461251 27:-0.5857365 28:-0.78899774 29:-0.53478495 30:-0.23405304 31:-0.45099513 32:-0.45133124 33:1.0 34:1.0 35:-0.92105263 36:-0.73684211 37:0.50562798 38:0.4972595 39:-0.11091756 40:-0.07147244 
-1.0 1:0.33333335 2:0.33333335 3:-0.71428571 4:-0.71428571 5:-0.3529304 6:-0.3529304 7:1.0 8:1.0 9:0.22220503 10:0.22220503 11:0.132475 12:0.36151521 13:0.14285714 14:0.14285714 15:-0.2 16:-0.2 17:0.20000001 18:0.20000001 19:0.20000001 20:0.20000001 21:-1.0 22:-1.0 23:-0.33333333 24:-0.33333333 25:-0.16899595 26:-0.04783811 27:0.35676464 28:0.35676464 29:-0.92200934 30:-0.78994948 31:0.25886362 32:0.34343351 33:-0.97551403 34:-0.97551403 35:-0.5 36:-0.65789474 37:-0.97832629 38:-0.97830326 39:-0.96923159 40:-0.96926969 
-1.0 1:0.21212124 2:0.21212124 3:-0.14285714 4:-0.14285714 5:-0.691163 6:-0.72185617 7:1.0 8:1.0 9:-0.7877015 10:-0.7877015 11:0.46166665 12:-0.06036122 13:0.14285714 14:0.14285714 15:-0.2 16:-0.2 17:0.20000001 18:0.20000001 19:0.20000001 20:0.20000001 21:-1.0 22:-1.0 23:-0.33333333 24:-0.33333333 25:-0.65259219 26:-0.86517007 27:-0.80461572 28:-0.79204739 29:-0.50581269 30:-0.74121337 31:-0.79143142 32:-0.7682243 33:1.0 34:1.0 35:-0.42105263 36:-0.73684211 37:0.86379265 38:0.86566619 39:0.64772306 40:0.64224238 
-1.0 1:1.0 2:1.0 3:-0.37142857 4:-0.37142857 5:-0.6728938 6:-0.6728938 7:1.0 8:1.0 9:-0.46635927 10:-1.0 11:0.41405612 12:0.74014307 13:0.42857143 14:0.42857143 15:1.0 16:1.0 17:3.0E-8 18:3.0E-8 19:0.39999999 20:0.39999999 21:1.0 22:1.0 25:0.37298921 26:0.48960362 27:-0.59332317 28:-0.59332317 29:0.43867651 30:0.59118607 31:0.01091533 32:0.07621885 33:-0.8283837 34:-0.8283837 35:-0.97368421 36:-0.94736842 37:-0.85276733 38:-0.85277805 39:-0.85574605 40:-0.85572488 
-1.0 1:0.00432903 2:0.00432903 3:-0.14285714 4:-0.14285714 5:-0.22135932 6:-0.13453282 7:1.0 8:1.0 9:-0.35371988 10:-0.662821 11:0.0400098 12:0.25181485 13:-0.71428571 14:-0.42857143 15:-0.42857144 16:-0.42857144 17:-0.14285715 18:-0.14285715 19:-0.14285715 20:-0.14285715 21:-1.0 22:-1.0 23:0.33333333 24:0.33333333 25:0.630721 26:0.46110003 27:-0.57634025 28:-0.57634025 29:0.35321102 30:0.430044 31:-0.03661126 32:0.02916531 33:-0.92465122 34:-0.92465122 35:-0.94736842 36:-0.94736842 37:-0.93723068 38:-0.93731302 39:-0.95711438 40:-0.95681953 
-1.0 1:-0.04377101 2:-0.04377101 3:0.71428571 4:0.71428571 5:-0.11188158 6:-0.19109065 7:1.0 8:1.0 9:-0.41040096 10:-0.33296567 11:-0.26381583 12:0.16028329 13:0.14285714 14:0.14285714 15:-0.55555556 16:-0.55555556 17:-0.33333333 18:-0.33333333 19:-0.33333333 20:-0.33333333 21:-1.0 22:-1.0 23:1.0 24:1.0 25:0.32572944 26:-0.04937266 27:-0.81577024 28:-0.72794529 29:0.32730793 30:-0.09094065 31:-0.34114678 32:-0.3125693 33:1.0 34:1.0 35:-0.71052632 36:-1.0 37:0.49287823 38:0.49617173 39:-0.03373848 40:-0.06142769 
-1.0 1:-0.03030303 2:-0.03030303 3:1.0 4:1.0 5:-0.93326421 6:-0.93326421 7:1.0 8:1.0 9:-0.83548512 10:-0.23967456 11:0.30015876 12:0.30015876 13:-0.42857143 14:-0.42857143 15:-0.2 16:-0.2 17:0.20000001 18:0.20000001 19:0.20000001 20:0.20000001 21:-1.0 22:-1.0 23:-0.33333333 24:-0.33333333 25:-0.67684348 26:-0.8498939 27:-0.65321689 28:-0.85473967 29:-0.60805918 30:-0.63946915 31:-0.69935789 32:-0.71943845 33:1.0 34:1.0 35:-0.28947368 36:-0.60526316 37:0.87967083 38:0.87969924 39:0.60336317 40:0.60328696 
-1.0 1:0.21212124 2:0.21212124 3:1.0 4:1.0 5:-0.68020445 6:-0.68020445 7:1.0 8:1.0 9:-0.8707593 10:-0.73966342 11:0.23133681 12:0.23133681 13:-0.71428571 14:-0.42857143 15:-0.2 16:-0.2 17:0.20000001 18:0.20000001 19:0.20000001 20:0.20000001 21:-1.0 22:-1.0 23:-0.33333333 24:-0.33333333 25:-0.31809054 26:-0.29307792 27:-0.41051839 28:-0.82251792 29:-0.4351884 30:-0.02876837 31:-0.38714082 32:-0.42357525 33:-0.87909556 34:-0.87909556 35:-0.02631579 36:-0.02631579 37:-0.8876525 38:-0.88908281 39:-0.89976723 40:-0.89496608 
-1.0 1:0.45454546 2:0.45454546 3:1.0 4:1.0 5:-0.61670928 6:-0.61670928 7:1.0 8:1.0 9:0.19145194 10:-0.37240838 11:0.70087242 12:0.70087242 13:-0.14285714 14:0.14285714 15:-0.2 16:-0.2 17:0.20000001 18:0.20000001 19:0.20000001 20:0.20000001 21:-1.0 22:-1.0 23:-0.33333333 24:-0.33333333 25:-0.39409686 26:-0.53682185 27:-0.59565762 28:-0.48298304 29:-0.39010167 30:-0.65171046 31:-0.48277224 32:-0.48548406 33:-0.72355166 34:-0.72355166 35:-0.84210526 36:-0.76315789 37:-0.74018216 38:-0.74080728 39:-0.77682333 40:-0.77512768 
-1.0 1:-0.51515151 2:-0.51515151 3:-0.52380953 4:-0.52380953 5:-0.32902417 6:-0.32902417 7:1.0 8:1.0 9:-0.81534294 10:-0.36560996 11:-0.58331567 12:-0.58331567 13:0.14285714 14:0.14285714 15:-0.42857144 16:-0.42857144 17:-0.14285715 18:-0.14285715 19:-0.14285715 20:-0.14285715 21:-1.0 22:-1.0 23:0.33333333 24:0.33333333 25:-0.07095467 26:0.70115149 27:-0.81294782 28:-0.49802083 29:-0.05546829 30:1.0 31:0.06769103 32:0.01830687 33:-0.99922935 34:-0.99966632 35:-0.60526316 36:-0.73684211 37:-0.99952266 38:-0.99972179 39:-0.99875707 40:-0.99877975 
-1.0 1:0.00432903 2:0.00432903 3:-0.14285714 4:-0.14285714 5:-0.13453282 6:-0.13453282 7:1.0 8:1.0 9:0.30195116 10:-0.21446531 11:0.25181485 12:0.25181485 13:-0.42857143 14:-0.42857143 15:-0.42857144 16:-0.42857144 17:-0.14285715 18:-0.14285715 19:-0.14285715 20:-0.14285715 21:-1.0 22:-1.0 23:0.33333333 24:0.33333333 25:0.630721 26:0.16979706 27:-0.21017113 28:-0.34633237 29:0.43039168 30:-0.08155075 31:0.55378136 32:0.53397221 33:-0.92465122 34:-0.92465122 35:-0.94736842 36:-0.94736842 37:-0.93730519 38:-0.93729966 39:-0.95684675 40:-0.95684221 
-1.0 1:0.33333335 2:0.33333335 3:0.42857143 4:0.42857143 5:-0.53161932 6:-0.45645653 7:1.0 8:1.0 9:-0.00450227 10:-0.26098509 11:0.56039064 12:0.56039064 13:-0.14285714 14:-0.14285714 15:-0.2 16:-0.2 17:0.20000001 18:0.20000001 19:0.20000001 20:0.20000001 21:-1.0 22:-1.0 23:-0.33333333 24:-0.33333333 25:-0.89402619 26:-0.39157407 27:-0.87446239 28:-0.86125172 29:-0.67054359 30:0.12338316 31:-1.0 32:-0.53046791 33:-0.60141577 34:-0.60141577 35:-0.65789474 36:-0.84210526 37:-0.64346248 38:-0.64343839 39:-0.55810396 40:-0.55814842 
-1.0 1:-0.03030303 2:-0.03030303 3:1.0 4:1.0 5:-0.81717719 6:-0.81717719 7:1.0 8:1.0 9:-0.44054998 10:-0.44054998 11:-0.03261768 12:-0.03261768 13:-0.71428571 14:-0.71428571 15:-0.2 16:-0.2 17:0.20000001 18:0.20000001 19:0.20000001 20:0.20000001 21:-1.0 22:-1.0 23:-0.33333333 24:-0.33333333 25:0.60591514 26:-0.97246463 27:-0.48582529 28:-0.76199419 29:0.69229069 30:-0.86186162 31:0.02141091 32:-0.88078256 33:1.0 34:1.0 35:-0.89473684 36:-0.89473684 37:0.88113946 38:0.88101915 39:0.59913358 40:0.59945747 
-1.0 1:0.00432903 2:0.00432903 3:0.61904761 4:0.61904761 5:-0.07968742 6:-0.07968742 7:1.0 8:1.0 9:-0.29430625 10:-0.16410831 11:-0.12487001 12:-0.12487001 13:0.14285714 14:0.42857143 15:-0.42857144 16:-0.42857144 17:-0.14285715 18:-0.14285715 19:-0.14285715 20:-0.14285715 21:-1.0 22:-1.0 23:0.33333333 24:0.33333333 25:-1.0 26:0.44932079 27:-0.96045801 28:-0.96045801 29:-0.7767888 30:0.52067285 31:-0.93375346 32:-0.13554581 33:-0.82294149 34:-0.82294149 35:-0.60526316 36:-0.94736842 37:-0.85301877 38:-0.85290131 39:-0.89637413 40:-0.89641495 
-1.0 1:-0.17845115 2:-0.11111108 3:0.14285714 4:0.14285714 5:-0.475568 6:-0.45113891 7:1.0 8:1.0 9:-0.5744497 10:-0.80844046 11:-0.41527863 12:-0.43422965 13:-0.14285714 14:-0.14285714 15:-0.11111112 16:-0.55555556 17:-0.33333333 18:-0.33333333 19:-0.11111109 20:-0.33333333 21:-0.21432578 22:-1.0 23:1.0 24:1.0 25:0.48797559 26:-0.61931846 27:-0.53012027 28:-0.91247204 29:0.04771645 30:-0.39172514 31:-0.0764262 32:-0.64248381 33:1.0 34:1.0 35:-0.71052632 36:-0.84210526 37:0.50501734 38:0.50497554 39:-0.10856426 40:-0.10843725 
-1.0 1:0.09090908 2:0.09090908 3:1.0 4:1.0 5:0.48946023 6:0.59156818 8:1.0 9:0.32377142 10:-0.30950265 11:-0.02642982 12:-0.03640089 13:-0.14285714 14:-0.14285714 16:-0.2 17:0.50000002 18:0.20000001 19:0.50000002 20:0.20000001 21:-1.0 22:-1.0 23:-0.66666667 24:-0.33333333 25:-0.80022115 26:-0.80022115 27:-0.83374643 28:-0.83374643 29:-0.5712624 30:-0.65723641 31:-0.85713247 32:-0.85549298 33:-0.99963454 34:-0.99963454 35:0.23684211 36:0.23684211 37:-0.99996079 38:-0.99999039 39:-0.99831479 40:-0.99833066 
-1.0 1:0.69696973 2:0.69696973 3:1.0 4:1.0 5:-0.79849238 6:-0.83910352 8:1.0 9:-0.46089475 10:-0.62447254 11:0.09754035 12:0.09948848 13:-0.71428571 14:-0.42857143 16:-0.2 17:0.50000002 18:0.20000001 19:0.50000002 20:0.20000001 21:-1.0 22:-1.0 23:-0.66666667 24:-0.33333333 25:-0.5221663 26:-0.74436389 27:-0.75221621 28:-0.77405205 29:-0.33796299 30:-0.60278696 31:-0.60194598 32:-0.61150419 33:-0.87761782 34:-0.8283837 35:-0.44736842 36:0.39473684 37:-0.87834508 38:-0.84040632 39:-0.87505493 40:-0.85708393 
-1.0 1:0.49494951 2:0.49494951 3:-0.37142857 4:-0.37142857 5:-0.33712797 6:-0.34962134 8:1.0 9:-0.87412971 10:-0.87412971 11:0.10693506 12:0.10693506 13:-0.71428571 14:-0.42857143 15:-0.33333332 16:-0.33333332 17:3.0E-8 18:3.0E-8 19:3.0E-8 20:3.0E-8 21:-1.0 22:-1.0 25:0.51304179 26:0.14653933 27:-0.32535856 28:-0.11014078 29:0.22596098 30:-0.19556712 31:0.49138464 32:0.47836089 33:-0.85124893 34:-0.85124893 35:-0.84210526 36:-0.92105263 37:-0.86909905 38:-0.8691277 39:-0.89915862 40:-0.8991745 
-1.0 1:0.09090908 2:0.09090908 3:1.0 4:1.0 5:-0.60820029 6:-0.62947277 7:1.0 8:1.0 9:-0.47056143 10:-0.15009876 11:0.21025084 12:0.17145252 13:-0.14285714 14:-0.14285714 15:-0.2 16:-0.2 17:0.20000001 18:0.20000001 19:0.20000001 20:0.20000001 21:-1.0 22:-1.0 23:-0.33333333 24:-0.33333333 25:-0.17821482 26:-0.22312409 27:-0.47850127 28:-0.80543798 29:-0.18211185 30:-0.08217372 31:-0.28396202 32:-0.31243511 33:-0.97509295 34:-0.97509295 35:-0.86842105 36:-0.86842105 37:-0.97679009 38:-0.9241132 39:-0.97972936 40:-0.83997505 
-1.0 1:-1.0 2:-1.0 3:-0.14285714 4:-0.14285714 5:-0.14871449 6:-0.14871449 7:1.0 8:1.0 9:-0.47922798 10:-0.46485277 11:-0.86316382 12:-0.86316382 13:-0.71428571 14:-0.42857143 15:-0.2 16:-0.2 17:0.20000001 18:0.20000001 19:0.20000001 20:0.20000001 21:-1.0 22:-1.0 23:-0.33333333 24:-0.33333333 25:0.630721 26:0.54659036 27:1.0 28:0.40040654 29:-0.517461 30:-0.20029487 31:1.0 32:0.88086218 33:-0.99625004 34:-0.9996981 35:-0.94736842 36:-1.0 37:-0.99625425 38:-0.99848108 39:-0.99447577 40:-0.9968954 
-1.0 1:-0.42857141 2:-0.42857141 3:-0.14285714 4:-0.14285714 5:-0.4738797 6:-0.4738797 7:1.0 8:1.0 9:-0.40230887 10:-0.47091378 11:-0.53887415 12:-0.53887415 13:-0.71428571 14:-0.71428571 15:-0.42857144 16:-0.42857144 17:-0.14285715 18:-0.14285715 19:-0.14285715 20:-0.14285715 21:-1.0 22:-1.0 23:0.33333333 24:0.33333333 25:0.35306762 26:0.27532468 27:-0.15603002 28:-0.39746021 29:-0.12397923 30:0.01553647 31:0.22239894 32:0.20862152 33:-0.9991499 34:-0.97030222 35:-0.84210526 36:-0.57894737 37:-0.99914962 38:-0.97550399 39:-0.99858923 40:-0.98197298 
-1.0 1:-0.44781144 2:-0.44781144 3:-0.42857143 4:-0.42857143 5:-0.3827119 6:-0.35873812 7:1.0 8:1.0 9:-0.11399537 10:-0.31648979 11:-0.55512236 12:-0.55512236 13:-0.71428571 14:-1.0 15:-0.55555556 16:-1.0 17:-0.33333333 18:-1.0 19:-0.33333333 20:-1.0 21:-1.0 22:-1.0 23:1.0 24:1.0 25:0.43350544 26:0.24089565 27:-0.13251585 28:-0.16390178 29:-0.23709263 30:-0.29927867 31:0.71424197 32:0.61759052 33:-0.97133505 34:-0.98676391 35:-0.78947368 36:-0.81578947 37:-0.97866989 38:-0.99024882 39:-0.9865571 40:-0.99349352 
-1.0 1:-0.51515151 2:-0.51515151 3:0.14285714 4:0.14285714 5:-0.09907869 6:-0.09907869 7:1.0 8:1.0 9:0.1488396 10:-0.04589382 11:0.08335744 12:0.08335744 13:-0.42857143 14:0.14285714 15:-0.55555556 16:-0.55555556 17:-0.33333333 18:-0.33333333 19:-0.33333333 20:-0.33333333 21:-1.0 22:-1.0 23:1.0 24:1.0 25:-0.08275862 26:0.05825021 27:-0.25888999 28:-0.70437176 29:-0.44079379 30:0.15080149 31:0.09779628 32:0.04931664 33:-0.99892745 34:-0.98432485 35:-0.86842105 36:-0.73684211 37:-0.99914463 38:-0.98715294 39:-0.99871524 40:-0.98687817 
-1.0 1:-0.27272724 2:-0.27272724 3:1.0 4:1.0 5:-0.98837008 6:-0.65287252 7:1.0 8:1.0 9:-0.5296606 10:-0.55242031 11:-0.09745826 12:-0.07264066 13:-0.42857143 14:-0.42857143 15:-0.2 16:-0.2 17:0.20000001 18:0.20000001 19:0.20000001 20:0.20000001 21:-1.0 22:-1.0 23:-0.33333333 24:-0.33333333 25:-0.48529946 26:-0.48529946 27:-0.76829862 28:-0.60936747 29:-0.18058867 30:-0.49244275 31:-0.51833637 32:-0.53901329 33:1.0 34:1.0 35:-0.92105263 36:-0.97368421 37:0.88078528 38:0.88079 39:0.59983851 40:0.59982581 
-1.0 1:0.09090908 2:0.09090908 3:-0.14285714 4:-0.14285714 5:-0.76359078 6:-0.55086586 7:1.0 8:1.0 9:-0.70948036 10:-0.70948036 11:-0.34081112 12:-0.31852575 13:-0.14285714 14:-0.14285714 15:-0.42857144 16:-0.42857144 17:-0.14285715 18:-0.14285715 19:-0.14285715 20:-0.14285715 21:-1.0 22:-1.0 23:0.33333333 24:0.33333333 25:-0.71937509 26:-0.56944226 27:-0.57001959 28:-0.57001959 29:-0.81011745 30:-0.67406375 31:-0.55935513 32:-0.54963386 33:-0.78828614 34:-0.78828614 35:-0.44736842 36:-0.78947368 37:-0.80184834 38:-0.80181247 39:-0.7101161 40:-0.71017507 
-1.0 1:0.17748919 2:0.17748919 3:0.61904761 4:0.61904761 5:0.05624428 6:-0.85350442 7:1.0 8:1.0 9:-0.35365057 10:-0.58313866 11:0.15813078 12:0.16191158 13:0.42857143 14:0.42857143 15:-0.42857144 16:-0.42857144 17:-0.14285715 18:-0.14285715 19:-0.14285715 20:-0.14285715 21:-1.0 22:-1.0 23:0.33333333 24:0.33333333 25:0.02131661 26:-0.16256906 27:-0.82992695 28:-0.92173278 29:0.04080405 30:0.04731866 31:-0.51951093 32:-0.52565921 33:1.0 34:1.0 35:-0.71052632 36:-0.92105263 37:0.66779588 38:0.65326697 39:0.14342741 40:0.20236225 
-1.0 1:0.09090908 2:0.15824915 3:0.34693877 4:0.42857143 5:0.00402778 6:-0.81248477 7:1.0 8:1.0 9:-0.09796325 10:-0.40359563 11:0.0055777 12:-0.01840176 13:0.42857143 14:0.71428571 16:-0.55555556 17:-0.24999999 18:-0.33333333 19:-0.09999999 20:-0.33333333 21:-0.24999998 22:-1.0 23:0.66666667 24:1.0 25:-0.80843354 26:-0.61853627 27:-0.89397207 28:-0.83791332 29:-0.61691169 30:-0.39755449 31:-0.78861456 32:-0.76804118 33:1.0 34:1.0 35:-0.86842105 36:-0.84210526 37:0.58105742 38:0.47653601 39:8.7039E-4 40:0.05997017 
-1.0 1:-0.28787877 2:-0.28787877 3:0.67346939 4:0.67346939 5:-0.64228691 6:-0.21274902 7:1.0 8:1.0 9:-0.72509229 10:-0.66003958 11:-0.34500623 12:-0.34508032 13:-0.42857143 14:-0.71428571 15:-0.5 16:-0.5 17:-0.24999999 18:-0.24999999 19:-0.24999999 20:-0.24999999 21:-1.0 22:-1.0 23:0.66666667 24:0.66666667 25:0.13115457 26:0.17323366 27:-0.94673291 28:-0.48582529 29:0.64622951 30:0.15842718 31:0.00338396 32:-0.04034423 33:1.0 34:1.0 35:-0.89473684 36:-0.94736842 37:0.57774868 38:0.5813213 39:0.01386955 40:-5.3471E-4 
-1.0 1:-0.51515151 2:-0.51515151 3:-0.14285714 4:0.42857143 5:-0.52462978 6:-0.52462978 7:1.0 8:1.0 9:-0.41376727 10:-0.59699579 11:-0.82041364 12:-0.82041364 13:-0.71428571 14:-0.71428571 15:-0.2 16:-0.2 17:0.20000001 18:0.20000001 19:0.20000001 20:0.20000001 21:-1.0 22:-1.0 23:-0.33333333 24:-0.33333333 25:-0.67916027 26:-0.45768025 27:-0.29796426 28:-0.50652441 29:-0.92121 30:-0.55433148 31:-0.46836595 32:-0.43392135 33:-0.92996631 34:-0.92996631 35:-0.84210526 36:-0.84210526 37:-0.934604 38:-0.93451228 39:-0.94299035 40:-0.94255215 
-1.0 1:-0.16883113 2:-0.16883113 3:-0.52380953 4:0.61904761 5:-0.62736965 6:-0.62736965 7:1.0 8:1.0 9:-0.7877015 10:-0.67327808 11:-0.06547898 12:-0.06547898 13:-0.42857143 14:-0.42857143 15:-0.42857144 16:-0.42857144 17:-0.14285715 18:-0.14285715 19:-0.14285715 20:-0.14285715 21:-1.0 22:-1.0 23:0.33333333 24:0.33333333 25:0.18546594 26:0.16426333 27:-0.56837759 28:-0.74475917 29:0.35312844 30:0.34950898 31:-0.13976488 32:-0.18964721 33:1.0 34:1.0 35:0.02631579 36:-0.60526316 37:0.64110134 38:0.64204174 39:0.26860043 40:0.26840537 
-1.0 1:-0.01010097 2:0.02356906 3:-0.37142857 4:-1.0 5:0.7872751 6:0.85818338 7:1.0 8:1.0 9:-0.34776154 10:0.75143885 11:-0.06405336 12:-0.00165688 13:0.42857143 14:0.42857143 15:-0.33333332 16:-0.55555556 17:3.0E-8 18:-0.33333333 19:3.0E-8 20:-0.33333333 21:-1.0 22:-1.0 24:1.0 25:0.2137361 26:0.23719102 27:-0.07635262 28:0.43762382 29:-0.21686949 30:-0.67273617 31:0.54513357 32:0.5575514 33:-0.99918963 34:-0.99895923 35:-0.44736842 36:-0.84210526 37:-0.99949697 38:-0.99916836 39:-0.99771676 40:-0.99818954 
-1.0 1:0.00432903 2:0.00432903 3:-0.14285714 4:1.0 5:0.01755823 6:0.01755823 7:1.0 8:1.0 9:0.02811115 10:-0.31949816 11:0.03289002 12:0.03289002 13:0.14285714 14:0.14285714 15:-0.42857144 16:-0.42857144 17:-0.14285715 18:-0.14285715 19:-0.14285715 20:-0.14285715 21:-1.0 22:-1.0 23:0.33333333 24:0.33333333 25:0.00100313 26:0.00100313 27:-0.79204739 28:-0.79204739 29:0.06331936 30:0.02144719 31:-0.49042914 32:-0.48054599 33:1.0 34:1.0 35:-0.63157895 36:-0.97368421 37:0.66793379 38:0.66803322 39:0.14276059 40:0.14270161 
-1.0 1:-0.15151513 2:-0.51515151 3:0.42857143 4:0.42857143 5:-0.75274273 6:-0.69480971 7:1.0 8:1.0 9:-0.47337658 10:-0.72739348 11:0.19763821 12:0.15289791 13:-0.42857143 14:-0.42857143 15:-0.2 16:-0.2 17:0.20000001 18:0.20000001 19:0.20000001 20:0.20000001 21:-1.0 22:-1.0 23:-0.33333333 24:-0.33333333 25:-0.01073822 26:-0.01073822 27:-0.53325458 28:-0.37632496 29:-0.03618725 30:-0.17046125 31:0.09157839 32:0.13227765 33:-0.37404265 34:-0.37404265 35:-0.23684211 36:-0.92105263 37:-0.37307484 38:-0.37298632 39:-0.09810107 40:-0.09812013 
-1.0 1:0.39393941 2:-0.01010097 3:1.0 4:1.0 5:-0.69119062 6:-0.71861465 7:1.0 8:1.0 9:-0.39563291 10:-0.21725219 11:0.21825706 12:0.2019332 13:0.14285714 14:0.14285714 15:-0.33333332 16:-0.33333332 17:3.0E-8 18:3.0E-8 19:3.0E-8 20:3.0E-8 21:-1.0 22:-1.0 25:-0.3489871 26:-0.32700022 27:-0.89397207 28:-0.91751152 29:-0.1423555 30:-0.12190953 31:-0.79436882 32:-0.77018385 33:1.0 34:1.0 35:-0.92105263 36:-0.97368421 37:0.73175495 38:0.73175878 39:0.47538948 40:0.47537889 
-1.0 1:-0.3131313 2:0.00432903 3:1.0 4:1.0 5:-0.35272779 6:-0.44204333 7:1.0 8:1.0 9:-0.52370438 10:-0.72534927 11:-0.30914098 12:-0.2558485 13:-0.14285714 14:0.42857143 15:-0.33333332 16:-0.42857144 17:3.0E-8 18:-0.14285715 19:3.0E-8 20:-0.14285715 21:-1.0 22:-1.0 24:0.33333333 25:-0.48809146 26:-0.097243 27:-0.7632633 28:-0.93163172 29:-0.37172533 30:0.24581528 31:-0.36425399 32:-0.41434724 33:-0.37404265 34:-0.37404265 35:-0.71052632 36:-0.71052632 37:-0.44844712 38:-0.48706227 39:-0.57655709 40:-0.5375303 
-1.0 1:-0.38047137 2:-0.04377101 3:0.42857143 4:0.42857143 5:-0.45362018 6:-0.49135354 7:1.0 8:1.0 9:-0.68294209 10:-0.71783065 11:-0.39391424 12:-0.40105846 13:-0.42857143 14:0.14285714 15:-0.55555556 16:-0.55555556 17:-0.33333333 18:-0.33333333 19:-0.33333333 20:-0.33333333 21:-1.0 22:-1.0 23:1.0 24:1.0 25:-0.36984491 26:-0.27461251 27:-0.5857365 28:-0.78899774 29:-0.53478495 30:-0.23405304 31:-0.45099513 32:-0.45133124 33:1.0 34:1.0 35:-0.92105263 36:-0.73684211 37:0.50562798 38:0.4972595 39:-0.11091756 40:-0.07147244 
-1.0 1:-0.21212119 2:0.09090908 3:0.34693877 4:0.34693877 5:-0.64738797 6:-0.65856032 7:1.0 8:1.0 9:-0.60919099 10:-0.73708583 11:-0.23100051 12:-0.19470225 13:-0.42857143 14:-0.14285714 15:-0.5 16:-0.5 17:-0.24999999 18:-0.24999999 19:-0.24999999 20:-0.24999999 21:-1.0 22:-1.0 23:0.66666667 24:0.66666667 25:0.35363716 26:0.13115457 27:-0.70435268 28:-0.53497731 29:0.23750563 30:-0.14874477 31:-0.11111341 32:-0.04910634 33:1.0 34:1.0 35:-0.92105263 36:-0.89473684 37:0.58067014 38:0.57104528 39:0.00225961 40:0.04486512 
-1.0 1:0.33333335 2:0.33333335 3:-0.71428571 4:-0.71428571 5:-0.3529304 6:-0.3529304 7:1.0 8:1.0 9:0.22220503 10:0.22220503 11:0.36151521 12:0.132475 13:0.14285714 14:0.14285714 15:-0.2 16:-0.2 17:0.20000001 18:0.20000001 19:0.20000001 20:0.20000001 21:-1.0 22:-1.0 23:-0.33333333 24:-0.33333333 25:-0.04783811 26:-0.16899595 27:0.35676464 28:0.35676464 29:-0.78994948 30:-0.92200934 31:0.34343351 32:0.25886362 33:-0.97551403 34:-0.97551403 35:-0.65789474 36:-0.5 37:-0.97830326 38:-0.97832629 39:-0.96926969 40:-0.96923159 
-1.0 1:0.21212124 2:0.21212124 3:-0.14285714 4:-0.14285714 5:-0.691163 6:-0.72185617 7:1.0 8:1.0 9:-0.7877015 10:-0.7877015 11:0.46166665 12:-0.06036122 13:0.14285714 14:0.14285714 15:-0.2 16:-0.2 17:0.20000001 18:0.20000001 19:0.20000001 20:0.20000001 21:-1.0 22:-1.0 23:-0.33333333 24:-0.33333333 25:-0.65259219 26:-0.86517007 27:-0.80461572 28:-0.79204739 29:-0.50581269 30:-0.74121337 31:-0.79143142 32:-0.7682243 33:1.0 34:1.0 35:-0.42105263 36:-0.73684211 37:0.86379265 38:0.86566619 39:0.64772306 40:0.64224238 
-1.0 1:0.00432903 2:0.00432903 3:-0.14285714 4:-0.14285714 5:-0.13453282 6:-0.22135932 7:1.0 8:1.0 9:-0.662821 10:-0.35371988 11:0.25181485 12:0.0400098 13:-0.42857143 14:-0.71428571 15:-0.42857144 16:-0.42857144 17:-0.14285715 18:-0.14285715 19:-0.14285715 20:-0.14285715 21:-1.0 22:-1.0 23:0.33333333 24:0.33333333 25:0.46110003 26:0.630721 27:-0.57634025 28:-0.57634025 29:0.430044 30:0.35321102 31:0.02916531 32:-0.03661126 33:-0.92465122 34:-0.92465122 35:-0.94736842 36:-0.94736842 37:-0.93731302 38:-0.93723068 39:-0.95681953 40:-0.95711438 
-1.0 1:-0.03030303 2:-0.03030303 3:1.0 4:1.0 5:-0.93326421 6:-0.93326421 7:1.0 8:1.0 9:-0.83548512 10:-0.23967456 11:0.30015876 12:0.30015876 13:-0.42857143 14:-0.42857143 15:-0.2 16:-0.2 17:0.20000001 18:0.20000001 19:0.20000001 20:0.20000001 21:-1.0 22:-1.0 23:-0.33333333 24:-0.33333333 25:-0.67684348 26:-0.8498939 27:-0.65321689 28:-0.85473967 29:-0.60805918 30:-0.63946915 31:-0.69935789 32:-0.71943845 33:1.0 34:1.0 35:-0.28947368 36:-0.60526316 37:0.87967083 38:0.87969924 39:0.60336317 40:0.60328696 
-1.0 1:0.21212124 2:0.21212124 3:1.0 4:1.0 5:-0.68020445 6:-0.68020445 7:1.0 8:1.0 9:-0.8707593 10:-0.73966342 11:0.23133681 12:0.23133681 13:-0.71428571 14:-0.42857143 15:-0.2 16:-0.2 17:0.20000001 18:0.20000001 19:0.20000001 20:0.20000001 21:-1.0 22:-1.0 23:-0.33333333 24:-0.33333333 25:-0.31809054 26:-0.29307792 27:-0.41051839 28:-0.82251792 29:-0.4351884 30:-0.02876837 31:-0.38714082 32:-0.42357525 33:-0.87909556 34:-0.87909556 35:-0.02631579 36:-0.02631579 37:-0.8876525 38:-0.88908281 39:-0.89976723 40:-0.89496608 
-1.0 1:0.45454546 2:0.45454546 3:1.0 4:1.0 5:-0.61670928 6:-0.61670928 7:1.0 8:1.0 9:0.19145194 10:-0.37240838 11:0.70087242 12:0.70087242 13:-0.14285714 14:0.14285714 15:-0.2 16:-0.2 17:0.20000001 18:0.20000001 19:0.20000001 20:0.20000001 21:-1.0 22:-1.0 23:-0.33333333 24:-0.33333333 25:-0.39409686 26:-0.53682185 27:-0.59565762 28:-0.48298304 29:-0.39010167 30:-0.65171046 31:-0.48277224 32:-0.48548406 33:-0.72355166 34:-0.72355166 35:-0.84210526 36:-0.76315789 37:-0.74018216 38:-0.74080728 39:-0.77682333 40:-0.77512768 
-1.0 1:-0.51515151 2:-0.51515151 3:-0.52380953 4:-0.52380953 5:-0.32902417 6:-0.32902417 7:1.0 8:1.0 9:-0.81534294 10:-0.36560996 11:-0.58331567 12:-0.58331567 13:0.14285714 14:0.14285714 15:-0.42857144 16:-0.42857144 17:-0.14285715 18:-0.14285715 19:-0.14285715 20:-0.14285715 21:-1.0 22:-1.0 23:0.33333333 24:0.33333333 25:-0.07095467 26:0.70115149 27:-0.81294782 28:-0.49802083 29:-0.05546829 30:1.0 31:0.06769103 32:0.01830687 33:-0.99922935 34:-0.99966632 35:-0.60526316 36:-0.73684211 37:-0.99952266 38:-0.99972179 39:-0.99875707 40:-0.99877975 
-1.0 1:0.00432903 2:0.00432903 3:-0.14285714 4:-0.14285714 5:-0.13453282 6:-0.13453282 7:1.0 8:1.0 9:-0.21446531 10:0.30195116 11:0.25181485 12:0.25181485 13:-0.42857143 14:-0.42857143 15:-0.42857144 16:-0.42857144 17:-0.14285715 18:-0.14285715 19:-0.14285715 20:-0.14285715 21:-1.0 22:-1.0 23:0.33333333 24:0.33333333 25:0.16979706 26:0.630721 27:-0.34633237 28:-0.21017113 29:-0.08155075 30:0.43039168 31:0.53397221 32:0.55378136 33:-0.92465122 34:-0.92465122 35:-0.94736842 36:-0.94736842 37:-0.93729966 38:-0.93730519 39:-0.95684221 40:-0.95684675 
-1.0 1:0.33333335 2:0.33333335 3:0.42857143 4:0.42857143 5:-0.53161932 6:-0.45645653 7:1.0 8:1.0 9:-0.00450227 10:-0.26098509 11:0.56039064 12:0.56039064 13:-0.14285714 14:-0.14285714 15:-0.2 16:-0.2 17:0.20000001 18:0.20000001 19:0.20000001 20:0.20000001 21:-1.0 22:-1.0 23:-0.33333333 24:-0.33333333 25:-0.89402619 26:-0.39157407 27:-0.87446239 28:-0.86125172 29:-0.67054359 30:0.12338316 31:-1.0 32:-0.53046791 33:-0.60141577 34:-0.60141577 35:-0.65789474 36:-0.84210526 37:-0.64346248 38:-0.64343839 39:-0.55810396 40:-0.55814842 
-1.0 1:-0.03030303 2:-0.03030303 3:1.0 4:1.0 5:-0.81717719 6:-0.81717719 7:1.0 8:1.0 9:-0.44054998 10:-0.44054998 11:-0.03261768 12:-0.03261768 13:-0.71428571 14:-0.71428571 15:-0.2 16:-0.2 17:0.20000001 18:0.20000001 19:0.20000001 20:0.20000001 21:-1.0 22:-1.0 23:-0.33333333 24:-0.33333333 25:0.60591514 26:-0.97246463 27:-0.48582529 28:-0.76199419 29:0.69229069 30:-0.86186162 31:0.02141091 32:-0.88078256 33:1.0 34:1.0 35:-0.89473684 36:-0.89473684 37:0.88113946 38:0.88101915 39:0.59913358 40:0.59945747 
-1.0 1:0.00432903 2:0.00432903 3:0.61904761 4:0.61904761 5:-0.07968742 6:-0.07968742 7:1.0 8:1.0 9:-0.29430625 10:-0.16410831 11:-0.12487001 12:-0.12487001 13:0.14285714 14:0.42857143 15:-0.42857144 16:-0.42857144 17:-0.14285715 18:-0.14285715 19:-0.14285715 20:-0.14285715 21:-1.0 22:-1.0 23:0.33333333 24:0.33333333 25:-1.0 26:0.44932079 27:-0.96045801 28:-0.96045801 29:-0.7767888 30:0.52067285 31:-0.93375346 32:-0.13554581 33:-0.82294149 34:-0.82294149 35:-0.60526316 36:-0.94736842 37:-0.85301877 38:-0.85290131 39:-0.89637413 40:-0.89641495 
-1.0 1:0.09090908 2:0.09090908 3:1.0 4:1.0 5:1.0 6:1.0 7:-1.0 9:-0.26706291 10:-0.28282114 11:-0.07628512 12:-0.07628512 13:-0.42857143 14:-0.42857143 15:0.33333332 17:1.0 18:0.50000002 19:1.0 20:0.50000002 21:-1.0 22:-1.0 23:-1.0 24:-0.66666667 25:-0.5476984 26:-0.60152044 27:-0.1540369 28:-0.13410933 29:-0.82259693 30:-0.9562062 31:-0.26968598 32:-0.31641098 33:-0.99931674 34:-0.99931674 35:-0.18421053 36:-0.39473684 37:-0.99955286 38:-0.99955084 39:-0.99825657 40:-0.99855294 
-1.0 1:-0.51515151 2:-0.51515151 3:1.0 4:1.0 5:-0.36143939 6:-0.36143939 7:-1.0 9:-0.81534294 10:-0.50329226 11:-0.64320465 12:-0.46480695 13:-0.71428571 14:-0.71428571 15:0.33333332 17:1.0 18:0.50000002 19:1.0 20:0.50000002 21:-1.0 22:-1.0 23:-1.0 24:-0.66666667 25:-0.13603786 26:-0.13603786 27:-0.38260236 28:-0.27182851 29:-0.00550115 30:-0.27969304 31:-0.1008967 32:-0.12700941 33:-0.99995233 34:-0.99922935 35:-0.55263158 36:-0.57894737 37:-0.99966677 38:-0.99935002 39:-0.99865878 40:-0.99899749 
-1.0 1:-0.06060603 2:-0.03030303 3:1.0 4:1.0 5:0.68091264 6:0.74473011 8:1.0 9:-0.06428327 10:-0.33014408 11:-0.30721383 12:-0.26102808 13:-1.0 14:-1.0 15:-1.0 16:-1.0 17:-1.0 18:-1.0 19:-1.0 20:-1.0 21:-1.0 22:-1.0 23:-0.66666667 24:-0.33333333 25:-0.41695776 26:-0.08556825 27:-0.38486659 28:-0.50204071 29:-0.53455505 30:-0.14199417 31:-0.32210303 32:-0.29313831 33:-0.99911018 34:-0.99911018 35:-0.84210526 36:-0.44736842 37:-0.99924783 38:-0.99939277 39:-0.99817983 40:-0.99838147 
-1.0 1:-0.27272724 2:-0.16883113 3:-0.14285714 4:-0.14285714 5:-0.42221795 6:-0.52640972 8:1.0 9:-0.26706291 10:-0.10024046 11:-0.25007666 12:-0.12254762 13:-0.71428571 14:-0.42857143 15:-0.2 16:-0.42857144 17:0.20000001 18:-0.14285715 19:0.20000001 20:-0.14285715 21:-1.0 22:-1.0 23:-0.33333333 24:0.33333333 25:0.83744656 26:1.0 27:0.43942059 28:0.59123569 29:0.09787817 30:-0.00616002 31:0.81197598 32:0.88382291 33:-0.99864143 34:-0.99805352 35:-0.47368421 36:-0.78947368 37:-0.99892777 38:-0.99860824 39:-0.99812744 40:-0.99779085 
-1.0 1:0.09090908 2:0.09090908 3:1.0 4:1.0 5:-0.64821282 6:-0.64821282 7:1.0 8:1.0 9:-0.44956953 10:-0.5518284 11:0.35890705 12:0.35890705 13:0.42857143 14:0.42857143 15:-0.2 16:-0.2 17:0.20000001 18:0.20000001 19:0.20000001 20:0.20000001 21:-1.0 22:-1.0 23:-0.33333333 24:-0.33333333 25:-0.19305522 26:-0.18716807 27:-0.40687302 28:-0.69172006 29:-0.26734106 30:0.05078628 31:-0.30582647 32:-0.32466288 33:-0.99045826 34:-0.37404265 35:0.05263158 36:-0.76315789 37:-0.99170836 38:-0.41775325 39:-0.99069073 40:-0.48187608 
-1.0 1:-0.63636362 2:-0.63636362 3:-0.14285714 4:-0.14285714 5:-0.34016691 6:-0.34016691 7:1.0 8:1.0 9:-0.54662236 10:-0.13588402 11:-0.20750599 12:-0.20750599 13:-0.42857143 14:-0.71428571 15:-0.2 16:-0.2 17:0.20000001 18:0.20000001 19:0.20000001 20:0.20000001 21:-1.0 22:-1.0 23:-0.33333333 24:-0.33333333 25:-0.12237025 26:0.19113301 27:0.45615312 28:0.1436126 29:-0.91114307 30:-0.33975355 31:0.34016715 32:0.41227155 33:-0.97097753 34:-0.99679029 35:-0.78947368 36:-0.92105263 37:-0.97314337 38:-0.99730069 39:-0.97586176 40:-0.99629843 
-1.0 1:-0.51515151 2:-0.51515151 3:-0.14285714 4:-0.14285714 5:-0.82244466 6:-0.52462978 7:1.0 8:1.0 9:-1.0 10:-1.0 11:-0.50896962 12:-0.54045516 13:-0.42857143 14:-0.42857143 15:-0.2 16:-0.2 17:0.20000001 18:0.20000001 19:0.20000001 20:0.20000001 21:-1.0 22:-1.0 23:-0.33333333 24:-0.33333333 25:-0.20511335 26:-0.44091704 27:-0.04490731 28:0.07013796 29:-0.6606443 30:-0.96213174 31:0.02242678 32:-0.03727493 33:-0.37404265 34:-0.37404265 35:0.07894737 36:-0.63157895 37:-0.37284443 38:-0.37275933 39:-0.09846307 40:-0.09841861 
-1.0 1:-0.16883113 2:-0.16883113 3:0.61904761 4:0.61904761 5:-0.40904927 6:-1.0 7:1.0 8:1.0 9:-0.26600769 10:-0.154969 11:-0.05375444 12:-0.05800753 13:-0.14285714 14:-0.14285714 15:-0.42857144 16:-0.42857144 17:-0.14285715 18:-0.14285715 19:-0.14285715 20:-0.14285715 21:-1.0 22:-1.0 23:0.33333333 24:0.33333333 25:-0.27959193 26:-0.23416929 27:-0.68338162 28:-0.99224822 29:-0.33236873 30:-0.0341441 31:-0.42347148 32:-0.39242982 33:-0.92465122 34:-0.92465122 35:-0.65789474 36:-0.86842105 37:-0.93756204 38:-0.93745968 39:-0.95586238 40:-0.95588053 
-1.0 1:0.09090908 2:0.09090908 3:0.23809525 4:0.23809525 5:-0.87376394 6:-0.25763351 7:1.0 8:1.0 9:-0.71555776 10:-0.67388077 11:0.05365851 12:0.06593056 13:1.0 14:0.42857143 15:-0.42857144 16:-0.42857144 17:-0.14285715 18:-0.14285715 19:-0.14285715 20:-0.14285715 21:-1.0 22:-1.0 23:0.33333333 24:0.33333333 25:-0.38882222 26:-0.40177024 27:-0.83336281 28:-0.71759829 29:-0.2345852 30:-0.43631376 31:-0.43735018 32:-0.47712642 33:1.0 34:1.0 35:-0.92105263 36:-0.78947368 37:0.66080884 38:0.6672561 39:0.16966049 40:0.14611287 
-1.0 1:0.52380951 2:0.52380951 3:-0.14285714 4:-0.14285714 5:-0.31204477 6:-0.51463992 7:1.0 8:1.0 9:0.03243552 10:-0.20321342 11:0.9585754 12:1.0 13:-0.14285714 14:-0.14285714 15:-0.42857144 16:-0.42857144 17:-0.14285715 18:-0.14285715 19:-0.14285715 20:-0.14285715 21:-1.0 22:-1.0 23:0.33333333 24:0.33333333 25:-0.11137076 26:-0.11137076 27:-0.64511162 28:-0.82637643 29:-0.1798885 30:-0.14725931 31:-0.34613912 32:-0.33763199 33:-0.99733054 34:-0.99733054 35:-0.97368421 36:-0.97368421 37:-0.99749213 38:-0.99745008 39:-0.99691536 40:-0.99692897 
-1.0 1:0.19191919 2:0.19191919 3:-0.37142857 4:0.08571429 5:-0.61400801 6:-0.61400801 7:1.0 8:1.0 9:-0.34776154 10:-0.36952768 11:0.29546219 12:0.29546219 13:0.14285714 14:0.14285714 15:-0.33333332 16:-0.33333332 17:3.0E-8 18:3.0E-8 19:3.0E-8 20:3.0E-8 21:-1.0 22:-1.0 25:-0.62321286 26:-0.59354747 27:-0.60936747 28:-0.60936747 29:-0.65457463 30:-0.62765118 31:-0.60805497 32:-0.59977223 33:1.0 34:1.0 35:-0.73684211 36:-0.73684211 37:0.75801751 38:0.75801751 39:0.364929 40:0.364929 
-1.0 1:0.09090908 2:0.09090908 3:-0.52380953 4:-0.9047619 5:-0.34754717 6:-0.25030149 7:1.0 8:1.0 9:-0.60677878 10:0.23340437 11:0.22900926 12:0.25977606 13:-0.14285714 14:-0.42857143 15:-0.42857144 16:-0.42857144 17:-0.14285715 18:-0.14285715 19:-0.14285715 20:-0.14285715 21:-1.0 22:-1.0 23:0.33333333 24:0.33333333 25:0.56623768 26:0.23305362 27:0.4144859 28:0.50230889 29:-0.24863036 30:-0.62761633 31:0.87578512 32:0.81307801 33:-0.89534274 34:-0.89534274 35:-0.89473684 36:-0.89473684 37:-0.91319067 38:-0.91284447 39:-0.93887416 40:-0.93951831 
-1.0 1:-0.51515151 2:-0.51515151 3:-0.52380953 4:0.61904761 5:-0.01297575 6:-0.01297575 7:1.0 8:1.0 9:-0.61450871 10:-0.43553768 11:-0.44570142 12:-0.44570142 13:-1.0 14:-1.0 15:-1.0 16:-1.0 17:-1.0 18:-1.0 19:-1.0 20:-1.0 21:-1.0 22:-1.0 23:0.33333333 24:0.33333333 25:0.11044128 26:0.35084639 27:-0.18818145 28:-0.58895559 29:0.01033697 30:0.35354698 31:-0.0247536 32:-0.07317529 33:-0.99990466 34:-0.99987288 35:-0.81578947 36:-0.81578947 37:-1.0 38:-0.99997606 39:-1.0 40:-0.99998186 
-1.0 1:-0.51515151 2:-0.51515151 3:0.42857143 4:-0.71428571 5:1.0 6:1.0 9:0.1350268 10:0.94756797 11:-1.0 12:-1.0 13:-1.0 14:-1.0 15:-1.0 16:-1.0 17:-1.0 18:-1.0 19:-1.0 20:-1.0 21:-1.0 22:-1.0 23:-0.33333333 24:-0.33333333 25:-0.56874161 26:-0.51876399 27:-0.74257822 28:-0.76433736 29:-0.36966625 30:-0.30991863 31:-0.66783113 32:-0.65603178 33:-0.99929291 34:-0.99929291 35:-0.63157895 36:0.02631579 37:-0.99954145 38:-0.99967575 39:-0.99859739 40:-0.99859739 
