svm_type c_svc
kernel_type rbf
gamma 0.025
nr_class 2
total_sv 140
rho 0.0
label 0 1
nr_sv 70 70
SV
1.0 1:-0.59663869 2:-0.59663869 3:-0.2 4:-0.2 5:1.0 6:1.0 7:1.0 8:-1.0 9:-0.27124379 10:0.90447438 11:-1.0 12:-1.0 13:-1.0 14:-1.0 15:-1.0 16:-1.0 17:-1.0 18:-1.0 19:-1.0 20:-1.0 21:-1.0 22:-1.0 23:-0.33333333 24:-1.0 25:-0.2072806 26:-0.77081368 27:-0.66544312 28:-0.06667225 29:-0.01880854 30:-1.0 31:-0.44050387 32:-0.48979955 33:-0.99922143 34:-0.99989672 35:-0.91428571 36:-0.79047619 37:-0.99932546 38:-0.99957083 39:-0.99909898 40:-0.99866431 
1.0 1:-0.2605042 2:-0.37254903 3:1.0 4:1.0 5:-0.40527449 6:-0.40527449 8:-1.0 9:-0.46051357 10:-0.34092847 11:0.32770001 12:0.29665454 13:-1.0 14:-1.0 15:-1.0 16:-1.0 17:-1.0 18:-1.0 19:-1.0 20:-1.0 21:-1.0 22:-1.0 23:-0.66666667 24:-1.0 25:-0.03131505 26:-8.3284E-4 27:0.07336287 28:-0.27316082 29:-0.37267012 30:0.05193322 31:-0.06428306 32:-0.10828741 33:-0.99992055 34:-0.99924527 35:-0.93333333 36:-0.92380952 37:-0.99960623 38:-0.9991773 39:-0.999185 40:-0.99886555 
1.0 1:-0.32773109 2:-0.32773109 3:1.0 4:1.0 5:0.12560697 6:0.12560697 7:1.0 9:-0.26047037 10:-0.26047037 11:-0.75537271 12:-0.75537271 13:-0.77777778 14:-0.77777778 15:0.20000001 16:0.20000001 17:0.20000001 18:0.20000001 19:0.20000001 20:0.20000001 21:-1.0 22:-1.0 23:-0.33333333 24:-0.33333333 25:-0.94428739 26:-0.94428739 27:-0.74883119 28:-0.71267606 29:-0.63011895 30:-0.6600347 31:-0.89200236 32:-0.88148977 33:-0.8775507 34:-0.8775507 35:-0.62857143 36:-0.62857143 37:-0.87803564 38:-0.87803564 39:-0.90541074 40:-0.90541074 
1.0 1:0.24369747 2:0.24369747 3:0.2 4:0.2 5:0.40568599 6:0.40568599 8:-1.0 9:-0.38640006 10:-0.27124379 11:-0.01427761 12:-0.01427761 13:-0.77777778 14:-0.77777778 15:0.50000002 16:0.50000002 17:0.50000002 18:0.50000002 19:0.50000002 20:0.50000002 21:-1.0 22:-1.0 23:-0.66666667 24:-0.66666667 25:-0.55459314 26:-0.55459314 27:-0.34398317 28:-0.58680271 29:-0.5920633 30:-0.37286069 31:-0.52197746 32:-0.57492978 33:-1.0 34:-1.0 35:-0.9047619 36:-0.9047619 37:-0.99989732 38:-0.99989732 39:-0.99971324 40:-0.99971324 
1.0 1:-0.2605042 2:-0.2605042 3:0.04 4:0.04 5:0.1228745 6:0.1228745 8:1.0 9:-0.04074192 10:-0.04074192 11:0.42696223 12:0.42696223 13:-0.33333333 14:-0.11111111 15:3.0E-8 16:3.0E-8 17:3.0E-8 18:3.0E-8 19:3.0E-8 20:3.0E-8 21:-1.0 22:-1.0 25:0.36491723 26:0.43604241 27:-0.91575127 28:-0.82787426 29:0.83752979 30:0.76508121 31:-0.00873252 32:-0.01395286 33:-0.98425391 34:-0.98425391 35:-0.68571429 36:-0.68571429 37:-0.9860168 38:-0.98582281 39:-0.9876166 40:-0.98781783 
1.0 1:0.07563022 2:0.07563022 3:0.2 4:0.2 5:-0.05395587 6:-0.05395587 9:-0.37196029 10:-0.41425133 11:0.30594872 12:0.30594872 13:-0.77777778 14:-0.77777778 15:0.50000002 16:0.50000002 17:0.50000002 18:0.50000002 19:0.50000002 20:0.50000002 21:-1.0 22:-1.0 23:-0.66666667 24:-0.66666667 25:0.29890898 26:0.09199938 27:0.05125206 28:0.05125206 29:-0.09030073 30:-0.31401893 31:0.14497973 32:0.07983232 33:-0.99997617 34:-0.99997617 35:-0.96190476 36:-0.8 37:-0.99992233 38:-1.0 39:-1.0 40:-0.99987171 
1.0 1:-0.05882355 2:-0.05882355 3:0.4 4:0.4 5:-0.83388322 6:-0.83388322 7:1.0 8:1.0 9:-0.42804858 10:-0.30429087 11:-0.08097766 12:-0.08097766 13:-1.0 14:-0.77777778 15:-1.0 16:0.20000001 17:-1.0 18:0.20000001 19:-1.0 20:0.20000001 21:-1.0 22:-1.0 23:-0.33333333 24:-0.33333333 25:0.61696875 26:0.58685818 27:1.0 28:0.96040719 29:-0.66812824 30:-0.628102 31:1.0 32:0.97242483 33:-0.99903077 34:-0.88991241 35:-0.85714286 36:-0.84761905 37:-0.99923991 38:-0.8935271 39:-0.99849528 40:-0.87288941 
1.0 1:0.61344536 2:0.61344536 3:-0.2 4:-0.2 5:-0.41405746 6:-0.41405746 7:1.0 8:1.0 9:-0.87412971 10:-0.62710409 11:0.25765862 12:0.25765862 13:-0.77777778 14:-0.55555556 15:0.20000001 16:0.20000001 17:0.20000001 18:0.20000001 19:0.20000001 20:0.20000001 21:-1.0 22:-1.0 23:-0.33333333 24:-0.33333333 25:0.71421461 26:0.3720706 27:-0.26948174 28:-0.02999948 29:0.57489261 30:0.05428611 31:0.18581341 32:0.21317241 33:-0.99753719 34:-0.82366283 35:-0.82857143 36:-0.71428571 37:-0.99774213 38:-0.8245541 39:-0.99665399 40:-0.86304909 
1.0 1:0.17166867 2:0.26770711 3:0.2 4:0.2 5:-0.61653199 6:-0.64807976 7:1.0 8:1.0 9:-0.87229108 10:-0.39726344 11:0.24681688 12:0.26143316 13:1.0 14:0.11111111 15:-0.14285715 16:-0.14285715 17:-0.14285715 18:-0.14285715 19:-0.14285715 20:-0.14285715 21:-1.0 22:-1.0 23:0.33333333 24:0.33333333 25:-0.29487989 26:0.06317982 27:-0.76654411 28:-0.86073227 29:-0.17314765 30:0.23651996 31:-0.39433799 32:-0.38507168 33:1.0 34:-0.82831834 35:-0.91428571 36:-0.99047619 37:0.74665529 38:-0.85019743 39:0.19062083 40:-0.89619051 
1.0 1:0.17166867 2:0.17166867 3:-0.2 4:-0.2 5:-0.16878501 6:-0.23872343 7:1.0 8:1.0 9:-0.1351315 10:-0.1351315 11:0.29925065 12:0.29925065 13:-0.33333333 14:-0.11111111 15:-0.14285715 16:-0.14285715 17:-0.14285715 18:-0.14285715 19:-0.14285715 20:-0.14285715 21:-1.0 22:-1.0 23:0.33333333 24:0.33333333 25:0.22085357 26:0.27258097 27:-0.81975076 28:-0.65728568 29:0.35373301 30:0.34448129 31:0.12722913 32:0.11492097 33:-0.84610618 34:-0.96510755 35:-0.81904762 36:-0.96190476 37:-0.86623707 38:-0.96278319 39:-0.89918314 40:-0.96384806 
1.0 1:0.61344536 2:0.61344536 3:1.0 4:1.0 5:-1.0 6:-0.66371001 7:1.0 8:1.0 9:-0.52966435 10:-0.60783289 11:0.27786171 12:0.2333898 13:-1.0 14:-1.0 15:-1.0 16:-1.0 17:-1.0 18:-1.0 19:-1.0 20:-1.0 21:-1.0 22:-1.0 23:-0.33333333 24:-0.33333333 25:0.03667354 26:0.24530739 27:-0.53106935 28:-0.6314192 29:0.12149091 30:0.39012422 31:-0.41034036 32:-0.38914704 33:-0.97738982 34:-0.97738982 35:-0.98095238 36:-0.97142857 37:-0.97755208 38:-0.97770453 39:-0.98176674 40:-0.98176071 
1.0 1:0.21008405 2:0.21008405 3:0.4 4:0.4 5:-0.27780616 6:-0.59340738 7:1.0 8:1.0 9:-0.60241543 10:-0.35382982 11:-0.36399749 12:-0.3408264 13:-0.77777778 14:-0.77777778 15:0.20000001 16:0.20000001 17:0.20000001 18:0.20000001 19:0.20000001 20:0.20000001 21:-1.0 22:-1.0 23:-0.33333333 24:-0.33333333 25:-0.39481558 26:-0.39481558 27:-0.06370068 28:-0.30953786 29:-0.65048173 30:-0.51474884 31:-0.28776925 32:-0.26914523 33:-0.95479553 34:-0.95479553 35:-0.57142857 36:-0.55238095 37:-0.95624864 38:-0.95610152 39:-0.96183256 40:-0.96215856 
1.0 1:0.07563022 2:0.07563022 3:0.59999999 4:0.59999999 5:-0.15256673 6:-0.59533972 7:1.0 8:1.0 9:-0.72055986 10:-0.37635771 11:0.07733088 12:0.06688297 13:-0.77777778 14:-0.77777778 15:-0.14285715 16:-0.14285715 17:-0.14285715 18:-0.14285715 19:-0.14285715 20:-0.14285715 21:-1.0 22:-1.0 23:0.33333333 24:0.33333333 25:-0.05968449 26:0.29890898 27:-0.36807398 28:-0.83728071 29:-0.20426986 30:0.37850617 31:-0.14921175 32:-0.08721437 33:-0.45050746 34:-0.45050746 35:-0.94285714 36:-0.98095238 37:-0.51287913 38:-0.51300194 39:-0.70070806 40:-0.70046227 
1.0 1:-0.14845937 2:-0.14845937 3:0.52 4:0.52 5:-0.7488511 6:-0.56603528 7:1.0 8:1.0 9:-0.64965142 10:-0.80152221 11:-0.09411901 12:-0.09013769 13:-0.55555556 14:-0.77777778 15:3.0E-8 16:3.0E-8 17:3.0E-8 18:3.0E-8 19:3.0E-8 20:3.0E-8 21:-1.0 22:-1.0 25:0.12290662 26:0.55754599 27:-0.5429762 28:-0.67505309 29:0.16977872 30:0.63307111 31:-0.41938276 32:-0.3795327 33:1.0 34:1.0 35:-0.93333333 36:-0.9047619 37:0.87443259 38:0.87847382 39:0.28532558 40:0.27149078 
1.0 1:0.52380954 2:0.52380954 3:1.0 4:-0.44000001 5:-0.42869573 6:-0.42869573 7:1.0 8:1.0 9:-0.26369569 10:-0.25600885 11:0.26623748 12:0.26623748 13:-0.11111111 14:-0.11111111 15:3.0E-8 16:3.0E-8 17:3.0E-8 18:3.0E-8 19:3.0E-8 20:3.0E-8 21:-1.0 22:-1.0 25:0.62405265 26:0.62405265 27:-1.0 28:-1.0 29:0.91544908 30:0.77841421 31:-0.65386911 32:-0.69417321 33:-0.48246837 34:-0.48246837 35:-0.91428571 36:-0.9047619 37:-0.51850899 38:-0.51851089 39:-0.65722656 40:-0.65722153 
1.0 1:-0.21248498 2:-0.21248498 3:1.0 4:-0.60000001 5:-0.28589122 6:-0.31679426 7:1.0 8:1.0 9:-0.35636923 10:-0.34346509 11:-0.16097948 12:-0.16097948 13:0.11111111 14:-0.11111111 15:-0.14285715 16:0.71428576 17:-0.14285715 18:-0.14285715 19:-0.14285715 20:0.07142859 21:-1.0 22:0.97948672 23:0.33333333 24:0.33333333 25:0.21777949 26:0.05760471 27:-0.89030777 28:-0.90277866 29:0.24852231 30:0.47098633 31:-0.811156 32:-0.77288227 33:1.0 34:1.0 35:-0.92380952 36:-0.96190476 37:0.77136077 38:0.77324732 39:0.09358464 40:0.08822033 
1.0 1:9.3373E-4 2:9.3373E-4 3:-0.50000001 4:0.1 5:-0.5302691 6:-0.55686196 7:1.0 8:1.0 9:0.00378286 10:-0.60559912 11:0.1724657 12:0.17306273 13:-0.33333333 14:-0.33333333 15:-0.33333333 16:-0.33333333 17:-0.33333333 18:-0.33333333 19:-0.33333333 20:-0.33333333 21:-1.0 22:-1.0 23:1.0 24:1.0 25:-0.1075206 26:-0.05062047 27:-0.77686928 28:-0.60725943 29:-0.19247001 30:-0.14443908 31:-0.30211446 32:-0.3485852 33:1.0 34:1.0 35:-0.96190476 36:-0.97142857 37:0.60100069 38:0.60106382 39:-0.15506703 40:-0.15513746 
1.0 1:1.0 2:1.0 3:-0.71428571 4:0.3142857 5:-0.55879214 6:-0.55879214 7:1.0 8:1.0 9:-0.46635927 10:-0.2093386 11:0.40965395 12:0.40965395 13:0.33333333 14:0.11111111 15:0.50000002 16:0.50000002 17:-0.24999999 18:-0.24999999 19:-0.12500001 20:-0.09999999 21:0.490712 22:0.6 23:0.66666667 24:0.66666667 25:-0.82944493 26:-0.08042531 27:-0.6567289 28:-0.76874041 29:-0.71724634 30:-0.08249835 31:-0.94076747 32:-0.91853119 33:-0.82583169 34:-0.82583169 35:-0.98095238 36:-0.98095238 37:-0.81779691 38:-0.81777479 39:-0.8143169 40:-0.81433577 
1.0 1:0.47899159 2:0.07563022 3:0.4 4:0.4 5:-0.68047407 6:-0.69413647 7:1.0 8:1.0 9:0.22110901 10:-0.26098509 11:0.71911354 12:0.70442275 13:-0.33333333 14:-0.33333333 15:0.20000001 16:0.20000001 17:0.20000001 18:0.20000001 19:0.20000001 20:0.20000001 21:-1.0 22:-1.0 23:-0.33333333 24:-0.33333333 25:-0.6874422 26:-0.61523185 27:-0.82733888 28:-0.83318015 29:-0.23631573 30:-0.07903026 31:-0.86696562 32:-0.83362747 33:-0.60135852 34:-0.60135852 35:-0.7047619 36:-0.68571429 37:-0.62082724 38:-0.6212213 39:-0.57985935 40:-0.57908662 
1.0 1:0.52380954 2:0.07563022 3:0.52 4:0.52 5:-0.68618745 6:-0.61307296 7:1.0 8:1.0 9:-0.34219678 10:-0.36824266 11:0.51115934 12:0.48772927 13:-0.11111111 14:-0.11111111 15:3.0E-8 16:3.0E-8 17:3.0E-8 18:3.0E-8 19:3.0E-8 20:3.0E-8 21:-1.0 22:-1.0 25:-0.59498037 26:-0.59498037 27:-0.6034772 28:-0.83244211 29:-0.48388862 30:-0.28369344 31:-0.85129338 32:-0.88028897 33:1.0 34:1.0 35:-0.94285714 36:-0.9047619 37:0.87413158 38:0.87045928 39:0.28309692 40:0.29379248 
1.0 1:-0.37254903 2:0.29971988 3:1.0 4:1.0 5:-0.59986598 6:-0.70051225 7:1.0 8:1.0 9:-0.66682743 10:-0.64264398 11:0.27146412 12:0.23229036 13:0.11111111 14:0.11111111 15:3.0E-8 16:3.0E-8 17:3.0E-8 18:3.0E-8 19:3.0E-8 20:3.0E-8 21:-1.0 22:-1.0 25:-0.2657155 26:-0.24708957 27:-0.76290832 28:-0.79414562 29:-0.09327351 30:0.0723418 31:-0.80039143 32:-0.79220719 33:1.0 34:1.0 35:-0.78095238 36:-0.96190476 37:0.87942868 38:0.87910847 39:0.26805976 40:0.26895524 
1.0 1:-0.59663869 2:-0.37254903 3:0.04 4:0.04 5:-0.27001682 6:-0.41073944 7:1.0 8:1.0 9:-0.45199164 10:-0.70600855 11:-0.58380911 12:-0.55894387 13:-0.77777778 14:-0.77777778 15:3.0E-8 16:3.0E-8 17:3.0E-8 18:3.0E-8 19:3.0E-8 20:3.0E-8 21:-1.0 22:-1.0 25:0.97100901 26:0.76283274 27:-0.56123144 28:-0.64318302 29:1.0 30:0.92249335 31:0.47729428 32:0.38869208 33:1.0 34:1.0 35:-0.6952381 36:-0.6952381 37:0.87598774 38:0.870978 39:0.2776938 40:0.29254986 
1.0 1:0.22502333 2:0.59850609 3:-0.50000001 4:-0.50000001 5:-0.3235441 6:-0.3491611 7:1.0 8:1.0 9:-0.51850189 10:-0.12801134 11:0.17792116 12:0.23719188 13:-0.33333333 14:-0.33333333 15:-0.33333333 16:-0.33333333 17:-0.33333333 18:-0.33333333 19:-0.33333333 20:-0.33333333 21:-1.0 22:-1.0 23:1.0 24:1.0 25:0.46551299 26:0.76869894 27:-0.3289218 28:-0.84146362 29:0.01953579 30:0.79121147 31:0.35492822 32:0.26131446 33:-0.86362391 34:-0.85118274 35:-0.76190476 36:-0.83809524 37:-0.88725791 38:-0.87780204 39:-0.91365661 40:-0.90925631 
1.0 1:0.21008405 2:0.21008405 3:-0.2 4:-0.2 5:-0.20033863 6:-0.31890865 7:1.0 8:1.0 9:-0.46635927 10:-0.81457118 11:0.52623534 12:0.20376604 13:-0.55555556 14:-0.33333333 15:0.20000001 16:0.20000001 17:0.20000001 18:0.20000001 19:0.20000001 20:0.20000001 21:-1.0 22:-1.0 23:-0.33333333 24:-0.33333333 25:0.25383477 26:0.25383477 27:-0.07424583 28:-0.12751673 29:-0.01954795 30:-0.0366078 31:0.25685348 32:0.24702168 33:-0.84610618 34:-0.84610618 35:-0.87619048 36:-0.99047619 37:-0.84636711 38:-0.84701478 39:-0.88245202 40:-0.88057451 
1.0 1:-1.0 2:-1.0 3:-0.80000001 4:-0.80000001 5:-0.43455103 6:-0.43455103 7:1.0 8:1.0 9:-0.30129747 10:-0.30129747 11:-0.54060989 12:-0.34281213 13:-0.55555556 14:-0.55555556 15:0.20000001 16:0.20000001 17:0.20000001 18:0.20000001 19:0.20000001 20:0.20000001 21:-1.0 22:-1.0 23:-0.33333333 24:-0.33333333 25:0.00818742 26:0.00818742 27:-0.19462436 28:-0.19462436 29:-0.19250892 30:-0.19250892 31:-0.07990687 32:-0.07990687 33:-0.97835111 34:-0.97835111 35:-0.83809524 36:-0.96190476 37:-0.97908694 38:-0.97903286 39:-0.97246372 40:-0.9725422 
1.0 1:-0.21248498 2:-0.21248498 3:-0.2 4:-0.2 5:-0.70812415 6:-0.7012465 7:1.0 8:1.0 9:-0.52497779 10:-0.09548907 11:-0.1190723 12:0.19018708 13:0.11111111 14:-0.11111111 15:-0.14285715 16:-0.14285715 17:-0.14285715 18:-0.14285715 19:-0.14285715 20:-0.14285715 21:-1.0 22:-1.0 23:0.33333333 24:0.33333333 25:0.10677862 26:0.10677862 27:-0.69852601 28:-0.60597267 29:-0.06843197 30:-0.10814906 31:-0.22253958 32:-0.15615209 33:1.0 34:1.0 35:-0.97142857 36:-0.98095238 37:0.77223789 38:0.7733811 39:0.11631395 40:0.08722854 
1.0 1:0.47899159 2:0.47899159 3:-0.2 4:-0.2 5:-0.52784565 6:-0.47553821 7:1.0 8:1.0 9:-0.93001094 10:-0.93001094 11:0.85323325 12:0.83820427 13:-0.33333333 14:-0.55555556 15:0.20000001 16:0.20000001 17:0.20000001 18:0.20000001 19:0.20000001 20:0.20000001 21:-1.0 22:-1.0 23:-0.33333333 24:-0.33333333 25:-0.15166962 26:-0.15166962 27:-0.19764185 28:-0.15949576 29:-0.34999306 30:-0.36799173 31:-0.27440331 32:-0.26298529 33:1.0 34:1.0 35:-0.92380952 36:-0.8952381 37:0.89698904 38:0.89697861 39:0.99960759 40:0.99962571 
1.0 1:-0.32773109 2:-0.32773109 3:0.4 4:0.4 5:-0.77679393 6:-0.77679393 7:1.0 8:1.0 9:-0.19309388 10:-0.68124863 11:-0.36754786 12:-0.36754786 13:0.11111111 14:-0.11111111 15:0.20000001 16:0.20000001 17:0.20000001 18:0.20000001 19:0.20000001 20:0.20000001 21:-1.0 22:-1.0 23:-0.33333333 24:-0.33333333 25:-0.3003515 26:-0.44366798 27:-0.58391773 28:-0.04633764 29:-0.22369048 30:-0.75223901 31:-0.29364314 32:-0.31344617 33:1.0 34:1.0 35:-0.97142857 36:-0.74285714 37:1.0 38:0.98805958 39:0.52098802 40:0.55053311 
1.0 1:-0.86554623 2:-0.86554623 3:-0.2 4:-0.2 5:-0.24601006 6:-0.24601006 7:1.0 8:1.0 9:-0.2167021 10:-0.81534294 11:-0.43213318 12:-0.43213318 13:-0.55555556 14:-0.55555556 15:0.20000001 16:0.20000001 17:0.20000001 18:0.20000001 19:0.20000001 20:0.20000001 21:-1.0 22:-1.0 23:-0.33333333 24:-0.33333333 25:0.03368777 26:0.03368777 27:0.42393358 28:0.56962529 29:-0.65056374 30:-0.79680287 31:0.3556393 32:0.454263 33:-0.98979126 34:-0.98979126 35:-0.94285714 36:-0.57142857 37:-0.99031377 38:-0.9904343 39:-0.99074377 40:-0.99049625 
1.0 1:-0.02040816 2:0.07563022 3:0.59999999 4:0.65714286 5:-0.40202154 6:-0.43078057 7:1.0 8:1.0 9:-0.58370953 10:-0.45564231 11:-0.48125187 12:-0.42379062 13:-0.77777778 14:-0.55555556 15:0.71428576 16:0.50000002 17:0.71428576 18:-0.24999999 19:0.71428576 20:0.12500001 21:-1.0 22:1.0 23:0.33333333 24:0.66666667 25:-0.79464476 26:-0.41234279 27:-0.77071237 28:-0.94132292 29:-0.55627387 30:-0.2028553 31:-0.82758249 32:-0.84646059 33:-0.78822221 34:-0.78822221 35:-0.86666667 36:-0.86666667 37:-0.81961995 38:-0.8132132 39:-0.84939943 40:-0.83066209 
1.0 1:-0.02040816 2:-0.02040816 3:0.2 4:0.2 5:-0.25122407 6:-0.25122407 7:1.0 8:1.0 9:-0.79900965 10:-0.30608611 11:-0.18543679 12:-0.18543679 13:-0.11111111 14:-0.11111111 15:-0.14285715 16:-0.14285715 17:-0.14285715 18:-0.14285715 19:-0.14285715 20:-0.14285715 21:-1.0 22:-1.0 23:0.33333333 24:0.33333333 25:-0.62549517 26:0.495871 27:-0.48267157 28:-0.91930443 29:-0.65742579 30:0.40265662 31:-0.54548038 32:-0.52940919 33:1.0 34:1.0 35:-0.88571429 36:-0.83809524 37:0.74995819 38:0.76013286 39:0.18103062 40:0.13364015 
1.0 1:-0.46218486 2:-0.46218486 3:1.0 4:1.0 5:-0.46236377 6:-0.46236377 7:1.0 8:1.0 9:-0.69143637 10:-0.90767147 11:-0.49562971 12:-0.49562971 13:-0.55555556 14:-0.55555556 15:0.20000001 16:0.20000001 17:0.20000001 18:0.20000001 19:0.20000001 20:0.20000001 21:-1.0 22:-1.0 23:-0.33333333 24:-0.33333333 25:-0.58119233 26:0.46140368 27:-0.65577565 28:-0.78585088 29:-0.37103706 30:0.4460915 31:-0.88979111 32:-0.13995881 33:-0.76700232 34:-0.76700232 35:-0.87619048 36:-0.85714286 37:-0.76722445 38:-0.76716685 39:-0.82188277 40:-0.82202163 
1.0 1:0.07563022 2:0.07563022 3:-0.2 4:-0.2 5:1.0 6:1.0 7:1.0 8:1.0 9:-0.34776154 10:-0.22348095 11:0.12313598 12:0.12313598 13:-0.11111111 14:0.11111111 15:0.20000001 16:0.20000001 17:0.20000001 18:0.20000001 19:0.20000001 20:0.20000001 21:-1.0 22:-1.0 23:-0.33333333 24:-0.33333333 25:0.7061054 26:-0.99398868 27:0.06549884 28:-0.45697748 29:0.09459753 30:-0.91037253 31:0.67240121 32:-0.86754444 33:-0.99847465 34:-0.99924527 35:-0.81904762 36:-0.57142857 37:-0.99874115 38:-0.99941505 39:-0.99700414 40:-0.99693169 
1.0 1:0.55582231 2:0.55582231 3:-0.2 4:-0.2 5:-0.73975805 6:-0.73975805 7:1.0 8:1.0 9:-0.43010484 10:-0.43010484 11:0.31301671 12:0.31301671 13:-0.33333333 14:-0.33333333 15:-0.14285715 16:-0.14285715 17:-0.14285715 18:-0.14285715 19:-0.14285715 20:-0.14285715 21:-1.0 22:-1.0 23:0.33333333 24:0.33333333 25:0.15884708 26:-0.49787229 27:-0.48267157 28:-0.89524164 29:0.13163508 30:-0.22053616 31:0.06630023 32:-1.0 33:1.0 34:1.0 35:-0.99047619 36:-0.9047619 37:0.73883089 38:0.73879295 39:0.22427711 40:0.22483338 
1.0 1:-0.07376282 2:-0.14845937 3:-0.50000001 4:-0.50000001 5:-0.69771964 6:-0.64967209 7:1.0 8:1.0 9:-0.69660489 10:-0.07119716 11:0.24658308 12:0.19969137 13:0.11111111 14:-0.11111111 15:-0.33333333 16:-0.33333333 17:-0.33333333 18:-0.33333333 19:-0.33333333 20:-0.33333333 21:-1.0 22:-1.0 23:1.0 24:1.0 25:-0.04795995 26:0.65453486 27:-0.95877308 28:-0.95877308 29:0.1943 30:0.31525926 31:-0.66970203 32:0.29146222 33:1.0 34:1.0 35:-0.9047619 36:-0.98095238 37:0.58528612 38:0.58765491 39:-0.0749057 40:-0.08325353 
1.0 1:0.07563022 2:0.07563022 3:-0.2 4:-0.2 5:1.0 6:1.0 7:1.0 8:-1.0 9:-0.22348095 10:1.0 11:0.12313598 12:0.12313598 13:0.11111111 14:-0.33333333 15:0.20000001 16:1.0 17:0.20000001 18:1.0 19:0.20000001 20:1.0 21:-1.0 22:-1.0 23:-0.33333333 24:-1.0 25:-0.32699258 26:-0.59252658 27:-0.3515713 28:-0.02997338 29:-0.39222701 30:-0.83958678 31:-0.32535852 32:-0.35231607 33:-0.99914199 34:-0.99914199 35:-0.64761905 36:-0.64761905 37:-0.99934024 38:-0.99930862 39:-0.99826587 40:-0.99759778 
1.0 1:0.07563022 2:0.07563022 3:1.0 4:1.0 5:1.0 6:1.0 8:-1.0 9:-0.28282114 10:-0.26706291 11:-0.07628512 12:-0.07628512 13:-0.55555556 14:-0.55555556 15:0.50000002 16:1.0 17:0.50000002 18:1.0 19:0.50000002 20:1.0 21:-1.0 22:-1.0 23:-0.66666667 24:-1.0 25:-0.63522087 26:-0.56956686 27:-0.09482136 28:-0.11505632 29:-0.8584113 30:-0.73055612 31:-0.4400306 32:-0.38683742 33:-0.99924527 34:-0.99924527 35:-0.78095238 36:-0.7047619 37:-0.99938392 38:-0.99938608 39:-0.99851339 40:-0.99823166 
1.0 1:-0.05882355 2:-0.09243696 3:1.0 4:1.0 5:0.75407696 6:0.69259621 7:1.0 9:-0.33014408 10:-0.06428327 11:-0.26102808 12:-0.30721383 13:-1.0 14:-1.0 15:-1.0 16:-1.0 17:-1.0 18:-1.0 19:-1.0 20:-1.0 21:-1.0 22:-1.0 23:-0.33333333 24:-0.66666667 25:-0.00584433 26:-0.41008485 27:-0.46842819 28:-0.34944663 29:-0.07926459 30:-0.45491922 31:-0.41353627 32:-0.44651059 33:-0.99903871 34:-0.99903871 35:-0.8 36:-0.94285714 37:-0.99921586 38:-0.99906175 39:-0.99835039 40:-0.99815871 
1.0 1:0.07563022 2:0.07563022 3:1.0 4:1.0 5:-0.58786258 6:-0.58786258 7:1.0 8:1.0 9:-0.5518284 10:-0.44956953 11:0.35890705 12:0.35890705 13:0.11111111 14:0.11111111 15:0.20000001 16:0.20000001 17:0.20000001 18:0.20000001 19:0.20000001 20:0.20000001 21:-1.0 22:-1.0 23:-0.33333333 24:-0.33333333 25:-0.12977934 26:-0.13696069 27:-0.66103341 28:-0.37179251 29:0.10521347 30:-0.19921323 31:-0.44942481 32:-0.42798087 33:-0.37399353 34:-0.9903871 35:-0.91428571 36:-0.61904762 37:-0.38079267 38:-0.99104547 39:-0.50736099 40:-0.99103958 
1.0 1:-0.73109246 2:-0.73109246 3:-0.2 4:-0.2 5:-0.29109594 6:-0.29109594 7:1.0 8:1.0 9:-0.13588402 10:-0.54662236 11:-0.20750599 12:-0.20750599 13:-0.77777778 14:-0.55555556 15:0.20000001 16:0.20000001 17:0.20000001 18:0.20000001 19:0.20000001 20:0.20000001 21:-1.0 22:-1.0 23:-0.33333333 24:-0.33333333 25:0.33168556 26:-0.0507367 27:0.18718453 28:0.50454609 29:-0.26850715 30:-0.81528888 31:0.38952392 32:0.30743806 33:-0.9967189 34:-0.97090707 35:-0.97142857 36:-0.92380952 37:-0.99699147 38:-0.97130642 39:-0.99637025 40:-0.97694318 
1.0 1:-0.40456181 2:-0.40456181 3:-0.60000001 4:-0.60000001 5:-0.39876859 6:-0.40787684 7:1.0 8:1.0 9:-0.81534294 10:-0.81534294 11:-0.60899996 12:-0.60354682 13:-0.77777778 14:-0.77777778 15:-0.14285715 16:-0.14285715 17:-0.14285715 18:-0.14285715 19:-0.14285715 20:-0.14285715 21:-1.0 22:-1.0 23:0.33333333 24:0.33333333 25:0.86791039 26:0.86791039 27:-0.57888255 28:-0.54409968 29:0.94023944 30:0.90869288 31:0.568668 32:0.58215279 33:-0.78822221 34:-0.8775507 35:-0.92380952 36:-0.92380952 37:-0.81237235 38:-0.89160008 39:-0.88443129 40:-0.93291705 
1.0 1:-0.50060025 2:-0.50060025 3:-0.60000001 4:-0.60000001 5:-0.07835299 6:-0.06009 7:1.0 8:1.0 9:-0.61450871 10:-0.61450871 11:-0.31715473 12:-0.31715473 13:-0.77777778 14:-1.0 15:-0.14285715 16:-1.0 17:-0.14285715 18:-1.0 19:-0.14285715 20:-1.0 21:-1.0 22:-1.0 23:0.33333333 24:0.33333333 25:0.20129662 26:0.05005125 27:0.41335322 28:0.40284662 29:-0.49322453 30:-0.64357459 31:0.30314708 32:0.24155471 33:-0.97126457 34:-0.98669288 35:-0.94285714 36:-0.94285714 37:-0.97453535 38:-0.98822316 39:-0.98441699 40:-0.99277824 
1.0 1:-0.34453782 2:-0.34453782 3:-0.37142857 4:-0.37142857 5:-0.44918931 6:-0.45736394 7:1.0 8:1.0 9:0.06680669 10:0.06680669 11:-0.38244373 12:-0.37767221 13:-0.33333333 14:-0.33333333 15:-0.24999999 16:-0.24999999 17:-0.24999999 18:-0.24999999 19:-0.24999999 20:-0.24999999 21:-1.0 22:-1.0 23:0.66666667 24:0.66666667 25:-0.11124621 26:-0.11124621 27:-0.76167665 28:-0.60702279 29:0.02924249 30:-0.13230114 31:-0.24662458 32:-0.28940682 33:-0.78822221 34:-0.99538422 35:-0.9047619 36:-0.9047619 37:-0.82258857 38:-0.99650238 39:-0.89719362 40:-0.99558167 
1.0 1:-0.59663869 2:-0.59663869 3:-0.2 4:-0.2 5:-0.75571481 6:-0.4688046 7:1.0 8:1.0 9:-1.0 10:-1.0 11:-0.50896962 12:-0.54045516 13:-0.55555556 14:-0.55555556 15:0.20000001 16:0.20000001 17:0.20000001 18:0.20000001 19:0.20000001 20:0.20000001 21:-1.0 22:-1.0 23:-0.33333333 24:-0.33333333 25:-0.15166962 26:-0.43931122 27:-0.00424336 28:0.11257651 29:-0.57557824 30:-0.86408165 31:-0.0542873 32:-0.12225356 33:-0.37399353 34:-0.37399353 35:-0.60952381 36:-0.86666667 37:-0.33304376 38:-0.33295328 39:-0.14288905 40:-0.14284679 
1.0 1:-0.21248498 2:-0.21248498 3:0.59999999 4:0.59999999 5:-0.92676887 6:-0.35745613 7:1.0 8:1.0 9:-0.154969 10:-0.26600769 11:-0.05800753 12:-0.05375444 13:-0.33333333 14:-0.33333333 15:-0.14285715 16:-0.14285715 17:-0.14285715 18:-0.14285715 19:-0.14285715 20:-0.14285715 21:-1.0 22:-1.0 23:0.33333333 24:0.33333333 25:-0.18711307 26:-0.2425212 27:-0.9661973 28:-0.65256634 29:0.02394075 30:-0.26144037 31:-0.52657277 32:-0.56191154 33:-0.92458241 34:-0.92458241 35:-0.95238095 36:-0.87619048 37:-0.93336604 38:-0.93347487 39:-0.95794904 40:-0.9579318 
1.0 1:0.07563022 2:0.07563022 3:0.2 4:0.2 5:-0.21158454 6:-0.80515501 7:1.0 8:1.0 9:-0.67388077 10:-0.71555776 11:0.06593056 12:0.05365851 13:0.11111111 14:0.55555556 15:-0.14285715 16:-0.14285715 17:-0.14285715 18:-0.14285715 19:-0.14285715 20:-0.14285715 21:-1.0 22:-1.0 23:0.33333333 24:0.33333333 25:-0.39155858 26:-0.37576413 27:-0.68731082 28:-0.80486104 29:-0.36090885 30:-0.16786804 31:-0.62299397 32:-0.57771149 33:1.0 34:1.0 35:-0.92380952 36:-0.97142857 37:0.77283413 38:0.76597914 39:0.08960453 40:0.11198887 
1.0 1:0.37441643 2:0.29971988 3:-0.2 4:-0.2 5:0.14780836 6:-0.62639377 7:1.0 8:1.0 9:-0.68277693 10:-0.57010495 11:-0.05508698 12:-0.06018079 13:-0.77777778 14:-0.33333333 15:-0.33333333 16:-0.33333333 17:-0.33333333 18:-0.33333333 19:-0.33333333 20:-0.33333333 21:-1.0 22:-1.0 23:1.0 24:1.0 25:0.56178932 26:0.75145648 27:-0.18496278 28:-0.32742731 29:0.25291808 30:0.30628146 31:0.13305398 32:0.1667957 33:-0.85118274 34:-0.85118274 35:-0.88571429 36:-0.98095238 37:-0.85075482 38:-0.85070901 39:-0.87802824 40:-0.8774782 
1.0 1:0.55582231 2:0.55582231 3:-0.2 4:-0.2 5:-0.45918052 6:-0.26400351 7:1.0 8:1.0 9:-0.20321342 10:0.03243552 11:1.0 12:0.9585754 13:-0.33333333 14:-0.33333333 15:-0.14285715 16:-0.14285715 17:-0.14285715 18:-0.14285715 19:-0.14285715 20:-0.14285715 21:-1.0 22:-1.0 23:0.33333333 24:0.33333333 25:-0.03731913 26:-0.03731913 27:-0.7977669 28:-0.61370602 29:-0.08430298 30:-0.11552695 31:-0.46418924 32:-0.47387402 33:-0.99725913 34:-0.99725913 35:-0.99047619 36:-0.99047619 37:-0.99715031 38:-0.99719502 39:-0.99696964 40:-0.9969567 
1.0 1:-0.32773109 2:-0.32773109 3:1.0 4:-0.2 5:-0.46460831 6:-0.46460831 7:1.0 8:1.0 9:-0.90767147 10:-0.81534294 11:-0.54129549 12:-0.54129549 13:-0.33333333 14:-0.33333333 15:0.20000001 16:0.20000001 17:0.20000001 18:0.20000001 19:0.20000001 20:0.20000001 21:-1.0 22:-1.0 23:-0.33333333 24:-0.33333333 25:0.51994415 26:0.51046078 27:-0.60379707 28:-0.25881432 29:0.51649574 30:0.27675958 31:0.0480636 32:0.11400137 33:-0.8775507 34:-0.8775507 35:-0.85714286 36:-0.84761905 37:-0.87777016 38:-0.87797381 39:-0.90592388 40:-0.90560392 
1.0 1:0.07563022 2:0.07563022 3:-0.60000001 4:-1.0 5:-0.29820597 6:-0.20452099 7:1.0 8:1.0 9:-0.60677878 10:0.23340437 11:0.22900926 12:0.25977606 13:-0.33333333 14:-0.55555556 15:-0.14285715 16:-0.14285715 17:-0.14285715 18:-0.14285715 19:-0.14285715 20:-0.14285715 21:-1.0 22:-1.0 23:0.33333333 24:0.33333333 25:0.78925138 26:0.38282179 27:0.46223613 28:0.55141382 29:-0.18130833 30:-0.54397268 31:0.91720197 32:0.84581427 33:-0.89527498 34:-0.89527498 35:-0.96190476 36:-0.96190476 37:-0.90756223 38:-0.90719412 39:-0.94178282 40:-0.94239514 
1.0 1:-0.59663869 2:-0.59663869 3:0.59999999 4:-0.60000001 5:0.02411493 6:0.02411493 7:1.0 8:1.0 9:-0.43553768 10:-0.61450871 11:-0.44570142 12:-0.44570142 13:-1.0 14:-1.0 15:-1.0 16:-1.0 17:-1.0 18:-1.0 19:-1.0 20:-1.0 21:-1.0 22:-1.0 23:0.33333333 24:0.33333333 25:0.52650954 26:0.23325497 27:-0.55668376 28:-0.14972755 29:0.3949353 30:0.06650617 31:-0.16312363 32:-0.10799889 33:-0.99980139 34:-0.99983316 35:-0.93333333 36:-0.93333333 37:-0.99983604 38:-0.99986149 39:-0.99987171 40:-0.99988896 
1.0 1:-0.59663869 2:-0.59663869 3:-0.80000001 4:0.4 5:1.0 6:1.0 9:0.94756797 10:0.1350268 11:-1.0 12:-1.0 13:-1.0 14:-1.0 15:-1.0 16:-1.0 17:-1.0 18:-1.0 19:-1.0 20:-1.0 21:-1.0 22:-1.0 23:-0.33333333 24:-0.33333333 25:-0.53427167 26:-0.59523611 27:-0.73477085 28:-0.71267606 29:-0.23995712 30:-0.29713162 31:-0.82666532 32:-0.84009806 33:-0.99922143 34:-0.99922143 35:-0.62857143 36:-0.86666667 37:-0.99951674 38:-0.99937394 39:-0.99855565 40:-0.99855565 
1.0 1:-0.32773109 2:0.34453782 3:0.4 4:0.4 5:-0.59235166 6:-0.65880943 7:1.0 8:1.0 9:-0.17040946 10:-0.35030941 11:0.09074452 12:0.15133315 13:-0.33333333 14:-0.33333333 15:0.20000001 16:0.20000001 17:0.20000001 18:0.20000001 19:0.20000001 20:0.20000001 21:-1.0 22:-1.0 23:-0.33333333 24:-0.33333333 25:-0.30040421 26:-0.30200264 27:-0.87758322 28:-0.91617264 29:0.19680708 30:0.26155907 31:-0.6162174 32:-0.65432934 33:1.0 34:1.0 35:-0.40952381 36:-0.40952381 37:0.97042772 38:0.95200185 39:0.59726554 40:0.65275163 
1.0 1:-0.86554623 2:-0.46218486 3:0.4 4:0.4 5:-0.71443488 6:-0.73522123 7:1.0 8:1.0 9:-0.80435334 10:-0.80435334 11:-0.40893398 12:-0.36968272 13:-0.55555556 14:-0.55555556 15:0.20000001 16:0.20000001 17:0.20000001 18:0.20000001 19:0.20000001 20:0.20000001 21:-1.0 22:-1.0 23:-0.33333333 24:-0.33333333 25:-0.09070518 26:-0.29391997 27:-0.76852353 28:-0.72002593 29:0.05460422 30:-0.09128113 31:-0.2566551 32:-0.30874417 33:-0.37399353 34:-0.37399353 35:-0.86666667 36:-0.60952381 37:-0.33295328 38:-0.33304164 39:-0.14284679 40:-0.14290716 
1.0 1:0.24369747 2:0.49579833 3:0.3142857 4:0.3142857 5:-0.50547381 6:-0.5337618 7:1.0 8:1.0 9:-0.3214614 10:-0.42547055 11:0.32730886 12:0.34738725 13:-0.11111111 14:-0.11111111 15:-0.24999999 16:-0.24999999 17:-0.24999999 18:-0.24999999 19:-0.24999999 20:-0.24999999 21:-1.0 22:-1.0 23:0.66666667 24:0.66666667 25:-0.29607942 26:-0.44260185 27:-0.91762498 28:-0.95877308 29:-0.13726603 30:-0.12613701 31:-0.90794215 32:-0.88057564 33:1.0 34:1.0 35:-0.85714286 36:-0.80952381 37:0.66047332 38:0.65763239 39:0.04302798 40:0.0528117 
1.0 1:-0.21248498 2:0.07563022 3:-0.2 4:-0.2 5:-0.14708319 6:-0.23012212 7:1.0 8:1.0 9:-0.43108077 10:-0.59259833 11:-0.27114105 12:-0.25681387 13:-0.33333333 14:-0.11111111 15:-0.14285715 16:-0.14285715 17:-0.14285715 18:-0.14285715 19:-0.14285715 20:-0.14285715 21:-1.0 22:-1.0 23:0.33333333 24:0.33333333 25:0.15622092 26:0.07121667 27:-0.67773152 28:-0.68163872 29:0.23876786 30:-0.01613205 31:0.06211024 32:0.09165369 33:-0.88793422 34:-0.91324555 35:-0.8952381 36:-0.94285714 37:-0.90090048 38:-0.92459797 39:-0.93827704 40:-0.93867376 
1.0 1:9.3373E-4 2:-0.44724558 3:0.4 4:0.4 5:-0.49654685 6:-0.55851555 7:1.0 8:1.0 9:-0.28917376 10:-0.38395411 11:-0.13371493 12:-0.16158229 13:0.33333333 14:0.55555556 15:-0.33333333 16:-0.33333333 17:-0.33333333 18:-0.33333333 19:-0.33333333 20:-0.33333333 21:-1.0 22:-1.0 23:1.0 24:1.0 25:0.2704589 26:0.21777949 27:-0.86640522 28:-0.97406866 29:0.43244269 30:0.59282279 31:-0.28721923 32:-0.34085852 33:1.0 34:1.0 35:-0.8952381 36:-0.95238095 37:0.59961237 38:0.59936292 39:-0.14969745 40:-0.14858731 
1.0 1:-0.50060025 2:-0.50060025 3:0.2 4:0.2 5:0.14512468 6:0.14512468 7:1.0 8:1.0 9:-0.32288117 10:-0.26915335 11:-0.64030582 12:-0.47030155 13:-0.33333333 14:-0.33333333 15:-0.14285715 16:-0.14285715 17:-0.14285715 18:-0.14285715 19:-0.14285715 20:-0.14285715 21:-1.0 22:-1.0 23:0.33333333 24:0.33333333 25:-0.21114909 26:-0.21114909 27:-0.39010222 28:-0.58020436 29:-0.20006997 30:-0.09073934 31:-0.16372763 32:-0.1895651 33:-0.89896125 34:-0.89896125 35:-0.93333333 36:-0.93333333 37:-0.91065074 38:-0.91064238 39:-0.9443701 40:-0.94439597 
1.0 1:0.29971988 2:0.29971988 3:0.04 4:0.04 5:-0.49622698 6:-0.46773114 7:1.0 8:1.0 9:-0.59699579 10:-0.45546348 11:0.60767254 12:0.14561456 13:-0.11111111 14:-0.33333333 15:3.0E-8 16:3.0E-8 17:3.0E-8 18:3.0E-8 19:3.0E-8 20:3.0E-8 21:-1.0 22:-1.0 25:-0.59498037 26:-0.59498037 27:-0.83244211 28:-0.56123144 29:-0.40678359 30:-0.50400013 31:-0.78232825 32:-0.78261775 33:1.0 34:1.0 35:-0.98095238 36:-0.95238095 37:0.87221139 38:0.87295761 39:0.28879686 40:0.2865682 
1.0 1:-0.00840334 2:-0.00840334 3:-0.37142857 4:-0.37142857 5:-0.72378689 6:-0.77576863 7:1.0 8:1.0 9:-0.58586115 10:-0.58586115 11:0.50465909 12:0.02692138 13:-0.33333333 14:-0.11111111 15:-0.24999999 16:-0.24999999 17:-0.24999999 18:-0.24999999 19:-0.24999999 20:-0.24999999 21:-1.0 22:-1.0 23:0.66666667 24:0.66666667 25:0.10585493 26:0.18510869 27:-0.02345057 28:-0.6024192 29:-0.39206794 30:0.15925517 31:-0.0905213 32:-0.13496017 33:-0.82831834 34:-0.82831834 35:-0.99047619 36:-0.97142857 37:-0.85566159 38:-0.85571809 39:-0.91852688 40:-0.91833445 
1.0 1:0.07563022 2:0.15032678 3:0.1 4:0.1 5:-0.53742558 6:-0.45827048 7:1.0 8:1.0 9:-0.4194252 10:-0.47371991 11:-0.01236692 12:0.19410387 13:0.11111111 14:-0.11111111 15:-0.33333333 16:-0.33333333 17:-0.33333333 18:-0.33333333 19:-0.33333333 20:-0.33333333 21:-1.0 22:-1.0 23:1.0 24:1.0 25:-0.14602446 26:-0.37678021 27:-0.51937146 28:-0.67505309 29:-0.40921224 30:-0.45883458 31:-0.46677199 32:-0.4104271 33:1.0 34:1.0 35:-1.0 36:-1.0 37:0.60017531 38:0.60041221 39:-0.15185065 40:-0.1527998 
1.0 1:-0.19327732 2:-0.19327732 3:1.0 4:1.0 5:-0.79113943 6:-0.76264359 7:1.0 8:1.0 9:-0.59853691 10:-0.25805427 11:-0.10647337 12:-0.10647337 13:-0.55555556 14:-0.55555556 15:0.20000001 16:0.20000001 17:0.20000001 18:0.20000001 19:0.20000001 20:0.20000001 21:-1.0 22:-1.0 23:-0.33333333 24:-0.33333333 25:-0.09709934 26:0.49805946 27:-0.71265614 28:-0.65256634 29:-0.01503457 30:0.45934404 31:-0.28821638 32:-0.25948474 33:-0.92458241 34:-0.92458241 35:-0.77142857 36:-0.87619048 37:-0.9247407 38:-0.92467259 39:-0.94184405 40:-0.94241153 
1.0 1:0.21008405 2:0.21008405 3:0.4 4:0.4 5:-0.73463569 6:-0.73463569 7:1.0 8:1.0 9:0.06858994 10:-0.5075261 11:0.27988531 12:0.27424991 13:-0.55555556 14:-0.33333333 15:0.20000001 16:0.20000001 17:0.20000001 18:0.20000001 19:0.20000001 20:0.20000001 21:-1.0 22:-1.0 23:-0.33333333 24:-0.33333333 25:-0.48183779 26:-0.85953731 27:-0.68355112 28:-0.30319516 29:-0.2960688 30:-0.90031905 31:-0.68360409 32:-0.67602317 33:-0.63826888 34:-0.63826888 35:-0.91428571 36:-0.32380952 37:-0.64869112 38:-0.64555196 39:-0.6953291 40:-0.70646133 
1.0 1:-0.59663869 2:-0.59663869 3:-0.2 4:-0.2 5:-0.3525767 6:-0.3525767 7:1.0 8:1.0 9:-0.81534294 10:-0.36560996 11:-0.63071916 12:-0.63071916 13:-0.77777778 14:-0.55555556 15:0.20000001 16:0.20000001 17:0.20000001 18:0.20000001 19:0.20000001 20:0.20000001 21:-1.0 22:-1.0 23:-0.33333333 24:-0.33333333 25:-0.16782094 26:-0.3189461 27:-0.17749555 28:-0.11280877 29:-0.45148909 30:-0.58522269 31:-0.22175742 32:-0.2887714 33:-0.99965838 34:-0.99915788 35:-0.84761905 36:-0.9047619 37:-0.999598 38:-0.99920528 39:-0.99885146 40:-0.99887561 
1.0 1:-0.59663869 2:-0.59663869 3:-0.2 4:-0.2 5:-0.17106208 6:-0.17106208 7:1.0 8:1.0 9:-0.47091378 10:-0.55521417 11:-0.66742084 12:-0.66742084 13:-1.0 14:-1.0 15:-1.0 16:-1.0 17:-1.0 18:-1.0 19:-1.0 20:-1.0 21:-1.0 22:-1.0 23:0.33333333 24:0.33333333 25:0.72097046 26:1.0 27:-0.20158172 28:-0.18450848 29:0.14094539 30:0.26312412 31:0.72657234 32:0.75368494 33:-0.99969016 34:-0.99958688 35:-0.8952381 36:-0.88571429 37:-0.99972406 38:-0.99964091 39:-0.99931113 40:-0.99932838 
1.0 1:0.34453782 2:0.34453782 3:-0.2 4:-0.2 5:-0.40312755 6:-0.40839732 7:1.0 8:1.0 9:-0.93001094 10:-0.93001094 11:0.6771237 12:0.6771237 13:-0.55555556 14:-0.33333333 15:0.20000001 16:0.20000001 17:0.20000001 18:0.20000001 19:0.20000001 20:0.20000001 21:-1.0 22:-1.0 23:-0.33333333 24:-0.33333333 25:-0.10372962 26:-0.15166962 27:0.26255681 28:-0.93845031 29:-0.66632241 30:0.36032279 31:0.25682283 32:-0.71403767 33:1.0 34:1.0 35:-0.77142857 36:1.0 37:0.89693341 38:0.89555467 39:0.99970419 40:1.0 
1.0 1:-0.14845937 2:-0.14845937 3:1.0 4:1.0 5:-0.54534652 6:-0.54534652 7:1.0 8:1.0 9:-0.4630476 10:-0.50444148 11:-0.19384809 12:-0.19384809 13:-0.77777778 14:-0.77777778 15:3.0E-8 16:3.0E-8 17:3.0E-8 18:3.0E-8 19:3.0E-8 20:3.0E-8 21:-1.0 22:-1.0 25:0.25852176 26:0.83765133 27:-0.73239154 28:-0.45196264 29:0.299848 30:0.65437436 31:-0.68911595 32:0.13255178 33:1.0 34:1.0 35:-0.96190476 36:-0.96190476 37:0.87971193 38:0.87991658 39:0.26708377 40:0.2668272 
1.0 1:0.18767505 2:0.18767505 3:-0.92000001 4:-0.92000001 5:0.10608929 6:0.10608929 7:1.0 8:1.0 9:0.51424341 10:0.51424341 11:0.3531653 12:0.3531653 13:-0.33333333 14:-0.33333333 15:3.0E-8 16:3.0E-8 17:3.0E-8 18:3.0E-8 19:3.0E-8 20:3.0E-8 21:-1.0 22:-1.0 25:0.37613059 26:0.0916299 27:-0.54387383 28:-0.54387383 29:0.15429612 30:0.03464463 31:0.22850073 32:-0.45412994 33:-0.92458241 34:-0.92458241 35:-0.98095238 36:-0.98095238 37:-0.92933945 38:-0.92934313 39:-0.95165619 40:-0.95164613 
1.0 1:0.07563022 2:0.07563022 3:0.04 4:0.04 5:-0.56044022 6:-0.56044022 7:1.0 8:1.0 9:0.05766159 10:-0.26439884 11:0.20592219 12:0.20592219 13:-0.11111111 14:-0.11111111 15:3.0E-8 16:3.0E-8 17:3.0E-8 18:3.0E-8 19:3.0E-8 20:3.0E-8 21:-1.0 22:-1.0 25:0.44115933 26:-1.0 27:-0.26623616 28:-0.838059 29:-0.01388204 30:-0.67497257 31:0.33222532 32:-0.99982724 33:-0.96983455 34:-0.96983455 35:-0.96190476 36:-0.96190476 37:-0.97202853 38:-0.97202521 39:-0.97986408 40:-0.97986408 
1.0 1:-0.22315593 2:-0.22315593 3:0.7 4:0.7 5:-0.06000093 6:-0.07114228 7:1.0 8:1.0 9:-0.56027648 10:-0.45343813 11:-0.41564842 12:-0.45061861 13:0.11111111 14:-0.11111111 15:-0.33333333 16:-0.33333333 17:-0.33333333 18:-0.33333333 19:-0.33333333 20:-0.33333333 21:-1.0 22:-1.0 23:1.0 24:1.0 25:-0.60594205 26:0.07685965 27:-0.83887509 28:-0.8045722 29:-0.34085694 30:0.19960946 31:-0.8645718 32:-0.49595987 33:1.0 34:1.0 35:-0.95238095 36:-0.95238095 37:0.59575041 38:0.6010064 39:-0.13345456 40:-0.15513075 
-1.0 1:-0.59663869 2:-0.59663869 3:-0.2 4:-0.2 5:1.0 6:1.0 7:-1.0 8:1.0 9:0.90447438 10:-0.27124379 11:-1.0 12:-1.0 13:-1.0 14:-1.0 15:-1.0 16:-1.0 17:-1.0 18:-1.0 19:-1.0 20:-1.0 21:-1.0 22:-1.0 23:-1.0 24:-0.33333333 25:-0.77081368 26:-0.2072806 27:-0.06667225 28:-0.66544312 29:-1.0 30:-0.01880854 31:-0.48979955 32:-0.44050387 33:-0.99989672 34:-0.99922143 35:-0.79047619 36:-0.91428571 37:-0.99957083 38:-0.99932546 39:-0.99866431 40:-0.99909898 
-1.0 1:-0.37254903 2:-0.2605042 3:1.0 4:1.0 5:-0.40527449 6:-0.40527449 7:-1.0 9:-0.34092847 10:-0.46051357 11:0.29665454 12:0.32770001 13:-1.0 14:-1.0 15:-1.0 16:-1.0 17:-1.0 18:-1.0 19:-1.0 20:-1.0 21:-1.0 22:-1.0 23:-1.0 24:-0.66666667 25:-8.3284E-4 26:-0.03131505 27:-0.27316082 28:0.07336287 29:0.05193322 30:-0.37267012 31:-0.10828741 32:-0.06428306 33:-0.99924527 34:-0.99992055 35:-0.92380952 36:-0.93333333 37:-0.9991773 38:-0.99960623 39:-0.99886555 40:-0.999185 
-1.0 1:-0.32773109 2:-0.32773109 3:1.0 4:1.0 5:0.12560697 6:0.12560697 8:1.0 9:-0.26047037 10:-0.26047037 11:-0.75537271 12:-0.75537271 13:-0.77777778 14:-0.77777778 15:0.20000001 16:0.20000001 17:0.20000001 18:0.20000001 19:0.20000001 20:0.20000001 21:-1.0 22:-1.0 23:-0.33333333 24:-0.33333333 25:-0.94428739 26:-0.94428739 27:-0.71267606 28:-0.74883119 29:-0.6600347 30:-0.63011895 31:-0.88148977 32:-0.89200236 33:-0.8775507 34:-0.8775507 35:-0.62857143 36:-0.62857143 37:-0.87803564 38:-0.87803564 39:-0.90541074 40:-0.90541074 
-1.0 1:0.24369747 2:0.24369747 3:0.2 4:0.2 5:0.40568599 6:0.40568599 7:-1.0 9:-0.27124379 10:-0.38640006 11:-0.01427761 12:-0.01427761 13:-0.77777778 14:-0.77777778 15:0.50000002 16:0.50000002 17:0.50000002 18:0.50000002 19:0.50000002 20:0.50000002 21:-1.0 22:-1.0 23:-0.66666667 24:-0.66666667 25:-0.55459314 26:-0.55459314 27:-0.58680271 28:-0.34398317 29:-0.37286069 30:-0.5920633 31:-0.57492978 32:-0.52197746 33:-1.0 34:-1.0 35:-0.9047619 36:-0.9047619 37:-0.99989732 38:-0.99989732 39:-0.99971324 40:-0.99971324 
-1.0 1:-0.2605042 2:-0.2605042 3:0.04 4:0.04 5:0.1228745 6:0.1228745 7:1.0 9:-0.04074192 10:-0.04074192 11:0.42696223 12:0.42696223 13:-0.11111111 14:-0.33333333 15:3.0E-8 16:3.0E-8 17:3.0E-8 18:3.0E-8 19:3.0E-8 20:3.0E-8 21:-1.0 22:-1.0 25:0.43604241 26:0.36491723 27:-0.82787426 28:-0.91575127 29:0.76508121 30:0.83752979 31:-0.01395286 32:-0.00873252 33:-0.98425391 34:-0.98425391 35:-0.68571429 36:-0.68571429 37:-0.98582281 38:-0.9860168 39:-0.98781783 40:-0.9876166 
-1.0 1:0.07563022 2:0.07563022 3:0.2 4:0.2 5:-0.05395587 6:-0.05395587 9:-0.41425133 10:-0.37196029 11:0.30594872 12:0.30594872 13:-0.77777778 14:-0.77777778 15:0.50000002 16:0.50000002 17:0.50000002 18:0.50000002 19:0.50000002 20:0.50000002 21:-1.0 22:-1.0 23:-0.66666667 24:-0.66666667 25:0.09199938 26:0.29890898 27:0.05125206 28:0.05125206 29:-0.31401893 30:-0.09030073 31:0.07983232 32:0.14497973 33:-0.99997617 34:-0.99997617 35:-0.8 36:-0.96190476 37:-1.0 38:-0.99992233 39:-0.99987171 40:-1.0 
-1.0 1:-0.05882355 2:-0.05882355 3:0.4 4:0.4 5:-0.83388322 6:-0.83388322 7:1.0 8:1.0 9:-0.30429087 10:-0.42804858 11:-0.08097766 12:-0.08097766 13:-0.77777778 14:-1.0 15:0.20000001 16:-1.0 17:0.20000001 18:-1.0 19:0.20000001 20:-1.0 21:-1.0 22:-1.0 23:-0.33333333 24:-0.33333333 25:0.58685818 26:0.61696875 27:0.96040719 28:1.0 29:-0.628102 30:-0.66812824 31:0.97242483 32:1.0 33:-0.88991241 34:-0.99903077 35:-0.84761905 36:-0.85714286 37:-0.8935271 38:-0.99923991 39:-0.87288941 40:-0.99849528 
-1.0 1:0.61344536 2:0.61344536 3:-0.2 4:-0.2 5:-0.41405746 6:-0.41405746 7:1.0 8:1.0 9:-0.62710409 10:-0.87412971 11:0.25765862 12:0.25765862 13:-0.55555556 14:-0.77777778 15:0.20000001 16:0.20000001 17:0.20000001 18:0.20000001 19:0.20000001 20:0.20000001 21:-1.0 22:-1.0 23:-0.33333333 24:-0.33333333 25:0.3720706 26:0.71421461 27:-0.02999948 28:-0.26948174 29:0.05428611 30:0.57489261 31:0.21317241 32:0.18581341 33:-0.82366283 34:-0.99753719 35:-0.71428571 36:-0.82857143 37:-0.8245541 38:-0.99774213 39:-0.86304909 40:-0.99665399 
-1.0 1:0.26770711 2:0.17166867 3:0.2 4:0.2 5:-0.64807976 6:-0.61653199 7:1.0 8:1.0 9:-0.39726344 10:-0.87229108 11:0.26143316 12:0.24681688 13:0.11111111 14:1.0 15:-0.14285715 16:-0.14285715 17:-0.14285715 18:-0.14285715 19:-0.14285715 20:-0.14285715 21:-1.0 22:-1.0 23:0.33333333 24:0.33333333 25:0.06317982 26:-0.29487989 27:-0.86073227 28:-0.76654411 29:0.23651996 30:-0.17314765 31:-0.38507168 32:-0.39433799 33:-0.82831834 34:1.0 35:-0.99047619 36:-0.91428571 37:-0.85019743 38:0.74665529 39:-0.89619051 40:0.19062083 
-1.0 1:0.17166867 2:0.17166867 3:-0.2 4:-0.2 5:-0.23872343 6:-0.16878501 7:1.0 8:1.0 9:-0.1351315 10:-0.1351315 11:0.29925065 12:0.29925065 13:-0.11111111 14:-0.33333333 15:-0.14285715 16:-0.14285715 17:-0.14285715 18:-0.14285715 19:-0.14285715 20:-0.14285715 21:-1.0 22:-1.0 23:0.33333333 24:0.33333333 25:0.27258097 26:0.22085357 27:-0.65728568 28:-0.81975076 29:0.34448129 30:0.35373301 31:0.11492097 32:0.12722913 33:-0.96510755 34:-0.84610618 35:-0.96190476 36:-0.81904762 37:-0.96278319 38:-0.86623707 39:-0.96384806 40:-0.89918314 
-1.0 1:0.61344536 2:0.61344536 3:1.0 4:1.0 5:-0.66371001 6:-1.0 7:1.0 8:1.0 9:-0.60783289 10:-0.52966435 11:0.2333898 12:0.27786171 13:-1.0 14:-1.0 15:-1.0 16:-1.0 17:-1.0 18:-1.0 19:-1.0 20:-1.0 21:-1.0 22:-1.0 23:-0.33333333 24:-0.33333333 25:0.24530739 26:0.03667354 27:-0.6314192 28:-0.53106935 29:0.39012422 30:0.12149091 31:-0.38914704 32:-0.41034036 33:-0.97738982 34:-0.97738982 35:-0.97142857 36:-0.98095238 37:-0.97770453 38:-0.97755208 39:-0.98176071 40:-0.98176674 
-1.0 1:0.21008405 2:0.21008405 3:0.4 4:0.4 5:-0.59340738 6:-0.27780616 7:1.0 8:1.0 9:-0.35382982 10:-0.60241543 11:-0.3408264 12:-0.36399749 13:-0.77777778 14:-0.77777778 15:0.20000001 16:0.20000001 17:0.20000001 18:0.20000001 19:0.20000001 20:0.20000001 21:-1.0 22:-1.0 23:-0.33333333 24:-0.33333333 25:-0.39481558 26:-0.39481558 27:-0.30953786 28:-0.06370068 29:-0.51474884 30:-0.65048173 31:-0.26914523 32:-0.28776925 33:-0.95479553 34:-0.95479553 35:-0.55238095 36:-0.57142857 37:-0.95610152 38:-0.95624864 39:-0.96215856 40:-0.96183256 
-1.0 1:0.07563022 2:0.07563022 3:0.59999999 4:0.59999999 5:-0.59533972 6:-0.15256673 7:1.0 8:1.0 9:-0.37635771 10:-0.72055986 11:0.06688297 12:0.07733088 13:-0.77777778 14:-0.77777778 15:-0.14285715 16:-0.14285715 17:-0.14285715 18:-0.14285715 19:-0.14285715 20:-0.14285715 21:-1.0 22:-1.0 23:0.33333333 24:0.33333333 25:0.29890898 26:-0.05968449 27:-0.83728071 28:-0.36807398 29:0.37850617 30:-0.20426986 31:-0.08721437 32:-0.14921175 33:-0.45050746 34:-0.45050746 35:-0.98095238 36:-0.94285714 37:-0.51300194 38:-0.51287913 39:-0.70046227 40:-0.70070806 
-1.0 1:-0.14845937 2:-0.14845937 3:0.52 4:0.52 5:-0.56603528 6:-0.7488511 7:1.0 8:1.0 9:-0.80152221 10:-0.64965142 11:-0.09013769 12:-0.09411901 13:-0.77777778 14:-0.55555556 15:3.0E-8 16:3.0E-8 17:3.0E-8 18:3.0E-8 19:3.0E-8 20:3.0E-8 21:-1.0 22:-1.0 25:0.55754599 26:0.12290662 27:-0.67505309 28:-0.5429762 29:0.63307111 30:0.16977872 31:-0.3795327 32:-0.41938276 33:1.0 34:1.0 35:-0.9047619 36:-0.93333333 37:0.87847382 38:0.87443259 39:0.27149078 40:0.28532558 
-1.0 1:0.52380954 2:0.52380954 3:-0.44000001 4:1.0 5:-0.42869573 6:-0.42869573 7:1.0 8:1.0 9:-0.25600885 10:-0.26369569 11:0.26623748 12:0.26623748 13:-0.11111111 14:-0.11111111 15:3.0E-8 16:3.0E-8 17:3.0E-8 18:3.0E-8 19:3.0E-8 20:3.0E-8 21:-1.0 22:-1.0 25:0.62405265 26:0.62405265 27:-1.0 28:-1.0 29:0.77841421 30:0.91544908 31:-0.69417321 32:-0.65386911 33:-0.48246837 34:-0.48246837 35:-0.9047619 36:-0.91428571 37:-0.51851089 38:-0.51850899 39:-0.65722153 40:-0.65722656 
-1.0 1:-0.21248498 2:-0.21248498 3:-0.60000001 4:1.0 5:-0.31679426 6:-0.28589122 7:1.0 8:1.0 9:-0.34346509 10:-0.35636923 11:-0.16097948 12:-0.16097948 13:-0.11111111 14:0.11111111 15:0.71428576 16:-0.14285715 17:-0.14285715 18:-0.14285715 19:0.07142859 20:-0.14285715 21:0.97948672 22:-1.0 23:0.33333333 24:0.33333333 25:0.05760471 26:0.21777949 27:-0.90277866 28:-0.89030777 29:0.47098633 30:0.24852231 31:-0.77288227 32:-0.811156 33:1.0 34:1.0 35:-0.96190476 36:-0.92380952 37:0.77324732 38:0.77136077 39:0.08822033 40:0.09358464 
-1.0 1:9.3373E-4 2:9.3373E-4 3:0.1 4:-0.50000001 5:-0.55686196 6:-0.5302691 7:1.0 8:1.0 9:-0.60559912 10:0.00378286 11:0.17306273 12:0.1724657 13:-0.33333333 14:-0.33333333 15:-0.33333333 16:-0.33333333 17:-0.33333333 18:-0.33333333 19:-0.33333333 20:-0.33333333 21:-1.0 22:-1.0 23:1.0 24:1.0 25:-0.05062047 26:-0.1075206 27:-0.60725943 28:-0.77686928 29:-0.14443908 30:-0.19247001 31:-0.3485852 32:-0.30211446 33:1.0 34:1.0 35:-0.97142857 36:-0.96190476 37:0.60106382 38:0.60100069 39:-0.15513746 40:-0.15506703 
-1.0 1:1.0 2:1.0 3:0.3142857 4:-0.71428571 5:-0.55879214 6:-0.55879214 7:1.0 8:1.0 9:-0.2093386 10:-0.46635927 11:0.40965395 12:0.40965395 13:0.11111111 14:0.33333333 15:0.50000002 16:0.50000002 17:-0.24999999 18:-0.24999999 19:-0.09999999 20:-0.12500001 21:0.6 22:0.490712 23:0.66666667 24:0.66666667 25:-0.08042531 26:-0.82944493 27:-0.76874041 28:-0.6567289 29:-0.08249835 30:-0.71724634 31:-0.91853119 32:-0.94076747 33:-0.82583169 34:-0.82583169 35:-0.98095238 36:-0.98095238 37:-0.81777479 38:-0.81779691 39:-0.81433577 40:-0.8143169 
-1.0 1:0.07563022 2:0.47899159 3:0.4 4:0.4 5:-0.69413647 6:-0.68047407 7:1.0 8:1.0 9:-0.26098509 10:0.22110901 11:0.70442275 12:0.71911354 13:-0.33333333 14:-0.33333333 15:0.20000001 16:0.20000001 17:0.20000001 18:0.20000001 19:0.20000001 20:0.20000001 21:-1.0 22:-1.0 23:-0.33333333 24:-0.33333333 25:-0.61523185 26:-0.6874422 27:-0.83318015 28:-0.82733888 29:-0.07903026 30:-0.23631573 31:-0.83362747 32:-0.86696562 33:-0.60135852 34:-0.60135852 35:-0.68571429 36:-0.7047619 37:-0.6212213 38:-0.62082724 39:-0.57908662 40:-0.57985935 
-1.0 1:0.07563022 2:0.52380954 3:0.52 4:0.52 5:-0.61307296 6:-0.68618745 7:1.0 8:1.0 9:-0.36824266 10:-0.34219678 11:0.48772927 12:0.51115934 13:-0.11111111 14:-0.11111111 15:3.0E-8 16:3.0E-8 17:3.0E-8 18:3.0E-8 19:3.0E-8 20:3.0E-8 21:-1.0 22:-1.0 25:-0.59498037 26:-0.59498037 27:-0.83244211 28:-0.6034772 29:-0.28369344 30:-0.48388862 31:-0.88028897 32:-0.85129338 33:1.0 34:1.0 35:-0.9047619 36:-0.94285714 37:0.87045928 38:0.87413158 39:0.29379248 40:0.28309692 
-1.0 1:0.29971988 2:-0.37254903 3:1.0 4:1.0 5:-0.70051225 6:-0.59986598 7:1.0 8:1.0 9:-0.64264398 10:-0.66682743 11:0.23229036 12:0.27146412 13:0.11111111 14:0.11111111 15:3.0E-8 16:3.0E-8 17:3.0E-8 18:3.0E-8 19:3.0E-8 20:3.0E-8 21:-1.0 22:-1.0 25:-0.24708957 26:-0.2657155 27:-0.79414562 28:-0.76290832 29:0.0723418 30:-0.09327351 31:-0.79220719 32:-0.80039143 33:1.0 34:1.0 35:-0.96190476 36:-0.78095238 37:0.87910847 38:0.87942868 39:0.26895524 40:0.26805976 
-1.0 1:-0.37254903 2:-0.59663869 3:0.04 4:0.04 5:-0.41073944 6:-0.27001682 7:1.0 8:1.0 9:-0.70600855 10:-0.45199164 11:-0.55894387 12:-0.58380911 13:-0.77777778 14:-0.77777778 15:3.0E-8 16:3.0E-8 17:3.0E-8 18:3.0E-8 19:3.0E-8 20:3.0E-8 21:-1.0 22:-1.0 25:0.76283274 26:0.97100901 27:-0.64318302 28:-0.56123144 29:0.92249335 30:1.0 31:0.38869208 32:0.47729428 33:1.0 34:1.0 35:-0.6952381 36:-0.6952381 37:0.870978 38:0.87598774 39:0.29254986 40:0.2776938 
-1.0 1:0.59850609 2:0.22502333 3:-0.50000001 4:-0.50000001 5:-0.3491611 6:-0.3235441 7:1.0 8:1.0 9:-0.12801134 10:-0.51850189 11:0.23719188 12:0.17792116 13:-0.33333333 14:-0.33333333 15:-0.33333333 16:-0.33333333 17:-0.33333333 18:-0.33333333 19:-0.33333333 20:-0.33333333 21:-1.0 22:-1.0 23:1.0 24:1.0 25:0.76869894 26:0.46551299 27:-0.84146362 28:-0.3289218 29:0.79121147 30:0.01953579 31:0.26131446 32:0.35492822 33:-0.85118274 34:-0.86362391 35:-0.83809524 36:-0.76190476 37:-0.87780204 38:-0.88725791 39:-0.90925631 40:-0.91365661 
-1.0 1:0.21008405 2:0.21008405 3:-0.2 4:-0.2 5:-0.31890865 6:-0.20033863 7:1.0 8:1.0 9:-0.81457118 10:-0.46635927 11:0.20376604 12:0.52623534 13:-0.33333333 14:-0.55555556 15:0.20000001 16:0.20000001 17:0.20000001 18:0.20000001 19:0.20000001 20:0.20000001 21:-1.0 22:-1.0 23:-0.33333333 24:-0.33333333 25:0.25383477 26:0.25383477 27:-0.12751673 28:-0.07424583 29:-0.0366078 30:-0.01954795 31:0.24702168 32:0.25685348 33:-0.84610618 34:-0.84610618 35:-0.99047619 36:-0.87619048 37:-0.84701478 38:-0.84636711 39:-0.88057451 40:-0.88245202 
-1.0 1:-1.0 2:-1.0 3:-0.80000001 4:-0.80000001 5:-0.43455103 6:-0.43455103 7:1.0 8:1.0 9:-0.30129747 10:-0.30129747 11:-0.34281213 12:-0.54060989 13:-0.55555556 14:-0.55555556 15:0.20000001 16:0.20000001 17:0.20000001 18:0.20000001 19:0.20000001 20:0.20000001 21:-1.0 22:-1.0 23:-0.33333333 24:-0.33333333 25:0.00818742 26:0.00818742 27:-0.19462436 28:-0.19462436 29:-0.19250892 30:-0.19250892 31:-0.07990687 32:-0.07990687 33:-0.97835111 34:-0.97835111 35:-0.96190476 36:-0.83809524 37:-0.97903286 38:-0.97908694 39:-0.9725422 40:-0.97246372 
-1.0 1:-0.21248498 2:-0.21248498 3:-0.2 4:-0.2 5:-0.7012465 6:-0.70812415 7:1.0 8:1.0 9:-0.09548907 10:-0.52497779 11:0.19018708 12:-0.1190723 13:-0.11111111 14:0.11111111 15:-0.14285715 16:-0.14285715 17:-0.14285715 18:-0.14285715 19:-0.14285715 20:-0.14285715 21:-1.0 22:-1.0 23:0.33333333 24:0.33333333 25:0.10677862 26:0.10677862 27:-0.60597267 28:-0.69852601 29:-0.10814906 30:-0.06843197 31:-0.15615209 32:-0.22253958 33:1.0 34:1.0 35:-0.98095238 36:-0.97142857 37:0.7733811 38:0.77223789 39:0.08722854 40:0.11631395 
-1.0 1:0.47899159 2:0.47899159 3:-0.2 4:-0.2 5:-0.47553821 6:-0.52784565 7:1.0 8:1.0 9:-0.93001094 10:-0.93001094 11:0.83820427 12:0.85323325 13:-0.55555556 14:-0.33333333 15:0.20000001 16:0.20000001 17:0.20000001 18:0.20000001 19:0.20000001 20:0.20000001 21:-1.0 22:-1.0 23:-0.33333333 24:-0.33333333 25:-0.15166962 26:-0.15166962 27:-0.15949576 28:-0.19764185 29:-0.36799173 30:-0.34999306 31:-0.26298529 32:-0.27440331 33:1.0 34:1.0 35:-0.8952381 36:-0.92380952 37:0.89697861 38:0.89698904 39:0.99962571 40:0.99960759 
-1.0 1:-0.32773109 2:-0.32773109 3:0.4 4:0.4 5:-0.77679393 6:-0.77679393 7:1.0 8:1.0 9:-0.68124863 10:-0.19309388 11:-0.36754786 12:-0.36754786 13:-0.11111111 14:0.11111111 15:0.20000001 16:0.20000001 17:0.20000001 18:0.20000001 19:0.20000001 20:0.20000001 21:-1.0 22:-1.0 23:-0.33333333 24:-0.33333333 25:-0.44366798 26:-0.3003515 27:-0.04633764 28:-0.58391773 29:-0.75223901 30:-0.22369048 31:-0.31344617 32:-0.29364314 33:1.0 34:1.0 35:-0.74285714 36:-0.97142857 37:0.98805958 38:1.0 39:0.55053311 40:0.52098802 
-1.0 1:-0.86554623 2:-0.86554623 3:-0.2 4:-0.2 5:-0.24601006 6:-0.24601006 7:1.0 8:1.0 9:-0.81534294 10:-0.2167021 11:-0.43213318 12:-0.43213318 13:-0.55555556 14:-0.55555556 15:0.20000001 16:0.20000001 17:0.20000001 18:0.20000001 19:0.20000001 20:0.20000001 21:-1.0 22:-1.0 23:-0.33333333 24:-0.33333333 25:0.03368777 26:0.03368777 27:0.56962529 28:0.42393358 29:-0.79680287 30:-0.65056374 31:0.454263 32:0.3556393 33:-0.98979126 34:-0.98979126 35:-0.57142857 36:-0.94285714 37:-0.9904343 38:-0.99031377 39:-0.99049625 40:-0.99074377 
-1.0 1:0.07563022 2:-0.02040816 3:0.65714286 4:0.59999999 5:-0.43078057 6:-0.40202154 7:1.0 8:1.0 9:-0.45564231 10:-0.58370953 11:-0.42379062 12:-0.48125187 13:-0.55555556 14:-0.77777778 15:0.50000002 16:0.71428576 17:-0.24999999 18:0.71428576 19:0.12500001 20:0.71428576 21:1.0 22:-1.0 23:0.66666667 24:0.33333333 25:-0.41234279 26:-0.79464476 27:-0.94132292 28:-0.77071237 29:-0.2028553 30:-0.55627387 31:-0.84646059 32:-0.82758249 33:-0.78822221 34:-0.78822221 35:-0.86666667 36:-0.86666667 37:-0.8132132 38:-0.81961995 39:-0.83066209 40:-0.84939943 
-1.0 1:-0.02040816 2:-0.02040816 3:0.2 4:0.2 5:-0.25122407 6:-0.25122407 7:1.0 8:1.0 9:-0.30608611 10:-0.79900965 11:-0.18543679 12:-0.18543679 13:-0.11111111 14:-0.11111111 15:-0.14285715 16:-0.14285715 17:-0.14285715 18:-0.14285715 19:-0.14285715 20:-0.14285715 21:-1.0 22:-1.0 23:0.33333333 24:0.33333333 25:0.495871 26:-0.62549517 27:-0.91930443 28:-0.48267157 29:0.40265662 30:-0.65742579 31:-0.52940919 32:-0.54548038 33:1.0 34:1.0 35:-0.83809524 36:-0.88571429 37:0.76013286 38:0.74995819 39:0.13364015 40:0.18103062 
-1.0 1:-0.46218486 2:-0.46218486 3:1.0 4:1.0 5:-0.46236377 6:-0.46236377 7:1.0 8:1.0 9:-0.90767147 10:-0.69143637 11:-0.49562971 12:-0.49562971 13:-0.55555556 14:-0.55555556 15:0.20000001 16:0.20000001 17:0.20000001 18:0.20000001 19:0.20000001 20:0.20000001 21:-1.0 22:-1.0 23:-0.33333333 24:-0.33333333 25:0.46140368 26:-0.58119233 27:-0.78585088 28:-0.65577565 29:0.4460915 30:-0.37103706 31:-0.13995881 32:-0.88979111 33:-0.76700232 34:-0.76700232 35:-0.85714286 36:-0.87619048 37:-0.76716685 38:-0.76722445 39:-0.82202163 40:-0.82188277 
-1.0 1:0.07563022 2:0.07563022 3:-0.2 4:-0.2 5:1.0 6:1.0 7:1.0 8:1.0 9:-0.22348095 10:-0.34776154 11:0.12313598 12:0.12313598 13:0.11111111 14:-0.11111111 15:0.20000001 16:0.20000001 17:0.20000001 18:0.20000001 19:0.20000001 20:0.20000001 21:-1.0 22:-1.0 23:-0.33333333 24:-0.33333333 25:-0.99398868 26:0.7061054 27:-0.45697748 28:0.06549884 29:-0.91037253 30:0.09459753 31:-0.86754444 32:0.67240121 33:-0.99924527 34:-0.99847465 35:-0.57142857 36:-0.81904762 37:-0.99941505 38:-0.99874115 39:-0.99693169 40:-0.99700414 
-1.0 1:0.55582231 2:0.55582231 3:-0.2 4:-0.2 5:-0.73975805 6:-0.73975805 7:1.0 8:1.0 9:-0.43010484 10:-0.43010484 11:0.31301671 12:0.31301671 13:-0.33333333 14:-0.33333333 15:-0.14285715 16:-0.14285715 17:-0.14285715 18:-0.14285715 19:-0.14285715 20:-0.14285715 21:-1.0 22:-1.0 23:0.33333333 24:0.33333333 25:-0.49787229 26:0.15884708 27:-0.89524164 28:-0.48267157 29:-0.22053616 30:0.13163508 31:-1.0 32:0.06630023 33:1.0 34:1.0 35:-0.9047619 36:-0.99047619 37:0.73879295 38:0.73883089 39:0.22483338 40:0.22427711 
-1.0 1:-0.14845937 2:-0.07376282 3:-0.50000001 4:-0.50000001 5:-0.64967209 6:-0.69771964 7:1.0 8:1.0 9:-0.07119716 10:-0.69660489 11:0.19969137 12:0.24658308 13:-0.11111111 14:0.11111111 15:-0.33333333 16:-0.33333333 17:-0.33333333 18:-0.33333333 19:-0.33333333 20:-0.33333333 21:-1.0 22:-1.0 23:1.0 24:1.0 25:0.65453486 26:-0.04795995 27:-0.95877308 28:-0.95877308 29:0.31525926 30:0.1943 31:0.29146222 32:-0.66970203 33:1.0 34:1.0 35:-0.98095238 36:-0.9047619 37:0.58765491 38:0.58528612 39:-0.08325353 40:-0.0749057 
-1.0 1:0.07563022 2:0.07563022 3:-0.2 4:-0.2 5:1.0 6:1.0 7:-1.0 8:1.0 9:1.0 10:-0.22348095 11:0.12313598 12:0.12313598 13:-0.33333333 14:0.11111111 15:1.0 16:0.20000001 17:1.0 18:0.20000001 19:1.0 20:0.20000001 21:-1.0 22:-1.0 23:-1.0 24:-0.33333333 25:-0.59252658 26:-0.32699258 27:-0.02997338 28:-0.3515713 29:-0.83958678 30:-0.39222701 31:-0.35231607 32:-0.32535852 33:-0.99914199 34:-0.99914199 35:-0.64761905 36:-0.64761905 37:-0.99930862 38:-0.99934024 39:-0.99759778 40:-0.99826587 
-1.0 1:0.07563022 2:0.07563022 3:1.0 4:1.0 5:1.0 6:1.0 7:-1.0 9:-0.26706291 10:-0.28282114 11:-0.07628512 12:-0.07628512 13:-0.55555556 14:-0.55555556 15:1.0 16:0.50000002 17:1.0 18:0.50000002 19:1.0 20:0.50000002 21:-1.0 22:-1.0 23:-1.0 24:-0.66666667 25:-0.56956686 26:-0.63522087 27:-0.11505632 28:-0.09482136 29:-0.73055612 30:-0.8584113 31:-0.38683742 32:-0.4400306 33:-0.99924527 34:-0.99924527 35:-0.7047619 36:-0.78095238 37:-0.99938608 38:-0.99938392 39:-0.99823166 40:-0.99851339 
-1.0 1:-0.09243696 2:-0.05882355 3:1.0 4:1.0 5:0.69259621 6:0.75407696 8:1.0 9:-0.06428327 10:-0.33014408 11:-0.30721383 12:-0.26102808 13:-1.0 14:-1.0 15:-1.0 16:-1.0 17:-1.0 18:-1.0 19:-1.0 20:-1.0 21:-1.0 22:-1.0 23:-0.66666667 24:-0.33333333 25:-0.41008485 26:-0.00584433 27:-0.34944663 28:-0.46842819 29:-0.45491922 30:-0.07926459 31:-0.44651059 32:-0.41353627 33:-0.99903871 34:-0.99903871 35:-0.94285714 36:-0.8 37:-0.99906175 38:-0.99921586 39:-0.99815871 40:-0.99835039 
-1.0 1:0.07563022 2:0.07563022 3:1.0 4:1.0 5:-0.58786258 6:-0.58786258 7:1.0 8:1.0 9:-0.44956953 10:-0.5518284 11:0.35890705 12:0.35890705 13:0.11111111 14:0.11111111 15:0.20000001 16:0.20000001 17:0.20000001 18:0.20000001 19:0.20000001 20:0.20000001 21:-1.0 22:-1.0 23:-0.33333333 24:-0.33333333 25:-0.13696069 26:-0.12977934 27:-0.37179251 28:-0.66103341 29:-0.19921323 30:0.10521347 31:-0.42798087 32:-0.44942481 33:-0.9903871 34:-0.37399353 35:-0.61904762 36:-0.91428571 37:-0.99104547 38:-0.38079267 39:-0.99103958 40:-0.50736099 
-1.0 1:-0.73109246 2:-0.73109246 3:-0.2 4:-0.2 5:-0.29109594 6:-0.29109594 7:1.0 8:1.0 9:-0.54662236 10:-0.13588402 11:-0.20750599 12:-0.20750599 13:-0.55555556 14:-0.77777778 15:0.20000001 16:0.20000001 17:0.20000001 18:0.20000001 19:0.20000001 20:0.20000001 21:-1.0 22:-1.0 23:-0.33333333 24:-0.33333333 25:-0.0507367 26:0.33168556 27:0.50454609 28:0.18718453 29:-0.81528888 30:-0.26850715 31:0.30743806 32:0.38952392 33:-0.97090707 34:-0.9967189 35:-0.92380952 36:-0.97142857 37:-0.97130642 38:-0.99699147 39:-0.97694318 40:-0.99637025 
-1.0 1:-0.40456181 2:-0.40456181 3:-0.60000001 4:-0.60000001 5:-0.40787684 6:-0.39876859 7:1.0 8:1.0 9:-0.81534294 10:-0.81534294 11:-0.60354682 12:-0.60899996 13:-0.77777778 14:-0.77777778 15:-0.14285715 16:-0.14285715 17:-0.14285715 18:-0.14285715 19:-0.14285715 20:-0.14285715 21:-1.0 22:-1.0 23:0.33333333 24:0.33333333 25:0.86791039 26:0.86791039 27:-0.54409968 28:-0.57888255 29:0.90869288 30:0.94023944 31:0.58215279 32:0.568668 33:-0.8775507 34:-0.78822221 35:-0.92380952 36:-0.92380952 37:-0.89160008 38:-0.81237235 39:-0.93291705 40:-0.88443129 
-1.0 1:-0.50060025 2:-0.50060025 3:-0.60000001 4:-0.60000001 5:-0.06009 6:-0.07835299 7:1.0 8:1.0 9:-0.61450871 10:-0.61450871 11:-0.31715473 12:-0.31715473 13:-1.0 14:-0.77777778 15:-1.0 16:-0.14285715 17:-1.0 18:-0.14285715 19:-1.0 20:-0.14285715 21:-1.0 22:-1.0 23:0.33333333 24:0.33333333 25:0.05005125 26:0.20129662 27:0.40284662 28:0.41335322 29:-0.64357459 30:-0.49322453 31:0.24155471 32:0.30314708 33:-0.98669288 34:-0.97126457 35:-0.94285714 36:-0.94285714 37:-0.98822316 38:-0.97453535 39:-0.99277824 40:-0.98441699 
-1.0 1:-0.34453782 2:-0.34453782 3:-0.37142857 4:-0.37142857 5:-0.45736394 6:-0.44918931 7:1.0 8:1.0 9:0.06680669 10:0.06680669 11:-0.37767221 12:-0.38244373 13:-0.33333333 14:-0.33333333 15:-0.24999999 16:-0.24999999 17:-0.24999999 18:-0.24999999 19:-0.24999999 20:-0.24999999 21:-1.0 22:-1.0 23:0.66666667 24:0.66666667 25:-0.11124621 26:-0.11124621 27:-0.60702279 28:-0.76167665 29:-0.13230114 30:0.02924249 31:-0.28940682 32:-0.24662458 33:-0.99538422 34:-0.78822221 35:-0.9047619 36:-0.9047619 37:-0.99650238 38:-0.82258857 39:-0.99558167 40:-0.89719362 
-1.0 1:-0.59663869 2:-0.59663869 3:-0.2 4:-0.2 5:-0.4688046 6:-0.75571481 7:1.0 8:1.0 9:-1.0 10:-1.0 11:-0.54045516 12:-0.50896962 13:-0.55555556 14:-0.55555556 15:0.20000001 16:0.20000001 17:0.20000001 18:0.20000001 19:0.20000001 20:0.20000001 21:-1.0 22:-1.0 23:-0.33333333 24:-0.33333333 25:-0.43931122 26:-0.15166962 27:0.11257651 28:-0.00424336 29:-0.86408165 30:-0.57557824 31:-0.12225356 32:-0.0542873 33:-0.37399353 34:-0.37399353 35:-0.86666667 36:-0.60952381 37:-0.33295328 38:-0.33304376 39:-0.14284679 40:-0.14288905 
-1.0 1:-0.21248498 2:-0.21248498 3:0.59999999 4:0.59999999 5:-0.35745613 6:-0.92676887 7:1.0 8:1.0 9:-0.26600769 10:-0.154969 11:-0.05375444 12:-0.05800753 13:-0.33333333 14:-0.33333333 15:-0.14285715 16:-0.14285715 17:-0.14285715 18:-0.14285715 19:-0.14285715 20:-0.14285715 21:-1.0 22:-1.0 23:0.33333333 24:0.33333333 25:-0.2425212 26:-0.18711307 27:-0.65256634 28:-0.9661973 29:-0.26144037 30:0.02394075 31:-0.56191154 32:-0.52657277 33:-0.92458241 34:-0.92458241 35:-0.87619048 36:-0.95238095 37:-0.93347487 38:-0.93336604 39:-0.9579318 40:-0.95794904 
-1.0 1:0.07563022 2:0.07563022 3:0.2 4:0.2 5:-0.80515501 6:-0.21158454 7:1.0 8:1.0 9:-0.71555776 10:-0.67388077 11:0.05365851 12:0.06593056 13:0.55555556 14:0.11111111 15:-0.14285715 16:-0.14285715 17:-0.14285715 18:-0.14285715 19:-0.14285715 20:-0.14285715 21:-1.0 22:-1.0 23:0.33333333 24:0.33333333 25:-0.37576413 26:-0.39155858 27:-0.80486104 28:-0.68731082 29:-0.16786804 30:-0.36090885 31:-0.57771149 32:-0.62299397 33:1.0 34:1.0 35:-0.97142857 36:-0.92380952 37:0.76597914 38:0.77283413 39:0.11198887 40:0.08960453 
-1.0 1:0.29971988 2:0.37441643 3:-0.2 4:-0.2 5:-0.62639377 6:0.14780836 7:1.0 8:1.0 9:-0.57010495 10:-0.68277693 11:-0.06018079 12:-0.05508698 13:-0.33333333 14:-0.77777778 15:-0.33333333 16:-0.33333333 17:-0.33333333 18:-0.33333333 19:-0.33333333 20:-0.33333333 21:-1.0 22:-1.0 23:1.0 24:1.0 25:0.75145648 26:0.56178932 27:-0.32742731 28:-0.18496278 29:0.30628146 30:0.25291808 31:0.1667957 32:0.13305398 33:-0.85118274 34:-0.85118274 35:-0.98095238 36:-0.88571429 37:-0.85070901 38:-0.85075482 39:-0.8774782 40:-0.87802824 
-1.0 1:0.55582231 2:0.55582231 3:-0.2 4:-0.2 5:-0.26400351 6:-0.45918052 7:1.0 8:1.0 9:0.03243552 10:-0.20321342 11:0.9585754 12:1.0 13:-0.33333333 14:-0.33333333 15:-0.14285715 16:-0.14285715 17:-0.14285715 18:-0.14285715 19:-0.14285715 20:-0.14285715 21:-1.0 22:-1.0 23:0.33333333 24:0.33333333 25:-0.03731913 26:-0.03731913 27:-0.61370602 28:-0.7977669 29:-0.11552695 30:-0.08430298 31:-0.47387402 32:-0.46418924 33:-0.99725913 34:-0.99725913 35:-0.99047619 36:-0.99047619 37:-0.99719502 38:-0.99715031 39:-0.9969567 40:-0.99696964 
-1.0 1:-0.32773109 2:-0.32773109 3:-0.2 4:1.0 5:-0.46460831 6:-0.46460831 7:1.0 8:1.0 9:-0.81534294 10:-0.90767147 11:-0.54129549 12:-0.54129549 13:-0.33333333 14:-0.33333333 15:0.20000001 16:0.20000001 17:0.20000001 18:0.20000001 19:0.20000001 20:0.20000001 21:-1.0 22:-1.0 23:-0.33333333 24:-0.33333333 25:0.51046078 26:0.51994415 27:-0.25881432 28:-0.60379707 29:0.27675958 30:0.51649574 31:0.11400137 32:0.0480636 33:-0.8775507 34:-0.8775507 35:-0.84761905 36:-0.85714286 37:-0.87797381 38:-0.87777016 39:-0.90560392 40:-0.90592388 
-1.0 1:0.07563022 2:0.07563022 3:-1.0 4:-0.60000001 5:-0.20452099 6:-0.29820597 7:1.0 8:1.0 9:0.23340437 10:-0.60677878 11:0.25977606 12:0.22900926 13:-0.55555556 14:-0.33333333 15:-0.14285715 16:-0.14285715 17:-0.14285715 18:-0.14285715 19:-0.14285715 20:-0.14285715 21:-1.0 22:-1.0 23:0.33333333 24:0.33333333 25:0.38282179 26:0.78925138 27:0.55141382 28:0.46223613 29:-0.54397268 30:-0.18130833 31:0.84581427 32:0.91720197 33:-0.89527498 34:-0.89527498 35:-0.96190476 36:-0.96190476 37:-0.90719412 38:-0.90756223 39:-0.94239514 40:-0.94178282 
-1.0 1:-0.59663869 2:-0.59663869 3:-0.60000001 4:0.59999999 5:0.02411493 6:0.02411493 7:1.0 8:1.0 9:-0.61450871 10:-0.43553768 11:-0.44570142 12:-0.44570142 13:-1.0 14:-1.0 15:-1.0 16:-1.0 17:-1.0 18:-1.0 19:-1.0 20:-1.0 21:-1.0 22:-1.0 23:0.33333333 24:0.33333333 25:0.23325497 26:0.52650954 27:-0.14972755 28:-0.55668376 29:0.06650617 30:0.3949353 31:-0.10799889 32:-0.16312363 33:-0.99983316 34:-0.99980139 35:-0.93333333 36:-0.93333333 37:-0.99986149 38:-0.99983604 39:-0.99988896 40:-0.99987171 
-1.0 1:-0.59663869 2:-0.59663869 3:0.4 4:-0.80000001 5:1.0 6:1.0 9:0.1350268 10:0.94756797 11:-1.0 12:-1.0 13:-1.0 14:-1.0 15:-1.0 16:-1.0 17:-1.0 18:-1.0 19:-1.0 20:-1.0 21:-1.0 22:-1.0 23:-0.33333333 24:-0.33333333 25:-0.59523611 26:-0.53427167 27:-0.71267606 28:-0.73477085 29:-0.29713162 30:-0.23995712 31:-0.84009806 32:-0.82666532 33:-0.99922143 34:-0.99922143 35:-0.86666667 36:-0.62857143 37:-0.99937394 38:-0.99951674 39:-0.99855565 40:-0.99855565 
-1.0 1:0.34453782 2:-0.32773109 3:0.4 4:0.4 5:-0.65880943 6:-0.59235166 7:1.0 8:1.0 9:-0.35030941 10:-0.17040946 11:0.15133315 12:0.09074452 13:-0.33333333 14:-0.33333333 15:0.20000001 16:0.20000001 17:0.20000001 18:0.20000001 19:0.20000001 20:0.20000001 21:-1.0 22:-1.0 23:-0.33333333 24:-0.33333333 25:-0.30200264 26:-0.30040421 27:-0.91617264 28:-0.87758322 29:0.26155907 30:0.19680708 31:-0.65432934 32:-0.6162174 33:1.0 34:1.0 35:-0.40952381 36:-0.40952381 37:0.95200185 38:0.97042772 39:0.65275163 40:0.59726554 
-1.0 1:-0.46218486 2:-0.86554623 3:0.4 4:0.4 5:-0.73522123 6:-0.71443488 7:1.0 8:1.0 9:-0.80435334 10:-0.80435334 11:-0.36968272 12:-0.40893398 13:-0.55555556 14:-0.55555556 15:0.20000001 16:0.20000001 17:0.20000001 18:0.20000001 19:0.20000001 20:0.20000001 21:-1.0 22:-1.0 23:-0.33333333 24:-0.33333333 25:-0.29391997 26:-0.09070518 27:-0.72002593 28:-0.76852353 29:-0.09128113 30:0.05460422 31:-0.30874417 32:-0.2566551 33:-0.37399353 34:-0.37399353 35:-0.60952381 36:-0.86666667 37:-0.33304164 38:-0.33295328 39:-0.14290716 40:-0.14284679 
-1.0 1:0.49579833 2:0.24369747 3:0.3142857 4:0.3142857 5:-0.5337618 6:-0.50547381 7:1.0 8:1.0 9:-0.42547055 10:-0.3214614 11:0.34738725 12:0.32730886 13:-0.11111111 14:-0.11111111 15:-0.24999999 16:-0.24999999 17:-0.24999999 18:-0.24999999 19:-0.24999999 20:-0.24999999 21:-1.0 22:-1.0 23:0.66666667 24:0.66666667 25:-0.44260185 26:-0.29607942 27:-0.95877308 28:-0.91762498 29:-0.12613701 30:-0.13726603 31:-0.88057564 32:-0.90794215 33:1.0 34:1.0 35:-0.80952381 36:-0.85714286 37:0.65763239 38:0.66047332 39:0.0528117 40:0.04302798 
-1.0 1:0.07563022 2:-0.21248498 3:-0.2 4:-0.2 5:-0.23012212 6:-0.14708319 7:1.0 8:1.0 9:-0.59259833 10:-0.43108077 11:-0.25681387 12:-0.27114105 13:-0.11111111 14:-0.33333333 15:-0.14285715 16:-0.14285715 17:-0.14285715 18:-0.14285715 19:-0.14285715 20:-0.14285715 21:-1.0 22:-1.0 23:0.33333333 24:0.33333333 25:0.07121667 26:0.15622092 27:-0.68163872 28:-0.67773152 29:-0.01613205 30:0.23876786 31:0.09165369 32:0.06211024 33:-0.91324555 34:-0.88793422 35:-0.94285714 36:-0.8952381 37:-0.92459797 38:-0.90090048 39:-0.93867376 40:-0.93827704 
-1.0 1:-0.44724558 2:9.3373E-4 3:0.4 4:0.4 5:-0.55851555 6:-0.49654685 7:1.0 8:1.0 9:-0.38395411 10:-0.28917376 11:-0.16158229 12:-0.13371493 13:0.55555556 14:0.33333333 15:-0.33333333 16:-0.33333333 17:-0.33333333 18:-0.33333333 19:-0.33333333 20:-0.33333333 21:-1.0 22:-1.0 23:1.0 24:1.0 25:0.21777949 26:0.2704589 27:-0.97406866 28:-0.86640522 29:0.59282279 30:0.43244269 31:-0.34085852 32:-0.28721923 33:1.0 34:1.0 35:-0.95238095 36:-0.8952381 37:0.59936292 38:0.59961237 39:-0.14858731 40:-0.14969745 
-1.0 1:-0.50060025 2:-0.50060025 3:0.2 4:0.2 5:0.14512468 6:0.14512468 7:1.0 8:1.0 9:-0.26915335 10:-0.32288117 11:-0.47030155 12:-0.64030582 13:-0.33333333 14:-0.33333333 15:-0.14285715 16:-0.14285715 17:-0.14285715 18:-0.14285715 19:-0.14285715 20:-0.14285715 21:-1.0 22:-1.0 23:0.33333333 24:0.33333333 25:-0.21114909 26:-0.21114909 27:-0.58020436 28:-0.39010222 29:-0.09073934 30:-0.20006997 31:-0.1895651 32:-0.16372763 33:-0.89896125 34:-0.89896125 35:-0.93333333 36:-0.93333333 37:-0.91064238 38:-0.91065074 39:-0.94439597 40:-0.9443701 
-1.0 1:0.29971988 2:0.29971988 3:0.04 4:0.04 5:-0.46773114 6:-0.49622698 7:1.0 8:1.0 9:-0.45546348 10:-0.59699579 11:0.14561456 12:0.60767254 13:-0.33333333 14:-0.11111111 15:3.0E-8 16:3.0E-8 17:3.0E-8 18:3.0E-8 19:3.0E-8 20:3.0E-8 21:-1.0 22:-1.0 25:-0.59498037 26:-0.59498037 27:-0.56123144 28:-0.83244211 29:-0.50400013 30:-0.40678359 31:-0.78261775 32:-0.78232825 33:1.0 34:1.0 35:-0.95238095 36:-0.98095238 37:0.87295761 38:0.87221139 39:0.2865682 40:0.28879686 
-1.0 1:-0.00840334 2:-0.00840334 3:-0.37142857 4:-0.37142857 5:-0.77576863 6:-0.72378689 7:1.0 8:1.0 9:-0.58586115 10:-0.58586115 11:0.02692138 12:0.50465909 13:-0.11111111 14:-0.33333333 15:-0.24999999 16:-0.24999999 17:-0.24999999 18:-0.24999999 19:-0.24999999 20:-0.24999999 21:-1.0 22:-1.0 23:0.66666667 24:0.66666667 25:0.18510869 26:0.10585493 27:-0.6024192 28:-0.02345057 29:0.15925517 30:-0.39206794 31:-0.13496017 32:-0.0905213 33:-0.82831834 34:-0.82831834 35:-0.97142857 36:-0.99047619 37:-0.85571809 38:-0.85566159 39:-0.91833445 40:-0.91852688 
-1.0 1:0.15032678 2:0.07563022 3:0.1 4:0.1 5:-0.45827048 6:-0.53742558 7:1.0 8:1.0 9:-0.47371991 10:-0.4194252 11:0.19410387 12:-0.01236692 13:-0.11111111 14:0.11111111 15:-0.33333333 16:-0.33333333 17:-0.33333333 18:-0.33333333 19:-0.33333333 20:-0.33333333 21:-1.0 22:-1.0 23:1.0 24:1.0 25:-0.37678021 26:-0.14602446 27:-0.67505309 28:-0.51937146 29:-0.45883458 30:-0.40921224 31:-0.4104271 32:-0.46677199 33:1.0 34:1.0 35:-1.0 36:-1.0 37:0.60041221 38:0.60017531 39:-0.1527998 40:-0.15185065 
-1.0 1:-0.19327732 2:-0.19327732 3:1.0 4:1.0 5:-0.76264359 6:-0.79113943 7:1.0 8:1.0 9:-0.25805427 10:-0.59853691 11:-0.10647337 12:-0.10647337 13:-0.55555556 14:-0.55555556 15:0.20000001 16:0.20000001 17:0.20000001 18:0.20000001 19:0.20000001 20:0.20000001 21:-1.0 22:-1.0 23:-0.33333333 24:-0.33333333 25:0.49805946 26:-0.09709934 27:-0.65256634 28:-0.71265614 29:0.45934404 30:-0.01503457 31:-0.25948474 32:-0.28821638 33:-0.92458241 34:-0.92458241 35:-0.87619048 36:-0.77142857 37:-0.92467259 38:-0.9247407 39:-0.94241153 40:-0.94184405 
-1.0 1:0.21008405 2:0.21008405 3:0.4 4:0.4 5:-0.73463569 6:-0.73463569 7:1.0 8:1.0 9:-0.5075261 10:0.06858994 11:0.27424991 12:0.27988531 13:-0.33333333 14:-0.55555556 15:0.20000001 16:0.20000001 17:0.20000001 18:0.20000001 19:0.20000001 20:0.20000001 21:-1.0 22:-1.0 23:-0.33333333 24:-0.33333333 25:-0.85953731 26:-0.48183779 27:-0.30319516 28:-0.68355112 29:-0.90031905 30:-0.2960688 31:-0.67602317 32:-0.68360409 33:-0.63826888 34:-0.63826888 35:-0.32380952 36:-0.91428571 37:-0.64555196 38:-0.64869112 39:-0.70646133 40:-0.6953291 
-1.0 1:-0.59663869 2:-0.59663869 3:-0.2 4:-0.2 5:-0.3525767 6:-0.3525767 7:1.0 8:1.0 9:-0.36560996 10:-0.81534294 11:-0.63071916 12:-0.63071916 13:-0.55555556 14:-0.77777778 15:0.20000001 16:0.20000001 17:0.20000001 18:0.20000001 19:0.20000001 20:0.20000001 21:-1.0 22:-1.0 23:-0.33333333 24:-0.33333333 25:-0.3189461 26:-0.16782094 27:-0.11280877 28:-0.17749555 29:-0.58522269 30:-0.45148909 31:-0.2887714 32:-0.22175742 33:-0.99915788 34:-0.99965838 35:-0.9047619 36:-0.84761905 37:-0.99920528 38:-0.999598 39:-0.99887561 40:-0.99885146 
-1.0 1:-0.59663869 2:-0.59663869 3:-0.2 4:-0.2 5:-0.17106208 6:-0.17106208 7:1.0 8:1.0 9:-0.55521417 10:-0.47091378 11:-0.66742084 12:-0.66742084 13:-1.0 14:-1.0 15:-1.0 16:-1.0 17:-1.0 18:-1.0 19:-1.0 20:-1.0 21:-1.0 22:-1.0 23:0.33333333 24:0.33333333 25:1.0 26:0.72097046 27:-0.18450848 28:-0.20158172 29:0.26312412 30:0.14094539 31:0.75368494 32:0.72657234 33:-0.99958688 34:-0.99969016 35:-0.88571429 36:-0.8952381 37:-0.99964091 38:-0.99972406 39:-0.99932838 40:-0.99931113 
-1.0 1:0.34453782 2:0.34453782 3:-0.2 4:-0.2 5:-0.40839732 6:-0.40312755 7:1.0 8:1.0 9:-0.93001094 10:-0.93001094 11:0.6771237 12:0.6771237 13:-0.33333333 14:-0.55555556 15:0.20000001 16:0.20000001 17:0.20000001 18:0.20000001 19:0.20000001 20:0.20000001 21:-1.0 22:-1.0 23:-0.33333333 24:-0.33333333 25:-0.15166962 26:-0.10372962 27:-0.93845031 28:0.26255681 29:0.36032279 30:-0.66632241 31:-0.71403767 32:0.25682283 33:1.0 34:1.0 35:1.0 36:-0.77142857 37:0.89555467 38:0.89693341 39:1.0 40:0.99970419 
-1.0 1:-0.14845937 2:-0.14845937 3:1.0 4:1.0 5:-0.54534652 6:-0.54534652 7:1.0 8:1.0 9:-0.50444148 10:-0.4630476 11:-0.19384809 12:-0.19384809 13:-0.77777778 14:-0.77777778 15:3.0E-8 16:3.0E-8 17:3.0E-8 18:3.0E-8 19:3.0E-8 20:3.0E-8 21:-1.0 22:-1.0 25:0.83765133 26:0.25852176 27:-0.45196264 28:-0.73239154 29:0.65437436 30:0.299848 31:0.13255178 32:-0.68911595 33:1.0 34:1.0 35:-0.96190476 36:-0.96190476 37:0.87991658 38:0.87971193 39:0.2668272 40:0.26708377 
-1.0 1:0.18767505 2:0.18767505 3:-0.92000001 4:-0.92000001 5:0.10608929 6:0.10608929 7:1.0 8:1.0 9:0.51424341 10:0.51424341 11:0.3531653 12:0.3531653 13:-0.33333333 14:-0.33333333 15:3.0E-8 16:3.0E-8 17:3.0E-8 18:3.0E-8 19:3.0E-8 20:3.0E-8 21:-1.0 22:-1.0 25:0.0916299 26:0.37613059 27:-0.54387383 28:-0.54387383 29:0.03464463 30:0.15429612 31:-0.45412994 32:0.22850073 33:-0.92458241 34:-0.92458241 35:-0.98095238 36:-0.98095238 37:-0.92934313 38:-0.92933945 39:-0.95164613 40:-0.95165619 
-1.0 1:0.07563022 2:0.07563022 3:0.04 4:0.04 5:-0.56044022 6:-0.56044022 7:1.0 8:1.0 9:-0.26439884 10:0.05766159 11:0.20592219 12:0.20592219 13:-0.11111111 14:-0.11111111 15:3.0E-8 16:3.0E-8 17:3.0E-8 18:3.0E-8 19:3.0E-8 20:3.0E-8 21:-1.0 22:-1.0 25:-1.0 26:0.44115933 27:-0.838059 28:-0.26623616 29:-0.67497257 30:-0.01388204 31:-0.99982724 32:0.33222532 33:-0.96983455 34:-0.96983455 35:-0.96190476 36:-0.96190476 37:-0.97202521 38:-0.97202853 39:-0.97986408 40:-0.97986408 
-1.0 1:-0.22315593 2:-0.22315593 3:0.7 4:0.7 5:-0.07114228 6:-0.06000093 7:1.0 8:1.0 9:-0.45343813 10:-0.56027648 11:-0.45061861 12:-0.41564842 13:-0.11111111 14:0.11111111 15:-0.33333333 16:-0.33333333 17:-0.33333333 18:-0.33333333 19:-0.33333333 20:-0.33333333 21:-1.0 22:-1.0 23:1.0 24:1.0 25:0.07685965 26:-0.60594205 27:-0.8045722 28:-0.83887509 29:0.19960946 30:-0.34085694 31:-0.49595987 32:-0.8645718 33:1.0 34:1.0 35:-0.95238095 36:-0.95238095 37:0.6010064 38:0.59575041 39:-0.15513075 40:-0.13345456 
