svm_type c_svc
kernel_type rbf
gamma 0.025
nr_class 2
total_sv 136
rho 0.0
label 1 0
nr_sv 68 68
SV
1.0 1:-0.27272724 2:-0.11111108 3:1.0 4:1.0 5:0.73887762 6:0.69279719 7:1.0 8:-1.0 9:-0.31629925 10:-0.29931903 11:-0.70978759 12:-0.40251769 13:-0.66666667 14:-0.66666667 15:-0.2 16:0.33333332 17:0.20000001 18:1.0 19:0.20000001 20:1.0 21:-1.0 22:-1.0 23:-0.33333333 24:-1.0 25:-0.06992742 26:-0.38068872 27:-0.71314955 28:-0.40426063 29:-0.17454291 30:-0.54595965 31:-0.29223512 32:-0.33309398 33:-1.0 34:-1.0 35:-0.71052632 36:-0.71052632 37:-0.99952496 38:-0.99919403 39:-0.99960609 40:-0.9986912 
1.0 1:0.69696973 2:0.69696973 3:1.0 4:1.0 5:-0.83832955 6:-0.79434367 7:1.0 9:-0.57117834 10:-0.38438587 11:0.20083348 12:0.19840335 13:-0.33333333 14:-0.66666667 15:-0.2 17:0.20000001 18:0.50000002 19:0.20000001 20:0.50000002 21:-1.0 22:-1.0 23:-0.33333333 24:-0.66666667 25:-0.69945521 26:-0.43822323 27:-0.80983428 28:-0.78755801 29:-0.66782432 30:-0.3922544 31:-0.61150419 32:-0.60194598 33:-0.8283837 34:-0.87761782 35:0.39473684 36:-0.44736842 37:-0.84041516 38:-0.8783541 39:-0.85786181 40:-0.87584034 
1.0 1:0.09090908 2:0.09090908 3:1.0 4:1.0 5:-0.05600965 6:-0.05600965 8:-1.0 9:-0.7765875 10:-0.27485026 11:0.23795185 12:0.23795185 17:0.50000002 18:0.50000002 19:0.50000002 20:0.50000002 21:-1.0 22:-1.0 23:-0.66666667 24:-0.66666667 25:-0.6657734 26:-0.6657734 27:-0.93305557 28:-0.85957583 29:-0.50414711 30:-0.56512869 31:-0.78278406 32:-0.75787741 33:1.0 34:1.0 35:-0.57894737 36:-0.57894737 37:1.0 38:1.0 39:1.0 40:1.0 
1.0 1:0.49494951 2:0.49494951 3:-0.37142857 4:-0.37142857 5:-0.2946404 6:-0.30817195 8:1.0 9:-0.85626642 10:-0.85626642 11:0.21012251 12:0.21012251 13:-0.66666667 14:-0.33333333 15:-0.33333332 16:-0.33333332 17:3.0E-8 18:3.0E-8 19:3.0E-8 20:3.0E-8 21:-1.0 22:-1.0 25:0.77884427 26:0.34795677 27:-0.35209074 28:-0.13253206 29:0.19455228 30:-0.24408045 31:0.49138464 32:0.47836089 33:-0.85124893 34:-0.85124893 35:-0.84210526 36:-0.92105263 37:-0.86910803 38:-0.86913668 39:-0.89995412 40:-0.89997001 
1.0 1:0.09090908 2:0.09090908 3:1.0 4:1.0 5:-0.61127872 6:-0.58823852 7:1.0 8:1.0 9:-0.02948225 10:-0.39542443 11:0.29060299 12:0.33900087 15:-0.2 16:-0.2 17:0.20000001 18:0.20000001 19:0.20000001 20:0.20000001 21:-1.0 22:-1.0 23:-0.33333333 24:-0.33333333 25:-0.086647 26:-0.03384833 27:-0.84185326 28:-0.5083223 29:-0.1260858 30:-0.23007919 31:-0.31243511 32:-0.28396202 33:-0.97509295 34:-0.97509295 35:-0.86842105 36:-0.86842105 37:-0.92412244 38:-0.97679958 39:-0.84074576 40:-0.98055861 
1.0 1:-1.0 2:-1.0 3:-0.14285714 4:-0.14285714 5:-0.09056997 6:-0.09056997 7:1.0 8:1.0 9:-0.38890561 10:-0.40532092 11:-1.0 12:-1.0 13:-0.33333333 14:-0.66666667 15:-0.2 16:-0.2 17:0.20000001 18:0.20000001 19:0.20000001 20:0.20000001 21:-1.0 22:-1.0 23:-0.33333333 24:-0.33333333 25:0.81828646 26:0.91719669 27:0.38831288 28:1.0 29:-0.24900003 30:-0.57903603 31:0.88086218 32:1.0 33:-0.9996981 34:-0.99625004 35:-1.0 36:-0.94736842 37:-0.99849069 38:-0.99626384 39:-0.99773184 40:-0.99531119 
1.0 1:-0.42857141 2:-0.42857141 3:-0.14285714 4:-0.14285714 5:-0.44275604 6:-0.44275604 7:1.0 8:1.0 9:-0.39582678 10:-0.31748559 11:-0.595474 12:-0.595474 13:-0.66666667 14:-0.66666667 15:-0.42857144 16:-0.42857144 17:-0.14285715 18:-0.14285715 19:-0.14285715 20:-0.14285715 21:-1.0 22:-1.0 23:0.33333333 24:0.33333333 25:0.49936639 26:0.59076676 27:-0.42564667 28:-0.17934688 29:-0.02441076 30:-0.16958768 31:0.20862152 32:0.22239894 33:-0.97030222 34:-0.9991499 35:-0.57894737 36:-0.84210526 37:-0.97551348 38:-0.99915923 39:-0.98280317 40:-0.99942638 
1.0 1:-0.44781144 2:-0.44781144 3:-0.42857143 4:-0.42857143 5:-0.3440123 6:-0.31804633 7:1.0 8:1.0 9:0.01174487 10:-0.21948721 11:-0.61574236 12:-0.61574236 13:-0.66666667 14:-1.0 15:-0.55555556 16:-1.0 17:-0.33333333 18:-1.0 19:-0.33333333 20:-1.0 21:-1.0 22:-1.0 23:1.0 24:1.0 25:0.68533543 26:0.45888907 27:-0.15535843 28:-0.18737741 29:-0.28729096 30:-0.35200037 31:0.71424197 32:0.61759052 33:-0.97133505 34:-0.98676391 35:-0.78947368 36:-0.81578947 37:-0.9786794 38:-0.99025839 39:-0.98738921 40:-0.99432853 
1.0 1:-0.27272724 2:-0.27272724 3:1.0 4:1.0 5:-0.63662296 6:-1.0 7:1.0 8:1.0 9:-0.48890058 10:-0.46291085 11:-0.01388417 12:-0.04484218 13:-0.33333333 14:-0.33333333 15:-0.2 16:-0.2 17:0.20000001 18:0.20000001 19:0.20000001 20:0.20000001 21:-1.0 22:-1.0 23:-0.33333333 24:-0.33333333 25:-0.39487983 26:-0.39487983 27:-0.64182804 28:-0.8039648 29:-0.55300259 30:-0.2284942 31:-0.53901329 32:-0.51833637 33:1.0 34:1.0 35:-0.97368421 36:-0.92105263 37:0.88078943 38:0.88078471 39:0.59965819 40:0.59967089 
1.0 1:0.09090908 2:0.09090908 3:-0.14285714 4:-0.14285714 5:-0.52613966 6:-0.75654179 7:1.0 8:1.0 9:-0.66825031 10:-0.66825031 11:-0.3206066 12:-0.34840584 15:-0.42857144 16:-0.42857144 17:-0.14285715 18:-0.14285715 19:-0.14285715 20:-0.14285715 21:-1.0 22:-1.0 23:0.33333333 24:0.33333333 25:-0.49380435 26:-0.67007652 27:-0.60168653 28:-0.60168653 29:-0.74199335 30:-0.88356779 31:-0.54963386 32:-0.55935513 33:-0.78828614 34:-0.78828614 35:-0.78947368 36:-0.44736842 37:-0.80182113 38:-0.801857 39:-0.71089141 40:-0.71083242 
1.0 1:0.17748919 2:0.17748919 3:0.61904761 4:0.61904761 5:0.13142065 6:-0.85392715 7:1.0 8:1.0 9:-0.26192179 10:-0.52397842 11:0.27398516 12:0.27870141 13:0.66666667 14:0.66666667 15:-0.42857144 16:-0.42857144 17:-0.14285715 18:-0.14285715 19:-0.14285715 20:-0.14285715 21:-1.0 22:-1.0 23:0.33333333 24:0.33333333 25:0.20073564 26:-0.01545401 27:-0.86683616 28:-0.96049369 29:0.00188212 30:0.00866108 31:-0.51951093 32:-0.52565921 33:1.0 34:1.0 35:-0.71052632 36:-0.92105263 37:0.66779429 38:0.6532653 39:0.14306862 40:0.20202814 
1.0 1:0.09090908 2:0.15824915 3:0.34693877 4:0.42857143 5:0.07486501 6:-0.80949881 7:1.0 8:1.0 9:0.03005223 10:-0.31895496 11:0.08368712 12:0.05377462 13:0.66666667 14:1.0 16:-0.55555556 17:-0.24999999 18:-0.33333333 19:-0.09999999 20:-0.33333333 21:-0.24999998 22:-1.0 23:0.66666667 24:1.0 25:-0.77478025 26:-0.55152291 27:-0.93217306 28:-0.87498361 29:-0.68252219 30:-0.45426399 31:-0.78861456 32:-0.76804118 33:1.0 34:1.0 35:-0.86842105 36:-0.84210526 37:0.58105541 38:0.4765335 39:4.5189E-4 40:0.05957642 
1.0 1:-0.51515151 2:-0.51515151 3:0.42857143 4:-0.14285714 5:-0.49772339 6:-0.49772339 7:1.0 8:1.0 9:-0.53980213 10:-0.33057014 11:-0.94667249 12:-0.94667249 13:-0.66666667 14:-0.66666667 15:-0.2 16:-0.2 17:0.20000001 18:0.20000001 19:0.20000001 20:0.20000001 21:-1.0 22:-1.0 23:-0.33333333 24:-0.33333333 25:-0.36240864 26:-0.62279699 27:-0.53691066 28:-0.3241439 29:-0.61740263 30:-0.99916822 31:-0.43392135 32:-0.46836595 33:-0.92996631 34:-0.92996631 35:-0.84210526 36:-0.84210526 37:-0.93452158 38:-0.9346133 39:-0.94336582 40:-0.94380421 
1.0 1:-0.16883113 2:-0.16883113 3:0.61904761 4:-0.52380953 5:-0.60900084 6:-0.60900084 7:1.0 8:1.0 9:-0.62691028 10:-0.75757246 11:-0.00495053 12:-0.00495053 13:-0.33333333 14:-0.33333333 15:-0.42857144 16:-0.42857144 17:-0.14285715 18:-0.14285715 19:-0.14285715 20:-0.14285715 21:-1.0 22:-1.0 23:0.33333333 24:0.33333333 25:0.36879441 26:0.39372178 27:-0.77995057 28:-0.60001141 29:0.32311357 30:0.3268799 31:-0.18964721 32:-0.13976488 33:1.0 34:1.0 35:-0.60526316 36:0.02631579 37:0.64204002 38:0.64109961 39:0.26809893 40:0.26829407 
1.0 1:0.02356906 2:-0.01010097 3:-1.0 4:-0.37142857 5:1.0 6:0.92319932 7:1.0 8:1.0 9:1.0 10:-0.25519699 11:0.07466255 12:-0.00317218 13:0.66666667 14:0.66666667 15:-0.55555556 16:-0.33333332 17:-0.33333333 18:3.0E-8 19:-0.33333333 20:3.0E-8 21:-1.0 22:-1.0 23:1.0 25:0.45453363 26:0.42695828 27:0.42628082 28:-0.0980624 29:-0.74061191 30:-0.26624721 31:0.5575514 32:0.54513357 33:-0.99895923 34:-0.99918963 35:-0.84210526 36:-0.44736842 37:-0.99917797 38:-0.99950658 39:-0.99902652 40:-0.99855354 
1.0 1:0.00432903 2:0.00432903 3:1.0 4:-0.14285714 5:0.08951983 6:0.08951983 7:1.0 8:1.0 9:-0.22292252 10:0.17401889 11:0.1177571 12:0.1177571 13:0.33333333 14:0.33333333 15:-0.42857144 16:-0.42857144 17:-0.14285715 18:-0.14285715 19:-0.14285715 20:-0.14285715 21:-1.0 22:-1.0 23:0.33333333 24:0.33333333 25:0.17685361 26:0.17685361 27:-0.82819258 28:-0.82819258 29:-0.0182602 30:0.02531104 31:-0.48054599 32:-0.49042914 33:1.0 34:1.0 35:-0.97368421 36:-0.63157895 37:0.66803163 38:0.66793219 39:0.14234252 40:0.14240151 
1.0 1:-0.01010097 2:0.39393941 3:1.0 4:1.0 5:-0.70782819 6:-0.67812526 7:1.0 8:1.0 9:-0.10616599 10:-0.30986219 11:0.32862526 12:0.348988 13:0.33333333 14:0.33333333 15:-0.33333332 16:-0.33333332 17:3.0E-8 18:3.0E-8 19:3.0E-8 20:3.0E-8 21:-1.0 22:-1.0 25:-0.20877149 26:-0.2346209 27:-0.95618729 28:-0.93217306 29:-0.16743401 30:-0.18870962 31:-0.77018385 32:-0.79436882 33:1.0 34:1.0 35:-0.97368421 36:-0.92105263 37:0.73175749 38:0.73175366 39:0.47515915 40:0.47516973 
1.0 1:0.00432903 2:-0.3131313 3:1.0 4:1.0 5:-0.40827411 6:-0.31153655 7:1.0 8:1.0 9:-0.68637132 10:-0.45610933 11:-0.24242162 12:-0.30889983 13:0.66666667 15:-0.42857144 16:-0.33333332 17:-0.14285715 18:3.0E-8 19:-0.14285715 20:3.0E-8 21:-1.0 22:-1.0 23:0.33333333 25:0.06134816 26:-0.39816231 27:-0.97059229 28:-0.79882792 29:0.21521223 30:-0.42738674 31:-0.41434724 32:-0.36425399 33:-0.37404265 34:-0.37404265 35:-0.71052632 36:-0.71052632 37:-0.48706942 38:-0.44845408 39:-0.53817433 40:-0.57721746 
1.0 1:-0.38047137 2:-0.04377101 3:0.42857143 4:0.42857143 5:-0.42081298 6:-0.46168193 7:1.0 8:1.0 9:-0.63794578 10:-0.67778566 11:-0.41464784 12:-0.42355969 13:-0.33333333 14:0.33333333 15:-0.55555556 16:-0.55555556 17:-0.33333333 18:-0.33333333 19:-0.33333333 20:-0.33333333 21:-1.0 22:-1.0 23:1.0 24:1.0 25:-0.25914289 26:-0.14718061 27:-0.61772045 28:-0.82508141 29:-0.59706294 30:-0.28412803 31:-0.45099513 32:-0.45133124 33:1.0 34:1.0 35:-0.92105263 36:-0.73684211 37:0.5056256 38:0.49725708 39:-0.1113829 40:-0.07192124 
1.0 1:0.09090908 2:-0.21212119 3:0.34693877 4:0.34693877 5:-0.64278341 6:-0.63068265 7:1.0 8:1.0 9:-0.69977351 10:-0.55372805 11:-0.16614645 12:-0.2114257 14:-0.33333333 15:-0.5 16:-0.5 17:-0.24999999 18:-0.24999999 19:-0.24999999 20:-0.24999999 21:-1.0 22:-1.0 23:0.66666667 24:0.66666667 25:0.3298693 26:0.59143636 27:-0.56593745 28:-0.73872909 29:-0.19535816 30:0.20656539 31:-0.04910634 32:-0.11111341 33:1.0 34:1.0 35:-0.89473684 36:-0.92105263 37:0.57104322 38:0.58066812 39:0.04446504 40:0.00184169 
1.0 1:0.33333335 2:0.33333335 3:-0.71428571 4:-0.71428571 5:-0.31175599 6:-0.31175599 7:1.0 8:1.0 9:0.39565824 10:0.39565824 11:0.52769134 12:0.24198158 13:0.33333333 14:0.33333333 15:-0.2 16:-0.2 17:0.20000001 18:0.20000001 19:0.20000001 20:0.20000001 21:-1.0 22:-1.0 23:-0.33333333 24:-0.33333333 25:0.11943222 26:-0.02300994 27:0.34379073 28:0.34379073 29:-0.86258146 30:-1.0 31:0.34343351 32:0.25886362 33:-0.97551403 34:-0.97551403 35:-0.65789474 36:-0.5 37:-0.97831277 38:-0.9783358 39:-0.97009456 40:-0.97005644 
1.0 1:0.00432903 2:0.00432903 3:-0.14285714 4:-0.14285714 5:-0.1692515 6:-0.07520981 7:1.0 8:1.0 9:-0.26200093 10:-0.61496915 11:0.12663848 12:0.39084872 13:-0.66666667 14:-0.33333333 15:-0.42857144 16:-0.42857144 17:-0.14285715 18:-0.14285715 19:-0.14285715 20:-0.14285715 21:-1.0 22:-1.0 23:0.33333333 24:0.33333333 25:0.91719669 26:0.71777768 27:-0.60813468 28:-0.60813468 29:0.32696583 30:0.40691651 31:-0.03661126 32:0.02916531 33:-0.92465122 34:-0.92465122 35:-0.94736842 36:-0.94736842 37:-0.93723998 38:-0.93732233 39:-0.95793416 40:-0.95763918 
1.0 1:-0.04377101 2:-0.04377101 3:0.71428571 4:0.71428571 5:-0.05067628 6:-0.13646753 7:1.0 8:1.0 9:-0.32672609 10:-0.23830132 11:-0.25236025 12:0.27667025 13:0.33333333 14:0.33333333 15:-0.55555556 16:-0.55555556 17:-0.33333333 18:-0.33333333 19:-0.33333333 20:-0.33333333 21:-1.0 22:-1.0 23:1.0 24:1.0 25:0.55862596 26:0.11762809 27:-0.85239391 28:-0.76279755 29:0.30001165 30:-0.13520847 31:-0.34114678 32:-0.3125693 33:1.0 34:1.0 35:-0.71052632 36:-1.0 37:0.49287579 38:0.49616931 39:-0.03417148 40:-0.06187229 
1.0 1:-0.03030303 2:-0.03030303 3:1.0 4:1.0 5:-0.94031489 6:-0.94031489 7:1.0 8:1.0 9:-0.81213746 10:-0.13177049 11:0.45115396 12:0.45115396 13:-0.33333333 14:-0.33333333 15:-0.2 16:-0.2 17:0.20000001 18:0.20000001 19:0.20000001 20:0.20000001 21:-1.0 22:-1.0 23:-0.33333333 24:-0.33333333 25:-0.6200732 26:-0.82352412 27:-0.6865619 28:-0.89214935 29:-0.67331047 30:-0.70599498 31:-0.69935789 32:-0.71943845 33:1.0 34:1.0 35:-0.28947368 36:-0.60526316 37:0.87967025 38:0.87969866 39:0.60319703 40:0.60312079 
1.0 1:0.21212124 2:0.21212124 3:1.0 4:1.0 5:-0.66622614 6:-0.66622614 7:1.0 8:1.0 9:-0.70271691 10:-0.85241768 11:0.36530396 12:0.36530396 13:-0.33333333 14:-0.66666667 15:-0.2 16:-0.2 17:0.20000001 18:0.20000001 19:0.20000001 20:0.20000001 21:-1.0 22:-1.0 23:-0.33333333 24:-0.33333333 25:-0.16888992 26:-0.19829661 27:-0.85927769 28:-0.43896823 29:-0.07051339 30:-0.493425 31:-0.42357525 32:-0.38714082 33:-0.87909556 34:-0.87909556 35:-0.02631579 36:-0.02631579 37:-0.88909189 38:-0.88766157 39:-0.89575982 40:-0.90056299 
1.0 1:0.45454546 2:0.45454546 3:1.0 4:1.0 5:-0.5974546 6:-0.5974546 7:1.0 8:1.0 9:0.36054073 10:-0.28334167 11:0.95101293 12:0.95101293 14:0.33333333 15:-0.2 16:-0.2 17:0.20000001 18:0.20000001 19:0.20000001 20:0.20000001 21:-1.0 22:-1.0 23:-0.33333333 24:-0.33333333 25:-0.28765528 26:-0.45545338 27:-0.62784167 28:-0.51289447 29:-0.44650876 30:-0.71873302 31:-0.48277224 32:-0.48548406 33:-0.72355166 34:-0.72355166 35:-0.84210526 36:-0.76315789 37:-0.74019052 38:-0.74081564 39:-0.77756759 40:-0.77587123 
1.0 1:-0.51515151 2:-0.51515151 3:-0.52380953 4:-0.52380953 5:-0.28586318 6:-0.28586318 7:1.0 8:1.0 9:-0.78913674 10:-0.27557843 11:-0.65091132 12:-0.65091132 13:0.33333333 14:0.33333333 15:-0.42857144 16:-0.42857144 17:-0.14285715 18:-0.14285715 19:-0.14285715 20:-0.14285715 21:-1.0 22:-1.0 23:0.33333333 24:0.33333333 25:0.09225467 26:1.0 27:-0.84951456 28:-0.52823557 29:-0.09829673 30:1.0 31:0.06769103 32:0.01830687 33:-0.99922935 34:-0.99966632 35:-0.60526316 36:-0.73684211 37:-0.99953226 38:-0.9997314 39:-0.99959429 40:-0.99961698 
1.0 1:0.00432903 2:0.00432903 3:-0.14285714 4:-0.14285714 5:-0.07520981 6:-0.07520981 7:1.0 8:1.0 9:0.4867218 10:-0.10298359 11:0.39084872 12:0.39084872 13:-0.33333333 14:-0.33333333 15:-0.42857144 16:-0.42857144 17:-0.14285715 18:-0.14285715 19:-0.14285715 20:-0.14285715 21:-1.0 22:-1.0 23:0.33333333 24:0.33333333 25:0.91719669 26:0.37530028 27:-0.23458001 28:-0.37348759 29:0.4072783 30:-0.12543756 31:0.55378136 32:0.53397221 33:-0.92465122 34:-0.92465122 35:-0.94736842 36:-0.94736842 37:-0.9373145 38:-0.93730897 39:-0.95766641 40:-0.95766187 
1.0 1:0.33333335 2:0.33333335 3:0.42857143 4:0.42857143 5:-0.42388503 6:-0.50529376 7:1.0 8:1.0 9:-0.15610537 10:0.13677704 11:0.77577289 12:0.77577289 15:-0.2 16:-0.2 17:0.20000001 18:0.20000001 19:0.20000001 20:0.20000001 21:-1.0 22:-1.0 23:-0.33333333 24:-0.33333333 25:-0.2846893 26:-0.87540932 27:-0.89879274 28:-0.91226987 29:0.0878121 30:-0.73833035 31:-0.53046791 32:-1.0 33:-0.60141577 34:-0.60141577 35:-0.84210526 36:-0.65789474 37:-0.64344629 38:-0.64347037 39:-0.55880108 40:-0.55875661 
1.0 1:-0.03030303 2:-0.03030303 3:1.0 4:1.0 5:-0.81458117 6:-0.81458117 7:1.0 8:1.0 9:-0.36115381 10:-0.36115381 11:0.03604137 12:0.03604137 13:-0.66666667 14:-0.66666667 15:-0.2 16:-0.2 17:0.20000001 18:0.20000001 19:0.20000001 20:0.20000001 21:-1.0 22:-1.0 23:-0.33333333 24:-0.33333333 25:0.88803308 26:-0.96762738 27:-0.51579405 28:-0.79753321 29:0.67980457 30:-0.93741162 31:0.02141091 32:-0.88078256 33:1.0 34:1.0 35:-0.89473684 36:-0.89473684 37:0.88113889 38:0.88101857 39:0.59896567 40:0.59928969 
1.0 1:0.09090908 2:0.09090908 3:-0.14285714 4:-0.14285714 5:-0.84419433 6:-0.84419433 7:1.0 8:1.0 9:-0.75757246 10:-0.75757246 11:-0.34541628 12:-0.34541628 13:-0.33333333 15:-0.2 16:-0.2 17:0.20000001 18:0.20000001 19:0.20000001 20:0.20000001 21:-1.0 22:-1.0 23:-0.33333333 24:-0.33333333 25:-0.94721446 26:0.13020166 27:-0.89179609 28:-0.60168653 29:-0.81439316 30:0.19804926 31:-0.96561805 32:-0.08186267 33:-0.78828614 34:-0.78828614 35:1.0 36:-1.0 37:-0.80472383 38:-0.80443526 39:-0.73207727 40:-0.73256012 
1.0 1:0.00432903 2:0.00432903 3:0.61904761 4:0.61904761 5:-0.01580682 6:-0.01580682 7:1.0 8:1.0 9:-0.19415542 10:-0.04548002 11:-0.07903619 12:-0.07903619 13:0.33333333 14:0.66666667 15:-0.42857144 16:-0.42857144 17:-0.14285715 18:-0.14285715 19:-0.14285715 20:-0.14285715 21:-1.0 22:-1.0 23:0.33333333 24:0.33333333 25:-1.0 26:0.70392913 27:-1.0 28:-1.0 29:-0.84888674 30:0.50122287 31:-0.93375346 32:-0.13554581 33:-0.82294149 34:-0.82294149 35:-0.60526316 36:-0.94736842 37:-0.85302767 38:-0.85291021 39:-0.89716846 40:-0.8972093 
1.0 1:-0.11111108 2:-0.17845115 3:0.14285714 4:0.14285714 5:-0.41812551 6:-0.44458464 7:1.0 8:1.0 9:-0.78125466 10:-0.51405634 11:-0.46493816 12:-0.44129824 15:-0.55555556 16:-0.11111112 17:-0.33333333 18:-0.33333333 19:-0.33333333 20:-0.11111109 21:-1.0 22:-0.21432578 23:1.0 24:1.0 25:-0.55244252 26:0.74937458 27:-0.95104617 28:-0.56098245 29:-0.44819809 30:0.009075 31:-0.64248381 32:-0.0764262 33:1.0 34:1.0 35:-0.84210526 36:-0.71052632 37:0.50497316 38:0.50501496 39:-0.10890154 40:-0.10902861 
1.0 1:0.09090908 2:0.09090908 3:1.0 4:1.0 5:0.71122937 6:0.60063636 7:1.0 9:-0.21150847 10:0.51163875 11:0.03132211 12:0.04376024 15:-0.2 17:0.20000001 18:0.50000002 19:0.20000001 20:0.50000002 21:-1.0 22:-1.0 23:-0.33333333 24:-0.66666667 25:-0.76512515 26:-0.76512515 27:-0.87073267 28:-0.87073267 29:-0.7244832 30:-0.63502056 31:-0.85549298 32:-0.85713247 33:-0.99963454 34:-0.99963454 35:0.23684211 36:0.23684211 37:-1.0 38:-0.9999704 39:-0.99916771 40:-0.99915182 
1.0 1:0.69696973 2:0.69696973 3:1.0 4:1.0 5:-0.83832955 6:-0.79434367 7:1.0 9:-0.57117834 10:-0.38438587 11:0.20083348 12:0.19840335 13:-0.33333333 14:-0.66666667 15:-0.2 17:0.20000001 18:0.50000002 19:0.20000001 20:0.50000002 21:-1.0 22:-1.0 23:-0.33333333 24:-0.66666667 25:-0.69945521 26:-0.43822323 27:-0.80983428 28:-0.78755801 29:-0.66782432 30:-0.3922544 31:-0.61150419 32:-0.60194598 33:-0.8283837 34:-0.87761782 35:0.39473684 36:-0.44736842 37:-0.84041516 38:-0.8783541 39:-0.85786181 40:-0.87584034 
1.0 1:0.09090908 2:0.09090908 3:1.0 4:1.0 5:-0.05600965 6:-0.05600965 8:-1.0 9:-0.7765875 10:-0.27485026 11:0.23795185 12:0.23795185 17:0.50000002 18:0.50000002 19:0.50000002 20:0.50000002 21:-1.0 22:-1.0 23:-0.66666667 24:-0.66666667 25:-0.6657734 26:-0.6657734 27:-0.93305557 28:-0.85957583 29:-0.50414711 30:-0.56512869 31:-0.78278406 32:-0.75787741 33:1.0 34:1.0 35:-0.57894737 36:-0.57894737 37:1.0 38:1.0 39:1.0 40:1.0 
1.0 1:0.49494951 2:0.49494951 3:-0.37142857 4:-0.37142857 5:-0.2946404 6:-0.30817195 8:1.0 9:-0.85626642 10:-0.85626642 11:0.21012251 12:0.21012251 13:-0.66666667 14:-0.33333333 15:-0.33333332 16:-0.33333332 17:3.0E-8 18:3.0E-8 19:3.0E-8 20:3.0E-8 21:-1.0 22:-1.0 25:0.77884427 26:0.34795677 27:-0.35209074 28:-0.13253206 29:0.19455228 30:-0.24408045 31:0.49138464 32:0.47836089 33:-0.85124893 34:-0.85124893 35:-0.84210526 36:-0.92105263 37:-0.86910803 38:-0.86913668 39:-0.89995412 40:-0.89997001 
1.0 1:0.09090908 2:0.09090908 3:1.0 4:1.0 5:-0.61127872 6:-0.58823852 7:1.0 8:1.0 9:-0.02948225 10:-0.39542443 11:0.29060299 12:0.33900087 15:-0.2 16:-0.2 17:0.20000001 18:0.20000001 19:0.20000001 20:0.20000001 21:-1.0 22:-1.0 23:-0.33333333 24:-0.33333333 25:-0.086647 26:-0.03384833 27:-0.84185326 28:-0.5083223 29:-0.1260858 30:-0.23007919 31:-0.31243511 32:-0.28396202 33:-0.97509295 34:-0.97509295 35:-0.86842105 36:-0.86842105 37:-0.92412244 38:-0.97679958 39:-0.84074576 40:-0.98055861 
1.0 1:-1.0 2:-1.0 3:-0.14285714 4:-0.14285714 5:-0.09056997 6:-0.09056997 7:1.0 8:1.0 9:-0.40532092 10:-0.38890561 11:-1.0 12:-1.0 13:-0.66666667 14:-0.33333333 15:-0.2 16:-0.2 17:0.20000001 18:0.20000001 19:0.20000001 20:0.20000001 21:-1.0 22:-1.0 23:-0.33333333 24:-0.33333333 25:0.91719669 26:0.81828646 27:1.0 28:0.38831288 29:-0.57903603 30:-0.24900003 31:1.0 32:0.88086218 33:-0.99625004 34:-0.9996981 35:-0.94736842 36:-1.0 37:-0.99626384 38:-0.99849069 39:-0.99531119 40:-0.99773184 
1.0 1:-0.42857141 2:-0.42857141 3:-0.14285714 4:-0.14285714 5:-0.44275604 6:-0.44275604 7:1.0 8:1.0 9:-0.31748559 10:-0.39582678 11:-0.595474 12:-0.595474 13:-0.66666667 14:-0.66666667 15:-0.42857144 16:-0.42857144 17:-0.14285715 18:-0.14285715 19:-0.14285715 20:-0.14285715 21:-1.0 22:-1.0 23:0.33333333 24:0.33333333 25:0.59076676 26:0.49936639 27:-0.17934688 28:-0.42564667 29:-0.16958768 30:-0.02441076 31:0.22239894 32:0.20862152 33:-0.9991499 34:-0.97030222 35:-0.84210526 36:-0.57894737 37:-0.99915923 38:-0.97551348 39:-0.99942638 40:-0.98280317 
1.0 1:-0.44781144 2:-0.44781144 3:-0.42857143 4:-0.42857143 5:-0.3440123 6:-0.31804633 7:1.0 8:1.0 9:0.01174487 10:-0.21948721 11:-0.61574236 12:-0.61574236 13:-0.66666667 14:-1.0 15:-0.55555556 16:-1.0 17:-0.33333333 18:-1.0 19:-0.33333333 20:-1.0 21:-1.0 22:-1.0 23:1.0 24:1.0 25:0.68533543 26:0.45888907 27:-0.15535843 28:-0.18737741 29:-0.28729096 30:-0.35200037 31:0.71424197 32:0.61759052 33:-0.97133505 34:-0.98676391 35:-0.78947368 36:-0.81578947 37:-0.9786794 38:-0.99025839 39:-0.98738921 40:-0.99432853 
1.0 1:-0.27272724 2:-0.27272724 3:1.0 4:1.0 5:-0.63662296 6:-1.0 7:1.0 8:1.0 9:-0.48890058 10:-0.46291085 11:-0.01388417 12:-0.04484218 13:-0.33333333 14:-0.33333333 15:-0.2 16:-0.2 17:0.20000001 18:0.20000001 19:0.20000001 20:0.20000001 21:-1.0 22:-1.0 23:-0.33333333 24:-0.33333333 25:-0.39487983 26:-0.39487983 27:-0.64182804 28:-0.8039648 29:-0.55300259 30:-0.2284942 31:-0.53901329 32:-0.51833637 33:1.0 34:1.0 35:-0.97368421 36:-0.92105263 37:0.88078943 38:0.88078471 39:0.59965819 40:0.59967089 
1.0 1:0.09090908 2:0.09090908 3:-0.14285714 4:-0.14285714 5:-0.52613966 6:-0.75654179 7:1.0 8:1.0 9:-0.66825031 10:-0.66825031 11:-0.3206066 12:-0.34840584 15:-0.42857144 16:-0.42857144 17:-0.14285715 18:-0.14285715 19:-0.14285715 20:-0.14285715 21:-1.0 22:-1.0 23:0.33333333 24:0.33333333 25:-0.49380435 26:-0.67007652 27:-0.60168653 28:-0.60168653 29:-0.74199335 30:-0.88356779 31:-0.54963386 32:-0.55935513 33:-0.78828614 34:-0.78828614 35:-0.78947368 36:-0.44736842 37:-0.80182113 38:-0.801857 39:-0.71089141 40:-0.71083242 
1.0 1:0.17748919 2:0.17748919 3:0.61904761 4:0.61904761 5:0.13142065 6:-0.85392715 7:1.0 8:1.0 9:-0.26192179 10:-0.52397842 11:0.27398516 12:0.27870141 13:0.66666667 14:0.66666667 15:-0.42857144 16:-0.42857144 17:-0.14285715 18:-0.14285715 19:-0.14285715 20:-0.14285715 21:-1.0 22:-1.0 23:0.33333333 24:0.33333333 25:0.20073564 26:-0.01545401 27:-0.86683616 28:-0.96049369 29:0.00188212 30:0.00866108 31:-0.51951093 32:-0.52565921 33:1.0 34:1.0 35:-0.71052632 36:-0.92105263 37:0.66779429 38:0.6532653 39:0.14306862 40:0.20202814 
1.0 1:0.15824915 2:0.09090908 3:0.42857143 4:0.34693877 5:-0.80949881 6:0.07486501 7:1.0 8:1.0 9:-0.31895496 10:0.03005223 11:0.05377462 12:0.08368712 13:1.0 14:0.66666667 15:-0.55555556 17:-0.33333333 18:-0.24999999 19:-0.33333333 20:-0.09999999 21:-1.0 22:-0.24999998 23:1.0 24:0.66666667 25:-0.55152291 26:-0.77478025 27:-0.87498361 28:-0.93217306 29:-0.45426399 30:-0.68252219 31:-0.76804118 32:-0.78861456 33:1.0 34:1.0 35:-0.84210526 36:-0.86842105 37:0.4765335 38:0.58105541 39:0.05957642 40:4.5189E-4 
1.0 1:-0.28787877 2:-0.28787877 3:0.67346939 4:0.67346939 5:-0.6251577 6:-0.15992569 7:1.0 8:1.0 9:-0.68607786 10:-0.61179298 11:-0.35363893 12:-0.35373134 13:-0.33333333 14:-0.66666667 15:-0.5 16:-0.5 17:-0.24999999 18:-0.24999999 19:-0.24999999 20:-0.24999999 21:-1.0 22:-1.0 23:0.66666667 24:0.66666667 25:0.3298693 26:0.3793406 27:-0.98599807 28:-0.51579405 29:0.63187432 30:0.12427812 31:0.00338396 32:-0.04034423 33:1.0 34:1.0 35:-0.89473684 36:-0.94736842 37:0.57774665 38:0.58131929 39:0.01345649 40:-9.538E-4 
1.0 1:-0.51515151 2:-0.51515151 3:-0.14285714 4:0.42857143 5:-0.22881123 6:-0.22881123 7:1.0 8:1.0 9:-0.64428463 10:-0.29925874 11:-0.78348374 12:-0.78348374 13:-1.0 14:-1.0 15:-1.0 16:-1.0 17:-1.0 18:-1.0 19:-1.0 20:-1.0 21:-1.0 22:-1.0 23:-0.33333333 24:-0.33333333 25:0.35341239 26:0.35341239 27:-0.69939203 28:-0.63674623 29:0.42277562 30:0.38281418 31:-1.943E-4 32:0.01573149 33:-0.9994677 34:-0.9994677 35:-0.5 36:-0.5 37:-0.99967859 38:-0.99967859 39:-1.0 40:-1.0 
1.0 1:-0.51515151 2:-0.51515151 3:-0.14285714 4:0.42857143 5:-0.49772339 6:-0.49772339 7:1.0 8:1.0 9:-0.33057014 10:-0.53980213 11:-0.94667249 12:-0.94667249 13:-0.66666667 14:-0.66666667 15:-0.2 16:-0.2 17:0.20000001 18:0.20000001 19:0.20000001 20:0.20000001 21:-1.0 22:-1.0 23:-0.33333333 24:-0.33333333 25:-0.62279699 26:-0.36240864 27:-0.3241439 28:-0.53691066 29:-0.99916822 30:-0.61740263 31:-0.46836595 32:-0.43392135 33:-0.92996631 34:-0.92996631 35:-0.84210526 36:-0.84210526 37:-0.9346133 38:-0.93452158 39:-0.94380421 40:-0.94336582 
1.0 1:-0.16883113 2:-0.16883113 3:0.61904761 4:-0.52380953 5:-0.60900084 6:-0.60900084 7:1.0 8:1.0 9:-0.62691028 10:-0.75757246 11:-0.00495053 12:-0.00495053 13:-0.33333333 14:-0.33333333 15:-0.42857144 16:-0.42857144 17:-0.14285715 18:-0.14285715 19:-0.14285715 20:-0.14285715 21:-1.0 22:-1.0 23:0.33333333 24:0.33333333 25:0.36879441 26:0.39372178 27:-0.77995057 28:-0.60001141 29:0.32311357 30:0.3268799 31:-0.18964721 32:-0.13976488 33:1.0 34:1.0 35:-0.60526316 36:0.02631579 37:0.64204002 38:0.64109961 39:0.26809893 40:0.26829407 
1.0 1:0.02356906 2:-0.01010097 3:-1.0 4:-0.37142857 5:1.0 6:0.92319932 7:1.0 8:1.0 9:1.0 10:-0.25519699 11:0.07466255 12:-0.00317218 13:0.66666667 14:0.66666667 15:-0.55555556 16:-0.33333332 17:-0.33333333 18:3.0E-8 19:-0.33333333 20:3.0E-8 21:-1.0 22:-1.0 23:1.0 25:0.45453363 26:0.42695828 27:0.42628082 28:-0.0980624 29:-0.74061191 30:-0.26624721 31:0.5575514 32:0.54513357 33:-0.99895923 34:-0.99918963 35:-0.84210526 36:-0.44736842 37:-0.99917797 38:-0.99950658 39:-0.99902652 40:-0.99855354 
1.0 1:0.00432903 2:0.00432903 3:-0.14285714 4:1.0 5:0.08951983 6:0.08951983 7:1.0 8:1.0 9:0.17401889 10:-0.22292252 11:0.1177571 12:0.1177571 13:0.33333333 14:0.33333333 15:-0.42857144 16:-0.42857144 17:-0.14285715 18:-0.14285715 19:-0.14285715 20:-0.14285715 21:-1.0 22:-1.0 23:0.33333333 24:0.33333333 25:0.17685361 26:0.17685361 27:-0.82819258 28:-0.82819258 29:0.02531104 30:-0.0182602 31:-0.49042914 32:-0.48054599 33:1.0 34:1.0 35:-0.63157895 36:-0.97368421 37:0.66793219 38:0.66803163 39:0.14240151 40:0.14234252 
1.0 1:-0.15151513 2:-0.51515151 3:0.42857143 4:0.42857143 5:-0.74479228 6:-0.68204509 7:1.0 8:1.0 9:-0.3986391 10:-0.68870564 11:0.32326759 12:0.26745757 13:-0.33333333 14:-0.33333333 15:-0.2 16:-0.2 17:0.20000001 18:0.20000001 19:0.20000001 20:0.20000001 21:-1.0 22:-1.0 23:-0.33333333 24:-0.33333333 25:0.1630496 26:0.1630496 27:-0.56417997 28:-0.40408512 29:-0.07823331 30:-0.21795583 31:0.09157839 32:0.13227765 33:-0.37404265 34:-0.37404265 35:-0.23684211 36:-0.92105263 37:-0.37308144 38:-0.37299292 39:-0.09856104 40:-0.0985801 
1.0 1:-0.01010097 2:0.39393941 3:1.0 4:1.0 5:-0.70782819 6:-0.67812526 7:1.0 8:1.0 9:-0.10616599 10:-0.30986219 11:0.32862526 12:0.348988 13:0.33333333 14:0.33333333 15:-0.33333332 16:-0.33333332 17:3.0E-8 18:3.0E-8 19:3.0E-8 20:3.0E-8 21:-1.0 22:-1.0 25:-0.20877149 26:-0.2346209 27:-0.95618729 28:-0.93217306 29:-0.16743401 30:-0.18870962 31:-0.77018385 32:-0.79436882 33:1.0 34:1.0 35:-0.97368421 36:-0.92105263 37:0.73175749 38:0.73175366 39:0.47515915 40:0.47516973 
1.0 1:-0.38047137 2:-0.04377101 3:0.42857143 4:0.42857143 5:-0.42081298 6:-0.46168193 7:1.0 8:1.0 9:-0.63794578 10:-0.67778566 11:-0.41464784 12:-0.42355969 13:-0.33333333 14:0.33333333 15:-0.55555556 16:-0.55555556 17:-0.33333333 18:-0.33333333 19:-0.33333333 20:-0.33333333 21:-1.0 22:-1.0 23:1.0 24:1.0 25:-0.25914289 26:-0.14718061 27:-0.61772045 28:-0.82508141 29:-0.59706294 30:-0.28412803 31:-0.45099513 32:-0.45133124 33:1.0 34:1.0 35:-0.92105263 36:-0.73684211 37:0.5056256 38:0.49725708 39:-0.1113829 40:-0.07192124 
1.0 1:-0.21212119 2:0.09090908 3:0.34693877 4:0.34693877 5:-0.63068265 6:-0.64278341 7:1.0 8:1.0 9:-0.55372805 10:-0.69977351 11:-0.2114257 12:-0.16614645 13:-0.33333333 15:-0.5 16:-0.5 17:-0.24999999 18:-0.24999999 19:-0.24999999 20:-0.24999999 21:-1.0 22:-1.0 23:0.66666667 24:0.66666667 25:0.59143636 26:0.3298693 27:-0.73872909 28:-0.56593745 29:0.20656539 30:-0.19535816 31:-0.11111341 32:-0.04910634 33:1.0 34:1.0 35:-0.92105263 36:-0.89473684 37:0.58066812 38:0.57104322 39:0.00184169 40:0.04446504 
1.0 1:0.33333335 2:0.33333335 3:-0.71428571 4:-0.71428571 5:-0.31175599 6:-0.31175599 7:1.0 8:1.0 9:0.39565824 10:0.39565824 11:0.52769134 12:0.24198158 13:0.33333333 14:0.33333333 15:-0.2 16:-0.2 17:0.20000001 18:0.20000001 19:0.20000001 20:0.20000001 21:-1.0 22:-1.0 23:-0.33333333 24:-0.33333333 25:0.11943222 26:-0.02300994 27:0.34379073 28:0.34379073 29:-0.86258146 30:-1.0 31:0.34343351 32:0.25886362 33:-0.97551403 34:-0.97551403 35:-0.65789474 36:-0.5 37:-0.97831277 38:-0.9783358 39:-0.97009456 40:-0.97005644 
1.0 1:1.0 2:1.0 3:-0.37142857 4:-0.37142857 5:-0.65830799 6:-0.65830799 7:1.0 8:1.0 9:-1.0 10:-0.39062591 11:1.0 12:0.59323201 13:0.66666667 14:0.66666667 15:1.0 16:1.0 17:3.0E-8 18:3.0E-8 19:0.39999999 20:0.39999999 21:1.0 22:1.0 25:0.75128862 26:0.61418805 27:-0.62546014 28:-0.62546014 29:0.57459736 30:0.41589931 31:0.07621885 32:0.01091533 33:-0.8283837 34:-0.8283837 35:-0.94736842 36:-0.97368421 37:-0.85278696 38:-0.85277623 39:-0.85650219 40:-0.85652336 
1.0 1:0.00432903 2:0.00432903 3:-0.14285714 4:-0.14285714 5:-0.1692515 6:-0.07520981 7:1.0 8:1.0 9:-0.26200093 10:-0.61496915 11:0.12663848 12:0.39084872 13:-0.66666667 14:-0.33333333 15:-0.42857144 16:-0.42857144 17:-0.14285715 18:-0.14285715 19:-0.14285715 20:-0.14285715 21:-1.0 22:-1.0 23:0.33333333 24:0.33333333 25:0.91719669 26:0.71777768 27:-0.60813468 28:-0.60813468 29:0.32696583 30:0.40691651 31:-0.03661126 32:0.02916531 33:-0.92465122 34:-0.92465122 35:-0.94736842 36:-0.94736842 37:-0.93723998 38:-0.93732233 39:-0.95793416 40:-0.95763918 
1.0 1:-0.04377101 2:-0.04377101 3:0.71428571 4:0.71428571 5:-0.05067628 6:-0.13646753 7:1.0 8:1.0 9:-0.32672609 10:-0.23830132 11:-0.25236025 12:0.27667025 13:0.33333333 14:0.33333333 15:-0.55555556 16:-0.55555556 17:-0.33333333 18:-0.33333333 19:-0.33333333 20:-0.33333333 21:-1.0 22:-1.0 23:1.0 24:1.0 25:0.55862596 26:0.11762809 27:-0.85239391 28:-0.76279755 29:0.30001165 30:-0.13520847 31:-0.34114678 32:-0.3125693 33:1.0 34:1.0 35:-0.71052632 36:-1.0 37:0.49287579 38:0.49616931 39:-0.03417148 40:-0.06187229 
1.0 1:-0.03030303 2:-0.03030303 3:1.0 4:1.0 5:-0.94031489 6:-0.94031489 7:1.0 8:1.0 9:-0.13177049 10:-0.81213746 11:0.45115396 12:0.45115396 13:-0.33333333 14:-0.33333333 15:-0.2 16:-0.2 17:0.20000001 18:0.20000001 19:0.20000001 20:0.20000001 21:-1.0 22:-1.0 23:-0.33333333 24:-0.33333333 25:-0.82352412 26:-0.6200732 27:-0.89214935 28:-0.6865619 29:-0.70599498 30:-0.67331047 31:-0.71943845 32:-0.69935789 33:1.0 34:1.0 35:-0.60526316 36:-0.28947368 37:0.87969866 38:0.87967025 39:0.60312079 40:0.60319703 
1.0 1:0.21212124 2:0.21212124 3:1.0 4:1.0 5:-0.66622614 6:-0.66622614 7:1.0 8:1.0 9:-0.85241768 10:-0.70271691 11:0.36530396 12:0.36530396 13:-0.66666667 14:-0.33333333 15:-0.2 16:-0.2 17:0.20000001 18:0.20000001 19:0.20000001 20:0.20000001 21:-1.0 22:-1.0 23:-0.33333333 24:-0.33333333 25:-0.19829661 26:-0.16888992 27:-0.43896823 28:-0.85927769 29:-0.493425 30:-0.07051339 31:-0.38714082 32:-0.42357525 33:-0.87909556 34:-0.87909556 35:-0.02631579 36:-0.02631579 37:-0.88766157 38:-0.88909189 39:-0.90056299 40:-0.89575982 
1.0 1:0.45454546 2:0.45454546 3:1.0 4:1.0 5:-0.5974546 6:-0.5974546 7:1.0 8:1.0 9:0.36054073 10:-0.28334167 11:0.95101293 12:0.95101293 14:0.33333333 15:-0.2 16:-0.2 17:0.20000001 18:0.20000001 19:0.20000001 20:0.20000001 21:-1.0 22:-1.0 23:-0.33333333 24:-0.33333333 25:-0.28765528 26:-0.45545338 27:-0.62784167 28:-0.51289447 29:-0.44650876 30:-0.71873302 31:-0.48277224 32:-0.48548406 33:-0.72355166 34:-0.72355166 35:-0.84210526 36:-0.76315789 37:-0.74019052 38:-0.74081564 39:-0.77756759 40:-0.77587123 
1.0 1:0.00432903 2:0.00432903 3:-0.14285714 4:-0.14285714 5:-0.07520981 6:-0.07520981 7:1.0 8:1.0 9:-0.10298359 10:0.4867218 11:0.39084872 12:0.39084872 13:-0.33333333 14:-0.33333333 15:-0.42857144 16:-0.42857144 17:-0.14285715 18:-0.14285715 19:-0.14285715 20:-0.14285715 21:-1.0 22:-1.0 23:0.33333333 24:0.33333333 25:0.37530028 26:0.91719669 27:-0.37348759 28:-0.23458001 29:-0.12543756 30:0.4072783 31:0.53397221 32:0.55378136 33:-0.92465122 34:-0.92465122 35:-0.94736842 36:-0.94736842 37:-0.93730897 38:-0.9373145 39:-0.95766187 40:-0.95766641 
1.0 1:0.33333335 2:0.33333335 3:0.42857143 4:0.42857143 5:-0.42388503 6:-0.50529376 7:1.0 8:1.0 9:-0.15610537 10:0.13677704 11:0.77577289 12:0.77577289 15:-0.2 16:-0.2 17:0.20000001 18:0.20000001 19:0.20000001 20:0.20000001 21:-1.0 22:-1.0 23:-0.33333333 24:-0.33333333 25:-0.2846893 26:-0.87540932 27:-0.89879274 28:-0.91226987 29:0.0878121 30:-0.73833035 31:-0.53046791 32:-1.0 33:-0.60141577 34:-0.60141577 35:-0.84210526 36:-0.65789474 37:-0.64344629 38:-0.64347037 39:-0.55880108 40:-0.55875661 
1.0 1:-0.03030303 2:-0.03030303 3:1.0 4:1.0 5:-0.81458117 6:-0.81458117 7:1.0 8:1.0 9:-0.36115381 10:-0.36115381 11:0.03604137 12:0.03604137 13:-0.66666667 14:-0.66666667 15:-0.2 16:-0.2 17:0.20000001 18:0.20000001 19:0.20000001 20:0.20000001 21:-1.0 22:-1.0 23:-0.33333333 24:-0.33333333 25:0.88803308 26:-0.96762738 27:-0.51579405 28:-0.79753321 29:0.67980457 30:-0.93741162 31:0.02141091 32:-0.88078256 33:1.0 34:1.0 35:-0.89473684 36:-0.89473684 37:0.88113889 38:0.88101857 39:0.59896567 40:0.59928969 
1.0 1:0.09090908 2:0.09090908 3:-0.14285714 4:-0.14285714 5:-0.84419433 6:-0.84419433 7:1.0 8:1.0 9:-0.75757246 10:-0.75757246 11:-0.34541628 12:-0.34541628 13:-0.33333333 15:-0.2 16:-0.2 17:0.20000001 18:0.20000001 19:0.20000001 20:0.20000001 21:-1.0 22:-1.0 23:-0.33333333 24:-0.33333333 25:-0.94721446 26:0.13020166 27:-0.89179609 28:-0.60168653 29:-0.81439316 30:0.19804926 31:-0.96561805 32:-0.08186267 33:-0.78828614 34:-0.78828614 35:1.0 36:-1.0 37:-0.80472383 38:-0.80443526 39:-0.73207727 40:-0.73256012 
1.0 1:0.00432903 2:0.00432903 3:0.61904761 4:0.61904761 5:-0.01580682 6:-0.01580682 7:1.0 8:1.0 9:-0.04548002 10:-0.19415542 11:-0.07903619 12:-0.07903619 13:0.66666667 14:0.33333333 15:-0.42857144 16:-0.42857144 17:-0.14285715 18:-0.14285715 19:-0.14285715 20:-0.14285715 21:-1.0 22:-1.0 23:0.33333333 24:0.33333333 25:0.70392913 26:-1.0 27:-1.0 28:-1.0 29:0.50122287 30:-0.84888674 31:-0.13554581 32:-0.93375346 33:-0.82294149 34:-0.82294149 35:-0.94736842 36:-0.60526316 37:-0.85291021 38:-0.85302767 39:-0.8972093 40:-0.89716846 
1.0 1:-0.17845115 2:-0.11111108 3:0.14285714 4:0.14285714 5:-0.44458464 6:-0.41812551 7:1.0 8:1.0 9:-0.51405634 10:-0.78125466 11:-0.44129824 12:-0.46493816 15:-0.11111112 16:-0.55555556 17:-0.33333333 18:-0.33333333 19:-0.11111109 20:-0.33333333 21:-0.21432578 22:-1.0 23:1.0 24:1.0 25:0.74937458 26:-0.55244252 27:-0.56098245 28:-0.95104617 29:0.009075 30:-0.44819809 31:-0.0764262 32:-0.64248381 33:1.0 34:1.0 35:-0.71052632 36:-0.84210526 37:0.50501496 38:0.50497316 39:-0.10902861 40:-0.10890154 
-1.0 1:-0.11111108 2:-0.27272724 3:1.0 4:1.0 5:0.69279719 6:0.73887762 7:-1.0 8:1.0 9:-0.29931903 10:-0.31629925 11:-0.40251769 12:-0.70978759 13:-0.66666667 14:-0.66666667 15:0.33333332 16:-0.2 17:1.0 18:0.20000001 19:1.0 20:0.20000001 21:-1.0 22:-1.0 23:-1.0 24:-0.33333333 25:-0.38068872 26:-0.06992742 27:-0.40426063 28:-0.71314955 29:-0.54595965 30:-0.17454291 31:-0.33309398 32:-0.29223512 33:-1.0 34:-1.0 35:-0.71052632 36:-0.71052632 37:-0.99919403 38:-0.99952496 39:-0.9986912 40:-0.99960609 
-1.0 1:0.69696973 2:0.69696973 3:1.0 4:1.0 5:-0.79434367 6:-0.83832955 8:1.0 9:-0.38438587 10:-0.57117834 11:0.19840335 12:0.20083348 13:-0.66666667 14:-0.33333333 16:-0.2 17:0.50000002 18:0.20000001 19:0.50000002 20:0.20000001 21:-1.0 22:-1.0 23:-0.66666667 24:-0.33333333 25:-0.43822323 26:-0.69945521 27:-0.78755801 28:-0.80983428 29:-0.3922544 30:-0.66782432 31:-0.60194598 32:-0.61150419 33:-0.87761782 34:-0.8283837 35:-0.44736842 36:0.39473684 37:-0.8783541 38:-0.84041516 39:-0.87584034 40:-0.85786181 
-1.0 1:0.09090908 2:0.09090908 3:1.0 4:1.0 5:-0.05600965 6:-0.05600965 7:-1.0 9:-0.27485026 10:-0.7765875 11:0.23795185 12:0.23795185 17:0.50000002 18:0.50000002 19:0.50000002 20:0.50000002 21:-1.0 22:-1.0 23:-0.66666667 24:-0.66666667 25:-0.6657734 26:-0.6657734 27:-0.85957583 28:-0.93305557 29:-0.56512869 30:-0.50414711 31:-0.75787741 32:-0.78278406 33:1.0 34:1.0 35:-0.57894737 36:-0.57894737 37:1.0 38:1.0 39:1.0 40:1.0 
-1.0 1:0.49494951 2:0.49494951 3:-0.37142857 4:-0.37142857 5:-0.30817195 6:-0.2946404 7:1.0 9:-0.85626642 10:-0.85626642 11:0.21012251 12:0.21012251 13:-0.33333333 14:-0.66666667 15:-0.33333332 16:-0.33333332 17:3.0E-8 18:3.0E-8 19:3.0E-8 20:3.0E-8 21:-1.0 22:-1.0 25:0.34795677 26:0.77884427 27:-0.13253206 28:-0.35209074 29:-0.24408045 30:0.19455228 31:0.47836089 32:0.49138464 33:-0.85124893 34:-0.85124893 35:-0.92105263 36:-0.84210526 37:-0.86913668 38:-0.86910803 39:-0.89997001 40:-0.89995412 
-1.0 1:0.09090908 2:0.09090908 3:1.0 4:1.0 5:-0.58823852 6:-0.61127872 7:1.0 8:1.0 9:-0.39542443 10:-0.02948225 11:0.33900087 12:0.29060299 15:-0.2 16:-0.2 17:0.20000001 18:0.20000001 19:0.20000001 20:0.20000001 21:-1.0 22:-1.0 23:-0.33333333 24:-0.33333333 25:-0.03384833 26:-0.086647 27:-0.5083223 28:-0.84185326 29:-0.23007919 30:-0.1260858 31:-0.28396202 32:-0.31243511 33:-0.97509295 34:-0.97509295 35:-0.86842105 36:-0.86842105 37:-0.97679958 38:-0.92412244 39:-0.98055861 40:-0.84074576 
-1.0 1:-1.0 2:-1.0 3:-0.14285714 4:-0.14285714 5:-0.09056997 6:-0.09056997 7:1.0 8:1.0 9:-0.40532092 10:-0.38890561 11:-1.0 12:-1.0 13:-0.66666667 14:-0.33333333 15:-0.2 16:-0.2 17:0.20000001 18:0.20000001 19:0.20000001 20:0.20000001 21:-1.0 22:-1.0 23:-0.33333333 24:-0.33333333 25:0.91719669 26:0.81828646 27:1.0 28:0.38831288 29:-0.57903603 30:-0.24900003 31:1.0 32:0.88086218 33:-0.99625004 34:-0.9996981 35:-0.94736842 36:-1.0 37:-0.99626384 38:-0.99849069 39:-0.99531119 40:-0.99773184 
-1.0 1:-0.42857141 2:-0.42857141 3:-0.14285714 4:-0.14285714 5:-0.44275604 6:-0.44275604 7:1.0 8:1.0 9:-0.31748559 10:-0.39582678 11:-0.595474 12:-0.595474 13:-0.66666667 14:-0.66666667 15:-0.42857144 16:-0.42857144 17:-0.14285715 18:-0.14285715 19:-0.14285715 20:-0.14285715 21:-1.0 22:-1.0 23:0.33333333 24:0.33333333 25:0.59076676 26:0.49936639 27:-0.17934688 28:-0.42564667 29:-0.16958768 30:-0.02441076 31:0.22239894 32:0.20862152 33:-0.9991499 34:-0.97030222 35:-0.84210526 36:-0.57894737 37:-0.99915923 38:-0.97551348 39:-0.99942638 40:-0.98280317 
-1.0 1:-0.44781144 2:-0.44781144 3:-0.42857143 4:-0.42857143 5:-0.31804633 6:-0.3440123 7:1.0 8:1.0 9:-0.21948721 10:0.01174487 11:-0.61574236 12:-0.61574236 13:-1.0 14:-0.66666667 15:-1.0 16:-0.55555556 17:-1.0 18:-0.33333333 19:-1.0 20:-0.33333333 21:-1.0 22:-1.0 23:1.0 24:1.0 25:0.45888907 26:0.68533543 27:-0.18737741 28:-0.15535843 29:-0.35200037 30:-0.28729096 31:0.61759052 32:0.71424197 33:-0.98676391 34:-0.97133505 35:-0.81578947 36:-0.78947368 37:-0.99025839 38:-0.9786794 39:-0.99432853 40:-0.98738921 
-1.0 1:-0.27272724 2:-0.27272724 3:1.0 4:1.0 5:-1.0 6:-0.63662296 7:1.0 8:1.0 9:-0.46291085 10:-0.48890058 11:-0.04484218 12:-0.01388417 13:-0.33333333 14:-0.33333333 15:-0.2 16:-0.2 17:0.20000001 18:0.20000001 19:0.20000001 20:0.20000001 21:-1.0 22:-1.0 23:-0.33333333 24:-0.33333333 25:-0.39487983 26:-0.39487983 27:-0.8039648 28:-0.64182804 29:-0.2284942 30:-0.55300259 31:-0.51833637 32:-0.53901329 33:1.0 34:1.0 35:-0.92105263 36:-0.97368421 37:0.88078471 38:0.88078943 39:0.59967089 40:0.59965819 
-1.0 1:0.09090908 2:0.09090908 3:-0.14285714 4:-0.14285714 5:-0.75654179 6:-0.52613966 7:1.0 8:1.0 9:-0.66825031 10:-0.66825031 11:-0.34840584 12:-0.3206066 15:-0.42857144 16:-0.42857144 17:-0.14285715 18:-0.14285715 19:-0.14285715 20:-0.14285715 21:-1.0 22:-1.0 23:0.33333333 24:0.33333333 25:-0.67007652 26:-0.49380435 27:-0.60168653 28:-0.60168653 29:-0.88356779 30:-0.74199335 31:-0.55935513 32:-0.54963386 33:-0.78828614 34:-0.78828614 35:-0.44736842 36:-0.78947368 37:-0.801857 38:-0.80182113 39:-0.71083242 40:-0.71089141 
-1.0 1:0.17748919 2:0.17748919 3:0.61904761 4:0.61904761 5:-0.85392715 6:0.13142065 7:1.0 8:1.0 9:-0.52397842 10:-0.26192179 11:0.27870141 12:0.27398516 13:0.66666667 14:0.66666667 15:-0.42857144 16:-0.42857144 17:-0.14285715 18:-0.14285715 19:-0.14285715 20:-0.14285715 21:-1.0 22:-1.0 23:0.33333333 24:0.33333333 25:-0.01545401 26:0.20073564 27:-0.96049369 28:-0.86683616 29:0.00866108 30:0.00188212 31:-0.52565921 32:-0.51951093 33:1.0 34:1.0 35:-0.92105263 36:-0.71052632 37:0.6532653 38:0.66779429 39:0.20202814 40:0.14306862 
-1.0 1:0.15824915 2:0.09090908 3:0.42857143 4:0.34693877 5:-0.80949881 6:0.07486501 7:1.0 8:1.0 9:-0.31895496 10:0.03005223 11:0.05377462 12:0.08368712 13:1.0 14:0.66666667 15:-0.55555556 17:-0.33333333 18:-0.24999999 19:-0.33333333 20:-0.09999999 21:-1.0 22:-0.24999998 23:1.0 24:0.66666667 25:-0.55152291 26:-0.77478025 27:-0.87498361 28:-0.93217306 29:-0.45426399 30:-0.68252219 31:-0.76804118 32:-0.78861456 33:1.0 34:1.0 35:-0.84210526 36:-0.86842105 37:0.4765335 38:0.58105541 39:0.05957642 40:4.5189E-4 
-1.0 1:-0.51515151 2:-0.51515151 3:-0.14285714 4:0.42857143 5:-0.49772339 6:-0.49772339 7:1.0 8:1.0 9:-0.33057014 10:-0.53980213 11:-0.94667249 12:-0.94667249 13:-0.66666667 14:-0.66666667 15:-0.2 16:-0.2 17:0.20000001 18:0.20000001 19:0.20000001 20:0.20000001 21:-1.0 22:-1.0 23:-0.33333333 24:-0.33333333 25:-0.62279699 26:-0.36240864 27:-0.3241439 28:-0.53691066 29:-0.99916822 30:-0.61740263 31:-0.46836595 32:-0.43392135 33:-0.92996631 34:-0.92996631 35:-0.84210526 36:-0.84210526 37:-0.9346133 38:-0.93452158 39:-0.94380421 40:-0.94336582 
-1.0 1:-0.16883113 2:-0.16883113 3:-0.52380953 4:0.61904761 5:-0.60900084 6:-0.60900084 7:1.0 8:1.0 9:-0.75757246 10:-0.62691028 11:-0.00495053 12:-0.00495053 13:-0.33333333 14:-0.33333333 15:-0.42857144 16:-0.42857144 17:-0.14285715 18:-0.14285715 19:-0.14285715 20:-0.14285715 21:-1.0 22:-1.0 23:0.33333333 24:0.33333333 25:0.39372178 26:0.36879441 27:-0.60001141 28:-0.77995057 29:0.3268799 30:0.32311357 31:-0.13976488 32:-0.18964721 33:1.0 34:1.0 35:0.02631579 36:-0.60526316 37:0.64109961 38:0.64204002 39:0.26829407 40:0.26809893 
-1.0 1:-0.01010097 2:0.02356906 3:-0.37142857 4:-1.0 5:0.92319932 6:1.0 7:1.0 8:1.0 9:-0.25519699 10:1.0 11:-0.00317218 12:0.07466255 13:0.66666667 14:0.66666667 15:-0.33333332 16:-0.55555556 17:3.0E-8 18:-0.33333333 19:3.0E-8 20:-0.33333333 21:-1.0 22:-1.0 24:1.0 25:0.42695828 26:0.45453363 27:-0.0980624 28:0.42628082 29:-0.26624721 30:-0.74061191 31:0.54513357 32:0.5575514 33:-0.99918963 34:-0.99895923 35:-0.44736842 36:-0.84210526 37:-0.99950658 38:-0.99917797 39:-0.99855354 40:-0.99902652 
-1.0 1:0.00432903 2:0.00432903 3:-0.14285714 4:1.0 5:0.08951983 6:0.08951983 7:1.0 8:1.0 9:0.17401889 10:-0.22292252 11:0.1177571 12:0.1177571 13:0.33333333 14:0.33333333 15:-0.42857144 16:-0.42857144 17:-0.14285715 18:-0.14285715 19:-0.14285715 20:-0.14285715 21:-1.0 22:-1.0 23:0.33333333 24:0.33333333 25:0.17685361 26:0.17685361 27:-0.82819258 28:-0.82819258 29:0.02531104 30:-0.0182602 31:-0.49042914 32:-0.48054599 33:1.0 34:1.0 35:-0.63157895 36:-0.97368421 37:0.66793219 38:0.66803163 39:0.14240151 40:0.14234252 
-1.0 1:0.39393941 2:-0.01010097 3:1.0 4:1.0 5:-0.67812526 6:-0.70782819 7:1.0 8:1.0 9:-0.30986219 10:-0.10616599 11:0.348988 12:0.32862526 13:0.33333333 14:0.33333333 15:-0.33333332 16:-0.33333332 17:3.0E-8 18:3.0E-8 19:3.0E-8 20:3.0E-8 21:-1.0 22:-1.0 25:-0.2346209 26:-0.20877149 27:-0.93217306 28:-0.95618729 29:-0.18870962 30:-0.16743401 31:-0.79436882 32:-0.77018385 33:1.0 34:1.0 35:-0.92105263 36:-0.97368421 37:0.73175366 38:0.73175749 39:0.47516973 40:0.47515915 
-1.0 1:-0.3131313 2:0.00432903 3:1.0 4:1.0 5:-0.31153655 6:-0.40827411 7:1.0 8:1.0 9:-0.45610933 10:-0.68637132 11:-0.30889983 12:-0.24242162 14:0.66666667 15:-0.33333332 16:-0.42857144 17:3.0E-8 18:-0.14285715 19:3.0E-8 20:-0.14285715 21:-1.0 22:-1.0 24:0.33333333 25:-0.39816231 26:0.06134816 27:-0.79882792 28:-0.97059229 29:-0.42738674 30:0.21521223 31:-0.36425399 32:-0.41434724 33:-0.37404265 34:-0.37404265 35:-0.71052632 36:-0.71052632 37:-0.44845408 38:-0.48706942 39:-0.57721746 40:-0.53817433 
-1.0 1:-0.04377101 2:-0.38047137 3:0.42857143 4:0.42857143 5:-0.46168193 6:-0.42081298 7:1.0 8:1.0 9:-0.67778566 10:-0.63794578 11:-0.42355969 12:-0.41464784 13:0.33333333 14:-0.33333333 15:-0.55555556 16:-0.55555556 17:-0.33333333 18:-0.33333333 19:-0.33333333 20:-0.33333333 21:-1.0 22:-1.0 23:1.0 24:1.0 25:-0.14718061 26:-0.25914289 27:-0.82508141 28:-0.61772045 29:-0.28412803 30:-0.59706294 31:-0.45133124 32:-0.45099513 33:1.0 34:1.0 35:-0.73684211 36:-0.92105263 37:0.49725708 38:0.5056256 39:-0.07192124 40:-0.1113829 
-1.0 1:-0.21212119 2:0.09090908 3:0.34693877 4:0.34693877 5:-0.63068265 6:-0.64278341 7:1.0 8:1.0 9:-0.55372805 10:-0.69977351 11:-0.2114257 12:-0.16614645 13:-0.33333333 15:-0.5 16:-0.5 17:-0.24999999 18:-0.24999999 19:-0.24999999 20:-0.24999999 21:-1.0 22:-1.0 23:0.66666667 24:0.66666667 25:0.59143636 26:0.3298693 27:-0.73872909 28:-0.56593745 29:0.20656539 30:-0.19535816 31:-0.11111341 32:-0.04910634 33:1.0 34:1.0 35:-0.92105263 36:-0.89473684 37:0.58066812 38:0.57104322 39:0.00184169 40:0.04446504 
-1.0 1:0.33333335 2:0.33333335 3:-0.71428571 4:-0.71428571 5:-0.31175599 6:-0.31175599 7:1.0 8:1.0 9:0.39565824 10:0.39565824 11:0.24198158 12:0.52769134 13:0.33333333 14:0.33333333 15:-0.2 16:-0.2 17:0.20000001 18:0.20000001 19:0.20000001 20:0.20000001 21:-1.0 22:-1.0 23:-0.33333333 24:-0.33333333 25:-0.02300994 26:0.11943222 27:0.34379073 28:0.34379073 29:-1.0 30:-0.86258146 31:0.25886362 32:0.34343351 33:-0.97551403 34:-0.97551403 35:-0.5 36:-0.65789474 37:-0.9783358 38:-0.97831277 39:-0.97005644 40:-0.97009456 
-1.0 1:0.00432903 2:0.00432903 3:-0.14285714 4:-0.14285714 5:-0.07520981 6:-0.1692515 7:1.0 8:1.0 9:-0.61496915 10:-0.26200093 11:0.39084872 12:0.12663848 13:-0.33333333 14:-0.66666667 15:-0.42857144 16:-0.42857144 17:-0.14285715 18:-0.14285715 19:-0.14285715 20:-0.14285715 21:-1.0 22:-1.0 23:0.33333333 24:0.33333333 25:0.71777768 26:0.91719669 27:-0.60813468 28:-0.60813468 29:0.40691651 30:0.32696583 31:0.02916531 32:-0.03661126 33:-0.92465122 34:-0.92465122 35:-0.94736842 36:-0.94736842 37:-0.93732233 38:-0.93723998 39:-0.95763918 40:-0.95793416 
-1.0 1:-0.04377101 2:-0.04377101 3:0.71428571 4:0.71428571 5:-0.13646753 6:-0.05067628 7:1.0 8:1.0 9:-0.23830132 10:-0.32672609 11:0.27667025 12:-0.25236025 13:0.33333333 14:0.33333333 15:-0.55555556 16:-0.55555556 17:-0.33333333 18:-0.33333333 19:-0.33333333 20:-0.33333333 21:-1.0 22:-1.0 23:1.0 24:1.0 25:0.11762809 26:0.55862596 27:-0.76279755 28:-0.85239391 29:-0.13520847 30:0.30001165 31:-0.3125693 32:-0.34114678 33:1.0 34:1.0 35:-1.0 36:-0.71052632 37:0.49616931 38:0.49287579 39:-0.06187229 40:-0.03417148 
-1.0 1:-0.03030303 2:-0.03030303 3:1.0 4:1.0 5:-0.94031489 6:-0.94031489 7:1.0 8:1.0 9:-0.13177049 10:-0.81213746 11:0.45115396 12:0.45115396 13:-0.33333333 14:-0.33333333 15:-0.2 16:-0.2 17:0.20000001 18:0.20000001 19:0.20000001 20:0.20000001 21:-1.0 22:-1.0 23:-0.33333333 24:-0.33333333 25:-0.82352412 26:-0.6200732 27:-0.89214935 28:-0.6865619 29:-0.70599498 30:-0.67331047 31:-0.71943845 32:-0.69935789 33:1.0 34:1.0 35:-0.60526316 36:-0.28947368 37:0.87969866 38:0.87967025 39:0.60312079 40:0.60319703 
-1.0 1:0.21212124 2:0.21212124 3:1.0 4:1.0 5:-0.66622614 6:-0.66622614 7:1.0 8:1.0 9:-0.85241768 10:-0.70271691 11:0.36530396 12:0.36530396 13:-0.66666667 14:-0.33333333 15:-0.2 16:-0.2 17:0.20000001 18:0.20000001 19:0.20000001 20:0.20000001 21:-1.0 22:-1.0 23:-0.33333333 24:-0.33333333 25:-0.19829661 26:-0.16888992 27:-0.43896823 28:-0.85927769 29:-0.493425 30:-0.07051339 31:-0.38714082 32:-0.42357525 33:-0.87909556 34:-0.87909556 35:-0.02631579 36:-0.02631579 37:-0.88766157 38:-0.88909189 39:-0.90056299 40:-0.89575982 
-1.0 1:0.45454546 2:0.45454546 3:1.0 4:1.0 5:-0.5974546 6:-0.5974546 7:1.0 8:1.0 9:-0.28334167 10:0.36054073 11:0.95101293 12:0.95101293 13:0.33333333 15:-0.2 16:-0.2 17:0.20000001 18:0.20000001 19:0.20000001 20:0.20000001 21:-1.0 22:-1.0 23:-0.33333333 24:-0.33333333 25:-0.45545338 26:-0.28765528 27:-0.51289447 28:-0.62784167 29:-0.71873302 30:-0.44650876 31:-0.48548406 32:-0.48277224 33:-0.72355166 34:-0.72355166 35:-0.76315789 36:-0.84210526 37:-0.74081564 38:-0.74019052 39:-0.77587123 40:-0.77756759 
-1.0 1:-0.51515151 2:-0.51515151 3:-0.52380953 4:-0.52380953 5:-0.28586318 6:-0.28586318 7:1.0 8:1.0 9:-0.27557843 10:-0.78913674 11:-0.65091132 12:-0.65091132 13:0.33333333 14:0.33333333 15:-0.42857144 16:-0.42857144 17:-0.14285715 18:-0.14285715 19:-0.14285715 20:-0.14285715 21:-1.0 22:-1.0 23:0.33333333 24:0.33333333 25:1.0 26:0.09225467 27:-0.52823557 28:-0.84951456 29:1.0 30:-0.09829673 31:0.01830687 32:0.06769103 33:-0.99966632 34:-0.99922935 35:-0.73684211 36:-0.60526316 37:-0.9997314 38:-0.99953226 39:-0.99961698 40:-0.99959429 
-1.0 1:0.00432903 2:0.00432903 3:-0.14285714 4:-0.14285714 5:-0.07520981 6:-0.07520981 7:1.0 8:1.0 9:-0.10298359 10:0.4867218 11:0.39084872 12:0.39084872 13:-0.33333333 14:-0.33333333 15:-0.42857144 16:-0.42857144 17:-0.14285715 18:-0.14285715 19:-0.14285715 20:-0.14285715 21:-1.0 22:-1.0 23:0.33333333 24:0.33333333 25:0.37530028 26:0.91719669 27:-0.37348759 28:-0.23458001 29:-0.12543756 30:0.4072783 31:0.53397221 32:0.55378136 33:-0.92465122 34:-0.92465122 35:-0.94736842 36:-0.94736842 37:-0.93730897 38:-0.9373145 39:-0.95766187 40:-0.95766641 
-1.0 1:0.33333335 2:0.33333335 3:0.42857143 4:0.42857143 5:-0.50529376 6:-0.42388503 7:1.0 8:1.0 9:0.13677704 10:-0.15610537 11:0.77577289 12:0.77577289 15:-0.2 16:-0.2 17:0.20000001 18:0.20000001 19:0.20000001 20:0.20000001 21:-1.0 22:-1.0 23:-0.33333333 24:-0.33333333 25:-0.87540932 26:-0.2846893 27:-0.91226987 28:-0.89879274 29:-0.73833035 30:0.0878121 31:-1.0 32:-0.53046791 33:-0.60141577 34:-0.60141577 35:-0.65789474 36:-0.84210526 37:-0.64347037 38:-0.64344629 39:-0.55875661 40:-0.55880108 
-1.0 1:-0.03030303 2:-0.03030303 3:1.0 4:1.0 5:-0.81458117 6:-0.81458117 7:1.0 8:1.0 9:-0.36115381 10:-0.36115381 11:0.03604137 12:0.03604137 13:-0.66666667 14:-0.66666667 15:-0.2 16:-0.2 17:0.20000001 18:0.20000001 19:0.20000001 20:0.20000001 21:-1.0 22:-1.0 23:-0.33333333 24:-0.33333333 25:-0.96762738 26:0.88803308 27:-0.79753321 28:-0.51579405 29:-0.93741162 30:0.67980457 31:-0.88078256 32:0.02141091 33:1.0 34:1.0 35:-0.89473684 36:-0.89473684 37:0.88101857 38:0.88113889 39:0.59928969 40:0.59896567 
-1.0 1:0.09090908 2:0.09090908 3:-0.14285714 4:-0.14285714 5:-0.84419433 6:-0.84419433 7:1.0 8:1.0 9:-0.75757246 10:-0.75757246 11:-0.34541628 12:-0.34541628 14:-0.33333333 15:-0.2 16:-0.2 17:0.20000001 18:0.20000001 19:0.20000001 20:0.20000001 21:-1.0 22:-1.0 23:-0.33333333 24:-0.33333333 25:0.13020166 26:-0.94721446 27:-0.60168653 28:-0.89179609 29:0.19804926 30:-0.81439316 31:-0.08186267 32:-0.96561805 33:-0.78828614 34:-0.78828614 35:-1.0 36:1.0 37:-0.80443526 38:-0.80472383 39:-0.73256012 40:-0.73207727 
-1.0 1:0.00432903 2:0.00432903 3:0.61904761 4:0.61904761 5:-0.01580682 6:-0.01580682 7:1.0 8:1.0 9:-0.04548002 10:-0.19415542 11:-0.07903619 12:-0.07903619 13:0.66666667 14:0.33333333 15:-0.42857144 16:-0.42857144 17:-0.14285715 18:-0.14285715 19:-0.14285715 20:-0.14285715 21:-1.0 22:-1.0 23:0.33333333 24:0.33333333 25:0.70392913 26:-1.0 27:-1.0 28:-1.0 29:0.50122287 30:-0.84888674 31:-0.13554581 32:-0.93375346 33:-0.82294149 34:-0.82294149 35:-0.94736842 36:-0.60526316 37:-0.85291021 38:-0.85302767 39:-0.8972093 40:-0.89716846 
-1.0 1:-0.17845115 2:-0.11111108 3:0.14285714 4:0.14285714 5:-0.44458464 6:-0.41812551 7:1.0 8:1.0 9:-0.51405634 10:-0.78125466 11:-0.44129824 12:-0.46493816 15:-0.11111112 16:-0.55555556 17:-0.33333333 18:-0.33333333 19:-0.11111109 20:-0.33333333 21:-0.21432578 22:-1.0 23:1.0 24:1.0 25:0.74937458 26:-0.55244252 27:-0.56098245 28:-0.95104617 29:0.009075 30:-0.44819809 31:-0.0764262 32:-0.64248381 33:1.0 34:1.0 35:-0.71052632 36:-0.84210526 37:0.50501496 38:0.50497316 39:-0.10902861 40:-0.10890154 
-1.0 1:0.09090908 2:0.09090908 3:1.0 4:1.0 5:0.60063636 6:0.71122937 8:1.0 9:0.51163875 10:-0.21150847 11:0.04376024 12:0.03132211 16:-0.2 17:0.50000002 18:0.20000001 19:0.50000002 20:0.20000001 21:-1.0 22:-1.0 23:-0.66666667 24:-0.33333333 25:-0.76512515 26:-0.76512515 27:-0.87073267 28:-0.87073267 29:-0.63502056 30:-0.7244832 31:-0.85713247 32:-0.85549298 33:-0.99963454 34:-0.99963454 35:0.23684211 36:0.23684211 37:-0.9999704 38:-1.0 39:-0.99915182 40:-0.99916771 
-1.0 1:0.69696973 2:0.69696973 3:1.0 4:1.0 5:-0.79434367 6:-0.83832955 8:1.0 9:-0.38438587 10:-0.57117834 11:0.19840335 12:0.20083348 13:-0.66666667 14:-0.33333333 16:-0.2 17:0.50000002 18:0.20000001 19:0.50000002 20:0.20000001 21:-1.0 22:-1.0 23:-0.66666667 24:-0.33333333 25:-0.43822323 26:-0.69945521 27:-0.78755801 28:-0.80983428 29:-0.3922544 30:-0.66782432 31:-0.60194598 32:-0.61150419 33:-0.87761782 34:-0.8283837 35:-0.44736842 36:0.39473684 37:-0.8783541 38:-0.84041516 39:-0.87584034 40:-0.85786181 
-1.0 1:0.09090908 2:0.09090908 3:1.0 4:1.0 5:-0.05600965 6:-0.05600965 7:-1.0 9:-0.27485026 10:-0.7765875 11:0.23795185 12:0.23795185 17:0.50000002 18:0.50000002 19:0.50000002 20:0.50000002 21:-1.0 22:-1.0 23:-0.66666667 24:-0.66666667 25:-0.6657734 26:-0.6657734 27:-0.85957583 28:-0.93305557 29:-0.56512869 30:-0.50414711 31:-0.75787741 32:-0.78278406 33:1.0 34:1.0 35:-0.57894737 36:-0.57894737 37:1.0 38:1.0 39:1.0 40:1.0 
-1.0 1:0.49494951 2:0.49494951 3:-0.37142857 4:-0.37142857 5:-0.30817195 6:-0.2946404 7:1.0 9:-0.85626642 10:-0.85626642 11:0.21012251 12:0.21012251 13:-0.33333333 14:-0.66666667 15:-0.33333332 16:-0.33333332 17:3.0E-8 18:3.0E-8 19:3.0E-8 20:3.0E-8 21:-1.0 22:-1.0 25:0.34795677 26:0.77884427 27:-0.13253206 28:-0.35209074 29:-0.24408045 30:0.19455228 31:0.47836089 32:0.49138464 33:-0.85124893 34:-0.85124893 35:-0.92105263 36:-0.84210526 37:-0.86913668 38:-0.86910803 39:-0.89997001 40:-0.89995412 
-1.0 1:0.09090908 2:0.09090908 3:1.0 4:1.0 5:-0.58823852 6:-0.61127872 7:1.0 8:1.0 9:-0.39542443 10:-0.02948225 11:0.33900087 12:0.29060299 15:-0.2 16:-0.2 17:0.20000001 18:0.20000001 19:0.20000001 20:0.20000001 21:-1.0 22:-1.0 23:-0.33333333 24:-0.33333333 25:-0.03384833 26:-0.086647 27:-0.5083223 28:-0.84185326 29:-0.23007919 30:-0.1260858 31:-0.28396202 32:-0.31243511 33:-0.97509295 34:-0.97509295 35:-0.86842105 36:-0.86842105 37:-0.97679958 38:-0.92412244 39:-0.98055861 40:-0.84074576 
-1.0 1:-1.0 2:-1.0 3:-0.14285714 4:-0.14285714 5:-0.09056997 6:-0.09056997 7:1.0 8:1.0 9:-0.38890561 10:-0.40532092 11:-1.0 12:-1.0 13:-0.33333333 14:-0.66666667 15:-0.2 16:-0.2 17:0.20000001 18:0.20000001 19:0.20000001 20:0.20000001 21:-1.0 22:-1.0 23:-0.33333333 24:-0.33333333 25:0.81828646 26:0.91719669 27:0.38831288 28:1.0 29:-0.24900003 30:-0.57903603 31:0.88086218 32:1.0 33:-0.9996981 34:-0.99625004 35:-1.0 36:-0.94736842 37:-0.99849069 38:-0.99626384 39:-0.99773184 40:-0.99531119 
-1.0 1:-0.42857141 2:-0.42857141 3:-0.14285714 4:-0.14285714 5:-0.44275604 6:-0.44275604 7:1.0 8:1.0 9:-0.39582678 10:-0.31748559 11:-0.595474 12:-0.595474 13:-0.66666667 14:-0.66666667 15:-0.42857144 16:-0.42857144 17:-0.14285715 18:-0.14285715 19:-0.14285715 20:-0.14285715 21:-1.0 22:-1.0 23:0.33333333 24:0.33333333 25:0.49936639 26:0.59076676 27:-0.42564667 28:-0.17934688 29:-0.02441076 30:-0.16958768 31:0.20862152 32:0.22239894 33:-0.97030222 34:-0.9991499 35:-0.57894737 36:-0.84210526 37:-0.97551348 38:-0.99915923 39:-0.98280317 40:-0.99942638 
-1.0 1:-0.44781144 2:-0.44781144 3:-0.42857143 4:-0.42857143 5:-0.31804633 6:-0.3440123 7:1.0 8:1.0 9:-0.21948721 10:0.01174487 11:-0.61574236 12:-0.61574236 13:-1.0 14:-0.66666667 15:-1.0 16:-0.55555556 17:-1.0 18:-0.33333333 19:-1.0 20:-0.33333333 21:-1.0 22:-1.0 23:1.0 24:1.0 25:0.45888907 26:0.68533543 27:-0.18737741 28:-0.15535843 29:-0.35200037 30:-0.28729096 31:0.61759052 32:0.71424197 33:-0.98676391 34:-0.97133505 35:-0.81578947 36:-0.78947368 37:-0.99025839 38:-0.9786794 39:-0.99432853 40:-0.98738921 
-1.0 1:-0.27272724 2:-0.27272724 3:1.0 4:1.0 5:-1.0 6:-0.63662296 7:1.0 8:1.0 9:-0.46291085 10:-0.48890058 11:-0.04484218 12:-0.01388417 13:-0.33333333 14:-0.33333333 15:-0.2 16:-0.2 17:0.20000001 18:0.20000001 19:0.20000001 20:0.20000001 21:-1.0 22:-1.0 23:-0.33333333 24:-0.33333333 25:-0.39487983 26:-0.39487983 27:-0.8039648 28:-0.64182804 29:-0.2284942 30:-0.55300259 31:-0.51833637 32:-0.53901329 33:1.0 34:1.0 35:-0.92105263 36:-0.97368421 37:0.88078471 38:0.88078943 39:0.59967089 40:0.59965819 
-1.0 1:0.09090908 2:0.09090908 3:-0.14285714 4:-0.14285714 5:-0.75654179 6:-0.52613966 7:1.0 8:1.0 9:-0.66825031 10:-0.66825031 11:-0.34840584 12:-0.3206066 15:-0.42857144 16:-0.42857144 17:-0.14285715 18:-0.14285715 19:-0.14285715 20:-0.14285715 21:-1.0 22:-1.0 23:0.33333333 24:0.33333333 25:-0.67007652 26:-0.49380435 27:-0.60168653 28:-0.60168653 29:-0.88356779 30:-0.74199335 31:-0.55935513 32:-0.54963386 33:-0.78828614 34:-0.78828614 35:-0.44736842 36:-0.78947368 37:-0.801857 38:-0.80182113 39:-0.71083242 40:-0.71089141 
-1.0 1:0.17748919 2:0.17748919 3:0.61904761 4:0.61904761 5:-0.85392715 6:0.13142065 7:1.0 8:1.0 9:-0.52397842 10:-0.26192179 11:0.27870141 12:0.27398516 13:0.66666667 14:0.66666667 15:-0.42857144 16:-0.42857144 17:-0.14285715 18:-0.14285715 19:-0.14285715 20:-0.14285715 21:-1.0 22:-1.0 23:0.33333333 24:0.33333333 25:-0.01545401 26:0.20073564 27:-0.96049369 28:-0.86683616 29:0.00866108 30:0.00188212 31:-0.52565921 32:-0.51951093 33:1.0 34:1.0 35:-0.92105263 36:-0.71052632 37:0.6532653 38:0.66779429 39:0.20202814 40:0.14306862 
-1.0 1:0.09090908 2:0.15824915 3:0.34693877 4:0.42857143 5:0.07486501 6:-0.80949881 7:1.0 8:1.0 9:0.03005223 10:-0.31895496 11:0.08368712 12:0.05377462 13:0.66666667 14:1.0 16:-0.55555556 17:-0.24999999 18:-0.33333333 19:-0.09999999 20:-0.33333333 21:-0.24999998 22:-1.0 23:0.66666667 24:1.0 25:-0.77478025 26:-0.55152291 27:-0.93217306 28:-0.87498361 29:-0.68252219 30:-0.45426399 31:-0.78861456 32:-0.76804118 33:1.0 34:1.0 35:-0.86842105 36:-0.84210526 37:0.58105541 38:0.4765335 39:4.5189E-4 40:0.05957642 
-1.0 1:-0.28787877 2:-0.28787877 3:0.67346939 4:0.67346939 5:-0.15992569 6:-0.6251577 7:1.0 8:1.0 9:-0.61179298 10:-0.68607786 11:-0.35373134 12:-0.35363893 13:-0.66666667 14:-0.33333333 15:-0.5 16:-0.5 17:-0.24999999 18:-0.24999999 19:-0.24999999 20:-0.24999999 21:-1.0 22:-1.0 23:0.66666667 24:0.66666667 25:0.3793406 26:0.3298693 27:-0.51579405 28:-0.98599807 29:0.12427812 30:0.63187432 31:-0.04034423 32:0.00338396 33:1.0 34:1.0 35:-0.94736842 36:-0.89473684 37:0.58131929 38:0.57774665 39:-9.538E-4 40:0.01345649 
-1.0 1:-0.51515151 2:-0.51515151 3:0.42857143 4:-0.14285714 5:-0.22881123 6:-0.22881123 7:1.0 8:1.0 9:-0.29925874 10:-0.64428463 11:-0.78348374 12:-0.78348374 13:-1.0 14:-1.0 15:-1.0 16:-1.0 17:-1.0 18:-1.0 19:-1.0 20:-1.0 21:-1.0 22:-1.0 23:-0.33333333 24:-0.33333333 25:0.35341239 26:0.35341239 27:-0.63674623 28:-0.69939203 29:0.38281418 30:0.42277562 31:0.01573149 32:-1.943E-4 33:-0.9994677 34:-0.9994677 35:-0.5 36:-0.5 37:-0.99967859 38:-0.99967859 39:-1.0 40:-1.0 
-1.0 1:-0.51515151 2:-0.51515151 3:0.42857143 4:-0.14285714 5:-0.49772339 6:-0.49772339 7:1.0 8:1.0 9:-0.53980213 10:-0.33057014 11:-0.94667249 12:-0.94667249 13:-0.66666667 14:-0.66666667 15:-0.2 16:-0.2 17:0.20000001 18:0.20000001 19:0.20000001 20:0.20000001 21:-1.0 22:-1.0 23:-0.33333333 24:-0.33333333 25:-0.36240864 26:-0.62279699 27:-0.53691066 28:-0.3241439 29:-0.61740263 30:-0.99916822 31:-0.43392135 32:-0.46836595 33:-0.92996631 34:-0.92996631 35:-0.84210526 36:-0.84210526 37:-0.93452158 38:-0.9346133 39:-0.94336582 40:-0.94380421 
-1.0 1:-0.16883113 2:-0.16883113 3:-0.52380953 4:0.61904761 5:-0.60900084 6:-0.60900084 7:1.0 8:1.0 9:-0.75757246 10:-0.62691028 11:-0.00495053 12:-0.00495053 13:-0.33333333 14:-0.33333333 15:-0.42857144 16:-0.42857144 17:-0.14285715 18:-0.14285715 19:-0.14285715 20:-0.14285715 21:-1.0 22:-1.0 23:0.33333333 24:0.33333333 25:0.39372178 26:0.36879441 27:-0.60001141 28:-0.77995057 29:0.3268799 30:0.32311357 31:-0.13976488 32:-0.18964721 33:1.0 34:1.0 35:0.02631579 36:-0.60526316 37:0.64109961 38:0.64204002 39:0.26829407 40:0.26809893 
-1.0 1:-0.01010097 2:0.02356906 3:-0.37142857 4:-1.0 5:0.92319932 6:1.0 7:1.0 8:1.0 9:-0.25519699 10:1.0 11:-0.00317218 12:0.07466255 13:0.66666667 14:0.66666667 15:-0.33333332 16:-0.55555556 17:3.0E-8 18:-0.33333333 19:3.0E-8 20:-0.33333333 21:-1.0 22:-1.0 24:1.0 25:0.42695828 26:0.45453363 27:-0.0980624 28:0.42628082 29:-0.26624721 30:-0.74061191 31:0.54513357 32:0.5575514 33:-0.99918963 34:-0.99895923 35:-0.44736842 36:-0.84210526 37:-0.99950658 38:-0.99917797 39:-0.99855354 40:-0.99902652 
-1.0 1:0.00432903 2:0.00432903 3:1.0 4:-0.14285714 5:0.08951983 6:0.08951983 7:1.0 8:1.0 9:-0.22292252 10:0.17401889 11:0.1177571 12:0.1177571 13:0.33333333 14:0.33333333 15:-0.42857144 16:-0.42857144 17:-0.14285715 18:-0.14285715 19:-0.14285715 20:-0.14285715 21:-1.0 22:-1.0 23:0.33333333 24:0.33333333 25:0.17685361 26:0.17685361 27:-0.82819258 28:-0.82819258 29:-0.0182602 30:0.02531104 31:-0.48054599 32:-0.49042914 33:1.0 34:1.0 35:-0.97368421 36:-0.63157895 37:0.66803163 38:0.66793219 39:0.14234252 40:0.14240151 
-1.0 1:-0.51515151 2:-0.15151513 3:0.42857143 4:0.42857143 5:-0.68204509 6:-0.74479228 7:1.0 8:1.0 9:-0.68870564 10:-0.3986391 11:0.26745757 12:0.32326759 13:-0.33333333 14:-0.33333333 15:-0.2 16:-0.2 17:0.20000001 18:0.20000001 19:0.20000001 20:0.20000001 21:-1.0 22:-1.0 23:-0.33333333 24:-0.33333333 25:0.1630496 26:0.1630496 27:-0.40408512 28:-0.56417997 29:-0.21795583 30:-0.07823331 31:0.13227765 32:0.09157839 33:-0.37404265 34:-0.37404265 35:-0.92105263 36:-0.23684211 37:-0.37299292 38:-0.37308144 39:-0.0985801 40:-0.09856104 
-1.0 1:0.39393941 2:-0.01010097 3:1.0 4:1.0 5:-0.67812526 6:-0.70782819 7:1.0 8:1.0 9:-0.30986219 10:-0.10616599 11:0.348988 12:0.32862526 13:0.33333333 14:0.33333333 15:-0.33333332 16:-0.33333332 17:3.0E-8 18:3.0E-8 19:3.0E-8 20:3.0E-8 21:-1.0 22:-1.0 25:-0.2346209 26:-0.20877149 27:-0.93217306 28:-0.95618729 29:-0.18870962 30:-0.16743401 31:-0.79436882 32:-0.77018385 33:1.0 34:1.0 35:-0.92105263 36:-0.97368421 37:0.73175366 38:0.73175749 39:0.47516973 40:0.47515915 
-1.0 1:-0.04377101 2:-0.38047137 3:0.42857143 4:0.42857143 5:-0.46168193 6:-0.42081298 7:1.0 8:1.0 9:-0.67778566 10:-0.63794578 11:-0.42355969 12:-0.41464784 13:0.33333333 14:-0.33333333 15:-0.55555556 16:-0.55555556 17:-0.33333333 18:-0.33333333 19:-0.33333333 20:-0.33333333 21:-1.0 22:-1.0 23:1.0 24:1.0 25:-0.14718061 26:-0.25914289 27:-0.82508141 28:-0.61772045 29:-0.28412803 30:-0.59706294 31:-0.45133124 32:-0.45099513 33:1.0 34:1.0 35:-0.73684211 36:-0.92105263 37:0.49725708 38:0.5056256 39:-0.07192124 40:-0.1113829 
-1.0 1:0.09090908 2:-0.21212119 3:0.34693877 4:0.34693877 5:-0.64278341 6:-0.63068265 7:1.0 8:1.0 9:-0.69977351 10:-0.55372805 11:-0.16614645 12:-0.2114257 14:-0.33333333 15:-0.5 16:-0.5 17:-0.24999999 18:-0.24999999 19:-0.24999999 20:-0.24999999 21:-1.0 22:-1.0 23:0.66666667 24:0.66666667 25:0.3298693 26:0.59143636 27:-0.56593745 28:-0.73872909 29:-0.19535816 30:0.20656539 31:-0.04910634 32:-0.11111341 33:1.0 34:1.0 35:-0.89473684 36:-0.92105263 37:0.57104322 38:0.58066812 39:0.04446504 40:0.00184169 
-1.0 1:0.33333335 2:0.33333335 3:-0.71428571 4:-0.71428571 5:-0.31175599 6:-0.31175599 7:1.0 8:1.0 9:0.39565824 10:0.39565824 11:0.24198158 12:0.52769134 13:0.33333333 14:0.33333333 15:-0.2 16:-0.2 17:0.20000001 18:0.20000001 19:0.20000001 20:0.20000001 21:-1.0 22:-1.0 23:-0.33333333 24:-0.33333333 25:-0.02300994 26:0.11943222 27:0.34379073 28:0.34379073 29:-1.0 30:-0.86258146 31:0.25886362 32:0.34343351 33:-0.97551403 34:-0.97551403 35:-0.5 36:-0.65789474 37:-0.9783358 38:-0.97831277 39:-0.97005644 40:-0.97009456 
-1.0 1:1.0 2:1.0 3:-0.37142857 4:-0.37142857 5:-0.65830799 6:-0.65830799 7:1.0 8:1.0 9:-0.39062591 10:-1.0 11:0.59323201 12:1.0 13:0.66666667 14:0.66666667 15:1.0 16:1.0 17:3.0E-8 18:3.0E-8 19:0.39999999 20:0.39999999 21:1.0 22:1.0 25:0.61418805 26:0.75128862 27:-0.62546014 28:-0.62546014 29:0.41589931 30:0.57459736 31:0.01091533 32:0.07621885 33:-0.8283837 34:-0.8283837 35:-0.97368421 36:-0.94736842 37:-0.85277623 38:-0.85278696 39:-0.85652336 40:-0.85650219 
-1.0 1:0.00432903 2:0.00432903 3:-0.14285714 4:-0.14285714 5:-0.07520981 6:-0.1692515 7:1.0 8:1.0 9:-0.61496915 10:-0.26200093 11:0.39084872 12:0.12663848 13:-0.33333333 14:-0.66666667 15:-0.42857144 16:-0.42857144 17:-0.14285715 18:-0.14285715 19:-0.14285715 20:-0.14285715 21:-1.0 22:-1.0 23:0.33333333 24:0.33333333 25:0.71777768 26:0.91719669 27:-0.60813468 28:-0.60813468 29:0.40691651 30:0.32696583 31:0.02916531 32:-0.03661126 33:-0.92465122 34:-0.92465122 35:-0.94736842 36:-0.94736842 37:-0.93732233 38:-0.93723998 39:-0.95763918 40:-0.95793416 
-1.0 1:-0.04377101 2:-0.04377101 3:0.71428571 4:0.71428571 5:-0.13646753 6:-0.05067628 7:1.0 8:1.0 9:-0.23830132 10:-0.32672609 11:0.27667025 12:-0.25236025 13:0.33333333 14:0.33333333 15:-0.55555556 16:-0.55555556 17:-0.33333333 18:-0.33333333 19:-0.33333333 20:-0.33333333 21:-1.0 22:-1.0 23:1.0 24:1.0 25:0.11762809 26:0.55862596 27:-0.76279755 28:-0.85239391 29:-0.13520847 30:0.30001165 31:-0.3125693 32:-0.34114678 33:1.0 34:1.0 35:-1.0 36:-0.71052632 37:0.49616931 38:0.49287579 39:-0.06187229 40:-0.03417148 
-1.0 1:-0.03030303 2:-0.03030303 3:1.0 4:1.0 5:-0.94031489 6:-0.94031489 7:1.0 8:1.0 9:-0.81213746 10:-0.13177049 11:0.45115396 12:0.45115396 13:-0.33333333 14:-0.33333333 15:-0.2 16:-0.2 17:0.20000001 18:0.20000001 19:0.20000001 20:0.20000001 21:-1.0 22:-1.0 23:-0.33333333 24:-0.33333333 25:-0.6200732 26:-0.82352412 27:-0.6865619 28:-0.89214935 29:-0.67331047 30:-0.70599498 31:-0.69935789 32:-0.71943845 33:1.0 34:1.0 35:-0.28947368 36:-0.60526316 37:0.87967025 38:0.87969866 39:0.60319703 40:0.60312079 
-1.0 1:0.21212124 2:0.21212124 3:1.0 4:1.0 5:-0.66622614 6:-0.66622614 7:1.0 8:1.0 9:-0.70271691 10:-0.85241768 11:0.36530396 12:0.36530396 13:-0.33333333 14:-0.66666667 15:-0.2 16:-0.2 17:0.20000001 18:0.20000001 19:0.20000001 20:0.20000001 21:-1.0 22:-1.0 23:-0.33333333 24:-0.33333333 25:-0.16888992 26:-0.19829661 27:-0.85927769 28:-0.43896823 29:-0.07051339 30:-0.493425 31:-0.42357525 32:-0.38714082 33:-0.87909556 34:-0.87909556 35:-0.02631579 36:-0.02631579 37:-0.88909189 38:-0.88766157 39:-0.89575982 40:-0.90056299 
-1.0 1:0.45454546 2:0.45454546 3:1.0 4:1.0 5:-0.5974546 6:-0.5974546 7:1.0 8:1.0 9:-0.28334167 10:0.36054073 11:0.95101293 12:0.95101293 13:0.33333333 15:-0.2 16:-0.2 17:0.20000001 18:0.20000001 19:0.20000001 20:0.20000001 21:-1.0 22:-1.0 23:-0.33333333 24:-0.33333333 25:-0.45545338 26:-0.28765528 27:-0.51289447 28:-0.62784167 29:-0.71873302 30:-0.44650876 31:-0.48548406 32:-0.48277224 33:-0.72355166 34:-0.72355166 35:-0.76315789 36:-0.84210526 37:-0.74081564 38:-0.74019052 39:-0.77587123 40:-0.77756759 
-1.0 1:0.00432903 2:0.00432903 3:-0.14285714 4:-0.14285714 5:-0.07520981 6:-0.07520981 7:1.0 8:1.0 9:0.4867218 10:-0.10298359 11:0.39084872 12:0.39084872 13:-0.33333333 14:-0.33333333 15:-0.42857144 16:-0.42857144 17:-0.14285715 18:-0.14285715 19:-0.14285715 20:-0.14285715 21:-1.0 22:-1.0 23:0.33333333 24:0.33333333 25:0.91719669 26:0.37530028 27:-0.23458001 28:-0.37348759 29:0.4072783 30:-0.12543756 31:0.55378136 32:0.53397221 33:-0.92465122 34:-0.92465122 35:-0.94736842 36:-0.94736842 37:-0.9373145 38:-0.93730897 39:-0.95766641 40:-0.95766187 
-1.0 1:0.33333335 2:0.33333335 3:0.42857143 4:0.42857143 5:-0.50529376 6:-0.42388503 7:1.0 8:1.0 9:0.13677704 10:-0.15610537 11:0.77577289 12:0.77577289 15:-0.2 16:-0.2 17:0.20000001 18:0.20000001 19:0.20000001 20:0.20000001 21:-1.0 22:-1.0 23:-0.33333333 24:-0.33333333 25:-0.87540932 26:-0.2846893 27:-0.91226987 28:-0.89879274 29:-0.73833035 30:0.0878121 31:-1.0 32:-0.53046791 33:-0.60141577 34:-0.60141577 35:-0.65789474 36:-0.84210526 37:-0.64347037 38:-0.64344629 39:-0.55875661 40:-0.55880108 
-1.0 1:-0.03030303 2:-0.03030303 3:1.0 4:1.0 5:-0.81458117 6:-0.81458117 7:1.0 8:1.0 9:-0.36115381 10:-0.36115381 11:0.03604137 12:0.03604137 13:-0.66666667 14:-0.66666667 15:-0.2 16:-0.2 17:0.20000001 18:0.20000001 19:0.20000001 20:0.20000001 21:-1.0 22:-1.0 23:-0.33333333 24:-0.33333333 25:-0.96762738 26:0.88803308 27:-0.79753321 28:-0.51579405 29:-0.93741162 30:0.67980457 31:-0.88078256 32:0.02141091 33:1.0 34:1.0 35:-0.89473684 36:-0.89473684 37:0.88101857 38:0.88113889 39:0.59928969 40:0.59896567 
-1.0 1:0.09090908 2:0.09090908 3:-0.14285714 4:-0.14285714 5:-0.84419433 6:-0.84419433 7:1.0 8:1.0 9:-0.75757246 10:-0.75757246 11:-0.34541628 12:-0.34541628 14:-0.33333333 15:-0.2 16:-0.2 17:0.20000001 18:0.20000001 19:0.20000001 20:0.20000001 21:-1.0 22:-1.0 23:-0.33333333 24:-0.33333333 25:0.13020166 26:-0.94721446 27:-0.60168653 28:-0.89179609 29:0.19804926 30:-0.81439316 31:-0.08186267 32:-0.96561805 33:-0.78828614 34:-0.78828614 35:-1.0 36:1.0 37:-0.80443526 38:-0.80472383 39:-0.73256012 40:-0.73207727 
-1.0 1:0.00432903 2:0.00432903 3:0.61904761 4:0.61904761 5:-0.01580682 6:-0.01580682 7:1.0 8:1.0 9:-0.19415542 10:-0.04548002 11:-0.07903619 12:-0.07903619 13:0.33333333 14:0.66666667 15:-0.42857144 16:-0.42857144 17:-0.14285715 18:-0.14285715 19:-0.14285715 20:-0.14285715 21:-1.0 22:-1.0 23:0.33333333 24:0.33333333 25:-1.0 26:0.70392913 27:-1.0 28:-1.0 29:-0.84888674 30:0.50122287 31:-0.93375346 32:-0.13554581 33:-0.82294149 34:-0.82294149 35:-0.60526316 36:-0.94736842 37:-0.85302767 38:-0.85291021 39:-0.89716846 40:-0.8972093 
-1.0 1:-0.11111108 2:-0.17845115 3:0.14285714 4:0.14285714 5:-0.41812551 6:-0.44458464 7:1.0 8:1.0 9:-0.78125466 10:-0.51405634 11:-0.46493816 12:-0.44129824 15:-0.55555556 16:-0.11111112 17:-0.33333333 18:-0.33333333 19:-0.33333333 20:-0.11111109 21:-1.0 22:-0.21432578 23:1.0 24:1.0 25:-0.55244252 26:0.74937458 27:-0.95104617 28:-0.56098245 29:-0.44819809 30:0.009075 31:-0.64248381 32:-0.0764262 33:1.0 34:1.0 35:-0.84210526 36:-0.71052632 37:0.50497316 38:0.50501496 39:-0.10890154 40:-0.10902861 
