svm_type c_svc
kernel_type rbf
gamma 0.025
nr_class 2
total_sv 340
rho 0.0
label 0 1
nr_sv 170 170
SV
0.18106184821366453 1:-0.59663869 2:-0.59663869 3:-0.25 4:-0.25 5:1.0 6:1.0 7:1.0 8:-1.0 9:-0.23469045 10:1.0 11:-1.0 12:-1.0 13:-1.0 14:-1.0 15:-1.0 16:-1.0 17:-1.0 18:-1.0 19:-1.0 20:-1.0 21:-1.0 22:-1.0 23:-0.33333333 24:-1.0 25:-0.13067373 26:-0.4994355 27:-0.79158111 28:-0.41856485 29:-0.08762264 30:-0.96227456 31:-0.42323998 32:-0.4504961 33:-0.99922143 34:-0.99989672 35:-0.88461538 36:-0.71794872 37:-0.99932553 38:-0.99957088 39:-0.99909881 40:-0.99866406 
1.0 1:-0.2605042 2:-0.37254903 3:1.0 4:1.0 5:-0.30981617 6:-0.30981617 8:-1.0 9:-0.43345373 10:-0.30787041 11:0.18851383 12:0.16072293 13:-1.0 14:-1.0 15:-1.0 16:-1.0 17:-1.0 18:-1.0 19:-1.0 20:-1.0 21:-1.0 22:-1.0 23:-0.66666667 24:-1.0 25:-0.01552634 26:0.00442045 27:-0.33132717 28:-0.54720103 29:-0.40306129 30:-0.02456215 31:-0.21522339 32:-0.23955387 33:-0.99992055 34:-0.99924527 35:-0.91025641 36:-0.8974359 37:-0.99960627 38:-0.99917738 39:-0.99918485 40:-0.99886533 
1.0 1:-0.32773109 2:-0.32773109 3:1.0 4:1.0 5:0.18500326 6:0.18500326 8:1.0 9:-0.22337665 10:-0.22337665 11:-0.78101761 12:-0.78101761 13:-0.77777778 14:-0.77777778 17:0.39999998 18:0.39999998 19:0.39999998 20:0.39999998 21:-1.0 22:-1.0 23:-0.33333333 24:-0.33333333 25:-0.6129523 26:-0.6129523 27:-0.82100582 28:-0.84352938 29:-0.65922331 30:-0.63255586 31:-0.6670659 32:-0.67287843 33:-0.8775507 34:-0.8775507 35:-0.5 36:-0.5 37:-0.87804859 38:-0.87804859 39:-0.90539303 40:-0.90539303 
1.0 1:0.24369747 2:0.24369747 3:0.16666667 4:0.16666667 5:0.4460569 6:0.4460569 8:-1.0 9:-0.3556228 10:-0.23469045 11:-0.11761341 12:-0.11761341 13:-0.77777778 14:-0.77777778 15:0.25 16:0.25 17:0.74999997 18:0.74999997 19:0.74999997 20:0.74999997 21:-1.0 22:-1.0 23:-0.66666667 24:-0.66666667 25:-0.35794625 26:-0.35794625 27:-0.59132122 28:-0.7425905 29:-0.59863236 30:-0.40323117 31:-0.46828762 32:-0.49756553 33:-1.0 34:-1.0 35:-0.87179487 36:-0.87179487 37:-0.99989733 38:-0.99989733 39:-0.99971319 40:-0.99971319 
1.0 1:-0.2605042 2:-0.2605042 3:-0.0 4:-0.0 5:0.1824564 6:0.1824564 8:1.0 9:0.00737305 10:0.00737305 11:0.27737013 12:0.27737013 13:-0.33333333 14:-0.11111111 15:-0.16666665 16:-0.16666665 17:0.16666667 18:0.16666667 19:0.16666667 20:0.16666667 21:-1.0 22:-1.0 25:0.24375803 26:0.29030054 27:-0.94751557 28:-0.89277083 29:0.67573294 30:0.61115096 31:-0.18450888 32:-0.18739527 33:-0.98425391 34:-0.98425391 35:-0.57692308 36:-0.57692308 37:-0.98601829 38:-0.98582431 39:-0.98761428 40:-0.98781555 
1.0 1:0.07563022 2:0.07563022 3:0.16666667 4:0.16666667 5:0.01763787 6:0.01763787 9:-0.38487104 10:-0.34045875 11:0.16904278 12:0.16904278 13:-0.77777778 14:-0.77777778 15:0.25 16:0.25 17:0.74999997 18:0.74999997 19:0.74999997 20:0.74999997 21:-1.0 22:-1.0 23:-0.66666667 24:-0.66666667 25:0.0651675 26:0.2005639 27:-0.34510154 28:-0.34510154 29:-0.35077855 30:-0.15135208 31:-0.13554042 32:-0.09951971 33:-0.99997617 34:-0.99997617 35:-0.73076923 36:-0.94871795 37:-1.0 38:-0.99992234 39:-0.99987169 40:-1.0 
1.0 1:-0.05882355 2:-0.05882355 3:0.375 4:0.375 5:-0.70931012 6:-0.70931012 7:1.0 8:1.0 9:-0.39936034 10:-0.26939513 11:-0.17732112 12:-0.17732112 13:-1.0 14:-0.77777778 15:-1.0 17:-1.0 18:0.39999998 19:-1.0 20:0.39999998 21:-1.0 22:-1.0 23:-0.33333333 24:-0.33333333 25:0.40869415 26:0.38899056 27:0.24593992 28:0.22127479 29:-0.66643804 30:-0.63075792 31:0.37323034 32:0.35798373 33:-0.99903077 34:-0.88991241 35:-0.80769231 36:-0.79487179 37:-0.99923999 38:-0.8935384 39:-0.998495 40:-0.87286561 
0.749677294861167 1:0.17166867 2:0.26770711 3:0.16666667 4:0.16666667 5:-0.50672325 6:-0.53612803 7:1.0 8:1.0 9:-0.86588539 10:-0.36703106 11:0.11610988 12:0.1291939 13:1.0 14:0.11111111 15:-0.2857143 16:-0.2857143 17:-3.0E-8 18:-3.0E-8 19:-3.0E-8 20:-3.0E-8 21:-1.0 22:-1.0 23:0.33333333 24:0.33333333 25:-0.18799648 26:0.04630871 27:-0.85456399 28:-0.91324039 29:-0.22520333 30:0.13998183 31:-0.39771436 32:-0.39259092 33:1.0 34:-0.82831834 35:-0.88461538 36:-0.98717949 37:0.74646983 38:-0.85021334 39:0.19084369 40:-0.89617108 
1.0 1:0.17166867 2:0.17166867 3:-0.25 4:-0.25 5:-0.08939109 6:-0.15457869 7:1.0 8:1.0 9:-0.09175098 10:-0.09175098 11:0.16304689 12:0.16304689 13:-0.33333333 14:-0.11111111 15:-0.2857143 16:-0.2857143 17:-3.0E-8 18:-3.0E-8 19:-3.0E-8 20:-3.0E-8 21:-1.0 22:-1.0 23:0.33333333 24:0.33333333 25:0.14948642 26:0.18333552 27:-0.88771014 28:-0.78649927 29:0.24446768 30:0.23622053 31:-0.1093342 32:-0.11613952 33:-0.84610618 34:-0.96510755 35:-0.75641026 36:-0.94871795 37:-0.86625128 38:-0.96278715 39:-0.89916427 40:-0.96384129 
1.0 1:0.61344536 2:0.61344536 3:1.0 4:1.0 5:-0.86414282 6:-0.55069654 7:1.0 8:1.0 9:-0.50607301 10:-0.58816236 11:0.1439002 12:0.10409039 13:-1.0 14:-1.0 15:-1.0 16:-1.0 17:-1.0 18:-1.0 19:-1.0 20:-1.0 21:-1.0 22:-1.0 23:-0.33333333 24:-0.33333333 25:0.02896368 26:0.16548838 27:-0.70787029 28:-0.77038524 29:0.03744284 30:0.27690747 31:-0.40656225 32:-0.39484423 33:-0.97738982 34:-0.97738982 35:-0.97435897 36:-0.96153846 37:-0.97755446 38:-0.9777069 39:-0.98176333 40:-0.98175729 
1.0 1:0.21008405 2:0.21008405 3:0.375 4:0.375 5:-0.48516946 6:-0.19100659 7:1.0 8:1.0 9:-0.32141888 10:-0.58247317 11:-0.40992925 12:-0.43067126 13:-0.77777778 14:-0.77777778 17:0.39999998 18:0.39999998 19:0.39999998 20:0.39999998 21:-1.0 22:-1.0 23:-0.33333333 24:-0.33333333 25:-0.25339187 26:-0.25339187 27:-0.56986283 28:-0.41671365 29:-0.52971284 30:-0.65070762 31:-0.32849392 32:-0.33879134 33:-0.95479553 34:-0.95479553 35:-0.3974359 36:-0.42307692 37:-0.95610618 38:-0.95625329 39:-0.96215148 40:-0.96182542 
1.0 1:0.07563022 2:0.07563022 3:0.58333332 4:0.58333332 5:-0.0742745 6:-0.48697054 7:1.0 8:1.0 9:-0.70654356 10:-0.34507674 11:-0.03560847 12:-0.0449611 13:-0.77777778 14:-0.77777778 15:-0.2857143 16:-0.2857143 17:-3.0E-8 18:-3.0E-8 19:-3.0E-8 20:-3.0E-8 21:-1.0 22:-1.0 23:0.33333333 24:0.33333333 25:-0.03409058 26:0.2005639 27:-0.60632907 28:-0.89863077 29:-0.25294624 30:0.26655093 31:-0.26218139 32:-0.22790236 33:-0.45050746 34:-0.45050746 35:-0.92307692 36:-0.97435897 37:-0.51293085 38:-0.51305365 39:-0.70065204 40:-0.7004062 
1.0 1:-0.14845937 2:-0.14845937 3:0.5 4:0.5 5:-0.63005411 6:-0.45965672 7:1.0 8:1.0 9:-0.63207845 10:-0.79156685 11:-0.18908483 12:-0.18552088 13:-0.55555556 14:-0.77777778 15:-0.16666665 16:-0.16666665 17:0.16666667 18:0.16666667 19:0.16666667 20:0.16666667 21:-1.0 22:-1.0 25:0.08539242 26:0.3698094 27:-0.7152879 28:-0.79756784 29:0.08048748 30:0.49347475 31:-0.41156189 32:-0.38952836 33:1.0 34:1.0 35:-0.91025641 36:-0.87179487 37:0.87423356 38:0.87827436 39:0.28556617 40:0.27172879 
1.0 1:9.3373E-4 2:9.3373E-4 3:0.0625 4:0.0625 5:-0.4333947 6:0.44401033 7:1.0 8:1.0 9:-0.44732247 10:-0.27381275 11:-0.05939485 12:-0.04438037 13:0.33333333 14:0.33333333 15:-0.44444445 16:-0.44444445 17:-0.22222224 18:-0.22222224 19:-0.22222224 20:-0.22222224 21:-1.0 22:-1.0 23:1.0 24:1.0 25:-0.34051301 26:-0.16439053 27:-0.72666037 28:-0.71571747 29:-0.42791784 30:-0.28520417 31:-0.53795848 32:-0.52281088 33:1.0 34:1.0 35:-0.96153846 36:-0.87179487 37:0.60073367 38:0.60066799 39:-0.1542279 40:-0.15400315 
1.0 1:0.52380954 2:0.52380954 3:1.0 4:-0.5 5:-0.33164644 6:-0.33164644 7:1.0 8:1.0 9:-0.22676375 10:-0.21869135 11:0.13349456 12:0.13349456 13:-0.11111111 14:-0.11111111 15:-0.16666665 16:-0.16666665 17:0.16666667 18:0.16666667 19:0.16666667 20:0.16666667 21:-1.0 22:-1.0 25:0.41332967 26:0.41332967 27:-1.0 28:-1.0 29:0.74519161 30:0.62303623 31:-0.54121195 32:-0.56349653 33:-0.48246837 34:-0.48246837 35:-0.88461538 36:-0.87179487 37:-0.51856011 38:-0.51856202 39:-0.65716239 40:-0.65715736 
1.0 1:-0.21248498 2:-0.21248498 3:1.0 4:-0.66666668 5:-0.19854245 6:-0.22734628 7:1.0 8:1.0 9:-0.32408566 10:-0.31053427 11:-0.24893615 12:-0.24893615 13:0.11111111 14:-0.11111111 15:-0.2857143 16:0.42857145 17:-3.0E-8 18:-3.0E-8 19:-3.0E-8 20:0.24999999 21:-1.0 22:0.42857149 23:0.33333333 24:0.33333333 25:0.14747482 26:0.0426605 27:-0.93166503 28:-0.93943403 29:0.15068095 30:0.34898943 31:-0.62817759 32:-0.60701563 33:1.0 34:1.0 35:-0.8974359 36:-0.94871795 37:0.77117269 38:0.77305904 39:0.09378934 40:0.08842403 
1.0 1:9.3373E-4 2:9.3373E-4 3:0.0625 4:-0.5625 5:-0.45110652 6:-0.42632008 7:1.0 8:1.0 9:-0.58581656 10:0.05413112 11:0.05008757 12:0.04955313 13:-0.33333333 14:-0.33333333 15:-0.44444445 16:-0.44444445 17:-0.22222224 18:-0.22222224 19:-0.22222224 20:-0.22222224 21:-1.0 22:-1.0 23:1.0 24:1.0 25:-0.02815931 26:-0.06539332 27:-0.75533442 28:-0.86099626 29:-0.19961198 30:-0.24242763 31:-0.37241714 32:-0.34672296 33:1.0 34:1.0 35:-0.96153846 36:-0.94871795 37:0.60089382 38:0.60083069 39:-0.15497932 40:-0.15490887 
1.0 1:1.0 2:1.0 3:0.28571427 4:-0.78571428 5:-0.45290559 6:-0.45290559 7:1.0 8:1.0 9:-0.16968019 10:-0.43959264 11:0.26187632 12:0.26187632 13:0.11111111 14:0.33333333 15:0.25 16:0.25 17:-0.12500001 18:-0.12500001 19:0.04999998 20:0.02083329 21:0.15470054 22:0.07582872 23:0.66666667 24:0.66666667 25:-0.04766284 26:-0.5378023 27:-0.85593222 28:-0.78615242 29:-0.14439689 30:-0.7102228 31:-0.68754651 32:-0.69984119 33:-0.82583169 34:-0.82583169 35:-0.97435897 36:-0.97435897 37:-0.81779413 38:-0.81781626 39:-0.81430101 40:-0.81428215 
1.0 1:0.07563022 2:0.47899159 3:0.375 4:0.375 5:-0.57905617 6:-0.56632184 7:1.0 8:1.0 9:-0.22391719 10:0.28235804 11:0.52574375 12:0.53889448 13:-0.33333333 14:-0.33333333 17:0.39999998 18:0.39999998 19:0.39999998 20:0.39999998 21:-1.0 22:-1.0 23:-0.33333333 24:-0.33333333 25:-0.39762669 26:-0.44487931 27:-0.89607624 28:-0.89243731 29:-0.14130537 30:-0.2815125 31:-0.64060232 32:-0.65903534 33:-0.60135852 34:-0.60135852 35:-0.57692308 36:-0.6025641 37:-0.62126152 38:-0.6208675 39:-0.57900783 40:-0.57978071 
1.0 1:0.07563022 2:0.52380954 3:0.5 4:0.5 5:-0.50349919 6:-0.57164712 7:1.0 8:1.0 9:-0.33655464 10:-0.30920234 11:0.33176681 12:0.35274064 13:-0.11111111 14:-0.11111111 15:-0.16666665 16:-0.16666665 17:0.16666667 18:0.16666667 19:0.16666667 20:0.16666667 21:-1.0 22:-1.0 25:-0.38437463 26:-0.38437463 27:-0.89561647 28:-0.75297821 29:-0.32374585 30:-0.50220349 31:-0.66640197 32:-0.65036999 33:1.0 34:1.0 35:-0.87179487 36:-0.92307692 37:0.87026068 38:0.87393258 39:0.29403465 40:0.28333709 
1.0 1:-0.37254903 2:0.29971988 3:1.0 4:1.0 5:-0.49118934 6:-0.58499885 7:1.0 8:1.0 9:-0.65011599 10:-0.62471953 11:0.13817329 12:0.10310621 13:0.11111111 14:0.11111111 15:-0.16666665 16:-0.16666665 17:0.16666667 18:0.16666667 19:0.16666667 20:0.16666667 21:-1.0 22:-1.0 25:-0.16891205 26:-0.15672371 27:-0.85229901 28:-0.87175891 29:-0.15400206 30:-0.00636957 31:-0.62222574 32:-0.61770059 33:1.0 34:1.0 35:-0.70512821 36:-0.94871795 37:0.87922912 38:0.87890895 39:0.26829711 40:0.26919277 
1.0 1:0.59850609 2:0.22502333 3:-0.5625 4:-0.5625 5:-0.25751449 6:-0.23363762 7:1.0 8:1.0 9:-0.08427368 10:-0.49435066 11:0.10749389 12:0.05443668 13:-0.33333333 14:-0.33333333 15:-0.44444445 16:-0.44444445 17:-0.22222224 18:-0.22222224 19:-0.22222224 20:-0.22222224 21:-1.0 22:-1.0 23:1.0 24:1.0 25:0.50798255 26:0.30958534 27:-0.9012366 28:-0.58193844 29:0.63444395 30:-0.0534418 31:-0.03519696 32:0.01656311 33:-0.85118274 34:-0.86362391 35:-0.78205128 36:-0.67948718 37:-0.87781501 38:-0.88726988 39:-0.90923932 40:-0.91364045 
1.0 1:0.21008405 2:0.21008405 3:-0.25 4:-0.25 5:-0.11880132 6:-0.22931705 7:1.0 8:1.0 9:-0.43959264 10:-0.80527035 11:0.36623619 12:0.07757217 13:-0.55555556 14:-0.33333333 17:0.39999998 18:0.39999998 19:0.39999998 20:0.39999998 21:-1.0 22:-1.0 23:-0.33333333 24:-0.33333333 25:0.17106848 26:0.17106848 27:-0.42328296 28:-0.45646913 29:-0.08828176 30:-0.10348922 31:-0.03766349 32:-0.0430996 33:-0.84610618 34:-0.84610618 35:-0.83333333 36:-0.98717949 37:-0.84638342 38:-0.84703102 39:-0.88243002 40:-0.88055216 
1.0 1:-1.0 2:-1.0 3:-0.875 4:-0.875 5:-0.337104 6:-0.337104 7:1.0 8:1.0 9:-0.26625159 10:-0.26625159 11:-0.41170682 12:-0.58876893 13:-0.55555556 14:-0.55555556 17:0.39999998 18:0.39999998 19:0.39999998 20:0.39999998 21:-1.0 22:-1.0 23:-0.33333333 24:-0.33333333 25:0.01032308 26:0.01032308 27:-0.49827517 28:-0.49827517 29:-0.24246232 30:-0.24246232 31:-0.22386196 32:-0.22386196 33:-0.97835111 34:-0.97835111 35:-0.94871795 36:-0.78205128 37:-0.97903508 38:-0.97908916 39:-0.97253706 40:-0.97245857 
1.0 1:-0.46218486 2:-0.46218486 3:1.0 4:1.0 5:-0.42633523 6:-0.36302746 7:1.0 8:1.0 9:-0.49211284 10:-0.75250957 11:-0.01455331 12:-0.54850413 13:-0.33333333 14:-0.33333333 17:0.39999998 18:0.39999998 19:0.39999998 20:0.39999998 21:-1.0 22:-1.0 23:-0.33333333 24:-0.33333333 25:-0.03710209 26:0.0651675 27:-0.91045353 28:-0.91045353 29:0.04301434 30:0.16127258 31:-0.5133561 32:-0.50230104 33:1.0 34:1.0 35:-0.91025641 36:-0.94871795 37:0.99298962 38:0.99998412 39:0.53744887 40:0.52033681 
1.0 1:-0.21248498 2:-0.21248498 3:-0.25 4:-0.25 5:-0.59209369 6:-0.58568322 7:1.0 8:1.0 9:-0.50115138 10:-0.05012013 11:-0.2114222 12:0.06541672 13:0.11111111 14:-0.11111111 15:-0.2857143 16:-0.2857143 17:-3.0E-8 18:-3.0E-8 19:-3.0E-8 20:-3.0E-8 21:-1.0 22:-1.0 23:0.33333333 24:0.33333333 25:0.07483866 26:0.07483866 27:-0.81219076 28:-0.75453281 29:-0.13185787 30:-0.1672624 31:-0.30272514 32:-0.26601878 33:1.0 34:1.0 35:-0.96153846 36:-0.97435897 37:0.77204972 38:0.7731928 39:0.11652291 40:0.08743205 
1.0 1:0.47899159 2:0.47899159 3:-0.25 4:-0.25 5:-0.37530698 6:-0.42406125 7:1.0 8:1.0 9:-0.92650039 10:-0.92650039 11:0.64550062 12:0.65895407 13:-0.55555556 14:-0.33333333 17:0.39999998 18:0.39999998 19:0.39999998 20:0.39999998 21:-1.0 22:-1.0 23:-0.33333333 24:-0.33333333 25:-0.09428332 26:-0.09428332 27:-0.47639111 28:-0.50015498 29:-0.39889089 30:-0.38284654 31:-0.32508802 32:-0.33140117 33:1.0 34:1.0 35:-0.85897436 36:-0.8974359 37:0.89677719 38:0.89678762 39:1.0 40:0.99998189 
1.0 1:-0.32773109 2:-0.32773109 3:0.375 4:0.375 5:-0.65609883 6:-0.65609883 7:1.0 8:1.0 9:-0.15262066 10:-0.66526053 11:-0.43384943 12:-0.43384943 13:0.11111111 14:-0.11111111 17:0.39999998 18:0.39999998 19:0.39999998 20:0.39999998 21:-1.0 22:-1.0 23:-0.33333333 24:-0.33333333 25:-0.19157697 26:-0.28535964 27:-0.74079324 28:-0.405897 29:-0.27025813 30:-0.74141591 31:-0.34203908 32:-0.35298839 33:1.0 34:1.0 35:-0.96153846 36:-0.65384615 37:0.99978764 38:0.98784849 39:0.52127272 40:0.55082334 
1.0 1:-0.86554623 2:-0.86554623 3:-0.25 4:-0.25 5:-0.16137035 6:-0.16137035 7:1.0 8:1.0 9:-0.17741304 10:-0.80608082 11:-0.49166411 12:-0.49166411 13:-0.55555556 14:-0.55555556 17:0.39999998 18:0.39999998 19:0.39999998 20:0.39999998 21:-1.0 22:-1.0 23:-0.33333333 24:-0.33333333 25:0.02700986 26:0.02700986 27:-0.11293215 28:-0.0221706 29:-0.65078072 30:-0.78114094 31:0.01695627 32:0.07148639 33:-0.98979126 34:-0.98979126 35:-0.92307692 36:-0.42307692 37:-0.9903148 38:-0.99043532 39:-0.99074203 40:-0.99049447 
1.0 1:0.07563022 2:-0.02040816 3:0.64285715 4:0.58333332 5:-0.33358966 6:-0.30678419 7:1.0 8:1.0 9:-0.42833813 10:-0.56282902 11:-0.48419613 12:-0.53563356 13:-0.55555556 14:-0.77777778 15:0.25 16:0.42857145 17:-0.12500001 18:1.0 19:0.31249998 20:1.0 21:0.44337568 22:-1.0 23:0.66666667 24:0.33333333 25:-0.26486123 26:-0.51502995 27:-0.96344594 28:-0.85716069 29:-0.25168526 30:-0.56672901 31:-0.64769788 32:-0.63725998 33:-0.78822221 34:-0.78822221 35:-0.82051282 36:-0.82051282 37:-0.81323303 38:-0.8196391 39:-0.83063039 40:-0.84937124 
1.0 1:-0.02040816 2:-0.02040816 3:0.16666667 4:0.16666667 5:-0.16623018 6:-0.16623018 7:1.0 8:1.0 9:-0.78892827 10:-0.27128042 11:-0.27082953 12:-0.27082953 13:-0.11111111 14:-0.11111111 15:-0.2857143 16:-0.2857143 17:-3.0E-8 18:-3.0E-8 19:-3.0E-8 20:-3.0E-8 21:-1.0 22:-1.0 23:0.33333333 24:0.33333333 25:-0.40434274 26:0.32945085 27:-0.67771993 28:-0.94972908 29:-0.65689768 30:0.28807908 31:-0.48128264 32:-0.47239671 33:1.0 34:1.0 35:-0.84615385 36:-0.78205128 37:0.74977239 38:0.75994597 39:0.18125169 40:0.13385235 
1.0 1:0.07563022 2:0.07563022 3:0.375 4:0.375 5:-0.40259482 6:-0.40259482 7:1.0 8:1.0 9:-0.02193733 10:-0.02193733 11:0.08069411 12:0.08069411 13:-0.55555556 14:-0.55555556 17:0.39999998 18:0.39999998 19:0.39999998 20:0.39999998 21:-1.0 22:-1.0 23:-0.33333333 24:-0.33333333 25:0.20510463 26:-0.51687192 27:-0.41906802 28:-0.67196987 29:-0.03091199 30:-0.71053717 31:-0.10733675 32:-0.54650553 33:-0.9359749 34:-0.9359749 35:-1.0 36:-0.93589744 37:-0.93603722 38:-0.93604987 39:-0.95127076 40:-0.95124057 
1.0 1:0.07563022 2:0.07563022 3:-0.25 4:-0.25 5:1.0 6:1.0 7:1.0 8:1.0 9:-0.31504622 10:-0.1845319 11:0.00539476 12:0.00539476 13:-0.11111111 14:0.11111111 17:0.39999998 18:0.39999998 19:0.39999998 20:0.39999998 21:-1.0 22:-1.0 23:-0.33333333 24:-0.33333333 25:0.46702292 26:-0.64547556 27:-0.33622623 28:-0.66171328 29:0.0134696 30:-0.88237901 31:0.19209739 32:-0.65935538 33:-0.99847465 34:-0.99924527 35:-0.75641026 36:-0.42307692 37:-0.99874128 38:-0.99941511 39:-0.99700358 40:-0.99693112 
1.0 1:0.55582231 2:0.55582231 3:-0.25 4:-0.25 5:-0.62157874 6:-0.62157874 7:1.0 8:1.0 9:-0.40151974 10:-0.40151974 11:0.17536981 12:0.17536981 13:-0.33333333 14:-0.33333333 15:-0.2857143 16:-0.2857143 17:-3.0E-8 18:-3.0E-8 19:-3.0E-8 20:-3.0E-8 21:-1.0 22:-1.0 23:0.33333333 24:0.33333333 25:-0.32082957 26:0.10891094 27:-0.93473869 28:-0.67771993 29:-0.26744631 30:0.04648554 31:-0.7325915 32:-0.14302246 33:1.0 34:1.0 35:-0.87179487 36:-0.98717949 37:0.73860833 38:0.73864626 39:0.22506265 40:0.22450628 
1.0 1:-0.14845937 2:-0.07376282 3:-0.5625 4:-0.5625 5:-0.53761219 6:-0.58239594 7:1.0 8:1.0 9:-0.02460978 10:-0.68138704 11:0.07392466 12:0.11590059 13:-0.11111111 14:0.11111111 15:-0.44444445 16:-0.44444445 17:-0.22222224 18:-0.22222224 19:-0.22222224 20:-0.22222224 21:-1.0 22:-1.0 23:1.0 24:1.0 25:0.43327646 26:-0.02641833 27:-0.97431687 28:-0.97431687 29:0.21017148 30:0.1023462 31:-0.01852794 32:-0.54996615 33:1.0 34:1.0 35:-0.97435897 36:-0.87179487 37:0.58748633 38:0.5851178 39:-0.08308193 40:-0.07473254 
1.0 1:-0.59663869 2:-0.59663869 3:-0.25 4:-0.25 5:1.0 6:1.0 7:1.0 8:-1.0 9:-0.23469045 10:1.0 11:-1.0 12:-1.0 13:-1.0 14:-1.0 15:-1.0 16:-1.0 17:-1.0 18:-1.0 19:-1.0 20:-1.0 21:-1.0 22:-1.0 23:-0.33333333 24:-1.0 25:-0.13067373 26:-0.4994355 27:-0.79158111 28:-0.41856485 29:-0.08762264 30:-0.96227456 31:-0.42323998 32:-0.4504961 33:-0.99922143 34:-0.99989672 35:-0.88461538 36:-0.71794872 37:-0.99932553 38:-0.99957088 39:-0.99909881 40:-0.99866406 
1.0 1:-0.2605042 2:-0.37254903 3:1.0 4:1.0 5:-0.30981617 6:-0.30981617 8:-1.0 9:-0.43345373 10:-0.30787041 11:0.18851383 12:0.16072293 13:-1.0 14:-1.0 15:-1.0 16:-1.0 17:-1.0 18:-1.0 19:-1.0 20:-1.0 21:-1.0 22:-1.0 23:-0.66666667 24:-1.0 25:-0.01552634 26:0.00442045 27:-0.33132717 28:-0.54720103 29:-0.40306129 30:-0.02456215 31:-0.21522339 32:-0.23955387 33:-0.99992055 34:-0.99924527 35:-0.91025641 36:-0.8974359 37:-0.99960627 38:-0.99917738 39:-0.99918485 40:-0.99886533 
1.0 1:0.24369747 2:0.24369747 3:0.16666667 4:0.16666667 5:0.4460569 6:0.4460569 8:-1.0 9:-0.3556228 10:-0.23469045 11:-0.11761341 12:-0.11761341 13:-0.77777778 14:-0.77777778 15:0.25 16:0.25 17:0.74999997 18:0.74999997 19:0.74999997 20:0.74999997 21:-1.0 22:-1.0 23:-0.66666667 24:-0.66666667 25:-0.35794625 26:-0.35794625 27:-0.59132122 28:-0.7425905 29:-0.59863236 30:-0.40323117 31:-0.46828762 32:-0.49756553 33:-1.0 34:-1.0 35:-0.87179487 36:-0.87179487 37:-0.99989733 38:-0.99989733 39:-0.99971319 40:-0.99971319 
1.0 1:-0.2605042 2:-0.2605042 3:-0.0 4:-0.0 5:0.1824564 6:0.1824564 8:1.0 9:0.00737305 10:0.00737305 11:0.27737013 12:0.27737013 13:-0.33333333 14:-0.11111111 15:-0.16666665 16:-0.16666665 17:0.16666667 18:0.16666667 19:0.16666667 20:0.16666667 21:-1.0 22:-1.0 25:0.24375803 26:0.29030054 27:-0.94751557 28:-0.89277083 29:0.67573294 30:0.61115096 31:-0.18450888 32:-0.18739527 33:-0.98425391 34:-0.98425391 35:-0.57692308 36:-0.57692308 37:-0.98601829 38:-0.98582431 39:-0.98761428 40:-0.98781555 
1.0 1:0.07563022 2:0.07563022 3:0.16666667 4:0.16666667 5:0.01763787 6:0.01763787 9:-0.34045875 10:-0.38487104 11:0.16904278 12:0.16904278 13:-0.77777778 14:-0.77777778 15:0.25 16:0.25 17:0.74999997 18:0.74999997 19:0.74999997 20:0.74999997 21:-1.0 22:-1.0 23:-0.66666667 24:-0.66666667 25:0.2005639 26:0.0651675 27:-0.34510154 28:-0.34510154 29:-0.15135208 30:-0.35077855 31:-0.09951971 32:-0.13554042 33:-0.99997617 34:-0.99997617 35:-0.94871795 36:-0.73076923 37:-0.99992234 38:-1.0 39:-1.0 40:-0.99987169 
1.0 1:0.61344536 2:0.61344536 3:-0.25 4:-0.25 5:-0.31800253 6:-0.31800253 7:1.0 8:1.0 9:-0.86781624 10:-0.60840018 11:0.12581505 12:0.12581505 13:-0.77777778 14:-0.55555556 17:0.39999998 18:0.39999998 19:0.39999998 20:0.39999998 21:-1.0 22:-1.0 23:-0.33333333 24:-0.33333333 25:0.47232938 26:0.24843901 27:-0.54490907 28:-0.39571882 29:0.44161338 30:-0.02246473 31:-0.07694232 32:-0.06181523 33:-0.99753719 34:-0.82366283 35:-0.76923077 36:-0.61538462 37:-0.99774237 38:-0.82457273 39:-0.99665337 40:-0.86302346 
1.0 1:0.17166867 2:0.26770711 3:0.16666667 4:0.16666667 5:-0.50672325 6:-0.53612803 7:1.0 8:1.0 9:-0.86588539 10:-0.36703106 11:0.11610988 12:0.1291939 13:1.0 14:0.11111111 15:-0.2857143 16:-0.2857143 17:-3.0E-8 18:-3.0E-8 19:-3.0E-8 20:-3.0E-8 21:-1.0 22:-1.0 23:0.33333333 24:0.33333333 25:-0.18799648 26:0.04630871 27:-0.85456399 28:-0.91324039 29:-0.22520333 30:0.13998183 31:-0.39771436 32:-0.39259092 33:1.0 34:-0.82831834 35:-0.88461538 36:-0.98717949 37:0.74646983 38:-0.85021334 39:0.19084369 40:-0.89617108 
1.0 1:0.17166867 2:0.17166867 3:-0.25 4:-0.25 5:-0.08939109 6:-0.15457869 7:1.0 8:1.0 9:-0.09175098 10:-0.09175098 11:0.16304689 12:0.16304689 13:-0.33333333 14:-0.11111111 15:-0.2857143 16:-0.2857143 17:-3.0E-8 18:-3.0E-8 19:-3.0E-8 20:-3.0E-8 21:-1.0 22:-1.0 23:0.33333333 24:0.33333333 25:0.14948642 26:0.18333552 27:-0.88771014 28:-0.78649927 29:0.24446768 30:0.23622053 31:-0.1093342 32:-0.11613952 33:-0.84610618 34:-0.96510755 35:-0.75641026 36:-0.94871795 37:-0.86625128 38:-0.96278715 39:-0.89916427 40:-0.96384129 
1.0 1:0.61344536 2:0.61344536 3:1.0 4:1.0 5:-0.86414282 6:-0.55069654 7:1.0 8:1.0 9:-0.50607301 10:-0.58816236 11:0.1439002 12:0.10409039 13:-1.0 14:-1.0 15:-1.0 16:-1.0 17:-1.0 18:-1.0 19:-1.0 20:-1.0 21:-1.0 22:-1.0 23:-0.33333333 24:-0.33333333 25:0.02896368 26:0.16548838 27:-0.70787029 28:-0.77038524 29:0.03744284 30:0.27690747 31:-0.40656225 32:-0.39484423 33:-0.97738982 34:-0.97738982 35:-0.97435897 36:-0.96153846 37:-0.97755446 38:-0.9777069 39:-0.98176333 40:-0.98175729 
1.0 1:0.07563022 2:0.07563022 3:0.58333332 4:0.58333332 5:-0.48697054 6:-0.0742745 7:1.0 8:1.0 9:-0.34507674 10:-0.70654356 11:-0.0449611 12:-0.03560847 13:-0.77777778 14:-0.77777778 15:-0.2857143 16:-0.2857143 17:-3.0E-8 18:-3.0E-8 19:-3.0E-8 20:-3.0E-8 21:-1.0 22:-1.0 23:0.33333333 24:0.33333333 25:0.2005639 26:-0.03409058 27:-0.89863077 28:-0.60632907 29:0.26655093 30:-0.25294624 31:-0.22790236 32:-0.26218139 33:-0.45050746 34:-0.45050746 35:-0.97435897 36:-0.92307692 37:-0.51305365 38:-0.51293085 39:-0.7004062 40:-0.70065204 
1.0 1:-0.14845937 2:-0.14845937 3:0.5 4:0.5 5:-0.45965672 6:-0.63005411 7:1.0 8:1.0 9:-0.79156685 10:-0.63207845 11:-0.18552088 12:-0.18908483 13:-0.77777778 14:-0.55555556 15:-0.16666665 16:-0.16666665 17:0.16666667 18:0.16666667 19:0.16666667 20:0.16666667 21:-1.0 22:-1.0 25:0.3698094 26:0.08539242 27:-0.79756784 28:-0.7152879 29:0.49347475 30:0.08048748 31:-0.38952836 32:-0.41156189 33:1.0 34:1.0 35:-0.87179487 36:-0.91025641 37:0.87827436 38:0.87423356 39:0.27172879 40:0.28556617 
1.0 1:9.3373E-4 2:9.3373E-4 3:0.0625 4:0.0625 5:-0.4333947 6:0.44401033 7:1.0 8:1.0 9:-0.44732247 10:-0.27381275 11:-0.05939485 12:-0.04438037 13:0.33333333 14:0.33333333 15:-0.44444445 16:-0.44444445 17:-0.22222224 18:-0.22222224 19:-0.22222224 20:-0.22222224 21:-1.0 22:-1.0 23:1.0 24:1.0 25:-0.34051301 26:-0.16439053 27:-0.72666037 28:-0.71571747 29:-0.42791784 30:-0.28520417 31:-0.53795848 32:-0.52281088 33:1.0 34:1.0 35:-0.96153846 36:-0.87179487 37:0.60073367 38:0.60066799 39:-0.1542279 40:-0.15400315 
1.0 1:-0.21248498 2:-0.21248498 3:0.58333332 4:-0.66666668 5:0.12678922 6:0.12678922 7:1.0 8:1.0 9:-0.34295 10:-0.60841856 11:-0.67217816 12:-0.67217816 13:-0.77777778 14:-0.77777778 15:-0.2857143 16:-0.2857143 17:-3.0E-8 18:-3.0E-8 19:-3.0E-8 20:-3.0E-8 21:-1.0 22:-1.0 23:0.33333333 24:0.33333333 25:-0.19591429 26:-0.20267998 27:-0.78428702 28:-0.59457014 29:-0.20484738 30:-0.41172197 31:-0.3923342 32:-0.41589378 33:-0.86362391 34:-0.86362391 35:-0.91025641 36:-0.91025641 37:-0.88018964 38:-0.87971938 39:-0.92222993 40:-0.92203585 
1.0 1:0.52380954 2:0.52380954 3:1.0 4:-0.5 5:-0.33164644 6:-0.33164644 7:1.0 8:1.0 9:-0.22676375 10:-0.21869135 11:0.13349456 12:0.13349456 13:-0.11111111 14:-0.11111111 15:-0.16666665 16:-0.16666665 17:0.16666667 18:0.16666667 19:0.16666667 20:0.16666667 21:-1.0 22:-1.0 25:0.41332967 26:0.41332967 27:-1.0 28:-1.0 29:0.74519161 30:0.62303623 31:-0.54121195 32:-0.56349653 33:-0.48246837 34:-0.48246837 35:-0.88461538 36:-0.87179487 37:-0.51856011 38:-0.51856202 39:-0.65716239 40:-0.65715736 
1.0 1:-0.21248498 2:-0.21248498 3:-0.66666668 4:1.0 5:-0.22734628 6:-0.19854245 7:1.0 8:1.0 9:-0.31053427 10:-0.32408566 11:-0.24893615 12:-0.24893615 13:-0.11111111 14:0.11111111 15:0.42857145 16:-0.2857143 17:-3.0E-8 18:-3.0E-8 19:0.24999999 20:-3.0E-8 21:0.42857149 22:-1.0 23:0.33333333 24:0.33333333 25:0.0426605 26:0.14747482 27:-0.93943403 28:-0.93166503 29:0.34898943 30:0.15068095 31:-0.60701563 32:-0.62817759 33:1.0 34:1.0 35:-0.94871795 36:-0.8974359 37:0.77305904 38:0.77117269 39:0.08842403 40:0.09378934 
1.0 1:9.3373E-4 2:9.3373E-4 3:0.0625 4:-0.5625 5:-0.45110652 6:-0.42632008 7:1.0 8:1.0 9:-0.58581656 10:0.05413112 11:0.05008757 12:0.04955313 13:-0.33333333 14:-0.33333333 15:-0.44444445 16:-0.44444445 17:-0.22222224 18:-0.22222224 19:-0.22222224 20:-0.22222224 21:-1.0 22:-1.0 23:1.0 24:1.0 25:-0.02815931 26:-0.06539332 27:-0.75533442 28:-0.86099626 29:-0.19961198 30:-0.24242763 31:-0.37241714 32:-0.34672296 33:1.0 34:1.0 35:-0.96153846 36:-0.94871795 37:0.60089382 38:0.60083069 39:-0.15497932 40:-0.15490887 
1.0 1:0.47899159 2:0.07563022 3:0.375 4:0.375 5:-0.56632184 6:-0.57905617 7:1.0 8:1.0 9:0.28235804 10:-0.22391719 11:0.53889448 12:0.52574375 13:-0.33333333 14:-0.33333333 17:0.39999998 18:0.39999998 19:0.39999998 20:0.39999998 21:-1.0 22:-1.0 23:-0.33333333 24:-0.33333333 25:-0.44487931 26:-0.39762669 27:-0.89243731 28:-0.89607624 29:-0.2815125 30:-0.14130537 31:-0.65903534 32:-0.64060232 33:-0.60135852 34:-0.60135852 35:-0.6025641 36:-0.57692308 37:-0.6208675 38:-0.62126152 39:-0.57978071 40:-0.57900783 
1.0 1:-0.37254903 2:0.29971988 3:1.0 4:1.0 5:-0.49118934 6:-0.58499885 7:1.0 8:1.0 9:-0.65011599 10:-0.62471953 11:0.13817329 12:0.10310621 13:0.11111111 14:0.11111111 15:-0.16666665 16:-0.16666665 17:0.16666667 18:0.16666667 19:0.16666667 20:0.16666667 21:-1.0 22:-1.0 25:-0.16891205 26:-0.15672371 27:-0.85229901 28:-0.87175891 29:-0.15400206 30:-0.00636957 31:-0.62222574 32:-0.61770059 33:1.0 34:1.0 35:-0.70512821 36:-0.94871795 37:0.87922912 38:0.87890895 39:0.26829711 40:0.26919277 
1.0 1:0.22502333 2:0.59850609 3:-0.5625 4:-0.5625 5:-0.23363762 6:-0.25751449 7:1.0 8:1.0 9:-0.49435066 10:-0.08427368 11:0.05443668 12:0.10749389 13:-0.33333333 14:-0.33333333 15:-0.44444445 16:-0.44444445 17:-0.22222224 18:-0.22222224 19:-0.22222224 20:-0.22222224 21:-1.0 22:-1.0 23:1.0 24:1.0 25:0.30958534 26:0.50798255 27:-0.58193844 28:-0.9012366 29:-0.0534418 30:0.63444395 31:0.01656311 32:-0.03519696 33:-0.86362391 34:-0.85118274 35:-0.67948718 36:-0.78205128 37:-0.88726988 38:-0.87781501 39:-0.91364045 40:-0.90923932 
1.0 1:0.21008405 2:0.21008405 3:-0.25 4:-0.25 5:-0.22931705 6:-0.11880132 7:1.0 8:1.0 9:-0.80527035 10:-0.43959264 11:0.07757217 12:0.36623619 13:-0.33333333 14:-0.55555556 17:0.39999998 18:0.39999998 19:0.39999998 20:0.39999998 21:-1.0 22:-1.0 23:-0.33333333 24:-0.33333333 25:0.17106848 26:0.17106848 27:-0.45646913 28:-0.42328296 29:-0.10348922 30:-0.08828176 31:-0.0430996 32:-0.03766349 33:-0.84610618 34:-0.84610618 35:-0.98717949 36:-0.83333333 37:-0.84703102 38:-0.84638342 39:-0.88055216 40:-0.88243002 
1.0 1:-1.0 2:-1.0 3:-0.875 4:-0.875 5:-0.337104 6:-0.337104 7:1.0 8:1.0 9:-0.26625159 10:-0.26625159 11:-0.58876893 12:-0.41170682 13:-0.55555556 14:-0.55555556 17:0.39999998 18:0.39999998 19:0.39999998 20:0.39999998 21:-1.0 22:-1.0 23:-0.33333333 24:-0.33333333 25:0.01032308 26:0.01032308 27:-0.49827517 28:-0.49827517 29:-0.24246232 30:-0.24246232 31:-0.22386196 32:-0.22386196 33:-0.97835111 34:-0.97835111 35:-0.78205128 36:-0.94871795 37:-0.97908916 38:-0.97903508 39:-0.97245857 40:-0.97253706 
1.0 1:-0.21248498 2:-0.21248498 3:-0.25 4:-0.25 5:-0.59209369 6:-0.58568322 7:1.0 8:1.0 9:-0.50115138 10:-0.05012013 11:-0.2114222 12:0.06541672 13:0.11111111 14:-0.11111111 15:-0.2857143 16:-0.2857143 17:-3.0E-8 18:-3.0E-8 19:-3.0E-8 20:-3.0E-8 21:-1.0 22:-1.0 23:0.33333333 24:0.33333333 25:0.07483866 26:0.07483866 27:-0.81219076 28:-0.75453281 29:-0.13185787 30:-0.1672624 31:-0.30272514 32:-0.26601878 33:1.0 34:1.0 35:-0.96153846 36:-0.97435897 37:0.77204972 38:0.7731928 39:0.11652291 40:0.08743205 
1.0 1:-0.32773109 2:-0.32773109 3:0.375 4:0.375 5:-0.65609883 6:-0.65609883 7:1.0 8:1.0 9:-0.15262066 10:-0.66526053 11:-0.43384943 12:-0.43384943 13:0.11111111 14:-0.11111111 17:0.39999998 18:0.39999998 19:0.39999998 20:0.39999998 21:-1.0 22:-1.0 23:-0.33333333 24:-0.33333333 25:-0.19157697 26:-0.28535964 27:-0.74079324 28:-0.405897 29:-0.27025813 30:-0.74141591 31:-0.34203908 32:-0.35298839 33:1.0 34:1.0 35:-0.96153846 36:-0.65384615 37:0.99978764 38:0.98784849 39:0.52127272 40:0.55082334 
1.0 1:-0.86554623 2:-0.86554623 3:-0.25 4:-0.25 5:-0.16137035 6:-0.16137035 7:1.0 8:1.0 9:-0.17741304 10:-0.80608082 11:-0.49166411 12:-0.49166411 13:-0.55555556 14:-0.55555556 17:0.39999998 18:0.39999998 19:0.39999998 20:0.39999998 21:-1.0 22:-1.0 23:-0.33333333 24:-0.33333333 25:0.02700986 26:0.02700986 27:-0.11293215 28:-0.0221706 29:-0.65078072 30:-0.78114094 31:0.01695627 32:0.07148639 33:-0.98979126 34:-0.98979126 35:-0.92307692 36:-0.42307692 37:-0.9903148 38:-0.99043532 39:-0.99074203 40:-0.99049447 
1.0 1:-0.02040816 2:-0.02040816 3:0.16666667 4:0.16666667 5:-0.16623018 6:-0.16623018 7:1.0 8:1.0 9:-0.78892827 10:-0.27128042 11:-0.27082953 12:-0.27082953 13:-0.11111111 14:-0.11111111 15:-0.2857143 16:-0.2857143 17:-3.0E-8 18:-3.0E-8 19:-3.0E-8 20:-3.0E-8 21:-1.0 22:-1.0 23:0.33333333 24:0.33333333 25:-0.40434274 26:0.32945085 27:-0.67771993 28:-0.94972908 29:-0.65689768 30:0.28807908 31:-0.48128264 32:-0.47239671 33:1.0 34:1.0 35:-0.84615385 36:-0.78205128 37:0.74977239 38:0.75994597 39:0.18125169 40:0.13385235 
1.0 1:-0.59663869 2:-0.59663869 3:-0.25 4:-0.25 5:1.0 6:1.0 7:1.0 8:-1.0 9:-0.23469045 10:1.0 11:-1.0 12:-1.0 13:-1.0 14:-1.0 15:-1.0 16:-1.0 17:-1.0 18:-1.0 19:-1.0 20:-1.0 21:-1.0 22:-1.0 23:-0.33333333 24:-1.0 25:-0.13067373 26:-0.4994355 27:-0.79158111 28:-0.41856485 29:-0.08762264 30:-0.96227456 31:-0.42323998 32:-0.4504961 33:-0.99922143 34:-0.99989672 35:-0.88461538 36:-0.71794872 37:-0.99932553 38:-0.99957088 39:-0.99909881 40:-0.99866406 
1.0 1:-0.2605042 2:-0.37254903 3:1.0 4:1.0 5:-0.30981617 6:-0.30981617 8:-1.0 9:-0.43345373 10:-0.30787041 11:0.18851383 12:0.16072293 13:-1.0 14:-1.0 15:-1.0 16:-1.0 17:-1.0 18:-1.0 19:-1.0 20:-1.0 21:-1.0 22:-1.0 23:-0.66666667 24:-1.0 25:-0.01552634 26:0.00442045 27:-0.33132717 28:-0.54720103 29:-0.40306129 30:-0.02456215 31:-0.21522339 32:-0.23955387 33:-0.99992055 34:-0.99924527 35:-0.91025641 36:-0.8974359 37:-0.99960627 38:-0.99917738 39:-0.99918485 40:-0.99886533 
1.0 1:-0.32773109 2:-0.32773109 3:1.0 4:1.0 5:0.18500326 6:0.18500326 8:1.0 9:-0.22337665 10:-0.22337665 11:-0.78101761 12:-0.78101761 13:-0.77777778 14:-0.77777778 17:0.39999998 18:0.39999998 19:0.39999998 20:0.39999998 21:-1.0 22:-1.0 23:-0.33333333 24:-0.33333333 25:-0.6129523 26:-0.6129523 27:-0.82100582 28:-0.84352938 29:-0.65922331 30:-0.63255586 31:-0.6670659 32:-0.67287843 33:-0.8775507 34:-0.8775507 35:-0.5 36:-0.5 37:-0.87804859 38:-0.87804859 39:-0.90539303 40:-0.90539303 
1.0 1:-0.2605042 2:-0.2605042 3:-0.0 4:-0.0 5:0.1824564 6:0.1824564 8:1.0 9:0.00737305 10:0.00737305 11:0.27737013 12:0.27737013 13:-0.33333333 14:-0.11111111 15:-0.16666665 16:-0.16666665 17:0.16666667 18:0.16666667 19:0.16666667 20:0.16666667 21:-1.0 22:-1.0 25:0.24375803 26:0.29030054 27:-0.94751557 28:-0.89277083 29:0.67573294 30:0.61115096 31:-0.18450888 32:-0.18739527 33:-0.98425391 34:-0.98425391 35:-0.57692308 36:-0.57692308 37:-0.98601829 38:-0.98582431 39:-0.98761428 40:-0.98781555 
1.0 1:0.07563022 2:0.07563022 3:0.16666667 4:0.16666667 5:0.01763787 6:0.01763787 9:-0.34045875 10:-0.38487104 11:0.16904278 12:0.16904278 13:-0.77777778 14:-0.77777778 15:0.25 16:0.25 17:0.74999997 18:0.74999997 19:0.74999997 20:0.74999997 21:-1.0 22:-1.0 23:-0.66666667 24:-0.66666667 25:0.2005639 26:0.0651675 27:-0.34510154 28:-0.34510154 29:-0.15135208 30:-0.35077855 31:-0.09951971 32:-0.13554042 33:-0.99997617 34:-0.99997617 35:-0.94871795 36:-0.73076923 37:-0.99992234 38:-1.0 39:-1.0 40:-0.99987169 
1.0 1:0.17166867 2:0.17166867 3:-0.25 4:-0.25 5:-0.08939109 6:-0.15457869 7:1.0 8:1.0 9:-0.09175098 10:-0.09175098 11:0.16304689 12:0.16304689 13:-0.33333333 14:-0.11111111 15:-0.2857143 16:-0.2857143 17:-3.0E-8 18:-3.0E-8 19:-3.0E-8 20:-3.0E-8 21:-1.0 22:-1.0 23:0.33333333 24:0.33333333 25:0.14948642 26:0.18333552 27:-0.88771014 28:-0.78649927 29:0.24446768 30:0.23622053 31:-0.1093342 32:-0.11613952 33:-0.84610618 34:-0.96510755 35:-0.75641026 36:-0.94871795 37:-0.86625128 38:-0.96278715 39:-0.89916427 40:-0.96384129 
1.0 1:0.61344536 2:0.61344536 3:1.0 4:1.0 5:-0.55069654 6:-0.86414282 7:1.0 8:1.0 9:-0.58816236 10:-0.50607301 11:0.10409039 12:0.1439002 13:-1.0 14:-1.0 15:-1.0 16:-1.0 17:-1.0 18:-1.0 19:-1.0 20:-1.0 21:-1.0 22:-1.0 23:-0.33333333 24:-0.33333333 25:0.16548838 26:0.02896368 27:-0.77038524 28:-0.70787029 29:0.27690747 30:0.03744284 31:-0.39484423 32:-0.40656225 33:-0.97738982 34:-0.97738982 35:-0.96153846 36:-0.97435897 37:-0.9777069 38:-0.97755446 39:-0.98175729 40:-0.98176333 
1.0 1:0.21008405 2:0.21008405 3:0.375 4:0.375 5:-0.48516946 6:-0.19100659 7:1.0 8:1.0 9:-0.32141888 10:-0.58247317 11:-0.40992925 12:-0.43067126 13:-0.77777778 14:-0.77777778 17:0.39999998 18:0.39999998 19:0.39999998 20:0.39999998 21:-1.0 22:-1.0 23:-0.33333333 24:-0.33333333 25:-0.25339187 26:-0.25339187 27:-0.56986283 28:-0.41671365 29:-0.52971284 30:-0.65070762 31:-0.32849392 32:-0.33879134 33:-0.95479553 34:-0.95479553 35:-0.3974359 36:-0.42307692 37:-0.95610618 38:-0.95625329 39:-0.96215148 40:-0.96182542 
1.0 1:0.07563022 2:0.07563022 3:0.58333332 4:0.58333332 5:-0.0742745 6:-0.48697054 7:1.0 8:1.0 9:-0.70654356 10:-0.34507674 11:-0.03560847 12:-0.0449611 13:-0.77777778 14:-0.77777778 15:-0.2857143 16:-0.2857143 17:-3.0E-8 18:-3.0E-8 19:-3.0E-8 20:-3.0E-8 21:-1.0 22:-1.0 23:0.33333333 24:0.33333333 25:-0.03409058 26:0.2005639 27:-0.60632907 28:-0.89863077 29:-0.25294624 30:0.26655093 31:-0.26218139 32:-0.22790236 33:-0.45050746 34:-0.45050746 35:-0.92307692 36:-0.97435897 37:-0.51293085 38:-0.51305365 39:-0.70065204 40:-0.7004062 
1.0 1:-0.14845937 2:-0.14845937 3:0.5 4:0.5 5:-0.63005411 6:-0.45965672 7:1.0 8:1.0 9:-0.63207845 10:-0.79156685 11:-0.18908483 12:-0.18552088 13:-0.55555556 14:-0.77777778 15:-0.16666665 16:-0.16666665 17:0.16666667 18:0.16666667 19:0.16666667 20:0.16666667 21:-1.0 22:-1.0 25:0.08539242 26:0.3698094 27:-0.7152879 28:-0.79756784 29:0.08048748 30:0.49347475 31:-0.41156189 32:-0.38952836 33:1.0 34:1.0 35:-0.91025641 36:-0.87179487 37:0.87423356 38:0.87827436 39:0.28556617 40:0.27172879 
1.0 1:-0.21248498 2:-0.21248498 3:-0.66666668 4:0.58333332 5:0.12678922 6:0.12678922 7:1.0 8:1.0 9:-0.60841856 10:-0.34295 11:-0.67217816 12:-0.67217816 13:-0.77777778 14:-0.77777778 15:-0.2857143 16:-0.2857143 17:-3.0E-8 18:-3.0E-8 19:-3.0E-8 20:-3.0E-8 21:-1.0 22:-1.0 23:0.33333333 24:0.33333333 25:-0.20267998 26:-0.19591429 27:-0.59457014 28:-0.78428702 29:-0.41172197 30:-0.20484738 31:-0.41589378 32:-0.3923342 33:-0.86362391 34:-0.86362391 35:-0.91025641 36:-0.91025641 37:-0.87971938 38:-0.88018964 39:-0.92203585 40:-0.92222993 
1.0 1:-0.21248498 2:-0.21248498 3:-0.66666668 4:1.0 5:-0.22734628 6:-0.19854245 7:1.0 8:1.0 9:-0.31053427 10:-0.32408566 11:-0.24893615 12:-0.24893615 13:-0.11111111 14:0.11111111 15:0.42857145 16:-0.2857143 17:-3.0E-8 18:-3.0E-8 19:0.24999999 20:-3.0E-8 21:0.42857149 22:-1.0 23:0.33333333 24:0.33333333 25:0.0426605 26:0.14747482 27:-0.93943403 28:-0.93166503 29:0.34898943 30:0.15068095 31:-0.60701563 32:-0.62817759 33:1.0 34:1.0 35:-0.94871795 36:-0.8974359 37:0.77305904 38:0.77117269 39:0.08842403 40:0.09378934 
1.0 1:1.0 2:1.0 3:-0.78571428 4:0.28571427 5:-0.45290559 6:-0.45290559 7:1.0 8:1.0 9:-0.43959264 10:-0.16968019 11:0.26187632 12:0.26187632 13:0.33333333 14:0.11111111 15:0.25 16:0.25 17:-0.12500001 18:-0.12500001 19:0.02083329 20:0.04999998 21:0.07582872 22:0.15470054 23:0.66666667 24:0.66666667 25:-0.5378023 26:-0.04766284 27:-0.78615242 28:-0.85593222 29:-0.7102228 30:-0.14439689 31:-0.69984119 32:-0.68754651 33:-0.82583169 34:-0.82583169 35:-0.97435897 36:-0.97435897 37:-0.81781626 38:-0.81779413 39:-0.81428215 40:-0.81430101 
1.0 1:0.07563022 2:0.47899159 3:0.375 4:0.375 5:-0.57905617 6:-0.56632184 7:1.0 8:1.0 9:-0.22391719 10:0.28235804 11:0.52574375 12:0.53889448 13:-0.33333333 14:-0.33333333 17:0.39999998 18:0.39999998 19:0.39999998 20:0.39999998 21:-1.0 22:-1.0 23:-0.33333333 24:-0.33333333 25:-0.39762669 26:-0.44487931 27:-0.89607624 28:-0.89243731 29:-0.14130537 30:-0.2815125 31:-0.64060232 32:-0.65903534 33:-0.60135852 34:-0.60135852 35:-0.57692308 36:-0.6025641 37:-0.62126152 38:-0.6208675 39:-0.57900783 40:-0.57978071 
1.0 1:0.07563022 2:0.52380954 3:0.5 4:0.5 5:-0.50349919 6:-0.57164712 7:1.0 8:1.0 9:-0.33655464 10:-0.30920234 11:0.33176681 12:0.35274064 13:-0.11111111 14:-0.11111111 15:-0.16666665 16:-0.16666665 17:0.16666667 18:0.16666667 19:0.16666667 20:0.16666667 21:-1.0 22:-1.0 25:-0.38437463 26:-0.38437463 27:-0.89561647 28:-0.75297821 29:-0.32374585 30:-0.50220349 31:-0.66640197 32:-0.65036999 33:1.0 34:1.0 35:-0.87179487 36:-0.92307692 37:0.87026068 38:0.87393258 39:0.29403465 40:0.28333709 
1.0 1:-0.59663869 2:-0.37254903 3:-0.0 4:-0.0 5:-0.18374637 6:-0.3149099 7:1.0 8:1.0 9:-0.42450435 10:-0.69126237 11:-0.62743946 12:-0.60518091 13:-0.77777778 14:-0.77777778 15:-0.16666665 16:-0.16666665 17:0.16666667 18:0.16666667 19:0.16666667 20:0.16666667 21:-1.0 22:-1.0 25:0.64036912 26:0.50414385 27:-0.72666037 28:-0.77771374 29:0.82056184 30:0.751471 31:0.08422064 32:0.03523152 33:1.0 34:1.0 35:-0.58974359 36:-0.58974359 37:0.87578855 38:0.87077934 39:0.27793297 40:0.2927918 
1.0 1:0.21008405 2:0.21008405 3:-0.25 4:-0.25 5:-0.11880132 6:-0.22931705 7:1.0 8:1.0 9:-0.43959264 10:-0.80527035 11:0.36623619 12:0.07757217 13:-0.55555556 14:-0.33333333 17:0.39999998 18:0.39999998 19:0.39999998 20:0.39999998 21:-1.0 22:-1.0 23:-0.33333333 24:-0.33333333 25:0.17106848 26:0.17106848 27:-0.42328296 28:-0.45646913 29:-0.08828176 30:-0.10348922 31:-0.03766349 32:-0.0430996 33:-0.84610618 34:-0.84610618 35:-0.83333333 36:-0.98717949 37:-0.84638342 38:-0.84703102 39:-0.88243002 40:-0.88055216 
1.0 1:-1.0 2:-1.0 3:-0.875 4:-0.875 5:-0.337104 6:-0.337104 7:1.0 8:1.0 9:-0.26625159 10:-0.26625159 11:-0.58876893 12:-0.41170682 13:-0.55555556 14:-0.55555556 17:0.39999998 18:0.39999998 19:0.39999998 20:0.39999998 21:-1.0 22:-1.0 23:-0.33333333 24:-0.33333333 25:0.01032308 26:0.01032308 27:-0.49827517 28:-0.49827517 29:-0.24246232 30:-0.24246232 31:-0.22386196 32:-0.22386196 33:-0.97835111 34:-0.97835111 35:-0.78205128 36:-0.94871795 37:-0.97908916 38:-0.97903508 39:-0.97245857 40:-0.97253706 
1.0 1:-0.46218486 2:-0.46218486 3:1.0 4:1.0 5:-0.42633523 6:-0.36302746 7:1.0 8:1.0 9:-0.49211284 10:-0.75250957 11:-0.01455331 12:-0.54850413 13:-0.33333333 14:-0.33333333 17:0.39999998 18:0.39999998 19:0.39999998 20:0.39999998 21:-1.0 22:-1.0 23:-0.33333333 24:-0.33333333 25:-0.03710209 26:0.0651675 27:-0.91045353 28:-0.91045353 29:0.04301434 30:0.16127258 31:-0.5133561 32:-0.50230104 33:1.0 34:1.0 35:-0.91025641 36:-0.94871795 37:0.99298962 38:0.99998412 39:0.53744887 40:0.52033681 
1.0 1:-0.21248498 2:-0.21248498 3:-0.25 4:-0.25 5:-0.59209369 6:-0.58568322 7:1.0 8:1.0 9:-0.50115138 10:-0.05012013 11:-0.2114222 12:0.06541672 13:0.11111111 14:-0.11111111 15:-0.2857143 16:-0.2857143 17:-3.0E-8 18:-3.0E-8 19:-3.0E-8 20:-3.0E-8 21:-1.0 22:-1.0 23:0.33333333 24:0.33333333 25:0.07483866 26:0.07483866 27:-0.81219076 28:-0.75453281 29:-0.13185787 30:-0.1672624 31:-0.30272514 32:-0.26601878 33:1.0 34:1.0 35:-0.96153846 36:-0.97435897 37:0.77204972 38:0.7731928 39:0.11652291 40:0.08743205 
1.0 1:-0.86554623 2:-0.86554623 3:-0.25 4:-0.25 5:-0.16137035 6:-0.16137035 7:1.0 8:1.0 9:-0.80608082 10:-0.17741304 11:-0.49166411 12:-0.49166411 13:-0.55555556 14:-0.55555556 17:0.39999998 18:0.39999998 19:0.39999998 20:0.39999998 21:-1.0 22:-1.0 23:-0.33333333 24:-0.33333333 25:0.02700986 26:0.02700986 27:-0.0221706 28:-0.11293215 29:-0.78114094 30:-0.65078072 31:0.07148639 32:0.01695627 33:-0.98979126 34:-0.98979126 35:-0.42307692 36:-0.92307692 37:-0.99043532 38:-0.9903148 39:-0.99049447 40:-0.99074203 
1.0 1:-0.02040816 2:0.07563022 3:0.58333332 4:0.64285715 5:-0.30678419 6:-0.33358966 7:1.0 8:1.0 9:-0.56282902 10:-0.42833813 11:-0.53563356 12:-0.48419613 13:-0.77777778 14:-0.55555556 15:0.42857145 16:0.25 17:1.0 18:-0.12500001 19:1.0 20:0.31249998 21:-1.0 22:0.44337568 23:0.33333333 24:0.66666667 25:-0.51502995 26:-0.26486123 27:-0.85716069 28:-0.96344594 29:-0.56672901 30:-0.25168526 31:-0.63725998 32:-0.64769788 33:-0.78822221 34:-0.78822221 35:-0.82051282 36:-0.82051282 37:-0.8196391 38:-0.81323303 39:-0.84937124 40:-0.83063039 
1.0 1:-0.02040816 2:-0.02040816 3:0.16666667 4:0.16666667 5:-0.16623018 6:-0.16623018 7:1.0 8:1.0 9:-0.78892827 10:-0.27128042 11:-0.27082953 12:-0.27082953 13:-0.11111111 14:-0.11111111 15:-0.2857143 16:-0.2857143 17:-3.0E-8 18:-3.0E-8 19:-3.0E-8 20:-3.0E-8 21:-1.0 22:-1.0 23:0.33333333 24:0.33333333 25:-0.40434274 26:0.32945085 27:-0.67771993 28:-0.94972908 29:-0.65689768 30:0.28807908 31:-0.48128264 32:-0.47239671 33:1.0 34:1.0 35:-0.84615385 36:-0.78205128 37:0.74977239 38:0.75994597 39:0.18125169 40:0.13385235 
1.0 1:-0.46218486 2:-0.46218486 3:1.0 4:1.0 5:-0.36302746 6:-0.36302746 7:1.0 8:1.0 9:-0.90304041 10:-0.67595927 11:-0.54850413 12:-0.54850413 13:-0.55555556 14:-0.55555556 17:0.39999998 18:0.39999998 19:0.39999998 20:0.39999998 21:-1.0 22:-1.0 23:-0.33333333 24:-0.33333333 25:0.30689631 26:-0.37535209 27:-0.86659153 28:-0.78555857 29:0.32679772 30:-0.40160555 31:-0.25706533 32:-0.6716558 33:-0.76700232 34:-0.76700232 35:-0.80769231 36:-0.83333333 37:-0.76719158 38:-0.76724916 39:-0.82198831 40:-0.82184943 
1.0 1:0.07563022 2:0.07563022 3:-0.25 4:-0.25 5:1.0 6:1.0 7:1.0 8:1.0 9:-0.31504622 10:-0.1845319 11:0.00539476 12:0.00539476 13:-0.11111111 14:0.11111111 17:0.39999998 18:0.39999998 19:0.39999998 20:0.39999998 21:-1.0 22:-1.0 23:-0.33333333 24:-0.33333333 25:0.46702292 26:-0.64547556 27:-0.33622623 28:-0.66171328 29:0.0134696 30:-0.88237901 31:0.19209739 32:-0.65935538 33:-0.99847465 34:-0.99924527 35:-0.75641026 36:-0.42307692 37:-0.99874128 38:-0.99941511 39:-0.99700358 40:-0.99693112 
1.0 1:-0.07376282 2:-0.14845937 3:-0.5625 4:-0.5625 5:-0.58239594 6:-0.53761219 7:1.0 8:1.0 9:-0.68138704 10:-0.02460978 11:0.11590059 12:0.07392466 13:0.11111111 14:-0.11111111 15:-0.44444445 16:-0.44444445 17:-0.22222224 18:-0.22222224 19:-0.22222224 20:-0.22222224 21:-1.0 22:-1.0 23:1.0 24:1.0 25:-0.02641833 26:0.43327646 27:-0.97431687 28:-0.97431687 29:0.1023462 30:0.21017148 31:-0.54996615 32:-0.01852794 33:1.0 34:1.0 35:-0.87179487 36:-0.97435897 37:0.5851178 38:0.58748633 39:-0.07473254 40:-0.08308193 
1.0 1:0.07563022 2:0.07563022 3:0.375 4:0.375 5:0.19773759 6:0.19773759 8:1.0 9:-0.18177491 10:-0.0173491 11:-0.02593371 12:-0.02593371 13:-0.11111111 14:-0.11111111 17:0.39999998 18:0.39999998 19:0.39999998 20:0.39999998 21:-1.0 22:-1.0 23:-0.33333333 24:-0.33333333 25:-0.50186039 26:-0.60314584 27:-0.86024947 28:-0.77900945 29:-0.41582471 30:-0.7020989 31:-0.70562036 32:-0.70797733 33:1.0 34:1.0 35:-0.76923077 36:-0.3974359 37:0.99956482 38:0.99950414 39:0.52150217 40:0.52150217 
1.0 1:0.07563022 2:0.07563022 3:-0.5 4:-0.5 5:0.04789705 6:-0.03572501 8:1.0 9:-0.31053427 10:-0.31053427 11:-0.06828468 12:-0.06828468 13:-0.11111111 14:-0.11111111 15:-0.16666665 16:-0.16666665 17:0.16666667 18:0.16666667 19:0.16666667 20:0.16666667 21:-1.0 22:-1.0 25:0.30579045 26:-0.2919155 27:-0.93166503 28:-0.93943403 29:0.52539037 30:0.04132871 31:-0.66492203 32:-0.68076418 33:1.0 34:1.0 35:-0.26923077 36:-0.93589744 37:0.87893221 38:0.87909896 39:0.26894118 40:0.26894621 
1.0 1:-0.32773109 2:-0.32773109 3:-0.25 4:-0.25 5:0.63325147 6:0.63325147 7:-1.0 8:1.0 9:-0.21206288 10:-0.21206288 11:-0.8248268 12:-0.8248268 13:-1.0 14:-1.0 15:-1.0 16:-1.0 17:-1.0 18:-1.0 19:-1.0 20:-1.0 21:-1.0 22:-1.0 23:-0.33333333 24:-0.33333333 25:-0.1531592 26:-0.1531592 27:-0.38547469 28:-0.37103535 29:-0.56662337 30:-0.58027892 31:-0.2698336 32:-0.26470998 33:-0.99899899 34:-0.99899899 35:-0.82051282 36:-0.82051282 37:-0.99905315 38:-0.99904302 39:-0.999129 40:-0.999129 
1.0 1:-0.19327732 2:-0.19327732 3:-0.25 4:-0.25 5:-0.30162982 6:-0.30162982 7:1.0 8:1.0 9:-0.08277004 10:-0.35695863 11:0.08027015 12:0.08027015 13:-0.77777778 14:-0.77777778 17:0.39999998 18:0.39999998 19:0.39999998 20:0.39999998 21:-1.0 22:-1.0 23:-0.33333333 24:-0.33333333 25:0.78297301 26:0.92197285 27:-0.40953227 28:-0.14990185 29:0.46792694 30:0.53981822 31:0.33069059 32:0.37764019 33:-0.99011698 34:-0.99837931 35:-1.0 36:-0.97435897 37:-0.99060194 38:-0.99841325 39:-0.99059712 40:-0.99830178 
1.0 1:-0.46218486 2:-0.46218486 3:-0.25 4:-0.25 5:-0.43206567 6:-0.47081442 7:1.0 8:1.0 9:-0.80608082 10:-0.48710395 11:-0.56103443 12:-0.56103443 13:-1.0 14:-1.0 15:-1.0 16:-1.0 17:-1.0 18:-1.0 19:-1.0 20:-1.0 21:-1.0 22:-1.0 23:-0.33333333 24:-0.33333333 25:0.14961209 26:0.35288485 27:0.22087652 28:-0.18428746 29:-0.91249259 30:-0.22252781 31:0.23851619 32:0.23431078 33:-0.97940773 34:-0.99886393 35:-0.8974359 36:-0.88461538 37:-0.97946791 38:-0.99889689 39:-0.98420274 40:-0.99904447 
1.0 1:-0.19327732 2:-0.19327732 3:1.0 4:1.0 5:-0.02329388 6:-0.02329388 7:1.0 8:1.0 9:-0.67781138 10:-0.45870373 11:-0.60729523 12:-0.60729523 13:-0.55555556 14:-0.55555556 17:0.39999998 18:0.39999998 19:0.39999998 20:0.39999998 21:-1.0 22:-1.0 23:-0.33333333 24:-0.33333333 25:-0.32071225 26:-0.09730819 27:-0.83103939 28:-0.92757879 29:-0.30503317 30:0.02823758 31:-0.52896297 32:-0.53216834 33:-0.99845876 34:-0.82287632 35:-0.85897436 36:-0.85897436 37:-0.99852252 38:-0.82301152 39:-0.99816894 40:-0.86404994 
1.0 1:0.17166867 2:0.17166867 3:-0.66666668 4:-0.66666668 5:0.12419037 6:0.08888945 7:1.0 8:1.0 9:-0.43959264 10:-0.43959264 11:0.09311148 12:0.09311148 13:-0.33333333 14:-0.11111111 15:-0.2857143 16:-0.2857143 17:-3.0E-8 18:-3.0E-8 19:-3.0E-8 20:-3.0E-8 21:-1.0 22:-1.0 23:0.33333333 24:0.33333333 25:0.25109577 26:0.25109577 27:0.0061924 28:-0.16587641 29:-0.57454321 30:-0.42930505 31:0.18111289 32:0.12190643 33:-0.99897515 34:-0.99706052 35:-0.97435897 36:-0.97435897 37:-0.99906648 38:-0.99748146 39:-0.99919456 40:-0.99760739 
1.0 1:0.07563022 2:0.07563022 3:-0.42857143 4:-0.42857143 5:0.36237422 6:0.36237422 7:1.0 8:1.0 9:-0.69490832 10:-0.23827248 11:-0.10908995 12:-0.10908995 13:0.55555556 14:0.33333333 15:-0.375 16:-0.375 17:-0.12500001 18:-0.12500001 19:-0.12500001 20:-0.12500001 21:-1.0 22:-1.0 23:0.66666667 24:0.66666667 25:0.41673938 26:0.31746137 27:-0.78779051 28:-0.63981518 29:0.1355242 30:0.1066004 31:-0.12839006 32:-0.14491546 33:-0.99187273 34:-0.82831834 35:-0.87179487 36:-0.85897436 37:-0.99351083 38:-0.85613422 39:-0.99450907 40:-0.91674548 
1.0 1:0.88235297 2:0.88235297 3:-0.25 4:-0.25 5:-0.2897733 6:-0.61033095 7:1.0 8:1.0 9:-0.43959264 10:-0.43959264 11:0.10381267 12:0.12385065 13:-0.11111111 14:-0.11111111 15:1.0 16:1.0 17:0.39999998 18:0.39999998 19:0.74999997 20:0.74999997 21:1.0 22:1.0 23:-0.33333333 24:-0.33333333 25:0.02403917 26:0.17340889 27:-0.72659014 28:-0.72659014 29:0.05249006 30:0.17539047 31:-0.22229617 32:-0.17809896 33:-0.82831834 34:-0.82831834 35:-0.97435897 36:-0.97435897 37:-0.83344988 38:-0.83338089 39:-0.85475122 40:-0.85489613 
1.0 1:0.47899159 2:0.47899159 3:0.375 4:0.375 5:-0.77585934 6:-1.0 7:1.0 8:1.0 9:-0.42033136 10:-0.48187151 11:0.11866261 12:0.07844865 13:-0.55555556 14:-0.77777778 17:0.39999998 18:0.39999998 19:0.39999998 20:0.39999998 21:-1.0 22:-1.0 23:-0.33333333 24:-0.33333333 25:0.18401545 26:0.20646004 27:-0.88062371 28:-0.69112856 29:0.43408264 30:0.21555894 31:-0.2014733 32:-0.17058517 33:-0.82831834 34:-0.82831834 35:-0.97435897 36:1.0 37:-0.83005964 38:-0.83086403 39:-0.86431562 40:-0.86326498 
1.0 1:0.55582231 2:0.55582231 3:0.58333332 4:0.58333332 5:-0.6532846 6:-0.3429514 7:1.0 8:1.0 9:-0.53521587 10:-0.32069957 11:0.36836426 12:0.40545065 13:-0.11111111 14:-0.11111111 15:-0.2857143 16:-0.2857143 17:-3.0E-8 18:-3.0E-8 19:-3.0E-8 20:-3.0E-8 21:-1.0 22:-1.0 23:0.33333333 24:0.33333333 25:-0.44095228 26:-0.50186039 27:-0.93943403 28:-0.93943403 29:-0.41404451 30:-0.49710959 31:-0.71752649 32:-0.7142667 33:1.0 34:1.0 35:-0.79487179 36:-0.80769231 37:0.73540815 38:0.75023257 39:0.22608482 40:0.17926341 
1.0 1:0.07563022 2:9.3373E-4 3:0.375 4:0.375 5:-0.29328727 6:-0.68251795 7:1.0 8:1.0 9:-0.7471822 10:-0.63535415 11:-0.14244229 12:-0.10159132 13:0.11111111 14:-0.33333333 15:-0.44444445 16:-0.44444445 17:-0.22222224 18:-0.22222224 19:-0.22222224 20:-0.22222224 21:-1.0 22:-1.0 23:1.0 24:1.0 25:0.17413552 26:-0.16500639 27:-0.76447768 28:-0.86190274 29:-0.07706254 30:-0.27476772 31:-0.37585824 32:-0.39318524 33:1.0 34:1.0 35:-0.94871795 36:-0.98717949 37:0.58544017 38:0.5873722 39:-0.0757456 40:-0.08252844 
1.0 1:-0.22315593 2:-0.29785248 3:0.375 4:0.375 5:0.02708755 6:-0.5227348 7:1.0 8:1.0 9:-0.63830308 10:-0.60818568 11:-0.48127616 12:-0.46082743 13:-0.55555556 14:-0.55555556 15:-0.44444445 16:-0.44444445 17:-0.22222224 18:-0.22222224 19:-0.22222224 20:-0.22222224 21:-1.0 22:-1.0 23:1.0 24:1.0 25:0.38673395 26:0.47675023 27:-0.80520403 28:-0.7926864 29:0.23501615 30:0.40406533 31:-0.31335132 32:-0.34027015 33:1.0 34:1.0 35:-1.0 36:-0.82051282 37:0.58984437 38:0.59685724 39:-0.10255491 40:-0.13935733 
1.0 1:0.7478992 2:0.7478992 3:-0.25 4:0.375 5:-0.36875791 6:-0.34474461 7:1.0 8:1.0 9:-0.28623579 10:0.31281853 11:1.0 12:1.0 13:-0.55555556 14:-0.77777778 17:0.39999998 18:0.39999998 19:0.39999998 20:0.39999998 21:-1.0 22:-1.0 23:-0.33333333 24:-0.33333333 25:0.02854029 26:0.46120197 27:-0.84095599 28:-0.71332254 29:0.12781108 30:0.56611844 31:-0.19542975 32:-0.17121895 33:-0.45050746 34:-0.45050746 35:-0.74358974 36:-0.8974359 37:-0.45070782 38:-0.4508621 39:-0.5818699 40:-0.58132043 
1.0 1:-0.73109246 2:-0.73109246 3:0.375 4:-0.25 5:-0.45553323 6:-0.45553323 7:1.0 8:1.0 9:-0.00923628 10:-0.43801058 11:-0.49837704 12:-0.49837704 13:-0.55555556 14:-0.55555556 17:0.39999998 18:0.39999998 19:0.39999998 20:0.39999998 21:-1.0 22:-1.0 23:-0.33333333 24:-0.33333333 25:0.33354251 26:0.33354251 27:-0.84685158 28:-0.84685158 29:0.7257233 30:0.73453845 31:-0.23815153 32:-0.26081506 33:-0.37399353 34:-0.37399353 35:-1.0 36:-1.0 37:-0.37411478 38:-0.37413236 39:-0.52141612 40:-0.52137386 
1.0 1:-0.59663869 2:-0.59663869 3:0.5 4:-0.5 5:-0.0187459 6:-0.0187459 7:1.0 8:1.0 9:-0.63402071 10:-0.59517304 11:-0.53688931 12:-0.53688931 13:-1.0 14:-1.0 15:-1.0 16:-1.0 17:-1.0 18:-1.0 19:-1.0 20:-1.0 21:-1.0 22:-1.0 25:0.30490096 26:0.14532663 27:-0.7238273 28:-0.47030581 29:0.3377061 30:0.04338352 31:-0.22653709 32:-0.20212381 33:-0.99983316 34:-0.99983316 35:-0.84615385 36:-0.84615385 37:-0.99987361 38:-0.99987613 39:-0.9998264 40:-0.99982137 
1.0 1:0.07563022 2:-0.32773109 3:1.0 4:1.0 5:-0.69530234 6:-0.65609883 7:1.0 8:1.0 9:-0.9632502 10:-0.7084536 11:-0.18336243 12:-0.19217964 13:-0.55555556 14:-0.55555556 17:0.39999998 18:0.39999998 19:0.39999998 20:0.39999998 21:-1.0 22:-1.0 23:-0.33333333 24:-0.33333333 25:-0.28466199 26:-0.19157697 27:-0.85678103 28:-0.85678103 29:-0.29113532 30:-0.1862033 31:-0.55745718 32:-0.58417086 33:1.0 34:1.0 35:-0.58974359 36:-0.98717949 37:0.94324974 38:0.94332401 39:0.68178439 40:0.68177835 
1.0 1:-0.2605042 2:0.29971988 3:0.5 4:0.5 5:-0.29890105 6:-0.37670171 7:1.0 8:1.0 9:-0.51020095 10:-0.65436643 11:-0.04852094 12:-0.00332344 13:-0.11111111 14:0.11111111 15:-0.16666665 16:-0.16666665 17:0.16666667 18:0.16666667 19:0.16666667 20:0.16666667 21:-1.0 22:-1.0 25:-0.37774701 26:-0.19800799 27:-0.87626084 28:-0.94786177 29:-0.25528196 30:0.05310178 31:-0.54599072 32:-0.52540708 33:1.0 34:1.0 35:-0.11538462 36:-0.97435897 37:0.87108129 38:0.87359799 39:0.291715 40:0.28478121 
1.0 1:-0.02040816 2:-0.59663869 3:0.58333332 4:0.58333332 5:-0.43624587 6:-0.36062352 7:1.0 8:1.0 9:-0.51006109 10:-0.28708949 11:-0.33687293 12:-0.35012144 13:-0.11111111 14:-0.33333333 15:-0.2857143 16:-0.2857143 17:-3.0E-8 18:-3.0E-8 19:-3.0E-8 20:-3.0E-8 21:-1.0 22:-1.0 23:0.33333333 24:0.33333333 25:0.27497189 26:-0.14561651 27:-0.9393322 28:-0.77771374 29:0.30609585 30:-0.23294413 31:-0.40910968 32:-0.42021196 33:1.0 34:1.0 35:-0.83333333 36:-0.88461538 37:0.76063975 38:0.75096642 39:0.1286768 40:0.16383167 
1.0 1:0.41176471 2:-0.03641455 3:0.5 4:0.5 5:-0.51859293 6:-0.54321815 7:1.0 8:1.0 9:-0.46865803 10:-0.42110709 11:0.09054406 12:0.07593147 13:-0.11111111 14:0.11111111 15:-0.16666665 16:-0.16666665 17:0.16666667 18:0.16666667 19:0.16666667 20:0.16666667 21:-1.0 22:-1.0 25:-0.20912754 26:-0.19157697 27:-0.91677447 28:-0.93166503 29:-0.12688185 30:-0.08149679 31:-0.73494007 32:-0.73443592 33:1.0 34:1.0 35:-0.96153846 36:-0.98717949 37:0.84121645 38:0.84645154 39:0.40287702 40:0.37904652 
1.0 1:-0.46218486 2:-0.32773109 3:0.375 4:0.375 5:-0.60834512 6:-0.57587259 7:1.0 8:1.0 9:-0.07790464 10:0.1132055 11:0.26099828 12:-0.18455579 13:-0.33333333 14:-0.55555556 17:0.39999998 18:0.39999998 19:0.39999998 20:0.39999998 21:-1.0 22:-1.0 23:-0.33333333 24:-0.33333333 25:-0.35583369 26:-0.31793603 27:-0.83727602 28:-0.83727602 29:-0.33884416 30:-0.27564556 31:-0.58454275 32:-0.60904057 33:1.0 34:1.0 35:-0.3974359 36:-0.88461538 37:0.99930391 38:0.99963977 39:0.5220456 40:0.52123649 
1.0 1:0.07563022 2:0.07563022 3:-0.5 4:-0.5 5:-0.35334993 6:-0.35334993 7:1.0 8:1.0 9:-1.0 10:-1.0 11:-0.2730412 12:-0.49474677 13:-0.55555556 14:-0.55555556 15:-0.16666665 16:-0.16666665 17:0.16666667 18:0.16666667 19:0.16666667 20:0.16666667 21:-1.0 22:-1.0 25:-0.10584619 26:-0.18563335 27:-0.71184878 28:-0.71184878 29:-0.33194 30:-0.41944539 31:-0.38958126 32:-0.42471476 33:-0.78822221 34:-0.78822221 35:-0.97435897 36:-0.74358974 37:-0.77639917 38:-0.7764516 39:-0.75605694 40:-0.75596637 
1.0 1:-0.44724558 2:-0.44724558 3:1.0 4:1.0 5:-0.02564366 6:-0.06852095 7:1.0 8:1.0 9:-0.50720819 10:-0.63425542 11:-0.52963121 12:-0.65966942 13:-0.55555556 14:-0.33333333 15:-0.44444445 16:-0.44444445 17:-0.22222224 18:-0.22222224 19:-0.22222224 20:-0.22222224 21:-1.0 22:-1.0 23:1.0 24:1.0 25:0.45896046 26:0.51624355 27:-0.8434725 28:-0.83477021 29:0.32561532 30:0.33689334 31:-0.52204868 32:-0.53111788 33:1.0 34:1.0 35:-0.92307692 36:-0.94871795 37:0.6008015 38:0.60079971 39:-0.1547814 40:-0.15477469 
1.0 1:-0.22315593 2:-0.29785248 3:0.6875 4:0.6875 5:0.02708755 6:0.02248903 7:1.0 8:1.0 9:-0.57058881 10:-0.33558092 11:-0.48127616 12:-0.65932366 13:-0.11111111 14:-0.33333333 15:-0.44444445 16:-0.44444445 17:-0.22222224 18:-0.22222224 19:-0.22222224 20:-0.22222224 21:-1.0 22:-1.0 23:1.0 24:1.0 25:-0.45221504 26:-0.28466199 27:-0.78439397 28:-0.85415159 29:-0.60382029 30:-0.40352574 31:-0.6459088 32:-0.65787099 33:1.0 34:1.0 35:-0.94871795 36:-0.97435897 37:0.59890397 38:0.60024108 39:-0.14754906 40:-0.15265128 
1.0 1:0.07563022 2:0.07563022 3:-0.0 4:-0.0 5:-0.45444171 6:-0.45444171 7:1.0 8:1.0 9:-0.42815033 10:0.11071233 11:0.07950228 12:0.07950228 13:-0.11111111 14:-0.11111111 15:-0.16666665 16:-0.16666665 17:0.16666667 18:0.16666667 19:0.16666667 20:0.16666667 21:-1.0 22:-1.0 25:0.29364892 26:-0.02232208 27:-0.89911562 28:-0.64215763 29:0.41781716 30:-0.12617617 31:-0.25946718 32:-0.29968641 33:-0.96983455 34:-0.96983455 35:-0.94871795 36:-0.94871795 37:-0.9720315 38:-0.97202818 39:-0.97986031 40:-0.97986031 
1.0 1:-0.03641455 2:-0.03641455 3:0.5 4:0.5 5:-0.32837191 6:-0.32837191 7:1.0 8:1.0 9:-0.59639947 10:-0.79993149 11:-0.21829327 12:-0.21829327 13:-0.77777778 14:-0.77777778 15:-0.16666665 16:-0.16666665 17:0.16666667 18:0.16666667 19:0.16666667 20:0.16666667 21:-1.0 22:-1.0 25:0.17413552 26:0.17413552 27:-0.65858919 28:-0.69829738 29:-0.05442122 30:0.23020381 31:-0.15277716 32:-0.19674805 33:1.0 34:1.0 35:-0.94871795 36:-0.94871795 37:0.87870843 38:0.87882325 39:0.26957518 40:0.26957015 
1.0 1:-0.14845937 2:-0.14845937 3:0.5 4:0.5 5:-0.16306826 6:-0.16306826 7:1.0 8:1.0 9:-0.69243551 10:-0.61734521 11:-0.64072446 12:-0.64072446 13:-0.55555556 14:-0.55555556 15:-0.16666665 16:-0.16666665 17:0.16666667 18:0.16666667 19:0.16666667 20:0.16666667 21:-1.0 22:-1.0 25:-0.4973581 26:-0.22496764 27:-0.80432171 28:-0.85593222 29:-0.52599555 30:-0.18623437 31:-0.58505076 32:-0.57232476 33:-0.82583169 34:-0.82583169 35:-0.82051282 36:-0.21794872 37:-0.80017557 38:-0.80043395 39:-0.77981699 40:-0.77981699 
1.0 1:0.07563022 2:0.07563022 3:0.16666667 4:0.16666667 5:0.20865272 6:0.20865272 7:1.0 8:1.0 9:-0.56633786 10:-0.67781138 11:0.24074587 12:0.2498751 13:-0.55555556 14:-0.55555556 15:-0.2857143 16:-0.2857143 17:-3.0E-8 18:-3.0E-8 19:-3.0E-8 20:-3.0E-8 21:-1.0 22:-1.0 23:0.33333333 24:0.33333333 25:0.01439385 26:0.05428743 27:-0.70855491 28:-0.86076962 29:-0.06513529 30:0.06804849 31:-0.28832412 32:-0.26833182 33:-0.82561719 34:-0.82561719 35:-0.97435897 36:-0.92307692 37:-0.84535055 38:-0.84554536 39:-0.90519809 40:-0.90481855 
1.0 1:0.61344536 2:0.61344536 3:0.375 4:0.375 5:-0.64608501 6:-0.64608501 7:1.0 8:1.0 9:0.00329738 10:-0.00906671 11:0.43598664 12:0.38818045 13:-0.11111111 14:-0.55555556 17:0.39999998 18:0.39999998 19:0.39999998 20:0.39999998 21:-1.0 22:-1.0 23:-0.33333333 24:-0.33333333 25:-1.0 26:0.01459843 27:-0.94868283 28:-0.93943403 29:-0.98050921 30:0.49315019 31:-1.0 32:-0.41756444 33:1.0 34:1.0 35:-0.3974359 36:-0.3974359 37:0.99762528 38:0.98657177 39:0.52605492 40:0.55384844 
1.0 1:0.29971988 2:0.29971988 3:-0.5 4:-0.5 5:-0.16646407 6:-0.16646407 7:1.0 8:1.0 9:-0.45310683 10:-0.45310683 11:0.16102515 12:0.16102515 13:-0.77777778 14:-0.77777778 15:-0.16666665 16:-0.16666665 17:0.16666667 18:0.16666667 19:0.16666667 20:0.16666667 21:-1.0 22:-1.0 25:0.59949972 26:0.055956 27:0.19077214 28:-0.44041559 29:-0.27187952 30:-0.17202648 31:0.48339735 32:-0.20410824 33:-0.96874615 34:-0.96874615 35:-0.93589744 36:-0.80769231 37:-0.97073162 38:-0.97076069 39:-0.97988044 40:-0.97979993 
1.0 1:0.18767505 2:0.18767505 3:-0.0 4:-0.0 5:-0.49233598 6:-0.49233598 7:1.0 8:1.0 9:-0.25321037 10:0.01307292 11:-0.00935676 12:-0.03916952 13:0.33333333 14:0.33333333 15:-0.16666665 16:-0.16666665 17:0.16666667 18:0.16666667 19:0.16666667 20:0.16666667 21:-1.0 22:-1.0 25:-0.94743667 26:0.04559475 27:-0.96485204 28:-0.76199676 29:-0.89330674 30:-0.01896703 31:-0.97275358 32:-0.26379081 33:1.0 34:1.0 35:-0.11538462 36:-0.85897436 37:0.87429737 38:0.87113764 39:0.28270309 40:0.2918257 
1.0 1:-0.50060025 2:-0.50060025 3:1.0 4:1.0 5:0.00204482 6:0.00204482 7:1.0 8:1.0 9:-0.50781143 10:-0.55566473 11:-0.63985884 12:-0.63985884 13:-0.77777778 14:-0.77777778 15:-0.2857143 16:-0.2857143 17:-3.0E-8 18:-3.0E-8 19:-3.0E-8 20:-3.0E-8 21:-1.0 22:-1.0 23:0.33333333 24:0.33333333 25:-0.49607666 26:0.13097092 27:-0.8660184 28:-0.78513499 29:-0.47893049 30:-0.00565899 31:-0.70158201 32:-0.46697888 33:1.0 34:1.0 35:-0.78205128 36:-0.79487179 37:0.7734571 38:0.77344043 39:0.08645732 40:0.08645301 
1.0 1:0.07563022 2:0.07563022 3:-0.25 4:-0.25 5:-0.33164644 6:-0.30981617 7:1.0 8:-1.0 9:-0.43671087 10:0.29527011 11:0.12037673 12:0.14571731 13:-1.0 14:-1.0 15:-1.0 16:-1.0 17:-1.0 18:-1.0 19:-1.0 20:-1.0 21:-1.0 22:-1.0 23:-0.33333333 24:-1.0 25:1.0 26:0.80561656 27:0.42029202 28:1.0 29:-0.08815854 30:-1.0 31:0.90731964 32:1.0 33:-0.99885599 34:-0.99885599 35:-0.80769231 36:-0.48717949 37:-0.99848572 38:-0.99808325 39:-0.99617031 40:-0.99421597 
1.0 1:0.07563022 2:0.07563022 3:-0.25 4:-0.25 5:1.0 6:1.0 8:1.0 9:-0.31504622 10:-0.1845319 11:0.00539476 12:0.00539476 13:-0.11111111 14:-0.11111111 17:0.39999998 18:0.39999998 19:0.39999998 20:0.39999998 21:-1.0 22:-1.0 23:-0.33333333 24:-0.33333333 25:0.09360074 26:-0.12342034 27:-0.3542964 28:-0.3542964 29:-0.31917987 30:-0.52929214 31:-0.2065572 32:-0.19941578 33:-0.9991976 34:-0.9991976 35:-0.67948718 36:-0.67948718 37:-0.99942356 38:-0.9994275 39:-0.99802402 40:-0.99799987 
1.0 1:0.61344536 2:0.61344536 3:0.375 4:0.375 5:-0.31800253 6:-0.31800253 7:1.0 9:-0.49435066 10:-0.49435066 11:0.08433111 12:0.08433111 13:-1.0 14:-1.0 15:-1.0 16:-1.0 17:-1.0 18:-1.0 19:-1.0 20:-1.0 21:-1.0 22:-1.0 23:-0.33333333 24:-0.33333333 25:0.21572812 26:0.21572812 27:-0.43093811 28:-0.43093811 29:-0.06617503 30:-0.10242446 31:-0.02057092 32:-0.03756639 33:-0.99464538 34:-0.99464538 35:-0.66666667 36:-0.66666667 37:-0.99511892 38:-0.99511892 39:-0.99387582 40:-0.99387582 
1.0 1:0.29971988 2:0.29971988 3:-0.5 4:-0.5 5:0.38875244 6:0.38875244 8:1.0 9:-0.45310683 10:-0.19022552 11:0.21658088 12:0.21658088 13:-0.55555556 14:-0.55555556 15:-0.16666665 16:-0.16666665 17:0.16666667 18:0.16666667 19:0.16666667 20:0.16666667 21:-1.0 22:-1.0 25:0.25375534 26:0.29364892 27:0.19077214 28:-0.14696774 29:-0.77397955 30:-0.38946358 31:0.23902112 32:0.20120713 33:-0.96874615 34:-0.96874615 35:-0.91025641 36:-0.97435897 37:-0.97071376 38:-0.97071836 39:-0.97993076 40:-0.97995592 
1.0 1:-0.02040816 2:-0.02040816 3:0.58333332 4:0.58333332 5:-0.30279931 6:-0.34918862 7:1.0 8:1.0 9:-0.24946046 10:-0.46507164 11:0.06163282 12:0.04471532 13:-0.11111111 14:0.11111111 15:-0.2857143 16:-0.2857143 17:-3.0E-8 18:-3.0E-8 19:-3.0E-8 20:-3.0E-8 21:-1.0 22:-1.0 23:0.33333333 24:0.33333333 25:0.19391497 26:-0.07241163 27:-0.94429573 28:-0.9588321 29:0.24999557 30:0.07339684 31:-0.39364963 32:-0.37799366 33:1.0 34:-0.82287632 35:-0.8974359 36:-0.35897436 37:0.77304493 38:-0.84409255 39:0.08806605 40:-0.89983709 
1.0 1:0.26770711 2:0.26770711 3:-0.66666668 4:-0.66666668 5:-0.01263865 6:0.13718459 7:1.0 8:1.0 9:-0.43959264 10:-0.43959264 11:0.26276311 12:0.25646037 13:-0.33333333 14:-0.55555556 15:-0.2857143 16:-0.2857143 17:-3.0E-8 18:-3.0E-8 19:-3.0E-8 20:-3.0E-8 21:-1.0 22:-1.0 23:0.33333333 24:0.33333333 25:0.06492572 26:-0.34616707 27:-0.7158471 28:-0.7158471 29:-0.19625887 30:-0.5619429 31:-0.43749548 32:-0.46143684 33:-0.92458241 34:-0.84610618 35:-0.97435897 36:-0.97435897 37:-0.93329863 38:-0.86030228 39:-0.95856224 40:-0.87536109 
1.0 1:-0.17647058 2:-0.17647058 3:-0.42857143 4:-0.42857143 5:-0.07933141 6:0.30805842 7:1.0 8:1.0 9:-0.10767883 10:-0.07648383 11:0.12400645 12:0.16086104 13:-0.11111111 14:-0.33333333 15:-0.375 16:-0.375 17:-0.12500001 18:-0.12500001 19:-0.12500001 20:-0.12500001 21:-1.0 22:-1.0 23:0.66666667 24:0.66666667 25:0.72966654 26:0.84172031 27:-0.65993265 28:-0.85051464 29:0.45676935 30:1.0 31:0.20043402 32:0.14873869 33:-0.97962224 34:-0.97962224 35:-0.93589744 36:-0.93589744 37:-0.98115455 38:-0.98097773 39:-0.98088931 40:-0.98139123 
1.0 1:0.36374549 2:0.36374549 3:-0.66666668 4:0.58333332 5:-0.38284816 6:-0.38284816 7:1.0 8:1.0 9:-0.80527035 10:-0.58466927 11:0.12920738 12:0.12920738 13:0.33333333 14:0.33333333 15:-0.2857143 16:-0.2857143 17:-3.0E-8 18:-3.0E-8 19:-3.0E-8 20:-3.0E-8 21:-1.0 22:-1.0 23:0.33333333 24:0.33333333 25:-0.23660026 26:0.23779791 27:-0.35791425 28:-0.89614116 29:-0.7376755 30:0.07945321 31:-0.29142976 32:-0.32919016 33:1.0 34:1.0 35:-0.94871795 36:-0.92307692 37:0.74672689 38:0.74215904 39:0.18945923 40:0.20351514 
1.0 1:-0.46218486 2:-0.05882355 3:0.375 4:0.375 5:0.06020689 6:0.02991739 7:1.0 8:1.0 9:0.04786541 10:-0.14397683 11:0.0247201 12:0.01680958 13:-0.55555556 14:-0.55555556 17:0.39999998 18:0.39999998 19:0.39999998 20:0.39999998 21:-1.0 22:-1.0 23:-0.33333333 24:-0.33333333 25:0.60162046 26:0.60162046 27:-0.43225357 28:-0.87704926 29:0.45391171 30:0.66142166 31:0.03050577 32:-0.00670852 33:-0.93583984 34:-0.93583984 35:-0.88461538 36:-0.88461538 37:-0.93648162 38:-0.93730454 39:-0.9496767 40:-0.9473339 
1.0 1:0.07563022 2:-0.32773109 3:0.375 4:0.375 5:-0.5754178 6:-0.58869787 7:1.0 8:1.0 9:-0.69490832 10:-0.79453999 11:0.0574495 12:0.08053326 13:-0.33333333 14:-0.11111111 17:0.39999998 18:0.39999998 19:0.39999998 20:0.39999998 21:-1.0 22:-1.0 23:-0.33333333 24:-0.33333333 25:-0.49628709 26:-0.49628709 27:-0.87403438 28:-0.73867476 29:-0.47046811 30:-0.6482997 31:-0.60104746 32:-0.58890809 33:-0.9176071 34:-0.9176071 35:-0.43589744 36:-0.42307692 37:-0.92211863 38:-0.92212208 39:-0.9175176 40:-0.91751156 
1.0 1:9.3373E-4 2:-0.52194214 3:-0.25 4:-0.25 5:-0.43210152 6:-0.42366709 7:1.0 8:1.0 9:-0.65556168 10:-0.70062693 11:-0.43839318 12:-0.45905609 13:0.33333333 14:-0.33333333 15:0.1111111 16:-0.44444445 17:-0.22222224 18:-0.22222224 19:-0.0925926 20:-0.22222224 21:-0.04370772 22:-1.0 23:1.0 24:1.0 25:-0.16355009 26:-0.00540691 27:-0.58649168 28:-0.4811192 29:-0.58637072 30:-0.47487085 31:-0.33257581 32:-0.33389273 33:1.0 34:1.0 35:-0.94871795 36:-1.0 37:0.60015331 38:0.60074946 39:-0.1522219 40:-0.15427822 
1.0 1:-0.30852342 2:-0.02040816 3:-0.25 4:-0.25 5:0.26868597 6:0.29246537 7:1.0 8:1.0 9:-0.24990922 10:-0.05364423 11:0.04632361 12:0.04067325 13:-0.33333333 14:-0.33333333 15:-0.2857143 16:-0.2857143 17:-3.0E-8 18:-3.0E-8 19:-3.0E-8 20:-3.0E-8 21:-1.0 22:-1.0 23:0.33333333 24:0.33333333 25:0.70091115 26:0.70091115 27:-0.43225357 28:-0.5492806 29:0.45940213 30:0.34707464 31:0.20746272 32:0.23709917 33:-0.93583984 34:-0.93583984 35:-0.93589744 36:-0.93589744 37:-0.94344476 38:-0.94383352 39:-0.96408282 40:-0.9624137 
1.0 1:0.15032678 2:-0.37254903 3:0.375 4:0.375 5:-0.630338 6:-0.60389316 7:1.0 8:1.0 9:-0.76045037 10:-0.57313783 11:-0.05711957 12:-0.07550356 13:-0.11111111 14:-0.33333333 15:0.1111111 16:-0.44444445 17:-0.22222224 18:-0.22222224 19:-0.02777778 20:-0.22222224 21:0.11111106 22:-1.0 23:1.0 24:1.0 25:-0.17830323 26:0.2418041 27:-0.94103678 28:-0.89807124 29:-0.08697124 30:0.04078851 31:-0.45763552 32:-0.44061276 33:1.0 34:1.0 35:-0.98717949 36:-0.88461538 37:0.59136457 38:0.6006187 39:-0.11486935 40:-0.15399309 
1.0 1:-0.05882355 2:-0.05882355 3:0.375 4:0.375 5:-0.71276656 6:-0.70803668 7:1.0 8:1.0 9:-0.41961075 10:-0.25284052 11:0.07902761 12:-0.18178166 13:-0.55555556 14:-0.77777778 17:0.39999998 18:0.39999998 19:0.39999998 20:0.39999998 21:-1.0 22:-1.0 23:-0.33333333 24:-0.33333333 25:0.20795756 26:0.48145204 27:-0.34341909 28:-0.78721889 29:-0.111084 30:0.59733881 31:-0.03169844 32:-0.06446468 33:1.0 34:1.0 35:-0.87179487 36:-0.87179487 37:0.99863406 38:1.0 39:0.52362759 40:0.52034888 
1.0 1:0.18767505 2:0.18767505 3:0.5 4:0.5 5:-0.16137035 6:-0.10727978 7:1.0 8:1.0 9:-0.88852647 10:-0.59226596 11:0.11321739 12:0.0939947 13:0.33333333 14:0.11111111 15:-0.16666665 16:-0.16666665 17:0.16666667 18:0.16666667 19:0.16666667 20:0.16666667 21:-1.0 22:-1.0 25:-0.07022891 26:0.13026192 27:-0.77699038 28:-0.6858826 29:-0.22262007 30:-0.05553318 31:-0.39500213 32:-0.41121317 33:1.0 34:1.0 35:-0.70512821 36:-0.80769231 37:0.87936819 38:0.87930509 39:0.26823673 40:0.26841284 
1.0 1:9.3373E-4 2:0.07563022 3:0.0625 4:0.0625 5:-0.65553332 6:-0.63961541 7:1.0 8:1.0 9:-0.74587135 10:-0.3711835 11:-0.07050384 12:-0.04015523 13:0.11111111 14:-0.11111111 15:-0.44444445 16:0.1111111 17:-0.22222224 18:-0.22222224 19:-0.22222224 20:-0.02777778 21:-1.0 22:0.11111106 23:1.0 24:1.0 25:-0.37656326 26:-0.17830323 27:-0.42449494 28:-0.94103678 29:-0.86470696 30:-0.07897541 31:-0.40181987 32:-0.43587973 33:1.0 34:1.0 35:-0.8974359 36:-0.98717949 37:0.58543551 38:0.59138629 39:-0.0757087 40:-0.1149465 
1.0 1:0.21008405 2:0.21008405 3:1.0 4:1.0 5:-0.59314663 6:-0.59314663 7:1.0 8:1.0 9:-0.21775625 10:-0.26998112 11:-0.24254295 12:-0.24254295 13:-0.11111111 14:-0.11111111 17:0.39999998 18:0.39999998 19:0.39999998 20:0.39999998 21:-1.0 22:-1.0 23:-0.33333333 24:-0.33333333 25:-0.81207079 26:0.03721236 27:-0.93530954 28:-0.83799483 29:-0.78405323 30:0.15278544 31:-0.87937437 32:-0.48303286 33:-0.78822221 34:-0.78822221 35:-0.76923077 36:0.67948718 37:-0.79221309 38:-0.79246252 39:-0.82841288 40:-0.82847327 
1.0 1:-0.30852342 2:-0.30852342 3:0.58333332 4:0.58333332 5:-0.13179552 6:-0.13179552 7:1.0 8:1.0 9:-0.00335036 10:-0.71666919 11:-0.52035767 12:-0.52035767 13:-0.55555556 14:-0.55555556 15:-0.2857143 16:-0.2857143 17:-3.0E-8 18:-3.0E-8 19:-3.0E-8 20:-3.0E-8 21:-1.0 22:-1.0 23:0.33333333 24:0.33333333 25:-0.40434274 26:-0.10971952 27:-0.8229523 28:-0.8229523 29:-0.37677443 30:-0.19326634 31:-0.67004276 32:-0.42984087 33:1.0 34:1.0 35:-0.92307692 36:-0.92307692 37:0.77358009 38:0.77355123 39:0.08614679 40:0.0861166 
1.0 1:0.07563022 2:0.07563022 3:0.375 4:0.375 5:-0.11069077 6:-0.06814196 7:1.0 8:1.0 9:-0.38437596 10:-0.45603995 11:-0.02190003 12:0.00636868 13:0.33333333 14:0.33333333 15:-0.44444445 16:-0.44444445 17:-0.22222224 18:-0.22222224 19:-0.22222224 20:-0.22222224 21:-1.0 22:-1.0 23:1.0 24:1.0 25:-0.39252069 26:0.19391497 27:-0.89428674 28:-0.84504501 29:-0.43279926 30:0.23183442 31:-0.68073448 32:-0.32207546 33:1.0 34:1.0 35:-0.96153846 36:-0.96153846 37:0.59707164 38:0.59654476 39:-0.14002488 40:-0.13741841 
1.0 1:0.22502333 2:0.15032678 3:-0.25 4:-0.25 5:-0.67592374 6:-0.66697712 7:1.0 8:1.0 9:-0.33051984 10:-0.58647385 11:0.23279847 12:0.2275518 13:0.77777778 14:0.55555556 15:-0.44444445 16:-0.44444445 17:-0.22222224 18:-0.22222224 19:-0.22222224 20:-0.22222224 21:-1.0 22:-1.0 23:1.0 24:1.0 25:0.45266397 26:0.13115218 27:-0.3436898 28:-0.91324039 29:0.08393627 30:-0.10831086 31:0.14855001 32:-0.42254125 33:1.0 34:1.0 35:-0.92307692 36:-0.92307692 37:0.56946684 38:0.57174921 39:-0.00126189 40:-0.00124511 
1.0 1:-0.59663869 2:-0.59663869 3:0.375 4:0.375 5:1.0 6:1.0 9:-0.00386893 10:0.09183768 11:-1.0 12:-1.0 13:-1.0 14:-1.0 15:-1.0 16:-1.0 17:-1.0 18:-1.0 19:-1.0 20:-1.0 21:-1.0 22:-1.0 23:-0.33333333 24:-0.33333333 25:-0.22496764 26:-0.89455405 27:-0.45612432 28:-0.83477021 29:-0.61323847 30:-0.97720276 31:-0.33159514 32:-0.88527072 33:-0.99922143 34:-0.99922143 35:-0.82051282 36:-0.5 37:-0.999374 38:-0.99951679 39:-0.99855538 40:-0.99855538 
1.0 1:0.07563022 2:0.07563022 3:-0.25 4:-0.25 5:-0.33164644 6:-0.30981617 7:1.0 8:-1.0 9:-0.43671087 10:0.29527011 11:0.12037673 12:0.14571731 13:-1.0 14:-1.0 15:-1.0 16:-1.0 17:-1.0 18:-1.0 19:-1.0 20:-1.0 21:-1.0 22:-1.0 23:-0.33333333 24:-1.0 25:1.0 26:0.80561656 27:0.42029202 28:1.0 29:-0.08815854 30:-1.0 31:0.90731964 32:1.0 33:-0.99885599 34:-0.99885599 35:-0.80769231 36:-0.48717949 37:-0.99848572 38:-0.99808325 39:-0.99617031 40:-0.99421597 
1.0 1:0.07563022 2:0.07563022 3:-0.25 4:-0.25 5:1.0 6:1.0 7:1.0 9:-0.1845319 10:-0.31504622 11:0.00539476 12:0.00539476 13:-0.11111111 14:-0.11111111 17:0.39999998 18:0.39999998 19:0.39999998 20:0.39999998 21:-1.0 22:-1.0 23:-0.33333333 24:-0.33333333 25:-0.12342034 26:0.09360074 27:-0.3542964 28:-0.3542964 29:-0.52929214 30:-0.31917987 31:-0.19941578 32:-0.2065572 33:-0.9991976 34:-0.9991976 35:-0.67948718 36:-0.67948718 37:-0.9994275 38:-0.99942356 39:-0.99799987 40:-0.99802402 
1.0 1:0.29971988 2:0.29971988 3:-0.5 4:-0.5 5:0.38875244 6:0.38875244 8:1.0 9:-0.45310683 10:-0.19022552 11:0.21658088 12:0.21658088 13:-0.55555556 14:-0.55555556 15:-0.16666665 16:-0.16666665 17:0.16666667 18:0.16666667 19:0.16666667 20:0.16666667 21:-1.0 22:-1.0 25:0.25375534 26:0.29364892 27:0.19077214 28:-0.14696774 29:-0.77397955 30:-0.38946358 31:0.23902112 32:0.20120713 33:-0.96874615 34:-0.96874615 35:-0.91025641 36:-0.97435897 37:-0.97071376 38:-0.97071836 39:-0.97993076 40:-0.97995592 
0.7389557251242133 1:9.3373E-4 2:-0.05882355 3:-0.875 4:-0.875 5:0.87265675 6:0.77078217 7:1.0 8:-1.0 9:-0.31504622 10:0.83928843 11:-0.10631574 12:-0.19568418 13:0.55555556 14:-0.11111111 15:-0.44444445 17:-0.22222224 18:0.39999998 19:-0.22222224 20:0.39999998 21:-1.0 22:-1.0 23:1.0 24:-0.33333333 25:0.39519622 26:0.11060575 27:-0.31744653 28:0.00218146 29:-0.16289686 30:-0.70500334 31:0.13626933 32:0.15988875 33:-0.99910227 34:-0.99911816 35:-0.82051282 36:-0.37179487 37:-0.99918296 38:-0.99943114 39:-0.99807702 40:-0.9974504 
1.0 1:0.07563022 2:0.07563022 3:1.0 4:1.0 5:-0.0773238 6:-0.0773238 7:1.0 8:1.0 9:-0.69243551 10:-0.30758545 11:0.1545995 12:0.12907745 13:-0.33333333 14:-0.33333333 17:0.39999998 18:0.39999998 19:0.39999998 20:0.39999998 21:-1.0 22:-1.0 23:-0.33333333 24:-0.33333333 25:-0.29200598 26:-0.50186039 27:-0.91732169 28:-0.74954401 29:-0.24400437 30:-0.55101825 31:-0.62119969 32:-0.62367697 33:-0.99405748 34:1.0 35:-0.79487179 36:-0.79487179 37:-0.99455047 38:0.99974711 39:-0.99408112 40:0.52146594 
1.0 1:0.07563022 2:0.07563022 3:-0.0 4:-0.0 5:0.69437623 6:0.69437623 7:1.0 8:1.0 9:-0.00386893 10:0.19755123 11:0.19771874 12:0.19771874 13:-0.77777778 14:-0.77777778 15:-0.16666665 16:-0.16666665 17:0.16666667 18:0.16666667 19:0.16666667 20:0.16666667 21:-1.0 22:-1.0 25:-0.10866002 26:0.08886187 27:-0.60928446 28:-0.8574606 29:-0.36316487 30:0.08406539 31:-0.44943933 32:-0.43588844 33:-0.99955511 34:-0.99961072 35:-0.92307692 36:-0.92307692 37:-0.9995255 38:-0.9996329 39:-0.99943393 40:-0.99977105 
1.0 1:-0.52194214 2:-0.52194214 3:-0.875 4:-0.875 5:-0.22006951 6:-0.24159659 7:1.0 8:1.0 9:-0.80608082 10:-0.80608082 11:-0.60176002 12:-0.60176002 13:-0.77777778 14:-0.77777778 15:-0.44444445 16:-0.44444445 17:-0.22222224 18:-0.22222224 19:-0.22222224 20:-0.22222224 21:-1.0 22:-1.0 23:1.0 24:1.0 25:0.5285778 26:0.44730602 27:0.10968271 28:0.20610313 29:-0.42469706 30:-0.63554386 31:0.30819883 32:0.3322878 33:-0.99811714 34:-0.97126457 35:-0.88461538 36:-0.88461538 37:-0.99857164 38:-0.97710461 39:-0.99884856 40:-0.98750023 
1.0 1:0.61344536 2:0.61344536 3:-0.25 4:-0.25 5:0.19773759 6:-0.4899159 7:1.0 8:1.0 9:-0.60840018 10:-0.60840018 11:0.06358911 12:0.10507308 13:-0.11111111 14:-0.33333333 17:0.39999998 18:0.39999998 19:0.39999998 20:0.39999998 21:-1.0 22:-1.0 23:-0.33333333 24:-0.33333333 25:0.09567963 26:0.2778025 27:-0.40117643 28:-0.67191405 29:-0.128534 30:0.43376221 31:-0.12599173 32:-0.17376002 33:-0.94169497 34:-0.94169497 35:-0.25641026 36:-0.80769231 37:-0.94352691 38:-0.94297587 39:-0.95037712 40:-0.95161494 
1.0 1:-0.32773109 2:-0.32773109 3:1.0 4:1.0 5:-0.48718711 6:-0.68547873 7:1.0 8:1.0 9:-0.62077331 10:-0.49170136 11:-0.34742519 12:-0.38740497 13:-0.55555556 14:-0.11111111 17:0.39999998 18:0.39999998 19:0.39999998 20:0.39999998 21:-1.0 22:-1.0 23:-0.33333333 24:-0.33333333 25:-0.50512653 26:-0.34051301 27:-0.82238545 28:-0.8588667 29:-0.57969045 30:-0.3559178 31:-0.66024086 32:-0.63772505 33:1.0 34:1.0 35:-0.75641026 36:-0.96153846 37:0.99969953 38:0.99968197 39:0.52149009 40:0.52153236 
1.0 1:0.17166867 2:0.17166867 3:0.16666667 4:0.16666667 5:-0.0094334 6:-0.57078319 7:1.0 8:1.0 9:-0.88852647 10:-0.50952082 11:0.09781416 12:0.08707381 13:0.33333333 14:-0.11111111 15:-0.2857143 16:-0.2857143 17:-3.0E-8 18:-3.0E-8 19:-3.0E-8 20:-3.0E-8 21:-1.0 22:-1.0 23:0.33333333 24:0.33333333 25:-0.23808063 26:-0.37774701 27:-0.7069583 28:-0.56416152 29:-0.48379983 30:-0.68832198 31:-0.42502278 32:-0.407311 33:1.0 34:1.0 35:-1.0 36:-1.0 37:0.77246914 38:0.77257761 39:0.08972654 40:0.08933837 
1.0 1:-0.09243696 2:-0.09243696 3:0.28571427 4:0.28571427 5:-0.51522212 6:0.1658693 7:1.0 8:1.0 9:-0.37783304 10:-0.45878623 11:-0.2598661 12:-0.27458463 13:0.11111111 14:-0.11111111 15:-0.375 16:-0.375 17:-0.12500001 18:-0.12500001 19:-0.12500001 20:-0.12500001 21:-1.0 22:-1.0 23:0.66666667 24:0.66666667 25:-0.19526185 26:-0.18212457 27:-0.7972071 28:-0.80901149 29:-0.15460902 30:-0.32065131 31:-0.5064299 32:-0.50109429 33:1.0 34:1.0 35:-0.78205128 36:-0.84615385 37:0.66836172 38:0.68000695 39:0.00207712 40:-0.04463161 
1.0 1:0.07563022 2:0.07563022 3:1.0 4:-0.875 5:-0.41851273 6:-0.41851273 7:1.0 8:1.0 9:-0.62560956 10:-0.08472499 11:-0.14453724 12:-0.14453724 13:-0.33333333 14:-0.33333333 17:0.39999998 18:0.39999998 19:0.39999998 20:0.39999998 21:-1.0 22:-1.0 23:-0.33333333 24:-0.33333333 25:-0.67203874 26:-0.60415107 27:-0.86171285 28:-0.92373802 29:-0.66714734 30:-0.55181672 31:-0.76092417 32:-0.76646968 33:1.0 34:1.0 35:-0.97435897 36:-0.20512821 37:0.95193526 38:0.94331721 39:0.65304892 40:0.68168174 
1.0 1:0.18767505 2:0.18767505 3:0.5 4:-1.0 5:-0.35879095 6:-0.35879095 7:1.0 8:1.0 9:-0.88852647 10:-0.08472499 11:0.2343961 12:0.2343961 13:-0.77777778 14:-0.77777778 15:-0.16666665 16:-0.16666665 17:0.16666667 18:0.16666667 19:0.16666667 20:0.16666667 21:-1.0 22:-1.0 25:-0.34403934 26:-0.44051481 27:-0.72543422 28:-0.65090798 29:-0.55222649 30:-0.70765239 31:-0.54896383 32:-0.55163584 33:-0.87902838 34:-0.87902838 35:-0.82051282 36:-0.96153846 37:-0.88725617 38:-0.88723626 39:-0.92063127 40:-0.92064133 
1.0 1:0.36374549 2:0.36374549 3:-0.66666668 4:0.58333332 5:-0.38284816 6:-0.38284816 7:1.0 8:1.0 9:-0.80527035 10:-0.58466927 11:0.12920738 12:0.12920738 13:0.33333333 14:0.33333333 15:-0.2857143 16:-0.2857143 17:-3.0E-8 18:-3.0E-8 19:-3.0E-8 20:-3.0E-8 21:-1.0 22:-1.0 23:0.33333333 24:0.33333333 25:-0.23660026 26:0.23779791 27:-0.35791425 28:-0.89614116 29:-0.7376755 30:0.07945321 31:-0.29142976 32:-0.32919016 33:1.0 34:1.0 35:-0.94871795 36:-0.92307692 37:0.74672689 38:0.74215904 39:0.18945923 40:0.20351514 
1.0 1:-0.51260507 2:-0.51260507 3:-0.78571428 4:0.28571427 5:-0.17630068 6:-0.17630068 7:1.0 8:1.0 9:-1.0 10:-0.66645766 11:-0.63098182 12:-0.63098182 13:-0.55555556 14:-0.55555556 15:-0.375 16:-0.375 17:-0.12500001 18:-0.12500001 19:-0.12500001 20:-0.12500001 21:-1.0 22:-1.0 23:0.66666667 24:0.66666667 25:0.17681237 26:0.09518462 27:-0.72323945 28:-0.65119866 29:0.0525433 30:-0.29836534 31:-0.27423347 32:-0.25485377 33:-0.76700232 34:-0.76700232 35:-0.85897436 36:-0.96153846 37:-0.80434767 38:-0.8043031 39:-0.88830587 40:-0.88862288 
1.0 1:-0.05882355 2:-0.46218486 3:0.375 4:0.375 5:0.02991739 6:0.06020689 7:1.0 8:1.0 9:-0.14397683 10:0.04786541 11:0.01680958 12:0.0247201 13:-0.55555556 14:-0.55555556 17:0.39999998 18:0.39999998 19:0.39999998 20:0.39999998 21:-1.0 22:-1.0 23:-0.33333333 24:-0.33333333 25:0.60162046 26:0.60162046 27:-0.87704926 28:-0.43225357 29:0.66142166 30:0.45391171 31:-0.00670852 32:0.03050577 33:-0.93583984 34:-0.93583984 35:-0.88461538 36:-0.88461538 37:-0.93730454 38:-0.93648162 39:-0.9473339 40:-0.9496767 
1.0 1:9.3373E-4 2:-0.52194214 3:-0.25 4:-0.25 5:-0.43210152 6:-0.42366709 7:1.0 8:1.0 9:-0.65556168 10:-0.70062693 11:-0.43839318 12:-0.45905609 13:0.33333333 14:-0.33333333 15:0.1111111 16:-0.44444445 17:-0.22222224 18:-0.22222224 19:-0.0925926 20:-0.22222224 21:-0.04370772 22:-1.0 23:1.0 24:1.0 25:-0.16355009 26:-0.00540691 27:-0.58649168 28:-0.4811192 29:-0.58637072 30:-0.47487085 31:-0.33257581 32:-0.33389273 33:1.0 34:1.0 35:-0.94871795 36:-1.0 37:0.60015331 38:0.60074946 39:-0.1522219 40:-0.15427822 
1.0 1:-0.30852342 2:-0.02040816 3:-0.25 4:-0.25 5:0.26868597 6:0.29246537 7:1.0 8:1.0 9:-0.24990922 10:-0.05364423 11:0.04632361 12:0.04067325 13:-0.33333333 14:-0.33333333 15:-0.2857143 16:-0.2857143 17:-3.0E-8 18:-3.0E-8 19:-3.0E-8 20:-3.0E-8 21:-1.0 22:-1.0 23:0.33333333 24:0.33333333 25:0.70091115 26:0.70091115 27:-0.43225357 28:-0.5492806 29:0.45940213 30:0.34707464 31:0.20746272 32:0.23709917 33:-0.93583984 34:-0.93583984 35:-0.93589744 36:-0.93589744 37:-0.94344476 38:-0.94383352 39:-0.96408282 40:-0.9624137 
1.0 1:0.15032678 2:-0.37254903 3:0.375 4:0.375 5:-0.630338 6:-0.60389316 7:1.0 8:1.0 9:-0.76045037 10:-0.57313783 11:-0.05711957 12:-0.07550356 13:-0.11111111 14:-0.33333333 15:0.1111111 16:-0.44444445 17:-0.22222224 18:-0.22222224 19:-0.02777778 20:-0.22222224 21:0.11111106 22:-1.0 23:1.0 24:1.0 25:-0.17830323 26:0.2418041 27:-0.94103678 28:-0.89807124 29:-0.08697124 30:0.04078851 31:-0.45763552 32:-0.44061276 33:1.0 34:1.0 35:-0.98717949 36:-0.88461538 37:0.59136457 38:0.6006187 39:-0.11486935 40:-0.15399309 
1.0 1:0.47899159 2:0.47899159 3:0.375 4:0.375 5:-0.63161419 6:-0.68590872 7:1.0 8:1.0 9:-0.37956489 10:-0.23598443 11:0.10649442 12:-0.17970814 13:-0.77777778 14:-0.55555556 17:0.39999998 18:0.39999998 19:0.39999998 20:0.39999998 21:-1.0 22:-1.0 23:-0.33333333 24:-0.33333333 25:-0.71225337 26:-0.58823839 27:-0.66946955 28:-0.76867646 29:-0.94419902 30:-0.71093855 31:-0.70923315 32:-0.70956726 33:-0.82831834 34:-0.82831834 35:-0.91025641 36:-0.79487179 37:-0.82922138 38:-0.82965404 39:-0.86486509 40:-0.8647564 
1.0 1:-0.05882355 2:-0.05882355 3:0.375 4:0.375 5:-0.71276656 6:-0.70803668 7:1.0 8:1.0 9:-0.41961075 10:-0.25284052 11:0.07902761 12:-0.18178166 13:-0.55555556 14:-0.77777778 17:0.39999998 18:0.39999998 19:0.39999998 20:0.39999998 21:-1.0 22:-1.0 23:-0.33333333 24:-0.33333333 25:0.20795756 26:0.48145204 27:-0.34341909 28:-0.78721889 29:-0.111084 30:0.59733881 31:-0.03169844 32:-0.06446468 33:1.0 34:1.0 35:-0.87179487 36:-0.87179487 37:0.99863406 38:1.0 39:0.52362759 40:0.52034888 
1.0 1:-0.29785248 2:-0.22315593 3:0.6875 4:0.6875 5:0.10316502 6:0.00161891 7:1.0 8:1.0 9:-0.47664909 10:-0.36047022 11:-0.62371893 12:-0.47311077 13:-0.11111111 14:-0.11111111 15:-0.44444445 16:-0.44444445 17:-0.22222224 18:-0.22222224 19:-0.22222224 20:-0.22222224 21:-1.0 22:-1.0 23:1.0 24:1.0 25:0.05526045 26:-0.05330435 27:-0.92292606 28:-0.89962402 29:0.06552131 30:-0.00267344 31:-0.49625811 32:-0.48012585 33:1.0 34:1.0 35:-0.93589744 36:-0.93589744 37:0.59562549 38:0.60083461 39:-0.13337287 40:-0.1549659 
1.0 1:-0.21248498 2:-0.21248498 3:1.0 4:1.0 5:-0.40596938 6:-0.48125309 7:1.0 8:1.0 9:-0.53458067 10:-0.61405006 11:-0.40181113 12:-0.4379178 13:-0.11111111 14:0.33333333 15:-0.2857143 16:-0.2857143 17:-3.0E-8 18:-3.0E-8 19:-3.0E-8 20:-3.0E-8 21:-1.0 22:-1.0 23:0.33333333 24:0.33333333 25:0.021125 26:0.021125 27:-0.80782538 28:-0.9032828 29:-0.01184767 30:0.28564832 31:-0.42229892 32:-0.43899458 33:1.0 34:1.0 35:-0.87179487 36:-0.87179487 37:0.77228198 38:0.77293439 39:0.0901794 40:0.0930432 
1.0 1:0.18767505 2:0.18767505 3:0.5 4:0.5 5:-0.16137035 6:-0.10727978 7:1.0 8:1.0 9:-0.88852647 10:-0.59226596 11:0.11321739 12:0.0939947 13:0.33333333 14:0.11111111 15:-0.16666665 16:-0.16666665 17:0.16666667 18:0.16666667 19:0.16666667 20:0.16666667 21:-1.0 22:-1.0 25:-0.07022891 26:0.13026192 27:-0.77699038 28:-0.6858826 29:-0.22262007 30:-0.05553318 31:-0.39500213 32:-0.41121317 33:1.0 34:1.0 35:-0.70512821 36:-0.80769231 37:0.87936819 38:0.87930509 39:0.26823673 40:0.26841284 
1.0 1:0.07563022 2:9.3373E-4 3:0.0625 4:0.0625 5:-0.63961541 6:-0.65553332 7:1.0 8:1.0 9:-0.3711835 10:-0.74587135 11:-0.04015523 12:-0.07050384 13:-0.11111111 14:0.11111111 15:0.1111111 16:-0.44444445 17:-0.22222224 18:-0.22222224 19:-0.02777778 20:-0.22222224 21:0.11111106 22:-1.0 23:1.0 24:1.0 25:-0.17830323 26:-0.37656326 27:-0.94103678 28:-0.42449494 29:-0.07897541 30:-0.86470696 31:-0.43587973 32:-0.40181987 33:1.0 34:1.0 35:-0.98717949 36:-0.8974359 37:0.59138629 38:0.58543551 39:-0.1149465 40:-0.0757087 
1.0 1:-0.07376282 2:-0.07376282 3:0.375 4:0.375 5:-0.54298336 6:-0.56475532 7:1.0 8:1.0 9:-0.74567822 10:-0.40179578 11:0.03506447 12:0.05649048 13:-0.11111111 14:-0.11111111 15:-0.44444445 16:-0.44444445 17:-0.22222224 18:-0.22222224 19:-0.22222224 20:-0.22222224 21:-1.0 22:-1.0 23:1.0 24:1.0 25:0.34684037 26:0.42662753 27:-0.89195686 28:-0.89195686 29:0.17881202 30:0.30202031 31:-0.44742844 32:-0.47806703 33:1.0 34:1.0 35:-0.61538462 36:-0.80769231 37:0.59505475 38:0.59809549 39:-0.13207802 40:-0.14404694 
1.0 1:0.21008405 2:0.21008405 3:1.0 4:1.0 5:-0.59314663 6:-0.59314663 7:1.0 8:1.0 9:-0.21775625 10:-0.26998112 11:-0.24254295 12:-0.24254295 13:-0.11111111 14:-0.11111111 17:0.39999998 18:0.39999998 19:0.39999998 20:0.39999998 21:-1.0 22:-1.0 23:-0.33333333 24:-0.33333333 25:-0.81207079 26:0.03721236 27:-0.93530954 28:-0.83799483 29:-0.78405323 30:0.15278544 31:-0.87937437 32:-0.48303286 33:-0.78822221 34:-0.78822221 35:-0.76923077 36:0.67948718 37:-0.79221309 38:-0.79246252 39:-0.82841288 40:-0.82847327 
1.0 1:-0.30852342 2:-0.30852342 3:0.58333332 4:0.58333332 5:-0.13179552 6:-0.13179552 7:1.0 8:1.0 9:-0.00335036 10:-0.71666919 11:-0.52035767 12:-0.52035767 13:-0.55555556 14:-0.55555556 15:-0.2857143 16:-0.2857143 17:-3.0E-8 18:-3.0E-8 19:-3.0E-8 20:-3.0E-8 21:-1.0 22:-1.0 23:0.33333333 24:0.33333333 25:-0.40434274 26:-0.10971952 27:-0.8229523 28:-0.8229523 29:-0.37677443 30:-0.19326634 31:-0.67004276 32:-0.42984087 33:1.0 34:1.0 35:-0.92307692 36:-0.92307692 37:0.77358009 38:0.77355123 39:0.08614679 40:0.0861166 
1.0 1:0.07563022 2:0.07563022 3:0.375 4:0.375 5:-0.06814196 6:-0.11069077 7:1.0 8:1.0 9:-0.45603995 10:-0.38437596 11:0.00636868 12:-0.02190003 13:0.33333333 14:0.33333333 15:-0.44444445 16:-0.44444445 17:-0.22222224 18:-0.22222224 19:-0.22222224 20:-0.22222224 21:-1.0 22:-1.0 23:1.0 24:1.0 25:0.19391497 26:-0.39252069 27:-0.84504501 28:-0.89428674 29:0.23183442 30:-0.43279926 31:-0.32207546 32:-0.68073448 33:1.0 34:1.0 35:-0.96153846 36:-0.96153846 37:0.59654476 38:0.59707164 39:-0.13741841 40:-0.14002488 
1.0 1:0.22502333 2:0.15032678 3:-0.25 4:-0.25 5:-0.67592374 6:-0.66697712 7:1.0 8:1.0 9:-0.33051984 10:-0.58647385 11:0.23279847 12:0.2275518 13:0.77777778 14:0.55555556 15:-0.44444445 16:-0.44444445 17:-0.22222224 18:-0.22222224 19:-0.22222224 20:-0.22222224 21:-1.0 22:-1.0 23:1.0 24:1.0 25:0.45266397 26:0.13115218 27:-0.3436898 28:-0.91324039 29:0.08393627 30:-0.10831086 31:0.14855001 32:-0.42254125 33:1.0 34:1.0 35:-0.92307692 36:-0.92307692 37:0.56946684 38:0.57174921 39:-0.00126189 40:-0.00124511 
1.0 1:-0.59663869 2:-0.59663869 3:0.375 4:0.375 5:1.0 6:1.0 9:-0.00386893 10:0.09183768 11:-1.0 12:-1.0 13:-1.0 14:-1.0 15:-1.0 16:-1.0 17:-1.0 18:-1.0 19:-1.0 20:-1.0 21:-1.0 22:-1.0 23:-0.33333333 24:-0.33333333 25:-0.22496764 26:-0.89455405 27:-0.45612432 28:-0.83477021 29:-0.61323847 30:-0.97720276 31:-0.33159514 32:-0.88527072 33:-0.99922143 34:-0.99922143 35:-0.82051282 36:-0.5 37:-0.999374 38:-0.99951679 39:-0.99855538 40:-0.99855538 
-0.18106184821366453 1:-0.59663869 2:-0.59663869 3:-0.25 4:-0.25 5:1.0 6:1.0 7:-1.0 8:1.0 9:1.0 10:-0.23469045 11:-1.0 12:-1.0 13:-1.0 14:-1.0 15:-1.0 16:-1.0 17:-1.0 18:-1.0 19:-1.0 20:-1.0 21:-1.0 22:-1.0 23:-1.0 24:-0.33333333 25:-0.4994355 26:-0.13067373 27:-0.41856485 28:-0.79158111 29:-0.96227456 30:-0.08762264 31:-0.4504961 32:-0.42323998 33:-0.99989672 34:-0.99922143 35:-0.71794872 36:-0.88461538 37:-0.99957088 38:-0.99932553 39:-0.99866406 40:-0.99909881 
-1.0 1:-0.37254903 2:-0.2605042 3:1.0 4:1.0 5:-0.30981617 6:-0.30981617 7:-1.0 9:-0.30787041 10:-0.43345373 11:0.16072293 12:0.18851383 13:-1.0 14:-1.0 15:-1.0 16:-1.0 17:-1.0 18:-1.0 19:-1.0 20:-1.0 21:-1.0 22:-1.0 23:-1.0 24:-0.66666667 25:0.00442045 26:-0.01552634 27:-0.54720103 28:-0.33132717 29:-0.02456215 30:-0.40306129 31:-0.23955387 32:-0.21522339 33:-0.99924527 34:-0.99992055 35:-0.8974359 36:-0.91025641 37:-0.99917738 38:-0.99960627 39:-0.99886533 40:-0.99918485 
-1.0 1:-0.32773109 2:-0.32773109 3:1.0 4:1.0 5:0.18500326 6:0.18500326 7:1.0 9:-0.22337665 10:-0.22337665 11:-0.78101761 12:-0.78101761 13:-0.77777778 14:-0.77777778 17:0.39999998 18:0.39999998 19:0.39999998 20:0.39999998 21:-1.0 22:-1.0 23:-0.33333333 24:-0.33333333 25:-0.6129523 26:-0.6129523 27:-0.84352938 28:-0.82100582 29:-0.63255586 30:-0.65922331 31:-0.67287843 32:-0.6670659 33:-0.8775507 34:-0.8775507 35:-0.5 36:-0.5 37:-0.87804859 38:-0.87804859 39:-0.90539303 40:-0.90539303 
-1.0 1:0.24369747 2:0.24369747 3:0.16666667 4:0.16666667 5:0.4460569 6:0.4460569 7:-1.0 9:-0.23469045 10:-0.3556228 11:-0.11761341 12:-0.11761341 13:-0.77777778 14:-0.77777778 15:0.25 16:0.25 17:0.74999997 18:0.74999997 19:0.74999997 20:0.74999997 21:-1.0 22:-1.0 23:-0.66666667 24:-0.66666667 25:-0.35794625 26:-0.35794625 27:-0.7425905 28:-0.59132122 29:-0.40323117 30:-0.59863236 31:-0.49756553 32:-0.46828762 33:-1.0 34:-1.0 35:-0.87179487 36:-0.87179487 37:-0.99989733 38:-0.99989733 39:-0.99971319 40:-0.99971319 
-1.0 1:-0.2605042 2:-0.2605042 3:-0.0 4:-0.0 5:0.1824564 6:0.1824564 7:1.0 9:0.00737305 10:0.00737305 11:0.27737013 12:0.27737013 13:-0.11111111 14:-0.33333333 15:-0.16666665 16:-0.16666665 17:0.16666667 18:0.16666667 19:0.16666667 20:0.16666667 21:-1.0 22:-1.0 25:0.29030054 26:0.24375803 27:-0.89277083 28:-0.94751557 29:0.61115096 30:0.67573294 31:-0.18739527 32:-0.18450888 33:-0.98425391 34:-0.98425391 35:-0.57692308 36:-0.57692308 37:-0.98582431 38:-0.98601829 39:-0.98781555 40:-0.98761428 
-1.0 1:0.07563022 2:0.07563022 3:0.16666667 4:0.16666667 5:0.01763787 6:0.01763787 9:-0.34045875 10:-0.38487104 11:0.16904278 12:0.16904278 13:-0.77777778 14:-0.77777778 15:0.25 16:0.25 17:0.74999997 18:0.74999997 19:0.74999997 20:0.74999997 21:-1.0 22:-1.0 23:-0.66666667 24:-0.66666667 25:0.2005639 26:0.0651675 27:-0.34510154 28:-0.34510154 29:-0.15135208 30:-0.35077855 31:-0.09951971 32:-0.13554042 33:-0.99997617 34:-0.99997617 35:-0.94871795 36:-0.73076923 37:-0.99992234 38:-1.0 39:-1.0 40:-0.99987169 
-1.0 1:-0.05882355 2:-0.05882355 3:0.375 4:0.375 5:-0.70931012 6:-0.70931012 7:1.0 8:1.0 9:-0.26939513 10:-0.39936034 11:-0.17732112 12:-0.17732112 13:-0.77777778 14:-1.0 16:-1.0 17:0.39999998 18:-1.0 19:0.39999998 20:-1.0 21:-1.0 22:-1.0 23:-0.33333333 24:-0.33333333 25:0.38899056 26:0.40869415 27:0.22127479 28:0.24593992 29:-0.63075792 30:-0.66643804 31:0.35798373 32:0.37323034 33:-0.88991241 34:-0.99903077 35:-0.79487179 36:-0.80769231 37:-0.8935384 38:-0.99923999 39:-0.87286561 40:-0.998495 
-0.749677294861167 1:0.26770711 2:0.17166867 3:0.16666667 4:0.16666667 5:-0.53612803 6:-0.50672325 7:1.0 8:1.0 9:-0.36703106 10:-0.86588539 11:0.1291939 12:0.11610988 13:0.11111111 14:1.0 15:-0.2857143 16:-0.2857143 17:-3.0E-8 18:-3.0E-8 19:-3.0E-8 20:-3.0E-8 21:-1.0 22:-1.0 23:0.33333333 24:0.33333333 25:0.04630871 26:-0.18799648 27:-0.91324039 28:-0.85456399 29:0.13998183 30:-0.22520333 31:-0.39259092 32:-0.39771436 33:-0.82831834 34:1.0 35:-0.98717949 36:-0.88461538 37:-0.85021334 38:0.74646983 39:-0.89617108 40:0.19084369 
-1.0 1:0.17166867 2:0.17166867 3:-0.25 4:-0.25 5:-0.15457869 6:-0.08939109 7:1.0 8:1.0 9:-0.09175098 10:-0.09175098 11:0.16304689 12:0.16304689 13:-0.11111111 14:-0.33333333 15:-0.2857143 16:-0.2857143 17:-3.0E-8 18:-3.0E-8 19:-3.0E-8 20:-3.0E-8 21:-1.0 22:-1.0 23:0.33333333 24:0.33333333 25:0.18333552 26:0.14948642 27:-0.78649927 28:-0.88771014 29:0.23622053 30:0.24446768 31:-0.11613952 32:-0.1093342 33:-0.96510755 34:-0.84610618 35:-0.94871795 36:-0.75641026 37:-0.96278715 38:-0.86625128 39:-0.96384129 40:-0.89916427 
-1.0 1:0.61344536 2:0.61344536 3:1.0 4:1.0 5:-0.55069654 6:-0.86414282 7:1.0 8:1.0 9:-0.58816236 10:-0.50607301 11:0.10409039 12:0.1439002 13:-1.0 14:-1.0 15:-1.0 16:-1.0 17:-1.0 18:-1.0 19:-1.0 20:-1.0 21:-1.0 22:-1.0 23:-0.33333333 24:-0.33333333 25:0.16548838 26:0.02896368 27:-0.77038524 28:-0.70787029 29:0.27690747 30:0.03744284 31:-0.39484423 32:-0.40656225 33:-0.97738982 34:-0.97738982 35:-0.96153846 36:-0.97435897 37:-0.9777069 38:-0.97755446 39:-0.98175729 40:-0.98176333 
-1.0 1:0.21008405 2:0.21008405 3:0.375 4:0.375 5:-0.19100659 6:-0.48516946 7:1.0 8:1.0 9:-0.58247317 10:-0.32141888 11:-0.43067126 12:-0.40992925 13:-0.77777778 14:-0.77777778 17:0.39999998 18:0.39999998 19:0.39999998 20:0.39999998 21:-1.0 22:-1.0 23:-0.33333333 24:-0.33333333 25:-0.25339187 26:-0.25339187 27:-0.41671365 28:-0.56986283 29:-0.65070762 30:-0.52971284 31:-0.33879134 32:-0.32849392 33:-0.95479553 34:-0.95479553 35:-0.42307692 36:-0.3974359 37:-0.95625329 38:-0.95610618 39:-0.96182542 40:-0.96215148 
-1.0 1:0.07563022 2:0.07563022 3:0.58333332 4:0.58333332 5:-0.48697054 6:-0.0742745 7:1.0 8:1.0 9:-0.34507674 10:-0.70654356 11:-0.0449611 12:-0.03560847 13:-0.77777778 14:-0.77777778 15:-0.2857143 16:-0.2857143 17:-3.0E-8 18:-3.0E-8 19:-3.0E-8 20:-3.0E-8 21:-1.0 22:-1.0 23:0.33333333 24:0.33333333 25:0.2005639 26:-0.03409058 27:-0.89863077 28:-0.60632907 29:0.26655093 30:-0.25294624 31:-0.22790236 32:-0.26218139 33:-0.45050746 34:-0.45050746 35:-0.97435897 36:-0.92307692 37:-0.51305365 38:-0.51293085 39:-0.7004062 40:-0.70065204 
-1.0 1:-0.14845937 2:-0.14845937 3:0.5 4:0.5 5:-0.45965672 6:-0.63005411 7:1.0 8:1.0 9:-0.79156685 10:-0.63207845 11:-0.18552088 12:-0.18908483 13:-0.77777778 14:-0.55555556 15:-0.16666665 16:-0.16666665 17:0.16666667 18:0.16666667 19:0.16666667 20:0.16666667 21:-1.0 22:-1.0 25:0.3698094 26:0.08539242 27:-0.79756784 28:-0.7152879 29:0.49347475 30:0.08048748 31:-0.38952836 32:-0.41156189 33:1.0 34:1.0 35:-0.87179487 36:-0.91025641 37:0.87827436 38:0.87423356 39:0.27172879 40:0.28556617 
-1.0 1:9.3373E-4 2:9.3373E-4 3:0.0625 4:0.0625 5:0.44401033 6:-0.4333947 7:1.0 8:1.0 9:-0.27381275 10:-0.44732247 11:-0.04438037 12:-0.05939485 13:0.33333333 14:0.33333333 15:-0.44444445 16:-0.44444445 17:-0.22222224 18:-0.22222224 19:-0.22222224 20:-0.22222224 21:-1.0 22:-1.0 23:1.0 24:1.0 25:-0.16439053 26:-0.34051301 27:-0.71571747 28:-0.72666037 29:-0.28520417 30:-0.42791784 31:-0.52281088 32:-0.53795848 33:1.0 34:1.0 35:-0.87179487 36:-0.96153846 37:0.60066799 38:0.60073367 39:-0.15400315 40:-0.1542279 
-1.0 1:0.52380954 2:0.52380954 3:-0.5 4:1.0 5:-0.33164644 6:-0.33164644 7:1.0 8:1.0 9:-0.21869135 10:-0.22676375 11:0.13349456 12:0.13349456 13:-0.11111111 14:-0.11111111 15:-0.16666665 16:-0.16666665 17:0.16666667 18:0.16666667 19:0.16666667 20:0.16666667 21:-1.0 22:-1.0 25:0.41332967 26:0.41332967 27:-1.0 28:-1.0 29:0.62303623 30:0.74519161 31:-0.56349653 32:-0.54121195 33:-0.48246837 34:-0.48246837 35:-0.87179487 36:-0.88461538 37:-0.51856202 38:-0.51856011 39:-0.65715736 40:-0.65716239 
-1.0 1:-0.21248498 2:-0.21248498 3:-0.66666668 4:1.0 5:-0.22734628 6:-0.19854245 7:1.0 8:1.0 9:-0.31053427 10:-0.32408566 11:-0.24893615 12:-0.24893615 13:-0.11111111 14:0.11111111 15:0.42857145 16:-0.2857143 17:-3.0E-8 18:-3.0E-8 19:0.24999999 20:-3.0E-8 21:0.42857149 22:-1.0 23:0.33333333 24:0.33333333 25:0.0426605 26:0.14747482 27:-0.93943403 28:-0.93166503 29:0.34898943 30:0.15068095 31:-0.60701563 32:-0.62817759 33:1.0 34:1.0 35:-0.94871795 36:-0.8974359 37:0.77305904 38:0.77117269 39:0.08842403 40:0.09378934 
-1.0 1:9.3373E-4 2:9.3373E-4 3:-0.5625 4:0.0625 5:-0.42632008 6:-0.45110652 7:1.0 8:1.0 9:0.05413112 10:-0.58581656 11:0.04955313 12:0.05008757 13:-0.33333333 14:-0.33333333 15:-0.44444445 16:-0.44444445 17:-0.22222224 18:-0.22222224 19:-0.22222224 20:-0.22222224 21:-1.0 22:-1.0 23:1.0 24:1.0 25:-0.06539332 26:-0.02815931 27:-0.86099626 28:-0.75533442 29:-0.24242763 30:-0.19961198 31:-0.34672296 32:-0.37241714 33:1.0 34:1.0 35:-0.94871795 36:-0.96153846 37:0.60083069 38:0.60089382 39:-0.15490887 40:-0.15497932 
-1.0 1:1.0 2:1.0 3:-0.78571428 4:0.28571427 5:-0.45290559 6:-0.45290559 7:1.0 8:1.0 9:-0.43959264 10:-0.16968019 11:0.26187632 12:0.26187632 13:0.33333333 14:0.11111111 15:0.25 16:0.25 17:-0.12500001 18:-0.12500001 19:0.02083329 20:0.04999998 21:0.07582872 22:0.15470054 23:0.66666667 24:0.66666667 25:-0.5378023 26:-0.04766284 27:-0.78615242 28:-0.85593222 29:-0.7102228 30:-0.14439689 31:-0.69984119 32:-0.68754651 33:-0.82583169 34:-0.82583169 35:-0.97435897 36:-0.97435897 37:-0.81781626 38:-0.81779413 39:-0.81428215 40:-0.81430101 
-1.0 1:0.47899159 2:0.07563022 3:0.375 4:0.375 5:-0.56632184 6:-0.57905617 7:1.0 8:1.0 9:0.28235804 10:-0.22391719 11:0.53889448 12:0.52574375 13:-0.33333333 14:-0.33333333 17:0.39999998 18:0.39999998 19:0.39999998 20:0.39999998 21:-1.0 22:-1.0 23:-0.33333333 24:-0.33333333 25:-0.44487931 26:-0.39762669 27:-0.89243731 28:-0.89607624 29:-0.2815125 30:-0.14130537 31:-0.65903534 32:-0.64060232 33:-0.60135852 34:-0.60135852 35:-0.6025641 36:-0.57692308 37:-0.6208675 38:-0.62126152 39:-0.57978071 40:-0.57900783 
-1.0 1:0.52380954 2:0.07563022 3:0.5 4:0.5 5:-0.57164712 6:-0.50349919 7:1.0 8:1.0 9:-0.30920234 10:-0.33655464 11:0.35274064 12:0.33176681 13:-0.11111111 14:-0.11111111 15:-0.16666665 16:-0.16666665 17:0.16666667 18:0.16666667 19:0.16666667 20:0.16666667 21:-1.0 22:-1.0 25:-0.38437463 26:-0.38437463 27:-0.75297821 28:-0.89561647 29:-0.50220349 30:-0.32374585 31:-0.65036999 32:-0.66640197 33:1.0 34:1.0 35:-0.92307692 36:-0.87179487 37:0.87393258 38:0.87026068 39:0.28333709 40:0.29403465 
-1.0 1:0.29971988 2:-0.37254903 3:1.0 4:1.0 5:-0.58499885 6:-0.49118934 7:1.0 8:1.0 9:-0.62471953 10:-0.65011599 11:0.10310621 12:0.13817329 13:0.11111111 14:0.11111111 15:-0.16666665 16:-0.16666665 17:0.16666667 18:0.16666667 19:0.16666667 20:0.16666667 21:-1.0 22:-1.0 25:-0.15672371 26:-0.16891205 27:-0.87175891 28:-0.85229901 29:-0.00636957 30:-0.15400206 31:-0.61770059 32:-0.62222574 33:1.0 34:1.0 35:-0.94871795 36:-0.70512821 37:0.87890895 38:0.87922912 39:0.26919277 40:0.26829711 
-1.0 1:0.22502333 2:0.59850609 3:-0.5625 4:-0.5625 5:-0.23363762 6:-0.25751449 7:1.0 8:1.0 9:-0.49435066 10:-0.08427368 11:0.05443668 12:0.10749389 13:-0.33333333 14:-0.33333333 15:-0.44444445 16:-0.44444445 17:-0.22222224 18:-0.22222224 19:-0.22222224 20:-0.22222224 21:-1.0 22:-1.0 23:1.0 24:1.0 25:0.30958534 26:0.50798255 27:-0.58193844 28:-0.9012366 29:-0.0534418 30:0.63444395 31:0.01656311 32:-0.03519696 33:-0.86362391 34:-0.85118274 35:-0.67948718 36:-0.78205128 37:-0.88726988 38:-0.87781501 39:-0.91364045 40:-0.90923932 
-1.0 1:0.21008405 2:0.21008405 3:-0.25 4:-0.25 5:-0.22931705 6:-0.11880132 7:1.0 8:1.0 9:-0.80527035 10:-0.43959264 11:0.07757217 12:0.36623619 13:-0.33333333 14:-0.55555556 17:0.39999998 18:0.39999998 19:0.39999998 20:0.39999998 21:-1.0 22:-1.0 23:-0.33333333 24:-0.33333333 25:0.17106848 26:0.17106848 27:-0.45646913 28:-0.42328296 29:-0.10348922 30:-0.08828176 31:-0.0430996 32:-0.03766349 33:-0.84610618 34:-0.84610618 35:-0.98717949 36:-0.83333333 37:-0.84703102 38:-0.84638342 39:-0.88055216 40:-0.88243002 
-1.0 1:-1.0 2:-1.0 3:-0.875 4:-0.875 5:-0.337104 6:-0.337104 7:1.0 8:1.0 9:-0.26625159 10:-0.26625159 11:-0.58876893 12:-0.41170682 13:-0.55555556 14:-0.55555556 17:0.39999998 18:0.39999998 19:0.39999998 20:0.39999998 21:-1.0 22:-1.0 23:-0.33333333 24:-0.33333333 25:0.01032308 26:0.01032308 27:-0.49827517 28:-0.49827517 29:-0.24246232 30:-0.24246232 31:-0.22386196 32:-0.22386196 33:-0.97835111 34:-0.97835111 35:-0.78205128 36:-0.94871795 37:-0.97908916 38:-0.97903508 39:-0.97245857 40:-0.97253706 
-1.0 1:-0.46218486 2:-0.46218486 3:1.0 4:1.0 5:-0.36302746 6:-0.42633523 7:1.0 8:1.0 9:-0.75250957 10:-0.49211284 11:-0.54850413 12:-0.01455331 13:-0.33333333 14:-0.33333333 17:0.39999998 18:0.39999998 19:0.39999998 20:0.39999998 21:-1.0 22:-1.0 23:-0.33333333 24:-0.33333333 25:0.0651675 26:-0.03710209 27:-0.91045353 28:-0.91045353 29:0.16127258 30:0.04301434 31:-0.50230104 32:-0.5133561 33:1.0 34:1.0 35:-0.94871795 36:-0.91025641 37:0.99998412 38:0.99298962 39:0.52033681 40:0.53744887 
-1.0 1:-0.21248498 2:-0.21248498 3:-0.25 4:-0.25 5:-0.58568322 6:-0.59209369 7:1.0 8:1.0 9:-0.05012013 10:-0.50115138 11:0.06541672 12:-0.2114222 13:-0.11111111 14:0.11111111 15:-0.2857143 16:-0.2857143 17:-3.0E-8 18:-3.0E-8 19:-3.0E-8 20:-3.0E-8 21:-1.0 22:-1.0 23:0.33333333 24:0.33333333 25:0.07483866 26:0.07483866 27:-0.75453281 28:-0.81219076 29:-0.1672624 30:-0.13185787 31:-0.26601878 32:-0.30272514 33:1.0 34:1.0 35:-0.97435897 36:-0.96153846 37:0.7731928 38:0.77204972 39:0.08743205 40:0.11652291 
-1.0 1:0.47899159 2:0.47899159 3:-0.25 4:-0.25 5:-0.42406125 6:-0.37530698 7:1.0 8:1.0 9:-0.92650039 10:-0.92650039 11:0.65895407 12:0.64550062 13:-0.33333333 14:-0.55555556 17:0.39999998 18:0.39999998 19:0.39999998 20:0.39999998 21:-1.0 22:-1.0 23:-0.33333333 24:-0.33333333 25:-0.09428332 26:-0.09428332 27:-0.50015498 28:-0.47639111 29:-0.38284654 30:-0.39889089 31:-0.33140117 32:-0.32508802 33:1.0 34:1.0 35:-0.8974359 36:-0.85897436 37:0.89678762 38:0.89677719 39:0.99998189 40:1.0 
