svm_type c_svc
kernel_type rbf
gamma 0.025
nr_class 3
total_sv 490
rho 0.0 -0.9866241918689914 -0.9866241918689914
label 0 1 2
nr_sv 222 222 46
SV
1.0 0.0 1:0.09090908 2:0.09090908 3:-0.14285714 4:-0.14285714 5:1.0 6:1.0 7:1.0 8:-1.0 9:-0.31504622 10:0.83928843 11:0.72954568 12:0.72954568 13:-0.33333333 14:-0.77777778 15:-0.2 16:0.33333332 17:0.20000001 18:1.0 19:0.20000001 20:1.0 21:-1.0 22:-1.0 23:-0.33333333 24:-1.0 25:0.13550384 26:0.0299369 27:-0.03797314 28:0.59452202 29:-0.30456961 30:-0.84169367 31:0.25404549 32:0.30885746 33:-0.99820453 34:-0.99885599 35:-0.75949367 36:1.0 37:-0.99853839 38:-0.99941859 39:-0.99616279 40:-0.99664754 
1.0 0.00566176517089466 1:-0.51515151 2:-0.51515151 3:-0.14285714 4:-0.14285714 5:1.0 6:1.0 7:1.0 9:-0.3556228 10:-0.3556228 11:-1.0 12:-1.0 13:-1.0 14:-1.0 15:-1.0 16:-1.0 17:-1.0 18:-1.0 19:-1.0 20:-1.0 21:-1.0 22:-1.0 23:-0.33333333 24:-0.33333333 25:-0.29999567 26:-0.29560056 27:-0.62224287 28:-0.70014549 29:-0.30350988 30:-0.25357615 31:-0.3631165 32:-0.37758154 33:-0.99922143 34:-0.99922143 35:-0.58227848 36:-0.7721519 37:-0.99945062 38:-0.99940409 39:-0.99888075 40:-0.99888075 
1.0 0.0 1:0.24242424 2:0.17748919 3:-0.52380953 4:-0.52380953 5:0.61797027 6:0.78169729 8:1.0 9:0.83928843 10:-0.31504622 11:0.72954568 12:0.72954568 13:-0.77777778 14:-0.77777778 16:-0.42857144 17:0.50000002 18:-0.14285715 19:0.50000002 20:-0.14285715 21:-1.0 22:-1.0 23:-0.66666667 24:0.33333333 25:0.25490372 26:0.26201752 27:0.71871462 28:0.22819418 29:-0.69327412 30:-0.41923662 31:0.5101577 32:0.50435003 33:-0.99890365 34:-0.99885599 35:-0.55696203 36:-0.67088608 37:-0.99919324 38:-0.99902626 39:-0.99791232 40:-0.9981051 
1.0 0.19759719265546835 1:0.09090908 2:0.09090908 3:0.54285714 4:0.54285714 5:0.33144799 6:0.33144799 7:1.0 9:-0.56609858 10:-0.67781138 11:0.32037437 12:0.32037437 13:-0.55555556 14:-0.55555556 15:-0.33333332 16:-0.33333332 17:3.0E-8 18:3.0E-8 19:3.0E-8 20:3.0E-8 21:-1.0 22:-1.0 25:-0.00752457 26:-0.00752457 27:-0.75709186 28:-0.75709186 29:-0.08028667 30:-0.04632245 31:-0.38901041 32:-0.41831175 33:-0.82561719 34:-0.82561719 35:-0.91139241 36:-0.91139241 37:-0.84596652 38:-0.84596652 39:-0.88354223 40:-0.88354223 
1.0 0.0 1:0.59595962 2:0.59595962 3:0.08571429 4:0.08571429 5:-0.13759961 6:-0.13759961 8:1.0 9:-0.23526451 10:-0.16324778 11:0.96064605 12:0.96064605 13:-0.33333333 14:-0.33333333 15:-0.33333332 16:-0.33333332 17:3.0E-8 18:3.0E-8 19:3.0E-8 20:3.0E-8 21:-1.0 22:-1.0 25:-0.35120656 26:-0.35120656 27:-0.81792685 28:-0.8187438 29:-0.43269702 30:-0.43217963 31:-0.47708577 32:-0.4772194 33:-0.99725913 34:-0.99725913 35:-0.97468354 36:-0.97468354 37:-0.99719659 38:-0.99719659 39:-0.99639352 40:-0.99639352 
1.0 0.0 1:-0.25541124 2:-0.25541124 3:0.23809525 4:0.23809525 5:-0.05642911 6:-0.05642911 7:1.0 8:1.0 9:-0.33791411 10:-0.33791411 11:-0.33478033 12:-0.33478033 13:-0.11111111 14:0.11111111 15:-0.42857144 16:-0.42857144 17:-0.14285715 18:-0.14285715 19:-0.14285715 20:-0.14285715 21:-1.0 22:-1.0 23:0.33333333 24:0.33333333 25:-0.0653894 26:0.08511141 27:-0.37518023 28:-0.16233034 29:-0.48177927 30:-0.38376935 31:-0.15839655 32:-0.15829464 33:-0.97835111 34:-0.96593378 35:-0.88607595 36:-0.79746835 37:-0.98236874 38:-0.9722188 39:-0.98577178 40:-0.97807423 
1.0 0.0 1:0.09090908 2:0.09090908 3:0.42857143 4:0.42857143 5:-0.09005814 6:-0.0773238 7:1.0 8:1.0 9:0.19755123 10:0.19755123 11:-0.00953921 12:-0.00953921 13:-0.55555556 14:-0.55555556 15:-0.2 16:-0.2 17:0.20000001 18:0.20000001 19:0.20000001 20:0.20000001 21:-1.0 22:-1.0 23:-0.33333333 24:-0.33333333 25:0.13017583 26:0.13017583 27:-0.4074615 28:-0.13115556 29:-0.11599603 30:-0.29927484 31:0.04235714 32:0.06053695 33:-0.99324713 34:-0.97502234 35:-0.96202532 36:-0.96202532 37:-0.9936418 38:-0.97661515 39:-0.99434659 40:-0.97946768 
1.0 0.0 1:0.79797978 2:0.79797978 3:-0.37142857 4:-0.37142857 5:0.12193805 6:0.11241763 7:1.0 8:1.0 9:0.02452722 10:0.02452722 11:0.89941001 12:0.89941001 13:-1.0 14:-1.0 15:-1.0 16:-1.0 17:-1.0 18:-1.0 19:-1.0 20:-1.0 21:-1.0 22:-1.0 25:1.0 26:1.0 27:0.91045667 28:0.91045667 29:0.00572472 30:-0.03569055 31:1.0 32:0.95118865 33:-0.99751336 34:-0.99751336 35:-1.0 36:-1.0 37:-0.99776869 38:-0.99787296 39:-0.99852089 40:-0.99755776 
1.0 0.0 1:-0.15151513 2:-0.15151513 3:1.0 4:1.0 5:0.04765449 6:0.04765449 7:1.0 8:1.0 9:-0.78883238 10:-0.78883238 11:-0.11939329 12:-0.11939329 13:-0.77777778 14:-0.77777778 15:-0.2 16:-0.2 17:0.20000001 18:0.20000001 19:0.20000001 20:0.20000001 21:-1.0 22:-1.0 23:-0.33333333 24:-0.33333333 25:0.25535802 26:0.25535802 27:-0.69087137 28:-0.51307319 29:0.37669229 30:0.20605829 31:0.24133151 32:0.23954347 33:-0.99991261 34:-0.99973783 35:-0.93670886 36:-0.93670886 37:-0.99986432 38:-0.99973336 39:-0.99996031 40:-0.9998206 
1.0 0.5183867512422325 1:-0.51515151 2:-0.51515151 3:0.02040816 4:0.02040816 5:-0.02329388 6:-0.02329388 7:1.0 8:1.0 9:-0.66156962 10:-0.7004173 11:-0.56583371 12:-0.56583371 13:-1.0 14:-1.0 15:-1.0 16:-1.0 17:-1.0 18:-1.0 19:-1.0 20:-1.0 21:-1.0 22:-1.0 23:0.66666667 24:0.66666667 25:0.20836655 26:0.25998012 27:-0.35457741 28:-0.60266734 29:0.00152536 30:0.30539524 31:0.03256326 32:0.08566165 33:-0.99983316 34:-0.99957894 35:-0.89873418 36:-0.89873418 37:-0.99987516 38:-0.99967806 39:-0.99991665 40:-0.99966661 
1.0 0.3606763026054345 1:0.57575757 2:0.57575757 3:0.42857143 4:0.42857143 5:-0.62089752 6:0.19773759 7:1.0 8:1.0 9:-0.45540455 10:-0.4943629 11:0.03486008 12:0.06358911 13:-0.55555556 14:-0.55555556 15:-0.2 16:-0.2 17:0.20000001 18:0.20000001 19:0.20000001 20:0.20000001 21:-1.0 22:-1.0 23:-0.33333333 24:-0.33333333 25:0.03193265 26:0.12373066 27:-0.45011515 28:-0.424109 29:0.04317598 30:0.12864442 31:-0.08720016 32:-0.04584013 33:-0.97491906 34:-0.97410078 35:-0.82278481 36:-0.74683544 37:-0.97748962 38:-0.97680588 39:-0.97504148 40:-0.97421593 
1.0 0.0 1:0.33333335 2:0.33333335 3:0.42857143 4:0.42857143 5:-0.56632184 6:-0.73368725 7:1.0 8:1.0 9:0.03467156 10:-0.45617834 11:0.38230461 12:0.38658137 13:-0.55555556 14:-0.77777778 15:-0.2 16:-0.2 17:0.20000001 18:0.20000001 19:0.20000001 20:0.20000001 21:-1.0 22:-1.0 23:-0.33333333 24:-0.33333333 25:0.09199526 26:0.12680554 27:-0.47742386 28:-0.53784834 29:-0.12011532 30:-0.01523958 31:-0.14069335 32:-0.17983087 33:1.0 34:1.0 35:-0.92405063 36:-0.94936709 37:0.87983741 38:0.8804638 39:0.60339268 40:0.60318947 
1.0 0.0 1:0.59595962 2:0.52380951 3:0.54285714 4:0.61904761 5:-0.12698768 6:-0.53981366 7:1.0 8:1.0 9:-0.48231448 10:-0.43915415 11:0.04958691 12:0.10630649 13:-1.0 14:-0.77777778 15:-1.0 16:-0.42857144 17:-1.0 18:-0.14285715 19:-1.0 20:-0.14285715 21:-1.0 22:-1.0 24:0.33333333 25:0.23993258 26:0.14579558 27:-0.77826452 28:-0.54603083 29:0.29887247 30:-0.0495065 31:-0.04120729 32:-0.07316554 33:-0.99740213 34:-0.99740213 35:-0.65822785 36:-0.89873418 37:-0.99767561 38:-0.99741809 39:-0.99616067 40:-0.9955967 
1.0 0.0 1:-0.41414141 2:-0.41414141 3:1.0 4:1.0 5:-0.54667459 6:-0.23741245 7:1.0 8:1.0 9:-0.09543853 10:-0.30380176 11:-0.45389083 12:-0.43537761 13:-0.11111111 14:-0.33333333 15:-0.33333332 16:-0.33333332 17:3.0E-8 18:3.0E-8 19:3.0E-8 20:3.0E-8 21:-1.0 22:-1.0 25:-0.12535312 26:-0.33550189 27:-0.87116852 28:-0.90227997 29:-2.1198E-4 30:-0.12239279 31:-0.55644834 32:-0.58292845 33:1.0 34:1.0 35:-0.89873418 36:-0.81012658 37:0.76564025 38:0.76792459 39:0.33970222 40:0.33249456 
1.0 0.7178838127963796 1:0.09090908 2:0.09090908 3:-0.71428571 4:0.42857143 5:0.07903551 6:0.07903551 7:1.0 8:1.0 9:0.59019562 10:-0.08115541 11:0.07116099 12:0.07116099 13:-0.33333333 14:-0.55555556 15:-0.2 16:-0.2 17:0.20000001 18:0.20000001 19:0.20000001 20:0.20000001 21:-1.0 22:-1.0 23:-0.33333333 24:-0.33333333 25:-0.38337549 26:-0.13270675 27:-0.16814785 28:-0.65210554 29:-0.83580225 30:-0.17984934 31:-0.2752121 32:-0.31139562 33:-0.84610618 34:-0.84610618 35:-0.82278481 36:-0.94936709 37:-0.85625047 38:-0.85524961 39:-0.87428658 40:-0.87679497 
1.0 0.9917098751828375 1:0.33333335 2:0.33333335 3:1.0 4:-0.14285714 5:-0.65855474 6:-0.65855474 7:1.0 8:1.0 9:-0.54167136 10:-0.59293594 11:0.11075786 12:0.13993612 13:-0.77777778 14:-0.77777778 15:-0.2 16:-0.2 17:0.20000001 18:0.20000001 19:0.20000001 20:0.20000001 21:-1.0 22:-1.0 23:-0.33333333 24:-0.33333333 25:0.07378942 26:0.21399346 27:-0.90768988 28:-0.8134118 29:0.25249031 30:0.48417783 31:-0.23126149 32:-0.18571529 33:-0.87902838 34:-0.87902838 35:-0.83544304 36:-0.92405063 37:-0.88653676 38:-0.88656674 39:-0.90176461 40:-0.90209483 
1.0 0.28887257902420377 1:0.09090908 2:0.09090908 3:-0.14285714 4:-0.9047619 5:0.63325147 6:0.56339461 7:1.0 8:1.0 9:-0.1845319 10:0.83928843 11:0.02009244 12:0.02639141 13:0.11111111 14:0.33333333 15:-0.2 16:-0.42857144 17:0.20000001 18:-0.14285715 19:0.20000001 20:-0.14285715 21:-1.0 22:-1.0 23:-0.33333333 24:0.33333333 25:-0.08809638 26:-0.14800144 27:-0.12232612 28:-0.137148 29:-0.41499413 30:-0.61854454 31:-0.08253627 32:-0.06941411 33:-0.9983237 34:-0.9983237 35:-0.50632911 36:-0.89873418 37:-0.99886447 38:-0.99876028 39:-0.99570557 40:-0.99624988 
1.0 0.0 1:0.02356906 2:0.02356906 3:-0.42857143 4:-0.14285714 5:-0.46156457 6:-0.46156457 7:1.0 8:1.0 9:-0.57216367 10:-0.79646795 11:0.16642718 12:0.16642718 13:-0.11111111 14:-0.11111111 15:-0.55555556 16:-0.55555556 17:-0.33333333 18:-0.33333333 19:-0.33333333 20:-0.33333333 21:-1.0 22:-1.0 23:1.0 24:1.0 25:0.19823214 26:0.19823214 27:-0.66079474 28:-0.8329614 29:0.20895123 30:0.26586916 31:-0.0605356 32:-0.07813827 33:1.0 34:1.0 35:-0.6835443 36:-0.6835443 37:0.50056056 38:0.50056056 39:-0.08871461 40:-0.08871461 
1.0 0.8800118992674346 1:-0.27272724 2:0.09090908 3:0.42857143 4:0.42857143 5:-0.65609883 6:-0.69530234 7:1.0 8:1.0 9:-0.5313263 10:-0.79453999 11:-0.19217964 12:-0.18336243 13:-0.55555556 14:-0.55555556 15:-0.2 16:-0.2 17:0.20000001 18:0.20000001 19:0.20000001 20:0.20000001 21:-1.0 22:-1.0 23:-0.33333333 24:-0.33333333 25:-0.43926563 26:-0.45804296 27:-0.5306277 28:-0.59191504 29:-0.6041696 30:-0.59058263 31:-0.49133353 32:-0.51012396 33:1.0 34:1.0 35:-0.67088608 36:-0.91139241 37:0.8358482 38:0.83588939 39:0.73837605 40:0.7383824 
1.0 1.0 1:0.21212124 2:-0.15151513 3:0.42857143 4:0.42857143 5:-0.77588417 6:-0.69966841 7:1.0 8:1.0 9:-0.40734668 10:-0.79453999 11:-0.03229524 12:-0.04282754 13:-0.33333333 14:-0.33333333 15:-0.2 16:-0.2 17:0.20000001 18:0.20000001 19:0.20000001 20:0.20000001 21:-1.0 22:-1.0 23:-0.33333333 24:-0.33333333 25:-0.5594869 26:-0.46605498 27:-0.44543539 28:-0.35051247 29:-0.80919152 30:-0.76975549 31:-0.45596 32:-0.44165596 33:1.0 34:1.0 35:-0.7721519 36:-0.94936709 37:0.85665489 38:0.86940014 39:0.66897926 40:0.63133429 
1.0 0.7015201049448043 1:0.09090908 2:0.39393941 3:0.54285714 4:0.54285714 5:-0.62878067 6:-0.67255146 7:1.0 8:1.0 9:-0.07189844 10:-0.57259587 11:0.19853678 12:0.19396058 13:-0.11111111 14:-0.11111111 15:-0.33333332 16:-0.33333332 17:3.0E-8 18:3.0E-8 19:3.0E-8 20:3.0E-8 21:-1.0 22:-1.0 25:0.33046732 26:0.33046732 27:-0.97978068 28:-1.0 29:0.54061354 30:0.44456142 31:-0.39346903 32:-0.38400453 33:-0.48246837 34:-0.48246837 35:-0.86075949 36:-0.87341772 37:-0.54717925 38:-0.54717746 39:-0.63942889 40:-0.63943418 
1.0 0.24200124046232985 1:-0.71717168 2:-0.71717168 3:-0.82857143 4:-0.82857143 5:-0.03912082 6:-0.03912082 7:1.0 8:1.0 9:-0.07378706 10:-0.07378706 11:-0.78518283 12:-0.96497067 13:-1.0 14:-1.0 15:-1.0 16:-1.0 17:-1.0 18:-1.0 19:-1.0 20:-1.0 21:-1.0 22:-1.0 25:0.41066797 26:0.41066797 27:1.0 28:0.94287141 29:-0.7618731 30:-0.70317196 31:0.69189675 32:0.61713267 33:-0.84435043 34:-0.84435043 35:-0.86075949 36:-0.58227848 37:-0.86543753 38:-0.86547987 39:-0.88456888 40:-0.88445245 
1.0 0.5805869606993069 1:-0.01010097 2:-0.01010097 3:0.08571429 4:0.08571429 5:-0.4949931 6:-0.4876116 7:1.0 8:1.0 9:-0.44696192 10:-0.71371994 11:0.24808362 12:-0.05890352 13:-0.11111111 14:-0.11111111 15:-0.33333332 16:-0.33333332 17:3.0E-8 18:3.0E-8 19:3.0E-8 20:3.0E-8 21:-1.0 22:-1.0 25:-0.08349862 26:-0.0150355 27:-0.69577487 28:-0.68604882 29:-0.20598351 30:0.01897786 31:-0.22367381 32:-0.25336052 33:1.0 34:1.0 35:-0.87341772 36:-0.87341772 37:0.76395297 38:0.76786989 39:0.34511062 40:0.33264273 
1.0 0.0 1:-0.25541124 2:-0.25541124 3:0.61904761 4:0.61904761 5:-0.13361471 6:-0.20326367 7:1.0 8:1.0 9:-0.35644213 10:-0.2846973 11:0.06596825 12:-0.34007729 13:0.11111111 14:0.11111111 15:-0.42857144 16:-0.42857144 17:-0.14285715 18:-0.14285715 19:-0.14285715 20:-0.14285715 21:-1.0 22:-1.0 23:0.33333333 24:0.33333333 25:0.20205463 26:-0.04580675 27:-0.77584523 28:-0.50538892 29:0.14295653 30:-0.10654894 31:-0.1759154 32:-0.16278831 33:-0.4985958 34:-0.4985958 35:-0.91139241 36:-0.88607595 37:-0.58294302 38:-0.58317516 39:-0.70472728 40:-0.70391988 
1.0 0.0 1:-0.36363635 2:-0.36363635 3:0.67346939 4:0.67346939 5:-0.22957693 6:-0.2635243 7:1.0 8:1.0 9:-0.50419348 10:-0.66703893 11:-0.67909446 12:-0.47646653 13:-0.33333333 14:-0.55555556 15:-0.5 16:-0.5 17:-0.24999999 18:-0.24999999 19:-0.24999999 20:-0.24999999 21:-1.0 22:-1.0 23:0.66666667 24:0.66666667 25:-0.23897414 26:-0.27116891 27:-0.78472549 28:-0.73170352 29:-0.22493176 30:-0.3908736 31:-0.42040894 32:-0.39843413 33:1.0 34:1.0 35:-0.97468354 36:-0.94936709 37:0.58108701 38:0.5812234 39:6.4694E-4 40:2.2623E-4 
1.0 0.0 1:0.31818182 2:0.31818182 3:0.02040816 4:0.02040816 5:-0.43417074 6:-0.4746477 7:1.0 8:1.0 9:-0.86588539 10:-0.9632502 11:0.30400381 12:0.04299297 13:-0.11111111 14:-0.33333333 15:-0.5 16:-0.5 17:-0.24999999 18:-0.24999999 19:-0.24999999 20:-0.24999999 21:-1.0 22:-1.0 23:0.66666667 24:0.66666667 25:-0.204989 26:-0.2494252 27:-0.84982228 28:-0.44985838 29:-0.28756436 30:-0.58603707 31:-0.28375659 32:-0.32354177 33:1.0 34:1.0 35:-0.86075949 36:-0.88607595 37:0.56139444 38:0.56274145 39:0.09437437 40:0.105809 
1.0 0.550563441624001 1:-0.15151513 2:-0.15151513 3:0.42857143 4:0.42857143 5:-0.2893503 6:-0.2893503 7:1.0 8:1.0 9:-0.69490832 10:-0.40151974 11:-0.47528905 12:-0.47528905 13:-0.11111111 14:-0.11111111 15:-0.2 16:-0.2 17:0.20000001 18:0.20000001 19:0.20000001 20:0.20000001 21:-1.0 22:-1.0 23:-0.33333333 24:-0.33333333 25:-0.76296209 26:-0.76296209 27:-0.82345048 28:-0.84124749 29:-0.758932 30:-0.78731738 31:-0.81683322 32:-0.81433742 33:1.0 34:1.0 35:-0.81012658 36:-0.74683544 37:0.83598003 38:0.83596688 39:0.73811569 40:0.73814744 
1.0 0.0 1:0.2640693 2:0.2640693 3:0.23809525 4:0.23809525 5:-0.58581314 6:-0.59906725 7:1.0 8:1.0 9:-0.33117971 10:-0.90263519 11:0.12584994 12:0.13419444 13:-0.55555556 14:-0.55555556 15:-0.42857144 16:-0.42857144 17:-0.14285715 18:-0.14285715 19:-0.14285715 20:-0.14285715 21:-1.0 22:-1.0 23:0.33333333 24:0.33333333 25:-0.22033429 26:-0.22033429 27:-0.89541383 28:-0.62024536 29:-0.22886413 30:-0.44181048 31:-0.36352984 32:-0.37139731 33:1.0 34:1.0 35:-0.96202532 36:-0.93670886 37:0.66817405 38:0.66822285 39:0.14210304 40:0.14206675 
1.0 0.9053582852622913 1:0.09090908 2:0.09090908 3:0.61904761 4:0.61904761 5:-0.43819895 6:-0.43733266 7:1.0 8:1.0 9:-0.78535756 10:0.14306631 11:0.06805364 12:0.09484257 13:0.11111111 14:0.55555556 15:-0.42857144 16:-0.42857144 17:-0.14285715 18:-0.14285715 19:-0.14285715 20:-0.14285715 21:-1.0 22:-1.0 23:0.33333333 24:0.33333333 25:0.06362009 26:-0.02539038 27:-0.76984904 28:-0.88170081 29:-0.00790848 30:0.20905433 31:-0.40413962 32:-0.39226054 33:-0.37399353 34:-0.37399353 35:-0.75949367 36:-0.82278481 37:-0.4873625 38:-0.48941697 39:-0.53241918 40:-0.52541564 
1.0 0.17268152611472123 1:0.22558923 2:0.15824915 3:0.14285714 4:0.14285714 5:-0.13499714 6:-0.07726315 7:1.0 8:1.0 9:-0.31886981 10:-0.37450361 11:-0.03874624 12:-0.04882609 13:-0.11111111 14:0.11111111 15:-0.55555556 16:-0.55555556 17:-0.33333333 18:-0.33333333 19:-0.33333333 20:-0.33333333 21:-1.0 22:-1.0 23:1.0 24:1.0 25:-0.1246545 26:0.39465164 27:-0.74752845 28:-0.84659952 29:-0.16624668 30:0.24712153 31:-0.42594171 32:-0.41285356 33:1.0 34:1.0 35:-0.88607595 36:-0.98734177 37:0.50500471 38:0.50505989 39:-0.10846072 40:-0.10867592 
1.0 0.0 1:0.09090908 2:0.09090908 3:0.61904761 4:0.61904761 5:-0.35871771 6:-0.35871771 7:1.0 8:1.0 9:-0.26370211 10:-0.36094849 11:0.04083425 12:0.04083425 13:-0.11111111 14:-0.11111111 15:-0.42857144 16:-0.42857144 17:-0.14285715 18:-0.14285715 19:-0.14285715 20:-0.14285715 21:-1.0 22:-1.0 23:0.33333333 24:0.33333333 25:-0.50963911 26:0.16522684 27:-0.77170032 28:-0.6373479 29:-0.5986861 30:-0.03123557 31:-0.57645064 32:-0.34035159 33:1.0 34:1.0 35:-0.91139241 36:-0.91139241 37:0.66212483 38:0.66213012 39:0.1645289 40:0.16451076 
1.0 0.0 1:0.09090908 2:0.09090908 3:0.61904761 4:0.61904761 5:0.05627397 6:0.05627397 7:1.0 8:1.0 9:-0.11039052 10:-0.6291107 11:-0.08140468 12:-0.07383354 13:-0.11111111 14:0.11111111 15:-0.42857144 16:-0.42857144 17:-0.14285715 18:-0.14285715 19:-0.14285715 20:-0.14285715 21:-1.0 22:-1.0 23:0.33333333 24:0.33333333 25:0.02276144 26:-0.53458472 27:-0.78750098 28:-0.88210444 29:0.10815464 30:-0.53769877 31:-0.27574392 32:-0.80968564 33:1.0 34:1.0 35:-0.84810127 36:-0.97468354 37:0.66796318 38:0.6679463 39:0.14278343 40:0.14322796 
1.0 1.0 1:0.02356906 2:0.02356906 3:-0.14285714 4:-0.14285714 5:-0.56670085 6:-0.55325906 7:1.0 8:1.0 9:-0.9632502 10:-0.57447456 11:-0.0397878 12:-0.05284104 13:-0.11111111 14:-0.11111111 15:-0.55555556 16:-0.55555556 17:-0.33333333 18:-0.33333333 19:-0.33333333 20:-0.33333333 21:-1.0 22:-1.0 23:1.0 24:1.0 25:-0.23761295 26:0.30351028 27:-0.80001382 28:-0.02074652 29:-0.33606925 30:-0.32753891 31:-0.38737551 32:0.02894854 33:1.0 34:1.0 35:-0.84810127 36:-0.94936709 37:0.50116435 38:0.50546052 39:-0.09089137 40:-0.11030585 
1.0 0.22395864212670924 1:-0.51515151 2:-0.51515151 3:-0.14285714 4:-0.14285714 5:1.0 6:1.0 7:1.0 8:-1.0 9:-0.23469045 10:1.0 11:-1.0 12:-1.0 13:-1.0 14:-1.0 15:-1.0 16:-1.0 17:-1.0 18:-1.0 19:-1.0 20:-1.0 21:-1.0 22:-1.0 23:-0.33333333 24:-1.0 25:-0.18164161 26:-0.52878318 27:-0.70014549 28:-0.16348293 29:-0.15670708 30:-0.98277816 31:-0.34249367 32:-0.37356564 33:-0.99922143 34:-0.99989672 35:-0.87341772 36:-0.70886076 37:-0.99936562 38:-0.99959638 39:-0.99905221 40:-0.99859498 
1.0 0.0 1:-0.21212119 2:-0.3131313 3:1.0 4:1.0 5:-0.30981617 6:-0.30981617 8:-1.0 9:-0.43345373 10:-0.30787041 11:0.18851383 12:0.16072293 13:-1.0 14:-1.0 15:-1.0 16:-1.0 17:-1.0 18:-1.0 19:-1.0 20:-1.0 21:-1.0 22:-1.0 23:-0.66666667 24:-1.0 25:-0.07324521 26:-0.05446789 27:-0.03797314 28:-0.3485532 29:-0.45462531 30:-0.09714916 31:-0.10535479 32:-0.13309154 33:-0.99992055 34:-0.99924527 35:-0.89873418 36:-0.88607595 37:-0.99962967 38:-0.99922628 39:-0.9991427 40:-0.99880666 
1.0 0.0 1:-0.27272724 2:-0.27272724 3:1.0 4:1.0 5:0.18500326 6:0.18500326 8:1.0 9:-0.22337665 10:-0.22337665 11:-0.78101761 12:-0.78101761 13:-0.77777778 14:-0.77777778 15:-0.2 16:-0.2 17:0.20000001 18:0.20000001 19:0.20000001 20:0.20000001 21:-1.0 22:-1.0 23:-0.33333333 24:-0.33333333 25:-0.63564458 26:-0.63564458 27:-0.74247913 28:-0.77488402 29:-0.6965593 30:-0.67137305 31:-0.62045518 32:-0.62708146 33:-0.8775507 34:-0.8775507 35:-0.49367089 36:-0.49367089 37:-0.88529752 38:-0.88529752 39:-0.90050089 40:-0.90050089 
1.0 0.0 1:-0.21212119 2:-0.21212119 3:0.08571429 4:0.08571429 5:0.1824564 6:0.1824564 8:1.0 9:0.00737305 10:0.00737305 11:0.27737013 12:0.27737013 13:-0.33333333 14:-0.11111111 15:-0.33333332 16:-0.33333332 17:3.0E-8 18:3.0E-8 19:3.0E-8 20:3.0E-8 21:-1.0 22:-1.0 25:0.17083752 26:0.21465129 27:-0.92449008 28:-0.84572823 29:0.56424939 30:0.50325449 31:-0.07034026 32:-0.07363074 33:-0.98425391 34:-0.98425391 35:-0.56962025 36:-0.56962025 37:-0.98684938 38:-0.98666693 39:-0.98697381 40:-0.98718549 
1.0 1.0 1:0.09090908 2:0.09090908 3:0.23809525 4:0.23809525 5:0.01763787 6:0.01763787 9:-0.34045875 10:-0.38487104 11:0.16904278 12:0.16904278 13:-0.77777778 14:-0.77777778 17:0.50000002 18:0.50000002 19:0.50000002 20:0.50000002 21:-1.0 22:-1.0 23:-0.66666667 24:-0.66666667 25:0.13017583 26:0.00271761 27:-0.05779048 28:-0.05779048 29:-0.21689679 30:-0.40524651 31:0.02654739 32:-0.01451622 33:-0.99997617 34:-0.99997617 35:-0.93670886 36:-0.72151899 37:-0.99992695 38:-1.0 39:-1.0 40:-0.99986505 
1.0 0.0015604259098057165 1:0.17748919 2:0.2640693 3:0.23809525 4:0.23809525 5:-0.50672325 6:-0.53612803 7:1.0 8:1.0 9:-0.86588539 10:-0.36703106 11:0.11610988 12:0.1291939 13:1.0 14:0.11111111 15:-0.42857144 16:-0.42857144 17:-0.14285715 18:-0.14285715 19:-0.14285715 20:-0.14285715 21:-1.0 22:-1.0 23:0.33333333 24:0.33333333 25:-0.23560358 26:-0.0150355 27:-0.79075964 28:-0.875178 29:-0.28664612 30:0.05825554 31:-0.31339447 32:-0.30755374 33:1.0 34:-0.82831834 35:-0.87341772 36:-0.97468354 37:0.64265765 38:-0.85911683 39:0.25242249 40:-0.89080206 
1.0 0.0 1:0.17748919 2:0.17748919 3:-0.14285714 4:-0.14285714 5:-0.08939109 6:-0.15457869 7:1.0 8:1.0 9:-0.09175098 10:-0.09175098 11:0.16304689 12:0.16304689 13:-0.33333333 14:-0.11111111 15:-0.42857144 16:-0.42857144 17:-0.14285715 18:-0.14285715 19:-0.14285715 20:-0.14285715 21:-1.0 22:-1.0 23:0.33333333 24:0.33333333 25:0.08209298 26:0.11395753 27:-0.83844735 28:-0.69283419 29:0.15693792 30:0.14914885 31:0.01535887 32:0.00760081 33:-0.84610618 34:-0.96510755 35:-0.74683544 36:-0.93670886 37:-0.87420146 38:-0.96499912 39:-0.89395003 40:-0.96197152 
1.0 0.0 1:0.57575757 2:0.57575757 3:1.0 4:1.0 5:-0.55069654 6:-0.86414282 7:1.0 8:1.0 9:-0.58816236 10:-0.50607301 11:0.10409039 12:0.1439002 13:-1.0 14:-1.0 15:-1.0 16:-1.0 17:-1.0 18:-1.0 19:-1.0 20:-1.0 21:-1.0 22:-1.0 23:-0.33333333 24:-0.33333333 25:0.09715676 26:-0.03136361 27:-0.66965074 28:-0.57970982 29:0.18757591 30:-0.03858812 31:-0.31012252 32:-0.32348106 33:-0.97738982 34:-0.97738982 35:-0.94936709 36:-0.96202532 37:-0.97903203 38:-0.97888865 39:-0.98081396 40:-0.98082031 
1.0 0.9763234354978316 1:0.21212124 2:0.21212124 3:0.42857143 4:0.42857143 5:-0.48516946 6:-0.19100659 7:1.0 8:1.0 9:-0.32141888 10:-0.58247317 11:-0.40992925 12:-0.43067126 13:-0.77777778 14:-0.77777778 15:-0.2 16:-0.2 17:0.20000001 18:0.20000001 19:0.20000001 20:0.20000001 21:-1.0 22:-1.0 23:-0.33333333 24:-0.33333333 25:-0.29716489 26:-0.29716489 27:-0.38115698 28:-0.16081959 29:-0.57424224 30:-0.6885166 31:-0.23448317 32:-0.24622223 33:-0.95479553 34:-0.95479553 35:-0.39240506 36:-0.41772152 37:-0.95871528 38:-0.95885364 39:-0.96019432 40:-0.9598514 
1.0 0.0 1:0.09090908 2:0.09090908 3:0.61904761 4:0.61904761 5:-0.0742745 6:-0.48697054 7:1.0 8:1.0 9:-0.70654356 10:-0.34507674 11:-0.03560847 12:-0.0449611 13:-0.77777778 14:-0.77777778 15:-0.42857144 16:-0.42857144 17:-0.14285715 18:-0.14285715 19:-0.14285715 20:-0.14285715 21:-1.0 22:-1.0 23:0.33333333 24:0.33333333 25:-0.09072105 26:0.13017583 27:-0.43362136 28:-0.85415899 29:-0.3128481 30:0.1777946 31:-0.1588869 32:-0.11980881 33:-0.45050746 34:-0.45050746 35:-0.91139241 36:-0.96202532 37:-0.5418828 38:-0.5419983 39:-0.68517269 40:-0.68491414 
1.0 0.0 1:-0.11111108 2:-0.11111108 3:0.54285714 4:0.54285714 5:-0.63005411 6:-0.45965672 7:1.0 8:1.0 9:-0.63207845 10:-0.79156685 11:-0.18908483 12:-0.18552088 13:-0.55555556 14:-0.77777778 15:-0.33333332 16:-0.33333332 17:3.0E-8 18:3.0E-8 19:3.0E-8 20:3.0E-8 21:-1.0 22:-1.0 25:0.02175676 26:0.28949861 27:-0.59038161 28:-0.70875865 29:0.00206568 30:0.39211437 31:-0.32918065 32:-0.30406242 33:1.0 34:1.0 35:-0.89873418 36:-0.86075949 37:0.76282695 38:0.76662756 39:0.3520431 40:0.33749018 
1.0 0.0 1:-0.16883113 2:-0.16883113 3:-0.52380953 4:0.61904761 5:0.12678922 6:0.12678922 7:1.0 8:1.0 9:-0.60841856 10:-0.34295 11:-0.67217816 12:-0.67217816 13:-0.77777778 14:-0.77777778 15:-0.42857144 16:-0.42857144 17:-0.14285715 18:-0.14285715 19:-0.14285715 20:-0.14285715 21:-1.0 22:-1.0 23:0.33333333 24:0.33333333 25:-0.2494262 26:-0.24305717 27:-0.41670366 28:-0.6896514 29:-0.46280494 30:-0.26742081 31:-0.334119 32:-0.30726108 33:-0.86362391 34:-0.86362391 35:-0.89873418 36:-0.89873418 37:-0.886869 38:-0.88731131 39:-0.91800431 40:-0.91820843 
1.0 0.0 1:-0.16883113 2:-0.16883113 3:-0.52380953 4:1.0 5:-0.22734628 6:-0.19854245 7:1.0 8:1.0 9:-0.31053427 10:-0.32408566 11:-0.24893615 12:-0.24893615 13:-0.11111111 14:0.11111111 15:0.14285716 16:-0.42857144 17:-0.14285715 18:-0.14285715 19:0.07142859 20:-0.14285715 21:-0.07211558 22:-1.0 23:0.33333333 24:0.33333333 25:-0.01846982 26:0.08019932 27:-0.91286308 28:-0.90168574 29:0.25565421 30:0.06836039 31:-0.55199788 32:-0.57612251 33:1.0 34:1.0 35:-0.93670886 36:-0.88607595 37:0.66766636 38:0.66589214 39:0.14470669 40:0.15034944 
1.0 0.09286479839525262 1:0.92424242 2:0.92424242 3:-0.63265305 4:0.34693877 5:-0.45290559 6:-0.45290559 7:1.0 8:1.0 9:-0.43959264 10:-0.16968019 11:0.26187632 12:0.26187632 13:0.33333333 14:0.11111111 17:-0.24999999 18:-0.24999999 19:-0.12500001 20:-0.09999999 21:-0.30122873 22:-0.24999998 23:0.66666667 24:0.66666667 25:-0.56490057 26:-0.10349758 27:-0.69233516 28:-0.79272812 29:-0.74472613 30:-0.21032792 31:-0.657819 32:-0.64380306 33:-0.82583169 34:-0.82583169 35:-0.96202532 36:-0.96202532 37:-0.82864547 38:-0.82862466 39:-0.80467863 40:-0.80469848 
1.0 0.0 1:0.09090908 2:0.49494951 3:0.54285714 4:0.54285714 5:-0.50349919 6:-0.57164712 7:1.0 8:1.0 9:-0.33655464 10:-0.30920234 11:0.33176681 12:0.35274064 13:-0.11111111 14:-0.11111111 15:-0.33333332 16:-0.33333332 17:3.0E-8 18:3.0E-8 19:3.0E-8 20:3.0E-8 21:-1.0 22:-1.0 25:-0.42046824 26:-0.42046824 27:-0.84982228 28:-0.64460707 29:-0.37971529 30:-0.54826084 31:-0.61969829 32:-0.60142184 33:1.0 34:1.0 35:-0.86075949 36:-0.91139241 37:0.75909022 38:0.76254387 39:0.36094949 40:0.34969875 
1.0 0.0 1:-0.3131313 2:0.2929293 3:1.0 4:1.0 5:-0.49118934 6:-0.58499885 7:1.0 8:1.0 9:-0.65011599 10:-0.62471953 11:0.13817329 12:0.10310621 13:0.11111111 14:0.11111111 15:-0.33333332 16:-0.33333332 17:3.0E-8 18:3.0E-8 19:3.0E-8 20:3.0E-8 21:-1.0 22:-1.0 25:-0.21763805 26:-0.2061643 27:-0.78750098 28:-0.81549815 29:-0.21939959 30:-0.07996705 31:-0.56933741 32:-0.56417873 33:1.0 34:1.0 35:-0.69620253 36:-0.93670886 37:0.76752557 38:0.76722443 39:0.33388105 40:0.33482302 
1.0 0.0 1:-0.51515151 2:-0.3131313 3:0.08571429 4:0.08571429 5:-0.18374637 6:-0.3149099 7:1.0 8:1.0 9:-0.42450435 10:-0.69126237 11:-0.62743946 12:-0.60518091 13:-0.77777778 14:-0.77777778 15:-0.33333332 16:-0.33333332 17:3.0E-8 18:3.0E-8 19:3.0E-8 20:3.0E-8 21:-1.0 22:-1.0 25:0.54419564 26:0.41595714 27:-0.6067433 28:-0.68019435 29:0.70103405 30:0.63578073 31:0.23601136 32:0.18016376 33:1.0 34:1.0 35:-0.58227848 36:-0.58227848 37:0.76428951 38:0.75957805 39:0.34401518 40:0.35964237 
1.0 0.7502230266138958 1:0.56228959 2:0.22558923 3:-0.42857143 4:-0.42857143 5:-0.25751449 6:-0.23363762 7:1.0 8:1.0 9:-0.08427368 10:-0.49435066 11:0.10749389 12:0.05443668 13:-0.33333333 14:-0.33333333 15:-0.55555556 16:-0.55555556 17:-0.33333333 18:-0.33333333 19:-0.33333333 20:-0.33333333 21:-1.0 22:-1.0 23:1.0 24:1.0 25:0.41957078 26:0.23280544 27:-0.85790802 28:-0.39853029 29:0.52525371 30:-0.12442475 31:0.09987531 32:0.15888178 33:-0.85118274 34:-0.86362391 35:-0.7721519 36:-0.67088608 37:-0.88507783 38:-0.89397069 39:-0.90454607 40:-0.90917478 
1.0 1.0 1:0.21212124 2:0.21212124 3:-0.14285714 4:-0.14285714 5:-0.11880132 6:-0.22931705 7:1.0 8:1.0 9:-0.43959264 10:-0.80527035 11:0.36623619 12:0.07757217 13:-0.55555556 14:-0.33333333 15:-0.2 16:-0.2 17:0.20000001 18:0.20000001 19:0.20000001 20:0.20000001 21:-1.0 22:-1.0 23:-0.33333333 24:-0.33333333 25:0.1024097 26:0.1024097 27:-0.17027094 28:-0.21801624 29:-0.15732959 30:-0.17169239 31:0.09706347 32:0.09086631 33:-0.84610618 34:-0.84610618 35:-0.82278481 36:-0.97468354 37:-0.85551457 38:-0.85612367 39:-0.87635044 40:-0.87437548 
1.0 0.5879848786883519 1:-0.87878784 2:-0.87878784 3:-0.71428571 4:-0.71428571 5:-0.337104 6:-0.337104 7:1.0 8:1.0 9:-0.26625159 10:-0.26625159 11:-0.58876893 12:-0.41170682 13:-0.55555556 14:-0.55555556 15:-0.2 16:-0.2 17:0.20000001 18:0.20000001 19:0.20000001 20:0.20000001 21:-1.0 22:-1.0 23:-0.33333333 24:-0.33333333 25:-0.04891133 26:-0.04891133 27:-0.27816304 28:-0.27816304 29:-0.30294649 30:-0.30294649 31:-0.11520276 32:-0.11520276 33:-0.97835111 34:-0.97835111 35:-0.7721519 36:-0.93670886 37:-0.98033212 38:-0.98028126 39:-0.9710344 40:-0.97111695 
1.0 0.0 1:-0.39393935 2:-0.39393935 3:1.0 4:1.0 5:-0.42633523 6:-0.36302746 7:1.0 8:1.0 9:-0.49211284 10:-0.75250957 11:-0.01455331 12:-0.54850413 13:-0.33333333 14:-0.33333333 15:-0.2 16:-0.2 17:0.20000001 18:0.20000001 19:0.20000001 20:0.20000001 21:-1.0 22:-1.0 23:-0.33333333 24:-0.33333333 25:-0.09355599 26:0.00271761 27:-0.87116852 28:-0.87116852 29:-0.03332608 30:0.07836374 31:-0.44522604 32:-0.43262326 33:1.0 34:1.0 35:-0.89873418 36:-0.93670886 37:0.87452402 38:0.88110275 39:0.61695071 40:0.59895378 
1.0 0.7095983946938436 1:-0.42857141 2:-0.42857141 3:0.23809525 4:0.23809525 5:-0.12425888 6:-0.12425888 7:1.0 8:1.0 9:-0.42336306 10:-0.36181544 11:-0.0561107 12:0.06483662 13:-0.11111111 14:-0.33333333 15:-0.42857144 16:-0.42857144 17:-0.14285715 18:-0.14285715 19:-0.14285715 20:-0.14285715 21:-1.0 22:-1.0 23:0.33333333 24:0.33333333 25:0.63526342 26:0.70536544 27:-0.48939161 28:-0.48939161 29:0.38081174 30:0.46453772 31:0.44168285 32:0.47283455 33:-0.98912392 34:-0.98912392 35:-0.75949367 36:-0.82278481 37:-0.99134895 38:-0.99131535 39:-0.98990859 40:-0.98993127 
1.0 0.0 1:-0.75757573 2:-0.75757573 3:-0.14285714 4:-0.14285714 5:-0.16137035 6:-0.16137035 7:1.0 8:1.0 9:-0.80608082 10:-0.17741304 11:-0.49166411 12:-0.49166411 13:-0.55555556 14:-0.55555556 15:-0.2 16:-0.2 17:0.20000001 18:0.20000001 19:0.20000001 20:0.20000001 21:-1.0 22:-1.0 23:-0.33333333 24:-0.33333333 25:-0.03320287 26:-0.03320287 27:0.40681378 28:0.27623414 29:-0.81170525 30:-0.68858564 31:0.22149432 32:0.15932999 33:-0.98979126 34:-0.98979126 35:-0.41772152 36:-0.91139241 37:-0.99100385 38:-0.9908905 39:-0.99000294 40:-0.9902633 
1.0 0.0 1:0.00432903 2:0.09090908 3:0.61904761 4:0.67346939 5:-0.30678419 6:-0.33358966 7:1.0 8:1.0 9:-0.56282902 10:-0.42833813 11:-0.53563356 12:-0.48419613 13:-0.77777778 14:-0.55555556 15:0.14285716 17:0.71428576 18:-0.24999999 19:0.71428576 20:0.12500001 21:-1.0 22:-0.06249998 23:0.33333333 24:0.66666667 25:-0.54346334 26:-0.30796181 27:-0.79449554 28:-0.94740928 29:-0.60920242 30:-0.31165717 31:-0.58647643 32:-0.59837564 33:-0.78822221 34:-0.78822221 35:-0.81012658 36:-0.81012658 37:-0.83035996 38:-0.82433467 39:-0.84158219 40:-0.82187225 
1.0 0.0 1:-0.39393935 2:-0.39393935 3:1.0 4:1.0 5:-0.36302746 6:-0.36302746 7:1.0 8:1.0 9:-0.90304041 10:-0.67595927 11:-0.54850413 12:-0.54850413 13:-0.55555556 14:-0.55555556 15:-0.2 16:-0.2 17:0.20000001 18:0.20000001 19:0.20000001 20:0.20000001 21:-1.0 22:-1.0 23:-0.33333333 24:-0.33333333 25:0.23027407 26:-0.41197468 27:-0.80806379 28:-0.69148079 29:0.2346951 30:-0.45325042 31:-0.1530546 32:-0.62568767 33:-0.76700232 34:-0.76700232 35:-0.79746835 36:-0.82278481 37:-0.78102998 38:-0.78108414 39:-0.81278329 40:-0.81263723 
1.0 0.0 1:0.09090908 2:0.09090908 3:-0.14285714 4:-0.14285714 5:1.0 6:1.0 7:1.0 8:1.0 9:-0.31504622 10:-0.1845319 11:0.00539476 12:0.00539476 13:-0.11111111 14:0.11111111 15:-0.2 16:-0.2 17:0.20000001 18:0.20000001 19:0.20000001 20:0.20000001 21:-1.0 22:-1.0 23:-0.33333333 24:-0.33333333 25:0.38101258 26:-0.66626103 27:-0.04502147 28:-0.51330322 29:-0.06122982 30:-0.90732025 31:0.35899084 32:-0.61166518 33:-0.99847465 34:-0.99924527 35:-0.74683544 36:-0.41772152 37:-0.9988161 38:-0.99944987 39:-0.99684863 40:-0.99677243 
1.0 0.0 1:0.52380951 2:0.52380951 3:-0.14285714 4:-0.14285714 5:-0.62157874 6:-0.62157874 7:1.0 8:1.0 9:-0.40151974 10:-0.40151974 11:0.17536981 12:0.17536981 13:-0.33333333 14:-0.33333333 15:-0.42857144 16:-0.42857144 17:-0.14285715 18:-0.14285715 19:-0.14285715 20:-0.14285715 21:-1.0 22:-1.0 23:0.33333333 24:0.33333333 25:-0.36064877 26:0.04389641 27:-0.90610784 28:-0.53633216 29:-0.3265428 30:-0.03004768 31:-0.69515435 32:-0.02304574 33:1.0 34:1.0 35:-0.86075949 36:-0.97468354 37:0.63526344 38:0.63529912 39:0.28841092 40:0.28782578 
1.0 0.2958961376712565 1:-0.04377101 2:-0.11111108 3:-0.42857143 4:-0.42857143 5:-0.58239594 6:-0.53761219 7:1.0 8:1.0 9:-0.68138704 10:-0.02460978 11:0.11590059 12:0.07392466 13:0.11111111 14:-0.11111111 15:-0.55555556 16:-0.55555556 17:-0.33333333 18:-0.33333333 19:-0.33333333 20:-0.33333333 21:-1.0 22:-1.0 23:1.0 24:1.0 25:-0.08349862 26:0.34924465 27:-0.9630494 28:-0.9630494 29:0.0227103 30:0.12454664 31:-0.48696148 32:0.118878 33:1.0 34:1.0 35:-0.86075949 36:-0.96202532 37:0.49089656 38:0.49312431 39:-0.02688674 40:-0.03566789 
0.21833323496377016 0.0 1:-0.11111108 2:-0.27272724 3:1.0 4:1.0 5:0.61797027 6:0.65617325 7:-1.0 8:1.0 9:-0.3556228 10:-0.37123856 11:-0.448747 12:-0.6692482 13:-0.77777778 14:-0.77777778 15:0.33333332 16:-0.2 17:1.0 18:0.20000001 19:1.0 20:0.20000001 21:-1.0 22:-1.0 23:-1.0 24:-0.33333333 25:-0.34885466 26:-0.15023226 27:-0.409309 28:-0.68487047 29:-0.48449076 30:-0.19692819 31:-0.35416663 32:-0.32484739 33:-0.9999285 34:-0.9999285 35:-0.84810127 36:-0.84810127 37:-0.99905421 38:-0.99938512 39:-0.99773768 40:-0.99865213 
1.0 0.0 1:0.09090908 2:0.09090908 3:1.0 4:1.0 5:0.54156434 6:0.63325147 8:1.0 9:0.39016984 10:-0.27486832 11:-0.12849167 12:-0.13741745 13:-0.33333333 14:-0.33333333 16:-0.2 17:0.50000002 18:0.20000001 19:0.50000002 20:0.20000001 21:-1.0 22:-1.0 23:-0.66666667 24:-0.33333333 25:-0.59456636 26:-0.59456636 27:-0.82545122 28:-0.82545122 29:-0.55344453 30:-0.62270933 31:-0.73020289 32:-0.72902644 33:-0.99956305 34:-0.99956305 35:-0.39240506 36:-0.39240506 37:-0.99983052 38:-0.99986013 39:-0.99819808 40:-0.99821396 
1.0 0.0 1:0.69696973 2:0.69696973 3:1.0 4:1.0 5:-0.6149438 6:-0.65141029 8:1.0 9:-0.43385403 10:-0.60563664 11:-0.01751761 12:-0.01577371 13:-0.77777778 14:-0.55555556 16:-0.2 17:0.50000002 18:0.20000001 19:0.50000002 20:0.20000001 21:-1.0 22:-1.0 23:-0.66666667 24:-0.33333333 25:-0.38562771 26:-0.55259356 27:-0.75125065 28:-0.77112344 29:-0.3654873 30:-0.57884224 31:-0.54708777 32:-0.55394649 33:-0.8775507 34:-0.82831834 35:-0.72151899 36:-0.3164557 37:-0.87822274 38:-0.84028645 39:-0.87494543 40:-0.85697548 
1.0 0.0 1:0.09090908 2:0.09090908 3:1.0 4:1.0 5:-0.00282801 6:-0.00282801 7:-1.0 9:-0.33312024 10:-0.79453999 11:0.01086296 12:0.01086296 13:-0.33333333 14:-0.33333333 17:0.50000002 18:0.50000002 19:0.50000002 20:0.50000002 21:-1.0 22:-1.0 23:-0.66666667 24:-0.66666667 25:-0.5310659 26:-0.5310659 27:-0.81549815 28:-0.88104982 29:-0.49933203 30:-0.45211817 31:-0.65898007 32:-0.67685243 33:1.0 34:1.0 35:-0.78481013 36:-0.78481013 37:1.0 38:1.0 39:1.0 40:1.0 
1.0 1.0 1:0.49494951 2:0.49494951 3:-0.37142857 4:-0.37142857 5:-0.21188315 6:-0.20066482 7:1.0 9:-0.86781624 10:-0.86781624 11:-0.00910777 12:-0.00910777 13:-0.55555556 14:-0.77777778 15:-0.33333332 16:-0.33333332 17:3.0E-8 18:3.0E-8 19:3.0E-8 20:3.0E-8 21:-1.0 22:-1.0 25:0.1168575 26:0.3922583 27:-0.16689848 28:-0.36276796 29:-0.25076634 30:0.08883697 31:0.22811206 32:0.23745757 33:-0.85118274 34:-0.85118274 35:-0.94936709 36:-0.91139241 37:-0.86900596 38:-0.86897731 39:-0.89906359 40:-0.89904771 
1.0 0.0 1:0.09090908 2:0.09090908 3:1.0 4:1.0 5:-0.44407233 6:-0.46317381 7:1.0 8:1.0 9:-0.44400558 10:-0.10746897 11:0.08337715 12:0.04864616 13:-0.33333333 14:-0.33333333 15:-0.2 16:-0.2 17:0.20000001 18:0.20000001 19:0.20000001 20:0.20000001 21:-1.0 22:-1.0 23:-0.33333333 24:-0.33333333 25:-0.12717239 26:-0.16091854 27:-0.50214297 28:-0.79968774 29:-0.23992613 30:-0.15941116 31:-0.31891084 32:-0.33934237 33:-0.97502234 34:-0.97502234 35:-0.92405063 36:-0.92405063 37:-0.97666133 38:-0.92398788 39:-0.97961374 40:-0.83986759 
1.0 0.0 1:-1.0 2:-1.0 3:-0.14285714 4:-0.14285714 5:-0.03148024 6:-0.03148024 7:1.0 8:1.0 9:-0.45310683 10:-0.43801058 11:-0.8775087 12:-0.8775087 13:-0.77777778 14:-0.55555556 15:-0.2 16:-0.2 17:0.20000001 18:0.20000001 19:0.20000001 20:0.20000001 21:-1.0 22:-1.0 23:-0.33333333 24:-0.33333333 25:0.48068594 26:0.41746768 27:0.84343948 28:0.2977501 29:-0.51009954 30:-0.25457524 31:0.60242658 32:0.51693642 33:-0.99617867 34:-0.99962661 35:-0.96202532 36:-0.98734177 37:-0.99612423 38:-0.99835092 39:-0.99435929 40:-0.99677878 
1.0 0.0 1:-0.42857141 2:-0.42857141 3:-0.14285714 4:-0.14285714 5:-0.32346009 6:-0.32346009 7:1.0 8:1.0 9:-0.37232957 10:-0.44437559 11:-0.58721515 12:-0.58721515 13:-0.77777778 14:-0.77777778 15:-0.42857144 16:-0.42857144 17:-0.14285715 18:-0.14285715 19:-0.14285715 20:-0.14285715 21:-1.0 22:-1.0 23:0.33333333 24:0.33333333 25:0.27204897 26:0.21363062 27:-0.20866223 28:-0.4283876 29:-0.1930917 30:-0.08069114 31:0.04444049 32:0.03455418 33:-0.99907843 34:-0.97023178 35:-0.91139241 36:-0.78481013 37:-0.99901941 38:-0.97537532 39:-0.99847251 40:-0.98185723 
1.0 0.0 1:-0.51515151 2:-0.51515151 3:0.14285714 4:0.14285714 5:0.01308989 6:0.01308989 7:1.0 8:1.0 9:0.00196273 10:0.2064637 11:-0.03021369 12:-0.03021369 13:-0.11111111 14:-0.55555556 15:-0.55555556 16:-0.55555556 17:-0.33333333 18:-0.33333333 19:-0.33333333 20:-0.33333333 21:-1.0 22:-1.0 23:1.0 24:1.0 25:0.05051444 26:-0.05544377 27:-0.70770747 28:-0.30227498 29:0.02828487 30:-0.44833274 31:-0.07975882 32:-0.04497111 33:-0.98425391 34:-0.99885599 35:-0.86075949 36:-0.92405063 37:-0.98702352 38:-0.99901442 39:-0.98676213 40:-0.99859851 
1.0 0.0 1:-0.27272724 2:-0.27272724 3:1.0 4:1.0 5:-0.78544317 6:-0.48418545 7:1.0 8:1.0 9:-0.50606907 10:-0.52997037 11:-0.19207402 12:-0.16985811 13:-0.55555556 14:-0.55555556 15:-0.2 16:-0.2 17:0.20000001 18:0.20000001 19:0.20000001 20:0.20000001 21:-1.0 22:-1.0 23:-0.33333333 24:-0.33333333 25:-0.35792487 26:-0.35792487 27:-0.76588724 28:-0.62124417 29:-0.23869898 30:-0.48994363 31:-0.48709171 32:-0.50192892 33:1.0 34:1.0 35:-0.94936709 36:-0.97468354 37:0.88079304 38:0.88079777 39:0.59986188 40:0.59984918 
1.0 0.6110392024171435 1:0.09090908 2:0.09090908 3:-0.14285714 4:-0.14285714 5:-0.58360415 6:-0.39258928 7:1.0 8:1.0 9:-0.69490832 10:-0.69490832 11:-0.40991557 12:-0.38996644 13:-0.33333333 14:-0.33333333 15:-0.42857144 16:-0.42857144 17:-0.14285715 18:-0.14285715 19:-0.14285715 20:-0.14285715 21:-1.0 22:-1.0 23:0.33333333 24:0.33333333 25:-0.53381623 26:-0.42115227 27:-0.58543371 28:-0.58543371 29:-0.74587765 30:-0.63626624 31:-0.5165257 32:-0.50954997 33:-0.78822221 34:-0.78822221 35:-0.72151899 36:-0.88607595 37:-0.80173098 38:-0.80169511 39:-0.71001623 40:-0.7100752 
1.0 0.0 1:0.17748919 2:0.17748919 3:0.61904761 4:0.61904761 5:-0.66434148 6:0.15256107 7:1.0 8:1.0 9:-0.56222951 10:-0.32123064 11:0.04010542 12:0.03672097 13:0.11111111 14:0.11111111 15:-0.42857144 16:-0.42857144 17:-0.14285715 18:-0.14285715 19:-0.14285715 20:-0.14285715 21:-1.0 22:-1.0 23:0.33333333 24:0.33333333 25:-0.1154157 26:0.02276144 27:-0.90552751 28:-0.82197512 29:-0.05508588 30:-0.06033436 31:-0.49234639 32:-0.48793455 33:1.0 34:1.0 35:-0.94936709 36:-0.84810127 37:0.65328955 38:0.66781752 39:0.20240883 40:0.14347744 
1.0 0.0 1:0.15824915 2:0.09090908 3:0.42857143 4:0.34693877 5:-0.62750817 6:0.10567363 7:1.0 8:1.0 9:-0.37368086 10:-0.05271842 11:-0.12130521 12:-0.09983958 13:0.33333333 14:0.11111111 15:-0.55555556 17:-0.33333333 18:-0.24999999 19:-0.33333333 20:-0.09999999 21:-1.0 22:-0.24999998 23:1.0 24:0.66666667 25:-0.45804296 26:-0.60073739 27:-0.82924351 28:-0.88026252 29:-0.41349708 30:-0.59022179 31:-0.66627332 32:-0.68103624 33:1.0 34:1.0 35:-0.91139241 36:-0.92405063 37:0.47657011 38:0.58108471 39:0.06002507 40:9.2874E-4 
1.0 0.0 1:-0.28787877 2:-0.28787877 3:0.67346939 4:0.67346939 5:-0.0889796 6:-0.47468018 7:1.0 8:1.0 9:-0.64298766 10:-0.71130332 11:-0.41373722 12:-0.41367091 13:-0.77777778 14:-0.55555556 15:-0.5 16:-0.5 17:-0.24999999 18:-0.24999999 19:-0.24999999 20:-0.24999999 21:-1.0 22:-1.0 23:0.66666667 24:0.66666667 25:0.13691641 26:0.10529693 27:-0.50880856 28:-0.9282801 29:0.03442849 30:0.4274255 31:-0.14409711 32:-0.1127189 33:1.0 34:1.0 35:-0.96202532 36:-0.93670886 37:0.58134857 38:0.57777618 39:-4.7628E-4 40:0.01392715 
1.0 0.0 1:-0.51515151 2:-0.51515151 3:-0.14285714 4:0.42857143 5:-0.14608915 6:-0.14608915 7:1.0 8:1.0 9:-0.67286842 10:-0.35556736 11:-0.72213359 12:-0.72213359 13:-1.0 14:-1.0 15:-1.0 16:-1.0 17:-1.0 18:-1.0 19:-1.0 20:-1.0 21:-1.0 22:-1.0 23:-0.33333333 24:-0.33333333 25:0.12034444 26:0.12034444 27:-0.67259731 28:-0.61671065 29:0.26553468 30:0.23459527 31:-0.11528657 32:-0.10385864 33:-0.99939621 34:-0.99939621 35:-0.74683544 36:-0.74683544 37:-0.99953874 38:-0.99953874 39:-0.99904586 40:-0.99904586 
1.0 0.0 1:-0.51515151 2:-0.51515151 3:-0.14285714 4:0.42857143 5:-0.36903077 6:-0.36903077 7:1.0 8:1.0 9:-0.3843627 10:-0.57678169 11:-0.83924013 12:-0.83924013 13:-0.77777778 14:-0.77777778 15:-0.2 16:-0.2 17:0.20000001 18:0.20000001 19:0.20000001 20:0.20000001 21:-1.0 22:-1.0 23:-0.33333333 24:-0.33333333 25:-0.50359763 26:-0.33717099 27:-0.33783643 28:-0.52764681 29:-0.83537915 30:-0.53980417 31:-0.45123425 32:-0.42651771 33:-0.92989732 34:-0.92989732 35:-0.91139241 36:-0.91139241 37:-0.934478 38:-0.93438629 39:-0.94287687 40:-0.9424387 
1.0 0.0 1:-0.16883113 2:-0.16883113 3:-0.52380953 4:0.61904761 5:-0.46128533 6:-0.46128533 7:1.0 8:1.0 9:-0.77705292 10:-0.65689019 11:-0.16344721 12:-0.16344721 13:-0.55555556 14:-0.55555556 15:-0.42857144 16:-0.42857144 17:-0.14285715 18:-0.14285715 19:-0.14285715 20:-0.14285715 21:-1.0 22:-1.0 23:0.33333333 24:0.33333333 25:0.14610811 26:0.13017583 27:-0.58393932 28:-0.74446402 29:0.19128919 30:0.18837318 31:-0.21543875 32:-0.25123301 33:1.0 34:1.0 35:-0.49367089 36:-0.79746835 37:0.64112471 38:0.64206505 39:0.26864314 40:0.2684481 
1.0 0.0 1:-0.01010097 2:0.02356906 3:-0.37142857 4:-1.0 5:0.80898515 6:0.87265675 7:1.0 8:1.0 9:-0.31504622 10:0.83928843 11:-0.16217104 12:-0.10631574 13:0.11111111 14:0.11111111 15:-0.33333332 16:-0.55555556 17:3.0E-8 18:-0.33333333 19:3.0E-8 20:-0.33333333 21:-1.0 22:-1.0 24:1.0 25:0.16735114 26:0.18497586 27:-0.13614791 28:0.3316215 29:-0.26792856 30:-0.63519668 31:0.27602638 32:0.28493709 33:-0.99911816 34:-0.99888776 35:-0.72151899 36:-0.91139241 37:-0.99936674 38:-0.99903815 39:-0.99760009 40:-0.99807284 
1.0 0.0 1:0.00432903 2:0.00432903 3:-0.14285714 4:1.0 5:0.1178232 6:0.1178232 7:1.0 8:1.0 9:0.07967969 10:-0.28536519 11:-0.07539049 12:-0.07539049 13:-0.11111111 14:-0.11111111 15:-0.42857144 16:-0.42857144 17:-0.14285715 18:-0.14285715 19:-0.14285715 20:-0.14285715 21:-1.0 22:-1.0 23:0.33333333 24:0.33333333 25:0.00749729 26:0.00749729 27:-0.78750098 28:-0.78750098 29:-0.04219495 30:-0.07592918 31:-0.46706621 32:-0.45997433 33:1.0 34:1.0 35:-0.81012658 36:-0.97468354 37:0.66795542 38:0.66805484 39:0.14281065 40:0.14275168 
1.0 0.0 1:0.39393941 2:-0.01010097 3:1.0 4:1.0 5:-0.51859293 6:-0.54321815 7:1.0 8:1.0 9:-0.36531875 10:-0.17799072 11:0.09054406 12:0.07593147 13:-0.11111111 14:-0.11111111 15:-0.33333332 16:-0.33333332 17:3.0E-8 18:3.0E-8 19:3.0E-8 20:3.0E-8 21:-1.0 22:-1.0 25:-0.25549574 26:-0.23897414 27:-0.88026252 28:-0.90168574 29:-0.2078965 30:-0.19142425 31:-0.68516535 32:-0.66781084 33:1.0 34:1.0 35:-0.94936709 36:-0.97468354 37:0.73177242 38:0.73177625 39:0.47542012 40:0.47540953 
1.0 0.0 1:-0.3131313 2:0.00432903 3:1.0 4:1.0 5:-0.21467257 6:-0.29487284 7:1.0 8:1.0 9:-0.49981409 10:-0.7115732 11:-0.3815655 12:-0.3338598 13:-0.33333333 14:0.11111111 15:-0.33333332 16:-0.42857144 17:3.0E-8 18:-0.14285715 19:3.0E-8 20:-0.14285715 21:-1.0 22:-1.0 24:0.33333333 25:-0.36002287 26:-0.06632776 27:-0.76130461 28:-0.91453652 29:-0.39268787 30:0.10483255 31:-0.37652624 32:-0.41247184 33:-0.37399353 34:-0.37399353 35:-0.84810127 36:-0.84810127 37:-0.44835278 38:-0.48696542 39:-0.57646502 40:-0.53744051 
1.0 0.0 1:-0.04377101 2:-0.38047137 3:0.42857143 4:0.42857143 5:-0.3391506 6:-0.30526819 7:1.0 8:1.0 9:-0.70367745 10:-0.66703893 11:-0.46384703 12:-0.45745176 13:-0.11111111 14:-0.55555556 15:-0.55555556 16:-0.55555556 17:-0.33333333 18:-0.33333333 19:-0.33333333 20:-0.33333333 21:-1.0 22:-1.0 23:1.0 24:1.0 25:-0.19960846 26:-0.27116891 27:-0.78472549 28:-0.59973765 29:-0.28177245 30:-0.52405654 31:-0.43901059 32:-0.4387694 33:1.0 34:1.0 35:-0.86075949 36:-0.94936709 37:0.49729224 38:0.50566018 39:-0.07140986 40:-0.11085269 
1.0 1.0 1:0.33333335 2:0.33333335 3:-0.71428571 4:-0.71428571 5:-0.2148545 6:-0.2148545 7:1.0 8:1.0 9:0.28350903 10:0.28350903 11:0.01375475 12:0.21878409 13:-0.11111111 14:-0.11111111 15:-0.2 16:-0.2 17:0.20000001 18:0.20000001 19:0.20000001 20:0.20000001 21:-1.0 22:-1.0 23:-0.33333333 24:-0.33333333 25:-0.12024505 26:-0.02920346 27:0.25803165 28:0.25803165 29:-0.83602314 30:-0.72962936 31:0.07060659 32:0.13129172 33:-0.97544341 34:-0.97544341 35:-0.74683544 36:-0.82278481 37:-0.97819744 38:-0.97817441 39:-0.96911658 40:-0.96915469 
1.0 0.0 1:0.21212124 2:0.21212124 3:-0.14285714 4:-0.14285714 5:-0.51856813 6:-0.54612884 7:1.0 8:1.0 9:-0.77705292 10:-0.77705292 11:0.3084364 12:-0.15886595 13:-0.11111111 14:-0.11111111 15:-0.2 16:-0.2 17:0.20000001 18:0.20000001 19:0.20000001 20:0.20000001 21:-1.0 22:-1.0 23:-0.33333333 24:-0.33333333 25:-0.48363359 26:-0.6433709 27:-0.7989394 28:-0.78750098 29:-0.50071509 30:-0.69036521 31:-0.68305754 32:-0.66640473 33:1.0 34:1.0 35:-0.70886076 36:-0.86075949 37:0.86380152 38:0.86567494 39:0.64774364 40:0.64226327 
1.0 1.0 1:0.00432903 2:0.00432903 3:-0.14285714 4:-0.14285714 5:-0.0187459 6:-0.09671116 7:1.0 8:1.0 9:-0.6459086 10:-0.32130342 11:0.1205839 12:-0.06901709 13:-0.55555556 14:-0.77777778 15:-0.42857144 16:-0.42857144 17:-0.14285715 18:-0.14285715 19:-0.14285715 20:-0.14285715 21:-1.0 22:-1.0 23:0.33333333 24:0.33333333 25:0.35322772 26:0.48068594 27:-0.59118613 28:-0.59118613 29:0.25325606 30:0.19135572 31:-0.09421889 32:-0.14141843 33:-0.92458241 34:-0.92458241 35:-0.96202532 36:-0.96202532 37:-0.93718684 38:-0.9371045 39:-0.95670525 40:-0.95700009 
1.0 0.0 1:-0.03030303 2:-0.03030303 3:1.0 4:1.0 5:-0.73596123 6:-0.73596123 7:1.0 8:1.0 9:-0.20153776 10:-0.8272333 11:0.16385979 12:0.16385979 13:-0.55555556 14:-0.55555556 15:-0.2 16:-0.2 17:0.20000001 18:0.20000001 19:0.20000001 20:0.20000001 21:-1.0 22:-1.0 23:-0.33333333 24:-0.33333333 25:-0.63189193 26:-0.50185673 27:-0.84455715 28:-0.66115148 29:-0.60839517 30:-0.58308979 31:-0.63139728 32:-0.616988 33:1.0 34:1.0 35:-0.79746835 36:-0.64556962 37:0.87970708 38:0.87967867 39:0.60331013 40:0.60338633 
1.0 0.0 1:0.45454546 2:0.45454546 3:1.0 4:1.0 5:-0.45171292 6:-0.45171292 7:1.0 8:1.0 9:-0.34092931 10:0.25121341 11:0.52256562 12:0.52256562 13:-0.11111111 14:-0.33333333 15:-0.2 16:-0.2 17:0.20000001 18:0.20000001 19:0.20000001 20:0.20000001 21:-1.0 22:-1.0 23:-0.33333333 24:-0.33333333 25:-0.39664033 26:-0.28939254 27:-0.50622184 28:-0.60876685 29:-0.61825736 30:-0.40749274 31:-0.46351775 32:-0.46157182 33:-0.72349004 34:-0.72349004 35:-0.87341772 36:-0.91139241 37:-0.7406939 38:-0.74006882 39:-0.77502401 40:-0.77671956 
1.0 0.0 1:-0.51515151 2:-0.51515151 3:-0.52380953 4:-0.52380953 5:-0.19338807 6:-0.19338807 7:1.0 8:1.0 9:-0.33378989 10:-0.80608082 11:-0.62699776 12:-0.62699776 13:-0.11111111 14:-0.11111111 15:-0.42857144 16:-0.42857144 17:-0.14285715 18:-0.14285715 19:-0.14285715 20:-0.14285715 21:-1.0 22:-1.0 23:0.33333333 24:0.33333333 25:0.53360949 26:-0.04657393 27:-0.51990771 28:-0.80652243 29:0.71244003 30:-0.13789599 31:-0.10201062 32:-0.06657384 33:-0.99959483 34:-0.99915788 35:-0.86075949 36:-0.79746835 37:-0.99959155 38:-0.99939242 39:-0.99866302 40:-0.99864034 
1.0 0.0 1:0.33333335 2:0.33333335 3:0.42857143 4:0.42857143 5:-0.37530698 6:-0.30781508 7:1.0 8:1.0 9:0.04543043 10:-0.22391719 11:0.3968109 12:0.3968109 13:-0.33333333 14:-0.33333333 15:-0.2 16:-0.2 17:0.20000001 18:0.20000001 19:0.20000001 20:0.20000001 21:-1.0 22:-1.0 23:-0.33333333 24:-0.33333333 25:-0.66505424 26:-0.28749684 27:-0.86250678 28:-0.85048376 29:-0.63343023 30:0.00619534 31:-0.83272088 32:-0.49579698 33:-0.60135852 34:-0.60135852 35:-0.82278481 36:-0.91139241 37:-0.64335543 38:-0.64333135 39:-0.55801297 40:-0.55805742 
1.0 0.0 1:-0.03030303 2:-0.03030303 3:1.0 4:1.0 5:-0.63172169 6:-0.63172169 7:1.0 8:1.0 9:-0.41248879 10:-0.41248879 11:-0.13403085 12:-0.13403085 13:-0.77777778 14:-0.77777778 15:-0.2 16:-0.2 17:0.20000001 18:0.20000001 19:0.20000001 20:0.20000001 21:-1.0 22:-1.0 23:-0.33333333 24:-0.33333333 25:-0.72399521 26:0.46204608 27:-0.76014959 28:-0.50880856 29:-0.78756524 30:0.46453461 31:-0.74717357 32:-0.09978324 33:1.0 34:1.0 35:-0.93670886 36:-0.93670886 37:0.88102689 38:0.8811472 39:0.59948086 40:0.59915699 
1.0 1.0 1:0.09090908 2:0.09090908 3:-0.14285714 4:-0.14285714 5:-0.65627248 6:-0.65627248 7:1.0 8:1.0 9:-0.77705292 10:-0.77705292 11:-0.40777022 12:-0.40777022 13:-0.33333333 14:-0.55555556 15:-0.2 16:-0.2 17:0.20000001 18:0.20000001 19:0.20000001 20:0.20000001 21:-1.0 22:-1.0 23:-0.33333333 24:-0.33333333 25:-0.0223202 26:-0.71094834 27:-0.58543371 28:-0.84424201 29:0.09154444 30:-0.69232046 31:-0.17388965 32:-0.80804929 33:-0.78822221 34:-0.78822221 35:-0.98734177 36:-0.02531646 37:-0.80430906 38:-0.80459762 39:-0.73173357 40:-0.73125094 
1.0 0.0 1:0.00432903 2:0.00432903 3:0.61904761 4:0.61904761 5:0.03050214 6:0.03050214 7:1.0 8:1.0 9:-0.12218122 10:-0.25890969 11:-0.21661212 12:-0.21661212 13:0.11111111 14:-0.11111111 15:-0.42857144 16:-0.42857144 17:-0.14285715 18:-0.14285715 19:-0.14285715 20:-0.14285715 21:-1.0 22:-1.0 23:0.33333333 24:0.33333333 25:0.34437645 26:-0.7446861 27:-0.9407713 28:-0.9407713 29:0.32627102 30:-0.71902648 31:-0.21241126 32:-0.7851841 33:-0.82287632 34:-0.82287632 35:-0.96202532 36:-0.79746835 37:-0.85278062 38:-0.85289808 39:-0.8963042 40:-0.89626338 
1.0 0.4158738362783525 1:-0.17845115 2:-0.11111108 3:0.14285714 4:0.14285714 5:-0.32497609 6:-0.30304015 7:1.0 8:1.0 9:-0.55310472 10:-0.79883212 11:-0.47657646 12:-0.4935408 13:-0.33333333 14:-0.33333333 15:-0.11111112 16:-0.55555556 17:-0.33333333 18:-0.33333333 19:-0.11111109 20:-0.33333333 21:-0.21432578 22:-1.0 23:1.0 24:1.0 25:0.37342281 26:-0.45863072 27:-0.54912138 28:-0.89709932 29:-0.0547654 30:-0.40880068 31:-0.16998858 32:-0.57617665 33:1.0 34:1.0 35:-0.84810127 36:-0.91139241 37:0.50504957 38:0.50500778 39:-0.10849952 40:-0.10837252 
1.0 0.3655497748866997 1:-0.11111108 2:-0.27272724 3:1.0 4:1.0 5:0.61797027 6:0.65617325 7:-1.0 8:1.0 9:-0.3556228 10:-0.37123856 11:-0.448747 12:-0.6692482 13:-0.77777778 14:-0.77777778 15:0.33333332 16:-0.2 17:1.0 18:0.20000001 19:1.0 20:0.20000001 21:-1.0 22:-1.0 23:-1.0 24:-0.33333333 25:-0.34885466 26:-0.15023226 27:-0.409309 28:-0.68487047 29:-0.48449076 30:-0.19692819 31:-0.35416663 32:-0.32484739 33:-0.9999285 34:-0.9999285 35:-0.84810127 36:-0.84810127 37:-0.99905421 38:-0.99938512 39:-0.99773768 40:-0.99865213 
1.0 0.0 1:0.09090908 2:0.09090908 3:1.0 4:1.0 5:0.54156434 6:0.63325147 8:1.0 9:0.39016984 10:-0.27486832 11:-0.12849167 12:-0.13741745 13:-0.33333333 14:-0.33333333 16:-0.2 17:0.50000002 18:0.20000001 19:0.50000002 20:0.20000001 21:-1.0 22:-1.0 23:-0.66666667 24:-0.33333333 25:-0.59456636 26:-0.59456636 27:-0.82545122 28:-0.82545122 29:-0.55344453 30:-0.62270933 31:-0.73020289 32:-0.72902644 33:-0.99956305 34:-0.99956305 35:-0.39240506 36:-0.39240506 37:-0.99983052 38:-0.99986013 39:-0.99819808 40:-0.99821396 
1.0 0.0 1:0.69696973 2:0.69696973 3:1.0 4:1.0 5:-0.6149438 6:-0.65141029 8:1.0 9:-0.43385403 10:-0.60563664 11:-0.01751761 12:-0.01577371 13:-0.77777778 14:-0.55555556 16:-0.2 17:0.50000002 18:0.20000001 19:0.50000002 20:0.20000001 21:-1.0 22:-1.0 23:-0.66666667 24:-0.33333333 25:-0.38562771 26:-0.55259356 27:-0.75125065 28:-0.77112344 29:-0.3654873 30:-0.57884224 31:-0.54708777 32:-0.55394649 33:-0.8775507 34:-0.82831834 35:-0.72151899 36:-0.3164557 37:-0.87822274 38:-0.84028645 39:-0.87494543 40:-0.85697548 
1.0 0.0 1:0.09090908 2:0.09090908 3:1.0 4:1.0 5:-0.00282801 6:-0.00282801 7:-1.0 9:-0.33312024 10:-0.79453999 11:0.01086296 12:0.01086296 13:-0.33333333 14:-0.33333333 17:0.50000002 18:0.50000002 19:0.50000002 20:0.50000002 21:-1.0 22:-1.0 23:-0.66666667 24:-0.66666667 25:-0.5310659 26:-0.5310659 27:-0.81549815 28:-0.88104982 29:-0.49933203 30:-0.45211817 31:-0.65898007 32:-0.67685243 33:1.0 34:1.0 35:-0.78481013 36:-0.78481013 37:1.0 38:1.0 39:1.0 40:1.0 
1.0 0.1422938239289479 1:0.49494951 2:0.49494951 3:-0.37142857 4:-0.37142857 5:-0.21188315 6:-0.20066482 7:1.0 9:-0.86781624 10:-0.86781624 11:-0.00910777 12:-0.00910777 13:-0.55555556 14:-0.77777778 15:-0.33333332 16:-0.33333332 17:3.0E-8 18:3.0E-8 19:3.0E-8 20:3.0E-8 21:-1.0 22:-1.0 25:0.1168575 26:0.3922583 27:-0.16689848 28:-0.36276796 29:-0.25076634 30:0.08883697 31:0.22811206 32:0.23745757 33:-0.85118274 34:-0.85118274 35:-0.94936709 36:-0.91139241 37:-0.86900596 38:-0.86897731 39:-0.89906359 40:-0.89904771 
1.0 0.0 1:-1.0 2:-1.0 3:-0.14285714 4:-0.14285714 5:-0.03148024 6:-0.03148024 7:1.0 8:1.0 9:-0.43801058 10:-0.45310683 11:-0.8775087 12:-0.8775087 13:-0.55555556 14:-0.77777778 15:-0.2 16:-0.2 17:0.20000001 18:0.20000001 19:0.20000001 20:0.20000001 21:-1.0 22:-1.0 23:-0.33333333 24:-0.33333333 25:0.41746768 26:0.48068594 27:0.2977501 28:0.84343948 29:-0.25457524 30:-0.51009954 31:0.51693642 32:0.60242658 33:-0.99962661 34:-0.99617867 35:-0.98734177 36:-0.96202532 37:-0.99835092 38:-0.99612423 39:-0.99677878 40:-0.99435929 
1.0 1.0 1:-0.42857141 2:-0.42857141 3:-0.14285714 4:-0.14285714 5:-0.32346009 6:-0.32346009 7:1.0 8:1.0 9:-0.44437559 10:-0.37232957 11:-0.58721515 12:-0.58721515 13:-0.77777778 14:-0.77777778 15:-0.42857144 16:-0.42857144 17:-0.14285715 18:-0.14285715 19:-0.14285715 20:-0.14285715 21:-1.0 22:-1.0 23:0.33333333 24:0.33333333 25:0.21363062 26:0.27204897 27:-0.4283876 28:-0.20866223 29:-0.08069114 30:-0.1930917 31:0.03455418 32:0.04444049 33:-0.97023178 34:-0.99907843 35:-0.78481013 36:-0.91139241 37:-0.97537532 38:-0.99901941 39:-0.98185723 40:-0.99847251 
1.0 0.846060776115677 1:-0.44781144 2:-0.44781144 3:-0.42857143 4:-0.42857143 5:-0.22006951 6:-0.24159659 7:1.0 8:1.0 9:-0.28220593 10:-0.06955469 11:-0.60176002 12:-0.60176002 13:-1.0 14:-0.77777778 15:-1.0 16:-0.55555556 17:-1.0 18:-0.33333333 19:-1.0 20:-0.33333333 21:-1.0 22:-1.0 23:1.0 24:1.0 25:0.18775963 26:0.33249233 27:-0.21582631 28:-0.18726201 29:-0.33432136 30:-0.28422129 31:0.32801958 32:0.39737413 33:-0.98669288 34:-0.97126457 35:-0.89873418 36:-0.88607595 37:-0.99011919 38:-0.97854102 39:-0.9933771 40:-0.98644109 
1.0 0.11314691219605345 1:-0.51515151 2:-0.51515151 3:0.14285714 4:0.14285714 5:0.01308989 6:0.01308989 7:1.0 8:1.0 9:0.2064637 10:0.00196273 11:-0.03021369 12:-0.03021369 13:-0.55555556 14:-0.11111111 15:-0.55555556 16:-0.55555556 17:-0.33333333 18:-0.33333333 19:-0.33333333 20:-0.33333333 21:-1.0 22:-1.0 23:1.0 24:1.0 25:-0.05544377 26:0.05051444 27:-0.30227498 28:-0.70770747 29:-0.44833274 30:0.02828487 31:-0.04497111 32:-0.07975882 33:-0.99885599 34:-0.98425391 35:-0.92405063 36:-0.86075949 37:-0.99901442 38:-0.98702352 39:-0.99859851 40:-0.98676213 
1.0 0.0 1:-0.27272724 2:-0.27272724 3:1.0 4:1.0 5:-0.78544317 6:-0.48418545 7:1.0 8:1.0 9:-0.50606907 10:-0.52997037 11:-0.19207402 12:-0.16985811 13:-0.55555556 14:-0.55555556 15:-0.2 16:-0.2 17:0.20000001 18:0.20000001 19:0.20000001 20:0.20000001 21:-1.0 22:-1.0 23:-0.33333333 24:-0.33333333 25:-0.35792487 26:-0.35792487 27:-0.76588724 28:-0.62124417 29:-0.23869898 30:-0.48994363 31:-0.48709171 32:-0.50192892 33:1.0 34:1.0 35:-0.94936709 36:-0.97468354 37:0.88079304 38:0.88079777 39:0.59986188 40:0.59984918 
1.0 1.0 1:0.09090908 2:0.09090908 3:-0.14285714 4:-0.14285714 5:-0.58360415 6:-0.39258928 7:1.0 8:1.0 9:-0.69490832 10:-0.69490832 11:-0.40991557 12:-0.38996644 13:-0.33333333 14:-0.33333333 15:-0.42857144 16:-0.42857144 17:-0.14285715 18:-0.14285715 19:-0.14285715 20:-0.14285715 21:-1.0 22:-1.0 23:0.33333333 24:0.33333333 25:-0.53381623 26:-0.42115227 27:-0.58543371 28:-0.58543371 29:-0.74587765 30:-0.63626624 31:-0.5165257 32:-0.50954997 33:-0.78822221 34:-0.78822221 35:-0.72151899 36:-0.88607595 37:-0.80173098 38:-0.80169511 39:-0.71001623 40:-0.7100752 
1.0 0.0 1:0.17748919 2:0.17748919 3:0.61904761 4:0.61904761 5:-0.66434148 6:0.15256107 7:1.0 8:1.0 9:-0.56222951 10:-0.32123064 11:0.04010542 12:0.03672097 13:0.11111111 14:0.11111111 15:-0.42857144 16:-0.42857144 17:-0.14285715 18:-0.14285715 19:-0.14285715 20:-0.14285715 21:-1.0 22:-1.0 23:0.33333333 24:0.33333333 25:-0.1154157 26:0.02276144 27:-0.90552751 28:-0.82197512 29:-0.05508588 30:-0.06033436 31:-0.49234639 32:-0.48793455 33:1.0 34:1.0 35:-0.94936709 36:-0.84810127 37:0.65328955 38:0.66781752 39:0.20240883 40:0.14347744 
1.0 0.0 1:0.09090908 2:0.15824915 3:0.34693877 4:0.42857143 5:0.10567363 6:-0.62750817 7:1.0 8:1.0 9:-0.05271842 10:-0.37368086 11:-0.09983958 12:-0.12130521 13:0.11111111 14:0.33333333 16:-0.55555556 17:-0.24999999 18:-0.33333333 19:-0.09999999 20:-0.33333333 21:-0.24999998 22:-1.0 23:0.66666667 24:1.0 25:-0.60073739 26:-0.45804296 27:-0.88026252 28:-0.82924351 29:-0.59022179 30:-0.41349708 31:-0.68103624 32:-0.66627332 33:1.0 34:1.0 35:-0.92405063 36:-0.91139241 37:0.58108471 38:0.47657011 39:9.2874E-4 40:0.06002507 
1.0 0.0 1:-0.28787877 2:-0.28787877 3:0.67346939 4:0.67346939 5:-0.0889796 6:-0.47468018 7:1.0 8:1.0 9:-0.64298766 10:-0.71130332 11:-0.41373722 12:-0.41367091 13:-0.77777778 14:-0.55555556 15:-0.5 16:-0.5 17:-0.24999999 18:-0.24999999 19:-0.24999999 20:-0.24999999 21:-1.0 22:-1.0 23:0.66666667 24:0.66666667 25:0.13691641 26:0.10529693 27:-0.50880856 28:-0.9282801 29:0.03442849 30:0.4274255 31:-0.14409711 32:-0.1127189 33:1.0 34:1.0 35:-0.96202532 36:-0.93670886 37:0.58134857 38:0.57777618 39:-4.7628E-4 40:0.01392715 
1.0 0.6112388682116665 1:-0.51515151 2:-0.51515151 3:0.42857143 4:-0.14285714 5:-0.14608915 6:-0.14608915 7:1.0 8:1.0 9:-0.35556736 10:-0.67286842 11:-0.72213359 12:-0.72213359 13:-1.0 14:-1.0 15:-1.0 16:-1.0 17:-1.0 18:-1.0 19:-1.0 20:-1.0 21:-1.0 22:-1.0 23:-0.33333333 24:-0.33333333 25:0.12034444 26:0.12034444 27:-0.61671065 28:-0.67259731 29:0.23459527 30:0.26553468 31:-0.10385864 32:-0.11528657 33:-0.99939621 34:-0.99939621 35:-0.74683544 36:-0.74683544 37:-0.99953874 38:-0.99953874 39:-0.99904586 40:-0.99904586 
1.0 0.0 1:-0.51515151 2:-0.51515151 3:0.42857143 4:-0.14285714 5:-0.36903077 6:-0.36903077 7:1.0 8:1.0 9:-0.57678169 10:-0.3843627 11:-0.83924013 12:-0.83924013 13:-0.77777778 14:-0.77777778 15:-0.2 16:-0.2 17:0.20000001 18:0.20000001 19:0.20000001 20:0.20000001 21:-1.0 22:-1.0 23:-0.33333333 24:-0.33333333 25:-0.33717099 26:-0.50359763 27:-0.52764681 28:-0.33783643 29:-0.53980417 30:-0.83537915 31:-0.42651771 32:-0.45123425 33:-0.92989732 34:-0.92989732 35:-0.91139241 36:-0.91139241 37:-0.93438629 38:-0.934478 39:-0.9424387 40:-0.94287687 
1.0 0.03174267867078953 1:-0.16883113 2:-0.16883113 3:-0.52380953 4:0.61904761 5:-0.46128533 6:-0.46128533 7:1.0 8:1.0 9:-0.77705292 10:-0.65689019 11:-0.16344721 12:-0.16344721 13:-0.55555556 14:-0.55555556 15:-0.42857144 16:-0.42857144 17:-0.14285715 18:-0.14285715 19:-0.14285715 20:-0.14285715 21:-1.0 22:-1.0 23:0.33333333 24:0.33333333 25:0.14610811 26:0.13017583 27:-0.58393932 28:-0.74446402 29:0.19128919 30:0.18837318 31:-0.21543875 32:-0.25123301 33:1.0 34:1.0 35:-0.49367089 36:-0.79746835 37:0.64112471 38:0.64206505 39:0.26864314 40:0.2684481 
1.0 0.5112597883685173 1:0.00432903 2:0.00432903 3:1.0 4:-0.14285714 5:0.1178232 6:0.1178232 7:1.0 8:1.0 9:-0.28536519 10:0.07967969 11:-0.07539049 12:-0.07539049 13:-0.11111111 14:-0.11111111 15:-0.42857144 16:-0.42857144 17:-0.14285715 18:-0.14285715 19:-0.14285715 20:-0.14285715 21:-1.0 22:-1.0 23:0.33333333 24:0.33333333 25:0.00749729 26:0.00749729 27:-0.78750098 28:-0.78750098 29:-0.07592918 30:-0.04219495 31:-0.45997433 32:-0.46706621 33:1.0 34:1.0 35:-0.97468354 36:-0.81012658 37:0.66805484 38:0.66795542 39:0.14275168 40:0.14281065 
1.0 1.0 1:-0.51515151 2:-0.15151513 3:0.42857143 4:0.42857143 5:-0.52184267 6:-0.57386322 7:1.0 8:1.0 9:-0.71371994 10:-0.44696192 11:0.03203668 12:0.07208674 13:-0.55555556 14:-0.55555556 15:-0.2 16:-0.2 17:0.20000001 18:0.20000001 19:0.20000001 20:0.20000001 21:-1.0 22:-1.0 23:-0.33333333 24:-0.33333333 25:-0.00132551 26:-0.00132551 27:-0.40915242 28:-0.5519739 29:-0.23053985 30:-0.12236225 31:-0.02022818 32:-0.0494329 33:-0.37399353 34:-0.37399353 35:-0.94936709 36:-0.62025316 37:-0.37289689 38:-0.37298541 39:-0.09805599 40:-0.09803694 
1.0 0.0 1:-0.04377101 2:-0.38047137 3:0.42857143 4:0.42857143 5:-0.3391506 6:-0.30526819 7:1.0 8:1.0 9:-0.70367745 10:-0.66703893 11:-0.46384703 12:-0.45745176 13:-0.11111111 14:-0.55555556 15:-0.55555556 16:-0.55555556 17:-0.33333333 18:-0.33333333 19:-0.33333333 20:-0.33333333 21:-1.0 22:-1.0 23:1.0 24:1.0 25:-0.19960846 26:-0.27116891 27:-0.78472549 28:-0.59973765 29:-0.28177245 30:-0.52405654 31:-0.43901059 32:-0.4387694 33:1.0 34:1.0 35:-0.86075949 36:-0.94936709 37:0.49729224 38:0.50566018 39:-0.07140986 40:-0.11085269 
1.0 0.0 1:0.09090908 2:-0.21212119 3:0.34693877 4:0.34693877 5:-0.48929277 6:-0.47926064 7:1.0 8:1.0 9:-0.72389844 10:-0.58958859 11:-0.27912367 12:-0.31161669 13:-0.33333333 14:-0.55555556 15:-0.5 16:-0.5 17:-0.24999999 18:-0.24999999 19:-0.24999999 20:-0.24999999 21:-1.0 22:-1.0 23:0.66666667 24:0.66666667 25:0.10529693 26:0.27247694 27:-0.55354176 28:-0.70769011 29:-0.21304401 30:0.0981379 31:-0.15038457 32:-0.19487921 33:1.0 34:1.0 35:-0.93670886 36:-0.94936709 37:0.57107322 38:0.58069745 39:0.0449209 40:0.00231788 
1.0 0.9712316094225893 1:0.33333335 2:0.33333335 3:-0.71428571 4:-0.71428571 5:-0.2148545 6:-0.2148545 7:1.0 8:1.0 9:0.28350903 10:0.28350903 11:0.01375475 12:0.21878409 13:-0.11111111 14:-0.11111111 15:-0.2 16:-0.2 17:0.20000001 18:0.20000001 19:0.20000001 20:0.20000001 21:-1.0 22:-1.0 23:-0.33333333 24:-0.33333333 25:-0.12024505 26:-0.02920346 27:0.25803165 28:0.25803165 29:-0.83602314 30:-0.72962936 31:0.07060659 32:0.13129172 33:-0.97544341 34:-0.97544341 35:-0.74683544 36:-0.82278481 37:-0.97819744 38:-0.97817441 39:-0.96911658 40:-0.96915469 
1.0 0.6702231102287944 1:0.21212124 2:0.21212124 3:-0.14285714 4:-0.14285714 5:-0.51856813 6:-0.54612884 7:1.0 8:1.0 9:-0.77705292 10:-0.77705292 11:0.3084364 12:-0.15886595 13:-0.11111111 14:-0.11111111 15:-0.2 16:-0.2 17:0.20000001 18:0.20000001 19:0.20000001 20:0.20000001 21:-1.0 22:-1.0 23:-0.33333333 24:-0.33333333 25:-0.48363359 26:-0.6433709 27:-0.7989394 28:-0.78750098 29:-0.50071509 30:-0.69036521 31:-0.68305754 32:-0.66640473 33:1.0 34:1.0 35:-0.70886076 36:-0.86075949 37:0.86380152 38:0.86567494 39:0.64774364 40:0.64226327 
1.0 0.4171384594684771 1:0.00432903 2:0.00432903 3:-0.14285714 4:-0.14285714 5:-0.0187459 6:-0.09671116 7:1.0 8:1.0 9:-0.6459086 10:-0.32130342 11:0.1205839 12:-0.06901709 13:-0.55555556 14:-0.77777778 15:-0.42857144 16:-0.42857144 17:-0.14285715 18:-0.14285715 19:-0.14285715 20:-0.14285715 21:-1.0 22:-1.0 23:0.33333333 24:0.33333333 25:0.35322772 26:0.48068594 27:-0.59118613 28:-0.59118613 29:0.25325606 30:0.19135572 31:-0.09421889 32:-0.14141843 33:-0.92458241 34:-0.92458241 35:-0.96202532 36:-0.96202532 37:-0.93718684 38:-0.9371045 39:-0.95670525 40:-0.95700009 
1.0 0.0 1:-0.04377101 2:-0.04377101 3:0.71428571 4:0.71428571 5:-0.06953161 6:0.00159363 7:1.0 8:1.0 9:-0.29950821 10:-0.38082754 11:0.03864782 12:-0.3409919 13:-0.11111111 14:-0.11111111 15:-0.55555556 16:-0.55555556 17:-0.33333333 18:-0.33333333 19:-0.33333333 20:-0.33333333 21:-1.0 22:-1.0 23:1.0 24:1.0 25:-0.03035657 26:0.25150625 27:-0.72916172 28:-0.80909111 29:-0.16647423 30:0.17048694 31:-0.33943867 32:-0.35994512 33:1.0 34:1.0 35:-0.98734177 36:-0.84810127 37:0.49620455 38:0.49291126 39:-0.0613657 40:-0.03367811 
1.0 0.0 1:-0.03030303 2:-0.03030303 3:1.0 4:1.0 5:-0.73596123 6:-0.73596123 7:1.0 8:1.0 9:-0.8272333 10:-0.20153776 11:0.16385979 12:0.16385979 13:-0.55555556 14:-0.55555556 15:-0.2 16:-0.2 17:0.20000001 18:0.20000001 19:0.20000001 20:0.20000001 21:-1.0 22:-1.0 23:-0.33333333 24:-0.33333333 25:-0.50185673 26:-0.63189193 27:-0.66115148 28:-0.84455715 29:-0.58308979 30:-0.60839517 31:-0.616988 32:-0.63139728 33:1.0 34:1.0 35:-0.64556962 36:-0.79746835 37:0.87967867 38:0.87970708 39:0.60338633 40:0.60331013 
1.0 0.0 1:0.21212124 2:0.21212124 3:1.0 4:1.0 5:-0.50872797 6:-0.50872797 7:1.0 8:1.0 9:-0.72660532 10:-0.86427678 11:0.10225263 12:0.10225263 13:-0.55555556 14:-0.77777778 15:-0.2 16:-0.2 17:0.20000001 18:0.20000001 19:0.20000001 20:0.20000001 21:-1.0 22:-1.0 23:-0.33333333 24:-0.33333333 25:-0.21348392 26:-0.23227914 27:-0.81523217 28:-0.44027183 29:-0.11638525 30:-0.44381677 31:-0.41909362 32:-0.39294923 33:-0.87902838 34:-0.87902838 35:-0.51898734 36:-0.51898734 37:-0.88895978 38:-0.88752956 39:-0.89485541 40:-0.89965629 
1.0 0.0 1:0.45454546 2:0.45454546 3:1.0 4:1.0 5:-0.45171292 6:-0.45171292 7:1.0 8:1.0 9:-0.34092931 10:0.25121341 11:0.52256562 12:0.52256562 13:-0.11111111 14:-0.33333333 15:-0.2 16:-0.2 17:0.20000001 18:0.20000001 19:0.20000001 20:0.20000001 21:-1.0 22:-1.0 23:-0.33333333 24:-0.33333333 25:-0.39664033 26:-0.28939254 27:-0.50622184 28:-0.60876685 29:-0.61825736 30:-0.40749274 31:-0.46351775 32:-0.46157182 33:-0.72349004 34:-0.72349004 35:-0.87341772 36:-0.91139241 37:-0.7406939 38:-0.74006882 39:-0.77502401 40:-0.77671956 
1.0 0.0 1:-0.51515151 2:-0.51515151 3:-0.52380953 4:-0.52380953 5:-0.19338807 6:-0.19338807 7:1.0 8:1.0 9:-0.33378989 10:-0.80608082 11:-0.62699776 12:-0.62699776 13:-0.11111111 14:-0.11111111 15:-0.42857144 16:-0.42857144 17:-0.14285715 18:-0.14285715 19:-0.14285715 20:-0.14285715 21:-1.0 22:-1.0 23:0.33333333 24:0.33333333 25:0.53360949 26:-0.04657393 27:-0.51990771 28:-0.80652243 29:0.71244003 30:-0.13789599 31:-0.10201062 32:-0.06657384 33:-0.99959483 34:-0.99915788 35:-0.86075949 36:-0.79746835 37:-0.99959155 38:-0.99939242 39:-0.99866302 40:-0.99864034 
1.0 0.41047422686781365 1:0.00432903 2:0.00432903 3:-0.14285714 4:-0.14285714 5:-0.0187459 6:-0.0187459 7:1.0 8:1.0 9:0.36725511 10:-0.17506405 11:0.1205839 12:0.1205839 13:-0.55555556 14:-0.55555556 15:-0.42857144 16:-0.42857144 17:-0.14285715 18:-0.14285715 19:-0.14285715 20:-0.14285715 21:-1.0 22:-1.0 23:0.33333333 24:0.33333333 25:0.48068594 26:0.13433405 27:-0.257936 28:-0.3818562 29:0.25353617 30:-0.15890927 31:0.28223181 32:0.26801729 33:-0.92458241 34:-0.92458241 35:-0.96202532 36:-0.96202532 37:-0.93717901 38:-0.93717348 39:-0.95673246 40:-0.95672793 
1.0 0.9324742265235205 1:0.33333335 2:0.33333335 3:0.42857143 4:0.42857143 5:-0.37530698 6:-0.30781508 7:1.0 8:1.0 9:0.04543043 10:-0.22391719 11:0.3968109 12:0.3968109 13:-0.33333333 14:-0.33333333 15:-0.2 16:-0.2 17:0.20000001 18:0.20000001 19:0.20000001 20:0.20000001 21:-1.0 22:-1.0 23:-0.33333333 24:-0.33333333 25:-0.66505424 26:-0.28749684 27:-0.86250678 28:-0.85048376 29:-0.63343023 30:0.00619534 31:-0.83272088 32:-0.49579698 33:-0.60135852 34:-0.60135852 35:-0.82278481 36:-0.91139241 37:-0.64335543 38:-0.64333135 39:-0.55801297 40:-0.55805742 
1.0 0.0 1:-0.03030303 2:-0.03030303 3:1.0 4:1.0 5:-0.63172169 6:-0.63172169 7:1.0 8:1.0 9:-0.41248879 10:-0.41248879 11:-0.13403085 12:-0.13403085 13:-0.77777778 14:-0.77777778 15:-0.2 16:-0.2 17:0.20000001 18:0.20000001 19:0.20000001 20:0.20000001 21:-1.0 22:-1.0 23:-0.33333333 24:-0.33333333 25:-0.72399521 26:0.46204608 27:-0.76014959 28:-0.50880856 29:-0.78756524 30:0.46453461 31:-0.74717357 32:-0.09978324 33:1.0 34:1.0 35:-0.93670886 36:-0.93670886 37:0.88102689 38:0.8811472 39:0.59948086 40:0.59915699 
1.0 0.3331573163901281 1:0.09090908 2:0.09090908 3:-0.14285714 4:-0.14285714 5:-0.65627248 6:-0.65627248 7:1.0 8:1.0 9:-0.77705292 10:-0.77705292 11:-0.40777022 12:-0.40777022 13:-0.33333333 14:-0.55555556 15:-0.2 16:-0.2 17:0.20000001 18:0.20000001 19:0.20000001 20:0.20000001 21:-1.0 22:-1.0 23:-0.33333333 24:-0.33333333 25:-0.0223202 26:-0.71094834 27:-0.58543371 28:-0.84424201 29:0.09154444 30:-0.69232046 31:-0.17388965 32:-0.80804929 33:-0.78822221 34:-0.78822221 35:-0.98734177 36:-0.02531646 37:-0.80430906 38:-0.80459762 39:-0.73173357 40:-0.73125094 
1.0 0.0 1:0.00432903 2:0.00432903 3:0.61904761 4:0.61904761 5:0.03050214 6:0.03050214 7:1.0 8:1.0 9:-0.25890969 10:-0.12218122 11:-0.21661212 12:-0.21661212 13:-0.11111111 14:0.11111111 15:-0.42857144 16:-0.42857144 17:-0.14285715 18:-0.14285715 19:-0.14285715 20:-0.14285715 21:-1.0 22:-1.0 23:0.33333333 24:0.33333333 25:-0.7446861 26:0.34437645 27:-0.9407713 28:-0.9407713 29:-0.71902648 30:0.32627102 31:-0.7851841 32:-0.21241126 33:-0.82287632 34:-0.82287632 35:-0.79746835 36:-0.96202532 37:-0.85289808 38:-0.85278062 39:-0.89626338 40:-0.8963042 
1.0 0.0 1:-0.11111108 2:-0.17845115 3:0.14285714 4:0.14285714 5:-0.30304015 6:-0.32497609 7:1.0 8:1.0 9:-0.79883212 10:-0.55310472 11:-0.4935408 12:-0.47657646 13:-0.33333333 14:-0.33333333 15:-0.55555556 16:-0.11111112 17:-0.33333333 18:-0.33333333 19:-0.33333333 20:-0.11111109 21:-1.0 22:-0.21432578 23:1.0 24:1.0 25:-0.45863072 26:0.37342281 27:-0.89709932 28:-0.54912138 29:-0.40880068 30:-0.0547654 31:-0.57617665 32:-0.16998858 33:1.0 34:1.0 35:-0.91139241 36:-0.84810127 37:0.50500778 38:0.50504957 39:-0.10837252 40:-0.10849952 
1.0 0.4147653065083361 1:-0.27272724 2:-0.11111108 3:1.0 4:1.0 5:0.65617325 6:0.61797027 7:1.0 8:-1.0 9:-0.37123856 10:-0.3556228 11:-0.6692482 12:-0.448747 13:-0.77777778 14:-0.77777778 15:-0.2 16:0.33333332 17:0.20000001 18:1.0 19:0.20000001 20:1.0 21:-1.0 22:-1.0 23:-0.33333333 24:-1.0 25:-0.15023226 26:-0.34885466 27:-0.68487047 28:-0.409309 29:-0.19692819 30:-0.48449076 31:-0.32484739 32:-0.35416663 33:-0.9999285 34:-0.9999285 35:-0.84810127 36:-0.84810127 37:-0.99938512 38:-0.99905421 39:-0.99865213 40:-0.99773768 
1.0 0.0 1:0.09090908 2:0.09090908 3:1.0 4:1.0 5:0.54156434 6:0.63325147 8:1.0 9:0.39016984 10:-0.27486832 11:-0.12849167 12:-0.13741745 13:-0.33333333 14:-0.33333333 16:-0.2 17:0.50000002 18:0.20000001 19:0.50000002 20:0.20000001 21:-1.0 22:-1.0 23:-0.66666667 24:-0.33333333 25:-0.59456636 26:-0.59456636 27:-0.82545122 28:-0.82545122 29:-0.55344453 30:-0.62270933 31:-0.73020289 32:-0.72902644 33:-0.99956305 34:-0.99956305 35:-0.39240506 36:-0.39240506 37:-0.99983052 38:-0.99986013 39:-0.99819808 40:-0.99821396 
1.0 0.0 1:0.69696973 2:0.69696973 3:1.0 4:1.0 5:-0.6149438 6:-0.65141029 8:1.0 9:-0.43385403 10:-0.60563664 11:-0.01751761 12:-0.01577371 13:-0.77777778 14:-0.55555556 16:-0.2 17:0.50000002 18:0.20000001 19:0.50000002 20:0.20000001 21:-1.0 22:-1.0 23:-0.66666667 24:-0.33333333 25:-0.38562771 26:-0.55259356 27:-0.75125065 28:-0.77112344 29:-0.3654873 30:-0.57884224 31:-0.54708777 32:-0.55394649 33:-0.8775507 34:-0.82831834 35:-0.72151899 36:-0.3164557 37:-0.87822274 38:-0.84028645 39:-0.87494543 40:-0.85697548 
1.0 0.034693810777054496 1:0.09090908 2:0.09090908 3:1.0 4:1.0 5:-0.00282801 6:-0.00282801 7:-1.0 9:-0.33312024 10:-0.79453999 11:0.01086296 12:0.01086296 13:-0.33333333 14:-0.33333333 17:0.50000002 18:0.50000002 19:0.50000002 20:0.50000002 21:-1.0 22:-1.0 23:-0.66666667 24:-0.66666667 25:-0.5310659 26:-0.5310659 27:-0.81549815 28:-0.88104982 29:-0.49933203 30:-0.45211817 31:-0.65898007 32:-0.67685243 33:1.0 34:1.0 35:-0.78481013 36:-0.78481013 37:1.0 38:1.0 39:1.0 40:1.0 
1.0 0.750840568476558 1:0.49494951 2:0.49494951 3:-0.37142857 4:-0.37142857 5:-0.20066482 6:-0.21188315 8:1.0 9:-0.86781624 10:-0.86781624 11:-0.00910777 12:-0.00910777 13:-0.77777778 14:-0.55555556 15:-0.33333332 16:-0.33333332 17:3.0E-8 18:3.0E-8 19:3.0E-8 20:3.0E-8 21:-1.0 22:-1.0 25:0.3922583 26:0.1168575 27:-0.36276796 28:-0.16689848 29:0.08883697 30:-0.25076634 31:0.23745757 32:0.22811206 33:-0.85118274 34:-0.85118274 35:-0.91139241 36:-0.94936709 37:-0.86897731 38:-0.86900596 39:-0.89904771 40:-0.89906359 
1.0 0.0 1:0.09090908 2:0.09090908 3:1.0 4:1.0 5:-0.46317381 6:-0.44407233 7:1.0 8:1.0 9:-0.10746897 10:-0.44400558 11:0.04864616 12:0.08337715 13:-0.33333333 14:-0.33333333 15:-0.2 16:-0.2 17:0.20000001 18:0.20000001 19:0.20000001 20:0.20000001 21:-1.0 22:-1.0 23:-0.33333333 24:-0.33333333 25:-0.16091854 26:-0.12717239 27:-0.79968774 28:-0.50214297 29:-0.15941116 30:-0.23992613 31:-0.33934237 32:-0.31891084 33:-0.97502234 34:-0.97502234 35:-0.92405063 36:-0.92405063 37:-0.92398788 38:-0.97666133 39:-0.83986759 40:-0.97961374 
1.0 0.0 1:-1.0 2:-1.0 3:-0.14285714 4:-0.14285714 5:-0.03148024 6:-0.03148024 7:1.0 8:1.0 9:-0.45310683 10:-0.43801058 11:-0.8775087 12:-0.8775087 13:-0.77777778 14:-0.55555556 15:-0.2 16:-0.2 17:0.20000001 18:0.20000001 19:0.20000001 20:0.20000001 21:-1.0 22:-1.0 23:-0.33333333 24:-0.33333333 25:0.48068594 26:0.41746768 27:0.84343948 28:0.2977501 29:-0.51009954 30:-0.25457524 31:0.60242658 32:0.51693642 33:-0.99617867 34:-0.99962661 35:-0.96202532 36:-0.98734177 37:-0.99612423 38:-0.99835092 39:-0.99435929 40:-0.99677878 
1.0 0.03920652255630918 1:-0.42857141 2:-0.42857141 3:-0.14285714 4:-0.14285714 5:-0.32346009 6:-0.32346009 7:1.0 8:1.0 9:-0.37232957 10:-0.44437559 11:-0.58721515 12:-0.58721515 13:-0.77777778 14:-0.77777778 15:-0.42857144 16:-0.42857144 17:-0.14285715 18:-0.14285715 19:-0.14285715 20:-0.14285715 21:-1.0 22:-1.0 23:0.33333333 24:0.33333333 25:0.27204897 26:0.21363062 27:-0.20866223 28:-0.4283876 29:-0.1930917 30:-0.08069114 31:0.04444049 32:0.03455418 33:-0.99907843 34:-0.97023178 35:-0.91139241 36:-0.78481013 37:-0.99901941 38:-0.97537532 39:-0.99847251 40:-0.98185723 
1.0 0.0 1:-0.51515151 2:-0.51515151 3:0.14285714 4:0.14285714 5:0.01308989 6:0.01308989 7:1.0 8:1.0 9:0.00196273 10:0.2064637 11:-0.03021369 12:-0.03021369 13:-0.11111111 14:-0.55555556 15:-0.55555556 16:-0.55555556 17:-0.33333333 18:-0.33333333 19:-0.33333333 20:-0.33333333 21:-1.0 22:-1.0 23:1.0 24:1.0 25:0.05051444 26:-0.05544377 27:-0.70770747 28:-0.30227498 29:0.02828487 30:-0.44833274 31:-0.07975882 32:-0.04497111 33:-0.98425391 34:-0.99885599 35:-0.86075949 36:-0.92405063 37:-0.98702352 38:-0.99901442 39:-0.98676213 40:-0.99859851 
1.0 0.0 1:-0.27272724 2:-0.27272724 3:1.0 4:1.0 5:-0.78544317 6:-0.48418545 7:1.0 8:1.0 9:-0.50606907 10:-0.52997037 11:-0.19207402 12:-0.16985811 13:-0.55555556 14:-0.55555556 15:-0.2 16:-0.2 17:0.20000001 18:0.20000001 19:0.20000001 20:0.20000001 21:-1.0 22:-1.0 23:-0.33333333 24:-0.33333333 25:-0.35792487 26:-0.35792487 27:-0.76588724 28:-0.62124417 29:-0.23869898 30:-0.48994363 31:-0.48709171 32:-0.50192892 33:1.0 34:1.0 35:-0.94936709 36:-0.97468354 37:0.88079304 38:0.88079777 39:0.59986188 40:0.59984918 
1.0 0.0 1:0.17748919 2:0.17748919 3:0.61904761 4:0.61904761 5:0.15256107 6:-0.66434148 7:1.0 8:1.0 9:-0.32123064 10:-0.56222951 11:0.03672097 12:0.04010542 13:0.11111111 14:0.11111111 15:-0.42857144 16:-0.42857144 17:-0.14285715 18:-0.14285715 19:-0.14285715 20:-0.14285715 21:-1.0 22:-1.0 23:0.33333333 24:0.33333333 25:0.02276144 26:-0.1154157 27:-0.82197512 28:-0.90552751 29:-0.06033436 30:-0.05508588 31:-0.48793455 32:-0.49234639 33:1.0 34:1.0 35:-0.84810127 36:-0.94936709 37:0.66781752 38:0.65328955 39:0.14347744 40:0.20240883 
1.0 0.0 1:0.09090908 2:0.15824915 3:0.34693877 4:0.42857143 5:0.10567363 6:-0.62750817 7:1.0 8:1.0 9:-0.05271842 10:-0.37368086 11:-0.09983958 12:-0.12130521 13:0.11111111 14:0.33333333 16:-0.55555556 17:-0.24999999 18:-0.33333333 19:-0.09999999 20:-0.33333333 21:-0.24999998 22:-1.0 23:0.66666667 24:1.0 25:-0.60073739 26:-0.45804296 27:-0.88026252 28:-0.82924351 29:-0.59022179 30:-0.41349708 31:-0.68103624 32:-0.66627332 33:1.0 34:1.0 35:-0.92405063 36:-0.91139241 37:0.58108471 38:0.47657011 39:9.2874E-4 40:0.06002507 
1.0 0.0 1:-0.28787877 2:-0.28787877 3:0.67346939 4:0.67346939 5:-0.47468018 6:-0.0889796 7:1.0 8:1.0 9:-0.71130332 10:-0.64298766 11:-0.41367091 12:-0.41373722 13:-0.55555556 14:-0.77777778 15:-0.5 16:-0.5 17:-0.24999999 18:-0.24999999 19:-0.24999999 20:-0.24999999 21:-1.0 22:-1.0 23:0.66666667 24:0.66666667 25:0.10529693 26:0.13691641 27:-0.9282801 28:-0.50880856 29:0.4274255 30:0.03442849 31:-0.1127189 32:-0.14409711 33:1.0 34:1.0 35:-0.93670886 36:-0.96202532 37:0.57777618 38:0.58134857 39:0.01392715 40:-4.7628E-4 
1.0 0.2967791416931879 1:-0.51515151 2:-0.51515151 3:-0.14285714 4:0.42857143 5:-0.14608915 6:-0.14608915 7:1.0 8:1.0 9:-0.67286842 10:-0.35556736 11:-0.72213359 12:-0.72213359 13:-1.0 14:-1.0 15:-1.0 16:-1.0 17:-1.0 18:-1.0 19:-1.0 20:-1.0 21:-1.0 22:-1.0 23:-0.33333333 24:-0.33333333 25:0.12034444 26:0.12034444 27:-0.67259731 28:-0.61671065 29:0.26553468 30:0.23459527 31:-0.11528657 32:-0.10385864 33:-0.99939621 34:-0.99939621 35:-0.74683544 36:-0.74683544 37:-0.99953874 38:-0.99953874 39:-0.99904586 40:-0.99904586 
1.0 0.014733114744663201 1:-0.51515151 2:-0.51515151 3:0.42857143 4:-0.14285714 5:-0.36903077 6:-0.36903077 7:1.0 8:1.0 9:-0.57678169 10:-0.3843627 11:-0.83924013 12:-0.83924013 13:-0.77777778 14:-0.77777778 15:-0.2 16:-0.2 17:0.20000001 18:0.20000001 19:0.20000001 20:0.20000001 21:-1.0 22:-1.0 23:-0.33333333 24:-0.33333333 25:-0.33717099 26:-0.50359763 27:-0.52764681 28:-0.33783643 29:-0.53980417 30:-0.83537915 31:-0.42651771 32:-0.45123425 33:-0.92989732 34:-0.92989732 35:-0.91139241 36:-0.91139241 37:-0.93438629 38:-0.934478 39:-0.9424387 40:-0.94287687 
1.0 0.0 1:-0.01010097 2:0.02356906 3:-0.37142857 4:-1.0 5:0.80898515 6:0.87265675 7:1.0 8:1.0 9:-0.31504622 10:0.83928843 11:-0.16217104 12:-0.10631574 13:0.11111111 14:0.11111111 15:-0.33333332 16:-0.55555556 17:3.0E-8 18:-0.33333333 19:3.0E-8 20:-0.33333333 21:-1.0 22:-1.0 24:1.0 25:0.16735114 26:0.18497586 27:-0.13614791 28:0.3316215 29:-0.26792856 30:-0.63519668 31:0.27602638 32:0.28493709 33:-0.99911816 34:-0.99888776 35:-0.72151899 36:-0.91139241 37:-0.99936674 38:-0.99903815 39:-0.99760009 40:-0.99807284 
1.0 0.7743515923527238 1:0.00432903 2:0.00432903 3:-0.14285714 4:1.0 5:0.1178232 6:0.1178232 7:1.0 8:1.0 9:0.07967969 10:-0.28536519 11:-0.07539049 12:-0.07539049 13:-0.11111111 14:-0.11111111 15:-0.42857144 16:-0.42857144 17:-0.14285715 18:-0.14285715 19:-0.14285715 20:-0.14285715 21:-1.0 22:-1.0 23:0.33333333 24:0.33333333 25:0.00749729 26:0.00749729 27:-0.78750098 28:-0.78750098 29:-0.04219495 30:-0.07592918 31:-0.46706621 32:-0.45997433 33:1.0 34:1.0 35:-0.81012658 36:-0.97468354 37:0.66795542 38:0.66805484 39:0.14281065 40:0.14275168 
1.0 0.0 1:0.39393941 2:-0.01010097 3:1.0 4:1.0 5:-0.51859293 6:-0.54321815 7:1.0 8:1.0 9:-0.36531875 10:-0.17799072 11:0.09054406 12:0.07593147 13:-0.11111111 14:-0.11111111 15:-0.33333332 16:-0.33333332 17:3.0E-8 18:3.0E-8 19:3.0E-8 20:3.0E-8 21:-1.0 22:-1.0 25:-0.25549574 26:-0.23897414 27:-0.88026252 28:-0.90168574 29:-0.2078965 30:-0.19142425 31:-0.68516535 32:-0.66781084 33:1.0 34:1.0 35:-0.94936709 36:-0.97468354 37:0.73177242 38:0.73177625 39:0.47542012 40:0.47540953 
1.0 0.0 1:-0.3131313 2:0.00432903 3:1.0 4:1.0 5:-0.21467257 6:-0.29487284 7:1.0 8:1.0 9:-0.49981409 10:-0.7115732 11:-0.3815655 12:-0.3338598 13:-0.33333333 14:0.11111111 15:-0.33333332 16:-0.42857144 17:3.0E-8 18:-0.14285715 19:3.0E-8 20:-0.14285715 21:-1.0 22:-1.0 24:0.33333333 25:-0.36002287 26:-0.06632776 27:-0.76130461 28:-0.91453652 29:-0.39268787 30:0.10483255 31:-0.37652624 32:-0.41247184 33:-0.37399353 34:-0.37399353 35:-0.84810127 36:-0.84810127 37:-0.44835278 38:-0.48696542 39:-0.57646502 40:-0.53744051 
1.0 0.0 1:-0.38047137 2:-0.04377101 3:0.42857143 4:0.42857143 5:-0.30526819 6:-0.3391506 7:1.0 8:1.0 9:-0.66703893 10:-0.70367745 11:-0.45745176 12:-0.46384703 13:-0.55555556 14:-0.11111111 15:-0.55555556 16:-0.55555556 17:-0.33333333 18:-0.33333333 19:-0.33333333 20:-0.33333333 21:-1.0 22:-1.0 23:1.0 24:1.0 25:-0.27116891 26:-0.19960846 27:-0.59973765 28:-0.78472549 29:-0.52405654 30:-0.28177245 31:-0.4387694 32:-0.43901059 33:1.0 34:1.0 35:-0.94936709 36:-0.86075949 37:0.50566018 38:0.49729224 39:-0.11085269 40:-0.07140986 
1.0 0.0 1:-0.21212119 2:0.09090908 3:0.34693877 4:0.34693877 5:-0.47926064 6:-0.48929277 7:1.0 8:1.0 9:-0.58958859 10:-0.72389844 11:-0.31161669 12:-0.27912367 13:-0.55555556 14:-0.33333333 15:-0.5 16:-0.5 17:-0.24999999 18:-0.24999999 19:-0.24999999 20:-0.24999999 21:-1.0 22:-1.0 23:0.66666667 24:0.66666667 25:0.27247694 26:0.10529693 27:-0.70769011 28:-0.55354176 29:0.0981379 30:-0.21304401 31:-0.19487921 32:-0.15038457 33:1.0 34:1.0 35:-0.94936709 36:-0.93670886 37:0.58069745 38:0.57107322 39:0.00231788 40:0.0449209 
1.0 1.0 1:1.0 2:1.0 3:-0.37142857 4:-0.37142857 5:-0.50216342 6:-0.50216342 7:1.0 8:1.0 9:-1.0 10:-0.43959264 11:0.55771943 12:0.265817 13:0.11111111 14:0.11111111 15:1.0 16:1.0 17:3.0E-8 18:3.0E-8 19:0.39999999 20:0.39999999 21:1.0 22:1.0 25:0.37464616 26:0.28701864 27:-0.60664227 28:-0.60664227 29:0.38307987 30:0.26021083 31:-0.06045451 32:-0.1073146 33:-0.82831834 34:-0.82831834 35:-0.96202532 36:-0.97468354 37:-0.85265738 38:-0.85264666 39:-0.8556165 40:-0.85563767 
1.0 0.0 1:-0.03030303 2:-0.03030303 3:1.0 4:1.0 5:-0.73596123 6:-0.73596123 7:1.0 8:1.0 9:-0.8272333 10:-0.20153776 11:0.16385979 12:0.16385979 13:-0.55555556 14:-0.55555556 15:-0.2 16:-0.2 17:0.20000001 18:0.20000001 19:0.20000001 20:0.20000001 21:-1.0 22:-1.0 23:-0.33333333 24:-0.33333333 25:-0.50185673 26:-0.63189193 27:-0.66115148 28:-0.84455715 29:-0.58308979 30:-0.60839517 31:-0.616988 32:-0.63139728 33:1.0 34:1.0 35:-0.64556962 36:-0.79746835 37:0.87967867 38:0.87970708 39:0.60338633 40:0.60331013 
1.0 0.0 1:0.21212124 2:0.21212124 3:1.0 4:1.0 5:-0.50872797 6:-0.50872797 7:1.0 8:1.0 9:-0.72660532 10:-0.86427678 11:0.10225263 12:0.10225263 13:-0.55555556 14:-0.77777778 15:-0.2 16:-0.2 17:0.20000001 18:0.20000001 19:0.20000001 20:0.20000001 21:-1.0 22:-1.0 23:-0.33333333 24:-0.33333333 25:-0.21348392 26:-0.23227914 27:-0.81523217 28:-0.44027183 29:-0.11638525 30:-0.44381677 31:-0.41909362 32:-0.39294923 33:-0.87902838 34:-0.87902838 35:-0.51898734 36:-0.51898734 37:-0.88895978 38:-0.88752956 39:-0.89485541 40:-0.89965629 
1.0 0.0 1:0.45454546 2:0.45454546 3:1.0 4:1.0 5:-0.45171292 6:-0.45171292 7:1.0 8:1.0 9:-0.34092931 10:0.25121341 11:0.52256562 12:0.52256562 13:-0.11111111 14:-0.33333333 15:-0.2 16:-0.2 17:0.20000001 18:0.20000001 19:0.20000001 20:0.20000001 21:-1.0 22:-1.0 23:-0.33333333 24:-0.33333333 25:-0.39664033 26:-0.28939254 27:-0.50622184 28:-0.60876685 29:-0.61825736 30:-0.40749274 31:-0.46351775 32:-0.46157182 33:-0.72349004 34:-0.72349004 35:-0.87341772 36:-0.91139241 37:-0.7406939 38:-0.74006882 39:-0.77502401 40:-0.77671956 
1.0 0.0 1:-0.51515151 2:-0.51515151 3:-0.52380953 4:-0.52380953 5:-0.19338807 6:-0.19338807 7:1.0 8:1.0 9:-0.33378989 10:-0.80608082 11:-0.62699776 12:-0.62699776 13:-0.11111111 14:-0.11111111 15:-0.42857144 16:-0.42857144 17:-0.14285715 18:-0.14285715 19:-0.14285715 20:-0.14285715 21:-1.0 22:-1.0 23:0.33333333 24:0.33333333 25:0.53360949 26:-0.04657393 27:-0.51990771 28:-0.80652243 29:0.71244003 30:-0.13789599 31:-0.10201062 32:-0.06657384 33:-0.99959483 34:-0.99915788 35:-0.86075949 36:-0.79746835 37:-0.99959155 38:-0.99939242 39:-0.99866302 40:-0.99864034 
1.0 0.0 1:0.00432903 2:0.00432903 3:-0.14285714 4:-0.14285714 5:-0.0187459 6:-0.0187459 7:1.0 8:1.0 9:-0.17506405 10:0.36725511 11:0.1205839 12:0.1205839 13:-0.55555556 14:-0.55555556 15:-0.42857144 16:-0.42857144 17:-0.14285715 18:-0.14285715 19:-0.14285715 20:-0.14285715 21:-1.0 22:-1.0 23:0.33333333 24:0.33333333 25:0.13433405 26:0.48068594 27:-0.3818562 28:-0.257936 29:-0.15890927 30:0.25353617 31:0.26801729 32:0.28223181 33:-0.92458241 34:-0.92458241 35:-0.96202532 36:-0.96202532 37:-0.93717348 38:-0.93717901 39:-0.95672793 40:-0.95673246 
1.0 0.2890558908852973 1:0.33333335 2:0.33333335 3:0.42857143 4:0.42857143 5:-0.30781508 6:-0.37530698 7:1.0 8:1.0 9:-0.22391719 10:0.04543043 11:0.3968109 12:0.3968109 13:-0.33333333 14:-0.33333333 15:-0.2 16:-0.2 17:0.20000001 18:0.20000001 19:0.20000001 20:0.20000001 21:-1.0 22:-1.0 23:-0.33333333 24:-0.33333333 25:-0.28749684 26:-0.66505424 27:-0.85048376 28:-0.86250678 29:0.00619534 30:-0.63343023 31:-0.49579698 32:-0.83272088 33:-0.60135852 34:-0.60135852 35:-0.91139241 36:-0.82278481 37:-0.64333135 38:-0.64335543 39:-0.55805742 40:-0.55801297 
1.0 0.024460192742527573 1:-0.11111108 2:-0.17845115 3:0.14285714 4:0.14285714 5:-0.30304015 6:-0.32497609 7:1.0 8:1.0 9:-0.79883212 10:-0.55310472 11:-0.4935408 12:-0.47657646 13:-0.33333333 14:-0.33333333 15:-0.55555556 16:-0.11111112 17:-0.33333333 18:-0.33333333 19:-0.33333333 20:-0.11111109 21:-1.0 22:-0.21432578 23:1.0 24:1.0 25:-0.45863072 26:0.37342281 27:-0.89709932 28:-0.54912138 29:-0.40880068 30:-0.0547654 31:-0.57617665 32:-0.16998858 33:1.0 34:1.0 35:-0.91139241 36:-0.84810127 37:0.50500778 38:0.50504957 39:-0.10837252 40:-0.10849952 
1.0 0.0 1:0.09090908 2:0.09090908 3:0.42857143 4:0.42857143 5:0.19773759 6:0.19773759 8:1.0 9:-0.18177491 10:-0.0173491 11:-0.02593371 12:-0.02593371 13:-0.11111111 14:-0.11111111 15:-0.2 16:-0.2 17:0.20000001 18:0.20000001 19:0.20000001 20:0.20000001 21:-1.0 22:-1.0 23:-0.33333333 24:-0.33333333 25:-0.5310659 26:-0.62641307 27:-0.7989394 28:-0.68205849 29:-0.46667981 30:-0.73705345 31:-0.66440725 32:-0.6670942 33:1.0 34:1.0 35:-0.75949367 36:-0.39240506 37:0.88070837 38:0.8806513 39:0.6001794 40:0.6001794 
1.0 1.0 1:0.33333335 2:0.33333335 3:0.42857143 4:0.42857143 5:-0.08278137 6:-0.08278137 8:1.0 9:-0.2843336 10:-0.36495516 11:0.14253408 12:0.14253408 13:-0.55555556 14:-0.55555556 15:-0.2 16:-0.2 17:0.20000001 18:0.20000001 19:0.20000001 20:0.20000001 21:-1.0 22:-1.0 23:-0.33333333 24:-0.33333333 25:-0.52274124 26:-0.42259549 27:-0.70697905 28:-0.62966216 29:-0.58546148 30:-0.55619503 31:-0.50357313 32:-0.48600639 33:-0.84610618 34:-0.84610618 35:-0.86075949 36:-0.86075949 37:-0.85575685 38:-0.85575685 39:-0.87564555 40:-0.87564555 
1.0 0.20220361077547008 1:-0.51515151 2:-0.51515151 3:-0.14285714 4:-0.14285714 5:1.0 6:1.0 7:1.0 8:-1.0 9:-0.21206288 10:-0.21206288 11:-1.0 12:-1.0 13:-1.0 14:-1.0 15:-1.0 16:-1.0 17:-1.0 18:-1.0 19:-1.0 20:-1.0 21:-1.0 22:-1.0 23:-0.33333333 24:-0.33333333 25:-0.38307112 26:-0.38307112 27:-0.75928165 28:-0.76228211 29:-0.36872049 30:-0.34289342 31:-0.59362897 32:-0.58589832 33:-0.99922143 34:-0.99922143 35:-0.49367089 36:-0.81012658 37:-0.99954551 38:-0.99941121 39:-0.99848068 40:-0.99848068 
1.0 0.0 1:0.09090908 2:0.09090908 3:-0.37142857 4:-0.37142857 5:-0.03572501 6:0.04789705 7:1.0 9:-0.31053427 10:-0.31053427 11:-0.06828468 12:-0.06828468 13:-0.11111111 14:-0.11111111 15:-0.33333332 16:-0.33333332 17:3.0E-8 18:3.0E-8 19:3.0E-8 20:3.0E-8 21:-1.0 22:-1.0 25:-0.33342991 26:0.22923304 27:-0.91286308 28:-0.90168574 29:-0.03491809 30:0.42225731 31:-0.63607122 32:-0.61801117 33:1.0 34:1.0 35:-0.92405063 36:-0.26582278 37:0.76740315 38:0.76724631 39:0.33456372 40:0.33455842 
1.0 0.0 1:-0.27272724 2:-0.27272724 3:-0.14285714 4:-0.14285714 5:0.63325147 6:0.63325147 7:1.0 8:-1.0 9:-0.21206288 10:-0.21206288 11:-0.8248268 12:-0.8248268 13:-1.0 14:-1.0 15:-1.0 16:-1.0 17:-1.0 18:-1.0 19:-1.0 20:-1.0 21:-1.0 22:-1.0 23:-0.33333333 24:-0.33333333 25:-0.20280878 26:-0.20280878 27:-0.09510173 28:-0.11587576 29:-0.62199973 30:-0.60910265 31:-0.16176949 32:-0.16761042 33:-0.99899899 34:-0.99899899 35:-0.81012658 36:-0.81012658 37:-0.99909991 38:-0.99910943 39:-0.99908396 40:-0.99908396 
1.0 0.4026742737085584 1:-0.15151513 2:-0.15151513 3:-0.14285714 4:-0.14285714 5:-0.30162982 6:-0.30162982 7:1.0 8:1.0 9:-0.35695863 10:-0.08277004 11:0.08027015 12:0.08027015 13:-0.77777778 14:-0.77777778 15:-0.2 16:-0.2 17:0.20000001 18:0.20000001 19:0.20000001 20:0.20000001 21:-1.0 22:-1.0 23:-0.33333333 24:-0.33333333 25:0.80928917 26:0.67843877 27:0.22304544 28:-0.15048767 29:0.43588379 30:0.36798557 31:0.5705096 32:0.51698706 33:-0.99837931 34:-0.99011698 35:-0.96202532 36:-0.98734177 37:-0.99850757 38:-0.99116057 39:-0.99821396 40:-0.99011089 
1.0 0.49881727536281656 1:-0.39393935 2:-0.39393935 3:-0.14285714 4:-0.14285714 5:-0.47081442 6:-0.43206567 7:1.0 8:1.0 9:-0.48710395 10:-0.80608082 11:-0.56103443 12:-0.56103443 13:-1.0 14:-1.0 15:-1.0 16:-1.0 17:-1.0 18:-1.0 19:-1.0 20:-1.0 21:-1.0 22:-1.0 23:-0.33333333 24:-0.33333333 25:0.27356633 26:0.08221129 27:0.17357449 28:0.75648831 29:-0.28411921 30:-0.93576123 31:0.4071141 32:0.41190826 33:-0.99886393 34:-0.97940773 35:-0.87341772 36:-0.88607595 37:-0.99896246 38:-0.98068836 39:-0.99899505 40:-0.98338586 
1.0 0.0 1:-0.15151513 2:-0.15151513 3:1.0 4:1.0 5:-0.02329388 6:-0.02329388 7:1.0 8:1.0 9:-0.67781138 10:-0.45870373 11:-0.60729523 12:-0.60729523 13:-0.55555556 14:-0.55555556 15:-0.2 16:-0.2 17:0.20000001 18:0.20000001 19:0.20000001 20:0.20000001 21:-1.0 22:-1.0 23:-0.33333333 24:-0.33333333 25:-0.36053833 26:-0.15023226 27:-0.75691454 28:-0.89580682 29:-0.36204197 30:-0.0472821 31:-0.46301786 32:-0.46667198 33:-0.99845876 34:-0.82287632 35:-0.84810127 36:-0.84810127 37:-0.99861034 38:-0.83353192 39:-0.99807425 40:-0.85701993 
1.0 0.0 1:0.17748919 2:0.17748919 3:-0.52380953 4:-0.52380953 5:0.12419037 6:0.08888945 7:1.0 8:1.0 9:-0.43959264 10:-0.43959264 11:0.09311148 12:0.09311148 13:-0.33333333 14:-0.11111111 15:-0.42857144 16:-0.42857144 17:-0.14285715 18:-0.14285715 19:-0.14285715 20:-0.14285715 21:-1.0 22:-1.0 23:0.33333333 24:0.33333333 25:0.17774506 26:0.17774506 27:0.44761993 28:0.20006267 29:-0.6165826 30:-0.4794114 31:0.3464685 32:0.27897315 33:-0.99897515 34:-0.99706052 35:-0.96202532 36:-0.96202532 37:-0.99912197 38:-0.99763116 39:-0.99915291 40:-0.99748367 
1.0 0.21179190751842952 1:0.09090908 2:0.09090908 3:-0.30612245 4:-0.30612245 5:0.36237422 6:0.36237422 7:1.0 8:1.0 9:-0.23827248 10:-0.69490832 11:-0.10908995 12:-0.10908995 13:0.33333333 14:0.55555556 15:-0.5 16:-0.5 17:-0.24999999 18:-0.24999999 19:-0.24999999 20:-0.24999999 21:-1.0 22:-1.0 23:0.66666667 24:0.66666667 25:0.2402197 26:0.33367712 27:-0.4817982 28:-0.6946919 29:0.02672822 30:0.0540455 31:-0.02520375 32:-0.0063648 33:-0.82831834 34:-0.99187273 35:-0.84810127 36:-0.86075949 37:-0.86468577 38:-0.99389655 39:-0.91244037 40:-0.99422514 
1.0 0.0 1:0.45454546 2:0.45454546 3:0.42857143 4:0.42857143 5:-0.77585934 6:-1.0 7:1.0 8:1.0 9:-0.42033136 10:-0.48187151 11:0.11866261 12:0.07844865 13:-0.55555556 14:-0.77777778 15:-0.2 16:-0.2 17:0.20000001 18:0.20000001 19:0.20000001 20:0.20000001 21:-1.0 22:-1.0 23:-0.33333333 24:-0.33333333 25:0.1145976 26:0.13572628 27:-0.82825204 28:-0.55562331 29:0.33602109 30:0.12963487 31:-0.08967969 32:-0.05446722 33:-0.82831834 34:-0.82831834 35:-0.96202532 36:0.98734177 37:-0.84016109 38:-0.84091767 39:-0.85729935 40:-0.85619438 
1.0 0.0 1:0.52380951 2:0.52380951 3:0.61904761 4:0.61904761 5:-0.6532846 6:-0.3429514 7:1.0 8:1.0 9:-0.53521587 10:-0.32069957 11:0.36836426 12:0.40545065 13:-0.11111111 14:-0.11111111 15:-0.42857144 16:-0.42857144 17:-0.14285715 18:-0.14285715 19:-0.14285715 20:-0.14285715 21:-1.0 22:-1.0 23:0.33333333 24:0.33333333 25:-0.47372878 26:-0.5310659 27:-0.91286308 28:-0.91286308 29:-0.46499848 30:-0.54344987 31:-0.67798024 32:-0.67426408 33:1.0 34:1.0 35:-0.78481013 36:-0.79746835 37:0.63225348 38:0.64619672 39:0.28948595 40:0.2402434 
1.0 0.08571177832836134 1:-0.17845115 2:-0.24579123 3:0.42857143 4:0.42857143 5:0.02708755 6:-0.5227348 7:1.0 8:1.0 9:-0.63830308 10:-0.60818568 11:-0.48127616 12:-0.46082743 13:-0.55555556 14:-0.55555556 15:-0.55555556 16:-0.55555556 17:-0.33333333 18:-0.33333333 19:-0.33333333 20:-0.33333333 21:-1.0 22:-1.0 23:1.0 24:1.0 25:0.30543088 26:0.39016959 27:-0.71974492 28:-0.70173567 29:0.14801136 30:0.30767103 31:-0.21722061 32:-0.24790807 33:1.0 34:1.0 35:-0.98734177 36:-0.81012658 37:0.49534218 38:0.50193821 39:-0.05614782 40:-0.09485329 
1.0 0.7498540492991459 1:0.09090908 2:0.09090908 3:-0.14285714 4:1.0 5:-0.0773238 6:-0.0773238 7:1.0 8:1.0 9:-1.0 10:-0.56633786 11:-0.00953921 12:-0.00953921 13:-0.55555556 14:-0.55555556 15:-0.2 16:-0.2 17:0.20000001 18:0.20000001 19:0.20000001 20:0.20000001 21:-1.0 22:-1.0 23:-0.33333333 24:-0.33333333 25:0.0250228 26:0.30543088 27:0.11368127 28:-0.41870103 29:-0.52498587 30:0.06642009 31:0.00124916 32:0.04763161 33:-0.97502234 34:-0.97502234 35:-0.92405063 36:-0.96202532 37:-0.97654921 38:-0.97655804 39:-0.97965184 40:-0.97962644 
1.0 0.43265399157313345 1:0.69696973 2:0.69696973 3:0.42857143 4:-0.14285714 5:-0.34474461 6:-0.36875791 7:1.0 8:1.0 9:0.31281853 10:-0.28623579 11:1.0 12:1.0 13:-0.77777778 14:-0.55555556 15:-0.2 16:-0.2 17:0.20000001 18:0.20000001 19:0.20000001 20:0.20000001 21:-1.0 22:-1.0 23:-0.33333333 24:-0.33333333 25:0.37553291 26:-0.03176217 27:-0.58755402 28:-0.77118165 29:0.46072321 30:0.04676078 31:-0.05518974 32:-0.08279005 33:-0.45050746 34:-0.45050746 35:-0.88607595 36:-0.73417722 37:-0.48350349 38:-0.48335839 39:-0.55967042 40:-0.5602483 
1.0 0.6674143859799668 1:-0.63636362 2:-0.63636362 3:0.42857143 4:-0.14285714 5:-0.45553323 6:-0.45553323 7:1.0 8:1.0 9:-0.00923628 10:-0.43801058 11:-0.49837704 12:-0.49837704 13:-0.55555556 14:-0.55555556 15:-0.2 16:-0.2 17:0.20000001 18:0.20000001 19:0.20000001 20:0.20000001 21:-1.0 22:-1.0 23:-0.33333333 24:-0.33333333 25:0.25535802 26:0.25535802 27:-0.77966371 28:-0.77966371 29:0.61146313 30:0.61978867 31:-0.13149287 32:-0.15732929 33:-0.37399353 34:-0.37399353 35:-0.98734177 36:-0.98734177 37:-0.41131812 38:-0.41133466 39:-0.49666844 40:-0.49662399 
1.0 0.11474399241604269 1:-0.51515151 2:-0.51515151 3:-0.37142857 4:0.54285714 5:-0.0187459 6:-0.0187459 7:1.0 8:1.0 9:-0.59517304 10:-0.63402071 11:-0.53688931 12:-0.53688931 13:-1.0 14:-1.0 15:-1.0 16:-1.0 17:-1.0 18:-1.0 19:-1.0 20:-1.0 21:-1.0 22:-1.0 25:0.07817708 26:0.2283957 27:-0.23792321 28:-0.60266734 29:-0.03297741 30:0.2449976 31:-0.09042127 32:-0.1182524 33:-0.99983316 34:-0.99983316 35:-0.83544304 36:-0.83544304 37:-0.99988349 38:-0.99988112 39:-0.99981214 40:-0.99981743 
1.0 1.0 1:-0.27272724 2:-0.27272724 3:-0.14285714 4:0.42857143 5:0.63325147 6:0.63325147 7:1.0 8:1.0 9:-0.23469045 10:0.07675264 11:-0.8248268 12:-0.8248268 13:-1.0 14:-1.0 15:-1.0 16:-1.0 17:-1.0 18:-1.0 19:-1.0 20:-1.0 21:-1.0 22:-1.0 23:-0.33333333 24:-0.33333333 25:-0.62533546 26:-0.62533546 27:-0.85395324 28:-0.81722722 29:-0.51456719 30:-0.54989125 31:-0.716451 32:-0.70074867 33:-0.9991976 34:-0.9991976 35:-0.50632911 36:-0.50632911 37:-0.99950299 38:-0.99950299 39:-0.99849973 40:-0.99849973 
1.0 0.0 1:0.09090908 2:-0.27272724 3:1.0 4:1.0 5:-0.69530234 6:-0.65609883 7:1.0 8:1.0 9:-0.9632502 10:-0.7084536 11:-0.18336243 12:-0.19217964 13:-0.55555556 14:-0.55555556 15:-0.2 16:-0.2 17:0.20000001 18:0.20000001 19:0.20000001 20:0.20000001 21:-1.0 22:-1.0 23:-0.33333333 24:-0.33333333 25:-0.32660167 26:-0.23897414 27:-0.79394931 28:-0.79394931 29:-0.34891604 30:-0.24981227 31:-0.49550125 32:-0.52595484 33:1.0 34:1.0 35:-0.58227848 36:-0.97468354 37:0.82774073 38:0.82781059 39:0.76874985 40:0.7687435 
1.0 0.0 1:-0.21212119 2:0.2929293 3:0.54285714 4:0.54285714 5:-0.29890105 6:-0.37670171 7:1.0 8:1.0 9:-0.51020095 10:-0.65436643 11:-0.04852094 12:-0.00332344 13:-0.11111111 14:0.11111111 15:-0.33333332 16:-0.33333332 17:3.0E-8 18:3.0E-8 19:3.0E-8 20:3.0E-8 21:-1.0 22:-1.0 25:-0.41422919 26:-0.24502812 27:-0.82197512 28:-0.92498816 29:-0.31505409 30:-0.02379893 31:-0.48242949 32:-0.45896415 33:1.0 34:1.0 35:-0.11392405 36:-0.96202532 37:0.75986205 38:0.76222916 39:0.35850989 40:0.35121755 
1.0 0.0 1:-0.51515151 2:0.00432903 3:0.61904761 4:0.61904761 5:-0.36062352 6:-0.43624587 7:1.0 8:1.0 9:-0.28708949 10:-0.51006109 11:-0.35012144 12:-0.33687293 13:-0.33333333 14:-0.11111111 15:-0.42857144 16:-0.42857144 17:-0.14285715 18:-0.14285715 19:-0.14285715 20:-0.14285715 21:-1.0 22:-1.0 23:0.33333333 24:0.33333333 25:-0.19570831 26:0.20022134 27:-0.68019435 28:-0.91271658 29:-0.29395698 30:0.21514307 31:-0.33904173 32:-0.32638512 33:1.0 34:1.0 35:-0.87341772 36:-0.82278481 37:0.64688695 38:0.65598528 39:0.22401368 40:0.18704095 
1.0 0.0 1:-0.39393935 2:-0.27272724 3:0.42857143 4:0.42857143 5:-0.60834512 6:-0.57587259 7:1.0 8:1.0 9:-0.07790464 10:0.1132055 11:0.26099828 12:-0.18455579 13:-0.33333333 14:-0.55555556 15:-0.2 16:-0.2 17:0.20000001 18:0.20000001 19:0.20000001 20:0.20000001 21:-1.0 22:-1.0 23:-0.33333333 24:-0.33333333 25:-0.39360063 26:-0.35792487 27:-0.76588724 28:-0.76588724 29:-0.39397499 30:-0.33428663 31:-0.5263788 32:-0.55430631 33:1.0 34:1.0 35:-0.39240506 36:-0.87341772 37:0.88046298 38:0.88077887 39:0.60075093 40:0.59989998 
1.0 0.0 1:-0.17845115 2:-0.24579123 3:0.71428571 4:0.71428571 5:0.02708755 6:0.02248903 7:1.0 8:1.0 9:-0.57058881 10:-0.33558092 11:-0.48127616 12:-0.65932366 13:-0.11111111 14:-0.33333333 15:-0.55555556 16:-0.55555556 17:-0.33333333 18:-0.33333333 19:-0.33333333 20:-0.33333333 21:-1.0 22:-1.0 23:1.0 24:1.0 25:-0.48433122 26:-0.32660167 27:-0.68980527 28:-0.79016632 29:-0.64423354 30:-0.45506396 31:-0.59633608 32:-0.60997298 33:1.0 34:1.0 35:-0.93670886 36:-0.96202532 37:0.50386327 38:0.5051209 39:-0.10346862 40:-0.10883468 
1.0 0.12555917952194412 1:0.09090908 2:0.09090908 3:0.08571429 4:0.08571429 5:-0.45444171 6:-0.45444171 7:1.0 8:1.0 9:-0.42815033 10:0.11071233 11:0.07950228 12:0.07950228 13:-0.11111111 14:-0.11111111 15:-0.33333332 16:-0.33333332 17:3.0E-8 18:3.0E-8 19:3.0E-8 20:3.0E-8 21:-1.0 22:-1.0 25:0.21780336 26:-0.07964252 27:-0.85485655 28:-0.48516829 29:0.32065904 30:-0.19311923 31:-0.1557927 32:-0.20164262 33:-0.96983455 34:-0.96983455 35:-0.93670886 36:-0.93670886 37:-0.97369398 38:-0.97369086 39:-0.97881888 40:-0.97881888 
1.0 0.0 1:-0.01010097 2:-0.01010097 3:0.54285714 4:0.54285714 5:-0.32837191 6:-0.32837191 7:1.0 8:1.0 9:-0.59639947 10:-0.79993149 11:-0.21829327 12:-0.21829327 13:-0.77777778 14:-0.77777778 15:-0.33333332 16:-0.33333332 17:3.0E-8 18:3.0E-8 19:3.0E-8 20:3.0E-8 21:-1.0 22:-1.0 25:0.10529693 26:0.10529693 27:-0.50880856 28:-0.56593717 29:-0.12534977 30:0.14346631 31:-0.03416609 32:-0.0842929 33:1.0 34:1.0 35:-0.93670886 36:-0.93670886 37:0.76703583 38:0.76714382 39:0.33522521 40:0.33521992 
1.0 0.0 1:0.09090908 2:0.09090908 3:-0.42857143 4:-0.42857143 5:-0.40309557 6:-0.40309557 7:1.0 8:1.0 9:-0.55015113 10:-0.57678169 11:-0.29674531 12:-0.26490062 13:-0.11111111 14:-0.11111111 15:-0.55555556 16:-0.55555556 17:-0.33333333 18:-0.33333333 19:-0.33333333 20:-0.33333333 21:-1.0 22:-1.0 23:1.0 24:1.0 25:-0.19960846 26:-0.19960846 27:-0.7555546 28:-0.76588724 29:-0.37771086 30:-0.29230119 31:-0.47368226 32:-0.45585153 33:1.0 34:1.0 35:-0.89873418 36:-0.53164557 37:0.47716032 38:0.47712926 39:0.04682689 40:0.04698918 
1.0 0.0 1:-0.11111108 2:-0.11111108 3:0.54285714 4:0.54285714 5:-0.16306826 6:-0.16306826 7:1.0 8:1.0 9:-0.69243551 10:-0.61734521 11:-0.64072446 12:-0.64072446 13:-0.55555556 14:-0.55555556 15:-0.33333332 16:-0.33333332 17:3.0E-8 18:3.0E-8 19:3.0E-8 20:3.0E-8 21:-1.0 22:-1.0 25:-0.52682758 26:-0.27040715 27:-0.71847552 28:-0.79272812 29:-0.57073142 30:-0.24984161 31:-0.52695793 32:-0.51245029 33:-0.82583169 34:-0.82583169 35:-0.81012658 36:-0.21518987 37:-0.81205337 38:-0.81229638 39:-0.76843127 40:-0.76843127 
1.0 0.0 1:0.09090908 2:0.09090908 3:0.23809525 4:0.23809525 5:0.20865272 6:0.20865272 7:1.0 8:1.0 9:-0.56633786 10:-0.67781138 11:0.24074587 12:0.2498751 13:-0.55555556 14:-0.55555556 15:-0.42857144 16:-0.42857144 17:-0.14285715 18:-0.14285715 19:-0.14285715 20:-0.14285715 21:-1.0 22:-1.0 23:0.33333333 24:0.33333333 25:-0.04507923 26:-0.00752457 27:-0.58069479 28:-0.79968774 29:-0.13546875 30:-0.00968241 31:-0.1886896 32:-0.16589839 33:-0.82561719 34:-0.82561719 35:-0.96202532 36:-0.91139241 37:-0.85454309 38:-0.85472632 39:-0.90029586 40:-0.89989669 
1.0 0.0 1:0.2929293 2:0.2929293 3:-0.37142857 4:-0.37142857 5:-0.16646407 6:-0.16646407 7:1.0 8:1.0 9:-0.45310683 10:-0.45310683 11:0.16102515 12:0.16102515 13:-0.77777778 14:-0.77777778 15:-0.33333332 16:-0.33333332 17:3.0E-8 18:3.0E-8 19:3.0E-8 20:3.0E-8 21:-1.0 22:-1.0 25:0.50572237 26:-0.00595382 27:0.7131768 28:-0.19491983 29:-0.33072977 30:-0.23642287 31:0.69107274 32:-0.09268352 33:-0.96874615 34:-0.96874615 35:-0.92405063 36:-0.79746835 37:-0.97247137 38:-0.9724987 39:-0.97884005 40:-0.97875538 
1.0 0.009536435446839336 1:0.19191919 2:0.19191919 3:0.08571429 4:0.08571429 5:-0.49233598 6:-0.49233598 7:1.0 8:1.0 9:-0.25321037 10:0.01307292 11:-0.00935676 12:-0.03916952 13:0.33333333 14:0.33333333 15:-0.33333332 16:-0.33333332 17:3.0E-8 18:3.0E-8 19:3.0E-8 20:3.0E-8 21:-1.0 22:-1.0 25:-0.95051841 26:-0.01570761 27:-0.94943225 28:-0.65758215 29:-0.91764102 30:-0.09186482 31:-0.96893908 32:-0.16072164 33:1.0 34:1.0 35:-0.11392405 36:-0.84810127 37:0.76288697 38:0.75991506 39:0.34903197 40:0.35862631 
