svm_type c_svc
kernel_type rbf
gamma 0.16666666666666666
nr_class 2
total_sv 36
rho 0.0
label 0 1
nr_sv 18 18
SV
1.0 1:-1.0 2:-1.0 3:0.18181818 4:1.0 5:0.71645082 6:1.0 
1.0 1:-1.0 2:-1.0 3:0.18181818 4:1.0 5:-0.22022405 6:-0.00525607 
1.0 1:-1.0 2:-1.0 3:-0.28571429 4:0.18181818 5:0.307572 6:0.44806424 
1.0 1:-1.0 2:-1.0 3:-0.58823525 4:6.0E-8 5:-0.49677596 6:-0.15614492 
1.0 1:1.0 2:1.0 3:-0.28571429 4:-0.28571429 5:-0.80594916 6:-0.7092806 
1.0 1:-1.0 2:-1.0 3:-0.49999997 4:-0.49999997 5:-0.92032463 6:-0.92840218 
1.0 1:-1.0 2:-1.0 3:-0.73684205 4:-0.73684205 5:-0.67668242 6:-0.96671362 
1.0 1:-1.0 2:-1.0 3:6.0E-8 4:6.0E-8 5:-0.49403054 6:-0.49406669 
1.0 1:-1.0 2:-1.0 3:-0.73684205 4:-0.73684205 5:-0.92569703 6:-0.92557437 
1.0 1:0.18440208 2:-1.0 3:-0.66666665 4:-0.66666665 5:-0.92990314 6:-0.93589913 
1.0 1:-1.0 2:-1.0 3:-0.49999997 4:-0.40000001 5:-0.92779496 6:-0.93092735 
1.0 1:-1.0 2:-1.0 3:0.18181818 4:-0.15384618 5:0.02133834 6:0.02133834 
1.0 1:-1.0 2:-1.0 3:-0.85714276 4:-0.85714276 5:-0.94575467 6:-0.94837543 
1.0 1:-1.0 2:-1.0 3:-0.58823525 4:-0.58823525 5:-0.84660861 6:-0.9306086 
1.0 1:-0.49988594 2:-1.0 3:-1.0 4:-1.0 5:-1.0 6:-0.99970266 
1.0 1:-1.0 2:-1.0 3:-0.66666665 4:-0.66666665 5:-0.93098504 6:-0.93112203 
1.0 1:-1.0 2:-1.0 3:-0.73684205 4:-0.73684205 5:-0.97169765 6:-0.97229804 
1.0 1:-1.0 2:-1.0 3:-0.15384618 4:-0.15384618 5:-0.77609533 6:-0.79257904 
-1.0 1:-1.0 2:-1.0 3:1.0 4:0.18181818 5:1.0 6:0.71645082 
-1.0 1:-1.0 2:-1.0 3:1.0 4:0.18181818 5:-0.00525607 6:-0.22022405 
-1.0 1:-1.0 2:-1.0 3:0.18181818 4:-0.28571429 5:0.44806424 6:0.307572 
-1.0 1:-1.0 2:-1.0 3:6.0E-8 4:-0.58823525 5:-0.15614492 6:-0.49677596 
-1.0 1:1.0 2:1.0 3:-0.28571429 4:-0.28571429 5:-0.7092806 6:-0.80594916 
-1.0 1:-1.0 2:-1.0 3:-0.49999997 4:-0.49999997 5:-0.92840218 6:-0.92032463 
-1.0 1:-1.0 2:-1.0 3:-0.73684205 4:-0.73684205 5:-0.96671362 6:-0.67668242 
-1.0 1:-1.0 2:-1.0 3:6.0E-8 4:6.0E-8 5:-0.49406669 6:-0.49403054 
-1.0 1:-1.0 2:-1.0 3:-0.73684205 4:-0.73684205 5:-0.92557437 6:-0.92569703 
-1.0 1:-1.0 2:0.18440208 3:-0.66666665 4:-0.66666665 5:-0.93589913 6:-0.92990314 
-1.0 1:-1.0 2:-1.0 3:-0.40000001 4:-0.49999997 5:-0.93092735 6:-0.92779496 
-1.0 1:-1.0 2:-1.0 3:-0.15384618 4:0.18181818 5:0.02133834 6:0.02133834 
-1.0 1:-1.0 2:-1.0 3:-0.85714276 4:-0.85714276 5:-0.94837543 6:-0.94575467 
-1.0 1:-1.0 2:-1.0 3:-0.58823525 4:-0.58823525 5:-0.9306086 6:-0.84660861 
-1.0 1:-1.0 2:-0.49988594 3:-1.0 4:-1.0 5:-0.99970266 6:-1.0 
-1.0 1:-1.0 2:-1.0 3:-0.66666665 4:-0.66666665 5:-0.93112203 6:-0.93098504 
-1.0 1:-1.0 2:-1.0 3:-0.73684205 4:-0.73684205 5:-0.97229804 6:-0.97169765 
-1.0 1:-1.0 2:-1.0 3:-0.15384618 4:-0.15384618 5:-0.79257904 6:-0.77609533 
