svm_type c_svc
kernel_type rbf
gamma 0.025
nr_class 2
total_sv 408
rho 0.0
label 0 1
nr_sv 204 204
SV
1.0 1:-0.62162166 2:-0.62162166 3:-0.2 4:-0.2 5:1.0 6:1.0 8:1.0 9:-0.3556228 10:-0.3556228 11:-1.0 12:-1.0 13:-1.0 14:-1.0 15:-1.0 16:-1.0 17:-1.0 18:-1.0 19:-1.0 20:-1.0 21:-1.0 22:-1.0 23:-0.33333333 24:-0.33333333 25:-0.36326179 26:-0.36788643 27:-0.79158111 28:-0.7374336 29:-0.24214333 30:-0.29162166 31:-0.542504 32:-0.52904319 33:-0.99922143 34:-0.99922143 35:-0.85365854 36:-0.73170732 37:-0.99936643 38:-0.9994159 39:-0.99873434 40:-0.99873434 
1.0 1:0.00900897 2:0.00900897 3:0.52 4:0.52 5:0.28272447 6:0.28272447 8:1.0 9:-0.67781138 10:-0.56609858 11:0.34687683 12:0.34687683 13:-0.55555556 14:-0.55555556 15:3.0E-8 16:3.0E-8 17:3.0E-8 18:3.0E-8 19:3.0E-8 20:3.0E-8 21:-1.0 22:-1.0 25:-0.06014136 26:-0.06014136 27:-0.83116264 28:-0.83116264 29:-0.03677982 30:-0.07043428 31:-0.58040653 32:-0.55313942 33:-0.82561719 34:-0.82561719 35:-0.94308943 36:-0.94308943 37:-0.83623196 38:-0.83623196 39:-0.86830826 40:-0.86830826 
1.0 1:0.53453454 2:0.53453454 3:0.04 4:0.04 5:-0.22050693 6:-0.22050693 8:1.0 9:-0.23526451 10:-0.16324778 11:1.0 12:1.0 13:-0.33333333 14:-0.33333333 15:3.0E-8 16:3.0E-8 17:3.0E-8 18:3.0E-8 19:3.0E-8 20:3.0E-8 21:-1.0 22:-1.0 25:-0.42177175 26:-0.42177175 27:-0.87344702 28:-0.87401485 29:-0.41963059 30:-0.41911792 31:-0.63510017 32:-0.63522453 33:-0.99725913 34:-0.99725913 35:-0.98373984 36:-0.98373984 37:-0.99701942 38:-0.99701942 39:-0.99592175 40:-0.99592175 
1.0 1:-0.35135137 2:-0.35135137 3:0.2 4:0.2 5:-0.13342078 6:-0.13342078 7:1.0 8:1.0 9:-0.33791411 10:-0.33791411 11:-0.32142809 12:-0.32142809 13:-0.11111111 14:0.11111111 15:-0.14285715 16:-0.14285715 17:-0.14285715 18:-0.14285715 19:-0.14285715 20:-0.14285715 21:-1.0 22:-1.0 23:0.33333333 24:0.33333333 25:-0.12102812 26:0.03733242 27:-0.56570859 28:-0.41776372 29:-0.4682652 30:-0.37114915 31:-0.33853589 32:-0.33844105 33:-0.97835111 34:-0.96593378 35:-0.92682927 36:-0.8699187 37:-0.98125449 38:-0.97046309 39:-0.98391057 40:-0.97520609 
1.0 1:0.00900897 2:0.00900897 3:0.4 4:0.4 5:-0.16950067 6:-0.15583827 7:1.0 8:1.0 9:0.19755123 10:0.19755123 11:0.01034125 12:0.01034125 13:-0.55555556 14:-0.55555556 15:0.20000001 16:0.20000001 17:0.20000001 18:0.20000001 19:0.20000001 20:0.20000001 21:-1.0 22:-1.0 23:-0.33333333 24:-0.33333333 25:0.08475028 26:0.08475028 27:-0.58814622 28:-0.39609517 29:-0.10581796 30:-0.28742525 31:-0.15171948 32:-0.1348018 33:-0.99324713 34:-0.97502234 35:-0.97560976 36:-0.97560976 37:-0.99323998 38:-0.97513729 39:-0.99360706 40:-0.97678182 
1.0 1:0.74474471 2:0.74474471 3:-0.44000001 4:-0.44000001 5:0.05794563 6:0.04773136 7:1.0 8:1.0 9:0.02452722 10:0.02452722 11:0.93753483 12:0.93753483 13:-1.0 14:-1.0 15:-1.0 16:-1.0 17:-1.0 18:-1.0 19:-1.0 20:-1.0 21:-1.0 22:-1.0 25:1.0 26:1.0 27:0.3278948 28:0.3278948 29:0.01479268 30:-0.02624488 31:0.73943923 32:0.6940166 33:-0.99751336 34:-0.99751336 35:-1.0 36:-1.0 37:-0.99762768 38:-0.99773853 39:-0.99832741 40:-0.99723828 
1.0 1:-0.24324326 2:-0.24324326 3:1.0 4:1.0 5:-0.02175166 6:-0.02175166 7:1.0 8:1.0 9:-0.78883238 10:-0.78883238 11:-0.10171782 12:-0.10171782 13:-0.77777778 14:-0.77777778 15:0.20000001 16:0.20000001 17:0.20000001 18:0.20000001 19:0.20000001 20:0.20000001 21:-1.0 22:-1.0 23:-0.33333333 24:-0.33333333 25:0.21646996 26:0.21646996 27:-0.78513499 28:-0.66155339 29:0.38237695 30:0.21329916 31:0.03344114 32:0.03177723 33:-0.99991261 34:-0.99973783 35:-0.95934959 36:-0.95934959 37:-0.99985575 38:-0.99971651 39:-0.99995512 40:-0.99979713 
1.0 1:-0.62162166 2:-0.62162166 3:-0.02857144 4:-0.02857144 5:-0.09787069 6:-0.09787069 7:1.0 8:1.0 9:-0.7004173 10:-0.66156962 11:-0.55711915 12:-0.55711915 13:-1.0 14:-1.0 15:-1.0 16:-1.0 17:-1.0 18:-1.0 19:-1.0 20:-1.0 21:-1.0 22:-1.0 23:0.66666667 24:0.66666667 25:0.22133345 26:0.16702441 27:-0.7238273 28:-0.55138826 29:0.31173015 30:0.01063161 31:-0.11142138 32:-0.16083342 33:-0.99957894 34:-0.99983316 35:-0.93495935 36:-0.93495935 37:-0.99965772 38:-0.99986728 39:-0.99962299 40:-0.99990575 
1.0 1:0.51351349 2:0.51351349 3:0.4 4:0.4 5:-0.73902719 6:0.13926938 7:1.0 8:1.0 9:-0.45540455 10:-0.4943629 11:0.05563171 12:0.08493739 13:-0.55555556 14:-0.55555556 15:0.20000001 16:0.20000001 17:0.20000001 18:0.20000001 19:0.20000001 20:0.20000001 21:-1.0 22:-1.0 23:-0.33333333 24:-0.33333333 25:-0.01862354 26:0.07796851 27:-0.61779336 28:-0.59971735 29:0.05190237 30:0.13659133 31:-0.27228229 32:-0.23379367 33:-0.97491906 34:-0.97410078 35:-0.88617886 36:-0.83739837 37:-0.97606702 38:-0.97534006 39:-0.97177662 40:-0.97084308 
1.0 1:0.26126126 2:0.26126126 3:0.4 4:0.4 5:-0.86003694 6:-0.68047407 7:1.0 8:1.0 9:-0.45617834 10:0.03467156 11:0.41441273 12:0.41005012 13:-0.77777778 14:-0.55555556 15:0.20000001 16:0.20000001 17:0.20000001 18:0.20000001 19:0.20000001 20:0.20000001 21:-1.0 22:-1.0 23:-0.33333333 24:-0.33333333 25:0.08120398 26:0.04457577 27:-0.67877377 28:-0.63677473 29:-0.00598043 30:-0.10989969 31:-0.35848213 32:-0.32206172 33:1.0 34:1.0 35:-0.96747967 36:-0.95121951 37:0.99930478 38:0.99863881 39:0.81290455 40:0.81313435 
1.0 1:0.45945943 2:0.53453454 3:0.59999999 4:0.52 5:-0.652034 6:-0.2091216 7:1.0 8:1.0 9:-0.43915415 10:-0.48231448 11:0.1285122 12:0.07065415 13:-0.77777778 14:-1.0 15:-0.14285715 16:-1.0 17:-0.14285715 18:-1.0 19:-0.14285715 20:-1.0 21:-1.0 22:-1.0 23:0.33333333 25:0.10118575 26:0.20023895 27:-0.68446115 28:-0.84587905 29:-0.03993483 30:0.30526687 31:-0.25922202 32:-0.22948246 33:-0.99740213 34:-0.99740213 35:-0.93495935 36:-0.7804878 37:-0.99725491 38:-0.99752872 39:-0.9950207 40:-0.99565845 
1.0 1:-0.51651654 2:-0.51651654 3:1.0 4:1.0 5:-0.65939495 6:-0.32759404 7:1.0 8:1.0 9:-0.09543853 10:-0.30380176 11:-0.44292936 12:-0.42404455 13:-0.11111111 14:-0.33333333 15:3.0E-8 16:3.0E-8 17:3.0E-8 18:3.0E-8 19:3.0E-8 20:3.0E-8 21:-1.0 22:-1.0 25:-0.18412337 26:-0.40524693 27:-0.91045353 28:-0.93207806 29:0.00891012 30:-0.11215639 31:-0.70895302 32:-0.73359475 33:1.0 34:1.0 35:-0.93495935 36:-0.87804878 37:0.87722465 38:0.87965336 39:0.51495023 40:0.50679972 
1.0 1:1.0 2:1.0 3:-0.60000001 4:-0.60000001 5:-0.51114519 6:-0.2218718 7:1.0 8:1.0 9:-0.43959264 10:-0.43959264 11:0.52551052 12:0.49184636 13:-0.11111111 14:0.11111111 15:0.71428576 16:0.71428576 17:-0.14285715 18:-0.14285715 19:0.07142859 20:0.02857143 21:0.97948672 22:0.82857152 23:0.33333333 24:0.33333333 25:-0.61669464 26:-0.64419512 27:-0.78615242 28:-0.78615242 29:-0.63173221 30:-0.67596829 31:-0.73537419 32:-0.74887366 33:1.0 34:1.0 35:-0.97560976 36:-0.97560976 37:0.75036019 38:0.7503617 39:0.40199893 40:0.4019938 
1.0 1:0.00900897 2:0.00900897 3:-0.80000001 4:0.4 5:0.01191639 6:0.01191639 7:1.0 8:1.0 9:0.59019562 10:-0.08115541 11:0.09266126 12:0.09266126 13:-0.33333333 14:-0.55555556 15:0.20000001 16:0.20000001 17:0.20000001 18:0.20000001 19:0.20000001 20:0.20000001 21:-1.0 22:-1.0 23:-0.33333333 24:-0.33333333 25:-0.45562067 26:-0.19186104 27:-0.42180727 28:-0.75819014 29:-0.81905943 30:-0.16908892 31:-0.44724154 32:-0.48091302 33:-0.84610618 34:-0.84610618 35:-0.88617886 36:-0.96747967 37:-0.84716583 38:-0.84610172 39:-0.85784186 40:-0.86067838 
1.0 1:-0.62162166 2:-0.62162166 3:-0.80000001 4:1.0 5:-0.22961518 6:-0.22961518 7:1.0 8:1.0 9:0.12364403 10:-0.73947461 11:-0.71655627 12:-0.71655627 13:-1.0 14:-1.0 15:-1.0 16:-1.0 17:-1.0 18:-1.0 19:-1.0 20:-1.0 21:-1.0 22:-1.0 23:-0.33333333 24:-0.33333333 25:0.2523935 26:0.07819772 27:-0.43597268 28:-0.27743749 29:0.05085823 30:-0.34567689 31:-0.03407226 32:-0.02592567 33:-0.99852231 34:-0.99852231 35:-0.91869919 36:-0.98373984 37:-0.99716077 38:-0.99715057 39:-0.99321928 40:-0.9932121 
1.0 1:0.26126126 2:0.26126126 3:-0.2 4:1.0 5:-0.77942883 6:-0.77942883 7:1.0 8:1.0 9:-0.59293594 10:-0.54167136 11:0.16281684 12:0.13305291 13:-0.77777778 14:-0.77777778 15:0.20000001 16:0.20000001 17:0.20000001 18:0.20000001 19:0.20000001 20:0.20000001 21:-1.0 22:-1.0 23:-0.33333333 24:-0.33333333 25:0.17294519 26:0.02541915 27:-0.87030876 28:-0.93583831 29:0.48888221 30:0.25930772 31:-0.36395803 32:-0.40634219 33:-0.87902838 34:-0.87902838 35:-0.95121951 36:-0.89430894 37:-0.87939802 38:-0.87936614 39:-0.88928774 40:-0.88891432 
1.0 1:-0.06106105 2:-0.06106105 3:-0.2 4:-0.50000001 5:-0.56808218 6:-0.56808218 7:1.0 8:1.0 9:-0.79646795 10:-0.57216367 11:0.18983962 12:0.18983962 13:-0.11111111 14:-0.11111111 15:-0.33333333 16:-0.33333333 17:-0.33333333 18:-0.33333333 19:-0.33333333 20:-0.33333333 21:-1.0 22:-1.0 23:1.0 24:1.0 25:0.15636074 26:0.15636074 27:-0.88389703 28:-0.76422972 29:0.27256455 30:0.21616572 31:-0.26384952 32:-0.24746891 33:1.0 34:1.0 35:-0.79674797 36:-0.79674797 37:0.59539253 38:0.59539253 39:0.0304917 40:0.0304917 
1.0 1:-0.36936937 2:0.00900897 3:0.4 4:0.4 5:-0.77679393 6:-0.81885457 7:1.0 8:1.0 9:-0.5313263 10:-0.79453999 11:-0.17596513 12:-0.16697094 13:-0.55555556 14:-0.55555556 15:0.20000001 16:0.20000001 17:0.20000001 18:0.20000001 19:0.20000001 20:0.20000001 21:-1.0 22:-1.0 23:-0.33333333 24:-0.33333333 25:-0.51442961 26:-0.53418755 27:-0.67375495 28:-0.71635373 29:-0.58953932 30:-0.57607626 31:-0.64835878 32:-0.66584469 33:1.0 34:1.0 35:-0.78861789 36:-0.94308943 37:0.95186959 38:0.95191338 39:0.96577505 40:0.96578223 
1.0 1:0.00900897 2:-0.36936937 3:-0.2 4:-0.2 5:-0.87038132 6:-0.88004258 7:1.0 8:1.0 9:-0.92650039 10:-0.92650039 11:-0.01307219 12:-0.00509937 13:-0.11111111 14:-0.11111111 15:0.20000001 16:0.20000001 17:0.20000001 18:0.20000001 19:0.20000001 20:0.20000001 21:-1.0 22:-1.0 23:-0.33333333 24:-0.33333333 25:-0.20730557 26:-0.20730557 27:-0.60303206 28:-0.76125381 29:-0.33588452 30:-0.13082342 31:-0.51590154 32:-0.49180413 33:-0.37399353 34:-0.37399353 35:1.0 36:-0.93495935 37:-0.33943379 38:-0.33857554 39:0.03034808 40:0.03031217 
1.0 1:-0.24324326 2:0.13513514 3:0.4 4:0.4 5:-0.82353884 6:-0.90530913 7:1.0 8:1.0 9:-0.79453999 10:-0.40734668 11:-0.02361524 12:-0.01287154 13:-0.33333333 14:-0.33333333 15:0.20000001 16:0.20000001 17:0.20000001 18:0.20000001 19:0.20000001 20:0.20000001 21:-1.0 22:-1.0 23:-0.33333333 24:-0.33333333 25:-0.54261799 26:-0.64092929 27:-0.54856285 28:-0.61454061 29:-0.75361503 30:-0.7926914 31:-0.60213007 32:-0.61544106 33:1.0 34:1.0 35:-0.96747967 36:-0.85365854 37:0.98754193 38:0.9739912 39:0.84473103 40:0.88730038 
1.0 1:0.00900897 2:0.32432431 3:0.52 4:0.52 5:-0.74748485 6:-0.79444562 7:1.0 8:1.0 9:-0.07189844 10:-0.57259587 11:0.22259372 12:0.21792567 13:-0.11111111 14:-0.11111111 15:3.0E-8 16:3.0E-8 17:3.0E-8 18:3.0E-8 19:3.0E-8 20:3.0E-8 21:-1.0 22:-1.0 25:0.29550176 26:0.29550176 27:-0.98594622 28:-1.0 29:0.54480322 30:0.44962711 31:-0.55728851 32:-0.54848108 33:-0.48246837 34:-0.48246837 35:-0.91056911 36:-0.91869919 37:-0.51856202 38:-0.51856011 39:-0.59226216 40:-0.59226815 
1.0 1:-0.26126126 2:0.00900897 3:0.59999999 4:0.59999999 5:-0.0451729 6:-0.27036999 7:1.0 8:1.0 9:-0.05520021 10:-0.41954515 11:0.10596216 12:0.13475773 13:-0.55555556 14:-0.33333333 15:-0.14285715 16:-0.14285715 17:-0.14285715 18:-0.14285715 19:-0.14285715 20:-0.14285715 21:-1.0 22:-1.0 23:0.33333333 24:0.33333333 25:0.11548486 26:0.23915068 27:-0.83116264 28:-0.86076962 29:0.18343544 30:0.31662756 31:-0.29437217 32:-0.26315118 33:-0.99961072 34:-0.82561719 35:-0.97560976 36:-0.94308943 37:-0.94091571 38:-0.84574788 39:-0.8871765 40:-0.88601728 
1.0 1:-0.83183183 2:-0.83183183 3:-0.92000001 4:-0.92000001 5:-0.11485109 6:-0.11485109 7:1.0 8:1.0 9:-0.07378706 10:-0.07378706 11:-0.78087103 12:-0.96426756 13:-1.0 14:-1.0 15:-1.0 16:-1.0 17:-1.0 18:-1.0 19:-1.0 20:-1.0 21:-1.0 22:-1.0 25:0.3798908 26:0.3798908 27:0.39013339 28:0.35042521 29:-0.74580453 30:-0.68763875 31:0.45272598 32:0.38315239 33:-0.84435043 34:-0.84435043 35:-0.91056911 36:-0.73170732 37:-0.85693349 38:-0.85697851 39:-0.8694692 40:-0.86933754 
1.0 1:-0.09609609 2:-0.09609609 3:0.04 4:0.04 5:-0.59602749 6:-0.60394695 7:1.0 8:1.0 9:-0.71371994 10:-0.44696192 11:-0.0400139 12:0.27313506 13:-0.11111111 14:-0.11111111 15:3.0E-8 16:3.0E-8 17:3.0E-8 18:3.0E-8 19:3.0E-8 20:3.0E-8 21:-1.0 22:-1.0 25:-0.06804455 26:-0.14008308 27:-0.78178299 28:-0.78854325 29:0.02792494 30:-0.19498475 31:-0.426907 32:-0.39928129 33:1.0 34:1.0 35:-0.91869919 36:-0.91869919 37:0.8795952 38:0.87543074 39:0.50696728 40:0.5210661 
1.0 1:-0.35135137 2:-0.35135137 3:0.59999999 4:0.59999999 5:-0.29095652 6:-0.2162316 7:1.0 8:1.0 9:-0.2846973 10:-0.35644213 11:-0.32683137 12:0.08736429 13:0.11111111 14:0.11111111 15:-0.14285715 16:-0.14285715 17:-0.14285715 18:-0.14285715 19:-0.14285715 20:-0.14285715 21:-1.0 22:-1.0 23:0.33333333 24:0.33333333 25:-0.10042279 26:0.16038286 27:-0.65621231 28:-0.84419749 29:-0.09645704 30:0.1507729 31:-0.34262274 32:-0.35483849 33:-0.4985958 34:-0.4985958 35:-0.92682927 36:-0.94308943 37:-0.55683279 38:-0.55658598 39:-0.66518929 40:-0.66610231 
1.0 1:-0.46396399 2:-0.46396399 3:0.65714286 4:0.65714286 5:-0.31918748 6:-0.3556089 7:1.0 8:1.0 9:-0.50419348 10:-0.66703893 11:-0.67265327 12:-0.4659582 13:-0.33333333 14:-0.55555556 15:-0.24999999 16:-0.24999999 17:-0.24999999 18:-0.24999999 19:-0.24999999 20:-0.24999999 21:-1.0 22:-1.0 23:0.66666667 24:0.66666667 25:-0.30367813 26:-0.33755423 27:-0.85036985 28:-0.81351605 29:-0.21376019 30:-0.37818861 31:-0.58235812 32:-0.56190891 33:1.0 34:1.0 35:-0.98373984 36:-0.96747967 37:0.68100807 38:0.68115308 39:0.13154273 40:0.13106699 
1.0 1:0.24549548 2:0.24549548 3:-0.02857144 4:-0.02857144 5:-0.53869191 6:-0.5821188 7:1.0 8:1.0 9:-0.86588539 10:-0.9632502 11:0.33017768 12:0.06392785 13:-0.11111111 14:-0.33333333 15:-0.24999999 16:-0.24999999 17:-0.24999999 18:-0.24999999 19:-0.24999999 20:-0.24999999 21:-1.0 22:-1.0 23:0.66666667 24:0.66666667 25:-0.26791815 26:-0.31467497 27:-0.89561647 28:-0.61761488 29:-0.27582156 30:-0.57157215 31:-0.45519283 32:-0.49221593 33:1.0 34:1.0 35:-0.91056911 36:-0.92682927 37:0.66007098 38:0.66150312 39:0.23753076 40:0.25046116 
1.0 1:-0.24324326 2:-0.24324326 3:0.4 4:0.4 5:-0.38331708 6:-0.38331708 7:1.0 8:1.0 9:-0.69490832 10:-0.40151974 11:-0.46475708 12:-0.46475708 13:-0.11111111 14:-0.11111111 15:0.20000001 16:0.20000001 17:0.20000001 18:0.20000001 19:0.20000001 20:0.20000001 21:-1.0 22:-1.0 23:-0.33333333 24:-0.33333333 25:-0.85503073 26:-0.85503073 27:-0.87728631 28:-0.88965642 29:-0.74289025 30:-0.77101676 31:-0.95126073 32:-0.9489382 33:1.0 34:1.0 35:-0.87804878 36:-0.83739837 37:0.95200974 38:0.95199577 39:0.96548062 40:0.96551653 
1.0 1:0.2192192 2:0.2192192 3:0.52 4:0.52 5:-0.55354397 6:-0.4049492 7:1.0 8:1.0 9:-0.27716257 10:-0.97575033 11:0.05392218 12:0.05392218 13:0.11111111 14:0.33333333 15:3.0E-8 16:3.0E-8 17:3.0E-8 18:3.0E-8 19:3.0E-8 20:3.0E-8 21:-1.0 22:-1.0 25:-0.61102404 26:-0.53418755 27:-0.93643301 28:-0.80655699 29:-0.54157425 30:-0.52105311 31:-0.79397611 32:-0.77484332 33:1.0 34:1.0 35:-0.86178862 36:-0.86178862 37:0.84768973 38:0.86959595 39:0.619327 40:0.54226819 
1.0 1:0.00900897 2:0.00900897 3:0.59999999 4:0.59999999 5:-0.54301369 6:-0.54208427 7:1.0 8:1.0 9:-0.78535756 10:0.14306631 11:0.08949154 12:0.11681817 13:0.11111111 14:0.55555556 15:-0.14285715 16:-0.14285715 17:-0.14285715 18:-0.14285715 19:-0.14285715 20:-0.14285715 21:-1.0 22:-1.0 23:0.33333333 24:0.33333333 25:0.01471874 26:-0.0789402 27:-0.84002974 28:-0.91777417 29:0.00128381 30:0.21626788 31:-0.56721829 32:-0.55616392 33:-0.37399353 34:-0.37399353 35:-0.84552846 36:-0.88617886 37:-0.45496499 38:-0.4571493 39:-0.47125439 40:-0.4633347 
1.0 1:-0.24324326 2:-0.24324326 3:-0.2 4:-0.2 5:-0.02175166 6:-0.02175166 7:1.0 8:1.0 9:-0.45819813 10:-0.45819813 11:0.24625624 12:0.24625624 13:-0.33333333 14:-0.33333333 15:0.20000001 16:0.20000001 17:0.20000001 18:0.20000001 19:0.20000001 20:0.20000001 21:-1.0 22:-1.0 23:-0.33333333 24:-0.33333333 25:0.88668167 26:0.20589441 27:-0.85051464 28:-0.85051464 29:1.0 30:0.59307388 31:0.32280971 32:-0.35620022 33:-0.98538203 34:-0.98538203 35:-0.88617886 36:-0.76422764 37:-0.98616513 38:-0.9862139 39:-0.98358229 40:-0.98347458 
1.0 1:-0.51651654 2:-0.51651654 3:0.52 4:0.52 5:-0.32759404 6:-0.32759404 7:1.0 8:1.0 9:-0.71420455 10:-0.63372988 11:-0.42404455 12:-0.42404455 13:-0.11111111 14:-0.11111111 15:3.0E-8 16:3.0E-8 17:3.0E-8 18:3.0E-8 19:3.0E-8 20:3.0E-8 21:-1.0 22:-1.0 25:-0.2980967 26:0.28058365 27:-0.91947812 28:-0.91045353 29:-0.14033611 30:0.46416733 31:-0.87145543 32:-0.42940716 33:1.0 34:1.0 35:-0.90243902 36:-0.99186992 37:0.87820972 38:0.87723736 39:0.511623 40:0.51490834 
1.0 1:0.00900897 2:0.00900897 3:0.59999999 4:0.59999999 5:-0.45773993 6:-0.45773993 7:1.0 8:1.0 9:-0.36094849 10:-0.26370211 11:0.0617258 12:0.0617258 13:-0.11111111 14:-0.11111111 15:-0.14285715 16:-0.14285715 17:-0.14285715 18:-0.14285715 19:-0.14285715 20:-0.14285715 21:-1.0 22:-1.0 23:0.33333333 24:0.33333333 25:0.12163178 26:-0.58847826 27:-0.7479326 28:-0.8413165 29:-0.02183053 30:-0.58410582 31:-0.50785874 32:-0.72756666 33:1.0 34:1.0 35:-0.94308943 36:-0.94308943 37:0.76717292 38:0.76716729 39:0.31684176 40:0.31686228 
1.0 1:-0.06106105 2:-0.06106105 3:-0.2 4:-0.2 5:-0.6808807 6:-0.66645928 7:1.0 8:1.0 9:-0.9632502 10:-0.57447456 11:-0.02051449 12:-0.03382974 13:-0.11111111 14:-0.11111111 15:-0.33333333 16:-0.33333333 17:-0.33333333 18:-0.33333333 19:-0.33333333 20:-0.33333333 21:-1.0 22:-1.0 23:1.0 24:1.0 25:-0.30224584 26:0.26713692 27:-0.86099626 28:-0.31935352 29:-0.32388408 30:-0.31543154 31:-0.55161803 32:-0.16419719 33:1.0 34:1.0 35:-0.90243902 36:-0.96747967 37:0.59603448 38:0.60060216 39:0.02803019 40:0.00607608 
0.9036519097346268 1:0.00900897 2:0.00900897 3:-0.2 4:-0.2 5:1.0 6:1.0 7:1.0 8:-1.0 9:-0.31504622 10:0.83928843 11:0.764261 12:0.764261 13:-0.33333333 14:-0.77777778 15:0.20000001 16:1.0 17:0.20000001 18:1.0 19:0.20000001 20:1.0 21:-1.0 22:-1.0 23:-0.33333333 24:-1.0 25:0.09035654 26:-0.02072352 27:-0.33132717 28:0.10829915 29:-0.29267173 30:-0.82489712 31:0.04527246 32:0.09627911 33:-0.99820453 34:-0.99885599 35:-0.84552846 36:0.28455285 37:-0.99844602 38:-0.99938185 39:-0.99566084 40:-0.996209 
1.0 1:-0.62162166 2:-0.62162166 3:-0.2 4:-0.2 5:1.0 6:1.0 8:1.0 9:-0.3556228 10:-0.3556228 11:-1.0 12:-1.0 13:-1.0 14:-1.0 15:-1.0 16:-1.0 17:-1.0 18:-1.0 19:-1.0 20:-1.0 21:-1.0 22:-1.0 23:-0.33333333 24:-0.33333333 25:-0.36326179 26:-0.36788643 27:-0.79158111 28:-0.7374336 29:-0.24214333 30:-0.29162166 31:-0.542504 32:-0.52904319 33:-0.99922143 34:-0.99922143 35:-0.85365854 36:-0.73170732 37:-0.99936643 38:-0.9994159 39:-0.99873434 40:-0.99873434 
1.0 1:0.09909909 2:0.16666664 3:-0.60000001 4:-0.60000001 5:0.76578757 6:0.59012827 7:1.0 9:-0.31504622 10:0.83928843 11:0.764261 12:0.764261 13:-0.77777778 14:-0.77777778 15:-0.14285715 16:0.50000002 17:-0.14285715 18:0.50000002 19:-0.14285715 20:0.50000002 21:-1.0 22:-1.0 23:0.33333333 24:-0.66666667 25:0.22347724 26:0.21599194 27:-0.14632313 28:0.19462129 29:-0.40629295 30:-0.67783118 31:0.27819966 32:0.28360413 33:-0.99885599 34:-0.99890365 35:-0.78861789 36:-0.71544715 37:-0.99896473 38:-0.99914225 39:-0.99785722 40:-0.99763923 
1.0 1:0.00900897 2:0.00900897 3:0.52 4:0.52 5:0.28272447 6:0.28272447 8:1.0 9:-0.67781138 10:-0.56609858 11:0.34687683 12:0.34687683 13:-0.55555556 14:-0.55555556 15:3.0E-8 16:3.0E-8 17:3.0E-8 18:3.0E-8 19:3.0E-8 20:3.0E-8 21:-1.0 22:-1.0 25:-0.06014136 26:-0.06014136 27:-0.83116264 28:-0.83116264 29:-0.03677982 30:-0.07043428 31:-0.58040653 32:-0.55313942 33:-0.82561719 34:-0.82561719 35:-0.94308943 36:-0.94308943 37:-0.83623196 38:-0.83623196 39:-0.86830826 40:-0.86830826 
1.0 1:0.53453454 2:0.53453454 3:0.04 4:0.04 5:-0.22050693 6:-0.22050693 8:1.0 9:-0.23526451 10:-0.16324778 11:1.0 12:1.0 13:-0.33333333 14:-0.33333333 15:3.0E-8 16:3.0E-8 17:3.0E-8 18:3.0E-8 19:3.0E-8 20:3.0E-8 21:-1.0 22:-1.0 25:-0.42177175 26:-0.42177175 27:-0.87344702 28:-0.87401485 29:-0.41963059 30:-0.41911792 31:-0.63510017 32:-0.63522453 33:-0.99725913 34:-0.99725913 35:-0.98373984 36:-0.98373984 37:-0.99701942 38:-0.99701942 39:-0.99592175 40:-0.99592175 
1.0 1:-0.35135137 2:-0.35135137 3:0.2 4:0.2 5:-0.13342078 6:-0.13342078 7:1.0 8:1.0 9:-0.33791411 10:-0.33791411 11:-0.32142809 12:-0.32142809 13:-0.11111111 14:0.11111111 15:-0.14285715 16:-0.14285715 17:-0.14285715 18:-0.14285715 19:-0.14285715 20:-0.14285715 21:-1.0 22:-1.0 23:0.33333333 24:0.33333333 25:-0.12102812 26:0.03733242 27:-0.56570859 28:-0.41776372 29:-0.4682652 30:-0.37114915 31:-0.33853589 32:-0.33844105 33:-0.97835111 34:-0.96593378 35:-0.92682927 36:-0.8699187 37:-0.98125449 38:-0.97046309 39:-0.98391057 40:-0.97520609 
1.0 1:0.00900897 2:0.00900897 3:0.4 4:0.4 5:-0.16950067 6:-0.15583827 7:1.0 8:1.0 9:0.19755123 10:0.19755123 11:0.01034125 12:0.01034125 13:-0.55555556 14:-0.55555556 15:0.20000001 16:0.20000001 17:0.20000001 18:0.20000001 19:0.20000001 20:0.20000001 21:-1.0 22:-1.0 23:-0.33333333 24:-0.33333333 25:0.08475028 26:0.08475028 27:-0.58814622 28:-0.39609517 29:-0.10581796 30:-0.28742525 31:-0.15171948 32:-0.1348018 33:-0.99324713 34:-0.97502234 35:-0.97560976 36:-0.97560976 37:-0.99323998 38:-0.97513729 39:-0.99360706 40:-0.97678182 
1.0 1:0.74474471 2:0.74474471 3:-0.44000001 4:-0.44000001 5:0.04773136 6:0.05794563 7:1.0 8:1.0 9:0.02452722 10:0.02452722 11:0.93753483 12:0.93753483 13:-1.0 14:-1.0 15:-1.0 16:-1.0 17:-1.0 18:-1.0 19:-1.0 20:-1.0 21:-1.0 22:-1.0 25:1.0 26:1.0 27:0.3278948 28:0.3278948 29:-0.02624488 30:0.01479268 31:0.6940166 32:0.73943923 33:-0.99751336 34:-0.99751336 35:-1.0 36:-1.0 37:-0.99773853 38:-0.99762768 39:-0.99723828 40:-0.99832741 
1.0 1:-0.24324326 2:-0.24324326 3:1.0 4:1.0 5:-0.02175166 6:-0.02175166 7:1.0 8:1.0 9:-0.78883238 10:-0.78883238 11:-0.10171782 12:-0.10171782 13:-0.77777778 14:-0.77777778 15:0.20000001 16:0.20000001 17:0.20000001 18:0.20000001 19:0.20000001 20:0.20000001 21:-1.0 22:-1.0 23:-0.33333333 24:-0.33333333 25:0.21646996 26:0.21646996 27:-0.66155339 28:-0.78513499 29:0.21329916 30:0.38237695 31:0.03177723 32:0.03344114 33:-0.99973783 34:-0.99991261 35:-0.95934959 36:-0.95934959 37:-0.99971651 38:-0.99985575 39:-0.99979713 40:-0.99995512 
1.0 1:-0.62162166 2:-0.62162166 3:-0.02857144 4:-0.02857144 5:-0.09787069 6:-0.09787069 7:1.0 8:1.0 9:-0.7004173 10:-0.66156962 11:-0.55711915 12:-0.55711915 13:-1.0 14:-1.0 15:-1.0 16:-1.0 17:-1.0 18:-1.0 19:-1.0 20:-1.0 21:-1.0 22:-1.0 23:0.66666667 24:0.66666667 25:0.22133345 26:0.16702441 27:-0.7238273 28:-0.55138826 29:0.31173015 30:0.01063161 31:-0.11142138 32:-0.16083342 33:-0.99957894 34:-0.99983316 35:-0.93495935 36:-0.93495935 37:-0.99965772 38:-0.99986728 39:-0.99962299 40:-0.99990575 
1.0 1:0.51351349 2:0.51351349 3:0.4 4:0.4 5:-0.73902719 6:0.13926938 7:1.0 8:1.0 9:-0.45540455 10:-0.4943629 11:0.05563171 12:0.08493739 13:-0.55555556 14:-0.55555556 15:0.20000001 16:0.20000001 17:0.20000001 18:0.20000001 19:0.20000001 20:0.20000001 21:-1.0 22:-1.0 23:-0.33333333 24:-0.33333333 25:-0.01862354 26:0.07796851 27:-0.61779336 28:-0.59971735 29:0.05190237 30:0.13659133 31:-0.27228229 32:-0.23379367 33:-0.97491906 34:-0.97410078 35:-0.88617886 36:-0.83739837 37:-0.97606702 38:-0.97534006 39:-0.97177662 40:-0.97084308 
1.0 1:0.26126126 2:0.26126126 3:0.4 4:0.4 5:-0.86003694 6:-0.68047407 7:1.0 8:1.0 9:-0.45617834 10:0.03467156 11:0.41441273 12:0.41005012 13:-0.77777778 14:-0.55555556 15:0.20000001 16:0.20000001 17:0.20000001 18:0.20000001 19:0.20000001 20:0.20000001 21:-1.0 22:-1.0 23:-0.33333333 24:-0.33333333 25:0.08120398 26:0.04457577 27:-0.67877377 28:-0.63677473 29:-0.00598043 30:-0.10989969 31:-0.35848213 32:-0.32206172 33:1.0 34:1.0 35:-0.96747967 36:-0.95121951 37:0.99930478 38:0.99863881 39:0.81290455 40:0.81313435 
1.0 1:0.53453454 2:0.45945943 3:0.52 4:0.59999999 5:-0.2091216 6:-0.652034 7:1.0 8:1.0 9:-0.48231448 10:-0.43915415 11:0.07065415 12:0.1285122 13:-1.0 14:-0.77777778 15:-1.0 16:-0.14285715 17:-1.0 18:-0.14285715 19:-1.0 20:-0.14285715 21:-1.0 22:-1.0 24:0.33333333 25:0.20023895 26:0.10118575 27:-0.84587905 28:-0.68446115 29:0.30526687 30:-0.03993483 31:-0.22948246 32:-0.25922202 33:-0.99740213 34:-0.99740213 35:-0.7804878 36:-0.93495935 37:-0.99752872 38:-0.99725491 39:-0.99565845 40:-0.9950207 
1.0 1:-0.51651654 2:-0.51651654 3:1.0 4:1.0 5:-0.65939495 6:-0.32759404 7:1.0 8:1.0 9:-0.09543853 10:-0.30380176 11:-0.44292936 12:-0.42404455 13:-0.11111111 14:-0.33333333 15:3.0E-8 16:3.0E-8 17:3.0E-8 18:3.0E-8 19:3.0E-8 20:3.0E-8 21:-1.0 22:-1.0 25:-0.18412337 26:-0.40524693 27:-0.91045353 28:-0.93207806 29:0.00891012 30:-0.11215639 31:-0.70895302 32:-0.73359475 33:1.0 34:1.0 35:-0.93495935 36:-0.87804878 37:0.87722465 38:0.87965336 39:0.51495023 40:0.50679972 
1.0 1:1.0 2:1.0 3:-0.60000001 4:-0.60000001 5:-0.51114519 6:-0.2218718 7:1.0 8:1.0 9:-0.43959264 10:-0.43959264 11:0.52551052 12:0.49184636 13:-0.11111111 14:0.11111111 15:0.71428576 16:0.71428576 17:-0.14285715 18:-0.14285715 19:0.07142859 20:0.02857143 21:0.97948672 22:0.82857152 23:0.33333333 24:0.33333333 25:-0.61669464 26:-0.64419512 27:-0.78615242 28:-0.78615242 29:-0.63173221 30:-0.67596829 31:-0.73537419 32:-0.74887366 33:1.0 34:1.0 35:-0.97560976 36:-0.97560976 37:0.75036019 38:0.7503617 39:0.40199893 40:0.4019938 
1.0 1:0.00900897 2:0.00900897 3:-0.80000001 4:0.4 5:0.01191639 6:0.01191639 7:1.0 8:1.0 9:0.59019562 10:-0.08115541 11:0.09266126 12:0.09266126 13:-0.33333333 14:-0.55555556 15:0.20000001 16:0.20000001 17:0.20000001 18:0.20000001 19:0.20000001 20:0.20000001 21:-1.0 22:-1.0 23:-0.33333333 24:-0.33333333 25:-0.45562067 26:-0.19186104 27:-0.42180727 28:-0.75819014 29:-0.81905943 30:-0.16908892 31:-0.44724154 32:-0.48091302 33:-0.84610618 34:-0.84610618 35:-0.88617886 36:-0.96747967 37:-0.84716583 38:-0.84610172 39:-0.85784186 40:-0.86067838 
1.0 1:0.26126126 2:0.26126126 3:-0.2 4:1.0 5:-0.77942883 6:-0.77942883 7:1.0 8:1.0 9:-0.59293594 10:-0.54167136 11:0.16281684 12:0.13305291 13:-0.77777778 14:-0.77777778 15:0.20000001 16:0.20000001 17:0.20000001 18:0.20000001 19:0.20000001 20:0.20000001 21:-1.0 22:-1.0 23:-0.33333333 24:-0.33333333 25:0.17294519 26:0.02541915 27:-0.87030876 28:-0.93583831 29:0.48888221 30:0.25930772 31:-0.36395803 32:-0.40634219 33:-0.87902838 34:-0.87902838 35:-0.95121951 36:-0.89430894 37:-0.87939802 38:-0.87936614 39:-0.88928774 40:-0.88891432 
1.0 1:0.00900897 2:0.00900897 3:-1.0 4:-0.2 5:0.53157517 6:0.60652314 7:1.0 8:1.0 9:0.83928843 10:-0.1845319 11:0.04699307 12:0.04056766 13:0.33333333 14:0.11111111 15:-0.14285715 16:0.20000001 17:-0.14285715 18:0.20000001 19:-0.14285715 20:0.20000001 21:-1.0 22:-1.0 23:0.33333333 24:-0.33333333 25:-0.20795448 26:-0.14492094 27:-0.40026031 28:-0.38995812 29:-0.60378315 30:-0.40208916 31:-0.25573103 32:-0.26794219 33:-0.9983237 34:-0.9983237 35:-0.93495935 36:-0.68292683 37:-0.99868194 38:-0.9987927 39:-0.99575933 40:-0.99514381 
1.0 1:-0.06106105 2:-0.06106105 3:-0.50000001 4:-0.2 5:-0.56808218 6:-0.56808218 7:1.0 8:1.0 9:-0.57216367 10:-0.79646795 11:0.18983962 12:0.18983962 13:-0.11111111 14:-0.11111111 15:-0.33333333 16:-0.33333333 17:-0.33333333 18:-0.33333333 19:-0.33333333 20:-0.33333333 21:-1.0 22:-1.0 23:1.0 24:1.0 25:0.15636074 26:0.15636074 27:-0.76422972 28:-0.88389703 29:0.21616572 30:0.27256455 31:-0.24746891 32:-0.26384952 33:1.0 34:1.0 35:-0.79674797 36:-0.79674797 37:0.59539253 38:0.59539253 39:0.0304917 40:0.0304917 
1.0 1:0.00900897 2:-0.36936937 3:0.4 4:0.4 5:-0.81885457 6:-0.77679393 7:1.0 8:1.0 9:-0.79453999 10:-0.5313263 11:-0.16697094 12:-0.17596513 13:-0.55555556 14:-0.55555556 15:0.20000001 16:0.20000001 17:0.20000001 18:0.20000001 19:0.20000001 20:0.20000001 21:-1.0 22:-1.0 23:-0.33333333 24:-0.33333333 25:-0.53418755 26:-0.51442961 27:-0.71635373 28:-0.67375495 29:-0.57607626 30:-0.58953932 31:-0.66584469 32:-0.64835878 33:1.0 34:1.0 35:-0.94308943 36:-0.78861789 37:0.95191338 38:0.95186959 39:0.96578223 40:0.96577505 
1.0 1:0.00900897 2:-0.36936937 3:-0.2 4:-0.2 5:-0.87038132 6:-0.88004258 7:1.0 8:1.0 9:-0.92650039 10:-0.92650039 11:-0.01307219 12:-0.00509937 13:-0.11111111 14:-0.11111111 15:0.20000001 16:0.20000001 17:0.20000001 18:0.20000001 19:0.20000001 20:0.20000001 21:-1.0 22:-1.0 23:-0.33333333 24:-0.33333333 25:-0.20730557 26:-0.20730557 27:-0.60303206 28:-0.76125381 29:-0.33588452 30:-0.13082342 31:-0.51590154 32:-0.49180413 33:-0.37399353 34:-0.37399353 35:1.0 36:-0.93495935 37:-0.33943379 38:-0.33857554 39:0.03034808 40:0.03031217 
1.0 1:-0.24324326 2:0.13513514 3:0.4 4:0.4 5:-0.82353884 6:-0.90530913 7:1.0 8:1.0 9:-0.79453999 10:-0.40734668 11:-0.02361524 12:-0.01287154 13:-0.33333333 14:-0.33333333 15:0.20000001 16:0.20000001 17:0.20000001 18:0.20000001 19:0.20000001 20:0.20000001 21:-1.0 22:-1.0 23:-0.33333333 24:-0.33333333 25:-0.54261799 26:-0.64092929 27:-0.54856285 28:-0.61454061 29:-0.75361503 30:-0.7926914 31:-0.60213007 32:-0.61544106 33:1.0 34:1.0 35:-0.96747967 36:-0.85365854 37:0.98754193 38:0.9739912 39:0.84473103 40:0.88730038 
1.0 1:0.32432431 2:0.00900897 3:0.52 4:0.52 5:-0.79444562 6:-0.74748485 7:1.0 8:1.0 9:-0.57259587 10:-0.07189844 11:0.21792567 12:0.22259372 13:-0.11111111 14:-0.11111111 15:3.0E-8 16:3.0E-8 17:3.0E-8 18:3.0E-8 19:3.0E-8 20:3.0E-8 21:-1.0 22:-1.0 25:0.29550176 26:0.29550176 27:-1.0 28:-0.98594622 29:0.44962711 30:0.54480322 31:-0.54848108 32:-0.55728851 33:-0.48246837 34:-0.48246837 35:-0.91869919 36:-0.91056911 37:-0.51856011 38:-0.51856202 39:-0.59226815 40:-0.59226216 
1.0 1:-0.26126126 2:0.00900897 3:0.59999999 4:0.59999999 5:-0.0451729 6:-0.27036999 7:1.0 8:1.0 9:-0.05520021 10:-0.41954515 11:0.10596216 12:0.13475773 13:-0.55555556 14:-0.33333333 15:-0.14285715 16:-0.14285715 17:-0.14285715 18:-0.14285715 19:-0.14285715 20:-0.14285715 21:-1.0 22:-1.0 23:0.33333333 24:0.33333333 25:0.11548486 26:0.23915068 27:-0.83116264 28:-0.86076962 29:0.18343544 30:0.31662756 31:-0.29437217 32:-0.26315118 33:-0.99961072 34:-0.82561719 35:-0.97560976 36:-0.94308943 37:-0.94091571 38:-0.84574788 39:-0.8871765 40:-0.88601728 
1.0 1:-0.83183183 2:-0.83183183 3:-0.92000001 4:-0.92000001 5:-0.11485109 6:-0.11485109 7:1.0 8:1.0 9:-0.07378706 10:-0.07378706 11:-0.78087103 12:-0.96426756 13:-1.0 14:-1.0 15:-1.0 16:-1.0 17:-1.0 18:-1.0 19:-1.0 20:-1.0 21:-1.0 22:-1.0 25:0.3798908 26:0.3798908 27:0.39013339 28:0.35042521 29:-0.74580453 30:-0.68763875 31:0.45272598 32:0.38315239 33:-0.84435043 34:-0.84435043 35:-0.91056911 36:-0.73170732 37:-0.85693349 38:-0.85697851 39:-0.8694692 40:-0.86933754 
1.0 1:-0.09609609 2:-0.09609609 3:0.04 4:0.04 5:-0.59602749 6:-0.60394695 7:1.0 8:1.0 9:-0.71371994 10:-0.44696192 11:-0.0400139 12:0.27313506 13:-0.11111111 14:-0.11111111 15:3.0E-8 16:3.0E-8 17:3.0E-8 18:3.0E-8 19:3.0E-8 20:3.0E-8 21:-1.0 22:-1.0 25:-0.06804455 26:-0.14008308 27:-0.78178299 28:-0.78854325 29:0.02792494 30:-0.19498475 31:-0.426907 32:-0.39928129 33:1.0 34:1.0 35:-0.91869919 36:-0.91869919 37:0.8795952 38:0.87543074 39:0.50696728 40:0.5210661 
1.0 1:0.24549548 2:0.24549548 3:-0.02857144 4:-0.02857144 5:-0.5821188 6:-0.53869191 7:1.0 8:1.0 9:-0.9632502 10:-0.86588539 11:0.06392785 12:0.33017768 13:-0.33333333 14:-0.11111111 15:-0.24999999 16:-0.24999999 17:-0.24999999 18:-0.24999999 19:-0.24999999 20:-0.24999999 21:-1.0 22:-1.0 23:0.66666667 24:0.66666667 25:-0.31467497 26:-0.26791815 27:-0.61761488 28:-0.89561647 29:-0.57157215 30:-0.27582156 31:-0.49221593 32:-0.45519283 33:1.0 34:1.0 35:-0.92682927 36:-0.91056911 37:0.66150312 38:0.66007098 39:0.25046116 40:0.23753076 
1.0 1:-0.24324326 2:-0.24324326 3:0.4 4:0.4 5:-0.38331708 6:-0.38331708 7:1.0 8:1.0 9:-0.40151974 10:-0.69490832 11:-0.46475708 12:-0.46475708 13:-0.11111111 14:-0.11111111 15:0.20000001 16:0.20000001 17:0.20000001 18:0.20000001 19:0.20000001 20:0.20000001 21:-1.0 22:-1.0 23:-0.33333333 24:-0.33333333 25:-0.85503073 26:-0.85503073 27:-0.88965642 28:-0.87728631 29:-0.77101676 30:-0.74289025 31:-0.9489382 32:-0.95126073 33:1.0 34:1.0 35:-0.83739837 36:-0.87804878 37:0.95199577 38:0.95200974 39:0.96551653 40:0.96548062 
1.0 1:0.2192192 2:0.2192192 3:0.52 4:0.52 5:-0.55354397 6:-0.4049492 7:1.0 8:1.0 9:-0.27716257 10:-0.97575033 11:0.05392218 12:0.05392218 13:0.11111111 14:0.33333333 15:3.0E-8 16:3.0E-8 17:3.0E-8 18:3.0E-8 19:3.0E-8 20:3.0E-8 21:-1.0 22:-1.0 25:-0.61102404 26:-0.53418755 27:-0.93643301 28:-0.80655699 29:-0.54157425 30:-0.52105311 31:-0.79397611 32:-0.77484332 33:1.0 34:1.0 35:-0.86178862 36:-0.86178862 37:0.84768973 38:0.86959595 39:0.619327 40:0.54226819 
1.0 1:0.1891892 2:0.1891892 3:0.2 4:0.2 5:-0.71560595 6:-0.70138589 7:1.0 8:1.0 9:-0.90263519 10:-0.33117971 11:0.15695991 12:0.14844791 13:-0.55555556 14:-0.55555556 15:-0.14285715 16:-0.14285715 17:-0.14285715 18:-0.14285715 19:-0.14285715 20:-0.14285715 21:-1.0 22:-1.0 23:0.33333333 24:0.33333333 25:-0.28406482 26:-0.28406482 27:-0.7360452 28:-0.92730564 29:-0.42866093 30:-0.21765669 31:-0.53674911 32:-0.52942784 33:1.0 34:1.0 35:-0.95934959 36:-0.97560976 37:0.77365069 38:0.77359881 39:0.29146183 40:0.29150286 
1.0 1:0.07907905 2:0.14914912 3:0.1 4:0.1 5:-0.1557732 6:-0.21771479 7:1.0 8:1.0 9:-0.37450361 10:-0.31886981 11:-0.0297342 12:-0.01945202 13:0.11111111 14:-0.11111111 15:-0.33333333 16:-0.33333333 17:-0.33333333 18:-0.33333333 19:-0.33333333 20:-0.33333333 21:-1.0 22:-1.0 23:1.0 24:1.0 25:0.36303803 26:-0.18338827 27:-0.89337644 28:-0.82451543 29:0.2539879 30:-0.15561032 31:-0.57532727 32:-0.58750678 33:1.0 34:1.0 35:-0.99186992 36:-0.92682927 37:0.60017622 38:0.60011755 39:0.00791922 40:0.00816258 
1.0 1:-0.24324326 2:-0.24324326 3:-0.2 4:-0.2 5:-0.02175166 6:-0.02175166 7:1.0 8:1.0 9:-0.45819813 10:-0.45819813 11:0.24625624 12:0.24625624 13:-0.33333333 14:-0.33333333 15:0.20000001 16:0.20000001 17:0.20000001 18:0.20000001 19:0.20000001 20:0.20000001 21:-1.0 22:-1.0 23:-0.33333333 24:-0.33333333 25:0.88668167 26:0.20589441 27:-0.85051464 28:-0.85051464 29:1.0 30:0.59307388 31:0.32280971 32:-0.35620022 33:-0.98538203 34:-0.98538203 35:-0.88617886 36:-0.76422764 37:-0.98616513 38:-0.9862139 39:-0.98358229 40:-0.98347458 
1.0 1:-0.51651654 2:-0.51651654 3:0.52 4:0.52 5:-0.32759404 6:-0.32759404 7:1.0 8:1.0 9:-0.71420455 10:-0.63372988 11:-0.42404455 12:-0.42404455 13:-0.11111111 14:-0.11111111 15:3.0E-8 16:3.0E-8 17:3.0E-8 18:3.0E-8 19:3.0E-8 20:3.0E-8 21:-1.0 22:-1.0 25:-0.2980967 26:0.28058365 27:-0.91947812 28:-0.91045353 29:-0.14033611 30:0.46416733 31:-0.87145543 32:-0.42940716 33:1.0 34:1.0 35:-0.90243902 36:-0.99186992 37:0.87820972 38:0.87723736 39:0.511623 40:0.51490834 
1.0 1:0.00900897 2:0.00900897 3:0.59999999 4:0.59999999 5:-0.45773993 6:-0.45773993 7:1.0 8:1.0 9:-0.26370211 10:-0.36094849 11:0.0617258 12:0.0617258 13:-0.11111111 14:-0.11111111 15:-0.14285715 16:-0.14285715 17:-0.14285715 18:-0.14285715 19:-0.14285715 20:-0.14285715 21:-1.0 22:-1.0 23:0.33333333 24:0.33333333 25:-0.58847826 26:0.12163178 27:-0.8413165 28:-0.7479326 29:-0.58410582 30:-0.02183053 31:-0.72756666 32:-0.50785874 33:1.0 34:1.0 35:-0.94308943 36:-0.94308943 37:0.76716729 38:0.76717292 39:0.31686228 40:0.31684176 
1.0 1:-0.06106105 2:-0.06106105 3:-0.2 4:-0.2 5:-0.66645928 6:-0.6808807 7:1.0 8:1.0 9:-0.57447456 10:-0.9632502 11:-0.03382974 12:-0.02051449 13:-0.11111111 14:-0.11111111 15:-0.33333333 16:-0.33333333 17:-0.33333333 18:-0.33333333 19:-0.33333333 20:-0.33333333 21:-1.0 22:-1.0 23:1.0 24:1.0 25:0.26713692 26:-0.30224584 27:-0.31935352 28:-0.86099626 29:-0.31543154 30:-0.32388408 31:-0.16419719 32:-0.55161803 33:1.0 34:1.0 35:-0.96747967 36:-0.90243902 37:0.60060216 38:0.59603448 39:0.00607608 40:0.02803019 
1.0 1:-0.62162166 2:-0.62162166 3:-0.2 4:-0.2 5:1.0 6:1.0 7:1.0 8:-1.0 9:-0.23469045 10:1.0 11:-1.0 12:-1.0 13:-1.0 14:-1.0 15:-1.0 16:-1.0 17:-1.0 18:-1.0 19:-1.0 20:-1.0 21:-1.0 22:-1.0 23:-0.33333333 24:-1.0 25:-0.24335146 26:-0.6086221 27:-0.79158111 28:-0.41856485 29:-0.14615773 30:-0.9646949 31:-0.5098521 32:-0.53876691 33:-0.99922143 34:-0.99989672 35:-0.91869919 36:-0.81300813 37:-0.99932553 38:-0.99957088 39:-0.99892823 40:-0.99841119 
1.0 1:-0.30630631 2:-0.41141143 3:1.0 4:1.0 5:-0.40527449 6:-0.40527449 8:-1.0 9:-0.43345373 10:-0.30787041 11:0.21236959 12:0.18402087 13:-1.0 14:-1.0 15:-1.0 16:-1.0 17:-1.0 18:-1.0 19:-1.0 20:-1.0 21:-1.0 22:-1.0 23:-0.66666667 24:-1.0 25:-0.12929419 26:-0.10953625 27:-0.33132717 28:-0.54720103 29:-0.44135889 30:-0.08714299 31:-0.28917653 32:-0.31498767 33:-0.99992055 34:-0.99924527 35:-0.93495935 36:-0.92682927 37:-0.99960627 38:-0.99917738 39:-0.99903056 40:-0.99865056 
1.0 1:0.16666664 2:0.16666664 3:0.2 4:0.2 5:0.40568599 6:0.40568599 8:-1.0 9:-0.3556228 10:-0.23469045 11:-0.09990221 12:-0.09990221 13:-0.77777778 14:-0.77777778 15:0.50000002 16:0.50000002 17:0.50000002 18:0.50000002 19:0.50000002 20:0.50000002 21:-1.0 22:-1.0 23:-0.66666667 24:-0.66666667 25:-0.46847236 26:-0.46847236 27:-0.59132122 28:-0.7425905 29:-0.62438277 30:-0.44151787 31:-0.55764114 32:-0.58870078 33:-1.0 34:-1.0 35:-0.91056911 36:-0.91056911 37:-0.99989733 38:-0.99989733 39:-0.9996589 40:-0.9996589 
1.0 1:-0.30630631 2:-0.30630631 3:0.04 4:0.04 5:0.1228745 6:0.1228745 7:1.0 9:0.00737305 10:0.00737305 11:0.30300941 12:0.30300941 13:-0.11111111 14:-0.33333333 15:3.0E-8 16:3.0E-8 17:3.0E-8 18:3.0E-8 19:3.0E-8 20:3.0E-8 21:-1.0 22:-1.0 25:0.17363737 26:0.12753548 27:-0.89277083 28:-0.94751557 29:0.50778489 30:0.5682235 31:-0.25965492 32:-0.25659288 33:-0.98425391 34:-0.98425391 35:-0.72357724 36:-0.72357724 37:-0.98582431 38:-0.98601829 39:-0.98550921 40:-0.98526984 
1.0 1:0.00900897 2:0.00900897 3:0.2 4:0.2 5:-0.05395587 6:-0.05395587 9:-0.34045875 10:-0.38487104 11:0.19250772 12:0.19250772 13:-0.77777778 14:-0.77777778 15:0.50000002 16:0.50000002 17:0.50000002 18:0.50000002 19:0.50000002 20:0.50000002 21:-1.0 22:-1.0 23:-0.66666667 24:-0.66666667 25:0.08475028 26:-0.0493643 27:-0.34510154 28:-0.34510154 29:-0.2057985 30:-0.39243043 31:-0.16643164 32:-0.20464441 33:-0.99997617 34:-0.99997617 35:-0.95934959 36:-0.82113821 37:-0.99992234 38:-1.0 39:-1.0 40:-0.9998474 
1.0 1:-0.11711714 2:-0.11711714 3:0.4 4:0.4 5:-0.83388322 6:-0.83388322 7:1.0 8:1.0 9:-0.26939513 10:-0.39936034 11:-0.16080837 12:-0.16080837 13:-0.77777778 14:-1.0 15:0.20000001 16:-1.0 17:0.20000001 18:-1.0 19:0.20000001 20:-1.0 21:-1.0 22:-1.0 23:-0.33333333 24:-0.33333333 25:0.27139307 26:0.29091012 27:0.22127479 28:0.24593992 29:-0.65444726 30:-0.68783826 31:0.31891344 32:0.3350879 33:-0.88991241 34:-0.99903077 35:-0.86178862 36:-0.8699187 37:-0.8935384 38:-0.99923999 39:-0.8488009 40:-0.99821012 
1.0 1:0.51351349 2:0.51351349 3:-0.2 4:-0.2 5:-0.41405746 6:-0.41405746 7:1.0 8:1.0 9:-0.86781624 10:-0.60840018 11:0.14841233 12:0.14841233 13:-0.77777778 14:-0.55555556 15:0.20000001 16:0.20000001 17:0.20000001 18:0.20000001 19:0.20000001 20:0.20000001 21:-1.0 22:-1.0 23:-0.33333333 24:-0.33333333 25:0.35394291 26:0.13217215 27:-0.54490907 28:-0.39571882 29:0.34912427 30:-0.08518013 31:-0.14248028 32:-0.12643263 33:-0.99753719 34:-0.82366283 35:-0.84552846 36:-0.74796748 37:-0.99774237 38:-0.82457273 39:-0.9960199 40:-0.83709576 
1.0 1:0.1891892 2:0.09909909 3:0.2 4:0.2 5:-0.64807976 6:-0.61653199 7:1.0 8:1.0 9:-0.36703106 10:-0.86588539 11:0.151859 12:0.13851236 13:0.11111111 14:1.0 15:-0.14285715 16:-0.14285715 17:-0.14285715 18:-0.14285715 19:-0.14285715 20:-0.14285715 21:-1.0 22:-1.0 23:0.33333333 24:0.33333333 25:-0.06804455 26:-0.30013154 27:-0.91324039 28:-0.85456399 29:0.0668444 30:-0.2749117 31:-0.47733787 32:-0.4827731 33:-0.82831834 34:1.0 35:-0.98373984 36:-0.91869919 37:-0.85021334 38:0.74646983 39:-0.87651775 40:0.41625334 
1.0 1:0.09909909 2:0.09909909 3:-0.2 4:-0.2 5:-0.16878501 6:-0.23872343 7:1.0 8:1.0 9:-0.09175098 10:-0.09175098 11:0.18639148 12:0.18639148 13:-0.33333333 14:-0.11111111 15:-0.14285715 16:-0.14285715 17:-0.14285715 18:-0.14285715 19:-0.14285715 20:-0.14285715 21:-1.0 22:-1.0 23:0.33333333 24:0.33333333 25:0.03415635 26:0.067685 27:-0.88771014 28:-0.78649927 29:0.16462679 30:0.15690875 31:-0.1768434 32:-0.18406286 33:-0.84610618 34:-0.96510755 35:-0.83739837 36:-0.95934959 37:-0.86625128 38:-0.96278715 39:-0.88007751 40:-0.95699697 
1.0 1:0.51351349 2:0.51351349 3:1.0 4:1.0 5:-0.66371001 6:-1.0 7:1.0 8:1.0 9:-0.58816236 10:-0.50607301 11:0.12625162 12:0.16686048 13:-1.0 14:-1.0 15:-1.0 16:-1.0 17:-1.0 18:-1.0 19:-1.0 20:-1.0 21:-1.0 22:-1.0 23:-0.33333333 24:-0.33333333 25:0.05000682 26:-0.08522538 27:-0.77038524 28:-0.70787029 29:0.19498535 30:-0.02911603 31:-0.47972831 32:-0.49215944 33:-0.97738982 34:-0.97738982 35:-0.96747967 36:-0.97560976 37:-0.9777069 38:-0.97755446 39:-0.97830421 40:-0.97831139 
1.0 1:0.13513514 2:0.13513514 3:0.4 4:0.4 5:-0.27780616 6:-0.59340738 7:1.0 8:1.0 9:-0.58247317 10:-0.32141888 11:-0.41924373 12:-0.39808539 13:-0.77777778 14:-0.77777778 15:0.20000001 16:0.20000001 17:0.20000001 18:0.20000001 19:0.20000001 20:0.20000001 21:-1.0 22:-1.0 23:-0.33333333 24:-0.33333333 25:-0.36490781 26:-0.36490781 27:-0.41671365 28:-0.56986283 29:-0.67311705 30:-0.5598849 31:-0.42026429 32:-0.40934021 33:-0.95479553 34:-0.95479553 35:-0.62601626 36:-0.6097561 37:-0.95625329 38:-0.95610618 39:-0.95459952 40:-0.95498729 
1.0 1:0.00900897 2:0.00900897 3:0.59999999 4:0.59999999 5:-0.15256673 6:-0.59533972 7:1.0 8:1.0 9:-0.70654356 10:-0.34507674 11:-0.01625127 12:-0.02579163 13:-0.77777778 14:-0.77777778 15:-0.14285715 16:-0.14285715 17:-0.14285715 18:-0.14285715 19:-0.14285715 20:-0.14285715 21:-1.0 22:-1.0 23:0.33333333 24:0.33333333 25:-0.14768268 26:0.08475028 27:-0.60632907 28:-0.89863077 29:-0.30087471 30:0.18529325 31:-0.33899219 32:-0.30262709 33:-0.45050746 34:-0.45050746 35:-0.94308943 36:-0.97560976 37:-0.51293085 38:-0.51305365 39:-0.64398976 40:-0.64369739 
1.0 1:-0.2012012 2:-0.2012012 3:0.52 4:0.52 5:-0.7488511 6:-0.56603528 7:1.0 8:1.0 9:-0.63207845 10:-0.79156685 11:-0.1728082 12:-0.16917271 13:-0.55555556 14:-0.77777778 15:3.0E-8 16:3.0E-8 17:3.0E-8 18:3.0E-8 19:3.0E-8 20:3.0E-8 21:-1.0 22:-1.0 25:-0.02933086 26:0.2523935 27:-0.7152879 28:-0.79756784 29:0.01116701 30:0.39765839 31:-0.49746333 32:-0.47408894 33:1.0 34:1.0 35:-0.93495935 36:-0.91056911 37:0.87423356 38:0.87827436 39:0.52890543 40:0.51244882 
1.0 1:-0.06106105 2:-0.06106105 3:0.1 4:0.1 5:-0.53785932 6:0.40349027 7:1.0 8:1.0 9:-0.44732247 10:-0.27381275 11:-0.04051509 12:-0.02519925 13:0.33333333 14:0.33333333 15:-0.33333333 16:-0.33333333 17:-0.33333333 18:-0.33333333 19:-0.33333333 20:-0.33333333 21:-1.0 22:-1.0 23:1.0 24:1.0 25:-0.45120416 26:-0.27674906 27:-0.72666037 28:-0.71571747 29:-0.46462072 30:-0.33106308 31:-0.63155187 32:-0.61548245 33:1.0 34:1.0 35:-0.96747967 36:-0.91056911 37:0.60073367 38:0.60066799 39:0.00586464 40:0.00613193 
1.0 1:-0.26126126 2:-0.26126126 3:0.59999999 4:-0.60000001 5:0.06315034 6:0.06315034 7:1.0 8:1.0 9:-0.34295 10:-0.60841856 11:-0.66559814 12:-0.66559814 13:-0.77777778 14:-0.77777778 15:-0.14285715 16:-0.14285715 17:-0.14285715 18:-0.14285715 19:-0.14285715 20:-0.14285715 21:-1.0 22:-1.0 23:0.33333333 24:0.33333333 25:-0.30797439 26:-0.31467603 27:-0.78428702 28:-0.59457014 29:-0.25586172 30:-0.44946392 31:-0.47706553 32:-0.50205884 33:-0.86362391 34:-0.86362391 35:-0.93495935 36:-0.93495935 37:-0.88018964 38:-0.87971938 39:-0.90750917 40:-0.90727835 
1.0 1:0.42942943 2:0.42942943 3:1.0 4:-0.44000001 5:-0.42869573 6:-0.42869573 7:1.0 8:1.0 9:-0.22676375 10:-0.21869135 11:0.15624599 12:0.15624599 13:-0.11111111 14:-0.11111111 15:3.0E-8 16:3.0E-8 17:3.0E-8 18:3.0E-8 19:3.0E-8 20:3.0E-8 21:-1.0 22:-1.0 25:0.29550176 26:0.29550176 27:-1.0 28:-1.0 29:0.63322594 30:0.51890764 31:-0.63500332 32:-0.65864405 33:-0.48246837 34:-0.48246837 35:-0.91869919 36:-0.91056911 37:-0.51856011 38:-0.51856202 39:-0.59226815 40:-0.59226216 
1.0 1:-0.26126126 2:-0.26126126 3:-0.60000001 4:1.0 5:-0.31679426 6:-0.28589122 7:1.0 8:1.0 9:-0.31053427 10:-0.32408566 11:-0.23386085 12:-0.23386085 13:-0.11111111 14:0.11111111 15:0.71428576 16:-0.14285715 17:-0.14285715 18:-0.14285715 19:0.07142859 20:-0.14285715 21:0.97948672 22:-1.0 23:0.33333333 24:0.33333333 25:-0.07165822 26:0.0321638 27:-0.93943403 28:-0.93166503 29:0.26244276 30:0.0768571 31:-0.70481152 32:-0.72726131 33:1.0 34:1.0 35:-0.95934959 36:-0.92682927 37:0.77305904 38:0.77117269 39:0.2944471 40:0.30082799 
1.0 1:0.87612611 2:0.87612611 3:0.3142857 4:-0.71428571 5:-0.55879214 6:-0.55879214 7:1.0 8:1.0 9:-0.16968019 10:-0.43959264 11:0.28720461 12:0.28720461 13:0.11111111 14:0.33333333 15:0.50000002 16:0.50000002 17:-0.24999999 18:-0.24999999 19:-0.09999999 20:-0.12500001 21:0.6 22:0.490712 23:0.66666667 24:0.66666667 25:-0.16112646 26:-0.64662567 27:-0.85593222 28:-0.78615242 29:-0.19928953 30:-0.72881394 31:-0.79024316 32:-0.80328604 33:-0.82583169 34:-0.82583169 35:-0.97560976 36:-0.97560976 37:-0.81779413 38:-0.81781626 39:-0.77915086 40:-0.77912842 
1.0 1:0.00900897 2:0.38738737 3:0.4 4:0.4 5:-0.69413647 6:-0.68047407 7:1.0 8:1.0 9:-0.22391719 10:0.28235804 11:0.55636837 12:0.56978305 13:-0.33333333 14:-0.33333333 15:0.20000001 16:0.20000001 17:0.20000001 18:0.20000001 19:0.20000001 20:0.20000001 21:-1.0 22:-1.0 23:-0.33333333 24:-0.33333333 25:-0.50777714 26:-0.55458241 27:-0.89607624 28:-0.89243731 29:-0.19639635 30:-0.32760826 31:-0.74044215 32:-0.75999693 33:-0.60135852 34:-0.60135852 35:-0.72357724 36:-0.7398374 37:-0.62126152 38:-0.6208675 39:-0.49932004 40:-0.50023922 
1.0 1:0.42942943 2:0.00900897 3:0.52 4:0.52 5:-0.68618745 6:-0.61307296 7:1.0 8:1.0 9:-0.30920234 10:-0.33655464 11:0.37989276 12:0.35849794 13:-0.11111111 14:-0.11111111 15:3.0E-8 16:3.0E-8 17:3.0E-8 18:3.0E-8 19:3.0E-8 20:3.0E-8 21:-1.0 22:-1.0 25:-0.49465054 26:-0.49465054 27:-0.75297821 28:-0.89561647 29:-0.53414045 30:-0.36713206 31:-0.75080424 32:-0.76781185 33:1.0 34:1.0 35:-0.94308943 36:-0.91056911 37:0.87393258 38:0.87026068 39:0.52625442 40:0.53897687 
1.0 1:-0.41141143 2:0.2192192 3:1.0 4:1.0 5:-0.59986598 6:-0.70051225 7:1.0 8:1.0 9:-0.65011599 10:-0.62471953 11:0.16101862 12:0.12524768 13:0.11111111 14:0.11111111 15:3.0E-8 16:3.0E-8 17:3.0E-8 18:3.0E-8 19:3.0E-8 20:3.0E-8 21:-1.0 22:-1.0 25:-0.28122777 26:-0.26915483 27:-0.85229901 28:-0.87175891 29:-0.20827847 30:-0.07011758 31:-0.72094726 32:-0.71614672 33:1.0 34:1.0 35:-0.80487805 36:-0.95934959 37:0.87922912 38:0.87890895 39:0.50836759 40:0.50943278 
1.0 1:0.14914912 2:0.4994995 3:-0.50000001 4:-0.50000001 5:-0.3235441 6:-0.3491611 7:1.0 8:1.0 9:-0.49435066 10:-0.08427368 11:0.07560125 12:0.12972343 13:-0.33333333 14:-0.33333333 15:-0.33333333 16:-0.33333333 17:-0.33333333 18:-0.33333333 19:-0.33333333 20:-0.33333333 21:-1.0 22:-1.0 23:1.0 24:1.0 25:0.19273959 26:0.38925854 27:-0.58193844 28:-0.9012366 29:-0.11416982 30:0.52958348 31:-0.04328453 32:-0.09819449 33:-0.86362391 34:-0.85118274 35:-0.78861789 36:-0.85365854 37:-0.88726988 38:-0.87781501 39:-0.89729383 40:-0.89205963 
1.0 1:0.13513514 2:0.13513514 3:-0.2 4:-0.2 5:-0.20033863 6:-0.31890865 7:1.0 8:1.0 9:-0.43959264 10:-0.80527035 11:0.39365918 12:0.09920112 13:-0.55555556 14:-0.33333333 15:0.20000001 16:0.20000001 17:0.20000001 18:0.20000001 19:0.20000001 20:0.20000001 21:-1.0 22:-1.0 23:-0.33333333 24:-0.33333333 25:0.05553409 26:0.05553409 27:-0.42328296 28:-0.45646913 29:-0.14677456 30:-0.16100636 31:-0.10081112 32:-0.10657805 33:-0.84610618 34:-0.84610618 35:-0.88617886 36:-0.98373984 37:-0.84638342 38:-0.84703102 39:-0.8601757 40:-0.85794239 
1.0 1:-1.0 2:-1.0 3:-0.80000001 4:-0.80000001 5:-0.43455103 6:-0.43455103 7:1.0 8:1.0 9:-0.26625159 10:-0.26625159 11:-0.39989864 12:-0.58051473 13:-0.55555556 14:-0.55555556 15:0.20000001 16:0.20000001 17:0.20000001 18:0.20000001 19:0.20000001 20:0.20000001 21:-1.0 22:-1.0 23:-0.33333333 24:-0.33333333 25:-0.1036895 26:-0.1036895 27:-0.49827517 28:-0.49827517 29:-0.29106341 30:-0.29106341 31:-0.29834081 32:-0.29834081 33:-0.97835111 34:-0.97835111 35:-0.95934959 36:-0.85365854 37:-0.97903508 38:-0.97908916 39:-0.96733872 40:-0.96724537 
1.0 1:-0.49549549 2:-0.49549549 3:1.0 4:1.0 5:-0.46236377 6:-0.53028535 7:1.0 8:1.0 9:-0.75250957 10:-0.49211284 11:-0.53944174 12:0.00522651 13:-0.33333333 14:-0.33333333 15:0.20000001 16:0.20000001 17:0.20000001 18:0.20000001 19:0.20000001 20:0.20000001 21:-1.0 22:-1.0 23:-0.33333333 24:-0.33333333 25:-0.0493643 26:-0.15066568 27:-0.91045353 28:-0.91045353 29:0.08676921 30:-0.02390198 31:-0.59372447 32:-0.60545229 33:1.0 34:1.0 35:-0.95934959 36:-0.93495935 37:0.99998412 38:0.99298962 39:0.80811478 40:0.82846592 
1.0 1:-0.26126126 2:-0.26126126 3:-0.2 4:-0.2 5:-0.70812415 6:-0.7012465 7:1.0 8:1.0 9:-0.50115138 10:-0.05012013 11:-0.19559392 12:0.08680169 13:0.11111111 14:-0.11111111 15:-0.14285715 16:-0.14285715 17:-0.14285715 18:-0.14285715 19:-0.14285715 20:-0.14285715 21:-1.0 22:-1.0 23:0.33333333 24:0.33333333 25:-0.0397847 26:-0.0397847 27:-0.81219076 28:-0.75453281 29:-0.18755497 30:-0.22068807 31:-0.38200326 32:-0.34306311 33:1.0 34:1.0 35:-0.96747967 36:-0.97560976 37:0.77204972 38:0.7731928 39:0.3278647 40:0.29326735 
1.0 1:-0.53153154 2:-0.53153154 3:0.2 4:0.2 5:-0.20619394 6:-0.20619394 7:1.0 8:1.0 9:-0.36181544 10:-0.42336306 11:0.08620995 12:-0.03716502 13:-0.33333333 14:-0.11111111 15:-0.14285715 16:-0.14285715 17:-0.14285715 18:-0.14285715 19:-0.14285715 20:-0.14285715 21:-1.0 22:-1.0 23:0.33333333 24:0.33333333 25:0.68997849 26:0.61621548 27:-0.64509312 28:-0.64509312 29:0.46942122 30:0.38645884 31:0.24887213 32:0.21988313 33:-0.98912392 34:-0.98912392 35:-0.88617886 36:-0.84552846 37:-0.9907665 38:-0.99080222 39:-0.98861417 40:-0.98858852 
1.0 1:-0.36936937 2:-0.36936937 3:0.4 4:0.4 5:-0.77679393 6:-0.77679393 7:1.0 8:1.0 9:-0.15262066 10:-0.66526053 11:-0.4224857 12:-0.4224857 13:0.11111111 14:-0.11111111 15:0.20000001 16:0.20000001 17:0.20000001 18:0.20000001 19:0.20000001 20:0.20000001 21:-1.0 22:-1.0 23:-0.33333333 24:-0.33333333 25:-0.30367813 26:-0.39657294 27:-0.74079324 28:-0.405897 29:-0.31707593 30:-0.7580058 31:-0.42370967 32:-0.43532531 33:1.0 34:1.0 35:-0.96747967 36:-0.77235772 37:0.99978764 38:0.98784849 39:0.80922785 40:0.84437198 
1.0 1:-0.87387389 2:-0.87387389 3:-0.2 4:-0.2 5:-0.24601006 6:-0.24601006 7:1.0 8:1.0 9:-0.17741304 10:-0.80608082 11:-0.48146083 12:-0.48146083 13:-0.55555556 14:-0.55555556 15:0.20000001 16:0.20000001 17:0.20000001 18:0.20000001 19:0.20000001 20:0.20000001 21:-1.0 22:-1.0 23:-0.33333333 24:-0.33333333 25:-0.08716069 26:-0.08716069 27:-0.11293215 28:-0.0221706 29:-0.67318546 30:-0.79518221 31:-0.04286744 32:0.01498114 33:-0.98979126 34:-0.98979126 35:-0.94308943 36:-0.62601626 37:-0.9903148 38:-0.99043532 39:-0.98898963 40:-0.98869521 
1.0 1:0.00900897 2:-0.08108109 3:0.65714286 4:0.59999999 5:-0.43078057 6:-0.40202154 7:1.0 8:1.0 9:-0.42833813 10:-0.56282902 11:-0.47384295 12:-0.52631283 13:-0.55555556 14:-0.77777778 15:0.50000002 16:0.71428576 17:-0.24999999 18:0.71428576 19:0.12500001 20:0.71428576 21:1.0 22:-1.0 23:0.66666667 24:0.33333333 25:-0.37626859 26:-0.62406892 27:-0.96344594 28:-0.85716069 29:-0.29969464 30:-0.59452623 31:-0.74796952 32:-0.73689641 33:-0.78822221 34:-0.78822221 35:-0.87804878 36:-0.87804878 37:-0.81323303 38:-0.8196391 39:-0.79857115 40:-0.82085938 
1.0 1:-0.08108109 2:-0.08108109 3:0.2 4:0.2 5:-0.25122407 6:-0.25122407 7:1.0 8:1.0 9:-0.27128042 10:-0.78892827 11:-0.25619367 12:-0.25619367 13:-0.11111111 14:-0.11111111 15:-0.14285715 16:-0.14285715 17:-0.14285715 18:-0.14285715 19:-0.14285715 20:-0.14285715 21:-1.0 22:-1.0 23:0.33333333 24:0.33333333 25:0.21241704 26:-0.51442961 27:-0.94972908 28:-0.67771993 29:0.20544023 30:-0.67890998 31:-0.56200029 32:-0.57142698 33:1.0 34:1.0 35:-0.85365854 36:-0.89430894 37:0.75994597 38:0.74977239 39:0.34847435 40:0.40484571 
1.0 1:0.00900897 2:0.00900897 3:0.4 4:0.4 5:-0.50481476 6:-0.50481476 7:1.0 8:1.0 9:-0.02193733 10:-0.02193733 11:0.10238572 12:0.10238572 13:-0.55555556 14:-0.55555556 15:0.20000001 16:0.20000001 17:0.20000001 18:0.20000001 19:0.20000001 20:0.20000001 21:-1.0 22:-1.0 23:-0.33333333 24:-0.33333333 25:0.08924802 26:-0.62589345 27:-0.41906802 28:-0.67196987 29:-0.09308544 30:-0.72910814 31:-0.17472439 32:-0.64061905 33:-0.9359749 34:-0.9359749 35:-0.99186992 36:-0.95121951 37:-0.93603722 38:-0.93604987 39:-0.94204702 40:-0.94201111 
1.0 1:-0.49549549 2:-0.49549549 3:1.0 4:1.0 5:-0.46236377 6:-0.46236377 7:1.0 8:1.0 9:-0.90304041 10:-0.67595927 11:-0.53944174 12:-0.53944174 13:-0.55555556 14:-0.55555556 15:0.20000001 16:0.20000001 17:0.20000001 18:0.20000001 19:0.20000001 20:0.20000001 21:-1.0 22:-1.0 23:-0.33333333 24:-0.33333333 25:0.19007602 26:-0.48571341 27:-0.86659153 28:-0.78555857 29:0.24167481 30:-0.43999654 31:-0.3335648 32:-0.77338542 33:-0.76700232 34:-0.76700232 35:-0.8699187 36:-0.88617886 37:-0.76719158 38:-0.76724916 39:-0.78829325 40:-0.78812809 
1.0 1:0.00900897 2:0.00900897 3:-0.2 4:-0.2 5:1.0 6:1.0 7:1.0 8:1.0 9:-0.31504622 10:-0.1845319 11:0.02557498 12:0.02557498 13:-0.11111111 14:0.11111111 15:0.20000001 16:0.20000001 17:0.20000001 18:0.20000001 19:0.20000001 20:0.20000001 21:-1.0 22:-1.0 23:-0.33333333 24:-0.33333333 25:0.34868668 26:-0.75327958 27:-0.33622623 28:-0.66171328 29:-0.05155123 30:-0.88992518 31:0.142932 32:-0.76033644 33:-0.99847465 34:-0.99924527 35:-0.83739837 36:-0.62601626 37:-0.99874128 38:-0.99941511 39:-0.9964364 40:-0.99635022 
1.0 1:0.45945943 2:0.45945943 3:-0.2 4:-0.2 5:-0.73975805 6:-0.73975805 7:1.0 8:1.0 9:-0.40151974 10:-0.40151974 11:0.19896175 12:0.19896175 13:-0.33333333 14:-0.33333333 15:-0.14285715 16:-0.14285715 17:-0.14285715 18:-0.14285715 19:-0.14285715 20:-0.14285715 21:-1.0 22:-1.0 23:0.33333333 24:0.33333333 25:-0.00603498 26:-0.43170707 27:-0.67771993 28:-0.93473869 29:-0.02065348 30:-0.31444451 31:-0.21258178 32:-0.83802939 33:1.0 34:1.0 35:-0.98373984 36:-0.91056911 37:0.73864626 38:0.73860833 39:0.45628777 40:0.45694946 
1.0 1:0.00900897 2:0.00900897 3:-0.2 4:-0.2 5:1.0 6:1.0 8:1.0 9:-0.31504622 10:-0.1845319 11:0.02557498 12:0.02557498 13:-0.11111111 14:-0.11111111 15:0.20000001 16:0.20000001 17:0.20000001 18:0.20000001 19:0.20000001 20:0.20000001 21:-1.0 22:-1.0 23:-0.33333333 24:-0.33333333 25:-0.02120024 26:-0.23616675 27:-0.3542964 28:-0.3542964 29:-0.36285902 30:-0.55949118 31:-0.27998296 32:-0.27240694 33:-0.9991976 34:-0.9991976 35:-0.78861789 36:-0.78861789 37:-0.99942356 38:-0.9994275 39:-0.99765 40:-0.99762127 
1.0 1:0.51351349 2:0.51351349 3:0.4 4:0.4 5:-0.41405746 6:-0.41405746 7:1.0 9:-0.49435066 10:-0.49435066 11:0.10609573 12:0.10609573 13:-1.0 14:-1.0 15:-1.0 16:-1.0 17:-1.0 18:-1.0 19:-1.0 20:-1.0 21:-1.0 22:-1.0 23:-0.33333333 24:-0.33333333 25:0.09977094 26:0.09977094 27:-0.43093811 28:-0.43093811 29:-0.12608612 30:-0.16000991 31:-0.08267837 32:-0.10070812 33:-0.99464538 34:-0.99464538 35:-0.7804878 36:-0.7804878 37:-0.99511892 38:-0.99511892 39:-0.99271661 40:-0.99271661 
1.0 1:0.2192192 2:0.2192192 3:-0.44000001 4:-0.44000001 5:0.34420523 6:0.34420523 7:1.0 9:-0.19022552 10:-0.45310683 11:0.24100001 12:0.24100001 13:-0.55555556 14:-0.55555556 15:3.0E-8 16:3.0E-8 17:3.0E-8 18:3.0E-8 19:3.0E-8 20:3.0E-8 21:-1.0 22:-1.0 25:0.17695405 26:0.13743814 27:-0.14696774 28:0.19077214 29:-0.42863356 30:-0.78848027 31:0.15259611 32:0.19271129 33:-0.96874615 34:-0.96874615 35:-0.97560976 36:-0.93495935 37:-0.97071836 38:-0.97071376 39:-0.97616186 40:-0.97613194 
1.0 1:-0.08108109 2:-0.08108109 3:0.59999999 4:0.59999999 5:-0.44751637 6:-0.39774624 7:1.0 8:1.0 9:-0.46507164 10:-0.24946046 11:0.06568477 12:0.08294184 13:0.11111111 14:-0.11111111 15:-0.14285715 16:-0.14285715 17:-0.14285715 18:-0.14285715 19:-0.14285715 20:-0.14285715 21:-1.0 22:-1.0 23:0.33333333 24:0.33333333 25:-0.18564095 26:0.0781643 27:-0.9588321 28:-0.94429573 29:0.00453128 30:0.16980003 31:-0.46185229 32:-0.47846101 33:-0.82287632 34:1.0 35:-0.58536585 36:-0.92682927 37:-0.84409255 38:0.77304493 39:-0.88087769 40:0.29402137 
1.0 1:0.1891892 2:0.1891892 3:-0.60000001 4:-0.60000001 5:-0.08643891 6:0.07430332 7:1.0 8:1.0 9:-0.43959264 10:-0.43959264 11:0.2881092 12:0.28167996 13:-0.33333333 14:-0.55555556 15:-0.14285715 16:-0.14285715 17:-0.14285715 18:-0.14285715 19:-0.14285715 20:-0.14285715 21:-1.0 22:-1.0 23:0.33333333 24:0.33333333 25:-0.04960379 26:-0.4568047 27:-0.7158471 28:-0.7158471 29:-0.24782422 30:-0.59004718 31:-0.52497512 32:-0.55037346 33:-0.92458241 34:-0.84610618 35:-0.97560976 36:-0.97560976 37:-0.93329863 38:-0.86030228 39:-0.95071866 40:-0.85176873 
1.0 1:0.00900897 2:0.00900897 3:0.04 4:0.04 5:0.67210263 6:0.67210263 7:1.0 8:1.0 9:-0.00386893 10:0.19755123 11:0.22175926 12:0.22175926 13:-0.77777778 14:-0.77777778 15:3.0E-8 16:3.0E-8 17:3.0E-8 18:3.0E-8 19:3.0E-8 20:3.0E-8 21:-1.0 22:-1.0 25:-0.22154616 26:-0.02589425 27:-0.60928446 28:-0.8574606 29:-0.40402209 30:0.01451537 31:-0.53764583 32:-0.52327029 33:-0.99955511 34:-0.99961072 35:-0.94308943 36:-0.94308943 37:-0.9995255 38:-0.9996329 39:-0.99932678 40:-0.99972772 
1.0 1:-0.55155158 2:-0.55155158 3:-0.80000001 4:-0.80000001 5:-0.33208312 6:-0.30898716 7:1.0 8:1.0 9:-0.80608082 10:-0.80608082 11:-0.59376657 12:-0.59376657 13:-0.77777778 14:-0.77777778 15:-0.33333333 16:-0.33333333 17:-0.33333333 18:-0.33333333 19:-0.33333333 20:-0.33333333 21:-1.0 22:-1.0 23:1.0 24:1.0 25:0.32915645 26:0.40965881 27:0.20610313 28:0.10968271 29:-0.65892615 30:-0.46160658 31:0.29165378 32:0.26609886 33:-0.97126457 34:-0.99811714 35:-0.91869919 36:-0.91869919 37:-0.97710461 38:-0.99857164 39:-0.9851342 40:-0.99863061 
1.0 1:0.51351349 2:0.51351349 3:-0.2 4:-0.2 5:0.13926938 6:-0.59849973 7:1.0 8:1.0 9:-0.60840018 10:-0.60840018 11:0.08493739 12:0.12725403 13:-0.11111111 14:-0.33333333 15:0.20000001 16:0.20000001 17:0.20000001 18:0.20000001 19:0.20000001 20:0.20000001 21:-1.0 22:-1.0 23:-0.33333333 24:-0.33333333 25:-0.01914104 26:0.16125765 27:-0.40117643 28:-0.67191405 29:-0.18444435 30:0.34177681 31:-0.19451463 32:-0.24518989 33:-0.94169497 34:-0.94169497 35:-0.5203252 36:-0.8699187 37:-0.94352691 38:-0.94297587 39:-0.94098422 40:-0.94245634 
1.0 1:-0.36936937 2:-0.36936937 3:1.0 4:1.0 5:-0.59557207 6:-0.80831502 7:1.0 8:1.0 9:-0.62077331 10:-0.49170136 11:-0.33432675 12:-0.37510901 13:-0.55555556 14:-0.11111111 15:0.20000001 16:0.20000001 17:0.20000001 18:0.20000001 19:0.20000001 20:0.20000001 21:-1.0 22:-1.0 23:-0.33333333 24:-0.33333333 25:-0.61425925 26:-0.45120416 27:-0.82238545 28:-0.8588667 29:-0.60665611 30:-0.39723997 31:-0.76127581 32:-0.73738979 33:1.0 34:1.0 35:-0.83739837 36:-0.96747967 37:0.99969953 38:0.99968197 39:0.80948637 40:0.80953663 
1.0 1:0.09909909 2:0.09909909 3:0.2 4:0.2 5:-0.08300007 6:-0.68526057 7:1.0 8:1.0 9:-0.88852647 10:-0.50952082 11:0.1198494 12:0.10889348 13:0.33333333 14:-0.11111111 15:-0.14285715 16:-0.14285715 17:-0.14285715 18:-0.14285715 19:-0.14285715 20:-0.14285715 21:-1.0 22:-1.0 23:0.33333333 24:0.33333333 25:-0.34974152 26:-0.48808566 27:-0.7069583 28:-0.56416152 29:-0.51691751 30:-0.70831821 31:-0.5117434 32:-0.49295375 33:1.0 34:1.0 35:-0.99186992 36:-0.99186992 37:0.77246914 38:0.77257761 39:0.29599616 40:0.29553452 
1.0 1:-0.14864864 2:-0.14864864 3:0.3142857 4:0.3142857 5:-0.62565025 6:0.10507855 7:1.0 8:1.0 9:-0.37783304 10:-0.45878623 11:-0.24501019 12:-0.26002415 13:0.11111111 14:-0.11111111 15:-0.24999999 16:-0.24999999 17:-0.24999999 18:-0.24999999 19:-0.24999999 20:-0.24999999 21:-1.0 22:-1.0 23:0.66666667 24:0.66666667 25:-0.30732812 26:-0.29431521 27:-0.7972071 28:-0.80901149 29:-0.20884648 30:-0.36423605 31:-0.59810459 32:-0.59244428 33:1.0 34:1.0 35:-0.85365854 36:-0.89430894 37:0.66836172 38:0.68000695 39:0.19175596 40:0.13620594 
1.0 1:0.00900897 2:0.00900897 3:1.0 4:-0.80000001 5:-0.52189276 6:-0.52189276 7:1.0 8:1.0 9:-0.62560956 10:-0.08472499 11:-0.12736646 12:-0.12736646 13:-0.33333333 14:-0.33333333 15:0.20000001 16:0.20000001 17:0.20000001 18:0.20000001 19:0.20000001 20:0.20000001 21:-1.0 22:-1.0 23:-0.33333333 24:-0.33333333 25:-0.77959128 26:-0.71234631 27:-0.86171285 28:-0.92373802 29:-0.68850206 30:-0.58057066 31:-0.86808626 32:-0.87396925 33:1.0 34:1.0 35:-0.97560976 36:-0.48780488 37:0.95193526 38:0.94331721 39:0.96594739 40:1.0 
1.0 1:0.11411409 2:0.11411409 3:0.52 4:-0.92000001 5:-0.4578185 6:-0.4578185 7:1.0 8:1.0 9:-0.88852647 10:-0.08472499 11:0.25917281 12:0.25917281 13:-0.77777778 14:-0.77777778 15:3.0E-8 16:3.0E-8 17:3.0E-8 18:3.0E-8 19:3.0E-8 20:3.0E-8 21:-1.0 22:-1.0 25:-0.45469711 26:-0.55025923 27:-0.72543422 28:-0.65090798 29:-0.58095414 30:-0.72640844 31:-0.64322695 32:-0.64606156 33:-0.87902838 34:-0.87902838 35:-0.87804878 36:-0.96747967 37:-0.88725617 38:-0.88723626 39:-0.9056079 40:-0.90561987 
1.0 1:0.27927926 2:0.27927926 3:0.59999999 4:-0.60000001 5:-0.48362898 6:-0.48362898 7:1.0 8:1.0 9:-0.58466927 10:-0.80527035 11:0.15187275 12:0.15187275 13:0.33333333 14:0.33333333 15:-0.14285715 16:-0.14285715 17:-0.14285715 18:-0.14285715 19:-0.14285715 20:-0.14285715 21:-1.0 22:-1.0 23:0.33333333 24:0.33333333 25:0.12163178 26:-0.34827517 27:-0.89614116 28:-0.35791425 29:0.0101991 30:-0.75450537 31:-0.41007882 32:-0.37002049 33:1.0 34:1.0 35:-0.94308943 36:-0.95934959 37:0.74215904 38:0.74672689 39:0.43132331 40:0.41460682 
1.0 1:-0.54279282 2:-0.54279282 3:-0.71428571 4:0.3142857 5:-0.2620285 6:-0.2620285 7:1.0 8:1.0 9:-1.0 10:-0.66645766 11:-0.62357492 12:-0.62357492 13:-0.55555556 14:-0.55555556 15:-0.24999999 16:-0.24999999 17:-0.24999999 18:-0.24999999 19:-0.24999999 20:-0.24999999 21:-1.0 22:-1.0 23:0.66666667 24:0.66666667 25:0.06122361 26:-0.01963136 27:-0.72323945 28:-0.65119866 29:-0.01498437 30:-0.34337988 31:-0.35177771 32:-0.33121864 33:-0.76700232 34:-0.76700232 35:-0.90243902 36:-0.96747967 37:-0.80434767 38:-0.8043031 39:-0.86716378 40:-0.86754078 
1.0 1:-0.11711714 2:-0.49549549 3:0.4 4:0.4 5:-0.04078143 6:-0.00828445 7:1.0 8:1.0 9:-0.14397683 10:0.04786541 11:0.03721891 12:0.0452882 13:-0.55555556 14:-0.55555556 15:0.20000001 16:0.20000001 17:0.20000001 18:0.20000001 19:0.20000001 20:0.20000001 21:-1.0 22:-1.0 23:-0.33333333 24:-0.33333333 25:0.48200996 26:0.48200996 27:-0.87704926 28:-0.43225357 29:0.55483039 30:0.36063359 31:-0.06797237 32:-0.02849338 33:-0.93583984 34:-0.93583984 35:-0.91869919 36:-0.91869919 37:-0.93730454 38:-0.93648162 39:-0.93736496 40:-0.94015122 
1.0 1:-0.36936937 2:0.00900897 3:0.4 4:0.4 5:-0.70448085 6:-0.69023293 7:1.0 8:1.0 9:-0.79453999 10:-0.69490832 11:0.10222164 12:0.07867455 13:-0.11111111 14:-0.33333333 15:0.20000001 16:0.20000001 17:0.20000001 18:0.20000001 19:0.20000001 20:0.20000001 21:-1.0 22:-1.0 23:-0.33333333 24:-0.33333333 25:-0.6055035 26:-0.6055035 27:-0.73867476 28:-0.87403438 29:-0.67086362 30:-0.50444111 31:-0.68560204 32:-0.69848016 33:-0.9176071 34:-0.9176071 35:-0.62601626 36:-0.63414634 37:-0.92212208 38:-0.92211863 39:-0.90189769 40:-0.90190487 
1.0 1:-0.06106105 2:-0.55155158 3:-0.2 4:-0.2 5:-0.53647189 6:-0.52742276 7:1.0 8:1.0 9:-0.65556168 10:-0.70062693 11:-0.42712065 12:-0.44819831 13:0.33333333 14:-0.33333333 15:0.33333333 16:-0.33333333 17:-0.33333333 18:-0.33333333 19:-0.22222221 20:-0.33333333 21:0.32507744 22:-1.0 23:1.0 24:1.0 25:-0.27591658 26:-0.11927057 27:-0.58649168 28:-0.4811192 29:-0.6129078 30:-0.50856139 31:-0.41367051 32:-0.41506757 33:1.0 34:1.0 35:-0.95934959 36:-0.99186992 37:0.60015331 38:0.60074946 39:0.00825034 40:0.00580479 
1.0 1:-0.08108109 2:-0.35135137 3:-0.2 4:-0.2 5:0.24090083 6:0.21538841 7:1.0 8:1.0 9:-0.05364423 10:-0.24990922 11:0.06156157 12:0.06732534 13:-0.33333333 14:-0.33333333 15:-0.14285715 16:-0.14285715 17:-0.14285715 18:-0.14285715 19:-0.14285715 20:-0.14285715 21:-1.0 22:-1.0 23:0.33333333 24:0.33333333 25:0.58036066 26:0.58036066 27:-0.5492806 28:-0.43225357 29:0.26065082 30:0.36577176 31:0.19067238 32:0.15923239 33:-0.93583984 34:-0.93583984 35:-0.95121951 36:-0.95121951 37:-0.94383352 38:-0.94344476 39:-0.95529916 40:-0.95728421 
1.0 1:-0.41141143 2:0.07907905 3:0.4 4:0.4 5:-0.72078356 6:-0.74915568 7:1.0 8:1.0 9:-0.57313783 10:-0.76045037 11:-0.05694713 12:-0.03819414 13:-0.33333333 14:-0.11111111 15:-0.33333333 16:0.33333333 17:-0.33333333 18:-0.33333333 19:-0.33333333 20:-0.16666665 21:-1.0 22:0.53960064 23:1.0 24:1.0 25:0.12560005 26:-0.29053005 27:-0.89807124 28:-0.94103678 29:-0.025985 30:-0.14554812 31:-0.52828211 32:-0.5463408 33:1.0 34:1.0 35:-0.91869919 36:-0.98373984 37:0.6006187 38:0.59136457 39:0.0061439 40:0.05267321 
1.0 1:-0.74774777 2:-0.74774777 3:-0.2 4:-0.2 5:-0.37307027 6:-0.37307027 7:1.0 8:1.0 9:-1.0 10:-1.0 11:-0.64848513 12:-0.75200605 13:-0.55555556 14:-0.55555556 15:0.20000001 16:0.20000001 17:0.20000001 18:0.20000001 19:0.20000001 20:0.20000001 21:-1.0 22:-1.0 23:-0.33333333 24:-0.33333333 25:0.24389377 26:0.16015579 27:-0.4197531 28:-0.22026222 29:0.08165179 30:-0.19354194 31:-0.00369832 32:0.01559608 33:-0.4985958 34:-0.4985958 35:-0.78861789 36:-0.80487805 37:-0.50783426 38:-0.50350822 39:-0.51743069 40:-0.53174255 
1.0 1:0.38738737 2:0.38738737 3:0.4 4:0.4 5:-0.80877635 6:-0.75052488 7:1.0 8:1.0 9:-0.23598443 10:-0.37956489 11:-0.1632433 12:0.1287039 13:-0.55555556 14:-0.77777778 15:0.20000001 16:0.20000001 17:0.20000001 18:0.20000001 19:0.20000001 20:0.20000001 21:-1.0 22:-1.0 23:-0.33333333 24:-0.33333333 25:-0.69658428 26:-0.81942519 27:-0.76867646 28:-0.66946955 29:-0.72948377 30:-0.94777903 31:-0.813604 32:-0.81324955 33:-0.82831834 34:-0.82831834 35:-0.86178862 36:-0.93495935 37:-0.82965404 38:-0.82922138 39:-0.83915673 40:-0.83928599 
1.0 1:-0.11711714 2:-0.11711714 3:0.4 4:0.4 5:-0.83759157 6:-0.83251697 7:1.0 8:1.0 9:-0.41961075 10:-0.25284052 11:0.10068578 12:-0.16535844 13:-0.55555556 14:-0.77777778 15:0.20000001 16:0.20000001 17:0.20000001 18:0.20000001 19:0.20000001 20:0.20000001 21:-1.0 22:-1.0 23:-0.33333333 24:-0.33333333 25:0.09207394 26:0.3629792 27:-0.34341909 28:-0.78721889 29:-0.16811388 30:0.49485889 31:-0.09448307 32:-0.12924332 33:1.0 34:1.0 35:-0.91056911 36:-0.91056911 37:0.99863406 38:1.0 39:0.81202846 40:0.80812914 
1.0 1:-0.34134135 2:-0.27127128 3:0.7 4:0.7 5:0.03780443 6:-0.07114228 7:1.0 8:1.0 9:-0.47664909 10:-0.36047022 11:-0.61616625 12:-0.46253508 13:-0.11111111 14:-0.11111111 15:-0.33333333 16:-0.33333333 17:-0.33333333 18:-0.33333333 19:-0.33333333 20:-0.33333333 21:-1.0 22:-1.0 23:1.0 24:1.0 25:-0.05917756 26:-0.16671456 27:-0.92292606 28:-0.89962402 29:-0.00283898 30:-0.06665858 31:-0.58731379 32:-0.57019979 33:1.0 34:1.0 35:-0.95121951 36:-0.95121951 37:0.59562549 38:0.60083461 39:0.03066723 40:0.00498695 
1.0 1:-0.26126126 2:-0.26126126 3:1.0 4:1.0 5:-0.58920559 6:-0.50843526 7:1.0 8:1.0 9:-0.61405006 10:-0.53458067 11:-0.42663573 12:-0.38980432 13:0.33333333 14:-0.11111111 15:-0.14285715 16:-0.14285715 17:-0.14285715 18:-0.14285715 19:-0.14285715 20:-0.14285715 21:-1.0 22:-1.0 23:0.33333333 24:0.33333333 25:-0.09298984 26:-0.09298984 27:-0.9032828 28:-0.80782538 29:0.20316541 30:-0.07524423 31:-0.52656546 32:-0.50885377 33:1.0 34:1.0 35:-0.91056911 36:-0.91056911 37:0.77293439 38:0.77228198 39:0.29994062 40:0.29653474 
1.0 1:0.11411409 2:0.11411409 3:0.52 4:0.52 5:-0.24601006 6:-0.18797741 7:1.0 8:1.0 9:-0.88852647 10:-0.59226596 11:0.13556181 12:0.11595329 13:0.33333333 14:0.11111111 15:3.0E-8 16:3.0E-8 17:3.0E-8 18:3.0E-8 19:3.0E-8 20:3.0E-8 21:-1.0 22:-1.0 25:-0.18347889 26:0.01511385 27:-0.77699038 28:-0.6858826 29:-0.27249417 30:-0.11612702 31:-0.47989582 32:-0.49709339 33:1.0 34:1.0 35:-0.80487805 36:-0.8699187 37:0.87936819 38:0.87930509 39:0.50829577 40:0.50850522 
1.0 1:0.00900897 2:-0.06106105 3:0.1 4:0.1 5:-0.75910921 6:-0.77618722 7:1.0 8:1.0 9:-0.3711835 10:-0.74587135 11:-0.0208893 12:-0.05184706 13:-0.11111111 14:0.11111111 15:0.33333333 16:-0.33333333 17:-0.33333333 18:-0.33333333 19:-0.16666665 20:-0.33333333 21:0.53960064 22:-1.0 23:1.0 24:1.0 25:-0.29053005 26:-0.48691312 27:-0.94103678 28:-0.42449494 29:-0.13806528 30:-0.87338691 31:-0.52326105 32:-0.48712846 33:1.0 34:1.0 35:-0.98373984 36:-0.92682927 37:0.59138629 38:0.58543551 39:0.05258145 40:0.0992464 
1.0 1:-0.13113112 2:-0.13113112 3:0.4 4:0.4 5:-0.67879338 6:-0.6554347 7:1.0 8:1.0 9:-0.40179578 10:-0.74567822 11:0.07769628 12:0.05584021 13:-0.11111111 14:-0.11111111 15:-0.33333333 16:-0.33333333 17:-0.33333333 18:-0.33333333 19:-0.33333333 20:-0.33333333 21:-1.0 22:-1.0 23:1.0 24:1.0 25:0.30867373 26:0.22964192 27:-0.89195686 28:-0.89195686 29:0.21848703 30:0.10318337 31:-0.56801569 32:-0.53551256 33:1.0 34:1.0 35:-0.8699187 36:-0.74796748 37:0.59809549 38:0.59505475 39:0.01797271 40:0.03220717 
1.0 1:-0.27127128 2:-0.27127128 3:-0.80000001 4:-0.80000001 5:0.47627502 6:0.47627502 7:1.0 8:1.0 9:-0.31504622 10:-0.31504622 11:-0.24005564 12:-0.24005564 13:0.11111111 14:-0.11111111 15:-0.33333333 16:-0.33333333 17:-0.33333333 18:-0.33333333 19:-0.33333333 20:-0.33333333 21:-1.0 22:-1.0 23:1.0 24:1.0 25:0.01613351 26:-0.05102232 27:-0.34308026 28:-0.22604032 29:-0.31201785 30:-0.62234614 31:-0.15693749 32:-0.10126644 33:-0.99917377 34:-0.99859382 35:-0.94308943 36:-0.90243902 37:-0.99925688 38:-0.99883828 39:-0.99767713 40:-0.9976492 
1.0 1:-0.35135137 2:-0.35135137 3:0.59999999 4:0.59999999 5:-0.21427984 6:-0.21427984 7:1.0 8:1.0 9:-0.00335036 10:-0.71666919 11:-0.51073032 12:-0.51073032 13:-0.55555556 14:-0.55555556 15:-0.14285715 16:-0.14285715 17:-0.14285715 18:-0.14285715 19:-0.14285715 20:-0.14285715 21:-1.0 22:-1.0 23:0.33333333 24:0.33333333 25:-0.51442961 26:-0.22259564 27:-0.8229523 28:-0.8229523 29:-0.4167585 30:-0.24502368 31:-0.7716742 32:-0.51685469 33:1.0 34:1.0 35:-0.94308943 36:-0.94308943 37:0.77358009 38:0.77355123 39:0.29173881 40:0.29170291 
1.0 1:0.00900897 2:0.00900897 3:0.4 4:0.4 5:-0.19163699 6:-0.14598725 7:1.0 8:1.0 9:-0.38437596 10:-0.45603995 11:-0.00226768 12:0.02656844 13:0.33333333 14:0.33333333 15:-0.33333333 16:-0.33333333 17:-0.33333333 18:-0.33333333 19:-0.33333333 20:-0.33333333 21:-1.0 22:-1.0 23:1.0 24:1.0 25:-0.50271948 26:0.0781643 27:-0.89428674 28:-0.84504501 29:-0.46918897 30:0.15280404 31:-0.78301658 32:-0.40253115 33:1.0 34:1.0 35:-0.96747967 36:-0.96747967 37:0.59707164 38:0.59654476 39:0.02275609 40:0.02585592 
1.0 1:-0.62162166 2:-0.62162166 3:0.4 4:0.4 5:1.0 6:1.0 9:-0.00386893 10:0.09183768 11:-1.0 12:-1.0 13:-1.0 14:-1.0 15:-1.0 16:-1.0 17:-1.0 18:-1.0 19:-1.0 20:-1.0 21:-1.0 22:-1.0 23:-0.33333333 24:-0.33333333 25:-0.33675268 26:-1.0 27:-0.45612432 28:-0.83477021 29:-0.6380518 30:-0.97866535 31:-0.41263016 32:-1.0 33:-0.99922143 34:-0.99922143 35:-0.87804878 36:-0.67479675 37:-0.999374 38:-0.99951679 39:-0.99828193 40:-0.99828193 
0.14303226904927088 1:0.00900897 2:0.00900897 3:-0.2 4:-0.2 5:-0.42869573 6:-0.40527449 7:1.0 8:-1.0 9:-0.43671087 10:0.29527011 11:0.14286485 12:0.16871407 13:-1.0 14:-1.0 15:-1.0 16:-1.0 17:-1.0 18:-1.0 19:-1.0 20:-1.0 21:-1.0 22:-1.0 23:-0.33333333 24:-1.0 25:0.87661797 26:0.6840748 27:0.42029202 28:1.0 29:-0.14665925 30:-1.0 31:0.90167952 32:1.0 33:-0.99885599 34:-0.99885599 35:-0.8699187 36:-0.66666667 37:-0.99848572 38:-0.99808325 39:-0.99544541 40:-0.99312114 
1.0 1:0.00900897 2:0.00900897 3:-0.2 4:-0.2 5:1.0 6:1.0 7:1.0 9:-0.1845319 10:-0.31504622 11:0.02557498 12:0.02557498 13:-0.11111111 14:-0.11111111 15:0.20000001 16:0.20000001 17:0.20000001 18:0.20000001 19:0.20000001 20:0.20000001 21:-1.0 22:-1.0 23:-0.33333333 24:-0.33333333 25:-0.23616675 26:-0.02120024 27:-0.3542964 28:-0.3542964 29:-0.55949118 30:-0.36285902 31:-0.27240694 32:-0.27998296 33:-0.9991976 34:-0.9991976 35:-0.78861789 36:-0.78861789 37:-0.9994275 38:-0.99942356 39:-0.99762127 40:-0.99765 
1.0 1:0.2192192 2:0.2192192 3:-0.44000001 4:-0.44000001 5:0.34420523 6:0.34420523 7:1.0 9:-0.19022552 10:-0.45310683 11:0.24100001 12:0.24100001 13:-0.55555556 14:-0.55555556 15:3.0E-8 16:3.0E-8 17:3.0E-8 18:3.0E-8 19:3.0E-8 20:3.0E-8 21:-1.0 22:-1.0 25:0.17695405 26:0.13743814 27:-0.14696774 28:0.19077214 29:-0.42863356 30:-0.78848027 31:0.15259611 32:0.19271129 33:-0.96874615 34:-0.96874615 35:-0.97560976 36:-0.93495935 37:-0.97071836 38:-0.97071376 39:-0.97616186 40:-0.97613194 
0.281924193364436 1:0.00900897 2:0.00900897 3:1.0 4:1.0 5:-0.15583827 6:-0.15583827 7:1.0 8:1.0 9:-0.69243551 10:-0.30758545 11:0.17777454 12:0.15174022 13:-0.33333333 14:-0.33333333 15:0.20000001 16:0.20000001 17:0.20000001 18:0.20000001 19:0.20000001 20:0.20000001 21:-1.0 22:-1.0 23:-0.33333333 24:-0.33333333 25:-0.40315635 26:-0.61102404 27:-0.91732169 28:-0.74954401 29:-0.29250653 30:-0.57982342 31:-0.71985877 32:-0.7224868 33:-0.99405748 34:1.0 35:-0.86178862 36:-0.86178862 37:-0.99455047 38:0.99974711 39:-0.99296076 40:0.80945764 
1.0 1:-0.08108109 2:-0.08108109 3:0.59999999 4:0.59999999 5:-0.39774624 6:-0.44751637 7:1.0 8:1.0 9:-0.24946046 10:-0.46507164 11:0.08294184 12:0.06568477 13:-0.11111111 14:0.11111111 15:-0.14285715 16:-0.14285715 17:-0.14285715 18:-0.14285715 19:-0.14285715 20:-0.14285715 21:-1.0 22:-1.0 23:0.33333333 24:0.33333333 25:0.0781643 26:-0.18564095 27:-0.94429573 28:-0.9588321 29:0.16980003 30:0.00453128 31:-0.47846101 32:-0.46185229 33:1.0 34:-0.82287632 35:-0.92682927 36:-0.58536585 37:0.77304493 38:-0.84409255 39:0.29402137 40:-0.88087769 
1.0 1:0.1891892 2:0.1891892 3:-0.60000001 4:-0.60000001 5:0.07430332 6:-0.08643891 7:1.0 8:1.0 9:-0.43959264 10:-0.43959264 11:0.28167996 12:0.2881092 13:-0.55555556 14:-0.33333333 15:-0.14285715 16:-0.14285715 17:-0.14285715 18:-0.14285715 19:-0.14285715 20:-0.14285715 21:-1.0 22:-1.0 23:0.33333333 24:0.33333333 25:-0.4568047 26:-0.04960379 27:-0.7158471 28:-0.7158471 29:-0.59004718 30:-0.24782422 31:-0.55037346 32:-0.52497512 33:-0.84610618 34:-0.92458241 35:-0.97560976 36:-0.97560976 37:-0.86030228 38:-0.93329863 39:-0.85176873 40:-0.95071866 
1.0 1:-0.55155158 2:-0.55155158 3:-0.80000001 4:-0.80000001 5:-0.33208312 6:-0.30898716 7:1.0 8:1.0 9:-0.80608082 10:-0.80608082 11:-0.59376657 12:-0.59376657 13:-0.77777778 14:-0.77777778 15:-0.33333333 16:-0.33333333 17:-0.33333333 18:-0.33333333 19:-0.33333333 20:-0.33333333 21:-1.0 22:-1.0 23:1.0 24:1.0 25:0.32915645 26:0.40965881 27:0.20610313 28:0.10968271 29:-0.65892615 30:-0.46160658 31:0.29165378 32:0.26609886 33:-0.97126457 34:-0.99811714 35:-0.91869919 36:-0.91869919 37:-0.97710461 38:-0.99857164 39:-0.9851342 40:-0.99863061 
1.0 1:0.51351349 2:0.51351349 3:-0.2 4:-0.2 5:0.13926938 6:-0.59849973 7:1.0 8:1.0 9:-0.60840018 10:-0.60840018 11:0.08493739 12:0.12725403 13:-0.11111111 14:-0.33333333 15:0.20000001 16:0.20000001 17:0.20000001 18:0.20000001 19:0.20000001 20:0.20000001 21:-1.0 22:-1.0 23:-0.33333333 24:-0.33333333 25:-0.01914104 26:0.16125765 27:-0.40117643 28:-0.67191405 29:-0.18444435 30:0.34177681 31:-0.19451463 32:-0.24518989 33:-0.94169497 34:-0.94169497 35:-0.5203252 36:-0.8699187 37:-0.94352691 38:-0.94297587 39:-0.94098422 40:-0.94245634 
1.0 1:-0.36936937 2:-0.36936937 3:1.0 4:1.0 5:-0.59557207 6:-0.80831502 7:1.0 8:1.0 9:-0.62077331 10:-0.49170136 11:-0.33432675 12:-0.37510901 13:-0.55555556 14:-0.11111111 15:0.20000001 16:0.20000001 17:0.20000001 18:0.20000001 19:0.20000001 20:0.20000001 21:-1.0 22:-1.0 23:-0.33333333 24:-0.33333333 25:-0.61425925 26:-0.45120416 27:-0.82238545 28:-0.8588667 29:-0.60665611 30:-0.39723997 31:-0.76127581 32:-0.73738979 33:1.0 34:1.0 35:-0.83739837 36:-0.96747967 37:0.99969953 38:0.99968197 39:0.80948637 40:0.80953663 
1.0 1:0.09909909 2:0.09909909 3:0.2 4:0.2 5:-0.68526057 6:-0.08300007 7:1.0 8:1.0 9:-0.50952082 10:-0.88852647 11:0.10889348 12:0.1198494 13:-0.11111111 14:0.33333333 15:-0.14285715 16:-0.14285715 17:-0.14285715 18:-0.14285715 19:-0.14285715 20:-0.14285715 21:-1.0 22:-1.0 23:0.33333333 24:0.33333333 25:-0.48808566 26:-0.34974152 27:-0.56416152 28:-0.7069583 29:-0.70831821 30:-0.51691751 31:-0.49295375 32:-0.5117434 33:1.0 34:1.0 35:-0.99186992 36:-0.99186992 37:0.77257761 38:0.77246914 39:0.29553452 40:0.29599616 
1.0 1:-0.22747748 2:-0.22747748 3:-0.37142857 4:-0.37142857 5:0.25763029 6:-0.15799218 7:1.0 8:1.0 9:-0.07648383 10:-0.10767883 11:0.18416176 12:0.14656742 13:-0.33333333 14:-0.11111111 15:-0.24999999 16:-0.24999999 17:-0.24999999 18:-0.24999999 19:-0.24999999 20:-0.24999999 21:-1.0 22:-1.0 23:0.66666667 24:0.66666667 25:0.71983675 26:0.60884381 27:-0.85051464 28:-0.65993265 29:0.87168667 30:0.36330789 31:0.09693468 32:0.15177595 33:-0.97962224 34:-0.97962224 35:-0.95121951 36:-0.95121951 37:-0.98097773 38:-0.98115455 39:-0.97786886 40:-0.97727193 
1.0 1:-0.14864864 2:-0.14864864 3:0.3142857 4:0.3142857 5:0.10507855 6:-0.62565025 7:1.0 8:1.0 9:-0.45878623 10:-0.37783304 11:-0.26002415 12:-0.24501019 13:-0.11111111 14:0.11111111 15:-0.24999999 16:-0.24999999 17:-0.24999999 18:-0.24999999 19:-0.24999999 20:-0.24999999 21:-1.0 22:-1.0 23:0.66666667 24:0.66666667 25:-0.29431521 26:-0.30732812 27:-0.80901149 28:-0.7972071 29:-0.36423605 30:-0.20884648 31:-0.59244428 32:-0.59810459 33:1.0 34:1.0 35:-0.89430894 36:-0.85365854 37:0.68000695 38:0.66836172 39:0.13620594 40:0.19175596 
1.0 1:0.00900897 2:0.00900897 3:1.0 4:-0.80000001 5:-0.52189276 6:-0.52189276 7:1.0 8:1.0 9:-0.62560956 10:-0.08472499 11:-0.12736646 12:-0.12736646 13:-0.33333333 14:-0.33333333 15:0.20000001 16:0.20000001 17:0.20000001 18:0.20000001 19:0.20000001 20:0.20000001 21:-1.0 22:-1.0 23:-0.33333333 24:-0.33333333 25:-0.77959128 26:-0.71234631 27:-0.86171285 28:-0.92373802 29:-0.68850206 30:-0.58057066 31:-0.86808626 32:-0.87396925 33:1.0 34:1.0 35:-0.97560976 36:-0.48780488 37:0.95193526 38:0.94331721 39:0.96594739 40:1.0 
1.0 1:0.11411409 2:0.11411409 3:0.52 4:-0.92000001 5:-0.4578185 6:-0.4578185 7:1.0 8:1.0 9:-0.88852647 10:-0.08472499 11:0.25917281 12:0.25917281 13:-0.77777778 14:-0.77777778 15:3.0E-8 16:3.0E-8 17:3.0E-8 18:3.0E-8 19:3.0E-8 20:3.0E-8 21:-1.0 22:-1.0 25:-0.45469711 26:-0.55025923 27:-0.72543422 28:-0.65090798 29:-0.58095414 30:-0.72640844 31:-0.64322695 32:-0.64606156 33:-0.87902838 34:-0.87902838 35:-0.87804878 36:-0.96747967 37:-0.88725617 38:-0.88723626 39:-0.9056079 40:-0.90561987 
1.0 1:0.27927926 2:0.27927926 3:0.59999999 4:-0.60000001 5:-0.48362898 6:-0.48362898 7:1.0 8:1.0 9:-0.58466927 10:-0.80527035 11:0.15187275 12:0.15187275 13:0.33333333 14:0.33333333 15:-0.14285715 16:-0.14285715 17:-0.14285715 18:-0.14285715 19:-0.14285715 20:-0.14285715 21:-1.0 22:-1.0 23:0.33333333 24:0.33333333 25:0.12163178 26:-0.34827517 27:-0.89614116 28:-0.35791425 29:0.0101991 30:-0.75450537 31:-0.41007882 32:-0.37002049 33:1.0 34:1.0 35:-0.94308943 36:-0.95934959 37:0.74215904 38:0.74672689 39:0.43132331 40:0.41460682 
1.0 1:-0.55155158 2:-0.55155158 3:-0.50000001 4:-0.80000001 5:-0.30898716 6:-0.30898716 7:1.0 8:1.0 9:-0.53290437 10:-0.80608082 11:-0.59376657 12:-0.59376657 13:-0.77777778 14:-0.77777778 15:-0.33333333 16:-0.33333333 17:-0.33333333 18:-0.33333333 19:-0.33333333 20:-0.33333333 21:-1.0 22:-1.0 23:1.0 24:1.0 25:0.40965881 26:0.40965881 27:-0.69341121 28:0.10968271 29:0.04507774 30:-0.52105644 31:0.13702227 32:0.17862144 33:-0.99811714 34:-0.99811714 35:-0.91869919 36:-0.90243902 37:-0.99857164 38:-0.99857907 39:-0.99863061 40:-0.99860667 
1.0 1:-0.36936937 2:0.00900897 3:0.4 4:0.4 5:-0.70448085 6:-0.69023293 7:1.0 8:1.0 9:-0.79453999 10:-0.69490832 11:0.10222164 12:0.07867455 13:-0.11111111 14:-0.33333333 15:0.20000001 16:0.20000001 17:0.20000001 18:0.20000001 19:0.20000001 20:0.20000001 21:-1.0 22:-1.0 23:-0.33333333 24:-0.33333333 25:-0.6055035 26:-0.6055035 27:-0.73867476 28:-0.87403438 29:-0.67086362 30:-0.50444111 31:-0.68560204 32:-0.69848016 33:-0.9176071 34:-0.9176071 35:-0.62601626 36:-0.63414634 37:-0.92212208 38:-0.92211863 39:-0.90189769 40:-0.90190487 
1.0 1:-0.08108109 2:-0.35135137 3:-0.2 4:-0.2 5:0.24090083 6:0.21538841 7:1.0 8:1.0 9:-0.05364423 10:-0.24990922 11:0.06156157 12:0.06732534 13:-0.33333333 14:-0.33333333 15:-0.14285715 16:-0.14285715 17:-0.14285715 18:-0.14285715 19:-0.14285715 20:-0.14285715 21:-1.0 22:-1.0 23:0.33333333 24:0.33333333 25:0.58036066 26:0.58036066 27:-0.5492806 28:-0.43225357 29:0.26065082 30:0.36577176 31:0.19067238 32:0.15923239 33:-0.93583984 34:-0.93583984 35:-0.95121951 36:-0.95121951 37:-0.94383352 38:-0.94344476 39:-0.95529916 40:-0.95728421 
1.0 1:-0.41141143 2:0.07907905 3:0.4 4:0.4 5:-0.72078356 6:-0.74915568 7:1.0 8:1.0 9:-0.57313783 10:-0.76045037 11:-0.05694713 12:-0.03819414 13:-0.33333333 14:-0.11111111 15:-0.33333333 16:0.33333333 17:-0.33333333 18:-0.33333333 19:-0.33333333 20:-0.16666665 21:-1.0 22:0.53960064 23:1.0 24:1.0 25:0.12560005 26:-0.29053005 27:-0.89807124 28:-0.94103678 29:-0.025985 30:-0.14554812 31:-0.52828211 32:-0.5463408 33:1.0 34:1.0 35:-0.91869919 36:-0.98373984 37:0.6006187 38:0.59136457 39:0.0061439 40:0.05267321 
1.0 1:-0.74774777 2:-0.74774777 3:-0.2 4:-0.2 5:-0.30339209 6:-0.30339209 7:1.0 8:1.0 9:-0.77158398 10:-0.77158398 11:-0.60807596 12:-0.4078831 13:-0.77777778 14:-0.77777778 15:0.20000001 16:0.20000001 17:0.20000001 18:0.20000001 19:0.20000001 20:0.20000001 21:-1.0 22:-1.0 23:-0.33333333 24:-0.33333333 25:-0.0466992 26:0.03628419 27:-0.34171262 28:-0.34171262 29:-0.48522637 30:-0.39652227 31:-0.17969569 32:-0.13077675 33:-0.95818785 34:-0.95818785 35:-0.92682927 36:-0.94308943 37:-0.96049916 38:-0.96049215 39:-0.94899111 40:-0.94900547 
1.0 1:-0.74774777 2:-0.74774777 3:-0.2 4:-0.2 5:-0.37307027 6:-0.37307027 7:1.0 8:1.0 9:-1.0 10:-1.0 11:-0.64848513 12:-0.75200605 13:-0.55555556 14:-0.55555556 15:0.20000001 16:0.20000001 17:0.20000001 18:0.20000001 19:0.20000001 20:0.20000001 21:-1.0 22:-1.0 23:-0.33333333 24:-0.33333333 25:0.24389377 26:0.16015579 27:-0.4197531 28:-0.22026222 29:0.08165179 30:-0.19354194 31:-0.00369832 32:0.01559608 33:-0.4985958 34:-0.4985958 35:-0.78861789 36:-0.80487805 37:-0.50783426 38:-0.50350822 39:-0.51743069 40:-0.53174255 
1.0 1:0.38738737 2:0.38738737 3:0.4 4:0.4 5:-0.75052488 6:-0.80877635 7:1.0 8:1.0 9:-0.37956489 10:-0.23598443 11:0.1287039 12:-0.1632433 13:-0.77777778 14:-0.55555556 15:0.20000001 16:0.20000001 17:0.20000001 18:0.20000001 19:0.20000001 20:0.20000001 21:-1.0 22:-1.0 23:-0.33333333 24:-0.33333333 25:-0.81942519 26:-0.69658428 27:-0.66946955 28:-0.76867646 29:-0.94777903 30:-0.72948377 31:-0.81324955 32:-0.813604 33:-0.82831834 34:-0.82831834 35:-0.93495935 36:-0.86178862 37:-0.82922138 38:-0.82965404 39:-0.83928599 40:-0.83915673 
1.0 1:-0.11711714 2:-0.11711714 3:0.4 4:0.4 5:-0.83759157 6:-0.83251697 7:1.0 8:1.0 9:-0.41961075 10:-0.25284052 11:0.10068578 12:-0.16535844 13:-0.55555556 14:-0.77777778 15:0.20000001 16:0.20000001 17:0.20000001 18:0.20000001 19:0.20000001 20:0.20000001 21:-1.0 22:-1.0 23:-0.33333333 24:-0.33333333 25:0.09207394 26:0.3629792 27:-0.34341909 28:-0.78721889 29:-0.16811388 30:0.49485889 31:-0.09448307 32:-0.12924332 33:1.0 34:1.0 35:-0.91056911 36:-0.91056911 37:0.99863406 38:1.0 39:0.81202846 40:0.80812914 
1.0 1:-0.34134135 2:-0.27127128 3:0.7 4:0.7 5:0.03780443 6:-0.07114228 7:1.0 8:1.0 9:-0.47664909 10:-0.36047022 11:-0.61616625 12:-0.46253508 13:-0.11111111 14:-0.11111111 15:-0.33333333 16:-0.33333333 17:-0.33333333 18:-0.33333333 19:-0.33333333 20:-0.33333333 21:-1.0 22:-1.0 23:1.0 24:1.0 25:-0.05917756 26:-0.16671456 27:-0.92292606 28:-0.89962402 29:-0.00283898 30:-0.06665858 31:-0.58731379 32:-0.57019979 33:1.0 34:1.0 35:-0.95121951 36:-0.95121951 37:0.59562549 38:0.60083461 39:0.03066723 40:0.00498695 
1.0 1:-0.26126126 2:-0.26126126 3:1.0 4:1.0 5:-0.50843526 6:-0.58920559 7:1.0 8:1.0 9:-0.53458067 10:-0.61405006 11:-0.38980432 12:-0.42663573 13:-0.11111111 14:0.33333333 15:-0.14285715 16:-0.14285715 17:-0.14285715 18:-0.14285715 19:-0.14285715 20:-0.14285715 21:-1.0 22:-1.0 23:0.33333333 24:0.33333333 25:-0.09298984 26:-0.09298984 27:-0.80782538 28:-0.9032828 29:-0.07524423 30:0.20316541 31:-0.50885377 32:-0.52656546 33:1.0 34:1.0 35:-0.91056911 36:-0.91056911 37:0.77228198 38:0.77293439 39:0.29653474 40:0.29994062 
1.0 1:0.11411409 2:0.11411409 3:0.52 4:0.52 5:-0.18797741 6:-0.24601006 7:1.0 8:1.0 9:-0.59226596 10:-0.88852647 11:0.11595329 12:0.13556181 13:0.11111111 14:0.33333333 15:3.0E-8 16:3.0E-8 17:3.0E-8 18:3.0E-8 19:3.0E-8 20:3.0E-8 21:-1.0 22:-1.0 25:0.01511385 26:-0.18347889 27:-0.6858826 28:-0.77699038 29:-0.11612702 30:-0.27249417 31:-0.49709339 32:-0.47989582 33:1.0 34:1.0 35:-0.8699187 36:-0.80487805 37:0.87930509 38:0.87936819 39:0.50850522 40:0.50829577 
1.0 1:0.00900897 2:-0.06106105 3:0.1 4:0.1 5:-0.75910921 6:-0.77618722 7:1.0 8:1.0 9:-0.3711835 10:-0.74587135 11:-0.0208893 12:-0.05184706 13:-0.11111111 14:0.11111111 15:0.33333333 16:-0.33333333 17:-0.33333333 18:-0.33333333 19:-0.16666665 20:-0.33333333 21:0.53960064 22:-1.0 23:1.0 24:1.0 25:-0.29053005 26:-0.48691312 27:-0.94103678 28:-0.42449494 29:-0.13806528 30:-0.87338691 31:-0.52326105 32:-0.48712846 33:1.0 34:1.0 35:-0.98373984 36:-0.92682927 37:0.59138629 38:0.58543551 39:0.05258145 40:0.0992464 
1.0 1:-0.13113112 2:-0.13113112 3:0.4 4:0.4 5:-0.6554347 6:-0.67879338 7:1.0 8:1.0 9:-0.74567822 10:-0.40179578 11:0.05584021 12:0.07769628 13:-0.11111111 14:-0.11111111 15:-0.33333333 16:-0.33333333 17:-0.33333333 18:-0.33333333 19:-0.33333333 20:-0.33333333 21:-1.0 22:-1.0 23:1.0 24:1.0 25:0.22964192 26:0.30867373 27:-0.89195686 28:-0.89195686 29:0.10318337 30:0.21848703 31:-0.53551256 32:-0.56801569 33:1.0 34:1.0 35:-0.74796748 36:-0.8699187 37:0.59505475 38:0.59809549 39:0.03220717 40:0.01797271 
1.0 1:-0.27127128 2:-0.27127128 3:-0.80000001 4:-0.80000001 5:0.47627502 6:0.47627502 7:1.0 8:1.0 9:-0.31504622 10:-0.31504622 11:-0.24005564 12:-0.24005564 13:0.11111111 14:-0.11111111 15:-0.33333333 16:-0.33333333 17:-0.33333333 18:-0.33333333 19:-0.33333333 20:-0.33333333 21:-1.0 22:-1.0 23:1.0 24:1.0 25:0.01613351 26:-0.05102232 27:-0.34308026 28:-0.22604032 29:-0.31201785 30:-0.62234614 31:-0.15693749 32:-0.10126644 33:-0.99917377 34:-0.99859382 35:-0.94308943 36:-0.90243902 37:-0.99925688 38:-0.99883828 39:-0.99767713 40:-0.9976492 
1.0 1:0.13513514 2:0.13513514 3:1.0 4:1.0 5:-0.70925383 6:-0.70925383 7:1.0 8:1.0 9:-0.21775625 10:-0.26998112 11:-0.22733933 12:-0.22733933 13:-0.11111111 14:-0.11111111 15:0.20000001 16:0.20000001 17:0.20000001 18:0.20000001 19:0.20000001 20:0.20000001 21:-1.0 22:-1.0 23:-0.33333333 24:-0.33333333 25:-0.91829762 26:-0.07705479 27:-0.93530954 28:-0.83799483 29:-0.79790765 30:0.07882657 31:-0.99374482 32:-0.57328371 33:-0.78822221 34:-0.78822221 35:-0.84552846 36:0.07317073 37:-0.79221309 38:-0.79246252 39:-0.7959339 40:-0.79600571 
1.0 1:-0.35135137 2:-0.35135137 3:0.59999999 4:0.59999999 5:-0.21427984 6:-0.21427984 7:1.0 8:1.0 9:-0.71666919 10:-0.00335036 11:-0.51073032 12:-0.51073032 13:-0.55555556 14:-0.55555556 15:-0.14285715 16:-0.14285715 17:-0.14285715 18:-0.14285715 19:-0.14285715 20:-0.14285715 21:-1.0 22:-1.0 23:0.33333333 24:0.33333333 25:-0.22259564 26:-0.51442961 27:-0.8229523 28:-0.8229523 29:-0.24502368 30:-0.4167585 31:-0.51685469 32:-0.7716742 33:1.0 34:1.0 35:-0.94308943 36:-0.94308943 37:0.77355123 38:0.77358009 39:0.29170291 40:0.29173881 
1.0 1:0.00900897 2:0.00900897 3:0.4 4:0.4 5:-0.14598725 6:-0.19163699 7:1.0 8:1.0 9:-0.45603995 10:-0.38437596 11:0.02656844 12:-0.00226768 13:0.33333333 14:0.33333333 15:-0.33333333 16:-0.33333333 17:-0.33333333 18:-0.33333333 19:-0.33333333 20:-0.33333333 21:-1.0 22:-1.0 23:1.0 24:1.0 25:0.0781643 26:-0.50271948 27:-0.84504501 28:-0.89428674 29:0.15280404 30:-0.46918897 31:-0.40253115 32:-0.78301658 33:1.0 34:1.0 35:-0.96747967 36:-0.96747967 37:0.59654476 38:0.59707164 39:0.02585592 40:0.02275609 
1.0 1:0.14914912 2:0.07907905 3:-0.2 4:-0.2 5:-0.79806367 6:-0.78846502 7:1.0 8:1.0 9:-0.33051984 10:-0.58647385 11:0.25754311 12:0.25219113 13:0.77777778 14:0.55555556 15:-0.33333333 16:-0.33333333 17:-0.33333333 18:-0.33333333 19:-0.33333333 20:-0.33333333 21:-1.0 22:-1.0 23:1.0 24:1.0 25:0.33446367 26:0.01599569 27:-0.3436898 28:-0.91324039 29:0.01439454 30:-0.16551866 31:0.09673451 32:-0.50911085 33:1.0 34:1.0 35:-0.94308943 36:-0.94308943 37:0.56946684 38:0.57174921 39:0.18778493 40:0.18780488 
1.0 1:-0.62162166 2:-0.62162166 3:0.4 4:0.4 5:1.0 6:1.0 9:-0.00386893 10:0.09183768 11:-1.0 12:-1.0 13:-1.0 14:-1.0 15:-1.0 16:-1.0 17:-1.0 18:-1.0 19:-1.0 20:-1.0 21:-1.0 22:-1.0 23:-0.33333333 24:-0.33333333 25:-0.33675268 26:-1.0 27:-0.45612432 28:-0.83477021 29:-0.6380518 30:-0.97866535 31:-0.41263016 32:-1.0 33:-0.99922143 34:-0.99922143 35:-0.87804878 36:-0.67479675 37:-0.999374 38:-0.99951679 39:-0.99828193 40:-0.99828193 
1.0 1:0.00900897 2:0.00900897 3:-0.2 4:-0.2 5:-0.42869573 6:-0.40527449 7:1.0 8:-1.0 9:-0.43671087 10:0.29527011 11:0.14286485 12:0.16871407 13:-1.0 14:-1.0 15:-1.0 16:-1.0 17:-1.0 18:-1.0 19:-1.0 20:-1.0 21:-1.0 22:-1.0 23:-0.33333333 24:-1.0 25:0.87661797 26:0.6840748 27:0.42029202 28:1.0 29:-0.14665925 30:-1.0 31:0.90167952 32:1.0 33:-0.99885599 34:-0.99885599 35:-0.8699187 36:-0.66666667 37:-0.99848572 38:-0.99808325 39:-0.99544541 40:-0.99312114 
1.0 1:0.00900897 2:0.00900897 3:-0.2 4:-0.2 5:1.0 6:1.0 7:1.0 9:-0.1845319 10:-0.31504622 11:0.02557498 12:0.02557498 13:-0.11111111 14:-0.11111111 15:0.20000001 16:0.20000001 17:0.20000001 18:0.20000001 19:0.20000001 20:0.20000001 21:-1.0 22:-1.0 23:-0.33333333 24:-0.33333333 25:-0.23616675 26:-0.02120024 27:-0.3542964 28:-0.3542964 29:-0.55949118 30:-0.36285902 31:-0.27240694 32:-0.27998296 33:-0.9991976 34:-0.9991976 35:-0.78861789 36:-0.78861789 37:-0.9994275 38:-0.99942356 39:-0.99762127 40:-0.99765 
1.0 1:0.51351349 2:0.51351349 3:0.4 4:0.4 5:-0.41405746 6:-0.41405746 7:1.0 9:-0.49435066 10:-0.49435066 11:0.10609573 12:0.10609573 13:-1.0 14:-1.0 15:-1.0 16:-1.0 17:-1.0 18:-1.0 19:-1.0 20:-1.0 21:-1.0 22:-1.0 23:-0.33333333 24:-0.33333333 25:0.09977094 26:0.09977094 27:-0.43093811 28:-0.43093811 29:-0.12608612 30:-0.16000991 31:-0.08267837 32:-0.10070812 33:-0.99464538 34:-0.99464538 35:-0.7804878 36:-0.7804878 37:-0.99511892 38:-0.99511892 39:-0.99271661 40:-0.99271661 
1.0 1:0.00900897 2:0.00900897 3:1.0 4:1.0 5:-0.15583827 6:-0.15583827 7:1.0 8:1.0 9:-0.69243551 10:-0.30758545 11:0.17777454 12:0.15174022 13:-0.33333333 14:-0.33333333 15:0.20000001 16:0.20000001 17:0.20000001 18:0.20000001 19:0.20000001 20:0.20000001 21:-1.0 22:-1.0 23:-0.33333333 24:-0.33333333 25:-0.40315635 26:-0.61102404 27:-0.91732169 28:-0.74954401 29:-0.29250653 30:-0.57982342 31:-0.71985877 32:-0.7224868 33:-0.99405748 34:1.0 35:-0.86178862 36:-0.86178862 37:-0.99455047 38:0.99974711 39:-0.99296076 40:0.80945764 
1.0 1:-0.55155158 2:-0.55155158 3:-0.80000001 4:-0.80000001 5:-0.33208312 6:-0.30898716 7:1.0 8:1.0 9:-0.80608082 10:-0.80608082 11:-0.59376657 12:-0.59376657 13:-0.77777778 14:-0.77777778 15:-0.33333333 16:-0.33333333 17:-0.33333333 18:-0.33333333 19:-0.33333333 20:-0.33333333 21:-1.0 22:-1.0 23:1.0 24:1.0 25:0.32915645 26:0.40965881 27:0.20610313 28:0.10968271 29:-0.65892615 30:-0.46160658 31:0.29165378 32:0.26609886 33:-0.97126457 34:-0.99811714 35:-0.91869919 36:-0.91869919 37:-0.97710461 38:-0.99857164 39:-0.9851342 40:-0.99863061 
1.0 1:0.51351349 2:0.51351349 3:-0.2 4:-0.2 5:-0.59849973 6:0.13926938 7:1.0 8:1.0 9:-0.60840018 10:-0.60840018 11:0.12725403 12:0.08493739 13:-0.33333333 14:-0.11111111 15:0.20000001 16:0.20000001 17:0.20000001 18:0.20000001 19:0.20000001 20:0.20000001 21:-1.0 22:-1.0 23:-0.33333333 24:-0.33333333 25:0.16125765 26:-0.01914104 27:-0.67191405 28:-0.40117643 29:0.34177681 30:-0.18444435 31:-0.24518989 32:-0.19451463 33:-0.94169497 34:-0.94169497 35:-0.8699187 36:-0.5203252 37:-0.94297587 38:-0.94352691 39:-0.94245634 40:-0.94098422 
1.0 1:-0.36936937 2:-0.36936937 3:1.0 4:1.0 5:-0.80831502 6:-0.59557207 7:1.0 8:1.0 9:-0.49170136 10:-0.62077331 11:-0.37510901 12:-0.33432675 13:-0.11111111 14:-0.55555556 15:0.20000001 16:0.20000001 17:0.20000001 18:0.20000001 19:0.20000001 20:0.20000001 21:-1.0 22:-1.0 23:-0.33333333 24:-0.33333333 25:-0.45120416 26:-0.61425925 27:-0.8588667 28:-0.82238545 29:-0.39723997 30:-0.60665611 31:-0.73738979 32:-0.76127581 33:1.0 34:1.0 35:-0.96747967 36:-0.83739837 37:0.99968197 38:0.99969953 39:0.80953663 40:0.80948637 
1.0 1:-0.22747748 2:-0.22747748 3:-0.37142857 4:-0.37142857 5:-0.15799218 6:0.25763029 7:1.0 8:1.0 9:-0.10767883 10:-0.07648383 11:0.14656742 12:0.18416176 13:-0.11111111 14:-0.33333333 15:-0.24999999 16:-0.24999999 17:-0.24999999 18:-0.24999999 19:-0.24999999 20:-0.24999999 21:-1.0 22:-1.0 23:0.66666667 24:0.66666667 25:0.60884381 26:0.71983675 27:-0.65993265 28:-0.85051464 29:0.36330789 30:0.87168667 31:0.15177595 32:0.09693468 33:-0.97962224 34:-0.97962224 35:-0.95121951 36:-0.95121951 37:-0.98115455 38:-0.98097773 39:-0.97727193 40:-0.97786886 
1.0 1:-0.14864864 2:-0.14864864 3:0.3142857 4:0.3142857 5:-0.62565025 6:0.10507855 7:1.0 8:1.0 9:-0.37783304 10:-0.45878623 11:-0.24501019 12:-0.26002415 13:0.11111111 14:-0.11111111 15:-0.24999999 16:-0.24999999 17:-0.24999999 18:-0.24999999 19:-0.24999999 20:-0.24999999 21:-1.0 22:-1.0 23:0.66666667 24:0.66666667 25:-0.30732812 26:-0.29431521 27:-0.7972071 28:-0.80901149 29:-0.20884648 30:-0.36423605 31:-0.59810459 32:-0.59244428 33:1.0 34:1.0 35:-0.85365854 36:-0.89430894 37:0.66836172 38:0.68000695 39:0.19175596 40:0.13620594 
1.0 1:0.00900897 2:0.00900897 3:-0.80000001 4:1.0 5:-0.52189276 6:-0.52189276 7:1.0 8:1.0 9:-0.08472499 10:-0.62560956 11:-0.12736646 12:-0.12736646 13:-0.33333333 14:-0.33333333 15:0.20000001 16:0.20000001 17:0.20000001 18:0.20000001 19:0.20000001 20:0.20000001 21:-1.0 22:-1.0 23:-0.33333333 24:-0.33333333 25:-0.71234631 26:-0.77959128 27:-0.92373802 28:-0.86171285 29:-0.58057066 30:-0.68850206 31:-0.87396925 32:-0.86808626 33:1.0 34:1.0 35:-0.48780488 36:-0.97560976 37:0.94331721 38:0.95193526 39:1.0 40:0.96594739 
1.0 1:0.11411409 2:0.11411409 3:-0.92000001 4:0.52 5:-0.4578185 6:-0.4578185 7:1.0 8:1.0 9:-0.08472499 10:-0.88852647 11:0.25917281 12:0.25917281 13:-0.77777778 14:-0.77777778 15:3.0E-8 16:3.0E-8 17:3.0E-8 18:3.0E-8 19:3.0E-8 20:3.0E-8 21:-1.0 22:-1.0 25:-0.55025923 26:-0.45469711 27:-0.65090798 28:-0.72543422 29:-0.72640844 30:-0.58095414 31:-0.64606156 32:-0.64322695 33:-0.87902838 34:-0.87902838 35:-0.96747967 36:-0.87804878 37:-0.88723626 38:-0.88725617 39:-0.90561987 40:-0.9056079 
1.0 1:0.27927926 2:0.27927926 3:-0.60000001 4:0.59999999 5:-0.48362898 6:-0.48362898 7:1.0 8:1.0 9:-0.80527035 10:-0.58466927 11:0.15187275 12:0.15187275 13:0.33333333 14:0.33333333 15:-0.14285715 16:-0.14285715 17:-0.14285715 18:-0.14285715 19:-0.14285715 20:-0.14285715 21:-1.0 22:-1.0 23:0.33333333 24:0.33333333 25:-0.34827517 26:0.12163178 27:-0.35791425 28:-0.89614116 29:-0.75450537 30:0.0101991 31:-0.37002049 32:-0.41007882 33:1.0 34:1.0 35:-0.95934959 36:-0.94308943 37:0.74672689 38:0.74215904 39:0.41460682 40:0.43132331 
1.0 1:-0.55155158 2:-0.55155158 3:-0.80000001 4:-0.50000001 5:-0.30898716 6:-0.30898716 7:1.0 8:1.0 9:-0.80608082 10:-0.53290437 11:-0.59376657 12:-0.59376657 13:-0.77777778 14:-0.77777778 15:-0.33333333 16:-0.33333333 17:-0.33333333 18:-0.33333333 19:-0.33333333 20:-0.33333333 21:-1.0 22:-1.0 23:1.0 24:1.0 25:0.40965881 26:0.40965881 27:0.10968271 28:-0.69341121 29:-0.52105644 30:0.04507774 31:0.17862144 32:0.13702227 33:-0.99811714 34:-0.99811714 35:-0.90243902 36:-0.91869919 37:-0.99857907 38:-0.99857164 39:-0.99860667 40:-0.99863061 
1.0 1:-0.54279282 2:-0.54279282 3:-0.71428571 4:0.3142857 5:-0.2620285 6:-0.2620285 7:1.0 8:1.0 9:-1.0 10:-0.66645766 11:-0.62357492 12:-0.62357492 13:-0.55555556 14:-0.55555556 15:-0.24999999 16:-0.24999999 17:-0.24999999 18:-0.24999999 19:-0.24999999 20:-0.24999999 21:-1.0 22:-1.0 23:0.66666667 24:0.66666667 25:0.06122361 26:-0.01963136 27:-0.72323945 28:-0.65119866 29:-0.01498437 30:-0.34337988 31:-0.35177771 32:-0.33121864 33:-0.76700232 34:-0.76700232 35:-0.90243902 36:-0.96747967 37:-0.80434767 38:-0.8043031 39:-0.86716378 40:-0.86754078 
1.0 1:-0.49549549 2:-0.11711714 3:0.4 4:0.4 5:-0.00828445 6:-0.04078143 7:1.0 8:1.0 9:0.04786541 10:-0.14397683 11:0.0452882 12:0.03721891 13:-0.55555556 14:-0.55555556 15:0.20000001 16:0.20000001 17:0.20000001 18:0.20000001 19:0.20000001 20:0.20000001 21:-1.0 22:-1.0 23:-0.33333333 24:-0.33333333 25:0.48200996 26:0.48200996 27:-0.43225357 28:-0.87704926 29:0.36063359 30:0.55483039 31:-0.02849338 32:-0.06797237 33:-0.93583984 34:-0.93583984 35:-0.91869919 36:-0.91869919 37:-0.93648162 38:-0.93730454 39:-0.94015122 40:-0.93736496 
1.0 1:0.00900897 2:-0.36936937 3:0.4 4:0.4 5:-0.69023293 6:-0.70448085 7:1.0 8:1.0 9:-0.69490832 10:-0.79453999 11:0.07867455 12:0.10222164 13:-0.33333333 14:-0.11111111 15:0.20000001 16:0.20000001 17:0.20000001 18:0.20000001 19:0.20000001 20:0.20000001 21:-1.0 22:-1.0 23:-0.33333333 24:-0.33333333 25:-0.6055035 26:-0.6055035 27:-0.87403438 28:-0.73867476 29:-0.50444111 30:-0.67086362 31:-0.69848016 32:-0.68560204 33:-0.9176071 34:-0.9176071 35:-0.63414634 36:-0.62601626 37:-0.92211863 38:-0.92212208 39:-0.90190487 40:-0.90189769 
1.0 1:-0.06106105 2:-0.55155158 3:-0.2 4:-0.2 5:-0.53647189 6:-0.52742276 7:1.0 8:1.0 9:-0.65556168 10:-0.70062693 11:-0.42712065 12:-0.44819831 13:0.33333333 14:-0.33333333 15:0.33333333 16:-0.33333333 17:-0.33333333 18:-0.33333333 19:-0.22222221 20:-0.33333333 21:0.32507744 22:-1.0 23:1.0 24:1.0 25:-0.27591658 26:-0.11927057 27:-0.58649168 28:-0.4811192 29:-0.6129078 30:-0.50856139 31:-0.41367051 32:-0.41506757 33:1.0 34:1.0 35:-0.95934959 36:-0.99186992 37:0.60015331 38:0.60074946 39:0.00825034 40:0.00580479 
1.0 1:-0.35135137 2:-0.08108109 3:-0.2 4:-0.2 5:0.21538841 6:0.24090083 7:1.0 8:1.0 9:-0.24990922 10:-0.05364423 11:0.06732534 12:0.06156157 13:-0.33333333 14:-0.33333333 15:-0.14285715 16:-0.14285715 17:-0.14285715 18:-0.14285715 19:-0.14285715 20:-0.14285715 21:-1.0 22:-1.0 23:0.33333333 24:0.33333333 25:0.58036066 26:0.58036066 27:-0.43225357 28:-0.5492806 29:0.36577176 30:0.26065082 31:0.15923239 32:0.19067238 33:-0.93583984 34:-0.93583984 35:-0.95121951 36:-0.95121951 37:-0.94344476 38:-0.94383352 39:-0.95728421 40:-0.95529916 
1.0 1:0.07907905 2:-0.41141143 3:0.4 4:0.4 5:-0.74915568 6:-0.72078356 7:1.0 8:1.0 9:-0.76045037 10:-0.57313783 11:-0.03819414 12:-0.05694713 13:-0.11111111 14:-0.33333333 15:0.33333333 16:-0.33333333 17:-0.33333333 18:-0.33333333 19:-0.16666665 20:-0.33333333 21:0.53960064 22:-1.0 23:1.0 24:1.0 25:-0.29053005 26:0.12560005 27:-0.94103678 28:-0.89807124 29:-0.14554812 30:-0.025985 31:-0.5463408 32:-0.52828211 33:1.0 34:1.0 35:-0.98373984 36:-0.91869919 37:0.59136457 38:0.6006187 39:0.05267321 40:0.0061439 
1.0 1:-0.74774777 2:-0.74774777 3:-0.2 4:-0.2 5:-0.30339209 6:-0.30339209 7:1.0 8:1.0 9:-0.77158398 10:-0.77158398 11:-0.4078831 12:-0.60807596 13:-0.77777778 14:-0.77777778 15:0.20000001 16:0.20000001 17:0.20000001 18:0.20000001 19:0.20000001 20:0.20000001 21:-1.0 22:-1.0 23:-0.33333333 24:-0.33333333 25:0.03628419 26:-0.0466992 27:-0.34171262 28:-0.34171262 29:-0.39652227 30:-0.48522637 31:-0.13077675 32:-0.17969569 33:-0.95818785 34:-0.95818785 35:-0.94308943 36:-0.92682927 37:-0.96049215 38:-0.96049916 39:-0.94900547 40:-0.94899111 
1.0 1:-0.74774777 2:-0.74774777 3:-0.2 4:-0.2 5:-0.37307027 6:-0.37307027 7:1.0 8:1.0 9:-1.0 10:-1.0 11:-0.64848513 12:-0.75200605 13:-0.55555556 14:-0.55555556 15:0.20000001 16:0.20000001 17:0.20000001 18:0.20000001 19:0.20000001 20:0.20000001 21:-1.0 22:-1.0 23:-0.33333333 24:-0.33333333 25:0.24389377 26:0.16015579 27:-0.4197531 28:-0.22026222 29:0.08165179 30:-0.19354194 31:-0.00369832 32:0.01559608 33:-0.4985958 34:-0.4985958 35:-0.78861789 36:-0.80487805 37:-0.50783426 38:-0.50350822 39:-0.51743069 40:-0.53174255 
1.0 1:0.38738737 2:0.38738737 3:0.4 4:0.4 5:-0.75052488 6:-0.80877635 7:1.0 8:1.0 9:-0.37956489 10:-0.23598443 11:0.1287039 12:-0.1632433 13:-0.77777778 14:-0.55555556 15:0.20000001 16:0.20000001 17:0.20000001 18:0.20000001 19:0.20000001 20:0.20000001 21:-1.0 22:-1.0 23:-0.33333333 24:-0.33333333 25:-0.81942519 26:-0.69658428 27:-0.66946955 28:-0.76867646 29:-0.94777903 30:-0.72948377 31:-0.81324955 32:-0.813604 33:-0.82831834 34:-0.82831834 35:-0.93495935 36:-0.86178862 37:-0.82922138 38:-0.82965404 39:-0.83928599 40:-0.83915673 
1.0 1:-0.11711714 2:-0.11711714 3:0.4 4:0.4 5:-0.83759157 6:-0.83251697 7:1.0 8:1.0 9:-0.41961075 10:-0.25284052 11:0.10068578 12:-0.16535844 13:-0.55555556 14:-0.77777778 15:0.20000001 16:0.20000001 17:0.20000001 18:0.20000001 19:0.20000001 20:0.20000001 21:-1.0 22:-1.0 23:-0.33333333 24:-0.33333333 25:0.09207394 26:0.3629792 27:-0.34341909 28:-0.78721889 29:-0.16811388 30:0.49485889 31:-0.09448307 32:-0.12924332 33:1.0 34:1.0 35:-0.91056911 36:-0.91056911 37:0.99863406 38:1.0 39:0.81202846 40:0.80812914 
