svm_type c_svc
kernel_type rbf
gamma 0.025
nr_class 2
total_sv 1752
rho -3.612161477673868E-5
label 0 1
nr_sv 876 876
SV
1.0 1:0.06779659 2:0.06779659 3:0.54285714 4:0.54285714 5:0.33144799 6:0.33144799 8:1.0 9:-0.69320002 10:-0.58682293 11:0.32037437 12:0.32037437 13:-0.55555556 14:-0.55555556 15:-0.33333332 16:-0.33333332 17:3.0E-8 18:3.0E-8 19:3.0E-8 20:3.0E-8 21:-1.0 22:-1.0 25:-0.00752457 26:-0.00752457 27:-0.83116264 28:-0.83116264 29:-0.03677982 30:-0.07043428 31:-0.48974708 32:-0.46404414 33:-0.82561719 34:-0.82561719 35:-0.94308943 36:-0.94308943 37:-0.84596652 38:-0.84596652 39:-0.88928892 40:-0.88928892 
1.0 1:0.56214691 2:0.56214691 3:0.08571429 4:0.08571429 5:-0.13759961 6:-0.13759961 8:1.0 9:-0.27179043 10:-0.20321342 11:0.96064605 12:0.96064605 13:-0.33333333 14:-0.33333333 15:-0.33333332 16:-0.33333332 17:3.0E-8 18:3.0E-8 19:3.0E-8 20:3.0E-8 21:-1.0 22:-1.0 25:-0.35120656 26:-0.35120656 27:-0.87344702 28:-0.87401485 29:-0.41963059 30:-0.41911792 31:-0.54130324 32:-0.54142047 33:-0.99725913 34:-0.99725913 35:-0.98373984 36:-0.98373984 37:-0.99719659 38:-0.99719659 39:-0.99657149 40:-0.99657149 
1.0 1:-0.27118643 2:-0.27118643 3:0.23809525 4:0.23809525 5:-0.05642911 6:-0.05642911 7:1.0 8:1.0 9:-0.36953719 10:-0.36953719 11:-0.33478033 12:-0.33478033 13:-0.11111111 14:0.11111111 15:-0.42857144 16:-0.42857144 17:-0.14285715 18:-0.14285715 19:-0.14285715 20:-0.14285715 21:-1.0 22:-1.0 23:0.33333333 24:0.33333333 25:-0.0653894 26:0.08511141 27:-0.56570859 28:-0.41776372 29:-0.4682652 30:-0.37114915 31:-0.26175126 32:-0.26166186 33:-0.97835111 34:-0.96593378 35:-0.92682927 36:-0.8699187 37:-0.98236874 38:-0.9722188 39:-0.98647388 40:-0.97915617 
1.0 1:0.06779659 2:0.06779659 3:0.42857143 4:0.42857143 5:-0.09005814 6:-0.0773238 7:1.0 8:1.0 9:0.14035282 10:0.14035282 11:-0.00953921 12:-0.00953921 13:-0.55555556 14:-0.55555556 15:-0.2 16:-0.2 17:0.20000001 18:0.20000001 19:0.20000001 20:0.20000001 21:-1.0 22:-1.0 23:-0.33333333 24:-0.33333333 25:0.13017583 26:0.13017583 27:-0.58814622 28:-0.39609517 29:-0.10581796 30:-0.28742525 31:-0.08565151 32:-0.0697043 33:-0.99324713 34:-0.97502234 35:-0.97560976 36:-0.97560976 37:-0.9936418 38:-0.97661515 39:-0.99462556 40:-0.98048086 
1.0 1:0.75988698 2:0.75988698 3:-0.37142857 4:-0.37142857 5:0.12193805 6:0.11241763 7:1.0 8:1.0 9:-0.02440708 10:-0.02440708 11:0.89941001 12:0.89941001 13:-1.0 14:-1.0 15:-1.0 16:-1.0 17:-1.0 18:-1.0 19:-1.0 20:-1.0 21:-1.0 22:-1.0 25:1.0 26:1.0 27:0.3278948 28:0.3278948 29:0.01479268 30:-0.02624488 31:0.75438621 32:0.71156923 33:-0.99751336 34:-0.99751336 35:-1.0 36:-1.0 37:-0.99776869 38:-0.99787296 39:-0.99859388 40:-0.99767827 
1.0 1:-0.16949151 2:-0.16949151 3:1.0 4:1.0 5:0.04765449 6:0.04765449 7:1.0 8:1.0 9:-0.79891834 10:-0.79891834 11:-0.11939329 12:-0.11939329 13:-0.77777778 14:-0.77777778 15:-0.2 16:-0.2 17:0.20000001 18:0.20000001 19:0.20000001 20:0.20000001 21:-1.0 22:-1.0 23:-0.33333333 24:-0.33333333 25:0.25535802 26:0.25535802 27:-0.78513499 28:-0.66155339 29:0.38237695 30:0.21329916 31:0.08888744 32:0.08731898 33:-0.99991261 34:-0.99973783 35:-0.95934959 36:-0.95934959 37:-0.99986432 38:-0.99973336 39:-0.99996227 40:-0.99982945 
1.0 1:-0.52542373 2:-0.52542373 3:0.02040816 4:0.02040816 5:-0.02329388 6:-0.02329388 7:1.0 8:1.0 9:-0.71472621 10:-0.677734 11:-0.56583371 12:-0.56583371 13:-1.0 14:-1.0 15:-1.0 16:-1.0 17:-1.0 18:-1.0 19:-1.0 20:-1.0 21:-1.0 22:-1.0 23:0.66666667 24:0.66666667 25:0.25998012 26:0.20836655 27:-0.7238273 28:-0.55138826 29:0.31173015 30:0.01063161 31:-0.04766509 32:-0.09424263 33:-0.99957894 34:-0.99983316 35:-0.93495935 36:-0.93495935 37:-0.99967806 38:-0.99987516 39:-0.99968306 40:-0.99992076 
1.0 1:0.30508476 2:0.30508476 3:0.42857143 4:0.42857143 5:-0.73368725 6:-0.56632184 7:1.0 8:1.0 9:-0.48215279 10:-0.01474726 11:0.38658137 12:0.38230461 13:-0.77777778 14:-0.55555556 15:-0.2 16:-0.2 17:0.20000001 18:0.20000001 19:0.20000001 20:0.20000001 21:-1.0 22:-1.0 23:-0.33333333 24:-0.33333333 25:0.12680554 26:0.09199526 27:-0.67877377 28:-0.63677473 29:-0.00598043 30:-0.10989969 31:-0.2805533 32:-0.24622213 33:1.0 34:1.0 35:-0.96747967 36:-0.95121951 37:0.8804638 38:0.87983741 39:0.52407896 40:0.52427215 
1.0 1:0.49152541 2:0.56214691 3:0.61904761 4:0.54285714 5:-0.53981366 6:-0.12698768 7:1.0 8:1.0 9:-0.46594173 10:-0.5070406 11:0.10630649 12:0.04958691 13:-0.77777778 14:-1.0 15:-0.42857144 16:-1.0 17:-0.14285715 18:-1.0 19:-0.14285715 20:-1.0 21:-1.0 22:-1.0 23:0.33333333 25:0.14579558 26:0.23993258 27:-0.68446115 28:-0.84587905 29:-0.03993483 30:0.30526687 31:-0.1869872 32:-0.15895364 33:-0.99740213 34:-0.99740213 35:-0.93495935 36:-0.7804878 37:-0.99741809 38:-0.99767561 39:-0.99581399 40:-0.99635013 
1.0 1:1.0 2:1.0 3:-0.52380953 4:-0.52380953 5:-0.40849523 6:-0.13887177 7:1.0 8:1.0 9:-0.46635927 10:-0.46635927 11:0.49549309 12:0.46249134 13:-0.11111111 14:0.11111111 15:0.14285716 16:0.14285716 17:-0.14285715 18:-0.14285715 19:0.07142859 20:0.02857143 21:-0.07211558 22:-0.14285708 23:0.33333333 24:0.33333333 25:-0.53645506 26:-0.56259065 27:-0.78615242 28:-0.78615242 29:-0.63173221 30:-0.67596829 31:-0.63582507 32:-0.64855016 33:1.0 34:1.0 35:-0.97560976 36:-0.97560976 37:0.64631675 38:0.64631818 39:0.17863738 40:0.17863307 
1.0 1:0.06779659 2:0.06779659 3:-0.71428571 4:0.42857143 5:0.07903551 6:0.07903551 7:1.0 8:1.0 9:0.51424341 10:-0.12504201 11:0.07116099 12:0.07116099 13:-0.33333333 14:-0.55555556 15:-0.2 16:-0.2 17:0.20000001 18:0.20000001 19:0.20000001 20:0.20000001 21:-1.0 22:-1.0 23:-0.33333333 24:-0.33333333 25:-0.38337549 26:-0.13270675 27:-0.42180727 28:-0.75819014 29:-0.81905943 30:-0.16908892 31:-0.36422106 32:-0.39596098 33:-0.84610618 34:-0.84610618 35:-0.88617886 36:-0.96747967 37:-0.85625047 38:-0.85524961 39:-0.88048999 40:-0.88287461 
1.0 1:-0.52542373 2:-0.52542373 3:-0.71428571 4:1.0 5:-0.14608915 6:-0.14608915 7:1.0 8:1.0 9:0.06997563 10:-0.75191803 11:-0.72213359 12:-0.72213359 13:-1.0 14:-1.0 15:-1.0 16:-1.0 17:-1.0 18:-1.0 19:-1.0 20:-1.0 21:-1.0 22:-1.0 23:-0.33333333 24:-0.33333333 25:0.28949861 26:0.12394849 27:-0.43597268 28:-0.27743749 29:0.05085823 30:-0.34567689 31:0.02524692 32:0.03292619 33:-0.99852231 34:-0.99852231 35:-0.91869919 36:-0.98373984 37:-0.99732954 38:-0.99731994 39:-0.99429956 40:-0.99429352 
1.0 1:0.30508476 2:0.30508476 3:-0.14285714 4:1.0 5:-0.65855474 6:-0.65855474 7:1.0 8:1.0 9:-0.61237846 10:-0.56356242 11:0.13993612 12:0.11075786 13:-0.77777778 14:-0.77777778 15:-0.2 16:-0.2 17:0.20000001 18:0.20000001 19:0.20000001 20:0.20000001 21:-1.0 22:-1.0 23:-0.33333333 24:-0.33333333 25:0.21399346 26:0.07378942 27:-0.87030876 28:-0.93583831 29:0.48888221 30:0.25930772 31:-0.28571507 32:-0.32566788 33:-0.87902838 34:-0.87902838 35:-0.95121951 36:-0.89430894 37:-0.88656674 38:-0.88653676 39:-0.90692603 40:-0.9066121 
1.0 1:0.06779659 2:0.06779659 3:-0.9047619 4:-0.14285714 5:0.56339461 6:0.63325147 7:1.0 8:1.0 9:0.75143885 10:-0.22348095 11:0.02639141 12:0.02009244 13:0.33333333 14:0.11111111 15:-0.42857144 16:-0.2 17:-0.14285715 18:0.20000001 19:-0.14285715 20:0.20000001 21:-1.0 22:-1.0 23:0.33333333 24:-0.33333333 25:-0.14800144 26:-0.08809638 27:-0.40026031 28:-0.38995812 29:-0.60378315 30:-0.40208916 31:-0.18369648 32:-0.19520715 33:-0.9983237 34:-0.9983237 35:-0.93495935 36:-0.68292683 37:-0.99876028 38:-0.99886447 39:-0.99643493 40:-0.99591748 
1.0 1:0.00188327 2:0.00188327 3:-0.14285714 4:-0.42857143 5:-0.46156457 6:-0.46156457 7:1.0 8:1.0 9:-0.80618922 10:-0.59259833 11:0.16642718 12:0.16642718 13:-0.11111111 14:-0.11111111 15:-0.55555556 16:-0.55555556 17:-0.33333333 18:-0.33333333 19:-0.33333333 20:-0.33333333 21:-1.0 22:-1.0 23:1.0 24:1.0 25:0.19823214 26:0.19823214 27:-0.88389703 28:-0.76422972 29:0.27256455 30:0.21616572 31:-0.19134925 32:-0.17590831 33:1.0 34:1.0 35:-0.79674797 36:-0.79674797 37:0.50056056 38:0.50056056 39:-0.13368262 40:-0.13368262 
1.0 1:-0.28813557 2:0.06779659 3:0.42857143 4:0.42857143 5:-0.65609883 6:-0.69530234 7:1.0 8:1.0 9:-0.55371148 10:-0.80435334 11:-0.19217964 12:-0.18336243 13:-0.55555556 14:-0.55555556 15:-0.2 16:-0.2 17:0.20000001 18:0.20000001 19:0.20000001 20:0.20000001 21:-1.0 22:-1.0 23:-0.33333333 24:-0.33333333 25:-0.43926563 26:-0.45804296 27:-0.67375495 28:-0.71635373 29:-0.58953932 30:-0.57607626 31:-0.55380128 32:-0.57028412 33:1.0 34:1.0 35:-0.78861789 36:-0.94308943 37:0.8358482 38:0.83588939 39:0.65259467 40:0.6526007 
1.0 1:0.06779659 2:-0.28813557 3:-0.14285714 4:-0.14285714 5:-0.74332896 6:-0.75233394 7:1.0 8:1.0 9:-0.93001094 10:-0.93001094 11:-0.03249195 12:-0.024676 13:-0.11111111 14:-0.11111111 15:-0.2 16:-0.2 17:0.20000001 18:0.20000001 19:0.20000001 20:0.20000001 21:-1.0 22:-1.0 23:-0.33333333 24:-0.33333333 25:-0.14738474 26:-0.14738474 27:-0.60303206 28:-0.76125381 29:-0.33588452 30:-0.13082342 31:-0.4289424 32:-0.40622732 33:-0.37399353 34:-0.37399353 35:1.0 36:-0.93495935 37:-0.37869861 38:-0.37789137 39:-0.13380336 40:-0.13383355 
1.0 1:-0.16949151 2:0.1864407 3:0.42857143 4:0.42857143 5:-0.69966841 6:-0.77588417 7:1.0 8:1.0 9:-0.80435334 10:-0.43565347 11:-0.04282754 12:-0.03229524 13:-0.33333333 14:-0.33333333 15:-0.2 16:-0.2 17:0.20000001 18:0.20000001 19:0.20000001 20:0.20000001 21:-1.0 22:-1.0 23:-0.33333333 24:-0.33333333 25:-0.46605498 26:-0.5594869 27:-0.54856285 28:-0.61454061 29:-0.75361503 30:-0.7926914 31:-0.51022446 32:-0.52277187 33:1.0 34:1.0 35:-0.96747967 36:-0.85365854 37:0.86940014 38:0.85665489 39:0.55083496 40:0.5866223 
1.0 1:0.06779659 2:0.36440678 3:0.54285714 4:0.54285714 5:-0.62878067 6:-0.67255146 7:1.0 8:1.0 9:-0.11622718 10:-0.59300989 11:0.19853678 12:0.19396058 13:-0.11111111 14:-0.11111111 15:-0.33333332 16:-0.33333332 17:3.0E-8 18:3.0E-8 19:3.0E-8 20:3.0E-8 21:-1.0 22:-1.0 25:0.33046732 26:0.33046732 27:-0.98594622 28:-1.0 29:0.54480322 30:0.44962711 31:-0.46795522 32:-0.45965302 33:-0.48246837 34:-0.48246837 35:-0.91056911 36:-0.91869919 37:-0.54717925 38:-0.54717746 39:-0.65722153 40:-0.65722656 
1.0 1:-0.18644065 2:0.06779659 3:0.61904761 4:0.61904761 5:0.02582422 6:-0.18407555 7:1.0 8:1.0 9:-0.1003265 10:-0.4472693 11:0.08420017 12:0.11242913 13:-0.55555556 14:-0.33333333 15:-0.42857144 16:-0.42857144 17:-0.14285715 18:-0.14285715 19:-0.14285715 20:-0.14285715 21:-1.0 22:-1.0 23:0.33333333 24:0.33333333 25:0.159385 26:0.27691305 27:-0.83116264 28:-0.86076962 29:0.18343544 30:0.31662756 31:-0.22012098 32:-0.19069097 33:-0.99961072 34:-0.82561719 35:-0.97560976 36:-0.94308943 37:-0.94442775 38:-0.8549168 39:-0.90515115 40:-0.9041766 
1.0 1:-0.03107341 2:-0.03107341 3:0.08571429 4:0.08571429 5:-0.4876116 6:-0.4949931 7:1.0 8:1.0 9:-0.72739348 10:-0.47337658 11:-0.05890352 12:0.24808362 13:-0.11111111 14:-0.11111111 15:-0.33333332 16:-0.33333332 17:3.0E-8 18:3.0E-8 19:3.0E-8 20:3.0E-8 21:-1.0 22:-1.0 25:-0.0150355 26:-0.08349862 27:-0.78178299 28:-0.78854325 29:0.02792494 30:-0.19498475 31:-0.34505299 32:-0.31901202 33:1.0 34:1.0 35:-0.91869919 36:-0.91869919 37:0.76786989 38:0.76395297 39:0.26688254 40:0.27873519 
1.0 1:-0.27118643 2:-0.27118643 3:0.61904761 4:0.61904761 5:-0.20326367 6:-0.13361471 7:1.0 8:1.0 9:-0.31886217 10:-0.38718026 11:-0.34007729 12:0.06596825 13:0.11111111 14:0.11111111 15:-0.42857144 16:-0.42857144 17:-0.14285715 18:-0.14285715 19:-0.14285715 20:-0.14285715 21:-1.0 22:-1.0 23:0.33333333 24:0.33333333 25:-0.04580675 26:0.20205463 27:-0.65621231 28:-0.84419749 29:-0.09645704 30:0.1507729 31:-0.26560368 32:-0.27711867 33:-0.4985958 34:-0.4985958 35:-0.92682927 36:-0.94308943 37:-0.58317516 38:-0.58294302 39:-0.71853016 40:-0.71929772 
1.0 1:-0.37711864 2:-0.37711864 3:0.67346939 4:0.67346939 5:-0.22957693 6:-0.2635243 7:1.0 8:1.0 9:-0.52787459 10:-0.68294209 11:-0.67909446 12:-0.47646653 13:-0.33333333 14:-0.55555556 15:-0.5 16:-0.5 17:-0.24999999 18:-0.24999999 19:-0.24999999 20:-0.24999999 21:-1.0 22:-1.0 23:0.66666667 24:0.66666667 25:-0.23897414 26:-0.27116891 27:-0.85036985 28:-0.81351605 29:-0.21376019 30:-0.37818861 31:-0.49158672 32:-0.47231057 33:1.0 34:1.0 35:-0.98373984 36:-0.96747967 37:0.58108701 38:0.5812234 39:-0.04873068 40:-0.04913063 
1.0 1:0.29025424 2:0.29025424 3:0.02040816 4:0.02040816 5:-0.43417074 6:-0.4746477 7:1.0 8:1.0 9:-0.87229108 10:-0.96500547 11:0.30400381 12:0.04299297 13:-0.11111111 14:-0.33333333 15:-0.5 16:-0.5 17:-0.24999999 18:-0.24999999 19:-0.24999999 20:-0.24999999 21:-1.0 22:-1.0 23:0.66666667 24:0.66666667 25:-0.204989 26:-0.2494252 27:-0.89561647 28:-0.61761488 29:-0.27582156 30:-0.57157215 31:-0.37171622 32:-0.40661551 33:1.0 34:1.0 35:-0.91056911 36:-0.92682927 37:0.56139444 38:0.56274145 39:0.0403717 40:0.05124208 
1.0 1:-0.16949151 2:-0.16949151 3:0.42857143 4:0.42857143 5:-0.2893503 6:-0.2893503 7:1.0 8:1.0 9:-0.70948036 10:-0.43010484 11:-0.47528905 12:-0.47528905 13:-0.11111111 14:-0.11111111 15:-0.2 16:-0.2 17:0.20000001 18:0.20000001 19:0.20000001 20:0.20000001 21:-1.0 22:-1.0 23:-0.33333333 24:-0.33333333 25:-0.76296209 26:-0.76296209 27:-0.87728631 28:-0.88965642 29:-0.74289025 30:-0.77101676 31:-0.83932737 32:-0.83713807 33:1.0 34:1.0 35:-0.87804878 36:-0.83739837 37:0.83598003 38:0.83596688 39:0.65234715 40:0.65237733 
1.0 1:0.26553672 2:0.26553672 3:0.54285714 4:0.54285714 5:-0.44801392 6:-0.30951299 7:1.0 8:1.0 9:-0.31168731 10:-0.97690856 11:0.03318418 12:0.03318418 13:0.11111111 14:0.33333333 15:-0.33333332 16:-0.33333332 17:3.0E-8 18:3.0E-8 19:3.0E-8 20:3.0E-8 21:-1.0 22:-1.0 25:-0.5310659 26:-0.45804296 27:-0.93643301 28:-0.80655699 29:-0.54157425 30:-0.52105311 31:-0.69106532 32:-0.67303007 33:1.0 34:1.0 35:-0.86178862 36:-0.86178862 37:0.73786091 38:0.758465 39:0.3613415 40:0.29655944 
1.0 1:0.23728816 2:0.23728816 3:0.23809525 4:0.23809525 5:-0.58581314 6:-0.59906725 7:1.0 8:1.0 9:-0.36312445 10:-0.90728561 11:0.12584994 12:0.13419444 13:-0.55555556 14:-0.55555556 15:-0.42857144 16:-0.42857144 17:-0.14285715 18:-0.14285715 19:-0.14285715 20:-0.14285715 21:-1.0 22:-1.0 23:0.33333333 24:0.33333333 25:-0.22033429 26:-0.22033429 27:-0.92730564 28:-0.7360452 29:-0.21765669 30:-0.42866093 31:-0.44169277 32:-0.44859406 33:1.0 34:1.0 35:-0.97560976 36:-0.95934959 37:0.66817405 38:0.66822285 39:0.08574516 40:0.08571066 
1.0 1:0.06779659 2:0.06779659 3:0.61904761 4:0.61904761 5:-0.43819895 6:-0.43733266 7:1.0 8:1.0 9:-0.79560949 10:0.08847025 11:0.06805364 12:0.09484257 13:0.11111111 14:0.55555556 15:-0.42857144 16:-0.42857144 17:-0.14285715 18:-0.14285715 19:-0.14285715 20:-0.14285715 21:-1.0 22:-1.0 23:0.33333333 24:0.33333333 25:0.06362009 26:-0.02539038 27:-0.84002974 28:-0.91777417 29:0.00128381 30:0.21626788 31:-0.47731538 32:-0.46689514 33:-0.37399353 34:-0.37399353 35:-0.84552846 36:-0.88617886 37:-0.4873625 38:-0.48941697 39:-0.55549229 40:-0.54883434 
1.0 1:0.19962335 2:0.13370997 3:0.14285714 4:0.14285714 5:-0.13499714 6:-0.07726315 7:1.0 8:1.0 9:-0.3514025 10:-0.40437908 11:-0.03874624 12:-0.04882609 13:-0.11111111 14:0.11111111 15:-0.55555556 16:-0.55555556 17:-0.33333333 18:-0.33333333 19:-0.33333333 20:-0.33333333 21:-1.0 22:-1.0 23:1.0 24:1.0 25:-0.1246545 26:0.39465164 27:-0.82451543 28:-0.89337644 29:-0.15561032 30:0.2539879 31:-0.49644003 32:-0.48495919 33:1.0 34:1.0 35:-0.92682927 36:-0.99186992 37:0.50500471 38:0.50505989 39:-0.15245435 40:-0.15265893 
1.0 1:-0.16949151 2:-0.16949151 3:-0.14285714 4:-0.14285714 5:0.04765449 6:0.04765449 7:1.0 8:1.0 9:-0.48407611 10:-0.48407611 11:0.22173369 12:0.22173369 13:-0.33333333 14:-0.33333333 15:-0.2 16:-0.2 17:0.20000001 18:0.20000001 19:0.20000001 20:0.20000001 21:-1.0 22:-1.0 23:-0.33333333 24:-0.33333333 25:0.89230587 26:0.24530735 27:-0.85051464 28:-0.85051464 29:1.0 30:0.59307388 31:0.36165649 32:-0.27840228 33:-0.98538203 34:-0.98538203 35:-0.88617886 36:-0.76422764 37:-0.98698749 38:-0.98703337 39:-0.9861979 40:-0.98610735 
1.0 1:-0.42655367 2:-0.42655367 3:0.54285714 4:0.54285714 5:-0.23741245 6:-0.23741245 7:1.0 8:1.0 9:-0.72785494 10:-0.65122397 11:-0.43537761 12:-0.43537761 13:-0.11111111 14:-0.11111111 15:-0.33333332 16:-0.33333332 17:3.0E-8 18:3.0E-8 19:3.0E-8 20:3.0E-8 21:-1.0 22:-1.0 25:-0.23366973 26:0.31628962 27:-0.91947812 28:-0.91045353 29:-0.14033611 30:0.46416733 31:-0.76410007 32:-0.34740974 33:1.0 34:1.0 35:-0.90243902 36:-0.99186992 37:0.76656676 38:0.7656522 39:0.27079653 40:0.27355846 
1.0 1:0.06779659 2:0.06779659 3:0.61904761 4:0.61904761 5:-0.35871771 6:-0.35871771 7:1.0 8:1.0 9:-0.39147138 10:-0.29886977 11:0.04083425 12:0.04083425 13:-0.11111111 14:-0.11111111 15:-0.42857144 16:-0.42857144 17:-0.14285715 18:-0.14285715 19:-0.14285715 20:-0.14285715 21:-1.0 22:-1.0 23:0.33333333 24:0.33333333 25:0.16522684 26:-0.50963911 27:-0.7479326 28:-0.8413165 29:-0.02183053 30:-0.58410582 31:-0.42136097 32:-0.62846542 33:1.0 34:1.0 35:-0.94308943 36:-0.94308943 37:0.66213012 38:0.66212483 39:0.10704715 40:0.1070644 
1.0 1:0.00188327 2:0.00188327 3:-0.14285714 4:-0.14285714 5:-0.56670085 6:-0.55325906 7:1.0 8:1.0 9:-0.96500547 10:-0.59479885 11:-0.0397878 12:-0.05284104 13:-0.11111111 14:-0.11111111 15:-0.55555556 16:-0.55555556 17:-0.33333333 18:-0.33333333 19:-0.33333333 20:-0.33333333 21:-1.0 22:-1.0 23:1.0 24:1.0 25:-0.23761295 26:0.30351028 27:-0.86099626 28:-0.31935352 29:-0.32388408 30:-0.31543154 31:-0.46261003 32:-0.09741344 33:1.0 34:1.0 35:-0.90243902 36:-0.96747967 37:0.50116435 38:0.50546052 39:-0.13575197 40:-0.15420843 
1.0 1:-0.52542373 2:-0.52542373 3:-0.14285714 4:-0.14285714 5:1.0 6:1.0 8:1.0 9:-0.38640006 10:-0.38640006 11:-1.0 12:-1.0 13:-1.0 14:-1.0 15:-1.0 16:-1.0 17:-1.0 18:-1.0 19:-1.0 20:-1.0 21:-1.0 22:-1.0 23:-0.33333333 24:-0.33333333 25:-0.29560056 26:-0.29999567 27:-0.79158111 28:-0.7374336 29:-0.24214333 30:-0.29162166 31:-0.45401882 32:-0.44133018 33:-0.99922143 34:-0.99922143 35:-0.85365854 36:-0.73170732 37:-0.99940409 38:-0.99945062 39:-0.99893598 40:-0.99893598 
1.0 1:0.15254238 2:0.21610169 3:-0.52380953 4:-0.52380953 5:0.78169729 6:0.61797027 7:1.0 9:-0.34776154 10:0.75143885 11:0.72954568 12:0.72954568 13:-0.77777778 14:-0.77777778 15:-0.42857144 17:-0.14285715 18:0.50000002 19:-0.14285715 20:0.50000002 21:-1.0 22:-1.0 23:0.33333333 24:-0.66666667 25:0.26201752 26:0.25490372 27:-0.14632313 28:0.19462129 29:-0.40629295 30:-0.67783118 31:0.31960547 32:0.32469992 33:-0.99885599 34:-0.99890365 35:-0.78861789 36:-0.71544715 37:-0.99902626 38:-0.99919324 39:-0.9981986 40:-0.99801534 
1.0 1:0.06779659 2:0.06779659 3:0.54285714 4:0.54285714 5:0.33144799 6:0.33144799 8:1.0 9:-0.69320002 10:-0.58682293 11:0.32037437 12:0.32037437 13:-0.55555556 14:-0.55555556 15:-0.33333332 16:-0.33333332 17:3.0E-8 18:3.0E-8 19:3.0E-8 20:3.0E-8 21:-1.0 22:-1.0 25:-0.00752457 26:-0.00752457 27:-0.83116264 28:-0.83116264 29:-0.03677982 30:-0.07043428 31:-0.48974708 32:-0.46404414 33:-0.82561719 34:-0.82561719 35:-0.94308943 36:-0.94308943 37:-0.84596652 38:-0.84596652 39:-0.88928892 40:-0.88928892 
1.0 1:0.06779659 2:0.06779659 3:0.42857143 4:0.42857143 5:-0.0773238 6:-0.09005814 7:1.0 8:1.0 9:0.14035282 10:0.14035282 11:-0.00953921 12:-0.00953921 13:-0.55555556 14:-0.55555556 15:-0.2 16:-0.2 17:0.20000001 18:0.20000001 19:0.20000001 20:0.20000001 21:-1.0 22:-1.0 23:-0.33333333 24:-0.33333333 25:0.13017583 26:0.13017583 27:-0.39609517 28:-0.58814622 29:-0.28742525 30:-0.10581796 31:-0.0697043 32:-0.08565151 33:-0.97502234 34:-0.99324713 35:-0.97560976 36:-0.97560976 37:-0.97661515 38:-0.9936418 39:-0.98048086 40:-0.99462556 
1.0 1:0.54237287 2:0.54237287 3:0.42857143 4:0.42857143 5:-0.62089752 6:0.19773759 7:1.0 8:1.0 9:-0.48141596 10:-0.51851355 11:0.03486008 12:0.06358911 13:-0.55555556 14:-0.55555556 15:-0.2 16:-0.2 17:0.20000001 18:0.20000001 19:0.20000001 20:0.20000001 21:-1.0 22:-1.0 23:-0.33333333 24:-0.33333333 25:0.03193265 26:0.12373066 27:-0.61779336 28:-0.59971735 29:0.05190237 30:0.13659133 31:-0.19929828 32:-0.16301754 33:-0.97491906 34:-0.97410078 35:-0.88617886 36:-0.83739837 37:-0.97748962 38:-0.97680588 39:-0.97627307 40:-0.97548826 
1.0 1:0.30508476 2:0.30508476 3:0.42857143 4:0.42857143 5:-0.73368725 6:-0.56632184 7:1.0 8:1.0 9:-0.48215279 10:-0.01474726 11:0.38658137 12:0.38230461 13:-0.77777778 14:-0.55555556 15:-0.2 16:-0.2 17:0.20000001 18:0.20000001 19:0.20000001 20:0.20000001 21:-1.0 22:-1.0 23:-0.33333333 24:-0.33333333 25:0.12680554 26:0.09199526 27:-0.67877377 28:-0.63677473 29:-0.00598043 30:-0.10989969 31:-0.2805533 32:-0.24622213 33:1.0 34:1.0 35:-0.96747967 36:-0.95121951 37:0.8804638 38:0.87983741 39:0.52407896 40:0.52427215 
1.0 1:0.49152541 2:0.56214691 3:0.61904761 4:0.54285714 5:-0.53981366 6:-0.12698768 7:1.0 8:1.0 9:-0.46594173 10:-0.5070406 11:0.10630649 12:0.04958691 13:-0.77777778 14:-1.0 15:-0.42857144 16:-1.0 17:-0.14285715 18:-1.0 19:-0.14285715 20:-1.0 21:-1.0 22:-1.0 23:0.33333333 25:0.14579558 26:0.23993258 27:-0.68446115 28:-0.84587905 29:-0.03993483 30:0.30526687 31:-0.1869872 32:-0.15895364 33:-0.99740213 34:-0.99740213 35:-0.93495935 36:-0.7804878 37:-0.99741809 38:-0.99767561 39:-0.99581399 40:-0.99635013 
1.0 1:-0.42655367 2:-0.42655367 3:1.0 4:1.0 5:-0.54667459 6:-0.23741245 7:1.0 8:1.0 9:-0.13864293 10:-0.33705414 11:-0.45389083 12:-0.43537761 13:-0.11111111 14:-0.33333333 15:-0.33333332 16:-0.33333332 17:3.0E-8 18:3.0E-8 19:3.0E-8 20:3.0E-8 21:-1.0 22:-1.0 25:-0.12535312 26:-0.33550189 27:-0.91045353 28:-0.93207806 29:0.00891012 30:-0.11215639 31:-0.61091954 32:-0.63414771 33:1.0 34:1.0 35:-0.93495935 36:-0.87804878 37:0.76564025 38:0.76792459 39:0.27359367 40:0.26674168 
1.0 1:0.06779659 2:0.06779659 3:0.42857143 4:-0.71428571 5:0.07903551 6:0.07903551 7:1.0 8:1.0 9:-0.12504201 10:0.51424341 11:0.07116099 12:0.07116099 13:-0.55555556 14:-0.33333333 15:-0.2 16:-0.2 17:0.20000001 18:0.20000001 19:0.20000001 20:0.20000001 21:-1.0 22:-1.0 23:-0.33333333 24:-0.33333333 25:-0.13270675 26:-0.38337549 27:-0.75819014 28:-0.42180727 29:-0.16908892 30:-0.81905943 31:-0.39596098 32:-0.36422106 33:-0.84610618 34:-0.84610618 35:-0.96747967 36:-0.88617886 37:-0.85524961 38:-0.85625047 39:-0.88287461 40:-0.88048999 
1.0 1:-0.52542373 2:-0.52542373 3:1.0 4:-0.71428571 5:-0.14608915 6:-0.14608915 7:1.0 8:1.0 9:-0.75191803 10:0.06997563 11:-0.72213359 12:-0.72213359 13:-1.0 14:-1.0 15:-1.0 16:-1.0 17:-1.0 18:-1.0 19:-1.0 20:-1.0 21:-1.0 22:-1.0 23:-0.33333333 24:-0.33333333 25:0.12394849 26:0.28949861 27:-0.27743749 28:-0.43597268 29:-0.34567689 30:0.05085823 31:0.03292619 32:0.02524692 33:-0.99852231 34:-0.99852231 35:-0.98373984 36:-0.91869919 37:-0.99731994 38:-0.99732954 39:-0.99429352 40:-0.99429956 
1.0 1:0.30508476 2:0.30508476 3:-0.14285714 4:1.0 5:-0.65855474 6:-0.65855474 7:1.0 8:1.0 9:-0.61237846 10:-0.56356242 11:0.13993612 12:0.11075786 13:-0.77777778 14:-0.77777778 15:-0.2 16:-0.2 17:0.20000001 18:0.20000001 19:0.20000001 20:0.20000001 21:-1.0 22:-1.0 23:-0.33333333 24:-0.33333333 25:0.21399346 26:0.07378942 27:-0.87030876 28:-0.93583831 29:0.48888221 30:0.25930772 31:-0.28571507 32:-0.32566788 33:-0.87902838 34:-0.87902838 35:-0.95121951 36:-0.89430894 37:-0.88656674 38:-0.88653676 39:-0.90692603 40:-0.9066121 
1.0 1:0.06779659 2:0.06779659 3:-0.9047619 4:-0.14285714 5:0.56339461 6:0.63325147 7:1.0 8:1.0 9:0.75143885 10:-0.22348095 11:0.02639141 12:0.02009244 13:0.33333333 14:0.11111111 15:-0.42857144 16:-0.2 17:-0.14285715 18:0.20000001 19:-0.14285715 20:0.20000001 21:-1.0 22:-1.0 23:0.33333333 24:-0.33333333 25:-0.14800144 26:-0.08809638 27:-0.40026031 28:-0.38995812 29:-0.60378315 30:-0.40208916 31:-0.18369648 32:-0.19520715 33:-0.9983237 34:-0.9983237 35:-0.93495935 36:-0.68292683 37:-0.99876028 38:-0.99886447 39:-0.99643493 40:-0.99591748 
1.0 1:-0.28813557 2:0.06779659 3:0.42857143 4:0.42857143 5:-0.65609883 6:-0.69530234 7:1.0 8:1.0 9:-0.55371148 10:-0.80435334 11:-0.19217964 12:-0.18336243 13:-0.55555556 14:-0.55555556 15:-0.2 16:-0.2 17:0.20000001 18:0.20000001 19:0.20000001 20:0.20000001 21:-1.0 22:-1.0 23:-0.33333333 24:-0.33333333 25:-0.43926563 26:-0.45804296 27:-0.67375495 28:-0.71635373 29:-0.58953932 30:-0.57607626 31:-0.55380128 32:-0.57028412 33:1.0 34:1.0 35:-0.78861789 36:-0.94308943 37:0.8358482 38:0.83588939 39:0.65259467 40:0.6526007 
1.0 1:-0.28813557 2:0.06779659 3:-0.14285714 4:-0.14285714 5:-0.75233394 6:-0.74332896 7:1.0 8:1.0 9:-0.93001094 10:-0.93001094 11:-0.024676 12:-0.03249195 13:-0.11111111 14:-0.11111111 15:-0.2 16:-0.2 17:0.20000001 18:0.20000001 19:0.20000001 20:0.20000001 21:-1.0 22:-1.0 23:-0.33333333 24:-0.33333333 25:-0.14738474 26:-0.14738474 27:-0.76125381 28:-0.60303206 29:-0.13082342 30:-0.33588452 31:-0.40622732 32:-0.4289424 33:-0.37399353 34:-0.37399353 35:-0.93495935 36:1.0 37:-0.37789137 38:-0.37869861 39:-0.13383355 40:-0.13380336 
1.0 1:-0.16949151 2:0.1864407 3:0.42857143 4:0.42857143 5:-0.69966841 6:-0.77588417 7:1.0 8:1.0 9:-0.80435334 10:-0.43565347 11:-0.04282754 12:-0.03229524 13:-0.33333333 14:-0.33333333 15:-0.2 16:-0.2 17:0.20000001 18:0.20000001 19:0.20000001 20:0.20000001 21:-1.0 22:-1.0 23:-0.33333333 24:-0.33333333 25:-0.46605498 26:-0.5594869 27:-0.54856285 28:-0.61454061 29:-0.75361503 30:-0.7926914 31:-0.51022446 32:-0.52277187 33:1.0 34:1.0 35:-0.96747967 36:-0.85365854 37:0.86940014 38:0.85665489 39:0.55083496 40:0.5866223 
1.0 1:0.36440678 2:0.06779659 3:0.54285714 4:0.54285714 5:-0.67255146 6:-0.62878067 7:1.0 8:1.0 9:-0.59300989 10:-0.11622718 11:0.19396058 12:0.19853678 13:-0.11111111 14:-0.11111111 15:-0.33333332 16:-0.33333332 17:3.0E-8 18:3.0E-8 19:3.0E-8 20:3.0E-8 21:-1.0 22:-1.0 25:0.33046732 26:0.33046732 27:-1.0 28:-0.98594622 29:0.44962711 30:0.54480322 31:-0.45965302 32:-0.46795522 33:-0.48246837 34:-0.48246837 35:-0.91869919 36:-0.91056911 37:-0.54717746 38:-0.54717925 39:-0.65722656 40:-0.65722153 
1.0 1:-0.18644065 2:0.06779659 3:0.61904761 4:0.61904761 5:0.02582422 6:-0.18407555 7:1.0 8:1.0 9:-0.1003265 10:-0.4472693 11:0.08420017 12:0.11242913 13:-0.55555556 14:-0.33333333 15:-0.42857144 16:-0.42857144 17:-0.14285715 18:-0.14285715 19:-0.14285715 20:-0.14285715 21:-1.0 22:-1.0 23:0.33333333 24:0.33333333 25:0.159385 26:0.27691305 27:-0.83116264 28:-0.86076962 29:0.18343544 30:0.31662756 31:-0.22012098 32:-0.19069097 33:-0.99961072 34:-0.82561719 35:-0.97560976 36:-0.94308943 37:-0.94442775 38:-0.8549168 39:-0.90515115 40:-0.9041766 
1.0 1:-0.03107341 2:-0.03107341 3:0.08571429 4:0.08571429 5:-0.4949931 6:-0.4876116 7:1.0 8:1.0 9:-0.47337658 10:-0.72739348 11:0.24808362 12:-0.05890352 13:-0.11111111 14:-0.11111111 15:-0.33333332 16:-0.33333332 17:3.0E-8 18:3.0E-8 19:3.0E-8 20:3.0E-8 21:-1.0 22:-1.0 25:-0.08349862 26:-0.0150355 27:-0.78854325 28:-0.78178299 29:-0.19498475 30:0.02792494 31:-0.31901202 32:-0.34505299 33:1.0 34:1.0 35:-0.91869919 36:-0.91869919 37:0.76395297 38:0.76786989 39:0.27873519 40:0.26688254 
1.0 1:-0.27118643 2:-0.27118643 3:0.61904761 4:0.61904761 5:-0.20326367 6:-0.13361471 7:1.0 8:1.0 9:-0.31886217 10:-0.38718026 11:-0.34007729 12:0.06596825 13:0.11111111 14:0.11111111 15:-0.42857144 16:-0.42857144 17:-0.14285715 18:-0.14285715 19:-0.14285715 20:-0.14285715 21:-1.0 22:-1.0 23:0.33333333 24:0.33333333 25:-0.04580675 26:0.20205463 27:-0.65621231 28:-0.84419749 29:-0.09645704 30:0.1507729 31:-0.26560368 32:-0.27711867 33:-0.4985958 34:-0.4985958 35:-0.92682927 36:-0.94308943 37:-0.58317516 38:-0.58294302 39:-0.71853016 40:-0.71929772 
1.0 1:-0.37711864 2:-0.37711864 3:0.67346939 4:0.67346939 5:-0.2635243 6:-0.22957693 7:1.0 8:1.0 9:-0.68294209 10:-0.52787459 11:-0.47646653 12:-0.67909446 13:-0.55555556 14:-0.33333333 15:-0.5 16:-0.5 17:-0.24999999 18:-0.24999999 19:-0.24999999 20:-0.24999999 21:-1.0 22:-1.0 23:0.66666667 24:0.66666667 25:-0.27116891 26:-0.23897414 27:-0.81351605 28:-0.85036985 29:-0.37818861 30:-0.21376019 31:-0.47231057 32:-0.49158672 33:1.0 34:1.0 35:-0.96747967 36:-0.98373984 37:0.5812234 38:0.58108701 39:-0.04913063 40:-0.04873068 
1.0 1:0.29025424 2:0.29025424 3:0.02040816 4:0.02040816 5:-0.4746477 6:-0.43417074 7:1.0 8:1.0 9:-0.96500547 10:-0.87229108 11:0.04299297 12:0.30400381 13:-0.33333333 14:-0.11111111 15:-0.5 16:-0.5 17:-0.24999999 18:-0.24999999 19:-0.24999999 20:-0.24999999 21:-1.0 22:-1.0 23:0.66666667 24:0.66666667 25:-0.2494252 26:-0.204989 27:-0.61761488 28:-0.89561647 29:-0.57157215 30:-0.27582156 31:-0.40661551 32:-0.37171622 33:1.0 34:1.0 35:-0.92682927 36:-0.91056911 37:0.56274145 38:0.56139444 39:0.05124208 40:0.0403717 
1.0 1:-0.16949151 2:-0.16949151 3:0.42857143 4:0.42857143 5:-0.2893503 6:-0.2893503 7:1.0 8:1.0 9:-0.70948036 10:-0.43010484 11:-0.47528905 12:-0.47528905 13:-0.11111111 14:-0.11111111 15:-0.2 16:-0.2 17:0.20000001 18:0.20000001 19:0.20000001 20:0.20000001 21:-1.0 22:-1.0 23:-0.33333333 24:-0.33333333 25:-0.76296209 26:-0.76296209 27:-0.87728631 28:-0.88965642 29:-0.74289025 30:-0.77101676 31:-0.83932737 32:-0.83713807 33:1.0 34:1.0 35:-0.87804878 36:-0.83739837 37:0.83598003 38:0.83596688 39:0.65234715 40:0.65237733 
1.0 1:0.26553672 2:0.26553672 3:0.54285714 4:0.54285714 5:-0.44801392 6:-0.30951299 7:1.0 8:1.0 9:-0.31168731 10:-0.97690856 11:0.03318418 12:0.03318418 13:0.11111111 14:0.33333333 15:-0.33333332 16:-0.33333332 17:3.0E-8 18:3.0E-8 19:3.0E-8 20:3.0E-8 21:-1.0 22:-1.0 25:-0.5310659 26:-0.45804296 27:-0.93643301 28:-0.80655699 29:-0.54157425 30:-0.52105311 31:-0.69106532 32:-0.67303007 33:1.0 34:1.0 35:-0.86178862 36:-0.86178862 37:0.73786091 38:0.758465 39:0.3613415 40:0.29655944 
1.0 1:0.23728816 2:0.23728816 3:0.23809525 4:0.23809525 5:-0.59906725 6:-0.58581314 7:1.0 8:1.0 9:-0.90728561 10:-0.36312445 11:0.13419444 12:0.12584994 13:-0.55555556 14:-0.55555556 15:-0.42857144 16:-0.42857144 17:-0.14285715 18:-0.14285715 19:-0.14285715 20:-0.14285715 21:-1.0 22:-1.0 23:0.33333333 24:0.33333333 25:-0.22033429 26:-0.22033429 27:-0.7360452 28:-0.92730564 29:-0.42866093 30:-0.21765669 31:-0.44859406 32:-0.44169277 33:1.0 34:1.0 35:-0.95934959 36:-0.97560976 37:0.66822285 38:0.66817405 39:0.08571066 40:0.08574516 
1.0 1:0.06779659 2:0.06779659 3:0.61904761 4:0.61904761 5:-0.43733266 6:-0.43819895 7:1.0 8:1.0 9:0.08847025 10:-0.79560949 11:0.09484257 12:0.06805364 13:0.55555556 14:0.11111111 15:-0.42857144 16:-0.42857144 17:-0.14285715 18:-0.14285715 19:-0.14285715 20:-0.14285715 21:-1.0 22:-1.0 23:0.33333333 24:0.33333333 25:-0.02539038 26:0.06362009 27:-0.91777417 28:-0.84002974 29:0.21626788 30:0.00128381 31:-0.46689514 32:-0.47731538 33:-0.37399353 34:-0.37399353 35:-0.88617886 36:-0.84552846 37:-0.48941697 38:-0.4873625 39:-0.54883434 40:-0.55549229 
1.0 1:0.19962335 2:0.13370997 3:0.14285714 4:0.14285714 5:-0.13499714 6:-0.07726315 7:1.0 8:1.0 9:-0.3514025 10:-0.40437908 11:-0.03874624 12:-0.04882609 13:-0.11111111 14:0.11111111 15:-0.55555556 16:-0.55555556 17:-0.33333333 18:-0.33333333 19:-0.33333333 20:-0.33333333 21:-1.0 22:-1.0 23:1.0 24:1.0 25:-0.1246545 26:0.39465164 27:-0.82451543 28:-0.89337644 29:-0.15561032 30:0.2539879 31:-0.49644003 32:-0.48495919 33:1.0 34:1.0 35:-0.92682927 36:-0.99186992 37:0.50500471 38:0.50505989 39:-0.15245435 40:-0.15265893 
1.0 1:0.06779659 2:0.06779659 3:0.61904761 4:0.61904761 5:0.05627397 6:0.05627397 7:1.0 8:1.0 9:-0.64682541 10:-0.15288077 11:-0.07383354 12:-0.08140468 13:0.11111111 14:-0.11111111 15:-0.42857144 16:-0.42857144 17:-0.14285715 18:-0.14285715 19:-0.14285715 20:-0.14285715 21:-1.0 22:-1.0 23:0.33333333 24:0.33333333 25:-0.53458472 26:0.02276144 27:-0.91805472 28:-0.85229901 29:-0.52367471 30:0.11628841 31:-0.83305756 32:-0.36468756 33:1.0 34:1.0 35:-0.98373984 36:-0.90243902 37:0.6679463 38:0.66796318 39:0.08681457 40:0.08639198 
1.0 1:0.00188327 2:0.00188327 3:-0.14285714 4:-0.14285714 5:-0.56670085 6:-0.55325906 7:1.0 8:1.0 9:-0.96500547 10:-0.59479885 11:-0.0397878 12:-0.05284104 13:-0.11111111 14:-0.11111111 15:-0.55555556 16:-0.55555556 17:-0.33333333 18:-0.33333333 19:-0.33333333 20:-0.33333333 21:-1.0 22:-1.0 23:1.0 24:1.0 25:-0.23761295 26:0.30351028 27:-0.86099626 28:-0.31935352 29:-0.32388408 30:-0.31543154 31:-0.46261003 32:-0.09741344 33:1.0 34:1.0 35:-0.90243902 36:-0.96747967 37:0.50116435 38:0.50546052 39:-0.13575197 40:-0.15420843 
1.0 1:0.21610169 2:0.15254238 3:-0.52380953 4:-0.52380953 5:0.61797027 6:0.78169729 8:1.0 9:0.75143885 10:-0.34776154 11:0.72954568 12:0.72954568 13:-0.77777778 14:-0.77777778 16:-0.42857144 17:0.50000002 18:-0.14285715 19:0.50000002 20:-0.14285715 21:-1.0 22:-1.0 23:-0.66666667 24:0.33333333 25:0.25490372 26:0.26201752 27:0.19462129 28:-0.14632313 29:-0.67783118 30:-0.40629295 31:0.32469992 32:0.31960547 33:-0.99890365 34:-0.99885599 35:-0.71544715 36:-0.78861789 37:-0.99919324 38:-0.99902626 39:-0.99801534 40:-0.9981986 
1.0 1:0.06779659 2:0.06779659 3:0.54285714 4:0.54285714 5:0.33144799 6:0.33144799 7:1.0 9:-0.58682293 10:-0.69320002 11:0.32037437 12:0.32037437 13:-0.55555556 14:-0.55555556 15:-0.33333332 16:-0.33333332 17:3.0E-8 18:3.0E-8 19:3.0E-8 20:3.0E-8 21:-1.0 22:-1.0 25:-0.00752457 26:-0.00752457 27:-0.83116264 28:-0.83116264 29:-0.07043428 30:-0.03677982 31:-0.46404414 32:-0.48974708 33:-0.82561719 34:-0.82561719 35:-0.94308943 36:-0.94308943 37:-0.84596652 38:-0.84596652 39:-0.88928892 40:-0.88928892 
1.0 1:0.56214691 2:0.56214691 3:0.08571429 4:0.08571429 5:-0.13759961 6:-0.13759961 7:1.0 9:-0.20321342 10:-0.27179043 11:0.96064605 12:0.96064605 13:-0.33333333 14:-0.33333333 15:-0.33333332 16:-0.33333332 17:3.0E-8 18:3.0E-8 19:3.0E-8 20:3.0E-8 21:-1.0 22:-1.0 25:-0.35120656 26:-0.35120656 27:-0.87401485 28:-0.87344702 29:-0.41911792 30:-0.41963059 31:-0.54142047 32:-0.54130324 33:-0.99725913 34:-0.99725913 35:-0.98373984 36:-0.98373984 37:-0.99719659 38:-0.99719659 39:-0.99657149 40:-0.99657149 
1.0 1:-0.16949151 2:-0.16949151 3:1.0 4:1.0 5:0.04765449 6:0.04765449 7:1.0 8:1.0 9:-0.79891834 10:-0.79891834 11:-0.11939329 12:-0.11939329 13:-0.77777778 14:-0.77777778 15:-0.2 16:-0.2 17:0.20000001 18:0.20000001 19:0.20000001 20:0.20000001 21:-1.0 22:-1.0 23:-0.33333333 24:-0.33333333 25:0.25535802 26:0.25535802 27:-0.66155339 28:-0.78513499 29:0.21329916 30:0.38237695 31:0.08731898 32:0.08888744 33:-0.99973783 34:-0.99991261 35:-0.95934959 36:-0.95934959 37:-0.99973336 38:-0.99986432 39:-0.99982945 40:-0.99996227 
1.0 1:0.54237287 2:0.54237287 3:0.42857143 4:0.42857143 5:-0.62089752 6:0.19773759 7:1.0 8:1.0 9:-0.48141596 10:-0.51851355 11:0.03486008 12:0.06358911 13:-0.55555556 14:-0.55555556 15:-0.2 16:-0.2 17:0.20000001 18:0.20000001 19:0.20000001 20:0.20000001 21:-1.0 22:-1.0 23:-0.33333333 24:-0.33333333 25:0.03193265 26:0.12373066 27:-0.61779336 28:-0.59971735 29:0.05190237 30:0.13659133 31:-0.19929828 32:-0.16301754 33:-0.97491906 34:-0.97410078 35:-0.88617886 36:-0.83739837 37:-0.97748962 38:-0.97680588 39:-0.97627307 40:-0.97548826 
1.0 1:0.30508476 2:0.30508476 3:0.42857143 4:0.42857143 5:-0.73368725 6:-0.56632184 7:1.0 8:1.0 9:-0.48215279 10:-0.01474726 11:0.38658137 12:0.38230461 13:-0.77777778 14:-0.55555556 15:-0.2 16:-0.2 17:0.20000001 18:0.20000001 19:0.20000001 20:0.20000001 21:-1.0 22:-1.0 23:-0.33333333 24:-0.33333333 25:0.12680554 26:0.09199526 27:-0.67877377 28:-0.63677473 29:-0.00598043 30:-0.10989969 31:-0.2805533 32:-0.24622213 33:1.0 34:1.0 35:-0.96747967 36:-0.95121951 37:0.8804638 38:0.87983741 39:0.52407896 40:0.52427215 
1.0 1:0.49152541 2:0.56214691 3:0.61904761 4:0.54285714 5:-0.53981366 6:-0.12698768 7:1.0 8:1.0 9:-0.46594173 10:-0.5070406 11:0.10630649 12:0.04958691 13:-0.77777778 14:-1.0 15:-0.42857144 16:-1.0 17:-0.14285715 18:-1.0 19:-0.14285715 20:-1.0 21:-1.0 22:-1.0 23:0.33333333 25:0.14579558 26:0.23993258 27:-0.68446115 28:-0.84587905 29:-0.03993483 30:0.30526687 31:-0.1869872 32:-0.15895364 33:-0.99740213 34:-0.99740213 35:-0.93495935 36:-0.7804878 37:-0.99741809 38:-0.99767561 39:-0.99581399 40:-0.99635013 
1.0 1:-0.42655367 2:-0.42655367 3:1.0 4:1.0 5:-0.54667459 6:-0.23741245 7:1.0 8:1.0 9:-0.13864293 10:-0.33705414 11:-0.45389083 12:-0.43537761 13:-0.11111111 14:-0.33333333 15:-0.33333332 16:-0.33333332 17:3.0E-8 18:3.0E-8 19:3.0E-8 20:3.0E-8 21:-1.0 22:-1.0 25:-0.12535312 26:-0.33550189 27:-0.91045353 28:-0.93207806 29:0.00891012 30:-0.11215639 31:-0.61091954 32:-0.63414771 33:1.0 34:1.0 35:-0.93495935 36:-0.87804878 37:0.76564025 38:0.76792459 39:0.27359367 40:0.26674168 
1.0 1:1.0 2:1.0 3:-0.52380953 4:-0.52380953 5:-0.40849523 6:-0.13887177 7:1.0 8:1.0 9:-0.46635927 10:-0.46635927 11:0.49549309 12:0.46249134 13:-0.11111111 14:0.11111111 15:0.14285716 16:0.14285716 17:-0.14285715 18:-0.14285715 19:0.07142859 20:0.02857143 21:-0.07211558 22:-0.14285708 23:0.33333333 24:0.33333333 25:-0.53645506 26:-0.56259065 27:-0.78615242 28:-0.78615242 29:-0.63173221 30:-0.67596829 31:-0.63582507 32:-0.64855016 33:1.0 34:1.0 35:-0.97560976 36:-0.97560976 37:0.64631675 38:0.64631818 39:0.17863738 40:0.17863307 
1.0 1:0.06779659 2:0.06779659 3:-0.71428571 4:0.42857143 5:0.07903551 6:0.07903551 7:1.0 8:1.0 9:0.51424341 10:-0.12504201 11:0.07116099 12:0.07116099 13:-0.33333333 14:-0.55555556 15:-0.2 16:-0.2 17:0.20000001 18:0.20000001 19:0.20000001 20:0.20000001 21:-1.0 22:-1.0 23:-0.33333333 24:-0.33333333 25:-0.38337549 26:-0.13270675 27:-0.42180727 28:-0.75819014 29:-0.81905943 30:-0.16908892 31:-0.36422106 32:-0.39596098 33:-0.84610618 34:-0.84610618 35:-0.88617886 36:-0.96747967 37:-0.85625047 38:-0.85524961 39:-0.88048999 40:-0.88287461 
1.0 1:-0.52542373 2:-0.52542373 3:-0.71428571 4:1.0 5:-0.14608915 6:-0.14608915 7:1.0 8:1.0 9:0.06997563 10:-0.75191803 11:-0.72213359 12:-0.72213359 13:-1.0 14:-1.0 15:-1.0 16:-1.0 17:-1.0 18:-1.0 19:-1.0 20:-1.0 21:-1.0 22:-1.0 23:-0.33333333 24:-0.33333333 25:0.28949861 26:0.12394849 27:-0.43597268 28:-0.27743749 29:0.05085823 30:-0.34567689 31:0.02524692 32:0.03292619 33:-0.99852231 34:-0.99852231 35:-0.91869919 36:-0.98373984 37:-0.99732954 38:-0.99731994 39:-0.99429956 40:-0.99429352 
1.0 1:0.30508476 2:0.30508476 3:1.0 4:-0.14285714 5:-0.65855474 6:-0.65855474 7:1.0 8:1.0 9:-0.56356242 10:-0.61237846 11:0.11075786 12:0.13993612 13:-0.77777778 14:-0.77777778 15:-0.2 16:-0.2 17:0.20000001 18:0.20000001 19:0.20000001 20:0.20000001 21:-1.0 22:-1.0 23:-0.33333333 24:-0.33333333 25:0.07378942 26:0.21399346 27:-0.93583831 28:-0.87030876 29:0.25930772 30:0.48888221 31:-0.32566788 32:-0.28571507 33:-0.87902838 34:-0.87902838 35:-0.89430894 36:-0.95121951 37:-0.88653676 38:-0.88656674 39:-0.9066121 40:-0.90692603 
1.0 1:0.06779659 2:0.06779659 3:-0.9047619 4:-0.14285714 5:0.56339461 6:0.63325147 7:1.0 8:1.0 9:0.75143885 10:-0.22348095 11:0.02639141 12:0.02009244 13:0.33333333 14:0.11111111 15:-0.42857144 16:-0.2 17:-0.14285715 18:0.20000001 19:-0.14285715 20:0.20000001 21:-1.0 22:-1.0 23:0.33333333 24:-0.33333333 25:-0.14800144 26:-0.08809638 27:-0.40026031 28:-0.38995812 29:-0.60378315 30:-0.40208916 31:-0.18369648 32:-0.19520715 33:-0.9983237 34:-0.9983237 35:-0.93495935 36:-0.68292683 37:-0.99876028 38:-0.99886447 39:-0.99643493 40:-0.99591748 
1.0 1:0.00188327 2:0.00188327 3:-0.14285714 4:-0.42857143 5:-0.46156457 6:-0.46156457 7:1.0 8:1.0 9:-0.80618922 10:-0.59259833 11:0.16642718 12:0.16642718 13:-0.11111111 14:-0.11111111 15:-0.55555556 16:-0.55555556 17:-0.33333333 18:-0.33333333 19:-0.33333333 20:-0.33333333 21:-1.0 22:-1.0 23:1.0 24:1.0 25:0.19823214 26:0.19823214 27:-0.88389703 28:-0.76422972 29:0.27256455 30:0.21616572 31:-0.19134925 32:-0.17590831 33:1.0 34:1.0 35:-0.79674797 36:-0.79674797 37:0.50056056 38:0.50056056 39:-0.13368262 40:-0.13368262 
1.0 1:-0.28813557 2:0.06779659 3:-0.14285714 4:-0.14285714 5:-0.75233394 6:-0.74332896 7:1.0 8:1.0 9:-0.93001094 10:-0.93001094 11:-0.024676 12:-0.03249195 13:-0.11111111 14:-0.11111111 15:-0.2 16:-0.2 17:0.20000001 18:0.20000001 19:0.20000001 20:0.20000001 21:-1.0 22:-1.0 23:-0.33333333 24:-0.33333333 25:-0.14738474 26:-0.14738474 27:-0.76125381 28:-0.60303206 29:-0.13082342 30:-0.33588452 31:-0.40622732 32:-0.4289424 33:-0.37399353 34:-0.37399353 35:-0.93495935 36:1.0 37:-0.37789137 38:-0.37869861 39:-0.13383355 40:-0.13380336 
1.0 1:-0.16949151 2:0.1864407 3:0.42857143 4:0.42857143 5:-0.69966841 6:-0.77588417 7:1.0 8:1.0 9:-0.80435334 10:-0.43565347 11:-0.04282754 12:-0.03229524 13:-0.33333333 14:-0.33333333 15:-0.2 16:-0.2 17:0.20000001 18:0.20000001 19:0.20000001 20:0.20000001 21:-1.0 22:-1.0 23:-0.33333333 24:-0.33333333 25:-0.46605498 26:-0.5594869 27:-0.54856285 28:-0.61454061 29:-0.75361503 30:-0.7926914 31:-0.51022446 32:-0.52277187 33:1.0 34:1.0 35:-0.96747967 36:-0.85365854 37:0.86940014 38:0.85665489 39:0.55083496 40:0.5866223 
1.0 1:0.06779659 2:-0.18644065 3:0.61904761 4:0.61904761 5:-0.18407555 6:0.02582422 7:1.0 8:1.0 9:-0.4472693 10:-0.1003265 11:0.11242913 12:0.08420017 13:-0.33333333 14:-0.55555556 15:-0.42857144 16:-0.42857144 17:-0.14285715 18:-0.14285715 19:-0.14285715 20:-0.14285715 21:-1.0 22:-1.0 23:0.33333333 24:0.33333333 25:0.27691305 26:0.159385 27:-0.86076962 28:-0.83116264 29:0.31662756 30:0.18343544 31:-0.19069097 32:-0.22012098 33:-0.82561719 34:-0.99961072 35:-0.94308943 36:-0.97560976 37:-0.8549168 38:-0.94442775 39:-0.9041766 40:-0.90515115 
1.0 1:-0.03107341 2:-0.03107341 3:0.08571429 4:0.08571429 5:-0.4949931 6:-0.4876116 7:1.0 8:1.0 9:-0.47337658 10:-0.72739348 11:0.24808362 12:-0.05890352 13:-0.11111111 14:-0.11111111 15:-0.33333332 16:-0.33333332 17:3.0E-8 18:3.0E-8 19:3.0E-8 20:3.0E-8 21:-1.0 22:-1.0 25:-0.08349862 26:-0.0150355 27:-0.78854325 28:-0.78178299 29:-0.19498475 30:0.02792494 31:-0.31901202 32:-0.34505299 33:1.0 34:1.0 35:-0.91869919 36:-0.91869919 37:0.76395297 38:0.76786989 39:0.27873519 40:0.26688254 
1.0 1:-0.16949151 2:-0.16949151 3:0.42857143 4:0.42857143 5:-0.2893503 6:-0.2893503 7:1.0 8:1.0 9:-0.70948036 10:-0.43010484 11:-0.47528905 12:-0.47528905 13:-0.11111111 14:-0.11111111 15:-0.2 16:-0.2 17:0.20000001 18:0.20000001 19:0.20000001 20:0.20000001 21:-1.0 22:-1.0 23:-0.33333333 24:-0.33333333 25:-0.76296209 26:-0.76296209 27:-0.87728631 28:-0.88965642 29:-0.74289025 30:-0.77101676 31:-0.83932737 32:-0.83713807 33:1.0 34:1.0 35:-0.87804878 36:-0.83739837 37:0.83598003 38:0.83596688 39:0.65234715 40:0.65237733 
1.0 1:0.23728816 2:0.23728816 3:0.23809525 4:0.23809525 5:-0.59906725 6:-0.58581314 7:1.0 8:1.0 9:-0.90728561 10:-0.36312445 11:0.13419444 12:0.12584994 13:-0.55555556 14:-0.55555556 15:-0.42857144 16:-0.42857144 17:-0.14285715 18:-0.14285715 19:-0.14285715 20:-0.14285715 21:-1.0 22:-1.0 23:0.33333333 24:0.33333333 25:-0.22033429 26:-0.22033429 27:-0.7360452 28:-0.92730564 29:-0.42866093 30:-0.21765669 31:-0.44859406 32:-0.44169277 33:1.0 34:1.0 35:-0.95934959 36:-0.97560976 37:0.66822285 38:0.66817405 39:0.08571066 40:0.08574516 
1.0 1:0.06779659 2:0.06779659 3:0.61904761 4:0.61904761 5:-0.43819895 6:-0.43733266 7:1.0 8:1.0 9:-0.79560949 10:0.08847025 11:0.06805364 12:0.09484257 13:0.11111111 14:0.55555556 15:-0.42857144 16:-0.42857144 17:-0.14285715 18:-0.14285715 19:-0.14285715 20:-0.14285715 21:-1.0 22:-1.0 23:0.33333333 24:0.33333333 25:0.06362009 26:-0.02539038 27:-0.84002974 28:-0.91777417 29:0.00128381 30:0.21626788 31:-0.47731538 32:-0.46689514 33:-0.37399353 34:-0.37399353 35:-0.84552846 36:-0.88617886 37:-0.4873625 38:-0.48941697 39:-0.55549229 40:-0.54883434 
1.0 1:-0.16949151 2:-0.16949151 3:-0.14285714 4:-0.14285714 5:0.04765449 6:0.04765449 7:1.0 8:1.0 9:-0.48407611 10:-0.48407611 11:0.22173369 12:0.22173369 13:-0.33333333 14:-0.33333333 15:-0.2 16:-0.2 17:0.20000001 18:0.20000001 19:0.20000001 20:0.20000001 21:-1.0 22:-1.0 23:-0.33333333 24:-0.33333333 25:0.89230587 26:0.24530735 27:-0.85051464 28:-0.85051464 29:1.0 30:0.59307388 31:0.36165649 32:-0.27840228 33:-0.98538203 34:-0.98538203 35:-0.88617886 36:-0.76422764 37:-0.98698749 38:-0.98703337 39:-0.9861979 40:-0.98610735 
1.0 1:0.06779659 2:0.06779659 3:0.61904761 4:0.61904761 5:0.05627397 6:0.05627397 7:1.0 8:1.0 9:-0.15288077 10:-0.64682541 11:-0.08140468 12:-0.07383354 13:-0.11111111 14:0.11111111 15:-0.42857144 16:-0.42857144 17:-0.14285715 18:-0.14285715 19:-0.14285715 20:-0.14285715 21:-1.0 22:-1.0 23:0.33333333 24:0.33333333 25:0.02276144 26:-0.53458472 27:-0.85229901 28:-0.91805472 29:0.11628841 30:-0.52367471 31:-0.36468756 32:-0.83305756 33:1.0 34:1.0 35:-0.90243902 36:-0.98373984 37:0.66796318 38:0.6679463 39:0.08639198 40:0.08681457 
1.0 1:-0.52542373 2:-0.52542373 3:-0.14285714 4:-0.14285714 5:1.0 6:1.0 8:1.0 9:-0.38640006 10:-0.38640006 11:-1.0 12:-1.0 13:-1.0 14:-1.0 15:-1.0 16:-1.0 17:-1.0 18:-1.0 19:-1.0 20:-1.0 21:-1.0 22:-1.0 23:-0.33333333 24:-0.33333333 25:-0.29560056 26:-0.29999567 27:-0.79158111 28:-0.7374336 29:-0.24214333 30:-0.29162166 31:-0.45401882 32:-0.44133018 33:-0.99922143 34:-0.99922143 35:-0.85365854 36:-0.73170732 37:-0.99940409 38:-0.99945062 39:-0.99893598 40:-0.99893598 
0.8101186323644195 1:0.15254238 2:0.21610169 3:-0.52380953 4:-0.52380953 5:0.78169729 6:0.61797027 7:1.0 9:-0.34776154 10:0.75143885 11:0.72954568 12:0.72954568 13:-0.77777778 14:-0.77777778 15:-0.42857144 17:-0.14285715 18:0.50000002 19:-0.14285715 20:0.50000002 21:-1.0 22:-1.0 23:0.33333333 24:-0.66666667 25:0.26201752 26:0.25490372 27:-0.14632313 28:0.19462129 29:-0.40629295 30:-0.67783118 31:0.31960547 32:0.32469992 33:-0.99885599 34:-0.99890365 35:-0.78861789 36:-0.71544715 37:-0.99902626 38:-0.99919324 39:-0.9981986 40:-0.99801534 
1.0 1:0.06779659 2:0.06779659 3:0.54285714 4:0.54285714 5:0.33144799 6:0.33144799 8:1.0 9:-0.69320002 10:-0.58682293 11:0.32037437 12:0.32037437 13:-0.55555556 14:-0.55555556 15:-0.33333332 16:-0.33333332 17:3.0E-8 18:3.0E-8 19:3.0E-8 20:3.0E-8 21:-1.0 22:-1.0 25:-0.00752457 26:-0.00752457 27:-0.83116264 28:-0.83116264 29:-0.03677982 30:-0.07043428 31:-0.48974708 32:-0.46404414 33:-0.82561719 34:-0.82561719 35:-0.94308943 36:-0.94308943 37:-0.84596652 38:-0.84596652 39:-0.88928892 40:-0.88928892 
1.0 1:-0.27118643 2:-0.27118643 3:0.23809525 4:0.23809525 5:-0.05642911 6:-0.05642911 7:1.0 8:1.0 9:-0.36953719 10:-0.36953719 11:-0.33478033 12:-0.33478033 13:-0.11111111 14:0.11111111 15:-0.42857144 16:-0.42857144 17:-0.14285715 18:-0.14285715 19:-0.14285715 20:-0.14285715 21:-1.0 22:-1.0 23:0.33333333 24:0.33333333 25:-0.0653894 26:0.08511141 27:-0.56570859 28:-0.41776372 29:-0.4682652 30:-0.37114915 31:-0.26175126 32:-0.26166186 33:-0.97835111 34:-0.96593378 35:-0.92682927 36:-0.8699187 37:-0.98236874 38:-0.9722188 39:-0.98647388 40:-0.97915617 
1.0 1:0.06779659 2:0.06779659 3:0.42857143 4:0.42857143 5:-0.09005814 6:-0.0773238 7:1.0 8:1.0 9:0.14035282 10:0.14035282 11:-0.00953921 12:-0.00953921 13:-0.55555556 14:-0.55555556 15:-0.2 16:-0.2 17:0.20000001 18:0.20000001 19:0.20000001 20:0.20000001 21:-1.0 22:-1.0 23:-0.33333333 24:-0.33333333 25:0.13017583 26:0.13017583 27:-0.58814622 28:-0.39609517 29:-0.10581796 30:-0.28742525 31:-0.08565151 32:-0.0697043 33:-0.99324713 34:-0.97502234 35:-0.97560976 36:-0.97560976 37:-0.9936418 38:-0.97661515 39:-0.99462556 40:-0.98048086 
1.0 1:0.75988698 2:0.75988698 3:-0.37142857 4:-0.37142857 5:0.11241763 6:0.12193805 7:1.0 8:1.0 9:-0.02440708 10:-0.02440708 11:0.89941001 12:0.89941001 13:-1.0 14:-1.0 15:-1.0 16:-1.0 17:-1.0 18:-1.0 19:-1.0 20:-1.0 21:-1.0 22:-1.0 25:1.0 26:1.0 27:0.3278948 28:0.3278948 29:-0.02624488 30:0.01479268 31:0.71156923 32:0.75438621 33:-0.99751336 34:-0.99751336 35:-1.0 36:-1.0 37:-0.99787296 38:-0.99776869 39:-0.99767827 40:-0.99859388 
1.0 1:-0.16949151 2:-0.16949151 3:1.0 4:1.0 5:0.04765449 6:0.04765449 7:1.0 8:1.0 9:-0.79891834 10:-0.79891834 11:-0.11939329 12:-0.11939329 13:-0.77777778 14:-0.77777778 15:-0.2 16:-0.2 17:0.20000001 18:0.20000001 19:0.20000001 20:0.20000001 21:-1.0 22:-1.0 23:-0.33333333 24:-0.33333333 25:0.25535802 26:0.25535802 27:-0.66155339 28:-0.78513499 29:0.21329916 30:0.38237695 31:0.08731898 32:0.08888744 33:-0.99973783 34:-0.99991261 35:-0.95934959 36:-0.95934959 37:-0.99973336 38:-0.99986432 39:-0.99982945 40:-0.99996227 
1.0 1:-0.52542373 2:-0.52542373 3:0.02040816 4:0.02040816 5:-0.02329388 6:-0.02329388 7:1.0 8:1.0 9:-0.71472621 10:-0.677734 11:-0.56583371 12:-0.56583371 13:-1.0 14:-1.0 15:-1.0 16:-1.0 17:-1.0 18:-1.0 19:-1.0 20:-1.0 21:-1.0 22:-1.0 23:0.66666667 24:0.66666667 25:0.25998012 26:0.20836655 27:-0.7238273 28:-0.55138826 29:0.31173015 30:0.01063161 31:-0.04766509 32:-0.09424263 33:-0.99957894 34:-0.99983316 35:-0.93495935 36:-0.93495935 37:-0.99967806 38:-0.99987516 39:-0.99968306 40:-0.99992076 
1.0 1:0.54237287 2:0.54237287 3:0.42857143 4:0.42857143 5:-0.62089752 6:0.19773759 7:1.0 8:1.0 9:-0.48141596 10:-0.51851355 11:0.03486008 12:0.06358911 13:-0.55555556 14:-0.55555556 15:-0.2 16:-0.2 17:0.20000001 18:0.20000001 19:0.20000001 20:0.20000001 21:-1.0 22:-1.0 23:-0.33333333 24:-0.33333333 25:0.03193265 26:0.12373066 27:-0.61779336 28:-0.59971735 29:0.05190237 30:0.13659133 31:-0.19929828 32:-0.16301754 33:-0.97491906 34:-0.97410078 35:-0.88617886 36:-0.83739837 37:-0.97748962 38:-0.97680588 39:-0.97627307 40:-0.97548826 
1.0 1:0.30508476 2:0.30508476 3:0.42857143 4:0.42857143 5:-0.73368725 6:-0.56632184 7:1.0 8:1.0 9:-0.48215279 10:-0.01474726 11:0.38658137 12:0.38230461 13:-0.77777778 14:-0.55555556 15:-0.2 16:-0.2 17:0.20000001 18:0.20000001 19:0.20000001 20:0.20000001 21:-1.0 22:-1.0 23:-0.33333333 24:-0.33333333 25:0.12680554 26:0.09199526 27:-0.67877377 28:-0.63677473 29:-0.00598043 30:-0.10989969 31:-0.2805533 32:-0.24622213 33:1.0 34:1.0 35:-0.96747967 36:-0.95121951 37:0.8804638 38:0.87983741 39:0.52407896 40:0.52427215 
1.0 1:0.56214691 2:0.49152541 3:0.54285714 4:0.61904761 5:-0.12698768 6:-0.53981366 7:1.0 8:1.0 9:-0.5070406 10:-0.46594173 11:0.04958691 12:0.10630649 13:-1.0 14:-0.77777778 15:-1.0 16:-0.42857144 17:-1.0 18:-0.14285715 19:-1.0 20:-0.14285715 21:-1.0 22:-1.0 24:0.33333333 25:0.23993258 26:0.14579558 27:-0.84587905 28:-0.68446115 29:0.30526687 30:-0.03993483 31:-0.15895364 32:-0.1869872 33:-0.99740213 34:-0.99740213 35:-0.7804878 36:-0.93495935 37:-0.99767561 38:-0.99741809 39:-0.99635013 40:-0.99581399 
1.0 1:-0.42655367 2:-0.42655367 3:1.0 4:1.0 5:-0.54667459 6:-0.23741245 7:1.0 8:1.0 9:-0.13864293 10:-0.33705414 11:-0.45389083 12:-0.43537761 13:-0.11111111 14:-0.33333333 15:-0.33333332 16:-0.33333332 17:3.0E-8 18:3.0E-8 19:3.0E-8 20:3.0E-8 21:-1.0 22:-1.0 25:-0.12535312 26:-0.33550189 27:-0.91045353 28:-0.93207806 29:0.00891012 30:-0.11215639 31:-0.61091954 32:-0.63414771 33:1.0 34:1.0 35:-0.93495935 36:-0.87804878 37:0.76564025 38:0.76792459 39:0.27359367 40:0.26674168 
1.0 1:1.0 2:1.0 3:-0.52380953 4:-0.52380953 5:-0.40849523 6:-0.13887177 7:1.0 8:1.0 9:-0.46635927 10:-0.46635927 11:0.49549309 12:0.46249134 13:-0.11111111 14:0.11111111 15:0.14285716 16:0.14285716 17:-0.14285715 18:-0.14285715 19:0.07142859 20:0.02857143 21:-0.07211558 22:-0.14285708 23:0.33333333 24:0.33333333 25:-0.53645506 26:-0.56259065 27:-0.78615242 28:-0.78615242 29:-0.63173221 30:-0.67596829 31:-0.63582507 32:-0.64855016 33:1.0 34:1.0 35:-0.97560976 36:-0.97560976 37:0.64631675 38:0.64631818 39:0.17863738 40:0.17863307 
1.0 1:0.06779659 2:0.06779659 3:-0.71428571 4:0.42857143 5:0.07903551 6:0.07903551 7:1.0 8:1.0 9:0.51424341 10:-0.12504201 11:0.07116099 12:0.07116099 13:-0.33333333 14:-0.55555556 15:-0.2 16:-0.2 17:0.20000001 18:0.20000001 19:0.20000001 20:0.20000001 21:-1.0 22:-1.0 23:-0.33333333 24:-0.33333333 25:-0.38337549 26:-0.13270675 27:-0.42180727 28:-0.75819014 29:-0.81905943 30:-0.16908892 31:-0.36422106 32:-0.39596098 33:-0.84610618 34:-0.84610618 35:-0.88617886 36:-0.96747967 37:-0.85625047 38:-0.85524961 39:-0.88048999 40:-0.88287461 
1.0 1:0.30508476 2:0.30508476 3:-0.14285714 4:1.0 5:-0.65855474 6:-0.65855474 7:1.0 8:1.0 9:-0.61237846 10:-0.56356242 11:0.13993612 12:0.11075786 13:-0.77777778 14:-0.77777778 15:-0.2 16:-0.2 17:0.20000001 18:0.20000001 19:0.20000001 20:0.20000001 21:-1.0 22:-1.0 23:-0.33333333 24:-0.33333333 25:0.21399346 26:0.07378942 27:-0.87030876 28:-0.93583831 29:0.48888221 30:0.25930772 31:-0.28571507 32:-0.32566788 33:-0.87902838 34:-0.87902838 35:-0.95121951 36:-0.89430894 37:-0.88656674 38:-0.88653676 39:-0.90692603 40:-0.9066121 
1.0 1:0.06779659 2:0.06779659 3:-0.9047619 4:-0.14285714 5:0.56339461 6:0.63325147 7:1.0 8:1.0 9:0.75143885 10:-0.22348095 11:0.02639141 12:0.02009244 13:0.33333333 14:0.11111111 15:-0.42857144 16:-0.2 17:-0.14285715 18:0.20000001 19:-0.14285715 20:0.20000001 21:-1.0 22:-1.0 23:0.33333333 24:-0.33333333 25:-0.14800144 26:-0.08809638 27:-0.40026031 28:-0.38995812 29:-0.60378315 30:-0.40208916 31:-0.18369648 32:-0.19520715 33:-0.9983237 34:-0.9983237 35:-0.93495935 36:-0.68292683 37:-0.99876028 38:-0.99886447 39:-0.99643493 40:-0.99591748 
1.0 1:0.00188327 2:0.00188327 3:-0.42857143 4:-0.14285714 5:-0.46156457 6:-0.46156457 7:1.0 8:1.0 9:-0.59259833 10:-0.80618922 11:0.16642718 12:0.16642718 13:-0.11111111 14:-0.11111111 15:-0.55555556 16:-0.55555556 17:-0.33333333 18:-0.33333333 19:-0.33333333 20:-0.33333333 21:-1.0 22:-1.0 23:1.0 24:1.0 25:0.19823214 26:0.19823214 27:-0.76422972 28:-0.88389703 29:0.21616572 30:0.27256455 31:-0.17590831 32:-0.19134925 33:1.0 34:1.0 35:-0.79674797 36:-0.79674797 37:0.50056056 38:0.50056056 39:-0.13368262 40:-0.13368262 
1.0 1:0.06779659 2:-0.28813557 3:0.42857143 4:0.42857143 5:-0.69530234 6:-0.65609883 7:1.0 8:1.0 9:-0.80435334 10:-0.55371148 11:-0.18336243 12:-0.19217964 13:-0.55555556 14:-0.55555556 15:-0.2 16:-0.2 17:0.20000001 18:0.20000001 19:0.20000001 20:0.20000001 21:-1.0 22:-1.0 23:-0.33333333 24:-0.33333333 25:-0.45804296 26:-0.43926563 27:-0.71635373 28:-0.67375495 29:-0.57607626 30:-0.58953932 31:-0.57028412 32:-0.55380128 33:1.0 34:1.0 35:-0.94308943 36:-0.78861789 37:0.83588939 38:0.8358482 39:0.6526007 40:0.65259467 
1.0 1:0.06779659 2:-0.28813557 3:-0.14285714 4:-0.14285714 5:-0.74332896 6:-0.75233394 7:1.0 8:1.0 9:-0.93001094 10:-0.93001094 11:-0.03249195 12:-0.024676 13:-0.11111111 14:-0.11111111 15:-0.2 16:-0.2 17:0.20000001 18:0.20000001 19:0.20000001 20:0.20000001 21:-1.0 22:-1.0 23:-0.33333333 24:-0.33333333 25:-0.14738474 26:-0.14738474 27:-0.60303206 28:-0.76125381 29:-0.33588452 30:-0.13082342 31:-0.4289424 32:-0.40622732 33:-0.37399353 34:-0.37399353 35:1.0 36:-0.93495935 37:-0.37869861 38:-0.37789137 39:-0.13380336 40:-0.13383355 
1.0 1:-0.16949151 2:0.1864407 3:0.42857143 4:0.42857143 5:-0.69966841 6:-0.77588417 7:1.0 8:1.0 9:-0.80435334 10:-0.43565347 11:-0.04282754 12:-0.03229524 13:-0.33333333 14:-0.33333333 15:-0.2 16:-0.2 17:0.20000001 18:0.20000001 19:0.20000001 20:0.20000001 21:-1.0 22:-1.0 23:-0.33333333 24:-0.33333333 25:-0.46605498 26:-0.5594869 27:-0.54856285 28:-0.61454061 29:-0.75361503 30:-0.7926914 31:-0.51022446 32:-0.52277187 33:1.0 34:1.0 35:-0.96747967 36:-0.85365854 37:0.86940014 38:0.85665489 39:0.55083496 40:0.5866223 
1.0 1:0.36440678 2:0.06779659 3:0.54285714 4:0.54285714 5:-0.67255146 6:-0.62878067 7:1.0 8:1.0 9:-0.59300989 10:-0.11622718 11:0.19396058 12:0.19853678 13:-0.11111111 14:-0.11111111 15:-0.33333332 16:-0.33333332 17:3.0E-8 18:3.0E-8 19:3.0E-8 20:3.0E-8 21:-1.0 22:-1.0 25:0.33046732 26:0.33046732 27:-1.0 28:-0.98594622 29:0.44962711 30:0.54480322 31:-0.45965302 32:-0.46795522 33:-0.48246837 34:-0.48246837 35:-0.91869919 36:-0.91056911 37:-0.54717746 38:-0.54717925 39:-0.65722656 40:-0.65722153 
1.0 1:-0.18644065 2:0.06779659 3:0.61904761 4:0.61904761 5:0.02582422 6:-0.18407555 7:1.0 8:1.0 9:-0.1003265 10:-0.4472693 11:0.08420017 12:0.11242913 13:-0.55555556 14:-0.33333333 15:-0.42857144 16:-0.42857144 17:-0.14285715 18:-0.14285715 19:-0.14285715 20:-0.14285715 21:-1.0 22:-1.0 23:0.33333333 24:0.33333333 25:0.159385 26:0.27691305 27:-0.83116264 28:-0.86076962 29:0.18343544 30:0.31662756 31:-0.22012098 32:-0.19069097 33:-0.99961072 34:-0.82561719 35:-0.97560976 36:-0.94308943 37:-0.94442775 38:-0.8549168 39:-0.90515115 40:-0.9041766 
1.0 1:-0.03107341 2:-0.03107341 3:0.08571429 4:0.08571429 5:-0.4876116 6:-0.4949931 7:1.0 8:1.0 9:-0.72739348 10:-0.47337658 11:-0.05890352 12:0.24808362 13:-0.11111111 14:-0.11111111 15:-0.33333332 16:-0.33333332 17:3.0E-8 18:3.0E-8 19:3.0E-8 20:3.0E-8 21:-1.0 22:-1.0 25:-0.0150355 26:-0.08349862 27:-0.78178299 28:-0.78854325 29:0.02792494 30:-0.19498475 31:-0.34505299 32:-0.31901202 33:1.0 34:1.0 35:-0.91869919 36:-0.91869919 37:0.76786989 38:0.76395297 39:0.26688254 40:0.27873519 
1.0 1:-0.27118643 2:-0.27118643 3:0.61904761 4:0.61904761 5:-0.13361471 6:-0.20326367 7:1.0 8:1.0 9:-0.38718026 10:-0.31886217 11:0.06596825 12:-0.34007729 13:0.11111111 14:0.11111111 15:-0.42857144 16:-0.42857144 17:-0.14285715 18:-0.14285715 19:-0.14285715 20:-0.14285715 21:-1.0 22:-1.0 23:0.33333333 24:0.33333333 25:0.20205463 26:-0.04580675 27:-0.84419749 28:-0.65621231 29:0.1507729 30:-0.09645704 31:-0.27711867 32:-0.26560368 33:-0.4985958 34:-0.4985958 35:-0.94308943 36:-0.92682927 37:-0.58294302 38:-0.58317516 39:-0.71929772 40:-0.71853016 
1.0 1:-0.37711864 2:-0.37711864 3:0.67346939 4:0.67346939 5:-0.22957693 6:-0.2635243 7:1.0 8:1.0 9:-0.52787459 10:-0.68294209 11:-0.67909446 12:-0.47646653 13:-0.33333333 14:-0.55555556 15:-0.5 16:-0.5 17:-0.24999999 18:-0.24999999 19:-0.24999999 20:-0.24999999 21:-1.0 22:-1.0 23:0.66666667 24:0.66666667 25:-0.23897414 26:-0.27116891 27:-0.85036985 28:-0.81351605 29:-0.21376019 30:-0.37818861 31:-0.49158672 32:-0.47231057 33:1.0 34:1.0 35:-0.98373984 36:-0.96747967 37:0.58108701 38:0.5812234 39:-0.04873068 40:-0.04913063 
1.0 1:-0.16949151 2:-0.16949151 3:0.42857143 4:0.42857143 5:-0.2893503 6:-0.2893503 7:1.0 8:1.0 9:-0.43010484 10:-0.70948036 11:-0.47528905 12:-0.47528905 13:-0.11111111 14:-0.11111111 15:-0.2 16:-0.2 17:0.20000001 18:0.20000001 19:0.20000001 20:0.20000001 21:-1.0 22:-1.0 23:-0.33333333 24:-0.33333333 25:-0.76296209 26:-0.76296209 27:-0.88965642 28:-0.87728631 29:-0.77101676 30:-0.74289025 31:-0.83713807 32:-0.83932737 33:1.0 34:1.0 35:-0.83739837 36:-0.87804878 37:0.83596688 38:0.83598003 39:0.65237733 40:0.65234715 
1.0 1:0.26553672 2:0.26553672 3:0.54285714 4:0.54285714 5:-0.44801392 6:-0.30951299 7:1.0 8:1.0 9:-0.31168731 10:-0.97690856 11:0.03318418 12:0.03318418 13:0.11111111 14:0.33333333 15:-0.33333332 16:-0.33333332 17:3.0E-8 18:3.0E-8 19:3.0E-8 20:3.0E-8 21:-1.0 22:-1.0 25:-0.5310659 26:-0.45804296 27:-0.93643301 28:-0.80655699 29:-0.54157425 30:-0.52105311 31:-0.69106532 32:-0.67303007 33:1.0 34:1.0 35:-0.86178862 36:-0.86178862 37:0.73786091 38:0.758465 39:0.3613415 40:0.29655944 
1.0 1:0.23728816 2:0.23728816 3:0.23809525 4:0.23809525 5:-0.59906725 6:-0.58581314 7:1.0 8:1.0 9:-0.90728561 10:-0.36312445 11:0.13419444 12:0.12584994 13:-0.55555556 14:-0.55555556 15:-0.42857144 16:-0.42857144 17:-0.14285715 18:-0.14285715 19:-0.14285715 20:-0.14285715 21:-1.0 22:-1.0 23:0.33333333 24:0.33333333 25:-0.22033429 26:-0.22033429 27:-0.7360452 28:-0.92730564 29:-0.42866093 30:-0.21765669 31:-0.44859406 32:-0.44169277 33:1.0 34:1.0 35:-0.95934959 36:-0.97560976 37:0.66822285 38:0.66817405 39:0.08571066 40:0.08574516 
1.0 1:0.06779659 2:0.06779659 3:0.61904761 4:0.61904761 5:-0.43819895 6:-0.43733266 7:1.0 8:1.0 9:-0.79560949 10:0.08847025 11:0.06805364 12:0.09484257 13:0.11111111 14:0.55555556 15:-0.42857144 16:-0.42857144 17:-0.14285715 18:-0.14285715 19:-0.14285715 20:-0.14285715 21:-1.0 22:-1.0 23:0.33333333 24:0.33333333 25:0.06362009 26:-0.02539038 27:-0.84002974 28:-0.91777417 29:0.00128381 30:0.21626788 31:-0.47731538 32:-0.46689514 33:-0.37399353 34:-0.37399353 35:-0.84552846 36:-0.88617886 37:-0.4873625 38:-0.48941697 39:-0.55549229 40:-0.54883434 
1.0 1:0.13370997 2:0.19962335 3:0.14285714 4:0.14285714 5:-0.07726315 6:-0.13499714 7:1.0 8:1.0 9:-0.40437908 10:-0.3514025 11:-0.04882609 12:-0.03874624 13:0.11111111 14:-0.11111111 15:-0.55555556 16:-0.55555556 17:-0.33333333 18:-0.33333333 19:-0.33333333 20:-0.33333333 21:-1.0 22:-1.0 23:1.0 24:1.0 25:0.39465164 26:-0.1246545 27:-0.89337644 28:-0.82451543 29:0.2539879 30:-0.15561032 31:-0.48495919 32:-0.49644003 33:1.0 34:1.0 35:-0.99186992 36:-0.92682927 37:0.50505989 38:0.50500471 39:-0.15265893 40:-0.15245435 
1.0 1:-0.16949151 2:-0.16949151 3:-0.14285714 4:-0.14285714 5:0.04765449 6:0.04765449 7:1.0 8:1.0 9:-0.48407611 10:-0.48407611 11:0.22173369 12:0.22173369 13:-0.33333333 14:-0.33333333 15:-0.2 16:-0.2 17:0.20000001 18:0.20000001 19:0.20000001 20:0.20000001 21:-1.0 22:-1.0 23:-0.33333333 24:-0.33333333 25:0.89230587 26:0.24530735 27:-0.85051464 28:-0.85051464 29:1.0 30:0.59307388 31:0.36165649 32:-0.27840228 33:-0.98538203 34:-0.98538203 35:-0.88617886 36:-0.76422764 37:-0.98698749 38:-0.98703337 39:-0.9861979 40:-0.98610735 
1.0 1:-0.42655367 2:-0.42655367 3:0.54285714 4:0.54285714 5:-0.23741245 6:-0.23741245 7:1.0 8:1.0 9:-0.72785494 10:-0.65122397 11:-0.43537761 12:-0.43537761 13:-0.11111111 14:-0.11111111 15:-0.33333332 16:-0.33333332 17:3.0E-8 18:3.0E-8 19:3.0E-8 20:3.0E-8 21:-1.0 22:-1.0 25:-0.23366973 26:0.31628962 27:-0.91947812 28:-0.91045353 29:-0.14033611 30:0.46416733 31:-0.76410007 32:-0.34740974 33:1.0 34:1.0 35:-0.90243902 36:-0.99186992 37:0.76656676 38:0.7656522 39:0.27079653 40:0.27355846 
1.0 1:0.06779659 2:0.06779659 3:0.61904761 4:0.61904761 5:0.05627397 6:0.05627397 7:1.0 8:1.0 9:-0.15288077 10:-0.64682541 11:-0.08140468 12:-0.07383354 13:-0.11111111 14:0.11111111 15:-0.42857144 16:-0.42857144 17:-0.14285715 18:-0.14285715 19:-0.14285715 20:-0.14285715 21:-1.0 22:-1.0 23:0.33333333 24:0.33333333 25:0.02276144 26:-0.53458472 27:-0.85229901 28:-0.91805472 29:0.11628841 30:-0.52367471 31:-0.36468756 32:-0.83305756 33:1.0 34:1.0 35:-0.90243902 36:-0.98373984 37:0.66796318 38:0.6679463 39:0.08639198 40:0.08681457 
1.0 1:0.00188327 2:0.00188327 3:-0.14285714 4:-0.14285714 5:-0.55325906 6:-0.56670085 7:1.0 8:1.0 9:-0.59479885 10:-0.96500547 11:-0.05284104 12:-0.0397878 13:-0.11111111 14:-0.11111111 15:-0.55555556 16:-0.55555556 17:-0.33333333 18:-0.33333333 19:-0.33333333 20:-0.33333333 21:-1.0 22:-1.0 23:1.0 24:1.0 25:0.30351028 26:-0.23761295 27:-0.31935352 28:-0.86099626 29:-0.31543154 30:-0.32388408 31:-0.09741344 32:-0.46261003 33:1.0 34:1.0 35:-0.96747967 36:-0.90243902 37:0.50546052 38:0.50116435 39:-0.15420843 40:-0.13575197 
1.0 1:-0.52542373 2:-0.52542373 3:-0.14285714 4:-0.14285714 5:1.0 6:1.0 7:1.0 9:-0.38640006 10:-0.38640006 11:-1.0 12:-1.0 13:-1.0 14:-1.0 15:-1.0 16:-1.0 17:-1.0 18:-1.0 19:-1.0 20:-1.0 21:-1.0 22:-1.0 23:-0.33333333 24:-0.33333333 25:-0.29999567 26:-0.29560056 27:-0.7374336 28:-0.79158111 29:-0.29162166 30:-0.24214333 31:-0.44133018 32:-0.45401882 33:-0.99922143 34:-0.99922143 35:-0.73170732 36:-0.85365854 37:-0.99945062 38:-0.99940409 39:-0.99893598 40:-0.99893598 
1.0 1:0.21610169 2:0.15254238 3:-0.52380953 4:-0.52380953 5:0.61797027 6:0.78169729 8:1.0 9:0.75143885 10:-0.34776154 11:0.72954568 12:0.72954568 13:-0.77777778 14:-0.77777778 16:-0.42857144 17:0.50000002 18:-0.14285715 19:0.50000002 20:-0.14285715 21:-1.0 22:-1.0 23:-0.66666667 24:0.33333333 25:0.25490372 26:0.26201752 27:0.19462129 28:-0.14632313 29:-0.67783118 30:-0.40629295 31:0.32469992 32:0.31960547 33:-0.99890365 34:-0.99885599 35:-0.71544715 36:-0.78861789 37:-0.99919324 38:-0.99902626 39:-0.99801534 40:-0.9981986 
1.0 1:0.06779659 2:0.06779659 3:0.54285714 4:0.54285714 5:0.33144799 6:0.33144799 7:1.0 9:-0.58682293 10:-0.69320002 11:0.32037437 12:0.32037437 13:-0.55555556 14:-0.55555556 15:-0.33333332 16:-0.33333332 17:3.0E-8 18:3.0E-8 19:3.0E-8 20:3.0E-8 21:-1.0 22:-1.0 25:-0.00752457 26:-0.00752457 27:-0.83116264 28:-0.83116264 29:-0.07043428 30:-0.03677982 31:-0.46404414 32:-0.48974708 33:-0.82561719 34:-0.82561719 35:-0.94308943 36:-0.94308943 37:-0.84596652 38:-0.84596652 39:-0.88928892 40:-0.88928892 
1.0 1:0.56214691 2:0.56214691 3:0.08571429 4:0.08571429 5:-0.13759961 6:-0.13759961 8:1.0 9:-0.27179043 10:-0.20321342 11:0.96064605 12:0.96064605 13:-0.33333333 14:-0.33333333 15:-0.33333332 16:-0.33333332 17:3.0E-8 18:3.0E-8 19:3.0E-8 20:3.0E-8 21:-1.0 22:-1.0 25:-0.35120656 26:-0.35120656 27:-0.87344702 28:-0.87401485 29:-0.41963059 30:-0.41911792 31:-0.54130324 32:-0.54142047 33:-0.99725913 34:-0.99725913 35:-0.98373984 36:-0.98373984 37:-0.99719659 38:-0.99719659 39:-0.99657149 40:-0.99657149 
1.0 1:-0.27118643 2:-0.27118643 3:0.23809525 4:0.23809525 5:-0.05642911 6:-0.05642911 7:1.0 8:1.0 9:-0.36953719 10:-0.36953719 11:-0.33478033 12:-0.33478033 13:-0.11111111 14:0.11111111 15:-0.42857144 16:-0.42857144 17:-0.14285715 18:-0.14285715 19:-0.14285715 20:-0.14285715 21:-1.0 22:-1.0 23:0.33333333 24:0.33333333 25:-0.0653894 26:0.08511141 27:-0.56570859 28:-0.41776372 29:-0.4682652 30:-0.37114915 31:-0.26175126 32:-0.26166186 33:-0.97835111 34:-0.96593378 35:-0.92682927 36:-0.8699187 37:-0.98236874 38:-0.9722188 39:-0.98647388 40:-0.97915617 
1.0 1:0.06779659 2:0.06779659 3:0.42857143 4:0.42857143 5:-0.09005814 6:-0.0773238 7:1.0 8:1.0 9:0.14035282 10:0.14035282 11:-0.00953921 12:-0.00953921 13:-0.55555556 14:-0.55555556 15:-0.2 16:-0.2 17:0.20000001 18:0.20000001 19:0.20000001 20:0.20000001 21:-1.0 22:-1.0 23:-0.33333333 24:-0.33333333 25:0.13017583 26:0.13017583 27:-0.58814622 28:-0.39609517 29:-0.10581796 30:-0.28742525 31:-0.08565151 32:-0.0697043 33:-0.99324713 34:-0.97502234 35:-0.97560976 36:-0.97560976 37:-0.9936418 38:-0.97661515 39:-0.99462556 40:-0.98048086 
1.0 1:0.75988698 2:0.75988698 3:-0.37142857 4:-0.37142857 5:0.12193805 6:0.11241763 7:1.0 8:1.0 9:-0.02440708 10:-0.02440708 11:0.89941001 12:0.89941001 13:-1.0 14:-1.0 15:-1.0 16:-1.0 17:-1.0 18:-1.0 19:-1.0 20:-1.0 21:-1.0 22:-1.0 25:1.0 26:1.0 27:0.3278948 28:0.3278948 29:0.01479268 30:-0.02624488 31:0.75438621 32:0.71156923 33:-0.99751336 34:-0.99751336 35:-1.0 36:-1.0 37:-0.99776869 38:-0.99787296 39:-0.99859388 40:-0.99767827 
1.0 1:-0.16949151 2:-0.16949151 3:1.0 4:1.0 5:0.04765449 6:0.04765449 7:1.0 8:1.0 9:-0.79891834 10:-0.79891834 11:-0.11939329 12:-0.11939329 13:-0.77777778 14:-0.77777778 15:-0.2 16:-0.2 17:0.20000001 18:0.20000001 19:0.20000001 20:0.20000001 21:-1.0 22:-1.0 23:-0.33333333 24:-0.33333333 25:0.25535802 26:0.25535802 27:-0.78513499 28:-0.66155339 29:0.38237695 30:0.21329916 31:0.08888744 32:0.08731898 33:-0.99991261 34:-0.99973783 35:-0.95934959 36:-0.95934959 37:-0.99986432 38:-0.99973336 39:-0.99996227 40:-0.99982945 
1.0 1:-0.52542373 2:-0.52542373 3:0.02040816 4:0.02040816 5:-0.02329388 6:-0.02329388 7:1.0 8:1.0 9:-0.677734 10:-0.71472621 11:-0.56583371 12:-0.56583371 13:-1.0 14:-1.0 15:-1.0 16:-1.0 17:-1.0 18:-1.0 19:-1.0 20:-1.0 21:-1.0 22:-1.0 23:0.66666667 24:0.66666667 25:0.20836655 26:0.25998012 27:-0.55138826 28:-0.7238273 29:0.01063161 30:0.31173015 31:-0.09424263 32:-0.04766509 33:-0.99983316 34:-0.99957894 35:-0.93495935 36:-0.93495935 37:-0.99987516 38:-0.99967806 39:-0.99992076 40:-0.99968306 
1.0 1:0.54237287 2:0.54237287 3:0.42857143 4:0.42857143 5:-0.62089752 6:0.19773759 7:1.0 8:1.0 9:-0.48141596 10:-0.51851355 11:0.03486008 12:0.06358911 13:-0.55555556 14:-0.55555556 15:-0.2 16:-0.2 17:0.20000001 18:0.20000001 19:0.20000001 20:0.20000001 21:-1.0 22:-1.0 23:-0.33333333 24:-0.33333333 25:0.03193265 26:0.12373066 27:-0.61779336 28:-0.59971735 29:0.05190237 30:0.13659133 31:-0.19929828 32:-0.16301754 33:-0.97491906 34:-0.97410078 35:-0.88617886 36:-0.83739837 37:-0.97748962 38:-0.97680588 39:-0.97627307 40:-0.97548826 
1.0 1:0.56214691 2:0.49152541 3:0.54285714 4:0.61904761 5:-0.12698768 6:-0.53981366 7:1.0 8:1.0 9:-0.5070406 10:-0.46594173 11:0.04958691 12:0.10630649 13:-1.0 14:-0.77777778 15:-1.0 16:-0.42857144 17:-1.0 18:-0.14285715 19:-1.0 20:-0.14285715 21:-1.0 22:-1.0 24:0.33333333 25:0.23993258 26:0.14579558 27:-0.84587905 28:-0.68446115 29:0.30526687 30:-0.03993483 31:-0.15895364 32:-0.1869872 33:-0.99740213 34:-0.99740213 35:-0.7804878 36:-0.93495935 37:-0.99767561 38:-0.99741809 39:-0.99635013 40:-0.99581399 
1.0 1:-0.42655367 2:-0.42655367 3:1.0 4:1.0 5:-0.54667459 6:-0.23741245 7:1.0 8:1.0 9:-0.13864293 10:-0.33705414 11:-0.45389083 12:-0.43537761 13:-0.11111111 14:-0.33333333 15:-0.33333332 16:-0.33333332 17:3.0E-8 18:3.0E-8 19:3.0E-8 20:3.0E-8 21:-1.0 22:-1.0 25:-0.12535312 26:-0.33550189 27:-0.91045353 28:-0.93207806 29:0.00891012 30:-0.11215639 31:-0.61091954 32:-0.63414771 33:1.0 34:1.0 35:-0.93495935 36:-0.87804878 37:0.76564025 38:0.76792459 39:0.27359367 40:0.26674168 
1.0 1:1.0 2:1.0 3:-0.52380953 4:-0.52380953 5:-0.40849523 6:-0.13887177 7:1.0 8:1.0 9:-0.46635927 10:-0.46635927 11:0.49549309 12:0.46249134 13:-0.11111111 14:0.11111111 15:0.14285716 16:0.14285716 17:-0.14285715 18:-0.14285715 19:0.07142859 20:0.02857143 21:-0.07211558 22:-0.14285708 23:0.33333333 24:0.33333333 25:-0.53645506 26:-0.56259065 27:-0.78615242 28:-0.78615242 29:-0.63173221 30:-0.67596829 31:-0.63582507 32:-0.64855016 33:1.0 34:1.0 35:-0.97560976 36:-0.97560976 37:0.64631675 38:0.64631818 39:0.17863738 40:0.17863307 
1.0 1:0.30508476 2:0.30508476 3:1.0 4:-0.14285714 5:-0.65855474 6:-0.65855474 7:1.0 8:1.0 9:-0.56356242 10:-0.61237846 11:0.11075786 12:0.13993612 13:-0.77777778 14:-0.77777778 15:-0.2 16:-0.2 17:0.20000001 18:0.20000001 19:0.20000001 20:0.20000001 21:-1.0 22:-1.0 23:-0.33333333 24:-0.33333333 25:0.07378942 26:0.21399346 27:-0.93583831 28:-0.87030876 29:0.25930772 30:0.48888221 31:-0.32566788 32:-0.28571507 33:-0.87902838 34:-0.87902838 35:-0.89430894 36:-0.95121951 37:-0.88653676 38:-0.88656674 39:-0.9066121 40:-0.90692603 
1.0 1:0.00188327 2:0.00188327 3:-0.42857143 4:-0.14285714 5:-0.46156457 6:-0.46156457 7:1.0 8:1.0 9:-0.59259833 10:-0.80618922 11:0.16642718 12:0.16642718 13:-0.11111111 14:-0.11111111 15:-0.55555556 16:-0.55555556 17:-0.33333333 18:-0.33333333 19:-0.33333333 20:-0.33333333 21:-1.0 22:-1.0 23:1.0 24:1.0 25:0.19823214 26:0.19823214 27:-0.76422972 28:-0.88389703 29:0.21616572 30:0.27256455 31:-0.17590831 32:-0.19134925 33:1.0 34:1.0 35:-0.79674797 36:-0.79674797 37:0.50056056 38:0.50056056 39:-0.13368262 40:-0.13368262 
1.0 1:-0.28813557 2:0.06779659 3:0.42857143 4:0.42857143 5:-0.65609883 6:-0.69530234 7:1.0 8:1.0 9:-0.55371148 10:-0.80435334 11:-0.19217964 12:-0.18336243 13:-0.55555556 14:-0.55555556 15:-0.2 16:-0.2 17:0.20000001 18:0.20000001 19:0.20000001 20:0.20000001 21:-1.0 22:-1.0 23:-0.33333333 24:-0.33333333 25:-0.43926563 26:-0.45804296 27:-0.67375495 28:-0.71635373 29:-0.58953932 30:-0.57607626 31:-0.55380128 32:-0.57028412 33:1.0 34:1.0 35:-0.78861789 36:-0.94308943 37:0.8358482 38:0.83588939 39:0.65259467 40:0.6526007 
1.0 1:0.06779659 2:0.36440678 3:0.54285714 4:0.54285714 5:-0.62878067 6:-0.67255146 7:1.0 8:1.0 9:-0.11622718 10:-0.59300989 11:0.19853678 12:0.19396058 13:-0.11111111 14:-0.11111111 15:-0.33333332 16:-0.33333332 17:3.0E-8 18:3.0E-8 19:3.0E-8 20:3.0E-8 21:-1.0 22:-1.0 25:0.33046732 26:0.33046732 27:-0.98594622 28:-1.0 29:0.54480322 30:0.44962711 31:-0.46795522 32:-0.45965302 33:-0.48246837 34:-0.48246837 35:-0.91056911 36:-0.91869919 37:-0.54717925 38:-0.54717746 39:-0.65722153 40:-0.65722656 
1.0 1:-0.18644065 2:0.06779659 3:0.61904761 4:0.61904761 5:0.02582422 6:-0.18407555 7:1.0 8:1.0 9:-0.1003265 10:-0.4472693 11:0.08420017 12:0.11242913 13:-0.55555556 14:-0.33333333 15:-0.42857144 16:-0.42857144 17:-0.14285715 18:-0.14285715 19:-0.14285715 20:-0.14285715 21:-1.0 22:-1.0 23:0.33333333 24:0.33333333 25:0.159385 26:0.27691305 27:-0.83116264 28:-0.86076962 29:0.18343544 30:0.31662756 31:-0.22012098 32:-0.19069097 33:-0.99961072 34:-0.82561719 35:-0.97560976 36:-0.94308943 37:-0.94442775 38:-0.8549168 39:-0.90515115 40:-0.9041766 
1.0 1:-0.7231638 2:-0.7231638 3:-0.82857143 4:-0.82857143 5:-0.03912082 6:-0.03912082 7:1.0 8:1.0 9:-0.11802559 10:-0.11802559 11:-0.78518283 12:-0.96497067 13:-1.0 14:-1.0 15:-1.0 16:-1.0 17:-1.0 18:-1.0 19:-1.0 20:-1.0 21:-1.0 22:-1.0 25:0.41066797 26:0.41066797 27:0.39013339 28:0.35042521 29:-0.74580453 30:-0.68763875 31:0.48412016 32:0.41853763 33:-0.84435043 34:-0.84435043 35:-0.91056911 36:-0.73170732 37:-0.86543753 38:-0.86547987 39:-0.89026491 40:-0.89015423 
1.0 1:-0.03107341 2:-0.03107341 3:0.08571429 4:0.08571429 5:-0.4949931 6:-0.4876116 7:1.0 8:1.0 9:-0.47337658 10:-0.72739348 11:0.24808362 12:-0.05890352 13:-0.11111111 14:-0.11111111 15:-0.33333332 16:-0.33333332 17:3.0E-8 18:3.0E-8 19:3.0E-8 20:3.0E-8 21:-1.0 22:-1.0 25:-0.08349862 26:-0.0150355 27:-0.78854325 28:-0.78178299 29:-0.19498475 30:0.02792494 31:-0.31901202 32:-0.34505299 33:1.0 34:1.0 35:-0.91869919 36:-0.91869919 37:0.76395297 38:0.76786989 39:0.27873519 40:0.26688254 
1.0 1:-0.27118643 2:-0.27118643 3:0.61904761 4:0.61904761 5:-0.13361471 6:-0.20326367 7:1.0 8:1.0 9:-0.38718026 10:-0.31886217 11:0.06596825 12:-0.34007729 13:0.11111111 14:0.11111111 15:-0.42857144 16:-0.42857144 17:-0.14285715 18:-0.14285715 19:-0.14285715 20:-0.14285715 21:-1.0 22:-1.0 23:0.33333333 24:0.33333333 25:0.20205463 26:-0.04580675 27:-0.84419749 28:-0.65621231 29:0.1507729 30:-0.09645704 31:-0.27711867 32:-0.26560368 33:-0.4985958 34:-0.4985958 35:-0.94308943 36:-0.92682927 37:-0.58294302 38:-0.58317516 39:-0.71929772 40:-0.71853016 
1.0 1:-0.37711864 2:-0.37711864 3:0.67346939 4:0.67346939 5:-0.22957693 6:-0.2635243 7:1.0 8:1.0 9:-0.52787459 10:-0.68294209 11:-0.67909446 12:-0.47646653 13:-0.33333333 14:-0.55555556 15:-0.5 16:-0.5 17:-0.24999999 18:-0.24999999 19:-0.24999999 20:-0.24999999 21:-1.0 22:-1.0 23:0.66666667 24:0.66666667 25:-0.23897414 26:-0.27116891 27:-0.85036985 28:-0.81351605 29:-0.21376019 30:-0.37818861 31:-0.49158672 32:-0.47231057 33:1.0 34:1.0 35:-0.98373984 36:-0.96747967 37:0.58108701 38:0.5812234 39:-0.04873068 40:-0.04913063 
1.0 1:0.29025424 2:0.29025424 3:0.02040816 4:0.02040816 5:-0.43417074 6:-0.4746477 7:1.0 8:1.0 9:-0.87229108 10:-0.96500547 11:0.30400381 12:0.04299297 13:-0.11111111 14:-0.33333333 15:-0.5 16:-0.5 17:-0.24999999 18:-0.24999999 19:-0.24999999 20:-0.24999999 21:-1.0 22:-1.0 23:0.66666667 24:0.66666667 25:-0.204989 26:-0.2494252 27:-0.89561647 28:-0.61761488 29:-0.27582156 30:-0.57157215 31:-0.37171622 32:-0.40661551 33:1.0 34:1.0 35:-0.91056911 36:-0.92682927 37:0.56139444 38:0.56274145 39:0.0403717 40:0.05124208 
1.0 1:-0.16949151 2:-0.16949151 3:0.42857143 4:0.42857143 5:-0.2893503 6:-0.2893503 7:1.0 8:1.0 9:-0.70948036 10:-0.43010484 11:-0.47528905 12:-0.47528905 13:-0.11111111 14:-0.11111111 15:-0.2 16:-0.2 17:0.20000001 18:0.20000001 19:0.20000001 20:0.20000001 21:-1.0 22:-1.0 23:-0.33333333 24:-0.33333333 25:-0.76296209 26:-0.76296209 27:-0.87728631 28:-0.88965642 29:-0.74289025 30:-0.77101676 31:-0.83932737 32:-0.83713807 33:1.0 34:1.0 35:-0.87804878 36:-0.83739837 37:0.83598003 38:0.83596688 39:0.65234715 40:0.65237733 
1.0 1:0.26553672 2:0.26553672 3:0.54285714 4:0.54285714 5:-0.44801392 6:-0.30951299 7:1.0 8:1.0 9:-0.31168731 10:-0.97690856 11:0.03318418 12:0.03318418 13:0.11111111 14:0.33333333 15:-0.33333332 16:-0.33333332 17:3.0E-8 18:3.0E-8 19:3.0E-8 20:3.0E-8 21:-1.0 22:-1.0 25:-0.5310659 26:-0.45804296 27:-0.93643301 28:-0.80655699 29:-0.54157425 30:-0.52105311 31:-0.69106532 32:-0.67303007 33:1.0 34:1.0 35:-0.86178862 36:-0.86178862 37:0.73786091 38:0.758465 39:0.3613415 40:0.29655944 
1.0 1:0.23728816 2:0.23728816 3:0.23809525 4:0.23809525 5:-0.58581314 6:-0.59906725 7:1.0 8:1.0 9:-0.36312445 10:-0.90728561 11:0.12584994 12:0.13419444 13:-0.55555556 14:-0.55555556 15:-0.42857144 16:-0.42857144 17:-0.14285715 18:-0.14285715 19:-0.14285715 20:-0.14285715 21:-1.0 22:-1.0 23:0.33333333 24:0.33333333 25:-0.22033429 26:-0.22033429 27:-0.92730564 28:-0.7360452 29:-0.21765669 30:-0.42866093 31:-0.44169277 32:-0.44859406 33:1.0 34:1.0 35:-0.97560976 36:-0.95934959 37:0.66817405 38:0.66822285 39:0.08574516 40:0.08571066 
1.0 1:0.06779659 2:0.06779659 3:0.61904761 4:0.61904761 5:-0.43819895 6:-0.43733266 7:1.0 8:1.0 9:-0.79560949 10:0.08847025 11:0.06805364 12:0.09484257 13:0.11111111 14:0.55555556 15:-0.42857144 16:-0.42857144 17:-0.14285715 18:-0.14285715 19:-0.14285715 20:-0.14285715 21:-1.0 22:-1.0 23:0.33333333 24:0.33333333 25:0.06362009 26:-0.02539038 27:-0.84002974 28:-0.91777417 29:0.00128381 30:0.21626788 31:-0.47731538 32:-0.46689514 33:-0.37399353 34:-0.37399353 35:-0.84552846 36:-0.88617886 37:-0.4873625 38:-0.48941697 39:-0.55549229 40:-0.54883434 
1.0 1:0.19962335 2:0.13370997 3:0.14285714 4:0.14285714 5:-0.13499714 6:-0.07726315 7:1.0 8:1.0 9:-0.3514025 10:-0.40437908 11:-0.03874624 12:-0.04882609 13:-0.11111111 14:0.11111111 15:-0.55555556 16:-0.55555556 17:-0.33333333 18:-0.33333333 19:-0.33333333 20:-0.33333333 21:-1.0 22:-1.0 23:1.0 24:1.0 25:-0.1246545 26:0.39465164 27:-0.82451543 28:-0.89337644 29:-0.15561032 30:0.2539879 31:-0.49644003 32:-0.48495919 33:1.0 34:1.0 35:-0.92682927 36:-0.99186992 37:0.50500471 38:0.50505989 39:-0.15245435 40:-0.15265893 
1.0 1:-0.42655367 2:-0.42655367 3:0.54285714 4:0.54285714 5:-0.23741245 6:-0.23741245 7:1.0 8:1.0 9:-0.72785494 10:-0.65122397 11:-0.43537761 12:-0.43537761 13:-0.11111111 14:-0.11111111 15:-0.33333332 16:-0.33333332 17:3.0E-8 18:3.0E-8 19:3.0E-8 20:3.0E-8 21:-1.0 22:-1.0 25:-0.23366973 26:0.31628962 27:-0.91947812 28:-0.91045353 29:-0.14033611 30:0.46416733 31:-0.76410007 32:-0.34740974 33:1.0 34:1.0 35:-0.90243902 36:-0.99186992 37:0.76656676 38:0.7656522 39:0.27079653 40:0.27355846 
1.0 1:0.06779659 2:0.06779659 3:0.61904761 4:0.61904761 5:-0.35871771 6:-0.35871771 7:1.0 8:1.0 9:-0.29886977 10:-0.39147138 11:0.04083425 12:0.04083425 13:-0.11111111 14:-0.11111111 15:-0.42857144 16:-0.42857144 17:-0.14285715 18:-0.14285715 19:-0.14285715 20:-0.14285715 21:-1.0 22:-1.0 23:0.33333333 24:0.33333333 25:-0.50963911 26:0.16522684 27:-0.8413165 28:-0.7479326 29:-0.58410582 30:-0.02183053 31:-0.62846542 32:-0.42136097 33:1.0 34:1.0 35:-0.94308943 36:-0.94308943 37:0.66212483 38:0.66213012 39:0.1070644 40:0.10704715 
1.0 1:0.06779659 2:0.06779659 3:0.61904761 4:0.61904761 5:0.05627397 6:0.05627397 7:1.0 8:1.0 9:-0.15288077 10:-0.64682541 11:-0.08140468 12:-0.07383354 13:-0.11111111 14:0.11111111 15:-0.42857144 16:-0.42857144 17:-0.14285715 18:-0.14285715 19:-0.14285715 20:-0.14285715 21:-1.0 22:-1.0 23:0.33333333 24:0.33333333 25:0.02276144 26:-0.53458472 27:-0.85229901 28:-0.91805472 29:0.11628841 30:-0.52367471 31:-0.36468756 32:-0.83305756 33:1.0 34:1.0 35:-0.90243902 36:-0.98373984 37:0.66796318 38:0.6679463 39:0.08639198 40:0.08681457 
1.0 1:0.00188327 2:0.00188327 3:-0.14285714 4:-0.14285714 5:-0.56670085 6:-0.55325906 7:1.0 8:1.0 9:-0.96500547 10:-0.59479885 11:-0.0397878 12:-0.05284104 13:-0.11111111 14:-0.11111111 15:-0.55555556 16:-0.55555556 17:-0.33333333 18:-0.33333333 19:-0.33333333 20:-0.33333333 21:-1.0 22:-1.0 23:1.0 24:1.0 25:-0.23761295 26:0.30351028 27:-0.86099626 28:-0.31935352 29:-0.32388408 30:-0.31543154 31:-0.46261003 32:-0.09741344 33:1.0 34:1.0 35:-0.90243902 36:-0.96747967 37:0.50116435 38:0.50546052 39:-0.13575197 40:-0.15420843 
1.0 1:-0.22881354 2:-0.3276836 3:1.0 4:1.0 5:-0.30981617 6:-0.30981617 8:-1.0 9:-0.46051357 10:-0.34092847 11:0.18851383 12:0.16072293 13:-1.0 14:-1.0 15:-1.0 16:-1.0 17:-1.0 18:-1.0 19:-1.0 20:-1.0 21:-1.0 22:-1.0 23:-0.66666667 24:-1.0 25:-0.07324521 26:-0.05446789 27:-0.33132717 28:-0.54720103 29:-0.44135889 30:-0.08714299 31:-0.21522339 32:-0.23955387 33:-0.99992055 34:-0.99924527 35:-0.93495935 36:-0.92682927 37:-0.99962967 38:-0.99922628 39:-0.999185 40:-0.99886555 
1.0 1:-0.28813557 2:-0.28813557 3:1.0 4:1.0 5:0.18500326 6:0.18500326 7:1.0 9:-0.26047037 10:-0.26047037 11:-0.78101761 12:-0.78101761 13:-0.77777778 14:-0.77777778 15:-0.2 16:-0.2 17:0.20000001 18:0.20000001 19:0.20000001 20:0.20000001 21:-1.0 22:-1.0 23:-0.33333333 24:-0.33333333 25:-0.63564458 26:-0.63564458 27:-0.84352938 28:-0.82100582 29:-0.65612985 30:-0.6810864 31:-0.67287843 32:-0.6670659 33:-0.8775507 34:-0.8775507 35:-0.67479675 36:-0.67479675 37:-0.88529752 38:-0.88529752 39:-0.90541074 40:-0.90541074 
1.0 1:0.21610169 2:0.21610169 3:0.23809525 4:0.23809525 5:0.4460569 6:0.4460569 8:-1.0 9:-0.38640006 10:-0.27124379 11:-0.11761341 12:-0.11761341 13:-0.77777778 14:-0.77777778 17:0.50000002 18:0.50000002 19:0.50000002 20:0.50000002 21:-1.0 22:-1.0 23:-0.66666667 24:-0.66666667 25:-0.39558933 26:-0.39558933 27:-0.59132122 28:-0.7425905 29:-0.62438277 30:-0.44151787 31:-0.46828762 32:-0.49756553 33:-1.0 34:-1.0 35:-0.91056911 36:-0.91056911 37:-0.99990343 38:-0.99990343 39:-0.99971324 40:-0.99971324 
1.0 1:0.06779659 2:0.06779659 3:0.23809525 4:0.23809525 5:0.01763787 6:0.01763787 9:-0.37196029 10:-0.41425133 11:0.16904278 12:0.16904278 13:-0.77777778 14:-0.77777778 17:0.50000002 18:0.50000002 19:0.50000002 20:0.50000002 21:-1.0 22:-1.0 23:-0.66666667 24:-0.66666667 25:0.13017583 26:0.00271761 27:-0.34510154 28:-0.34510154 29:-0.2057985 30:-0.39243043 31:-0.09951971 32:-0.13554042 33:-0.99997617 34:-0.99997617 35:-0.95934959 36:-0.82113821 37:-0.99992695 38:-1.0 39:-1.0 40:-0.99987171 
1.0 1:0.54237287 2:0.54237287 3:-0.14285714 4:-0.14285714 5:-0.31800253 6:-0.31800253 7:1.0 8:1.0 9:-0.87412971 10:-0.62710409 11:0.12581505 12:0.12581505 13:-0.77777778 14:-0.55555556 15:-0.2 16:-0.2 17:0.20000001 18:0.20000001 19:0.20000001 20:0.20000001 21:-1.0 22:-1.0 23:-0.33333333 24:-0.33333333 25:0.38600793 26:0.17524407 27:-0.54490907 28:-0.39571882 29:0.34912427 30:-0.08518013 31:-0.07694232 32:-0.06181523 33:-0.99753719 34:-0.82366283 35:-0.84552846 36:-0.74796748 37:-0.99787656 38:-0.83500033 39:-0.99665399 40:-0.86304909 
1.0 1:0.23728816 2:0.15254238 3:0.23809525 4:0.23809525 5:-0.53612803 6:-0.50672325 7:1.0 8:1.0 9:-0.39726344 10:-0.87229108 11:0.1291939 12:0.11610988 13:0.11111111 14:1.0 15:-0.42857144 16:-0.42857144 17:-0.14285715 18:-0.14285715 19:-0.14285715 20:-0.14285715 21:-1.0 22:-1.0 23:0.33333333 24:0.33333333 25:-0.0150355 26:-0.23560358 27:-0.91324039 28:-0.85456399 29:0.0668444 30:-0.2749117 31:-0.39259092 32:-0.39771436 33:-0.82831834 34:1.0 35:-0.98373984 36:-0.91869919 37:-0.85911683 38:0.64265765 39:-0.89619051 40:0.19062083 
1.0 1:0.15254238 2:0.15254238 3:-0.14285714 4:-0.14285714 5:-0.08939109 6:-0.15457869 7:1.0 8:1.0 9:-0.1351315 10:-0.1351315 11:0.16304689 12:0.16304689 13:-0.33333333 14:-0.11111111 15:-0.42857144 16:-0.42857144 17:-0.14285715 18:-0.14285715 19:-0.14285715 20:-0.14285715 21:-1.0 22:-1.0 23:0.33333333 24:0.33333333 25:0.08209298 26:0.11395753 27:-0.88771014 28:-0.78649927 29:0.16462679 30:0.15690875 31:-0.1093342 32:-0.11613952 33:-0.84610618 34:-0.96510755 35:-0.83739837 36:-0.95934959 37:-0.87420146 38:-0.96499912 39:-0.89918314 40:-0.96384806 
1.0 1:0.06779659 2:0.06779659 3:0.61904761 4:0.61904761 5:-0.0742745 6:-0.48697054 7:1.0 8:1.0 9:-0.72055986 10:-0.37635771 11:-0.03560847 12:-0.0449611 13:-0.77777778 14:-0.77777778 15:-0.42857144 16:-0.42857144 17:-0.14285715 18:-0.14285715 19:-0.14285715 20:-0.14285715 21:-1.0 22:-1.0 23:0.33333333 24:0.33333333 25:-0.09072105 26:0.13017583 27:-0.60632907 28:-0.89863077 29:-0.30087471 30:0.18529325 31:-0.26218139 32:-0.22790236 33:-0.45050746 34:-0.45050746 35:-0.94308943 36:-0.97560976 37:-0.5418828 38:-0.5419983 39:-0.70070806 40:-0.70046227 
1.0 1:-0.12994348 2:-0.12994348 3:0.54285714 4:0.54285714 5:-0.63005411 6:-0.45965672 7:1.0 8:1.0 9:-0.64965142 10:-0.80152221 11:-0.18908483 12:-0.18552088 13:-0.55555556 14:-0.77777778 15:-0.33333332 16:-0.33333332 17:3.0E-8 18:3.0E-8 19:3.0E-8 20:3.0E-8 21:-1.0 22:-1.0 25:0.02175676 26:0.28949861 27:-0.7152879 28:-0.79756784 29:0.01116701 30:0.39765839 31:-0.41156189 32:-0.38952836 33:1.0 34:1.0 35:-0.93495935 36:-0.91056911 37:0.76282695 38:0.76662756 39:0.28532558 40:0.27149078 
1.0 1:0.00188327 2:0.00188327 3:0.14285714 4:0.14285714 5:-0.4333947 6:0.44401033 7:1.0 8:1.0 9:-0.47371991 10:-0.3084975 11:-0.05939485 12:-0.04438037 13:0.33333333 14:0.33333333 15:-0.55555556 16:-0.55555556 17:-0.33333333 18:-0.33333333 19:-0.33333333 20:-0.33333333 21:-1.0 22:-1.0 23:1.0 24:1.0 25:-0.37917818 26:-0.21338162 27:-0.72666037 28:-0.71571747 29:-0.46462072 30:-0.33106308 31:-0.53795848 32:-0.52281088 33:1.0 34:1.0 35:-0.96747967 36:-0.91056911 37:0.50558421 38:0.50552244 39:-0.15438619 40:-0.15416148 
1.0 1:-0.18644065 2:-0.18644065 3:0.61904761 4:-0.52380953 5:0.12678922 6:0.12678922 7:1.0 8:1.0 9:-0.37433256 10:-0.62712159 11:-0.67217816 12:-0.67217816 13:-0.77777778 14:-0.77777778 15:-0.42857144 16:-0.42857144 17:-0.14285715 18:-0.14285715 19:-0.14285715 20:-0.14285715 21:-1.0 22:-1.0 23:0.33333333 24:0.33333333 25:-0.24305717 26:-0.2494262 27:-0.78428702 28:-0.59457014 29:-0.25586172 30:-0.44946392 31:-0.3923342 32:-0.41589378 33:-0.86362391 34:-0.86362391 35:-0.93495935 36:-0.93495935 37:-0.88731131 38:-0.886869 39:-0.92224449 40:-0.92205044 
1.0 1:0.46327685 2:0.46327685 3:1.0 4:-0.37142857 5:-0.33164644 6:-0.33164644 7:1.0 8:1.0 9:-0.26369569 10:-0.25600885 11:0.13349456 12:0.13349456 13:-0.11111111 14:-0.11111111 15:-0.33333332 16:-0.33333332 17:3.0E-8 18:3.0E-8 19:3.0E-8 20:3.0E-8 21:-1.0 22:-1.0 25:0.33046732 26:0.33046732 27:-1.0 28:-1.0 29:0.63322594 30:0.51890764 31:-0.54121195 32:-0.56349653 33:-0.48246837 34:-0.48246837 35:-0.91869919 36:-0.91056911 37:-0.54717746 38:-0.54717925 39:-0.65722656 40:-0.65722153 
1.0 1:-0.18644065 2:-0.18644065 3:-0.52380953 4:1.0 5:-0.22734628 6:-0.19854245 7:1.0 8:1.0 9:-0.34346509 10:-0.35636923 11:-0.24893615 12:-0.24893615 13:-0.11111111 14:0.11111111 15:0.14285716 16:-0.42857144 17:-0.14285715 18:-0.14285715 19:0.07142859 20:-0.14285715 21:-0.07211558 22:-1.0 23:0.33333333 24:0.33333333 25:-0.01846982 26:0.08019932 27:-0.93943403 28:-0.93166503 29:0.26244276 30:0.0768571 31:-0.60701563 32:-0.62817759 33:1.0 34:1.0 35:-0.95934959 36:-0.92682927 37:0.66766636 38:0.66589214 39:0.08822033 40:0.09358464 
1.0 1:0.00188327 2:0.00188327 3:-0.42857143 4:0.14285714 5:-0.42632008 6:-0.45110652 7:1.0 8:1.0 9:0.00378286 10:-0.60559912 11:0.04955313 12:0.05008757 13:-0.33333333 14:-0.33333333 15:-0.55555556 16:-0.55555556 17:-0.33333333 18:-0.33333333 19:-0.33333333 20:-0.33333333 21:-1.0 22:-1.0 23:1.0 24:1.0 25:-0.12018853 26:-0.08513753 27:-0.86099626 28:-0.75533442 29:-0.29103095 30:-0.25096221 31:-0.34672296 32:-0.37241714 33:1.0 34:1.0 35:-0.95934959 36:-0.96747967 37:0.50567547 38:0.50573484 39:-0.15506703 40:-0.15513746 
1.0 1:0.88347456 2:0.88347456 3:0.34693877 4:-0.63265305 5:-0.45290559 6:-0.45290559 7:1.0 8:1.0 9:-0.2093386 10:-0.46635927 11:0.26187632 12:0.26187632 13:0.11111111 14:0.33333333 17:-0.24999999 18:-0.24999999 19:-0.09999999 20:-0.12500001 21:-0.24999998 22:-0.30122873 23:0.66666667 24:0.66666667 25:-0.10349758 26:-0.56490057 27:-0.85593222 28:-0.78615242 29:-0.19928953 30:-0.72881394 31:-0.68754651 32:-0.69984119 33:-0.82583169 34:-0.82583169 35:-0.97560976 36:-0.97560976 37:-0.82862466 38:-0.82864547 39:-0.81433577 40:-0.8143169 
1.0 1:0.06779659 2:0.42372881 3:0.42857143 4:0.42857143 5:-0.57905617 6:-0.56632184 7:1.0 8:1.0 9:-0.26098509 10:0.22110901 11:0.52574375 12:0.53889448 13:-0.33333333 14:-0.33333333 15:-0.2 16:-0.2 17:0.20000001 18:0.20000001 19:0.20000001 20:0.20000001 21:-1.0 22:-1.0 23:-0.33333333 24:-0.33333333 25:-0.43294334 26:-0.47742558 27:-0.89607624 28:-0.89243731 29:-0.19639635 30:-0.32760826 31:-0.64060232 32:-0.65903534 33:-0.60135852 34:-0.60135852 35:-0.72357724 36:-0.7398374 37:-0.64377417 38:-0.64340357 39:-0.57908662 40:-0.57985935 
1.0 1:-0.3276836 2:0.26553672 3:1.0 4:1.0 5:-0.49118934 6:-0.58499885 7:1.0 8:1.0 9:-0.66682743 10:-0.64264398 11:0.13817329 12:0.10310621 13:0.11111111 14:0.11111111 15:-0.33333332 16:-0.33333332 17:3.0E-8 18:3.0E-8 19:3.0E-8 20:3.0E-8 21:-1.0 22:-1.0 25:-0.21763805 26:-0.2061643 27:-0.85229901 28:-0.87175891 29:-0.20827847 30:-0.07011758 31:-0.62222574 32:-0.61770059 33:1.0 34:1.0 35:-0.80487805 36:-0.95934959 37:0.76752557 38:0.76722443 39:0.26805976 40:0.26895524 
1.0 1:0.19962335 2:0.52919022 3:-0.42857143 4:-0.42857143 5:-0.23363762 6:-0.25751449 7:1.0 8:1.0 9:-0.51850189 10:-0.12801134 11:0.05443668 12:0.10749389 13:-0.33333333 14:-0.33333333 15:-0.55555556 16:-0.55555556 17:-0.33333333 18:-0.33333333 19:-0.33333333 20:-0.33333333 21:-1.0 22:-1.0 23:1.0 24:1.0 25:0.23280544 26:0.41957078 27:-0.58193844 28:-0.9012366 29:-0.11416982 30:0.52958348 31:0.01656311 32:-0.03519696 33:-0.86362391 34:-0.85118274 35:-0.78861789 36:-0.85365854 37:-0.89397069 38:-0.88507783 39:-0.91365661 40:-0.90925631 
1.0 1:-0.40677962 2:-0.40677962 3:1.0 4:1.0 5:-0.36302746 6:-0.42633523 7:1.0 8:1.0 9:-0.76433041 10:-0.51637095 11:-0.54850413 12:-0.01455331 13:-0.33333333 14:-0.33333333 15:-0.2 16:-0.2 17:0.20000001 18:0.20000001 19:0.20000001 20:0.20000001 21:-1.0 22:-1.0 23:-0.33333333 24:-0.33333333 25:0.00271761 26:-0.09355599 27:-0.91045353 28:-0.91045353 29:0.08676921 30:-0.02390198 31:-0.50230104 32:-0.5133561 33:1.0 34:1.0 35:-0.95934959 36:-0.93495935 37:0.88110275 38:0.87452402 39:0.52005228 40:0.53716114 
1.0 1:-0.18644065 2:-0.18644065 3:-0.14285714 4:-0.14285714 5:-0.59209369 6:-0.58568322 7:1.0 8:1.0 9:-0.52497779 10:-0.09548907 11:-0.2114222 12:0.06541672 13:0.11111111 14:-0.11111111 15:-0.42857144 16:-0.42857144 17:-0.14285715 18:-0.14285715 19:-0.14285715 20:-0.14285715 21:-1.0 22:-1.0 23:0.33333333 24:0.33333333 25:0.01182176 26:0.01182176 27:-0.81219076 28:-0.75453281 29:-0.18755497 30:-0.22068807 31:-0.30272514 32:-0.26601878 33:1.0 34:1.0 35:-0.96747967 36:-0.97560976 37:0.66671704 38:0.66779217 39:0.11631395 40:0.08722854 
1.0 1:-0.76271184 2:-0.76271184 3:-0.14285714 4:-0.14285714 5:-0.16137035 6:-0.16137035 7:1.0 8:1.0 9:-0.2167021 10:-0.81534294 11:-0.49166411 12:-0.49166411 13:-0.55555556 14:-0.55555556 15:-0.2 16:-0.2 17:0.20000001 18:0.20000001 19:0.20000001 20:0.20000001 21:-1.0 22:-1.0 23:-0.33333333 24:-0.33333333 25:-0.03320287 26:-0.03320287 27:-0.11293215 28:-0.0221706 29:-0.67318546 30:-0.79518221 31:0.01695627 32:0.07148639 33:-0.98979126 34:-0.98979126 35:-0.94308943 36:-0.62601626 37:-0.9908905 38:-0.99100385 39:-0.99074377 40:-0.99049625 
1.0 1:-0.40677962 2:-0.40677962 3:1.0 4:1.0 5:-0.36302746 6:-0.36302746 7:1.0 8:1.0 9:-0.90767147 10:-0.69143637 11:-0.54850413 12:-0.54850413 13:-0.55555556 14:-0.55555556 15:-0.2 16:-0.2 17:0.20000001 18:0.20000001 19:0.20000001 20:0.20000001 21:-1.0 22:-1.0 23:-0.33333333 24:-0.33333333 25:0.23027407 26:-0.41197468 27:-0.86659153 28:-0.78555857 29:0.24167481 30:-0.43999654 31:-0.25706533 32:-0.6716558 33:-0.76700232 34:-0.76700232 35:-0.8699187 36:-0.88617886 37:-0.78102998 38:-0.78108414 39:-0.82202163 40:-0.82188277 
1.0 1:-0.12994348 2:-0.0640301 3:-0.42857143 4:-0.42857143 5:-0.53761219 6:-0.58239594 7:1.0 8:1.0 9:-0.07119716 10:-0.69660489 11:0.07392466 12:0.11590059 13:-0.11111111 14:0.11111111 15:-0.55555556 16:-0.55555556 17:-0.33333333 18:-0.33333333 19:-0.33333333 20:-0.33333333 21:-1.0 22:-1.0 23:1.0 24:1.0 25:0.34924465 26:-0.08349862 27:-0.97431687 28:-0.97431687 29:0.13253091 30:0.03162335 31:-0.01852794 32:-0.54996615 33:1.0 34:1.0 35:-0.97560976 36:-0.91056911 37:0.49312431 38:0.49089656 39:-0.08325353 40:-0.0749057 
1.0 1:-0.22881354 2:-0.3276836 3:1.0 4:1.0 5:-0.30981617 6:-0.30981617 8:-1.0 9:-0.46051357 10:-0.34092847 11:0.18851383 12:0.16072293 13:-1.0 14:-1.0 15:-1.0 16:-1.0 17:-1.0 18:-1.0 19:-1.0 20:-1.0 21:-1.0 22:-1.0 23:-0.66666667 24:-1.0 25:-0.07324521 26:-0.05446789 27:-0.33132717 28:-0.54720103 29:-0.44135889 30:-0.08714299 31:-0.21522339 32:-0.23955387 33:-0.99992055 34:-0.99924527 35:-0.93495935 36:-0.92682927 37:-0.99962967 38:-0.99922628 39:-0.999185 40:-0.99886555 
1.0 1:-0.28813557 2:-0.28813557 3:1.0 4:1.0 5:0.18500326 6:0.18500326 8:1.0 9:-0.26047037 10:-0.26047037 11:-0.78101761 12:-0.78101761 13:-0.77777778 14:-0.77777778 15:-0.2 16:-0.2 17:0.20000001 18:0.20000001 19:0.20000001 20:0.20000001 21:-1.0 22:-1.0 23:-0.33333333 24:-0.33333333 25:-0.63564458 26:-0.63564458 27:-0.82100582 28:-0.84352938 29:-0.6810864 30:-0.65612985 31:-0.6670659 32:-0.67287843 33:-0.8775507 34:-0.8775507 35:-0.67479675 36:-0.67479675 37:-0.88529752 38:-0.88529752 39:-0.90541074 40:-0.90541074 
1.0 1:0.21610169 2:0.21610169 3:0.23809525 4:0.23809525 5:0.4460569 6:0.4460569 8:-1.0 9:-0.38640006 10:-0.27124379 11:-0.11761341 12:-0.11761341 13:-0.77777778 14:-0.77777778 17:0.50000002 18:0.50000002 19:0.50000002 20:0.50000002 21:-1.0 22:-1.0 23:-0.66666667 24:-0.66666667 25:-0.39558933 26:-0.39558933 27:-0.59132122 28:-0.7425905 29:-0.62438277 30:-0.44151787 31:-0.46828762 32:-0.49756553 33:-1.0 34:-1.0 35:-0.91056911 36:-0.91056911 37:-0.99990343 38:-0.99990343 39:-0.99971324 40:-0.99971324 
1.0 1:0.06779659 2:0.06779659 3:0.23809525 4:0.23809525 5:0.01763787 6:0.01763787 9:-0.41425133 10:-0.37196029 11:0.16904278 12:0.16904278 13:-0.77777778 14:-0.77777778 17:0.50000002 18:0.50000002 19:0.50000002 20:0.50000002 21:-1.0 22:-1.0 23:-0.66666667 24:-0.66666667 25:0.00271761 26:0.13017583 27:-0.34510154 28:-0.34510154 29:-0.39243043 30:-0.2057985 31:-0.13554042 32:-0.09951971 33:-0.99997617 34:-0.99997617 35:-0.82113821 36:-0.95934959 37:-1.0 38:-0.99992695 39:-0.99987171 40:-1.0 
1.0 1:-0.05084746 2:-0.05084746 3:0.42857143 4:0.42857143 5:-0.70931012 6:-0.70931012 7:1.0 8:1.0 9:-0.42804858 10:-0.30429087 11:-0.17732112 12:-0.17732112 13:-1.0 14:-0.77777778 15:-1.0 16:-0.2 17:-1.0 18:0.20000001 19:-1.0 20:0.20000001 21:-1.0 22:-1.0 23:-0.33333333 24:-0.33333333 25:0.32610358 26:0.30755519 27:0.24593992 28:0.22127479 29:-0.68783826 30:-0.65444726 31:0.37323034 32:0.35798373 33:-0.99903077 34:-0.88991241 35:-0.8699187 36:-0.86178862 37:-0.99928517 38:-0.8998666 39:-0.99849528 40:-0.87288941 
1.0 1:0.54237287 2:0.54237287 3:-0.14285714 4:-0.14285714 5:-0.31800253 6:-0.31800253 7:1.0 8:1.0 9:-0.62710409 10:-0.87412971 11:0.12581505 12:0.12581505 13:-0.55555556 14:-0.77777778 15:-0.2 16:-0.2 17:0.20000001 18:0.20000001 19:0.20000001 20:0.20000001 21:-1.0 22:-1.0 23:-0.33333333 24:-0.33333333 25:0.17524407 26:0.38600793 27:-0.39571882 28:-0.54490907 29:-0.08518013 30:0.34912427 31:-0.06181523 32:-0.07694232 33:-0.82366283 34:-0.99753719 35:-0.74796748 36:-0.84552846 37:-0.83500033 38:-0.99787656 39:-0.86304909 40:-0.99665399 
1.0 1:0.15254238 2:0.23728816 3:0.23809525 4:0.23809525 5:-0.50672325 6:-0.53612803 7:1.0 8:1.0 9:-0.87229108 10:-0.39726344 11:0.11610988 12:0.1291939 13:1.0 14:0.11111111 15:-0.42857144 16:-0.42857144 17:-0.14285715 18:-0.14285715 19:-0.14285715 20:-0.14285715 21:-1.0 22:-1.0 23:0.33333333 24:0.33333333 25:-0.23560358 26:-0.0150355 27:-0.85456399 28:-0.91324039 29:-0.2749117 30:0.0668444 31:-0.39771436 32:-0.39259092 33:1.0 34:-0.82831834 35:-0.91869919 36:-0.98373984 37:0.64265765 38:-0.85911683 39:0.19062083 40:-0.89619051 
1.0 1:0.15254238 2:0.15254238 3:-0.14285714 4:-0.14285714 5:-0.08939109 6:-0.15457869 7:1.0 8:1.0 9:-0.1351315 10:-0.1351315 11:0.16304689 12:0.16304689 13:-0.33333333 14:-0.11111111 15:-0.42857144 16:-0.42857144 17:-0.14285715 18:-0.14285715 19:-0.14285715 20:-0.14285715 21:-1.0 22:-1.0 23:0.33333333 24:0.33333333 25:0.08209298 26:0.11395753 27:-0.88771014 28:-0.78649927 29:0.16462679 30:0.15690875 31:-0.1093342 32:-0.11613952 33:-0.84610618 34:-0.96510755 35:-0.83739837 36:-0.95934959 37:-0.87420146 38:-0.96499912 39:-0.89918314 40:-0.96384806 
1.0 1:0.54237287 2:0.54237287 3:1.0 4:1.0 5:-0.86414282 6:-0.55069654 7:1.0 8:1.0 9:-0.52966435 10:-0.60783289 11:0.1439002 12:0.10409039 13:-1.0 14:-1.0 15:-1.0 16:-1.0 17:-1.0 18:-1.0 19:-1.0 20:-1.0 21:-1.0 22:-1.0 23:-0.33333333 24:-0.33333333 25:-0.03136361 26:0.09715676 27:-0.70787029 28:-0.77038524 29:-0.02911603 30:0.19498535 31:-0.40656225 32:-0.39484423 33:-0.97738982 34:-0.97738982 35:-0.97560976 36:-0.96747967 37:-0.97888865 38:-0.97903203 39:-0.98176674 40:-0.98176071 
1.0 1:0.1864407 2:0.1864407 3:0.42857143 4:0.42857143 5:-0.48516946 6:-0.19100659 7:1.0 8:1.0 9:-0.35382982 10:-0.60241543 11:-0.40992925 12:-0.43067126 13:-0.77777778 14:-0.77777778 15:-0.2 16:-0.2 17:0.20000001 18:0.20000001 19:0.20000001 20:0.20000001 21:-1.0 22:-1.0 23:-0.33333333 24:-0.33333333 25:-0.29716489 26:-0.29716489 27:-0.56986283 28:-0.41671365 29:-0.5598849 30:-0.67311705 31:-0.32849392 32:-0.33879134 33:-0.95479553 34:-0.95479553 35:-0.6097561 36:-0.62601626 37:-0.95871528 38:-0.95885364 39:-0.96215856 40:-0.96183256 
1.0 1:0.06779659 2:0.06779659 3:0.61904761 4:0.61904761 5:-0.0742745 6:-0.48697054 7:1.0 8:1.0 9:-0.72055986 10:-0.37635771 11:-0.03560847 12:-0.0449611 13:-0.77777778 14:-0.77777778 15:-0.42857144 16:-0.42857144 17:-0.14285715 18:-0.14285715 19:-0.14285715 20:-0.14285715 21:-1.0 22:-1.0 23:0.33333333 24:0.33333333 25:-0.09072105 26:0.13017583 27:-0.60632907 28:-0.89863077 29:-0.30087471 30:0.18529325 31:-0.26218139 32:-0.22790236 33:-0.45050746 34:-0.45050746 35:-0.94308943 36:-0.97560976 37:-0.5418828 38:-0.5419983 39:-0.70070806 40:-0.70046227 
1.0 1:-0.12994348 2:-0.12994348 3:0.54285714 4:0.54285714 5:-0.63005411 6:-0.45965672 7:1.0 8:1.0 9:-0.64965142 10:-0.80152221 11:-0.18908483 12:-0.18552088 13:-0.55555556 14:-0.77777778 15:-0.33333332 16:-0.33333332 17:3.0E-8 18:3.0E-8 19:3.0E-8 20:3.0E-8 21:-1.0 22:-1.0 25:0.02175676 26:0.28949861 27:-0.7152879 28:-0.79756784 29:0.01116701 30:0.39765839 31:-0.41156189 32:-0.38952836 33:1.0 34:1.0 35:-0.93495935 36:-0.91056911 37:0.76282695 38:0.76662756 39:0.28532558 40:0.27149078 
1.0 1:0.00188327 2:0.00188327 3:0.14285714 4:0.14285714 5:-0.4333947 6:0.44401033 7:1.0 8:1.0 9:-0.47371991 10:-0.3084975 11:-0.05939485 12:-0.04438037 13:0.33333333 14:0.33333333 15:-0.55555556 16:-0.55555556 17:-0.33333333 18:-0.33333333 19:-0.33333333 20:-0.33333333 21:-1.0 22:-1.0 23:1.0 24:1.0 25:-0.37917818 26:-0.21338162 27:-0.72666037 28:-0.71571747 29:-0.46462072 30:-0.33106308 31:-0.53795848 32:-0.52281088 33:1.0 34:1.0 35:-0.96747967 36:-0.91056911 37:0.50558421 38:0.50552244 39:-0.15438619 40:-0.15416148 
1.0 1:-0.18644065 2:-0.18644065 3:0.61904761 4:-0.52380953 5:0.12678922 6:0.12678922 7:1.0 8:1.0 9:-0.37433256 10:-0.62712159 11:-0.67217816 12:-0.67217816 13:-0.77777778 14:-0.77777778 15:-0.42857144 16:-0.42857144 17:-0.14285715 18:-0.14285715 19:-0.14285715 20:-0.14285715 21:-1.0 22:-1.0 23:0.33333333 24:0.33333333 25:-0.24305717 26:-0.2494262 27:-0.78428702 28:-0.59457014 29:-0.25586172 30:-0.44946392 31:-0.3923342 32:-0.41589378 33:-0.86362391 34:-0.86362391 35:-0.93495935 36:-0.93495935 37:-0.88731131 38:-0.886869 39:-0.92224449 40:-0.92205044 
1.0 1:0.46327685 2:0.46327685 3:1.0 4:-0.37142857 5:-0.33164644 6:-0.33164644 7:1.0 8:1.0 9:-0.26369569 10:-0.25600885 11:0.13349456 12:0.13349456 13:-0.11111111 14:-0.11111111 15:-0.33333332 16:-0.33333332 17:3.0E-8 18:3.0E-8 19:3.0E-8 20:3.0E-8 21:-1.0 22:-1.0 25:0.33046732 26:0.33046732 27:-1.0 28:-1.0 29:0.63322594 30:0.51890764 31:-0.54121195 32:-0.56349653 33:-0.48246837 34:-0.48246837 35:-0.91869919 36:-0.91056911 37:-0.54717746 38:-0.54717925 39:-0.65722656 40:-0.65722153 
1.0 1:-0.18644065 2:-0.18644065 3:1.0 4:-0.52380953 5:-0.19854245 6:-0.22734628 7:1.0 8:1.0 9:-0.35636923 10:-0.34346509 11:-0.24893615 12:-0.24893615 13:0.11111111 14:-0.11111111 15:-0.42857144 16:0.14285716 17:-0.14285715 18:-0.14285715 19:-0.14285715 20:0.07142859 21:-1.0 22:-0.07211558 23:0.33333333 24:0.33333333 25:0.08019932 26:-0.01846982 27:-0.93166503 28:-0.93943403 29:0.0768571 30:0.26244276 31:-0.62817759 32:-0.60701563 33:1.0 34:1.0 35:-0.92682927 36:-0.95934959 37:0.66589214 38:0.66766636 39:0.09358464 40:0.08822033 
1.0 1:0.88347456 2:0.88347456 3:0.34693877 4:-0.63265305 5:-0.45290559 6:-0.45290559 7:1.0 8:1.0 9:-0.2093386 10:-0.46635927 11:0.26187632 12:0.26187632 13:0.11111111 14:0.33333333 17:-0.24999999 18:-0.24999999 19:-0.09999999 20:-0.12500001 21:-0.24999998 22:-0.30122873 23:0.66666667 24:0.66666667 25:-0.10349758 26:-0.56490057 27:-0.85593222 28:-0.78615242 29:-0.19928953 30:-0.72881394 31:-0.68754651 32:-0.69984119 33:-0.82583169 34:-0.82583169 35:-0.97560976 36:-0.97560976 37:-0.82862466 38:-0.82864547 39:-0.81433577 40:-0.8143169 
1.0 1:0.06779659 2:0.42372881 3:0.42857143 4:0.42857143 5:-0.57905617 6:-0.56632184 7:1.0 8:1.0 9:-0.26098509 10:0.22110901 11:0.52574375 12:0.53889448 13:-0.33333333 14:-0.33333333 15:-0.2 16:-0.2 17:0.20000001 18:0.20000001 19:0.20000001 20:0.20000001 21:-1.0 22:-1.0 23:-0.33333333 24:-0.33333333 25:-0.43294334 26:-0.47742558 27:-0.89607624 28:-0.89243731 29:-0.19639635 30:-0.32760826 31:-0.64060232 32:-0.65903534 33:-0.60135852 34:-0.60135852 35:-0.72357724 36:-0.7398374 37:-0.64377417 38:-0.64340357 39:-0.57908662 40:-0.57985935 
