svm_type c_svc
kernel_type rbf
gamma 0.025
nr_class 2
total_sv 204
rho 0.0
label 0 1
nr_sv 102 102
SV
1.0 1:0.09090908 2:0.09090908 3:1.0 4:1.0 5:0.59156818 6:0.48946023 7:1.0 9:-0.30950265 10:0.32377142 11:-0.1125172 12:-0.10181382 13:-0.14285714 14:-0.14285714 15:-0.2 17:0.20000001 18:0.50000002 19:0.20000001 20:0.50000002 21:-1.0 22:-1.0 23:-0.33333333 24:-0.66666667 25:-0.80022115 26:-0.80022115 27:-0.84088148 28:-0.84088148 29:-0.65723641 30:-0.5712624 31:-0.85549298 32:-0.85713247 33:-0.99963454 34:-0.99963454 35:-0.55238095 36:-0.55238095 37:-0.99999039 38:-0.99996079 39:-0.99841304 40:-0.99839795 
1.0 1:0.69696973 2:0.69696973 3:1.0 4:1.0 5:-0.83910352 6:-0.79849238 7:1.0 9:-0.62447254 10:-0.46089475 11:0.03335229 12:0.03126109 13:-0.42857143 14:-0.71428571 15:-0.2 17:0.20000001 18:0.50000002 19:0.20000001 20:0.50000002 21:-1.0 22:-1.0 23:-0.33333333 24:-0.66666667 25:-0.74436389 26:-0.5221663 27:-0.78095484 28:-0.75903403 29:-0.60278696 30:-0.33796299 31:-0.61150419 32:-0.60194598 33:-0.8283837 34:-0.87761782 35:-0.4952381 36:-0.8 37:-0.84040632 38:-0.87834508 39:-0.86413662 40:-0.88122078 
1.0 1:0.09090908 2:0.09090908 3:1.0 4:1.0 5:-0.11680576 6:-0.11680576 8:-1.0 9:-0.80435334 10:-0.36497229 11:0.06529373 12:0.06529373 13:-0.14285714 14:-0.14285714 17:0.50000002 18:0.50000002 19:0.50000002 20:0.50000002 21:-1.0 22:-1.0 23:-0.66666667 24:-0.66666667 25:-0.71571496 26:-0.71571496 27:-0.9022099 28:-0.82990267 29:-0.4454924 30:-0.50409598 31:-0.78278406 32:-0.75787741 33:1.0 34:1.0 35:-0.84761905 36:-0.84761905 37:1.0 38:1.0 39:0.90130312 40:0.90130312 
1.0 1:0.49494951 2:0.49494951 3:-0.37142857 4:-0.37142857 5:-0.34962134 6:-0.33712797 7:1.0 9:-0.87412971 10:-0.87412971 11:0.04134577 12:0.04134577 13:-0.42857143 14:-0.71428571 15:-0.33333332 16:-0.33333332 17:3.0E-8 18:3.0E-8 19:3.0E-8 20:3.0E-8 21:-1.0 22:-1.0 25:0.14653933 26:0.51304179 27:-0.1144603 28:-0.33051549 29:-0.19556712 30:0.22596098 31:0.47836089 32:0.49138464 33:-0.85124893 34:-0.85124893 35:-0.97142857 36:-0.94285714 37:-0.8691277 38:-0.86909905 39:-0.90415008 40:-0.90413499 
1.0 1:0.09090908 2:0.09090908 3:1.0 4:1.0 5:-0.60820029 6:-0.62947277 7:1.0 8:1.0 9:-0.47056143 10:-0.15009876 11:0.15224936 12:0.11060158 13:-0.14285714 14:-0.14285714 15:-0.2 16:-0.2 17:0.20000001 18:0.20000001 19:0.20000001 20:0.20000001 21:-1.0 22:-1.0 23:-0.33333333 24:-0.33333333 25:-0.17821482 26:-0.22312409 27:-0.48425407 28:-0.81246289 29:-0.18211185 30:-0.08217372 31:-0.28396202 32:-0.31243511 33:-0.97509295 34:-0.97509295 35:-0.95238095 36:-0.95238095 37:-0.97679009 38:-0.9241132 39:-0.98072968 40:-0.84787203 
1.0 1:-0.42857141 2:-0.42857141 3:-0.14285714 4:-0.14285714 5:-0.4738797 6:-0.4738797 7:1.0 8:1.0 9:-0.40230887 10:-0.47091378 11:-0.65189356 12:-0.65189356 13:-0.71428571 14:-0.71428571 15:-0.42857144 16:-0.42857144 17:-0.14285715 18:-0.14285715 19:-0.14285715 20:-0.14285715 21:-1.0 22:-1.0 23:0.33333333 24:0.33333333 25:0.35306762 26:0.27532468 27:-0.1605281 28:-0.40289769 29:-0.12397923 30:0.01553647 31:0.22239894 32:0.20862152 33:-0.9991499 34:-0.97030222 35:-0.94285714 36:-0.84761905 37:-0.99914962 38:-0.97550399 39:-0.99865885 40:-0.98286259 
1.0 1:-0.44781144 2:-0.44781144 3:-0.42857143 4:-0.42857143 5:-0.35873812 6:-0.3827119 7:1.0 8:1.0 9:-0.31648979 10:-0.11399537 11:-0.66933508 12:-0.66933508 13:-1.0 14:-0.71428571 15:-1.0 16:-0.55555556 17:-1.0 18:-0.33333333 19:-1.0 20:-0.33333333 21:-1.0 22:-1.0 23:1.0 24:1.0 25:0.24089565 26:0.43350544 27:-0.16843049 28:-0.13692243 29:-0.29927867 30:-0.23709263 31:0.61759052 32:0.71424197 33:-0.98676391 34:-0.97133505 35:-0.93333333 36:-0.92380952 37:-0.99024882 38:-0.97866989 39:-0.9938146 40:-0.98722049 
1.0 1:-0.27272724 2:-0.27272724 3:1.0 4:1.0 5:-0.98837008 6:-0.65287252 7:1.0 8:1.0 9:-0.5296606 10:-0.55242031 11:-0.1780588 12:-0.15141852 13:-0.42857143 14:-0.42857143 15:-0.2 16:-0.2 17:0.20000001 18:0.20000001 19:0.20000001 20:0.20000001 21:-1.0 22:-1.0 23:-0.33333333 24:-0.33333333 25:-0.48529946 26:-0.48529946 27:-0.77517902 28:-0.61562947 29:-0.18058867 30:-0.49244275 31:-0.51833637 32:-0.53901329 33:1.0 34:1.0 35:-0.97142857 36:-0.99047619 37:0.88078528 38:0.88079 39:0.52088897 40:0.5208769 
1.0 1:0.09090908 2:0.09090908 3:-0.14285714 4:-0.14285714 5:-0.55086586 6:-0.76359078 7:1.0 8:1.0 9:-0.70948036 10:-0.70948036 11:-0.41536213 12:-0.43928419 13:-0.14285714 14:-0.14285714 15:-0.42857144 16:-0.42857144 17:-0.14285715 18:-0.14285715 19:-0.14285715 20:-0.14285715 21:-1.0 22:-1.0 23:0.33333333 24:0.33333333 25:-0.56944226 26:-0.71937509 27:-0.5761285 28:-0.5761285 29:-0.67406375 30:-0.81011745 31:-0.54963386 32:-0.55935513 33:-0.78828614 34:-0.78828614 35:-0.92380952 36:-0.8 37:-0.80181247 38:-0.80184834 39:-0.72447748 40:-0.72442142 
1.0 1:0.17748919 2:0.17748919 3:0.61904761 4:0.61904761 5:-0.85350442 6:0.05624428 7:1.0 8:1.0 9:-0.58313866 10:-0.35365057 11:0.10035992 12:0.09630145 13:0.42857143 14:0.42857143 15:-0.42857144 16:-0.42857144 17:-0.14285715 18:-0.14285715 19:-0.14285715 20:-0.14285715 21:-1.0 22:-1.0 23:0.33333333 24:0.33333333 25:-0.16256906 26:0.02131661 27:-0.92921019 28:-0.83704715 29:0.04731866 30:0.04080405 31:-0.52565921 32:-0.51951093 33:1.0 34:1.0 35:-0.97142857 36:-0.8952381 37:0.65326697 38:0.66779588 39:0.14302754 40:0.08700105 
1.0 1:0.15824915 2:0.09090908 3:0.42857143 4:0.34693877 5:-0.81248477 6:0.00402778 7:1.0 8:1.0 9:-0.40359563 10:-0.09796325 11:-0.09319616 12:-0.06745557 13:0.71428571 14:0.42857143 15:-0.55555556 17:-0.33333333 18:-0.24999999 19:-0.33333333 20:-0.09999999 21:-1.0 22:-0.24999998 23:1.0 24:0.66666667 25:-0.61853627 26:-0.80843354 27:-0.84506459 28:-0.90134147 29:-0.39755449 30:-0.61691169 31:-0.76804118 32:-0.78861456 33:1.0 34:1.0 35:-0.94285714 36:-0.95238095 37:0.47653601 38:0.58105742 39:0.00766229 40:-0.048521 
1.0 1:-0.51515151 2:-0.51515151 3:-0.14285714 4:0.42857143 5:-0.52462978 6:-0.52462978 7:1.0 8:1.0 9:-0.41376727 10:-0.59699579 11:-0.95411012 12:-0.95411012 13:-0.71428571 14:-0.71428571 15:-0.2 16:-0.2 17:0.20000001 18:0.20000001 19:0.20000001 20:0.20000001 21:-1.0 22:-1.0 23:-0.33333333 24:-0.33333333 25:-0.67916027 26:-0.45768025 27:-0.3030146 28:-0.51238625 29:-0.92121 30:-0.55433148 31:-0.46836595 32:-0.43392135 33:-0.92996631 34:-0.92996631 35:-0.94285714 36:-0.94285714 37:-0.934604 38:-0.93451228 39:-0.94580368 40:-0.94538711 
1.0 1:-0.16883113 2:-0.16883113 3:-0.52380953 4:0.61904761 5:-0.62736965 6:-0.62736965 7:1.0 8:1.0 9:-0.7877015 10:-0.67327808 11:-0.14373086 12:-0.14373086 13:-0.42857143 14:-0.42857143 15:-0.42857144 16:-0.42857144 17:-0.14285715 18:-0.14285715 19:-0.14285715 20:-0.14285715 21:-1.0 22:-1.0 23:0.33333333 24:0.33333333 25:0.18546594 26:0.16426333 27:-0.57448011 28:-0.75154798 29:0.35312844 30:0.34950898 31:-0.13976488 32:-0.18964721 33:1.0 34:1.0 35:-0.62857143 36:-0.85714286 37:0.64110134 38:0.64204174 39:0.20599697 40:0.20581154 
1.0 1:0.00432903 2:0.00432903 3:1.0 4:-0.14285714 5:0.01755823 6:0.01755823 7:1.0 8:1.0 9:-0.31949816 10:0.02811115 11:-0.03813736 12:-0.03813736 13:0.14285714 14:0.14285714 15:-0.42857144 16:-0.42857144 17:-0.14285715 18:-0.14285715 19:-0.14285715 20:-0.14285715 21:-1.0 22:-1.0 23:0.33333333 24:0.33333333 25:0.00100313 26:0.00100313 27:-0.7990202 28:-0.7990202 29:0.02144719 30:0.06331936 31:-0.48054599 32:-0.49042914 33:1.0 34:1.0 35:-0.99047619 36:-0.86666667 37:0.66803322 38:0.66793379 39:0.08631107 40:0.08636713 
1.0 1:-0.51515151 2:-0.15151513 3:0.42857143 4:0.42857143 5:-0.69480971 6:-0.75274273 7:1.0 8:1.0 9:-0.72739348 10:-0.47337658 11:0.09068427 12:0.13871042 13:-0.42857143 14:-0.42857143 15:-0.2 16:-0.2 17:0.20000001 18:0.20000001 19:0.20000001 20:0.20000001 21:-1.0 22:-1.0 23:-0.33333333 24:-0.33333333 25:-0.01073822 26:-0.01073822 27:-0.3816802 28:-0.53922043 29:-0.17046125 30:-0.03618725 31:0.13227765 32:0.09157839 33:-0.37404265 34:-0.37404265 35:-0.97142857 36:-0.72380952 37:-0.37298632 38:-0.37307484 39:-0.14262649 40:-0.14260838 
1.0 1:-0.01010097 2:0.39393941 3:1.0 4:1.0 5:-0.71861465 6:-0.69119062 7:1.0 8:1.0 9:-0.21725219 10:-0.39563291 11:0.14332084 12:0.16084358 13:0.14285714 14:0.14285714 15:-0.33333332 16:-0.33333332 17:3.0E-8 18:3.0E-8 19:3.0E-8 20:3.0E-8 21:-1.0 22:-1.0 25:-0.32700022 26:-0.3489871 27:-0.9249725 28:-0.90134147 29:-0.12190953 30:-0.1423555 31:-0.77018385 32:-0.79436882 33:1.0 34:1.0 35:-0.99047619 36:-0.97142857 37:0.73175878 38:0.73175495 39:0.40257124 40:0.40258131 
1.0 1:0.00432903 2:-0.3131313 3:1.0 4:1.0 5:-0.44204333 6:-0.35272779 7:1.0 8:1.0 9:-0.72534927 10:-0.52370438 11:-0.34808167 12:-0.40528812 13:0.42857143 14:-0.14285714 15:-0.42857144 16:-0.33333332 17:-0.14285715 18:3.0E-8 19:-0.14285715 20:3.0E-8 21:-1.0 22:-1.0 23:0.33333333 25:-0.097243 26:-0.48809146 27:-0.93914765 28:-0.77012411 29:0.24581528 30:-0.37172533 31:-0.41434724 32:-0.36425399 33:-0.37404265 34:-0.37404265 35:-0.8952381 36:-0.8952381 37:-0.48706227 38:-0.44844712 39:-0.56035246 40:-0.59745334 
1.0 1:-0.04377101 2:-0.38047137 3:0.42857143 4:0.42857143 5:-0.49135354 6:-0.45362018 7:1.0 8:1.0 9:-0.71783065 10:-0.68294209 11:-0.50395627 12:-0.49628737 13:0.14285714 14:-0.42857143 15:-0.55555556 16:-0.55555556 17:-0.33333333 18:-0.33333333 19:-0.33333333 20:-0.33333333 21:-1.0 22:-1.0 23:1.0 24:1.0 25:-0.27461251 26:-0.36984491 27:-0.79595868 28:-0.59190656 29:-0.23405304 30:-0.53478495 31:-0.45133124 32:-0.45099513 33:1.0 34:1.0 35:-0.9047619 36:-0.97142857 37:0.4972595 38:0.50562798 39:-0.11729382 40:-0.1547924 
1.0 1:0.09090908 2:-0.21212119 3:0.34693877 4:0.34693877 5:-0.65856032 6:-0.64738797 7:1.0 8:1.0 9:-0.73708583 10:-0.60919099 11:-0.28244467 12:-0.32140878 13:-0.14285714 14:-0.42857143 15:-0.5 16:-0.5 17:-0.24999999 18:-0.24999999 19:-0.24999999 20:-0.24999999 21:-1.0 22:-1.0 23:0.66666667 24:0.66666667 25:0.13115457 26:0.35363716 27:-0.54094986 28:-0.71098427 29:-0.14874477 30:0.23750563 31:-0.04910634 32:-0.11111341 33:1.0 34:1.0 35:-0.96190476 36:-0.97142857 37:0.57104528 38:0.58067014 39:-0.00669735 40:-0.04720034 
1.0 1:0.33333335 2:0.33333335 3:-0.71428571 4:-0.71428571 5:-0.3529304 6:-0.3529304 7:1.0 8:1.0 9:0.22220503 10:0.22220503 11:0.31462302 12:0.06876143 13:0.14285714 14:0.14285714 15:-0.2 16:-0.2 17:0.20000001 18:0.20000001 19:0.20000001 20:0.20000001 21:-1.0 22:-1.0 23:-0.33333333 24:-0.33333333 25:-0.04783811 26:-0.16899595 27:0.35426183 28:0.35426183 29:-0.78994948 30:-0.92200934 31:0.34343351 32:0.25886362 33:-0.97551403 34:-0.97551403 35:-0.87619048 36:-0.81904762 37:-0.97830326 38:-0.97832629 39:-0.97078619 40:-0.97074996 
1.0 1:0.21212124 2:0.21212124 3:-0.14285714 4:-0.14285714 5:-0.72185617 6:-0.691163 7:1.0 8:1.0 9:-0.7877015 10:-0.7877015 11:-0.13823724 12:0.42212988 13:0.14285714 14:0.14285714 15:-0.2 16:-0.2 17:0.20000001 18:0.20000001 19:0.20000001 20:0.20000001 21:-1.0 22:-1.0 23:-0.33333333 24:-0.33333333 25:-0.86517007 26:-0.65259219 27:-0.7990202 28:-0.81163743 29:-0.74121337 30:-0.50581269 31:-0.7682243 32:-0.79143142 33:1.0 34:1.0 35:-0.9047619 36:-0.79047619 37:0.86566619 38:0.86379265 39:0.56120027 40:0.5664105 
1.0 1:1.0 2:1.0 3:-0.37142857 4:-0.37142857 5:-0.6728938 6:-0.6728938 7:1.0 8:1.0 9:-1.0 10:-0.46635927 11:0.72105842 12:0.37102269 13:0.42857143 14:0.42857143 15:1.0 16:1.0 17:3.0E-8 18:3.0E-8 19:0.39999999 20:0.39999999 21:1.0 22:1.0 25:0.48960362 26:0.37298921 27:-0.59952275 28:-0.59952275 29:0.59118607 30:0.43867651 31:0.07621885 32:0.01091533 33:-0.8283837 34:-0.8283837 35:-0.98095238 36:-0.99047619 37:-0.85277805 38:-0.85276733 39:-0.86284463 40:-0.86286475 
1.0 1:0.00432903 2:0.00432903 3:-0.14285714 4:-0.14285714 5:-0.13453282 6:-0.22135932 7:1.0 8:1.0 9:-0.662821 10:-0.35371988 11:0.19686595 12:-0.03049468 13:-0.42857143 14:-0.71428571 15:-0.42857144 16:-0.42857144 17:-0.14285715 18:-0.14285715 19:-0.14285715 20:-0.14285715 21:-1.0 22:-1.0 23:0.33333333 24:0.33333333 25:0.46110003 26:0.630721 27:-0.58247375 28:-0.58247375 29:0.430044 30:0.35321102 31:0.02916531 32:-0.03661126 33:-0.92465122 34:-0.92465122 35:-0.98095238 36:-0.98095238 37:-0.93731302 38:-0.93723068 39:-0.95895042 40:-0.95923072 
1.0 1:-0.04377101 2:-0.04377101 3:0.71428571 4:0.71428571 5:-0.19109065 6:-0.11188158 7:1.0 8:1.0 9:-0.33296567 10:-0.41040096 11:0.09861204 12:-0.35663415 13:0.14285714 14:0.14285714 15:-0.55555556 16:-0.55555556 17:-0.33333333 18:-0.33333333 19:-0.33333333 20:-0.33333333 21:-1.0 22:-1.0 23:1.0 24:1.0 25:-0.04937266 26:0.32572944 27:-0.73466868 28:-0.82283535 29:-0.09094065 30:0.32730793 31:-0.3125693 32:-0.34114678 33:1.0 34:1.0 35:-1.0 36:-0.8952381 37:0.49617173 38:0.49287823 39:-0.10774477 40:-0.08142198 
1.0 1:-0.03030303 2:-0.03030303 3:1.0 4:1.0 5:-0.93326421 6:-0.93326421 7:1.0 8:1.0 9:-0.23967456 10:-0.83548512 11:0.24876038 12:0.24876038 13:-0.42857143 14:-0.42857143 15:-0.2 16:-0.2 17:0.20000001 18:0.20000001 19:0.20000001 20:0.20000001 21:-1.0 22:-1.0 23:-0.33333333 24:-0.33333333 25:-0.8498939 26:-0.67684348 27:-0.86195642 28:-0.65964952 29:-0.63946915 30:-0.60805918 31:-0.71943845 32:-0.69935789 33:1.0 34:1.0 35:-0.85714286 36:-0.74285714 37:0.87969924 38:0.87967083 39:0.52416725 40:0.52423969 
1.0 1:0.21212124 2:0.21212124 3:1.0 4:1.0 5:-0.68020445 6:-0.68020445 7:1.0 8:1.0 9:-0.73966342 10:-0.8707593 11:0.17488395 12:0.17488395 13:-0.42857143 14:-0.71428571 15:-0.2 16:-0.2 17:0.20000001 18:0.20000001 19:0.20000001 20:0.20000001 21:-1.0 22:-1.0 23:-0.33333333 24:-0.33333333 25:-0.29307792 26:-0.31809054 27:-0.82960929 28:-0.41600668 29:-0.02876837 30:-0.4351884 31:-0.42357525 32:-0.38714082 33:-0.87909556 34:-0.87909556 35:-0.64761905 36:-0.64761905 37:-0.88908281 38:-0.8876525 39:-0.90014934 40:-0.90471356 
1.0 1:0.45454546 2:0.45454546 3:1.0 4:1.0 5:-0.61670928 6:-0.61670928 7:1.0 8:1.0 9:-0.37240838 10:0.19145194 11:0.67890362 12:0.67890362 13:0.14285714 14:-0.14285714 15:-0.2 16:-0.2 17:0.20000001 18:0.20000001 19:0.20000001 20:0.20000001 21:-1.0 22:-1.0 23:-0.33333333 24:-0.33333333 25:-0.53682185 26:-0.39409686 27:-0.48875329 28:-0.60186628 29:-0.65171046 30:-0.39010167 31:-0.48548406 32:-0.48277224 33:-0.72355166 34:-0.72355166 35:-0.91428571 36:-0.94285714 37:-0.74080728 38:-0.74018216 39:-0.78622478 40:-0.78783675 
1.0 1:-0.51515151 2:-0.51515151 3:-0.52380953 4:-0.52380953 5:-0.32902417 6:-0.32902417 7:1.0 8:1.0 9:-0.36560996 10:-0.81534294 11:-0.69959899 12:-0.69959899 13:0.14285714 14:0.14285714 15:-0.42857144 16:-0.42857144 17:-0.14285715 18:-0.14285715 19:-0.14285715 20:-0.14285715 21:-1.0 22:-1.0 23:0.33333333 24:0.33333333 25:0.70115149 26:-0.07095467 27:-0.50384959 28:-0.82000195 29:1.0 30:-0.05546829 31:0.01830687 32:0.06769103 33:-0.99966632 34:-0.99922935 35:-0.9047619 36:-0.85714286 37:-0.99972179 38:-0.99952266 39:-0.99883997 40:-0.99881841 
1.0 1:0.00432903 2:0.00432903 3:-0.14285714 4:-0.14285714 5:-0.13453282 6:-0.13453282 7:1.0 8:1.0 9:-0.21446531 10:0.30195116 11:0.19686595 12:0.19686595 13:-0.42857143 14:-0.42857143 15:-0.42857144 16:-0.42857144 17:-0.14285715 18:-0.14285715 19:-0.14285715 20:-0.14285715 21:-1.0 22:-1.0 23:0.33333333 24:0.33333333 25:0.16979706 26:0.630721 27:-0.35157092 28:-0.21487988 29:-0.08155075 30:0.43039168 31:0.53397221 32:0.55378136 33:-0.92465122 34:-0.92465122 35:-0.98095238 36:-0.98095238 37:-0.93729966 38:-0.93730519 39:-0.95897198 40:-0.95897629 
1.0 1:0.33333335 2:0.33333335 3:0.42857143 4:0.42857143 5:-0.45645653 6:-0.53161932 7:1.0 8:1.0 9:-0.26098509 10:-0.00450227 11:0.52810445 12:0.52810445 13:-0.14285714 14:-0.14285714 15:-0.2 16:-0.2 17:0.20000001 18:0.20000001 19:0.20000001 20:0.20000001 21:-1.0 22:-1.0 23:-0.33333333 24:-0.33333333 25:-0.39157407 26:-0.89402619 27:-0.8684938 28:-0.88175588 29:0.12338316 30:-0.67054359 31:-0.53046791 32:-1.0 33:-0.60141577 34:-0.60141577 35:-0.94285714 36:-0.87619048 37:-0.64343839 38:-0.64346248 39:-0.57995311 40:-0.57991085 
1.0 1:-0.03030303 2:-0.03030303 3:1.0 4:1.0 5:-0.81717719 6:-0.81717719 7:1.0 8:1.0 9:-0.44054998 10:-0.44054998 11:-0.10845614 12:-0.10845614 13:-0.71428571 14:-0.71428571 15:-0.2 16:-0.2 17:0.20000001 18:0.20000001 19:0.20000001 20:0.20000001 21:-1.0 22:-1.0 23:-0.33333333 24:-0.33333333 25:-0.97246463 26:0.60591514 27:-0.76885006 28:-0.4916066 29:-0.86186162 30:0.69229069 31:-0.88078256 32:0.02141091 33:1.0 34:1.0 35:-0.96190476 36:-0.96190476 37:0.88101915 38:0.88113946 39:0.52052673 40:0.52021883 
1.0 1:0.09090908 2:0.09090908 3:-0.14285714 4:-0.14285714 5:-0.84451833 6:-0.84451833 7:1.0 8:1.0 9:-0.7877015 10:-0.7877015 11:-0.43671158 12:-0.43671158 13:-0.14285714 14:-0.42857143 15:-0.2 16:-0.2 17:0.20000001 18:0.20000001 19:0.20000001 20:0.20000001 21:-1.0 22:-1.0 23:-0.33333333 24:-0.33333333 25:-0.03867788 26:-0.9551019 27:-0.5761285 28:-0.86160879 29:0.22932159 30:-0.7436403 31:-0.08186267 32:-0.96561805 33:-0.78828614 34:-0.78828614 35:-1.0 36:-0.27619048 37:-0.80442659 38:-0.80471516 39:-0.74506825 40:-0.74460941 
1.0 1:0.00432903 2:0.00432903 3:0.61904761 4:0.61904761 5:-0.07968742 6:-0.07968742 7:1.0 8:1.0 9:-0.16410831 10:-0.29430625 11:-0.20748374 12:-0.20748374 13:0.42857143 14:0.14285714 15:-0.42857144 16:-0.42857144 17:-0.14285715 18:-0.14285715 19:-0.14285715 20:-0.14285715 21:-1.0 22:-1.0 23:0.33333333 24:0.33333333 25:0.44932079 26:-1.0 27:-0.9680861 28:-0.9680861 29:0.52067285 30:-0.7767888 31:-0.13554581 32:-0.93375346 33:-0.82294149 34:-0.82294149 35:-0.98095238 36:-0.85714286 37:-0.85290131 38:-0.85301877 39:-0.90152671 40:-0.9014879 
1.0 1:-0.11111108 2:-0.17845115 3:0.14285714 4:0.14285714 5:-0.45113891 6:-0.475568 7:1.0 8:1.0 9:-0.80844046 10:-0.5744497 11:-0.53956365 12:-0.51922082 13:-0.14285714 14:-0.14285714 15:-0.55555556 16:-0.11111112 17:-0.33333333 18:-0.33333333 19:-0.33333333 20:-0.11111109 21:-1.0 22:-0.21432578 23:1.0 24:1.0 25:-0.61931846 26:0.48797559 27:-0.91991342 28:-0.53607393 29:-0.39172514 30:0.04771645 31:-0.64248381 32:-0.0764262 33:1.0 34:1.0 35:-0.94285714 36:-0.8952381 37:0.50497554 38:0.50501734 39:-0.15243448 40:-0.15255523 
1.0 1:0.09090908 2:0.09090908 3:1.0 4:1.0 5:0.59156818 6:0.48946023 7:1.0 9:-0.30950265 10:0.32377142 11:-0.1125172 12:-0.10181382 13:-0.14285714 14:-0.14285714 15:-0.2 17:0.20000001 18:0.50000002 19:0.20000001 20:0.50000002 21:-1.0 22:-1.0 23:-0.33333333 24:-0.66666667 25:-0.80022115 26:-0.80022115 27:-0.84088148 28:-0.84088148 29:-0.65723641 30:-0.5712624 31:-0.85549298 32:-0.85713247 33:-0.99963454 34:-0.99963454 35:-0.55238095 36:-0.55238095 37:-0.99999039 38:-0.99996079 39:-0.99841304 40:-0.99839795 
1.0 1:0.69696973 2:0.69696973 3:1.0 4:1.0 5:-0.83910352 6:-0.79849238 7:1.0 9:-0.62447254 10:-0.46089475 11:0.03335229 12:0.03126109 13:-0.42857143 14:-0.71428571 15:-0.2 17:0.20000001 18:0.50000002 19:0.20000001 20:0.50000002 21:-1.0 22:-1.0 23:-0.33333333 24:-0.66666667 25:-0.74436389 26:-0.5221663 27:-0.78095484 28:-0.75903403 29:-0.60278696 30:-0.33796299 31:-0.61150419 32:-0.60194598 33:-0.8283837 34:-0.87761782 35:-0.4952381 36:-0.8 37:-0.84040632 38:-0.87834508 39:-0.86413662 40:-0.88122078 
1.0 1:0.09090908 2:0.09090908 3:1.0 4:1.0 5:-0.11680576 6:-0.11680576 7:-1.0 9:-0.36497229 10:-0.80435334 11:0.06529373 12:0.06529373 13:-0.14285714 14:-0.14285714 17:0.50000002 18:0.50000002 19:0.50000002 20:0.50000002 21:-1.0 22:-1.0 23:-0.66666667 24:-0.66666667 25:-0.71571496 26:-0.71571496 27:-0.82990267 28:-0.9022099 29:-0.50409598 30:-0.4454924 31:-0.75787741 32:-0.78278406 33:1.0 34:1.0 35:-0.84761905 36:-0.84761905 37:1.0 38:1.0 39:0.90130312 40:0.90130312 
1.0 1:0.49494951 2:0.49494951 3:-0.37142857 4:-0.37142857 5:-0.34962134 6:-0.33712797 7:1.0 9:-0.87412971 10:-0.87412971 11:0.04134577 12:0.04134577 13:-0.42857143 14:-0.71428571 15:-0.33333332 16:-0.33333332 17:3.0E-8 18:3.0E-8 19:3.0E-8 20:3.0E-8 21:-1.0 22:-1.0 25:0.14653933 26:0.51304179 27:-0.1144603 28:-0.33051549 29:-0.19556712 30:0.22596098 31:0.47836089 32:0.49138464 33:-0.85124893 34:-0.85124893 35:-0.97142857 36:-0.94285714 37:-0.8691277 38:-0.86909905 39:-0.90415008 40:-0.90413499 
1.0 1:0.09090908 2:0.09090908 3:1.0 4:1.0 5:-0.62947277 6:-0.60820029 7:1.0 8:1.0 9:-0.15009876 10:-0.47056143 11:0.11060158 12:0.15224936 13:-0.14285714 14:-0.14285714 15:-0.2 16:-0.2 17:0.20000001 18:0.20000001 19:0.20000001 20:0.20000001 21:-1.0 22:-1.0 23:-0.33333333 24:-0.33333333 25:-0.22312409 26:-0.17821482 27:-0.81246289 28:-0.48425407 29:-0.08217372 30:-0.18211185 31:-0.31243511 32:-0.28396202 33:-0.97509295 34:-0.97509295 35:-0.95238095 36:-0.95238095 37:-0.9241132 38:-0.97679009 39:-0.84787203 40:-0.98072968 
1.0 1:-1.0 2:-1.0 3:-0.14285714 4:-0.14285714 5:-0.14871449 6:-0.14871449 7:1.0 8:1.0 9:-0.46485277 10:-0.47922798 11:-1.0 12:-1.0 13:-0.42857143 14:-0.71428571 15:-0.2 16:-0.2 17:0.20000001 18:0.20000001 19:0.20000001 20:0.20000001 21:-1.0 22:-1.0 23:-0.33333333 24:-0.33333333 25:0.54659036 26:0.630721 27:0.39807354 28:1.0 29:-0.20029487 30:-0.517461 31:0.88086218 32:1.0 33:-0.9996981 34:-0.99625004 35:-1.0 36:-0.98095238 37:-0.99848108 38:-0.99625425 39:-0.9970486 40:-0.99474838 
1.0 1:-0.42857141 2:-0.42857141 3:-0.14285714 4:-0.14285714 5:-0.4738797 6:-0.4738797 7:1.0 8:1.0 9:-0.47091378 10:-0.40230887 11:-0.65189356 12:-0.65189356 13:-0.71428571 14:-0.71428571 15:-0.42857144 16:-0.42857144 17:-0.14285715 18:-0.14285715 19:-0.14285715 20:-0.14285715 21:-1.0 22:-1.0 23:0.33333333 24:0.33333333 25:0.27532468 26:0.35306762 27:-0.40289769 28:-0.1605281 29:0.01553647 30:-0.12397923 31:0.20862152 32:0.22239894 33:-0.97030222 34:-0.9991499 35:-0.84761905 36:-0.94285714 37:-0.97550399 38:-0.99914962 39:-0.98286259 40:-0.99865885 
1.0 1:-0.44781144 2:-0.44781144 3:-0.42857143 4:-0.42857143 5:-0.35873812 6:-0.3827119 7:1.0 8:1.0 9:-0.31648979 10:-0.11399537 11:-0.66933508 12:-0.66933508 13:-1.0 14:-0.71428571 15:-1.0 16:-0.55555556 17:-1.0 18:-0.33333333 19:-1.0 20:-0.33333333 21:-1.0 22:-1.0 23:1.0 24:1.0 25:0.24089565 26:0.43350544 27:-0.16843049 28:-0.13692243 29:-0.29927867 30:-0.23709263 31:0.61759052 32:0.71424197 33:-0.98676391 34:-0.97133505 35:-0.93333333 36:-0.92380952 37:-0.99024882 38:-0.97866989 39:-0.9938146 40:-0.98722049 
1.0 1:-0.51515151 2:-0.51515151 3:0.14285714 4:0.14285714 5:-0.09907869 6:-0.09907869 7:1.0 8:1.0 9:-0.04589382 10:0.1488396 11:0.01603654 12:0.01603654 13:0.14285714 14:-0.42857143 15:-0.55555556 16:-0.55555556 17:-0.33333333 18:-0.33333333 19:-0.33333333 20:-0.33333333 21:-1.0 22:-1.0 23:1.0 24:1.0 25:0.05825021 26:-0.08275862 27:-0.71100342 28:-0.26378829 29:0.15080149 30:-0.44079379 31:0.04931664 32:0.09779628 33:-0.98432485 34:-0.99892745 35:-0.9047619 36:-0.95238095 37:-0.98715294 38:-0.99914463 39:-0.98752571 40:-0.99877864 
1.0 1:-0.27272724 2:-0.27272724 3:1.0 4:1.0 5:-0.65287252 6:-0.98837008 7:1.0 8:1.0 9:-0.55242031 10:-0.5296606 11:-0.15141852 12:-0.1780588 13:-0.42857143 14:-0.42857143 15:-0.2 16:-0.2 17:0.20000001 18:0.20000001 19:0.20000001 20:0.20000001 21:-1.0 22:-1.0 23:-0.33333333 24:-0.33333333 25:-0.48529946 26:-0.48529946 27:-0.61562947 28:-0.77517902 29:-0.49244275 30:-0.18058867 31:-0.53901329 32:-0.51833637 33:1.0 34:1.0 35:-0.99047619 36:-0.97142857 37:0.88079 38:0.88078528 39:0.5208769 40:0.52088897 
1.0 1:0.17748919 2:0.17748919 3:0.61904761 4:0.61904761 5:-0.85350442 6:0.05624428 7:1.0 8:1.0 9:-0.58313866 10:-0.35365057 11:0.10035992 12:0.09630145 13:0.42857143 14:0.42857143 15:-0.42857144 16:-0.42857144 17:-0.14285715 18:-0.14285715 19:-0.14285715 20:-0.14285715 21:-1.0 22:-1.0 23:0.33333333 24:0.33333333 25:-0.16256906 26:0.02131661 27:-0.92921019 28:-0.83704715 29:0.04731866 30:0.04080405 31:-0.52565921 32:-0.51951093 33:1.0 34:1.0 35:-0.97142857 36:-0.8952381 37:0.65326697 38:0.66779588 39:0.14302754 40:0.08700105 
1.0 1:0.15824915 2:0.09090908 3:0.42857143 4:0.34693877 5:-0.81248477 6:0.00402778 7:1.0 8:1.0 9:-0.40359563 10:-0.09796325 11:-0.09319616 12:-0.06745557 13:0.71428571 14:0.42857143 15:-0.55555556 17:-0.33333333 18:-0.24999999 19:-0.33333333 20:-0.09999999 21:-1.0 22:-0.24999998 23:1.0 24:0.66666667 25:-0.61853627 26:-0.80843354 27:-0.84506459 28:-0.90134147 29:-0.39755449 30:-0.61691169 31:-0.76804118 32:-0.78861456 33:1.0 34:1.0 35:-0.94285714 36:-0.95238095 37:0.47653601 38:0.58105742 39:0.00766229 40:-0.048521 
1.0 1:-0.28787877 2:-0.28787877 3:0.67346939 4:0.67346939 5:-0.21274902 6:-0.64228691 7:1.0 8:1.0 9:-0.66003958 10:-0.72509229 11:-0.44386694 12:-0.44378741 13:-0.71428571 14:-0.42857143 15:-0.5 16:-0.5 17:-0.24999999 18:-0.24999999 19:-0.24999999 20:-0.24999999 21:-1.0 22:-1.0 23:0.66666667 24:0.66666667 25:0.17323366 26:0.13115457 27:-0.4916066 28:-0.9543076 29:0.15842718 30:0.64622951 31:-0.04034423 32:0.00338396 33:1.0 34:1.0 35:-0.98095238 36:-0.96190476 37:0.5813213 38:0.57774868 39:-0.04985676 40:-0.03616333 
1.0 1:-0.51515151 2:-0.51515151 3:0.42857143 4:-0.14285714 5:-0.27634944 6:-0.27634944 7:1.0 8:1.0 9:-0.38634727 10:-0.68849314 11:-0.81368143 12:-0.81368143 13:-1.0 14:-1.0 15:-1.0 16:-1.0 17:-1.0 18:-1.0 19:-1.0 20:-1.0 21:-1.0 22:-1.0 23:-0.33333333 24:-0.33333333 25:0.15117975 26:0.15117975 27:-0.61062875 28:-0.67227492 29:0.40688154 30:0.44528468 31:0.01573149 32:-1.943E-4 33:-0.9994677 34:-0.9994677 35:-0.81904762 36:-0.81904762 37:-0.99966898 38:-0.99966898 39:-0.99920393 40:-0.99920393 
1.0 1:-0.16883113 2:-0.16883113 3:0.61904761 4:-0.52380953 5:-0.62736965 6:-0.62736965 7:1.0 8:1.0 9:-0.67327808 10:-0.7877015 11:-0.14373086 12:-0.14373086 13:-0.42857143 14:-0.42857143 15:-0.42857144 16:-0.42857144 17:-0.14285715 18:-0.14285715 19:-0.14285715 20:-0.14285715 21:-1.0 22:-1.0 23:0.33333333 24:0.33333333 25:0.16426333 26:0.18546594 27:-0.75154798 28:-0.57448011 29:0.34950898 30:0.35312844 31:-0.18964721 32:-0.13976488 33:1.0 34:1.0 35:-0.85714286 36:-0.62857143 37:0.64204174 38:0.64110134 39:0.20581154 40:0.20599697 
1.0 1:0.02356906 2:-0.01010097 3:-1.0 4:-0.37142857 5:0.85818338 6:0.7872751 7:1.0 8:1.0 9:0.75143885 10:-0.34776154 11:-0.07522148 12:-0.14220054 13:0.42857143 14:0.42857143 15:-0.55555556 16:-0.33333332 17:-0.33333333 18:3.0E-8 19:-0.33333333 20:3.0E-8 21:-1.0 22:-1.0 23:1.0 25:0.23719102 26:0.2137361 27:0.43543563 28:-0.08054067 29:-0.67273617 30:-0.21686949 31:0.5575514 32:0.54513357 33:-0.99895923 34:-0.99918963 35:-0.94285714 36:-0.8 37:-0.99916836 38:-0.99949697 39:-0.99827888 40:-0.99782943 
1.0 1:0.00432903 2:0.00432903 3:1.0 4:-0.14285714 5:0.01755823 6:0.01755823 7:1.0 8:1.0 9:-0.31949816 10:0.02811115 11:-0.03813736 12:-0.03813736 13:0.14285714 14:0.14285714 15:-0.42857144 16:-0.42857144 17:-0.14285715 18:-0.14285715 19:-0.14285715 20:-0.14285715 21:-1.0 22:-1.0 23:0.33333333 24:0.33333333 25:0.00100313 26:0.00100313 27:-0.7990202 28:-0.7990202 29:0.02144719 30:0.06331936 31:-0.48054599 32:-0.49042914 33:1.0 34:1.0 35:-0.99047619 36:-0.86666667 37:0.66803322 38:0.66793379 39:0.08631107 40:0.08636713 
1.0 1:-0.51515151 2:-0.15151513 3:0.42857143 4:0.42857143 5:-0.69480971 6:-0.75274273 7:1.0 8:1.0 9:-0.72739348 10:-0.47337658 11:0.09068427 12:0.13871042 13:-0.42857143 14:-0.42857143 15:-0.2 16:-0.2 17:0.20000001 18:0.20000001 19:0.20000001 20:0.20000001 21:-1.0 22:-1.0 23:-0.33333333 24:-0.33333333 25:-0.01073822 26:-0.01073822 27:-0.3816802 28:-0.53922043 29:-0.17046125 30:-0.03618725 31:0.13227765 32:0.09157839 33:-0.37404265 34:-0.37404265 35:-0.97142857 36:-0.72380952 37:-0.37298632 38:-0.37307484 39:-0.14262649 40:-0.14260838 
1.0 1:-0.01010097 2:0.39393941 3:1.0 4:1.0 5:-0.71861465 6:-0.69119062 7:1.0 8:1.0 9:-0.21725219 10:-0.39563291 11:0.14332084 12:0.16084358 13:0.14285714 14:0.14285714 15:-0.33333332 16:-0.33333332 17:3.0E-8 18:3.0E-8 19:3.0E-8 20:3.0E-8 21:-1.0 22:-1.0 25:-0.32700022 26:-0.3489871 27:-0.9249725 28:-0.90134147 29:-0.12190953 30:-0.1423555 31:-0.77018385 32:-0.79436882 33:1.0 34:1.0 35:-0.99047619 36:-0.97142857 37:0.73175878 38:0.73175495 39:0.40257124 40:0.40258131 
1.0 1:0.00432903 2:-0.3131313 3:1.0 4:1.0 5:-0.44204333 6:-0.35272779 7:1.0 8:1.0 9:-0.72534927 10:-0.52370438 11:-0.34808167 12:-0.40528812 13:0.42857143 14:-0.14285714 15:-0.42857144 16:-0.33333332 17:-0.14285715 18:3.0E-8 19:-0.14285715 20:3.0E-8 21:-1.0 22:-1.0 23:0.33333333 25:-0.097243 26:-0.48809146 27:-0.93914765 28:-0.77012411 29:0.24581528 30:-0.37172533 31:-0.41434724 32:-0.36425399 33:-0.37404265 34:-0.37404265 35:-0.8952381 36:-0.8952381 37:-0.48706227 38:-0.44844712 39:-0.56035246 40:-0.59745334 
1.0 1:-0.04377101 2:-0.38047137 3:0.42857143 4:0.42857143 5:-0.49135354 6:-0.45362018 7:1.0 8:1.0 9:-0.71783065 10:-0.68294209 11:-0.50395627 12:-0.49628737 13:0.14285714 14:-0.42857143 15:-0.55555556 16:-0.55555556 17:-0.33333333 18:-0.33333333 19:-0.33333333 20:-0.33333333 21:-1.0 22:-1.0 23:1.0 24:1.0 25:-0.27461251 26:-0.36984491 27:-0.79595868 28:-0.59190656 29:-0.23405304 30:-0.53478495 31:-0.45133124 32:-0.45099513 33:1.0 34:1.0 35:-0.9047619 36:-0.97142857 37:0.4972595 38:0.50562798 39:-0.11729382 40:-0.1547924 
1.0 1:0.09090908 2:-0.21212119 3:0.34693877 4:0.34693877 5:-0.65856032 6:-0.64738797 7:1.0 8:1.0 9:-0.73708583 10:-0.60919099 11:-0.28244467 12:-0.32140878 13:-0.14285714 14:-0.42857143 15:-0.5 16:-0.5 17:-0.24999999 18:-0.24999999 19:-0.24999999 20:-0.24999999 21:-1.0 22:-1.0 23:0.66666667 24:0.66666667 25:0.13115457 26:0.35363716 27:-0.54094986 28:-0.71098427 29:-0.14874477 30:0.23750563 31:-0.04910634 32:-0.11111341 33:1.0 34:1.0 35:-0.96190476 36:-0.97142857 37:0.57104528 38:0.58067014 39:-0.00669735 40:-0.04720034 
1.0 1:0.21212124 2:0.21212124 3:-0.14285714 4:-0.14285714 5:-0.72185617 6:-0.691163 7:1.0 8:1.0 9:-0.7877015 10:-0.7877015 11:-0.13823724 12:0.42212988 13:0.14285714 14:0.14285714 15:-0.2 16:-0.2 17:0.20000001 18:0.20000001 19:0.20000001 20:0.20000001 21:-1.0 22:-1.0 23:-0.33333333 24:-0.33333333 25:-0.86517007 26:-0.65259219 27:-0.7990202 28:-0.81163743 29:-0.74121337 30:-0.50581269 31:-0.7682243 32:-0.79143142 33:1.0 34:1.0 35:-0.9047619 36:-0.79047619 37:0.86566619 38:0.86379265 39:0.56120027 40:0.5664105 
1.0 1:1.0 2:1.0 3:-0.37142857 4:-0.37142857 5:-0.6728938 6:-0.6728938 7:1.0 8:1.0 9:-1.0 10:-0.46635927 11:0.72105842 12:0.37102269 13:0.42857143 14:0.42857143 15:1.0 16:1.0 17:3.0E-8 18:3.0E-8 19:0.39999999 20:0.39999999 21:1.0 22:1.0 25:0.48960362 26:0.37298921 27:-0.59952275 28:-0.59952275 29:0.59118607 30:0.43867651 31:0.07621885 32:0.01091533 33:-0.8283837 34:-0.8283837 35:-0.98095238 36:-0.99047619 37:-0.85277805 38:-0.85276733 39:-0.86284463 40:-0.86286475 
1.0 1:0.00432903 2:0.00432903 3:-0.14285714 4:-0.14285714 5:-0.22135932 6:-0.13453282 7:1.0 8:1.0 9:-0.35371988 10:-0.662821 11:-0.03049468 12:0.19686595 13:-0.71428571 14:-0.42857143 15:-0.42857144 16:-0.42857144 17:-0.14285715 18:-0.14285715 19:-0.14285715 20:-0.14285715 21:-1.0 22:-1.0 23:0.33333333 24:0.33333333 25:0.630721 26:0.46110003 27:-0.58247375 28:-0.58247375 29:0.35321102 30:0.430044 31:-0.03661126 32:0.02916531 33:-0.92465122 34:-0.92465122 35:-0.98095238 36:-0.98095238 37:-0.93723068 38:-0.93731302 39:-0.95923072 40:-0.95895042 
1.0 1:-0.04377101 2:-0.04377101 3:0.71428571 4:0.71428571 5:-0.19109065 6:-0.11188158 7:1.0 8:1.0 9:-0.33296567 10:-0.41040096 11:0.09861204 12:-0.35663415 13:0.14285714 14:0.14285714 15:-0.55555556 16:-0.55555556 17:-0.33333333 18:-0.33333333 19:-0.33333333 20:-0.33333333 21:-1.0 22:-1.0 23:1.0 24:1.0 25:-0.04937266 26:0.32572944 27:-0.73466868 28:-0.82283535 29:-0.09094065 30:0.32730793 31:-0.3125693 32:-0.34114678 33:1.0 34:1.0 35:-1.0 36:-0.8952381 37:0.49617173 38:0.49287823 39:-0.10774477 40:-0.08142198 
1.0 1:-0.03030303 2:-0.03030303 3:1.0 4:1.0 5:-0.93326421 6:-0.93326421 7:1.0 8:1.0 9:-0.23967456 10:-0.83548512 11:0.24876038 12:0.24876038 13:-0.42857143 14:-0.42857143 15:-0.2 16:-0.2 17:0.20000001 18:0.20000001 19:0.20000001 20:0.20000001 21:-1.0 22:-1.0 23:-0.33333333 24:-0.33333333 25:-0.8498939 26:-0.67684348 27:-0.86195642 28:-0.65964952 29:-0.63946915 30:-0.60805918 31:-0.71943845 32:-0.69935789 33:1.0 34:1.0 35:-0.85714286 36:-0.74285714 37:0.87969924 38:0.87967083 39:0.52416725 40:0.52423969 
1.0 1:0.21212124 2:0.21212124 3:1.0 4:1.0 5:-0.68020445 6:-0.68020445 7:1.0 8:1.0 9:-0.73966342 10:-0.8707593 11:0.17488395 12:0.17488395 13:-0.42857143 14:-0.71428571 15:-0.2 16:-0.2 17:0.20000001 18:0.20000001 19:0.20000001 20:0.20000001 21:-1.0 22:-1.0 23:-0.33333333 24:-0.33333333 25:-0.29307792 26:-0.31809054 27:-0.82960929 28:-0.41600668 29:-0.02876837 30:-0.4351884 31:-0.42357525 32:-0.38714082 33:-0.87909556 34:-0.87909556 35:-0.64761905 36:-0.64761905 37:-0.88908281 38:-0.8876525 39:-0.90014934 40:-0.90471356 
1.0 1:0.45454546 2:0.45454546 3:1.0 4:1.0 5:-0.61670928 6:-0.61670928 7:1.0 8:1.0 9:-0.37240838 10:0.19145194 11:0.67890362 12:0.67890362 13:0.14285714 14:-0.14285714 15:-0.2 16:-0.2 17:0.20000001 18:0.20000001 19:0.20000001 20:0.20000001 21:-1.0 22:-1.0 23:-0.33333333 24:-0.33333333 25:-0.53682185 26:-0.39409686 27:-0.48875329 28:-0.60186628 29:-0.65171046 30:-0.39010167 31:-0.48548406 32:-0.48277224 33:-0.72355166 34:-0.72355166 35:-0.91428571 36:-0.94285714 37:-0.74080728 38:-0.74018216 39:-0.78622478 40:-0.78783675 
1.0 1:-0.51515151 2:-0.51515151 3:-0.52380953 4:-0.52380953 5:-0.32902417 6:-0.32902417 7:1.0 8:1.0 9:-0.36560996 10:-0.81534294 11:-0.69959899 12:-0.69959899 13:0.14285714 14:0.14285714 15:-0.42857144 16:-0.42857144 17:-0.14285715 18:-0.14285715 19:-0.14285715 20:-0.14285715 21:-1.0 22:-1.0 23:0.33333333 24:0.33333333 25:0.70115149 26:-0.07095467 27:-0.50384959 28:-0.82000195 29:1.0 30:-0.05546829 31:0.01830687 32:0.06769103 33:-0.99966632 34:-0.99922935 35:-0.9047619 36:-0.85714286 37:-0.99972179 38:-0.99952266 39:-0.99883997 40:-0.99881841 
1.0 1:0.00432903 2:0.00432903 3:-0.14285714 4:-0.14285714 5:-0.13453282 6:-0.13453282 7:1.0 8:1.0 9:0.30195116 10:-0.21446531 11:0.19686595 12:0.19686595 13:-0.42857143 14:-0.42857143 15:-0.42857144 16:-0.42857144 17:-0.14285715 18:-0.14285715 19:-0.14285715 20:-0.14285715 21:-1.0 22:-1.0 23:0.33333333 24:0.33333333 25:0.630721 26:0.16979706 27:-0.21487988 28:-0.35157092 29:0.43039168 30:-0.08155075 31:0.55378136 32:0.53397221 33:-0.92465122 34:-0.92465122 35:-0.98095238 36:-0.98095238 37:-0.93730519 38:-0.93729966 39:-0.95897629 40:-0.95897198 
1.0 1:-0.03030303 2:-0.03030303 3:1.0 4:1.0 5:-0.81717719 6:-0.81717719 7:1.0 8:1.0 9:-0.44054998 10:-0.44054998 11:-0.10845614 12:-0.10845614 13:-0.71428571 14:-0.71428571 15:-0.2 16:-0.2 17:0.20000001 18:0.20000001 19:0.20000001 20:0.20000001 21:-1.0 22:-1.0 23:-0.33333333 24:-0.33333333 25:-0.97246463 26:0.60591514 27:-0.76885006 28:-0.4916066 29:-0.86186162 30:0.69229069 31:-0.88078256 32:0.02141091 33:1.0 34:1.0 35:-0.96190476 36:-0.96190476 37:0.88101915 38:0.88113946 39:0.52052673 40:0.52021883 
1.0 1:0.00432903 2:0.00432903 3:0.61904761 4:0.61904761 5:-0.07968742 6:-0.07968742 7:1.0 8:1.0 9:-0.16410831 10:-0.29430625 11:-0.20748374 12:-0.20748374 13:0.42857143 14:0.14285714 15:-0.42857144 16:-0.42857144 17:-0.14285715 18:-0.14285715 19:-0.14285715 20:-0.14285715 21:-1.0 22:-1.0 23:0.33333333 24:0.33333333 25:0.44932079 26:-1.0 27:-0.9680861 28:-0.9680861 29:0.52067285 30:-0.7767888 31:-0.13554581 32:-0.93375346 33:-0.82294149 34:-0.82294149 35:-0.98095238 36:-0.85714286 37:-0.85290131 38:-0.85301877 39:-0.90152671 40:-0.9014879 
1.0 1:-0.17845115 2:-0.11111108 3:0.14285714 4:0.14285714 5:-0.475568 6:-0.45113891 7:1.0 8:1.0 9:-0.5744497 10:-0.80844046 11:-0.51922082 12:-0.53956365 13:-0.14285714 14:-0.14285714 15:-0.11111112 16:-0.55555556 17:-0.33333333 18:-0.33333333 19:-0.11111109 20:-0.33333333 21:-0.21432578 22:-1.0 23:1.0 24:1.0 25:0.48797559 26:-0.61931846 27:-0.53607393 28:-0.91991342 29:0.04771645 30:-0.39172514 31:-0.0764262 32:-0.64248381 33:1.0 34:1.0 35:-0.8952381 36:-0.94285714 37:0.50501734 38:0.50497554 39:-0.15255523 40:-0.15243448 
1.0 1:0.09090908 2:0.09090908 3:1.0 4:1.0 5:1.0 6:1.0 8:-1.0 9:-0.28282114 10:-0.26706291 11:-0.15533064 12:-0.15533064 13:-0.42857143 14:-0.42857143 16:0.33333332 17:0.50000002 18:1.0 19:0.50000002 20:1.0 21:-1.0 22:-1.0 23:-0.66666667 24:-1.0 25:-0.60152044 26:-0.5476984 27:-0.13852212 28:-0.15852723 29:-0.9562062 30:-0.82259693 31:-0.31641098 32:-0.26968598 33:-0.99931674 34:-0.99931674 35:-0.78095238 36:-0.7047619 37:-0.99955084 38:-0.99955286 39:-0.99862435 40:-0.99834261 
1.0 1:-0.51515151 2:-0.51515151 3:1.0 4:1.0 5:-0.36143939 6:-0.36143939 8:-1.0 9:-0.50329226 10:-0.81534294 11:-0.57238665 12:-0.76388639 13:-0.71428571 14:-0.71428571 16:0.33333332 17:0.50000002 18:1.0 19:0.50000002 20:1.0 21:-1.0 22:-1.0 23:-0.66666667 24:-1.0 25:-0.13603786 26:-0.13603786 27:-0.27677716 28:-0.38798203 29:-0.27969304 30:-0.00550115 31:-0.12700941 32:-0.1008967 33:-0.99922935 34:-0.99995233 35:-0.84761905 36:-0.83809524 37:-0.99935002 38:-0.99966677 39:-0.99904696 40:-0.99872497 
1.0 1:-0.03030303 2:-0.06060603 3:1.0 4:1.0 5:0.74473011 6:0.68091264 7:1.0 9:-0.33014408 10:-0.06428327 11:-0.35364166 12:-0.40321942 13:-1.0 14:-1.0 15:-1.0 16:-1.0 17:-1.0 18:-1.0 19:-1.0 20:-1.0 21:-1.0 22:-1.0 23:-0.33333333 24:-0.66666667 25:-0.08556825 26:-0.41695776 27:-0.50788511 28:-0.39025507 29:-0.14199417 30:-0.53455505 31:-0.29313831 32:-0.32210303 33:-0.99911018 34:-0.99911018 35:-0.8 36:-0.94285714 37:-0.99939277 38:-0.99924783 39:-0.99846134 40:-0.99826966 
1.0 1:-0.16883113 2:-0.27272724 3:-0.14285714 4:-0.14285714 5:-0.52640972 6:-0.42221795 7:1.0 9:-0.10024046 10:-0.26706291 11:-0.20499079 12:-0.34188594 13:-0.42857143 14:-0.71428571 15:-0.42857144 16:-0.2 17:-0.14285715 18:0.20000001 19:-0.14285715 20:0.20000001 21:-1.0 22:-1.0 23:0.33333333 24:-0.33333333 25:1.0 26:0.83744656 27:0.5896452 28:0.43723939 29:-0.00616002 30:0.09787817 31:0.88382291 32:0.81197598 33:-0.99805352 34:-0.99864143 35:-0.92380952 36:-0.80952381 37:-0.99860824 38:-0.99892777 39:-0.99789987 40:-0.99821985 
1.0 1:0.09090908 2:0.09090908 3:1.0 4:1.0 5:-0.64821282 6:-0.64821282 7:1.0 8:1.0 9:-0.5518284 10:-0.44956953 11:0.31182332 12:0.31182332 13:0.42857143 14:0.42857143 15:-0.2 16:-0.2 17:0.20000001 18:0.20000001 19:0.20000001 20:0.20000001 21:-1.0 22:-1.0 23:-0.33333333 24:-0.33333333 25:-0.18716807 26:-0.19305522 27:-0.6983025 28:-0.41234712 29:0.05078628 30:-0.26734106 31:-0.32466288 32:-0.30582647 33:-0.37404265 34:-0.99045826 35:-0.91428571 36:-0.61904762 37:-0.41775325 38:-0.99170836 39:-0.50744468 40:-0.99115013 
1.0 1:-0.63636362 2:-0.63636362 3:-0.14285714 4:-0.14285714 5:-0.34016691 6:-0.34016691 7:1.0 8:1.0 9:-0.54662236 10:-0.13588402 11:-0.29618875 12:-0.29618875 13:-0.42857143 14:-0.71428571 15:-0.2 16:-0.2 17:0.20000001 18:0.20000001 19:0.20000001 20:0.20000001 21:-1.0 22:-1.0 23:-0.33333333 24:-0.33333333 25:-0.12237025 26:0.19113301 27:0.45403703 28:0.14028042 29:-0.91114307 30:-0.33975355 31:0.34016715 32:0.41227155 33:-0.97097753 34:-0.99679029 35:-0.92380952 36:-0.97142857 37:-0.97314337 38:-0.99730069 39:-0.97705294 40:-0.99648109 
1.0 1:-0.3419913 2:-0.3419913 3:-0.52380953 4:-0.52380953 5:-0.4519319 6:-0.46138633 7:1.0 8:1.0 9:-0.81534294 10:-0.81534294 11:-0.72716961 12:-0.72131598 13:-0.71428571 14:-0.71428571 15:-0.42857144 16:-0.42857144 17:-0.14285715 18:-0.14285715 19:-0.14285715 20:-0.14285715 21:-1.0 22:-1.0 23:0.33333333 24:0.33333333 25:0.630721 26:0.630721 27:-0.6170848 28:-0.58269703 29:0.9233924 30:0.89042611 31:0.56963211 32:0.58147718 33:-0.78828614 34:-0.87761782 35:-0.92380952 36:-0.92380952 37:-0.82366267 38:-0.89817795 39:-0.88453592 40:-0.93302437 
1.0 1:-0.42857141 2:-0.42857141 3:-0.52380953 4:-0.52380953 5:-0.10038108 6:-0.11933819 7:1.0 8:1.0 9:-0.61450871 10:-0.61450871 11:-0.41389041 12:-0.41389041 13:-1.0 14:-0.71428571 15:-1.0 16:-0.42857144 17:-1.0 18:-0.14285715 19:-1.0 20:-0.14285715 21:-1.0 22:-1.0 23:0.33333333 24:0.33333333 25:-0.03974601 26:0.08424238 27:0.35349278 28:0.36388004 29:-0.73170081 30:-0.57458428 31:0.28229507 32:0.33639794 33:-0.98676391 34:-0.97133505 35:-0.94285714 36:-0.94285714 37:-0.98905391 38:-0.97618026 39:-0.99288888 40:-0.98452717 
1.0 1:-0.28787877 2:-0.28787877 3:-0.30612245 4:-0.30612245 5:-0.51275429 6:-0.50426897 7:1.0 8:1.0 9:0.06680669 10:0.06680669 11:-0.47885248 12:-0.48397443 13:-0.14285714 14:-0.14285714 15:-0.5 16:-0.5 17:-0.24999999 18:-0.24999999 19:-0.24999999 20:-0.24999999 21:-1.0 22:-1.0 23:0.66666667 24:0.66666667 25:-0.17197492 26:-0.17197492 27:-0.64490539 28:-0.79780252 29:-0.19741761 30:-0.02860375 31:-0.18410272 32:-0.14652271 33:-0.99545556 34:-0.78828614 35:-0.9047619 36:-0.9047619 37:-0.99684069 38:-0.83327123 39:-0.99569247 40:-0.89729896 
1.0 1:-0.51515151 2:-0.51515151 3:-0.14285714 4:-0.14285714 5:-0.52462978 6:-0.82244466 7:1.0 8:1.0 9:-1.0 10:-1.0 11:-0.65359068 12:-0.61979275 13:-0.42857143 14:-0.42857143 15:-0.2 16:-0.2 17:0.20000001 18:0.20000001 19:0.20000001 20:0.20000001 21:-1.0 22:-1.0 23:-0.33333333 24:-0.33333333 25:-0.44091704 26:-0.20511335 27:0.06651989 28:-0.04897301 29:-0.96213174 30:-0.6606443 31:-0.03727493 32:0.02242678 33:-0.37404265 34:-0.37404265 35:-0.86666667 36:-0.60952381 37:-0.37275933 38:-0.37284443 39:-0.14291025 40:-0.14295251 
1.0 1:-0.16883113 2:-0.16883113 3:0.61904761 4:0.61904761 5:-1.0 6:-0.40904927 7:1.0 8:1.0 9:-0.154969 10:-0.26600769 11:-0.13571069 12:-0.13114524 13:-0.14285714 14:-0.14285714 15:-0.42857144 16:-0.42857144 17:-0.14285715 18:-0.14285715 19:-0.14285715 20:-0.14285715 21:-1.0 22:-1.0 23:0.33333333 24:0.33333333 25:-0.23416929 26:-0.27959193 27:-1.0 28:-0.68993161 29:-0.0341441 30:-0.33236873 31:-0.39242982 32:-0.42347148 33:-0.92465122 34:-0.92465122 35:-0.95238095 36:-0.87619048 37:-0.93745968 38:-0.93756204 39:-0.95805775 40:-0.9580405 
1.0 1:0.09090908 2:0.09090908 3:0.23809525 4:0.23809525 5:-0.87376394 6:-0.25763351 7:1.0 8:1.0 9:-0.71555776 10:-0.67388077 11:-0.01584356 12:-0.00267023 13:1.0 14:0.42857143 15:-0.42857144 16:-0.42857144 17:-0.14285715 18:-0.14285715 19:-0.14285715 20:-0.14285715 21:-1.0 22:-1.0 23:0.33333333 24:0.33333333 25:-0.38882222 26:-0.40177024 27:-0.84049637 28:-0.72428142 29:-0.2345852 30:-0.43631376 31:-0.43735018 32:-0.47712642 33:1.0 34:1.0 35:-0.97142857 36:-0.92380952 37:0.66080884 38:0.6672561 39:0.11193957 40:0.08955398 
1.0 1:0.36026937 2:0.2929293 3:-0.14285714 4:-0.14285714 5:0.11541893 6:-0.68820848 7:1.0 8:1.0 9:-0.68277693 10:-0.57010495 11:-0.13257564 12:-0.13804356 13:-0.71428571 14:-0.14285714 15:-0.55555556 16:-0.55555556 17:-0.33333333 18:-0.33333333 19:-0.33333333 20:-0.33333333 21:-1.0 22:-1.0 23:1.0 24:1.0 25:0.37976816 26:0.53525407 27:-0.22763961 28:-0.36848588 29:0.20513831 30:0.2609033 31:0.18698779 32:0.21662658 33:-0.85124893 34:-0.85124893 35:-0.88571429 36:-0.98095238 37:-0.85976216 38:-0.85971908 39:-0.87813251 40:-0.87758244 
1.0 1:0.52380951 2:0.52380951 3:-0.14285714 4:-0.14285714 5:-0.31204477 6:-0.51463992 7:1.0 8:1.0 9:0.03243552 10:-0.20321342 11:0.95553305 12:1.0 13:-0.14285714 14:-0.14285714 15:-0.42857144 16:-0.42857144 17:-0.14285715 18:-0.14285715 19:-0.14285715 20:-0.14285715 21:-1.0 22:-1.0 23:0.33333333 24:0.33333333 25:-0.11137076 26:-0.11137076 27:-0.65151271 28:-0.83348281 29:-0.1798885 30:-0.14725931 31:-0.34613912 32:-0.33763199 33:-0.99733054 34:-0.99733054 35:-0.99047619 36:-0.99047619 37:-0.99749213 38:-0.99745008 39:-0.99706758 40:-0.99708052 
1.0 1:-0.27272724 2:-0.27272724 3:1.0 4:-0.14285714 5:-0.52027401 6:-0.52027401 7:1.0 8:1.0 9:-0.90767147 10:-0.81534294 11:-0.65449272 12:-0.65449272 13:-0.14285714 14:-0.14285714 15:-0.2 16:-0.2 17:0.20000001 18:0.20000001 19:0.20000001 20:0.20000001 21:-1.0 22:-1.0 23:-0.33333333 24:-0.33333333 25:0.3454642 26:0.33768989 27:-0.64171632 28:-0.30065227 29:0.48057822 30:0.23005278 31:0.11233205 32:0.17025193 33:-0.87761782 34:-0.87761782 35:-0.85714286 36:-0.84761905 37:-0.88517063 38:-0.88536217 39:-0.9060297 40:-0.90570973 
1.0 1:0.19191919 2:0.19191919 3:0.08571429 4:-0.37142857 5:-0.61400801 6:-0.61400801 7:1.0 8:1.0 9:-0.36952768 10:-0.34776154 11:0.24371888 12:0.24371888 13:0.14285714 14:0.14285714 15:-0.33333332 16:-0.33333332 17:3.0E-8 18:3.0E-8 19:3.0E-8 20:3.0E-8 21:-1.0 22:-1.0 25:-0.59354747 26:-0.62321286 27:-0.61562947 28:-0.61562947 29:-0.62765118 30:-0.65457463 31:-0.59977223 32:-0.60805497 33:1.0 34:1.0 35:-0.9047619 36:-0.9047619 37:0.75801751 38:0.75801751 39:0.29757188 40:0.29757188 
1.0 1:0.09090908 2:0.09090908 3:-0.52380953 4:-0.9047619 5:-0.34754717 6:-0.25030149 7:1.0 8:1.0 9:-0.60677878 10:0.23340437 11:0.17238545 12:0.20541185 13:-0.14285714 14:-0.42857143 15:-0.42857144 16:-0.42857144 17:-0.14285715 18:-0.14285715 19:-0.14285715 20:-0.14285715 21:-1.0 22:-1.0 23:0.33333333 24:0.33333333 25:0.56623768 26:0.23305362 27:0.41220768 28:0.50037239 29:-0.24863036 30:-0.62761633 31:0.87578512 32:0.81307801 33:-0.89534274 34:-0.89534274 35:-0.96190476 36:-0.96190476 37:-0.91319067 38:-0.91284447 39:-0.94189063 40:-0.94250299 
1.0 1:-0.51515151 2:-0.51515151 3:0.61904761 4:-0.52380953 5:-0.01297575 6:-0.01297575 7:1.0 8:1.0 9:-0.43553768 10:-0.61450871 11:-0.55187795 12:-0.55187795 13:-1.0 14:-1.0 15:-1.0 16:-1.0 17:-1.0 18:-1.0 19:-1.0 20:-1.0 21:-1.0 22:-1.0 23:0.33333333 24:0.33333333 25:0.35084639 26:0.11044128 27:-0.59513817 28:-0.19280463 29:0.35354698 30:0.01033697 31:-0.07317529 32:-0.0247536 33:-0.99987288 34:-0.99990466 35:-0.93333333 36:-0.93333333 37:-0.99997606 38:-1.0 39:-0.99998275 40:-1.0 
1.0 1:0.33333335 2:-0.27272724 3:0.42857143 4:0.42857143 5:-0.72185617 6:-0.65287252 7:1.0 8:1.0 9:-0.35030941 10:-0.17040946 11:0.08900458 12:0.02396615 13:-0.14285714 14:-0.14285714 15:-0.2 16:-0.2 17:0.20000001 18:0.20000001 19:0.20000001 20:0.20000001 21:-1.0 22:-1.0 23:-0.33333333 24:-0.33333333 25:-0.32835379 26:-0.32704344 27:-0.95054357 28:-0.91239249 29:0.21416818 30:0.14650204 31:-0.50465148 32:-0.47117387 33:1.0 34:1.0 35:-0.40952381 36:-0.40952381 37:0.83576697 38:0.85309687 39:0.65273235 40:0.59724318 
1.0 1:-0.39393935 2:-0.75757573 3:0.42857143 4:0.42857143 5:-0.80117217 6:-0.77959579 7:1.0 8:1.0 9:-0.80435334 10:-0.80435334 11:-0.47027621 12:-0.5124102 13:-0.42857143 14:-0.42857143 15:-0.2 16:-0.2 17:0.20000001 18:0.20000001 19:0.20000001 20:0.20000001 21:-1.0 22:-1.0 23:-0.33333333 24:-0.33333333 25:-0.32172776 26:-0.15513573 27:-0.75662491 28:-0.80457162 29:-0.15455151 30:-0.00210062 31:-0.20108869 32:-0.15533354 33:-0.37404265 34:-0.37404265 35:-0.60952381 36:-0.86666667 37:-0.37284244 38:-0.37275933 39:-0.14297062 40:-0.14291025 
1.0 1:0.46969699 2:0.24242424 3:0.34693877 4:0.34693877 5:-0.59205582 6:-0.56269269 7:1.0 8:1.0 9:-0.42547055 10:-0.3214614 11:0.29945746 12:0.27790446 13:0.14285714 14:0.14285714 15:-0.5 16:-0.5 17:-0.24999999 18:-0.24999999 19:-0.24999999 20:-0.24999999 21:-1.0 22:-1.0 23:0.66666667 24:0.66666667 25:-0.44361464 26:-0.32349804 27:-0.99266011 28:-0.95197941 29:-0.19097607 30:-0.20260595 31:-0.70338673 32:-0.72742554 33:1.0 34:1.0 35:-0.80952381 36:-0.85714286 37:0.55890653 38:0.56157849 39:0.05275911 40:0.04297485 
1.0 1:0.09090908 2:-0.16883113 3:-0.14285714 4:-0.14285714 5:-0.27687565 6:-0.19068063 7:1.0 8:1.0 9:-0.59259833 10:-0.43108077 11:-0.34911795 12:-0.36449735 13:0.14285714 14:-0.14285714 15:-0.42857144 16:-0.42857144 17:-0.14285715 18:-0.14285715 19:-0.14285715 20:-0.14285715 21:-1.0 22:-1.0 23:0.33333333 24:0.33333333 25:-0.02239496 26:0.04729008 27:-0.71867375 28:-0.71481093 29:-0.07602036 30:0.19035126 31:0.15062168 32:0.12467064 33:-0.91331395 34:-0.88800172 35:-0.94285714 36:-0.8952381 37:-0.92921314 38:-0.90692517 39:-0.9387814 40:-0.93838466 
1.0 1:0.49494951 2:0.49494951 3:1.0 4:1.0 5:-0.74245334 6:-0.74245334 7:1.0 8:1.0 9:-0.53604415 10:-0.53604415 11:-0.09565761 12:-0.23865793 13:-0.71428571 14:-0.71428571 15:-0.33333332 16:-0.33333332 17:3.0E-8 18:3.0E-8 19:3.0E-8 20:3.0E-8 21:-1.0 22:-1.0 25:-0.22445141 26:-0.22445141 27:-0.59729676 28:-0.58517829 29:-0.34570441 30:-0.34945349 31:-0.32799433 32:-0.32048063 33:-0.98106747 34:-0.98106747 35:-0.97142857 36:-0.97142857 37:-0.98374247 38:-0.98375414 39:-0.98637359 40:-0.9863434 
1.0 1:0.2929293 2:0.2929293 3:0.08571429 4:0.08571429 5:-0.55309441 6:-0.52351553 7:1.0 8:1.0 9:-0.59699579 10:-0.45546348 11:0.57885887 12:0.082866 13:0.14285714 14:-0.14285714 15:-0.33333332 16:-0.33333332 17:3.0E-8 18:3.0E-8 19:3.0E-8 20:3.0E-8 21:-1.0 22:-1.0 25:-0.56853195 26:-0.56853195 27:-0.86776415 28:-0.59963419 29:-0.48425308 30:-0.58584484 31:-0.61708601 32:-0.6173403 33:1.0 34:1.0 35:-0.98095238 36:-0.95238095 37:0.76072242 38:0.76142426 39:0.28875737 40:0.28652859 
1.0 1:0.01515155 2:0.01515155 3:-0.30612245 4:-0.30612245 5:-0.84326066 6:-0.78930325 7:1.0 8:1.0 9:-0.58586115 10:-0.58586115 11:-0.04454436 12:0.46827981 13:0.14285714 14:-0.14285714 15:-0.5 16:-0.5 17:-0.24999999 18:-0.24999999 19:-0.24999999 20:-0.24999999 21:-1.0 22:-1.0 23:0.66666667 24:0.66666667 25:0.07097179 26:0.0060009 27:-0.64035409 28:-0.06796204 29:0.10726012 30:-0.46887516 31:-0.04843644 32:-0.00940124 33:-0.8283837 34:-0.8283837 35:-0.97142857 36:-0.99047619 37:-0.86443021 38:-0.86437708 39:-0.91844096 40:-0.9186334 
1.0 1:0.15824915 2:0.09090908 3:0.14285714 4:0.14285714 5:-0.51369529 6:-0.59585886 7:1.0 8:1.0 9:-0.47371991 10:-0.4194252 11:0.1349165 12:-0.0867181 13:0.14285714 14:0.42857143 15:-0.55555556 16:-0.55555556 17:-0.33333333 18:-0.33333333 19:-0.33333333 20:-0.33333333 21:-1.0 22:-1.0 23:1.0 24:1.0 25:-0.38965518 26:-0.20048554 27:-0.71216293 28:-0.55824971 29:-0.53864661 30:-0.48679103 31:-0.29040721 32:-0.33990068 33:1.0 34:1.0 35:-1.0 36:-1.0 37:0.5050898 38:0.50486699 39:-0.1528638 40:-0.1519146 
1.0 1:-0.15151513 2:-0.15151513 3:1.0 4:1.0 5:-0.82963678 6:-0.85921567 7:1.0 8:1.0 9:-0.25805427 10:-0.59853691 11:-0.187736 12:-0.187736 13:-0.42857143 14:-0.42857143 15:-0.2 16:-0.2 17:0.20000001 18:0.20000001 19:0.20000001 20:0.20000001 21:-1.0 22:-1.0 23:-0.33333333 24:-0.33333333 25:0.3275235 26:-0.16037756 27:-0.68993161 28:-0.74933884 29:0.42085442 30:-0.07487349 31:-0.1578191 32:-0.18305704 33:-0.92465122 34:-0.92465122 35:-0.87619048 36:-0.77142857 37:-0.92928332 38:-0.92934738 39:-0.94251937 40:-0.94195186 
1.0 1:0.21212124 2:0.21212124 3:0.42857143 4:0.42857143 5:-0.80056438 6:-0.80056438 7:1.0 8:1.0 9:0.06858994 10:-0.5075261 11:0.22699799 12:0.22094871 13:-0.42857143 14:-0.14285714 15:-0.2 16:-0.2 17:0.20000001 18:0.20000001 19:0.20000001 20:0.20000001 21:-1.0 22:-1.0 23:-0.33333333 24:-0.33333333 25:-0.47577959 26:-0.78541124 27:-0.72056443 28:-0.34452898 29:-0.3685556 30:-1.0 31:-0.53036648 32:-0.52370738 33:-0.63832745 34:-0.63832745 35:-0.91428571 36:-0.32380952 37:-0.66971716 38:-0.66676471 39:-0.69542322 40:-0.70655607 
1.0 1:-0.51515151 2:-0.51515151 3:-0.14285714 4:-0.14285714 5:-0.40398438 6:-0.40398438 7:1.0 8:1.0 9:-0.36560996 10:-0.81534294 11:-0.75048393 12:-0.75048393 13:-0.42857143 14:-0.71428571 15:-0.2 16:-0.2 17:0.20000001 18:0.20000001 19:0.20000001 20:0.20000001 21:-1.0 22:-1.0 23:-0.33333333 24:-0.33333333 25:-0.34224376 26:-0.21835392 27:-0.15630521 28:-0.2202572 29:-0.6707228 30:-0.53097055 31:-0.18354457 32:-0.12467934 33:-0.99922935 34:-0.99972988 35:-0.9047619 36:-0.84761905 37:-0.99938282 38:-0.99975218 39:-0.99898659 40:-0.99896244 
1.0 1:-0.51515151 2:-0.51515151 3:-0.14285714 4:-0.14285714 5:-0.2155709 6:-0.2155709 7:1.0 8:1.0 9:-0.47091378 10:-0.55521417 11:-0.78988109 12:-0.78988109 13:-1.0 14:-1.0 15:-1.0 16:-1.0 17:-1.0 18:-1.0 19:-1.0 20:-1.0 21:-1.0 22:-1.0 23:0.33333333 24:0.33333333 25:0.51026214 26:0.73900582 27:-0.24406978 28:-0.22719047 29:0.08812631 30:0.21580367 31:0.70833564 32:0.7321514 33:-0.99976166 34:-0.99965837 35:-0.8952381 36:-0.88571429 37:-0.99987074 38:-0.99979254 39:-0.99942214 40:-0.99943939 
1.0 1:-0.21212119 2:-0.21212119 3:0.54285714 4:0.54285714 5:-0.70544597 6:-0.72219381 7:1.0 8:1.0 9:-0.40794194 10:-0.83400418 11:-0.3475943 12:-0.35171951 13:-0.14285714 14:-0.42857143 15:-0.33333332 16:-0.33333332 17:3.0E-8 18:3.0E-8 19:3.0E-8 20:3.0E-8 21:-1.0 22:-1.0 25:-0.50950888 26:-0.41327504 27:-0.40288947 28:-0.43910305 29:-0.71954425 30:-0.53172148 31:-0.39665394 32:-0.35259436 33:-0.92465122 34:-0.92465122 35:-0.95238095 36:-0.77142857 37:-0.93356466 38:-0.93383459 39:-0.95166393 40:-0.95084385 
1.0 1:0.33333335 2:0.33333335 3:-0.14285714 4:-0.14285714 5:-0.45645653 6:-0.46192659 7:1.0 8:1.0 9:-0.93001094 10:-0.93001094 11:0.65341072 12:0.65341072 13:-0.42857143 14:-0.14285714 15:-0.2 16:-0.2 17:0.20000001 18:0.20000001 19:0.20000001 20:0.20000001 21:-1.0 22:-1.0 23:-0.33333333 24:-0.33333333 25:-0.16581295 26:-0.20511335 27:0.21479654 28:-0.97256819 29:-0.75547239 30:0.31737675 31:0.29570662 32:-0.55709941 33:1.0 34:1.0 35:-0.77142857 36:1.0 37:0.78397398 38:0.78267726 39:0.99970417 40:1.0 
1.0 1:-0.11111108 2:-0.11111108 3:1.0 4:1.0 5:-0.60408085 6:-0.60408085 7:1.0 8:1.0 9:-0.50444148 10:-0.4630476 11:-0.28152777 12:-0.28152777 13:-0.71428571 14:-0.71428571 15:-0.33333332 16:-0.33333332 17:3.0E-8 18:3.0E-8 19:3.0E-8 20:3.0E-8 21:-1.0 22:-1.0 25:0.60591514 26:0.13115457 27:-0.4916066 28:-0.76885006 29:0.62466204 30:0.2541803 31:0.18654665 32:-0.53520812 33:1.0 34:1.0 35:-0.96190476 36:-0.96190476 37:0.76796931 38:0.76777683 39:0.26678649 40:0.26704308 
1.0 1:-0.17845115 2:-0.17845115 3:0.71428571 4:0.71428571 5:-0.11185342 6:-0.10028862 7:1.0 8:1.0 9:-0.45343813 10:-0.56027648 11:-0.55715627 12:-0.51961777 13:0.14285714 14:0.42857143 15:-0.55555556 16:-0.55555556 17:-0.33333333 18:-0.33333333 19:-0.33333333 20:-0.33333333 21:-1.0 22:-1.0 23:1.0 24:1.0 25:-0.01776894 26:-0.57751815 27:-0.84021082 28:-0.87412405 29:0.14943054 30:-0.41535943 31:-0.36553938 32:-0.68932892 33:1.0 34:1.0 35:-0.95238095 36:-0.95238095 37:0.50564864 38:0.50070527 39:-0.15519489 40:-0.13351749 
-1.0 1:0.09090908 2:0.09090908 3:1.0 4:1.0 5:0.48946023 6:0.59156818 8:1.0 9:0.32377142 10:-0.30950265 11:-0.10181382 12:-0.1125172 13:-0.14285714 14:-0.14285714 16:-0.2 17:0.50000002 18:0.20000001 19:0.50000002 20:0.20000001 21:-1.0 22:-1.0 23:-0.66666667 24:-0.33333333 25:-0.80022115 26:-0.80022115 27:-0.84088148 28:-0.84088148 29:-0.5712624 30:-0.65723641 31:-0.85713247 32:-0.85549298 33:-0.99963454 34:-0.99963454 35:-0.55238095 36:-0.55238095 37:-0.99996079 38:-0.99999039 39:-0.99839795 40:-0.99841304 
-1.0 1:0.69696973 2:0.69696973 3:1.0 4:1.0 5:-0.79849238 6:-0.83910352 8:1.0 9:-0.46089475 10:-0.62447254 11:0.03126109 12:0.03335229 13:-0.71428571 14:-0.42857143 16:-0.2 17:0.50000002 18:0.20000001 19:0.50000002 20:0.20000001 21:-1.0 22:-1.0 23:-0.66666667 24:-0.33333333 25:-0.5221663 26:-0.74436389 27:-0.75903403 28:-0.78095484 29:-0.33796299 30:-0.60278696 31:-0.60194598 32:-0.61150419 33:-0.87761782 34:-0.8283837 35:-0.8 36:-0.4952381 37:-0.87834508 38:-0.84040632 39:-0.88122078 40:-0.86413662 
-1.0 1:0.09090908 2:0.09090908 3:1.0 4:1.0 5:-0.11680576 6:-0.11680576 7:-1.0 9:-0.36497229 10:-0.80435334 11:0.06529373 12:0.06529373 13:-0.14285714 14:-0.14285714 17:0.50000002 18:0.50000002 19:0.50000002 20:0.50000002 21:-1.0 22:-1.0 23:-0.66666667 24:-0.66666667 25:-0.71571496 26:-0.71571496 27:-0.82990267 28:-0.9022099 29:-0.50409598 30:-0.4454924 31:-0.75787741 32:-0.78278406 33:1.0 34:1.0 35:-0.84761905 36:-0.84761905 37:1.0 38:1.0 39:0.90130312 40:0.90130312 
-1.0 1:0.49494951 2:0.49494951 3:-0.37142857 4:-0.37142857 5:-0.33712797 6:-0.34962134 8:1.0 9:-0.87412971 10:-0.87412971 11:0.04134577 12:0.04134577 13:-0.71428571 14:-0.42857143 15:-0.33333332 16:-0.33333332 17:3.0E-8 18:3.0E-8 19:3.0E-8 20:3.0E-8 21:-1.0 22:-1.0 25:0.51304179 26:0.14653933 27:-0.33051549 28:-0.1144603 29:0.22596098 30:-0.19556712 31:0.49138464 32:0.47836089 33:-0.85124893 34:-0.85124893 35:-0.94285714 36:-0.97142857 37:-0.86909905 38:-0.8691277 39:-0.90413499 40:-0.90415008 
-1.0 1:0.09090908 2:0.09090908 3:1.0 4:1.0 5:-0.62947277 6:-0.60820029 7:1.0 8:1.0 9:-0.15009876 10:-0.47056143 11:0.11060158 12:0.15224936 13:-0.14285714 14:-0.14285714 15:-0.2 16:-0.2 17:0.20000001 18:0.20000001 19:0.20000001 20:0.20000001 21:-1.0 22:-1.0 23:-0.33333333 24:-0.33333333 25:-0.22312409 26:-0.17821482 27:-0.81246289 28:-0.48425407 29:-0.08217372 30:-0.18211185 31:-0.31243511 32:-0.28396202 33:-0.97509295 34:-0.97509295 35:-0.95238095 36:-0.95238095 37:-0.9241132 38:-0.97679009 39:-0.84787203 40:-0.98072968 
-1.0 1:-0.42857141 2:-0.42857141 3:-0.14285714 4:-0.14285714 5:-0.4738797 6:-0.4738797 7:1.0 8:1.0 9:-0.47091378 10:-0.40230887 11:-0.65189356 12:-0.65189356 13:-0.71428571 14:-0.71428571 15:-0.42857144 16:-0.42857144 17:-0.14285715 18:-0.14285715 19:-0.14285715 20:-0.14285715 21:-1.0 22:-1.0 23:0.33333333 24:0.33333333 25:0.27532468 26:0.35306762 27:-0.40289769 28:-0.1605281 29:0.01553647 30:-0.12397923 31:0.20862152 32:0.22239894 33:-0.97030222 34:-0.9991499 35:-0.84761905 36:-0.94285714 37:-0.97550399 38:-0.99914962 39:-0.98286259 40:-0.99865885 
-1.0 1:-0.44781144 2:-0.44781144 3:-0.42857143 4:-0.42857143 5:-0.3827119 6:-0.35873812 7:1.0 8:1.0 9:-0.11399537 10:-0.31648979 11:-0.66933508 12:-0.66933508 13:-0.71428571 14:-1.0 15:-0.55555556 16:-1.0 17:-0.33333333 18:-1.0 19:-0.33333333 20:-1.0 21:-1.0 22:-1.0 23:1.0 24:1.0 25:0.43350544 26:0.24089565 27:-0.13692243 28:-0.16843049 29:-0.23709263 30:-0.29927867 31:0.71424197 32:0.61759052 33:-0.97133505 34:-0.98676391 35:-0.92380952 36:-0.93333333 37:-0.97866989 38:-0.99024882 39:-0.98722049 40:-0.9938146 
-1.0 1:-0.27272724 2:-0.27272724 3:1.0 4:1.0 5:-0.65287252 6:-0.98837008 7:1.0 8:1.0 9:-0.55242031 10:-0.5296606 11:-0.15141852 12:-0.1780588 13:-0.42857143 14:-0.42857143 15:-0.2 16:-0.2 17:0.20000001 18:0.20000001 19:0.20000001 20:0.20000001 21:-1.0 22:-1.0 23:-0.33333333 24:-0.33333333 25:-0.48529946 26:-0.48529946 27:-0.61562947 28:-0.77517902 29:-0.49244275 30:-0.18058867 31:-0.53901329 32:-0.51833637 33:1.0 34:1.0 35:-0.99047619 36:-0.97142857 37:0.88079 38:0.88078528 39:0.5208769 40:0.52088897 
-1.0 1:0.09090908 2:0.09090908 3:-0.14285714 4:-0.14285714 5:-0.76359078 6:-0.55086586 7:1.0 8:1.0 9:-0.70948036 10:-0.70948036 11:-0.43928419 12:-0.41536213 13:-0.14285714 14:-0.14285714 15:-0.42857144 16:-0.42857144 17:-0.14285715 18:-0.14285715 19:-0.14285715 20:-0.14285715 21:-1.0 22:-1.0 23:0.33333333 24:0.33333333 25:-0.71937509 26:-0.56944226 27:-0.5761285 28:-0.5761285 29:-0.81011745 30:-0.67406375 31:-0.55935513 32:-0.54963386 33:-0.78828614 34:-0.78828614 35:-0.8 36:-0.92380952 37:-0.80184834 38:-0.80181247 39:-0.72442142 40:-0.72447748 
-1.0 1:0.17748919 2:0.17748919 3:0.61904761 4:0.61904761 5:0.05624428 6:-0.85350442 7:1.0 8:1.0 9:-0.35365057 10:-0.58313866 11:0.09630145 12:0.10035992 13:0.42857143 14:0.42857143 15:-0.42857144 16:-0.42857144 17:-0.14285715 18:-0.14285715 19:-0.14285715 20:-0.14285715 21:-1.0 22:-1.0 23:0.33333333 24:0.33333333 25:0.02131661 26:-0.16256906 27:-0.83704715 28:-0.92921019 29:0.04080405 30:0.04731866 31:-0.51951093 32:-0.52565921 33:1.0 34:1.0 35:-0.8952381 36:-0.97142857 37:0.66779588 38:0.65326697 39:0.08700105 40:0.14302754 
-1.0 1:0.09090908 2:0.15824915 3:0.34693877 4:0.42857143 5:0.00402778 6:-0.81248477 7:1.0 8:1.0 9:-0.09796325 10:-0.40359563 11:-0.06745557 12:-0.09319616 13:0.42857143 14:0.71428571 16:-0.55555556 17:-0.24999999 18:-0.33333333 19:-0.09999999 20:-0.33333333 21:-0.24999998 22:-1.0 23:0.66666667 24:1.0 25:-0.80843354 26:-0.61853627 27:-0.90134147 28:-0.84506459 29:-0.61691169 30:-0.39755449 31:-0.78861456 32:-0.76804118 33:1.0 34:1.0 35:-0.95238095 36:-0.94285714 37:0.58105742 38:0.47653601 39:-0.048521 40:0.00766229 
-1.0 1:-0.51515151 2:-0.51515151 3:0.42857143 4:-0.14285714 5:-0.52462978 6:-0.52462978 7:1.0 8:1.0 9:-0.59699579 10:-0.41376727 11:-0.95411012 12:-0.95411012 13:-0.71428571 14:-0.71428571 15:-0.2 16:-0.2 17:0.20000001 18:0.20000001 19:0.20000001 20:0.20000001 21:-1.0 22:-1.0 23:-0.33333333 24:-0.33333333 25:-0.45768025 26:-0.67916027 27:-0.51238625 28:-0.3030146 29:-0.55433148 30:-0.92121 31:-0.43392135 32:-0.46836595 33:-0.92996631 34:-0.92996631 35:-0.94285714 36:-0.94285714 37:-0.93451228 38:-0.934604 39:-0.94538711 40:-0.94580368 
-1.0 1:-0.16883113 2:-0.16883113 3:0.61904761 4:-0.52380953 5:-0.62736965 6:-0.62736965 7:1.0 8:1.0 9:-0.67327808 10:-0.7877015 11:-0.14373086 12:-0.14373086 13:-0.42857143 14:-0.42857143 15:-0.42857144 16:-0.42857144 17:-0.14285715 18:-0.14285715 19:-0.14285715 20:-0.14285715 21:-1.0 22:-1.0 23:0.33333333 24:0.33333333 25:0.16426333 26:0.18546594 27:-0.75154798 28:-0.57448011 29:0.34950898 30:0.35312844 31:-0.18964721 32:-0.13976488 33:1.0 34:1.0 35:-0.85714286 36:-0.62857143 37:0.64204174 38:0.64110134 39:0.20581154 40:0.20599697 
-1.0 1:0.00432903 2:0.00432903 3:-0.14285714 4:1.0 5:0.01755823 6:0.01755823 7:1.0 8:1.0 9:0.02811115 10:-0.31949816 11:-0.03813736 12:-0.03813736 13:0.14285714 14:0.14285714 15:-0.42857144 16:-0.42857144 17:-0.14285715 18:-0.14285715 19:-0.14285715 20:-0.14285715 21:-1.0 22:-1.0 23:0.33333333 24:0.33333333 25:0.00100313 26:0.00100313 27:-0.7990202 28:-0.7990202 29:0.06331936 30:0.02144719 31:-0.49042914 32:-0.48054599 33:1.0 34:1.0 35:-0.86666667 36:-0.99047619 37:0.66793379 38:0.66803322 39:0.08636713 40:0.08631107 
-1.0 1:-0.15151513 2:-0.51515151 3:0.42857143 4:0.42857143 5:-0.75274273 6:-0.69480971 7:1.0 8:1.0 9:-0.47337658 10:-0.72739348 11:0.13871042 12:0.09068427 13:-0.42857143 14:-0.42857143 15:-0.2 16:-0.2 17:0.20000001 18:0.20000001 19:0.20000001 20:0.20000001 21:-1.0 22:-1.0 23:-0.33333333 24:-0.33333333 25:-0.01073822 26:-0.01073822 27:-0.53922043 28:-0.3816802 29:-0.03618725 30:-0.17046125 31:0.09157839 32:0.13227765 33:-0.37404265 34:-0.37404265 35:-0.72380952 36:-0.97142857 37:-0.37307484 38:-0.37298632 39:-0.14260838 40:-0.14262649 
-1.0 1:0.39393941 2:-0.01010097 3:1.0 4:1.0 5:-0.69119062 6:-0.71861465 7:1.0 8:1.0 9:-0.39563291 10:-0.21725219 11:0.16084358 12:0.14332084 13:0.14285714 14:0.14285714 15:-0.33333332 16:-0.33333332 17:3.0E-8 18:3.0E-8 19:3.0E-8 20:3.0E-8 21:-1.0 22:-1.0 25:-0.3489871 26:-0.32700022 27:-0.90134147 28:-0.9249725 29:-0.1423555 30:-0.12190953 31:-0.79436882 32:-0.77018385 33:1.0 34:1.0 35:-0.97142857 36:-0.99047619 37:0.73175495 38:0.73175878 39:0.40258131 40:0.40257124 
-1.0 1:-0.3131313 2:0.00432903 3:1.0 4:1.0 5:-0.35272779 6:-0.44204333 7:1.0 8:1.0 9:-0.52370438 10:-0.72534927 11:-0.40528812 12:-0.34808167 13:-0.14285714 14:0.42857143 15:-0.33333332 16:-0.42857144 17:3.0E-8 18:-0.14285715 19:3.0E-8 20:-0.14285715 21:-1.0 22:-1.0 24:0.33333333 25:-0.48809146 26:-0.097243 27:-0.77012411 28:-0.93914765 29:-0.37172533 30:0.24581528 31:-0.36425399 32:-0.41434724 33:-0.37404265 34:-0.37404265 35:-0.8952381 36:-0.8952381 37:-0.44844712 38:-0.48706227 39:-0.59745334 40:-0.56035246 
-1.0 1:-0.38047137 2:-0.04377101 3:0.42857143 4:0.42857143 5:-0.45362018 6:-0.49135354 7:1.0 8:1.0 9:-0.68294209 10:-0.71783065 11:-0.49628737 12:-0.50395627 13:-0.42857143 14:0.14285714 15:-0.55555556 16:-0.55555556 17:-0.33333333 18:-0.33333333 19:-0.33333333 20:-0.33333333 21:-1.0 22:-1.0 23:1.0 24:1.0 25:-0.36984491 26:-0.27461251 27:-0.59190656 28:-0.79595868 29:-0.53478495 30:-0.23405304 31:-0.45099513 32:-0.45133124 33:1.0 34:1.0 35:-0.97142857 36:-0.9047619 37:0.50562798 38:0.4972595 39:-0.1547924 40:-0.11729382 
-1.0 1:-0.21212119 2:0.09090908 3:0.34693877 4:0.34693877 5:-0.64738797 6:-0.65856032 7:1.0 8:1.0 9:-0.60919099 10:-0.73708583 11:-0.32140878 12:-0.28244467 13:-0.42857143 14:-0.14285714 15:-0.5 16:-0.5 17:-0.24999999 18:-0.24999999 19:-0.24999999 20:-0.24999999 21:-1.0 22:-1.0 23:0.66666667 24:0.66666667 25:0.35363716 26:0.13115457 27:-0.71098427 28:-0.54094986 29:0.23750563 30:-0.14874477 31:-0.11111341 32:-0.04910634 33:1.0 34:1.0 35:-0.97142857 36:-0.96190476 37:0.58067014 38:0.57104528 39:-0.04720034 40:-0.00669735 
-1.0 1:0.33333335 2:0.33333335 3:-0.71428571 4:-0.71428571 5:-0.3529304 6:-0.3529304 7:1.0 8:1.0 9:0.22220503 10:0.22220503 11:0.06876143 12:0.31462302 13:0.14285714 14:0.14285714 15:-0.2 16:-0.2 17:0.20000001 18:0.20000001 19:0.20000001 20:0.20000001 21:-1.0 22:-1.0 23:-0.33333333 24:-0.33333333 25:-0.16899595 26:-0.04783811 27:0.35426183 28:0.35426183 29:-0.92200934 30:-0.78994948 31:0.25886362 32:0.34343351 33:-0.97551403 34:-0.97551403 35:-0.81904762 36:-0.87619048 37:-0.97832629 38:-0.97830326 39:-0.97074996 40:-0.97078619 
-1.0 1:0.21212124 2:0.21212124 3:-0.14285714 4:-0.14285714 5:-0.691163 6:-0.72185617 7:1.0 8:1.0 9:-0.7877015 10:-0.7877015 11:0.42212988 12:-0.13823724 13:0.14285714 14:0.14285714 15:-0.2 16:-0.2 17:0.20000001 18:0.20000001 19:0.20000001 20:0.20000001 21:-1.0 22:-1.0 23:-0.33333333 24:-0.33333333 25:-0.65259219 26:-0.86517007 27:-0.81163743 28:-0.7990202 29:-0.50581269 30:-0.74121337 31:-0.79143142 32:-0.7682243 33:1.0 34:1.0 35:-0.79047619 36:-0.9047619 37:0.86379265 38:0.86566619 39:0.5664105 40:0.56120027 
-1.0 1:1.0 2:1.0 3:-0.37142857 4:-0.37142857 5:-0.6728938 6:-0.6728938 7:1.0 8:1.0 9:-0.46635927 10:-1.0 11:0.37102269 12:0.72105842 13:0.42857143 14:0.42857143 15:1.0 16:1.0 17:3.0E-8 18:3.0E-8 19:0.39999999 20:0.39999999 21:1.0 22:1.0 25:0.37298921 26:0.48960362 27:-0.59952275 28:-0.59952275 29:0.43867651 30:0.59118607 31:0.01091533 32:0.07621885 33:-0.8283837 34:-0.8283837 35:-0.99047619 36:-0.98095238 37:-0.85276733 38:-0.85277805 39:-0.86286475 40:-0.86284463 
-1.0 1:0.00432903 2:0.00432903 3:-0.14285714 4:-0.14285714 5:-0.22135932 6:-0.13453282 7:1.0 8:1.0 9:-0.35371988 10:-0.662821 11:-0.03049468 12:0.19686595 13:-0.71428571 14:-0.42857143 15:-0.42857144 16:-0.42857144 17:-0.14285715 18:-0.14285715 19:-0.14285715 20:-0.14285715 21:-1.0 22:-1.0 23:0.33333333 24:0.33333333 25:0.630721 26:0.46110003 27:-0.58247375 28:-0.58247375 29:0.35321102 30:0.430044 31:-0.03661126 32:0.02916531 33:-0.92465122 34:-0.92465122 35:-0.98095238 36:-0.98095238 37:-0.93723068 38:-0.93731302 39:-0.95923072 40:-0.95895042 
-1.0 1:-0.04377101 2:-0.04377101 3:0.71428571 4:0.71428571 5:-0.11188158 6:-0.19109065 7:1.0 8:1.0 9:-0.41040096 10:-0.33296567 11:-0.35663415 12:0.09861204 13:0.14285714 14:0.14285714 15:-0.55555556 16:-0.55555556 17:-0.33333333 18:-0.33333333 19:-0.33333333 20:-0.33333333 21:-1.0 22:-1.0 23:1.0 24:1.0 25:0.32572944 26:-0.04937266 27:-0.82283535 28:-0.73466868 29:0.32730793 30:-0.09094065 31:-0.34114678 32:-0.3125693 33:1.0 34:1.0 35:-0.8952381 36:-1.0 37:0.49287823 38:0.49617173 39:-0.08142198 40:-0.10774477 
-1.0 1:-0.03030303 2:-0.03030303 3:1.0 4:1.0 5:-0.93326421 6:-0.93326421 7:1.0 8:1.0 9:-0.83548512 10:-0.23967456 11:0.24876038 12:0.24876038 13:-0.42857143 14:-0.42857143 15:-0.2 16:-0.2 17:0.20000001 18:0.20000001 19:0.20000001 20:0.20000001 21:-1.0 22:-1.0 23:-0.33333333 24:-0.33333333 25:-0.67684348 26:-0.8498939 27:-0.65964952 28:-0.86195642 29:-0.60805918 30:-0.63946915 31:-0.69935789 32:-0.71943845 33:1.0 34:1.0 35:-0.74285714 36:-0.85714286 37:0.87967083 38:0.87969924 39:0.52423969 40:0.52416725 
-1.0 1:0.21212124 2:0.21212124 3:1.0 4:1.0 5:-0.68020445 6:-0.68020445 7:1.0 8:1.0 9:-0.8707593 10:-0.73966342 11:0.17488395 12:0.17488395 13:-0.71428571 14:-0.42857143 15:-0.2 16:-0.2 17:0.20000001 18:0.20000001 19:0.20000001 20:0.20000001 21:-1.0 22:-1.0 23:-0.33333333 24:-0.33333333 25:-0.31809054 26:-0.29307792 27:-0.41600668 28:-0.82960929 29:-0.4351884 30:-0.02876837 31:-0.38714082 32:-0.42357525 33:-0.87909556 34:-0.87909556 35:-0.64761905 36:-0.64761905 37:-0.8876525 38:-0.88908281 39:-0.90471356 40:-0.90014934 
-1.0 1:0.45454546 2:0.45454546 3:1.0 4:1.0 5:-0.61670928 6:-0.61670928 7:1.0 8:1.0 9:0.19145194 10:-0.37240838 11:0.67890362 12:0.67890362 13:-0.14285714 14:0.14285714 15:-0.2 16:-0.2 17:0.20000001 18:0.20000001 19:0.20000001 20:0.20000001 21:-1.0 22:-1.0 23:-0.33333333 24:-0.33333333 25:-0.39409686 26:-0.53682185 27:-0.60186628 28:-0.48875329 29:-0.39010167 30:-0.65171046 31:-0.48277224 32:-0.48548406 33:-0.72355166 34:-0.72355166 35:-0.94285714 36:-0.91428571 37:-0.74018216 38:-0.74080728 39:-0.78783675 40:-0.78622478 
-1.0 1:-0.51515151 2:-0.51515151 3:-0.52380953 4:-0.52380953 5:-0.32902417 6:-0.32902417 7:1.0 8:1.0 9:-0.81534294 10:-0.36560996 11:-0.69959899 12:-0.69959899 13:0.14285714 14:0.14285714 15:-0.42857144 16:-0.42857144 17:-0.14285715 18:-0.14285715 19:-0.14285715 20:-0.14285715 21:-1.0 22:-1.0 23:0.33333333 24:0.33333333 25:-0.07095467 26:0.70115149 27:-0.82000195 28:-0.50384959 29:-0.05546829 30:1.0 31:0.06769103 32:0.01830687 33:-0.99922935 34:-0.99966632 35:-0.85714286 36:-0.9047619 37:-0.99952266 38:-0.99972179 39:-0.99881841 40:-0.99883997 
-1.0 1:0.00432903 2:0.00432903 3:-0.14285714 4:-0.14285714 5:-0.13453282 6:-0.13453282 7:1.0 8:1.0 9:0.30195116 10:-0.21446531 11:0.19686595 12:0.19686595 13:-0.42857143 14:-0.42857143 15:-0.42857144 16:-0.42857144 17:-0.14285715 18:-0.14285715 19:-0.14285715 20:-0.14285715 21:-1.0 22:-1.0 23:0.33333333 24:0.33333333 25:0.630721 26:0.16979706 27:-0.21487988 28:-0.35157092 29:0.43039168 30:-0.08155075 31:0.55378136 32:0.53397221 33:-0.92465122 34:-0.92465122 35:-0.98095238 36:-0.98095238 37:-0.93730519 38:-0.93729966 39:-0.95897629 40:-0.95897198 
-1.0 1:0.33333335 2:0.33333335 3:0.42857143 4:0.42857143 5:-0.53161932 6:-0.45645653 7:1.0 8:1.0 9:-0.00450227 10:-0.26098509 11:0.52810445 12:0.52810445 13:-0.14285714 14:-0.14285714 15:-0.2 16:-0.2 17:0.20000001 18:0.20000001 19:0.20000001 20:0.20000001 21:-1.0 22:-1.0 23:-0.33333333 24:-0.33333333 25:-0.89402619 26:-0.39157407 27:-0.88175588 28:-0.8684938 29:-0.67054359 30:0.12338316 31:-1.0 32:-0.53046791 33:-0.60141577 34:-0.60141577 35:-0.87619048 36:-0.94285714 37:-0.64346248 38:-0.64343839 39:-0.57991085 40:-0.57995311 
-1.0 1:-0.03030303 2:-0.03030303 3:1.0 4:1.0 5:-0.81717719 6:-0.81717719 7:1.0 8:1.0 9:-0.44054998 10:-0.44054998 11:-0.10845614 12:-0.10845614 13:-0.71428571 14:-0.71428571 15:-0.2 16:-0.2 17:0.20000001 18:0.20000001 19:0.20000001 20:0.20000001 21:-1.0 22:-1.0 23:-0.33333333 24:-0.33333333 25:0.60591514 26:-0.97246463 27:-0.4916066 28:-0.76885006 29:0.69229069 30:-0.86186162 31:0.02141091 32:-0.88078256 33:1.0 34:1.0 35:-0.96190476 36:-0.96190476 37:0.88113946 38:0.88101915 39:0.52021883 40:0.52052673 
-1.0 1:0.09090908 2:0.09090908 3:-0.14285714 4:-0.14285714 5:-0.84451833 6:-0.84451833 7:1.0 8:1.0 9:-0.7877015 10:-0.7877015 11:-0.43671158 12:-0.43671158 13:-0.42857143 14:-0.14285714 15:-0.2 16:-0.2 17:0.20000001 18:0.20000001 19:0.20000001 20:0.20000001 21:-1.0 22:-1.0 23:-0.33333333 24:-0.33333333 25:-0.9551019 26:-0.03867788 27:-0.86160879 28:-0.5761285 29:-0.7436403 30:0.22932159 31:-0.96561805 32:-0.08186267 33:-0.78828614 34:-0.78828614 35:-0.27619048 36:-1.0 37:-0.80471516 38:-0.80442659 39:-0.74460941 40:-0.74506825 
-1.0 1:0.00432903 2:0.00432903 3:0.61904761 4:0.61904761 5:-0.07968742 6:-0.07968742 7:1.0 8:1.0 9:-0.29430625 10:-0.16410831 11:-0.20748374 12:-0.20748374 13:0.14285714 14:0.42857143 15:-0.42857144 16:-0.42857144 17:-0.14285715 18:-0.14285715 19:-0.14285715 20:-0.14285715 21:-1.0 22:-1.0 23:0.33333333 24:0.33333333 25:-1.0 26:0.44932079 27:-0.9680861 28:-0.9680861 29:-0.7767888 30:0.52067285 31:-0.93375346 32:-0.13554581 33:-0.82294149 34:-0.82294149 35:-0.85714286 36:-0.98095238 37:-0.85301877 38:-0.85290131 39:-0.9014879 40:-0.90152671 
-1.0 1:-0.17845115 2:-0.11111108 3:0.14285714 4:0.14285714 5:-0.475568 6:-0.45113891 7:1.0 8:1.0 9:-0.5744497 10:-0.80844046 11:-0.51922082 12:-0.53956365 13:-0.14285714 14:-0.14285714 15:-0.11111112 16:-0.55555556 17:-0.33333333 18:-0.33333333 19:-0.11111109 20:-0.33333333 21:-0.21432578 22:-1.0 23:1.0 24:1.0 25:0.48797559 26:-0.61931846 27:-0.53607393 28:-0.91991342 29:0.04771645 30:-0.39172514 31:-0.0764262 32:-0.64248381 33:1.0 34:1.0 35:-0.8952381 36:-0.94285714 37:0.50501734 38:0.50497554 39:-0.15255523 40:-0.15243448 
-1.0 1:0.09090908 2:0.09090908 3:1.0 4:1.0 5:0.48946023 6:0.59156818 8:1.0 9:0.32377142 10:-0.30950265 11:-0.10181382 12:-0.1125172 13:-0.14285714 14:-0.14285714 16:-0.2 17:0.50000002 18:0.20000001 19:0.50000002 20:0.20000001 21:-1.0 22:-1.0 23:-0.66666667 24:-0.33333333 25:-0.80022115 26:-0.80022115 27:-0.84088148 28:-0.84088148 29:-0.5712624 30:-0.65723641 31:-0.85713247 32:-0.85549298 33:-0.99963454 34:-0.99963454 35:-0.55238095 36:-0.55238095 37:-0.99996079 38:-0.99999039 39:-0.99839795 40:-0.99841304 
-1.0 1:0.69696973 2:0.69696973 3:1.0 4:1.0 5:-0.79849238 6:-0.83910352 8:1.0 9:-0.46089475 10:-0.62447254 11:0.03126109 12:0.03335229 13:-0.71428571 14:-0.42857143 16:-0.2 17:0.50000002 18:0.20000001 19:0.50000002 20:0.20000001 21:-1.0 22:-1.0 23:-0.66666667 24:-0.33333333 25:-0.5221663 26:-0.74436389 27:-0.75903403 28:-0.78095484 29:-0.33796299 30:-0.60278696 31:-0.60194598 32:-0.61150419 33:-0.87761782 34:-0.8283837 35:-0.8 36:-0.4952381 37:-0.87834508 38:-0.84040632 39:-0.88122078 40:-0.86413662 
-1.0 1:0.09090908 2:0.09090908 3:1.0 4:1.0 5:-0.11680576 6:-0.11680576 8:-1.0 9:-0.80435334 10:-0.36497229 11:0.06529373 12:0.06529373 13:-0.14285714 14:-0.14285714 17:0.50000002 18:0.50000002 19:0.50000002 20:0.50000002 21:-1.0 22:-1.0 23:-0.66666667 24:-0.66666667 25:-0.71571496 26:-0.71571496 27:-0.9022099 28:-0.82990267 29:-0.4454924 30:-0.50409598 31:-0.78278406 32:-0.75787741 33:1.0 34:1.0 35:-0.84761905 36:-0.84761905 37:1.0 38:1.0 39:0.90130312 40:0.90130312 
-1.0 1:0.49494951 2:0.49494951 3:-0.37142857 4:-0.37142857 5:-0.33712797 6:-0.34962134 8:1.0 9:-0.87412971 10:-0.87412971 11:0.04134577 12:0.04134577 13:-0.71428571 14:-0.42857143 15:-0.33333332 16:-0.33333332 17:3.0E-8 18:3.0E-8 19:3.0E-8 20:3.0E-8 21:-1.0 22:-1.0 25:0.51304179 26:0.14653933 27:-0.33051549 28:-0.1144603 29:0.22596098 30:-0.19556712 31:0.49138464 32:0.47836089 33:-0.85124893 34:-0.85124893 35:-0.94285714 36:-0.97142857 37:-0.86909905 38:-0.8691277 39:-0.90413499 40:-0.90415008 
-1.0 1:0.09090908 2:0.09090908 3:1.0 4:1.0 5:-0.60820029 6:-0.62947277 7:1.0 8:1.0 9:-0.47056143 10:-0.15009876 11:0.15224936 12:0.11060158 13:-0.14285714 14:-0.14285714 15:-0.2 16:-0.2 17:0.20000001 18:0.20000001 19:0.20000001 20:0.20000001 21:-1.0 22:-1.0 23:-0.33333333 24:-0.33333333 25:-0.17821482 26:-0.22312409 27:-0.48425407 28:-0.81246289 29:-0.18211185 30:-0.08217372 31:-0.28396202 32:-0.31243511 33:-0.97509295 34:-0.97509295 35:-0.95238095 36:-0.95238095 37:-0.97679009 38:-0.9241132 39:-0.98072968 40:-0.84787203 
-1.0 1:-1.0 2:-1.0 3:-0.14285714 4:-0.14285714 5:-0.14871449 6:-0.14871449 7:1.0 8:1.0 9:-0.47922798 10:-0.46485277 11:-1.0 12:-1.0 13:-0.71428571 14:-0.42857143 15:-0.2 16:-0.2 17:0.20000001 18:0.20000001 19:0.20000001 20:0.20000001 21:-1.0 22:-1.0 23:-0.33333333 24:-0.33333333 25:0.630721 26:0.54659036 27:1.0 28:0.39807354 29:-0.517461 30:-0.20029487 31:1.0 32:0.88086218 33:-0.99625004 34:-0.9996981 35:-0.98095238 36:-1.0 37:-0.99625425 38:-0.99848108 39:-0.99474838 40:-0.9970486 
-1.0 1:-0.42857141 2:-0.42857141 3:-0.14285714 4:-0.14285714 5:-0.4738797 6:-0.4738797 7:1.0 8:1.0 9:-0.40230887 10:-0.47091378 11:-0.65189356 12:-0.65189356 13:-0.71428571 14:-0.71428571 15:-0.42857144 16:-0.42857144 17:-0.14285715 18:-0.14285715 19:-0.14285715 20:-0.14285715 21:-1.0 22:-1.0 23:0.33333333 24:0.33333333 25:0.35306762 26:0.27532468 27:-0.1605281 28:-0.40289769 29:-0.12397923 30:0.01553647 31:0.22239894 32:0.20862152 33:-0.9991499 34:-0.97030222 35:-0.94285714 36:-0.84761905 37:-0.99914962 38:-0.97550399 39:-0.99865885 40:-0.98286259 
-1.0 1:-0.44781144 2:-0.44781144 3:-0.42857143 4:-0.42857143 5:-0.3827119 6:-0.35873812 7:1.0 8:1.0 9:-0.11399537 10:-0.31648979 11:-0.66933508 12:-0.66933508 13:-0.71428571 14:-1.0 15:-0.55555556 16:-1.0 17:-0.33333333 18:-1.0 19:-0.33333333 20:-1.0 21:-1.0 22:-1.0 23:1.0 24:1.0 25:0.43350544 26:0.24089565 27:-0.13692243 28:-0.16843049 29:-0.23709263 30:-0.29927867 31:0.71424197 32:0.61759052 33:-0.97133505 34:-0.98676391 35:-0.92380952 36:-0.93333333 37:-0.97866989 38:-0.99024882 39:-0.98722049 40:-0.9938146 
-1.0 1:-0.51515151 2:-0.51515151 3:0.14285714 4:0.14285714 5:-0.09907869 6:-0.09907869 7:1.0 8:1.0 9:0.1488396 10:-0.04589382 11:0.01603654 12:0.01603654 13:-0.42857143 14:0.14285714 15:-0.55555556 16:-0.55555556 17:-0.33333333 18:-0.33333333 19:-0.33333333 20:-0.33333333 21:-1.0 22:-1.0 23:1.0 24:1.0 25:-0.08275862 26:0.05825021 27:-0.26378829 28:-0.71100342 29:-0.44079379 30:0.15080149 31:0.09779628 32:0.04931664 33:-0.99892745 34:-0.98432485 35:-0.95238095 36:-0.9047619 37:-0.99914463 38:-0.98715294 39:-0.99877864 40:-0.98752571 
-1.0 1:-0.27272724 2:-0.27272724 3:1.0 4:1.0 5:-0.98837008 6:-0.65287252 7:1.0 8:1.0 9:-0.5296606 10:-0.55242031 11:-0.1780588 12:-0.15141852 13:-0.42857143 14:-0.42857143 15:-0.2 16:-0.2 17:0.20000001 18:0.20000001 19:0.20000001 20:0.20000001 21:-1.0 22:-1.0 23:-0.33333333 24:-0.33333333 25:-0.48529946 26:-0.48529946 27:-0.77517902 28:-0.61562947 29:-0.18058867 30:-0.49244275 31:-0.51833637 32:-0.53901329 33:1.0 34:1.0 35:-0.97142857 36:-0.99047619 37:0.88078528 38:0.88079 39:0.52088897 40:0.5208769 
-1.0 1:0.17748919 2:0.17748919 3:0.61904761 4:0.61904761 5:0.05624428 6:-0.85350442 7:1.0 8:1.0 9:-0.35365057 10:-0.58313866 11:0.09630145 12:0.10035992 13:0.42857143 14:0.42857143 15:-0.42857144 16:-0.42857144 17:-0.14285715 18:-0.14285715 19:-0.14285715 20:-0.14285715 21:-1.0 22:-1.0 23:0.33333333 24:0.33333333 25:0.02131661 26:-0.16256906 27:-0.83704715 28:-0.92921019 29:0.04080405 30:0.04731866 31:-0.51951093 32:-0.52565921 33:1.0 34:1.0 35:-0.8952381 36:-0.97142857 37:0.66779588 38:0.65326697 39:0.08700105 40:0.14302754 
-1.0 1:0.09090908 2:0.15824915 3:0.34693877 4:0.42857143 5:0.00402778 6:-0.81248477 7:1.0 8:1.0 9:-0.09796325 10:-0.40359563 11:-0.06745557 12:-0.09319616 13:0.42857143 14:0.71428571 16:-0.55555556 17:-0.24999999 18:-0.33333333 19:-0.09999999 20:-0.33333333 21:-0.24999998 22:-1.0 23:0.66666667 24:1.0 25:-0.80843354 26:-0.61853627 27:-0.90134147 28:-0.84506459 29:-0.61691169 30:-0.39755449 31:-0.78861456 32:-0.76804118 33:1.0 34:1.0 35:-0.95238095 36:-0.94285714 37:0.58105742 38:0.47653601 39:-0.048521 40:0.00766229 
-1.0 1:-0.28787877 2:-0.28787877 3:0.67346939 4:0.67346939 5:-0.64228691 6:-0.21274902 7:1.0 8:1.0 9:-0.72509229 10:-0.66003958 11:-0.44378741 12:-0.44386694 13:-0.42857143 14:-0.71428571 15:-0.5 16:-0.5 17:-0.24999999 18:-0.24999999 19:-0.24999999 20:-0.24999999 21:-1.0 22:-1.0 23:0.66666667 24:0.66666667 25:0.13115457 26:0.17323366 27:-0.9543076 28:-0.4916066 29:0.64622951 30:0.15842718 31:0.00338396 32:-0.04034423 33:1.0 34:1.0 35:-0.96190476 36:-0.98095238 37:0.57774868 38:0.5813213 39:-0.03616333 40:-0.04985676 
-1.0 1:-0.51515151 2:-0.51515151 3:-0.14285714 4:0.42857143 5:-0.27634944 6:-0.27634944 7:1.0 8:1.0 9:-0.68849314 10:-0.38634727 11:-0.81368143 12:-0.81368143 13:-1.0 14:-1.0 15:-1.0 16:-1.0 17:-1.0 18:-1.0 19:-1.0 20:-1.0 21:-1.0 22:-1.0 23:-0.33333333 24:-0.33333333 25:0.15117975 26:0.15117975 27:-0.67227492 28:-0.61062875 29:0.44528468 30:0.40688154 31:-1.943E-4 32:0.01573149 33:-0.9994677 34:-0.9994677 35:-0.81904762 36:-0.81904762 37:-0.99966898 38:-0.99966898 39:-0.99920393 40:-0.99920393 
-1.0 1:-0.16883113 2:-0.16883113 3:-0.52380953 4:0.61904761 5:-0.62736965 6:-0.62736965 7:1.0 8:1.0 9:-0.7877015 10:-0.67327808 11:-0.14373086 12:-0.14373086 13:-0.42857143 14:-0.42857143 15:-0.42857144 16:-0.42857144 17:-0.14285715 18:-0.14285715 19:-0.14285715 20:-0.14285715 21:-1.0 22:-1.0 23:0.33333333 24:0.33333333 25:0.18546594 26:0.16426333 27:-0.57448011 28:-0.75154798 29:0.35312844 30:0.34950898 31:-0.13976488 32:-0.18964721 33:1.0 34:1.0 35:-0.62857143 36:-0.85714286 37:0.64110134 38:0.64204174 39:0.20599697 40:0.20581154 
-1.0 1:-0.01010097 2:0.02356906 3:-0.37142857 4:-1.0 5:0.7872751 6:0.85818338 7:1.0 8:1.0 9:-0.34776154 10:0.75143885 11:-0.14220054 12:-0.07522148 13:0.42857143 14:0.42857143 15:-0.33333332 16:-0.55555556 17:3.0E-8 18:-0.33333333 19:3.0E-8 20:-0.33333333 21:-1.0 22:-1.0 24:1.0 25:0.2137361 26:0.23719102 27:-0.08054067 28:0.43543563 29:-0.21686949 30:-0.67273617 31:0.54513357 32:0.5575514 33:-0.99918963 34:-0.99895923 35:-0.8 36:-0.94285714 37:-0.99949697 38:-0.99916836 39:-0.99782943 40:-0.99827888 
-1.0 1:0.00432903 2:0.00432903 3:-0.14285714 4:1.0 5:0.01755823 6:0.01755823 7:1.0 8:1.0 9:0.02811115 10:-0.31949816 11:-0.03813736 12:-0.03813736 13:0.14285714 14:0.14285714 15:-0.42857144 16:-0.42857144 17:-0.14285715 18:-0.14285715 19:-0.14285715 20:-0.14285715 21:-1.0 22:-1.0 23:0.33333333 24:0.33333333 25:0.00100313 26:0.00100313 27:-0.7990202 28:-0.7990202 29:0.06331936 30:0.02144719 31:-0.49042914 32:-0.48054599 33:1.0 34:1.0 35:-0.86666667 36:-0.99047619 37:0.66793379 38:0.66803322 39:0.08636713 40:0.08631107 
-1.0 1:-0.15151513 2:-0.51515151 3:0.42857143 4:0.42857143 5:-0.75274273 6:-0.69480971 7:1.0 8:1.0 9:-0.47337658 10:-0.72739348 11:0.13871042 12:0.09068427 13:-0.42857143 14:-0.42857143 15:-0.2 16:-0.2 17:0.20000001 18:0.20000001 19:0.20000001 20:0.20000001 21:-1.0 22:-1.0 23:-0.33333333 24:-0.33333333 25:-0.01073822 26:-0.01073822 27:-0.53922043 28:-0.3816802 29:-0.03618725 30:-0.17046125 31:0.09157839 32:0.13227765 33:-0.37404265 34:-0.37404265 35:-0.72380952 36:-0.97142857 37:-0.37307484 38:-0.37298632 39:-0.14260838 40:-0.14262649 
-1.0 1:0.39393941 2:-0.01010097 3:1.0 4:1.0 5:-0.69119062 6:-0.71861465 7:1.0 8:1.0 9:-0.39563291 10:-0.21725219 11:0.16084358 12:0.14332084 13:0.14285714 14:0.14285714 15:-0.33333332 16:-0.33333332 17:3.0E-8 18:3.0E-8 19:3.0E-8 20:3.0E-8 21:-1.0 22:-1.0 25:-0.3489871 26:-0.32700022 27:-0.90134147 28:-0.9249725 29:-0.1423555 30:-0.12190953 31:-0.79436882 32:-0.77018385 33:1.0 34:1.0 35:-0.97142857 36:-0.99047619 37:0.73175495 38:0.73175878 39:0.40258131 40:0.40257124 
-1.0 1:-0.3131313 2:0.00432903 3:1.0 4:1.0 5:-0.35272779 6:-0.44204333 7:1.0 8:1.0 9:-0.52370438 10:-0.72534927 11:-0.40528812 12:-0.34808167 13:-0.14285714 14:0.42857143 15:-0.33333332 16:-0.42857144 17:3.0E-8 18:-0.14285715 19:3.0E-8 20:-0.14285715 21:-1.0 22:-1.0 24:0.33333333 25:-0.48809146 26:-0.097243 27:-0.77012411 28:-0.93914765 29:-0.37172533 30:0.24581528 31:-0.36425399 32:-0.41434724 33:-0.37404265 34:-0.37404265 35:-0.8952381 36:-0.8952381 37:-0.44844712 38:-0.48706227 39:-0.59745334 40:-0.56035246 
-1.0 1:-0.38047137 2:-0.04377101 3:0.42857143 4:0.42857143 5:-0.45362018 6:-0.49135354 7:1.0 8:1.0 9:-0.68294209 10:-0.71783065 11:-0.49628737 12:-0.50395627 13:-0.42857143 14:0.14285714 15:-0.55555556 16:-0.55555556 17:-0.33333333 18:-0.33333333 19:-0.33333333 20:-0.33333333 21:-1.0 22:-1.0 23:1.0 24:1.0 25:-0.36984491 26:-0.27461251 27:-0.59190656 28:-0.79595868 29:-0.53478495 30:-0.23405304 31:-0.45099513 32:-0.45133124 33:1.0 34:1.0 35:-0.97142857 36:-0.9047619 37:0.50562798 38:0.4972595 39:-0.1547924 40:-0.11729382 
-1.0 1:-0.21212119 2:0.09090908 3:0.34693877 4:0.34693877 5:-0.64738797 6:-0.65856032 7:1.0 8:1.0 9:-0.60919099 10:-0.73708583 11:-0.32140878 12:-0.28244467 13:-0.42857143 14:-0.14285714 15:-0.5 16:-0.5 17:-0.24999999 18:-0.24999999 19:-0.24999999 20:-0.24999999 21:-1.0 22:-1.0 23:0.66666667 24:0.66666667 25:0.35363716 26:0.13115457 27:-0.71098427 28:-0.54094986 29:0.23750563 30:-0.14874477 31:-0.11111341 32:-0.04910634 33:1.0 34:1.0 35:-0.97142857 36:-0.96190476 37:0.58067014 38:0.57104528 39:-0.04720034 40:-0.00669735 
-1.0 1:0.21212124 2:0.21212124 3:-0.14285714 4:-0.14285714 5:-0.691163 6:-0.72185617 7:1.0 8:1.0 9:-0.7877015 10:-0.7877015 11:0.42212988 12:-0.13823724 13:0.14285714 14:0.14285714 15:-0.2 16:-0.2 17:0.20000001 18:0.20000001 19:0.20000001 20:0.20000001 21:-1.0 22:-1.0 23:-0.33333333 24:-0.33333333 25:-0.65259219 26:-0.86517007 27:-0.81163743 28:-0.7990202 29:-0.50581269 30:-0.74121337 31:-0.79143142 32:-0.7682243 33:1.0 34:1.0 35:-0.79047619 36:-0.9047619 37:0.86379265 38:0.86566619 39:0.5664105 40:0.56120027 
-1.0 1:1.0 2:1.0 3:-0.37142857 4:-0.37142857 5:-0.6728938 6:-0.6728938 7:1.0 8:1.0 9:-0.46635927 10:-1.0 11:0.37102269 12:0.72105842 13:0.42857143 14:0.42857143 15:1.0 16:1.0 17:3.0E-8 18:3.0E-8 19:0.39999999 20:0.39999999 21:1.0 22:1.0 25:0.37298921 26:0.48960362 27:-0.59952275 28:-0.59952275 29:0.43867651 30:0.59118607 31:0.01091533 32:0.07621885 33:-0.8283837 34:-0.8283837 35:-0.99047619 36:-0.98095238 37:-0.85276733 38:-0.85277805 39:-0.86286475 40:-0.86284463 
-1.0 1:0.00432903 2:0.00432903 3:-0.14285714 4:-0.14285714 5:-0.13453282 6:-0.22135932 7:1.0 8:1.0 9:-0.662821 10:-0.35371988 11:0.19686595 12:-0.03049468 13:-0.42857143 14:-0.71428571 15:-0.42857144 16:-0.42857144 17:-0.14285715 18:-0.14285715 19:-0.14285715 20:-0.14285715 21:-1.0 22:-1.0 23:0.33333333 24:0.33333333 25:0.46110003 26:0.630721 27:-0.58247375 28:-0.58247375 29:0.430044 30:0.35321102 31:0.02916531 32:-0.03661126 33:-0.92465122 34:-0.92465122 35:-0.98095238 36:-0.98095238 37:-0.93731302 38:-0.93723068 39:-0.95895042 40:-0.95923072 
-1.0 1:-0.04377101 2:-0.04377101 3:0.71428571 4:0.71428571 5:-0.11188158 6:-0.19109065 7:1.0 8:1.0 9:-0.41040096 10:-0.33296567 11:-0.35663415 12:0.09861204 13:0.14285714 14:0.14285714 15:-0.55555556 16:-0.55555556 17:-0.33333333 18:-0.33333333 19:-0.33333333 20:-0.33333333 21:-1.0 22:-1.0 23:1.0 24:1.0 25:0.32572944 26:-0.04937266 27:-0.82283535 28:-0.73466868 29:0.32730793 30:-0.09094065 31:-0.34114678 32:-0.3125693 33:1.0 34:1.0 35:-0.8952381 36:-1.0 37:0.49287823 38:0.49617173 39:-0.08142198 40:-0.10774477 
-1.0 1:-0.03030303 2:-0.03030303 3:1.0 4:1.0 5:-0.93326421 6:-0.93326421 7:1.0 8:1.0 9:-0.83548512 10:-0.23967456 11:0.24876038 12:0.24876038 13:-0.42857143 14:-0.42857143 15:-0.2 16:-0.2 17:0.20000001 18:0.20000001 19:0.20000001 20:0.20000001 21:-1.0 22:-1.0 23:-0.33333333 24:-0.33333333 25:-0.67684348 26:-0.8498939 27:-0.65964952 28:-0.86195642 29:-0.60805918 30:-0.63946915 31:-0.69935789 32:-0.71943845 33:1.0 34:1.0 35:-0.74285714 36:-0.85714286 37:0.87967083 38:0.87969924 39:0.52423969 40:0.52416725 
-1.0 1:0.21212124 2:0.21212124 3:1.0 4:1.0 5:-0.68020445 6:-0.68020445 7:1.0 8:1.0 9:-0.8707593 10:-0.73966342 11:0.17488395 12:0.17488395 13:-0.71428571 14:-0.42857143 15:-0.2 16:-0.2 17:0.20000001 18:0.20000001 19:0.20000001 20:0.20000001 21:-1.0 22:-1.0 23:-0.33333333 24:-0.33333333 25:-0.31809054 26:-0.29307792 27:-0.41600668 28:-0.82960929 29:-0.4351884 30:-0.02876837 31:-0.38714082 32:-0.42357525 33:-0.87909556 34:-0.87909556 35:-0.64761905 36:-0.64761905 37:-0.8876525 38:-0.88908281 39:-0.90471356 40:-0.90014934 
-1.0 1:0.45454546 2:0.45454546 3:1.0 4:1.0 5:-0.61670928 6:-0.61670928 7:1.0 8:1.0 9:0.19145194 10:-0.37240838 11:0.67890362 12:0.67890362 13:-0.14285714 14:0.14285714 15:-0.2 16:-0.2 17:0.20000001 18:0.20000001 19:0.20000001 20:0.20000001 21:-1.0 22:-1.0 23:-0.33333333 24:-0.33333333 25:-0.39409686 26:-0.53682185 27:-0.60186628 28:-0.48875329 29:-0.39010167 30:-0.65171046 31:-0.48277224 32:-0.48548406 33:-0.72355166 34:-0.72355166 35:-0.94285714 36:-0.91428571 37:-0.74018216 38:-0.74080728 39:-0.78783675 40:-0.78622478 
-1.0 1:-0.51515151 2:-0.51515151 3:-0.52380953 4:-0.52380953 5:-0.32902417 6:-0.32902417 7:1.0 8:1.0 9:-0.81534294 10:-0.36560996 11:-0.69959899 12:-0.69959899 13:0.14285714 14:0.14285714 15:-0.42857144 16:-0.42857144 17:-0.14285715 18:-0.14285715 19:-0.14285715 20:-0.14285715 21:-1.0 22:-1.0 23:0.33333333 24:0.33333333 25:-0.07095467 26:0.70115149 27:-0.82000195 28:-0.50384959 29:-0.05546829 30:1.0 31:0.06769103 32:0.01830687 33:-0.99922935 34:-0.99966632 35:-0.85714286 36:-0.9047619 37:-0.99952266 38:-0.99972179 39:-0.99881841 40:-0.99883997 
-1.0 1:0.00432903 2:0.00432903 3:-0.14285714 4:-0.14285714 5:-0.13453282 6:-0.13453282 7:1.0 8:1.0 9:-0.21446531 10:0.30195116 11:0.19686595 12:0.19686595 13:-0.42857143 14:-0.42857143 15:-0.42857144 16:-0.42857144 17:-0.14285715 18:-0.14285715 19:-0.14285715 20:-0.14285715 21:-1.0 22:-1.0 23:0.33333333 24:0.33333333 25:0.16979706 26:0.630721 27:-0.35157092 28:-0.21487988 29:-0.08155075 30:0.43039168 31:0.53397221 32:0.55378136 33:-0.92465122 34:-0.92465122 35:-0.98095238 36:-0.98095238 37:-0.93729966 38:-0.93730519 39:-0.95897198 40:-0.95897629 
-1.0 1:-0.03030303 2:-0.03030303 3:1.0 4:1.0 5:-0.81717719 6:-0.81717719 7:1.0 8:1.0 9:-0.44054998 10:-0.44054998 11:-0.10845614 12:-0.10845614 13:-0.71428571 14:-0.71428571 15:-0.2 16:-0.2 17:0.20000001 18:0.20000001 19:0.20000001 20:0.20000001 21:-1.0 22:-1.0 23:-0.33333333 24:-0.33333333 25:0.60591514 26:-0.97246463 27:-0.4916066 28:-0.76885006 29:0.69229069 30:-0.86186162 31:0.02141091 32:-0.88078256 33:1.0 34:1.0 35:-0.96190476 36:-0.96190476 37:0.88113946 38:0.88101915 39:0.52021883 40:0.52052673 
-1.0 1:0.00432903 2:0.00432903 3:0.61904761 4:0.61904761 5:-0.07968742 6:-0.07968742 7:1.0 8:1.0 9:-0.29430625 10:-0.16410831 11:-0.20748374 12:-0.20748374 13:0.14285714 14:0.42857143 15:-0.42857144 16:-0.42857144 17:-0.14285715 18:-0.14285715 19:-0.14285715 20:-0.14285715 21:-1.0 22:-1.0 23:0.33333333 24:0.33333333 25:-1.0 26:0.44932079 27:-0.9680861 28:-0.9680861 29:-0.7767888 30:0.52067285 31:-0.93375346 32:-0.13554581 33:-0.82294149 34:-0.82294149 35:-0.85714286 36:-0.98095238 37:-0.85301877 38:-0.85290131 39:-0.9014879 40:-0.90152671 
-1.0 1:-0.11111108 2:-0.17845115 3:0.14285714 4:0.14285714 5:-0.45113891 6:-0.475568 7:1.0 8:1.0 9:-0.80844046 10:-0.5744497 11:-0.53956365 12:-0.51922082 13:-0.14285714 14:-0.14285714 15:-0.55555556 16:-0.11111112 17:-0.33333333 18:-0.33333333 19:-0.33333333 20:-0.11111109 21:-1.0 22:-0.21432578 23:1.0 24:1.0 25:-0.61931846 26:0.48797559 27:-0.91991342 28:-0.53607393 29:-0.39172514 30:0.04771645 31:-0.64248381 32:-0.0764262 33:1.0 34:1.0 35:-0.94285714 36:-0.8952381 37:0.50497554 38:0.50501734 39:-0.15243448 40:-0.15255523 
-1.0 1:0.09090908 2:0.09090908 3:1.0 4:1.0 5:1.0 6:1.0 7:-1.0 9:-0.26706291 10:-0.28282114 11:-0.15533064 12:-0.15533064 13:-0.42857143 14:-0.42857143 15:0.33333332 17:1.0 18:0.50000002 19:1.0 20:0.50000002 21:-1.0 22:-1.0 23:-1.0 24:-0.66666667 25:-0.5476984 26:-0.60152044 27:-0.15852723 28:-0.13852212 29:-0.82259693 30:-0.9562062 31:-0.26968598 32:-0.31641098 33:-0.99931674 34:-0.99931674 35:-0.7047619 36:-0.78095238 37:-0.99955286 38:-0.99955084 39:-0.99834261 40:-0.99862435 
-1.0 1:-0.51515151 2:-0.51515151 3:1.0 4:1.0 5:-0.36143939 6:-0.36143939 7:-1.0 9:-0.81534294 10:-0.50329226 11:-0.76388639 12:-0.57238665 13:-0.71428571 14:-0.71428571 15:0.33333332 17:1.0 18:0.50000002 19:1.0 20:0.50000002 21:-1.0 22:-1.0 23:-1.0 24:-0.66666667 25:-0.13603786 26:-0.13603786 27:-0.38798203 28:-0.27677716 29:-0.00550115 30:-0.27969304 31:-0.1008967 32:-0.12700941 33:-0.99995233 34:-0.99922935 35:-0.83809524 36:-0.84761905 37:-0.99966677 38:-0.99935002 39:-0.99872497 40:-0.99904696 
-1.0 1:-0.06060603 2:-0.03030303 3:1.0 4:1.0 5:0.68091264 6:0.74473011 8:1.0 9:-0.06428327 10:-0.33014408 11:-0.40321942 12:-0.35364166 13:-1.0 14:-1.0 15:-1.0 16:-1.0 17:-1.0 18:-1.0 19:-1.0 20:-1.0 21:-1.0 22:-1.0 23:-0.66666667 24:-0.33333333 25:-0.41695776 26:-0.08556825 27:-0.39025507 28:-0.50788511 29:-0.53455505 30:-0.14199417 31:-0.32210303 32:-0.29313831 33:-0.99911018 34:-0.99911018 35:-0.94285714 36:-0.8 37:-0.99924783 38:-0.99939277 39:-0.99826966 40:-0.99846134 
-1.0 1:-0.27272724 2:-0.16883113 3:-0.14285714 4:-0.14285714 5:-0.42221795 6:-0.52640972 8:1.0 9:-0.26706291 10:-0.10024046 11:-0.34188594 12:-0.20499079 13:-0.71428571 14:-0.42857143 15:-0.2 16:-0.42857144 17:0.20000001 18:-0.14285715 19:0.20000001 20:-0.14285715 21:-1.0 22:-1.0 23:-0.33333333 24:0.33333333 25:0.83744656 26:1.0 27:0.43723939 28:0.5896452 29:0.09787817 30:-0.00616002 31:0.81197598 32:0.88382291 33:-0.99864143 34:-0.99805352 35:-0.80952381 36:-0.92380952 37:-0.99892777 38:-0.99860824 39:-0.99821985 40:-0.99789987 
-1.0 1:0.09090908 2:0.09090908 3:1.0 4:1.0 5:-0.64821282 6:-0.64821282 7:1.0 8:1.0 9:-0.44956953 10:-0.5518284 11:0.31182332 12:0.31182332 13:0.42857143 14:0.42857143 15:-0.2 16:-0.2 17:0.20000001 18:0.20000001 19:0.20000001 20:0.20000001 21:-1.0 22:-1.0 23:-0.33333333 24:-0.33333333 25:-0.19305522 26:-0.18716807 27:-0.41234712 28:-0.6983025 29:-0.26734106 30:0.05078628 31:-0.30582647 32:-0.32466288 33:-0.99045826 34:-0.37404265 35:-0.61904762 36:-0.91428571 37:-0.99170836 38:-0.41775325 39:-0.99115013 40:-0.50744468 
-1.0 1:-0.63636362 2:-0.63636362 3:-0.14285714 4:-0.14285714 5:-0.34016691 6:-0.34016691 7:1.0 8:1.0 9:-0.13588402 10:-0.54662236 11:-0.29618875 12:-0.29618875 13:-0.71428571 14:-0.42857143 15:-0.2 16:-0.2 17:0.20000001 18:0.20000001 19:0.20000001 20:0.20000001 21:-1.0 22:-1.0 23:-0.33333333 24:-0.33333333 25:0.19113301 26:-0.12237025 27:0.14028042 28:0.45403703 29:-0.33975355 30:-0.91114307 31:0.41227155 32:0.34016715 33:-0.99679029 34:-0.97097753 35:-0.97142857 36:-0.92380952 37:-0.99730069 38:-0.97314337 39:-0.99648109 40:-0.97705294 
-1.0 1:-0.3419913 2:-0.3419913 3:-0.52380953 4:-0.52380953 5:-0.46138633 6:-0.4519319 7:1.0 8:1.0 9:-0.81534294 10:-0.81534294 11:-0.72131598 12:-0.72716961 13:-0.71428571 14:-0.71428571 15:-0.42857144 16:-0.42857144 17:-0.14285715 18:-0.14285715 19:-0.14285715 20:-0.14285715 21:-1.0 22:-1.0 23:0.33333333 24:0.33333333 25:0.630721 26:0.630721 27:-0.58269703 28:-0.6170848 29:0.89042611 30:0.9233924 31:0.58147718 32:0.56963211 33:-0.87761782 34:-0.78828614 35:-0.92380952 36:-0.92380952 37:-0.89817795 38:-0.82366267 39:-0.93302437 40:-0.88453592 
-1.0 1:-0.42857141 2:-0.42857141 3:-0.52380953 4:-0.52380953 5:-0.11933819 6:-0.10038108 7:1.0 8:1.0 9:-0.61450871 10:-0.61450871 11:-0.41389041 12:-0.41389041 13:-0.71428571 14:-1.0 15:-0.42857144 16:-1.0 17:-0.14285715 18:-1.0 19:-0.14285715 20:-1.0 21:-1.0 22:-1.0 23:0.33333333 24:0.33333333 25:0.08424238 26:-0.03974601 27:0.36388004 28:0.35349278 29:-0.57458428 30:-0.73170081 31:0.33639794 32:0.28229507 33:-0.97133505 34:-0.98676391 35:-0.94285714 36:-0.94285714 37:-0.97618026 38:-0.98905391 39:-0.98452717 40:-0.99288888 
-1.0 1:-0.28787877 2:-0.28787877 3:-0.30612245 4:-0.30612245 5:-0.50426897 6:-0.51275429 7:1.0 8:1.0 9:0.06680669 10:0.06680669 11:-0.48397443 12:-0.47885248 13:-0.14285714 14:-0.14285714 15:-0.5 16:-0.5 17:-0.24999999 18:-0.24999999 19:-0.24999999 20:-0.24999999 21:-1.0 22:-1.0 23:0.66666667 24:0.66666667 25:-0.17197492 26:-0.17197492 27:-0.79780252 28:-0.64490539 29:-0.02860375 30:-0.19741761 31:-0.14652271 32:-0.18410272 33:-0.78828614 34:-0.99545556 35:-0.9047619 36:-0.9047619 37:-0.83327123 38:-0.99684069 39:-0.89729896 40:-0.99569247 
-1.0 1:-0.51515151 2:-0.51515151 3:-0.14285714 4:-0.14285714 5:-0.82244466 6:-0.52462978 7:1.0 8:1.0 9:-1.0 10:-1.0 11:-0.61979275 12:-0.65359068 13:-0.42857143 14:-0.42857143 15:-0.2 16:-0.2 17:0.20000001 18:0.20000001 19:0.20000001 20:0.20000001 21:-1.0 22:-1.0 23:-0.33333333 24:-0.33333333 25:-0.20511335 26:-0.44091704 27:-0.04897301 28:0.06651989 29:-0.6606443 30:-0.96213174 31:0.02242678 32:-0.03727493 33:-0.37404265 34:-0.37404265 35:-0.60952381 36:-0.86666667 37:-0.37284443 38:-0.37275933 39:-0.14295251 40:-0.14291025 
-1.0 1:-0.16883113 2:-0.16883113 3:0.61904761 4:0.61904761 5:-0.40904927 6:-1.0 7:1.0 8:1.0 9:-0.26600769 10:-0.154969 11:-0.13114524 12:-0.13571069 13:-0.14285714 14:-0.14285714 15:-0.42857144 16:-0.42857144 17:-0.14285715 18:-0.14285715 19:-0.14285715 20:-0.14285715 21:-1.0 22:-1.0 23:0.33333333 24:0.33333333 25:-0.27959193 26:-0.23416929 27:-0.68993161 28:-1.0 29:-0.33236873 30:-0.0341441 31:-0.42347148 32:-0.39242982 33:-0.92465122 34:-0.92465122 35:-0.87619048 36:-0.95238095 37:-0.93756204 38:-0.93745968 39:-0.9580405 40:-0.95805775 
-1.0 1:0.09090908 2:0.09090908 3:0.23809525 4:0.23809525 5:-0.25763351 6:-0.87376394 7:1.0 8:1.0 9:-0.67388077 10:-0.71555776 11:-0.00267023 12:-0.01584356 13:0.42857143 14:1.0 15:-0.42857144 16:-0.42857144 17:-0.14285715 18:-0.14285715 19:-0.14285715 20:-0.14285715 21:-1.0 22:-1.0 23:0.33333333 24:0.33333333 25:-0.40177024 26:-0.38882222 27:-0.72428142 28:-0.84049637 29:-0.43631376 30:-0.2345852 31:-0.47712642 32:-0.43735018 33:1.0 34:1.0 35:-0.92380952 36:-0.97142857 37:0.6672561 38:0.66080884 39:0.08955398 40:0.11193957 
-1.0 1:0.2929293 2:0.36026937 3:-0.14285714 4:-0.14285714 5:-0.68820848 6:0.11541893 7:1.0 8:1.0 9:-0.57010495 10:-0.68277693 11:-0.13804356 12:-0.13257564 13:-0.14285714 14:-0.71428571 15:-0.55555556 16:-0.55555556 17:-0.33333333 18:-0.33333333 19:-0.33333333 20:-0.33333333 21:-1.0 22:-1.0 23:1.0 24:1.0 25:0.53525407 26:0.37976816 27:-0.36848588 28:-0.22763961 29:0.2609033 30:0.20513831 31:0.21662658 32:0.18698779 33:-0.85124893 34:-0.85124893 35:-0.98095238 36:-0.88571429 37:-0.85971908 38:-0.85976216 39:-0.87758244 40:-0.87813251 
-1.0 1:0.52380951 2:0.52380951 3:-0.14285714 4:-0.14285714 5:-0.51463992 6:-0.31204477 7:1.0 8:1.0 9:-0.20321342 10:0.03243552 11:1.0 12:0.95553305 13:-0.14285714 14:-0.14285714 15:-0.42857144 16:-0.42857144 17:-0.14285715 18:-0.14285715 19:-0.14285715 20:-0.14285715 21:-1.0 22:-1.0 23:0.33333333 24:0.33333333 25:-0.11137076 26:-0.11137076 27:-0.83348281 28:-0.65151271 29:-0.14725931 30:-0.1798885 31:-0.33763199 32:-0.34613912 33:-0.99733054 34:-0.99733054 35:-0.99047619 36:-0.99047619 37:-0.99745008 38:-0.99749213 39:-0.99708052 40:-0.99706758 
-1.0 1:-0.27272724 2:-0.27272724 3:-0.14285714 4:1.0 5:-0.52027401 6:-0.52027401 7:1.0 8:1.0 9:-0.81534294 10:-0.90767147 11:-0.65449272 12:-0.65449272 13:-0.14285714 14:-0.14285714 15:-0.2 16:-0.2 17:0.20000001 18:0.20000001 19:0.20000001 20:0.20000001 21:-1.0 22:-1.0 23:-0.33333333 24:-0.33333333 25:0.33768989 26:0.3454642 27:-0.30065227 28:-0.64171632 29:0.23005278 30:0.48057822 31:0.17025193 32:0.11233205 33:-0.87761782 34:-0.87761782 35:-0.84761905 36:-0.85714286 37:-0.88536217 38:-0.88517063 39:-0.90570973 40:-0.9060297 
-1.0 1:0.19191919 2:0.19191919 3:-0.37142857 4:0.08571429 5:-0.61400801 6:-0.61400801 7:1.0 8:1.0 9:-0.34776154 10:-0.36952768 11:0.24371888 12:0.24371888 13:0.14285714 14:0.14285714 15:-0.33333332 16:-0.33333332 17:3.0E-8 18:3.0E-8 19:3.0E-8 20:3.0E-8 21:-1.0 22:-1.0 25:-0.62321286 26:-0.59354747 27:-0.61562947 28:-0.61562947 29:-0.65457463 30:-0.62765118 31:-0.60805497 32:-0.59977223 33:1.0 34:1.0 35:-0.9047619 36:-0.9047619 37:0.75801751 38:0.75801751 39:0.29757188 40:0.29757188 
-1.0 1:0.09090908 2:0.09090908 3:-0.9047619 4:-0.52380953 5:-0.25030149 6:-0.34754717 7:1.0 8:1.0 9:0.23340437 10:-0.60677878 11:0.20541185 12:0.17238545 13:-0.42857143 14:-0.14285714 15:-0.42857144 16:-0.42857144 17:-0.14285715 18:-0.14285715 19:-0.14285715 20:-0.14285715 21:-1.0 22:-1.0 23:0.33333333 24:0.33333333 25:0.23305362 26:0.56623768 27:0.50037239 28:0.41220768 29:-0.62761633 30:-0.24863036 31:0.81307801 32:0.87578512 33:-0.89534274 34:-0.89534274 35:-0.96190476 36:-0.96190476 37:-0.91284447 38:-0.91319067 39:-0.94250299 40:-0.94189063 
-1.0 1:-0.51515151 2:-0.51515151 3:-0.52380953 4:0.61904761 5:-0.01297575 6:-0.01297575 7:1.0 8:1.0 9:-0.61450871 10:-0.43553768 11:-0.55187795 12:-0.55187795 13:-1.0 14:-1.0 15:-1.0 16:-1.0 17:-1.0 18:-1.0 19:-1.0 20:-1.0 21:-1.0 22:-1.0 23:0.33333333 24:0.33333333 25:0.11044128 26:0.35084639 27:-0.19280463 28:-0.59513817 29:0.01033697 30:0.35354698 31:-0.0247536 32:-0.07317529 33:-0.99990466 34:-0.99987288 35:-0.93333333 36:-0.93333333 37:-1.0 38:-0.99997606 39:-1.0 40:-0.99998275 
-1.0 1:-0.27272724 2:0.33333335 3:0.42857143 4:0.42857143 5:-0.65287252 6:-0.72185617 7:1.0 8:1.0 9:-0.17040946 10:-0.35030941 11:0.02396615 12:0.08900458 13:-0.14285714 14:-0.14285714 15:-0.2 16:-0.2 17:0.20000001 18:0.20000001 19:0.20000001 20:0.20000001 21:-1.0 22:-1.0 23:-0.33333333 24:-0.33333333 25:-0.32704344 26:-0.32835379 27:-0.91239249 28:-0.95054357 29:0.14650204 30:0.21416818 31:-0.47117387 32:-0.50465148 33:1.0 34:1.0 35:-0.40952381 36:-0.40952381 37:0.85309687 38:0.83576697 39:0.59724318 40:0.65273235 
-1.0 1:-0.75757573 2:-0.39393935 3:0.42857143 4:0.42857143 5:-0.77959579 6:-0.80117217 7:1.0 8:1.0 9:-0.80435334 10:-0.80435334 11:-0.5124102 12:-0.47027621 13:-0.42857143 14:-0.42857143 15:-0.2 16:-0.2 17:0.20000001 18:0.20000001 19:0.20000001 20:0.20000001 21:-1.0 22:-1.0 23:-0.33333333 24:-0.33333333 25:-0.15513573 26:-0.32172776 27:-0.80457162 28:-0.75662491 29:-0.00210062 30:-0.15455151 31:-0.15533354 32:-0.20108869 33:-0.37404265 34:-0.37404265 35:-0.86666667 36:-0.60952381 37:-0.37275933 38:-0.37284244 39:-0.14291025 40:-0.14297062 
-1.0 1:0.24242424 2:0.46969699 3:0.34693877 4:0.34693877 5:-0.56269269 6:-0.59205582 7:1.0 8:1.0 9:-0.3214614 10:-0.42547055 11:0.27790446 12:0.29945746 13:0.14285714 14:0.14285714 15:-0.5 16:-0.5 17:-0.24999999 18:-0.24999999 19:-0.24999999 20:-0.24999999 21:-1.0 22:-1.0 23:0.66666667 24:0.66666667 25:-0.32349804 26:-0.44361464 27:-0.95197941 28:-0.99266011 29:-0.20260595 30:-0.19097607 31:-0.72742554 32:-0.70338673 33:1.0 34:1.0 35:-0.85714286 36:-0.80952381 37:0.56157849 38:0.55890653 39:0.04297485 40:0.05275911 
