svm_type c_svc
kernel_type rbf
gamma 0.025
nr_class 3
total_sv 1278
rho 5.986312323187597E-6 -0.7139895795995456 -0.7139895795995456
label 0 1 2
nr_sv 557 557 164
SV
1.0 0.0 1:-0.52542373 2:-0.52542373 3:-0.14285714 4:-0.14285714 5:1.0 6:1.0 8:1.0 9:-0.38640006 10:-0.38640006 11:-1.0 12:-1.0 13:-1.0 14:-1.0 15:-1.0 16:-1.0 17:-1.0 18:-1.0 19:-1.0 20:-1.0 21:-1.0 22:-1.0 23:-0.33333333 24:-0.33333333 25:-0.36326179 26:-0.36788643 27:-0.79158111 28:-0.7374336 29:-0.24214333 30:-0.29162166 31:-0.542504 32:-0.52904319 33:-0.99922143 34:-0.99922143 35:-0.85365854 36:-0.73170732 37:-0.99940409 38:-0.99945062 39:-0.99893598 40:-0.99893598 
1.0 0.0 1:0.06779659 2:0.06779659 3:0.54285714 4:0.54285714 5:0.28272447 6:0.28272447 8:1.0 9:-0.69320002 10:-0.58682293 11:0.34687683 12:0.34687683 13:-0.55555556 14:-0.55555556 15:-0.33333332 16:-0.33333332 17:3.0E-8 18:3.0E-8 19:3.0E-8 20:3.0E-8 21:-1.0 22:-1.0 25:-0.06014136 26:-0.06014136 27:-0.83116264 28:-0.83116264 29:-0.03677982 30:-0.07043428 31:-0.58040653 32:-0.55313942 33:-0.82561719 34:-0.82561719 35:-0.94308943 36:-0.94308943 37:-0.84596652 38:-0.84596652 39:-0.88928892 40:-0.88928892 
1.0 0.0 1:0.56214691 2:0.56214691 3:0.08571429 4:0.08571429 5:-0.22050693 6:-0.22050693 8:1.0 9:-0.27179043 10:-0.20321342 11:1.0 12:1.0 13:-0.33333333 14:-0.33333333 15:-0.33333332 16:-0.33333332 17:3.0E-8 18:3.0E-8 19:3.0E-8 20:3.0E-8 21:-1.0 22:-1.0 25:-0.42177175 26:-0.42177175 27:-0.87344702 28:-0.87401485 29:-0.41963059 30:-0.41911792 31:-0.63510017 32:-0.63522453 33:-0.99725913 34:-0.99725913 35:-0.98373984 36:-0.98373984 37:-0.99719659 38:-0.99719659 39:-0.99657149 40:-0.99657149 
1.0 1.0 1:-0.27118643 2:-0.27118643 3:0.23809525 4:0.23809525 5:-0.13342078 6:-0.13342078 7:1.0 8:1.0 9:-0.36953719 10:-0.36953719 11:-0.32142809 12:-0.32142809 13:-0.11111111 14:0.11111111 15:-0.42857144 16:-0.42857144 17:-0.14285715 18:-0.14285715 19:-0.14285715 20:-0.14285715 21:-1.0 22:-1.0 23:0.33333333 24:0.33333333 25:-0.12102812 26:0.03733242 27:-0.56570859 28:-0.41776372 29:-0.4682652 30:-0.37114915 31:-0.33853589 32:-0.33844105 33:-0.97835111 34:-0.96593378 35:-0.92682927 36:-0.8699187 37:-0.98236874 38:-0.9722188 39:-0.98647388 40:-0.97915617 
1.0 0.0 1:0.06779659 2:0.06779659 3:0.42857143 4:0.42857143 5:-0.16950067 6:-0.15583827 7:1.0 8:1.0 9:0.14035282 10:0.14035282 11:0.01034125 12:0.01034125 13:-0.55555556 14:-0.55555556 15:-0.2 16:-0.2 17:0.20000001 18:0.20000001 19:0.20000001 20:0.20000001 21:-1.0 22:-1.0 23:-0.33333333 24:-0.33333333 25:0.08475028 26:0.08475028 27:-0.58814622 28:-0.39609517 29:-0.10581796 30:-0.28742525 31:-0.15171948 32:-0.1348018 33:-0.99324713 34:-0.97502234 35:-0.97560976 36:-0.97560976 37:-0.9936418 38:-0.97661515 39:-0.99462556 40:-0.98048086 
1.0 1.0 1:0.75988698 2:0.75988698 3:-0.37142857 4:-0.37142857 5:0.05794563 6:0.04773136 7:1.0 8:1.0 9:-0.02440708 10:-0.02440708 11:0.93753483 12:0.93753483 13:-1.0 14:-1.0 15:-1.0 16:-1.0 17:-1.0 18:-1.0 19:-1.0 20:-1.0 21:-1.0 22:-1.0 25:1.0 26:1.0 27:0.3278948 28:0.3278948 29:0.01479268 30:-0.02624488 31:0.73943923 32:0.6940166 33:-0.99751336 34:-0.99751336 35:-1.0 36:-1.0 37:-0.99776869 38:-0.99787296 39:-0.99859388 40:-0.99767827 
1.0 0.0 1:-0.16949151 2:-0.16949151 3:1.0 4:1.0 5:-0.02175166 6:-0.02175166 7:1.0 8:1.0 9:-0.79891834 10:-0.79891834 11:-0.10171782 12:-0.10171782 13:-0.77777778 14:-0.77777778 15:-0.2 16:-0.2 17:0.20000001 18:0.20000001 19:0.20000001 20:0.20000001 21:-1.0 22:-1.0 23:-0.33333333 24:-0.33333333 25:0.21646996 26:0.21646996 27:-0.78513499 28:-0.66155339 29:0.38237695 30:0.21329916 31:0.03344114 32:0.03177723 33:-0.99991261 34:-0.99973783 35:-0.95934959 36:-0.95934959 37:-0.99986432 38:-0.99973336 39:-0.99996227 40:-0.99982945 
1.0 1.0 1:-0.52542373 2:-0.52542373 3:0.02040816 4:0.02040816 5:-0.09787069 6:-0.09787069 7:1.0 8:1.0 9:-0.71472621 10:-0.677734 11:-0.55711915 12:-0.55711915 13:-1.0 14:-1.0 15:-1.0 16:-1.0 17:-1.0 18:-1.0 19:-1.0 20:-1.0 21:-1.0 22:-1.0 23:0.66666667 24:0.66666667 25:0.22133345 26:0.16702441 27:-0.7238273 28:-0.55138826 29:0.31173015 30:0.01063161 31:-0.11142138 32:-0.16083342 33:-0.99957894 34:-0.99983316 35:-0.93495935 36:-0.93495935 37:-0.99967806 38:-0.99987516 39:-0.99968306 40:-0.99992076 
1.0 0.0 1:0.54237287 2:0.54237287 3:0.42857143 4:0.42857143 5:-0.73902719 6:0.13926938 7:1.0 8:1.0 9:-0.48141596 10:-0.51851355 11:0.05563171 12:0.08493739 13:-0.55555556 14:-0.55555556 15:-0.2 16:-0.2 17:0.20000001 18:0.20000001 19:0.20000001 20:0.20000001 21:-1.0 22:-1.0 23:-0.33333333 24:-0.33333333 25:-0.01862354 26:0.07796851 27:-0.61779336 28:-0.59971735 29:0.05190237 30:0.13659133 31:-0.27228229 32:-0.23379367 33:-0.97491906 34:-0.97410078 35:-0.88617886 36:-0.83739837 37:-0.97748962 38:-0.97680588 39:-0.97627307 40:-0.97548826 
1.0 0.0 1:0.30508476 2:0.30508476 3:0.42857143 4:0.42857143 5:-0.86003694 6:-0.68047407 7:1.0 8:1.0 9:-0.48215279 10:-0.01474726 11:0.41441273 12:0.41005012 13:-0.77777778 14:-0.55555556 15:-0.2 16:-0.2 17:0.20000001 18:0.20000001 19:0.20000001 20:0.20000001 21:-1.0 22:-1.0 23:-0.33333333 24:-0.33333333 25:0.08120398 26:0.04457577 27:-0.67877377 28:-0.63677473 29:-0.00598043 30:-0.10989969 31:-0.35848213 32:-0.32206172 33:1.0 34:1.0 35:-0.96747967 36:-0.95121951 37:0.8804638 38:0.87983741 39:0.52407896 40:0.52427215 
1.0 0.0 1:-0.42655367 2:-0.42655367 3:1.0 4:1.0 5:-0.65939495 6:-0.32759404 7:1.0 8:1.0 9:-0.13864293 10:-0.33705414 11:-0.44292936 12:-0.42404455 13:-0.11111111 14:-0.33333333 15:-0.33333332 16:-0.33333332 17:3.0E-8 18:3.0E-8 19:3.0E-8 20:3.0E-8 21:-1.0 22:-1.0 25:-0.18412337 26:-0.40524693 27:-0.91045353 28:-0.93207806 29:0.00891012 30:-0.11215639 31:-0.70895302 32:-0.73359475 33:1.0 34:1.0 35:-0.93495935 36:-0.87804878 37:0.76564025 38:0.76792459 39:0.27359367 40:0.26674168 
1.0 1.0 1:1.0 2:1.0 3:-0.52380953 4:-0.52380953 5:-0.51114519 6:-0.2218718 7:1.0 8:1.0 9:-0.46635927 10:-0.46635927 11:0.52551052 12:0.49184636 13:-0.11111111 14:0.11111111 15:0.14285716 16:0.14285716 17:-0.14285715 18:-0.14285715 19:0.07142859 20:0.02857143 21:-0.07211558 22:-0.14285708 23:0.33333333 24:0.33333333 25:-0.61669464 26:-0.64419512 27:-0.78615242 28:-0.78615242 29:-0.63173221 30:-0.67596829 31:-0.73537419 32:-0.74887366 33:1.0 34:1.0 35:-0.97560976 36:-0.97560976 37:0.64631675 38:0.64631818 39:0.17863738 40:0.17863307 
1.0 0.26501975226326036 1:0.06779659 2:0.06779659 3:-0.71428571 4:0.42857143 5:0.01191639 6:0.01191639 7:1.0 8:1.0 9:0.51424341 10:-0.12504201 11:0.09266126 12:0.09266126 13:-0.33333333 14:-0.55555556 15:-0.2 16:-0.2 17:0.20000001 18:0.20000001 19:0.20000001 20:0.20000001 21:-1.0 22:-1.0 23:-0.33333333 24:-0.33333333 25:-0.45562067 26:-0.19186104 27:-0.42180727 28:-0.75819014 29:-0.81905943 30:-0.16908892 31:-0.44724154 32:-0.48091302 33:-0.84610618 34:-0.84610618 35:-0.88617886 36:-0.96747967 37:-0.85625047 38:-0.85524961 39:-0.88048999 40:-0.88287461 
1.0 0.0 1:0.30508476 2:0.30508476 3:-0.14285714 4:1.0 5:-0.77942883 6:-0.77942883 7:1.0 8:1.0 9:-0.61237846 10:-0.56356242 11:0.16281684 12:0.13305291 13:-0.77777778 14:-0.77777778 15:-0.2 16:-0.2 17:0.20000001 18:0.20000001 19:0.20000001 20:0.20000001 21:-1.0 22:-1.0 23:-0.33333333 24:-0.33333333 25:0.17294519 26:0.02541915 27:-0.87030876 28:-0.93583831 29:0.48888221 30:0.25930772 31:-0.36395803 32:-0.40634219 33:-0.87902838 34:-0.87902838 35:-0.95121951 36:-0.89430894 37:-0.88656674 38:-0.88653676 39:-0.90692603 40:-0.9066121 
1.0 0.0 1:0.06779659 2:0.06779659 3:-0.9047619 4:-0.14285714 5:0.53157517 6:0.60652314 7:1.0 8:1.0 9:0.75143885 10:-0.22348095 11:0.04699307 12:0.04056766 13:0.33333333 14:0.11111111 15:-0.42857144 16:-0.2 17:-0.14285715 18:0.20000001 19:-0.14285715 20:0.20000001 21:-1.0 22:-1.0 23:0.33333333 24:-0.33333333 25:-0.20795448 26:-0.14492094 27:-0.40026031 28:-0.38995812 29:-0.60378315 30:-0.40208916 31:-0.25573103 32:-0.26794219 33:-0.9983237 34:-0.9983237 35:-0.93495935 36:-0.68292683 37:-0.99876028 38:-0.99886447 39:-0.99643493 40:-0.99591748 
1.0 1.0 1:0.00188327 2:0.00188327 3:-0.14285714 4:-0.42857143 5:-0.56808218 6:-0.56808218 7:1.0 8:1.0 9:-0.80618922 10:-0.59259833 11:0.18983962 12:0.18983962 13:-0.11111111 14:-0.11111111 15:-0.55555556 16:-0.55555556 17:-0.33333333 18:-0.33333333 19:-0.33333333 20:-0.33333333 21:-1.0 22:-1.0 23:1.0 24:1.0 25:0.15636074 26:0.15636074 27:-0.88389703 28:-0.76422972 29:0.27256455 30:0.21616572 31:-0.26384952 32:-0.24746891 33:1.0 34:1.0 35:-0.79674797 36:-0.79674797 37:0.50056056 38:0.50056056 39:-0.13368262 40:-0.13368262 
1.0 0.0 1:-0.28813557 2:0.06779659 3:0.42857143 4:0.42857143 5:-0.77679393 6:-0.81885457 7:1.0 8:1.0 9:-0.55371148 10:-0.80435334 11:-0.17596513 12:-0.16697094 13:-0.55555556 14:-0.55555556 15:-0.2 16:-0.2 17:0.20000001 18:0.20000001 19:0.20000001 20:0.20000001 21:-1.0 22:-1.0 23:-0.33333333 24:-0.33333333 25:-0.51442961 26:-0.53418755 27:-0.67375495 28:-0.71635373 29:-0.58953932 30:-0.57607626 31:-0.64835878 32:-0.66584469 33:1.0 34:1.0 35:-0.78861789 36:-0.94308943 37:0.8358482 38:0.83588939 39:0.65259467 40:0.6526007 
1.0 1.0 1:0.06779659 2:-0.28813557 3:-0.14285714 4:-0.14285714 5:-0.87038132 6:-0.88004258 7:1.0 8:1.0 9:-0.93001094 10:-0.93001094 11:-0.01307219 12:-0.00509937 13:-0.11111111 14:-0.11111111 15:-0.2 16:-0.2 17:0.20000001 18:0.20000001 19:0.20000001 20:0.20000001 21:-1.0 22:-1.0 23:-0.33333333 24:-0.33333333 25:-0.20730557 26:-0.20730557 27:-0.60303206 28:-0.76125381 29:-0.33588452 30:-0.13082342 31:-0.51590154 32:-0.49180413 33:-0.37399353 34:-0.37399353 35:1.0 36:-0.93495935 37:-0.37869861 38:-0.37789137 39:-0.13380336 40:-0.13383355 
1.0 0.0 1:0.06779659 2:0.36440678 3:0.54285714 4:0.54285714 5:-0.74748485 6:-0.79444562 7:1.0 8:1.0 9:-0.11622718 10:-0.59300989 11:0.22259372 12:0.21792567 13:-0.11111111 14:-0.11111111 15:-0.33333332 16:-0.33333332 17:3.0E-8 18:3.0E-8 19:3.0E-8 20:3.0E-8 21:-1.0 22:-1.0 25:0.29550176 26:0.29550176 27:-0.98594622 28:-1.0 29:0.54480322 30:0.44962711 31:-0.55728851 32:-0.54848108 33:-0.48246837 34:-0.48246837 35:-0.91056911 36:-0.91869919 37:-0.54717925 38:-0.54717746 39:-0.65722153 40:-0.65722656 
1.0 1.0 1:-0.7231638 2:-0.7231638 3:-0.82857143 4:-0.82857143 5:-0.11485109 6:-0.11485109 7:1.0 8:1.0 9:-0.11802559 10:-0.11802559 11:-0.78087103 12:-0.96426756 13:-1.0 14:-1.0 15:-1.0 16:-1.0 17:-1.0 18:-1.0 19:-1.0 20:-1.0 21:-1.0 22:-1.0 25:0.3798908 26:0.3798908 27:0.39013339 28:0.35042521 29:-0.74580453 30:-0.68763875 31:0.45272598 32:0.38315239 33:-0.84435043 34:-0.84435043 35:-0.91056911 36:-0.73170732 37:-0.86543753 38:-0.86547987 39:-0.89026491 40:-0.89015423 
1.0 0.0 1:-0.03107341 2:-0.03107341 3:0.08571429 4:0.08571429 5:-0.59602749 6:-0.60394695 7:1.0 8:1.0 9:-0.72739348 10:-0.47337658 11:-0.0400139 12:0.27313506 13:-0.11111111 14:-0.11111111 15:-0.33333332 16:-0.33333332 17:3.0E-8 18:3.0E-8 19:3.0E-8 20:3.0E-8 21:-1.0 22:-1.0 25:-0.06804455 26:-0.14008308 27:-0.78178299 28:-0.78854325 29:0.02792494 30:-0.19498475 31:-0.426907 32:-0.39928129 33:1.0 34:1.0 35:-0.91869919 36:-0.91869919 37:0.76786989 38:0.76395297 39:0.26688254 40:0.27873519 
1.0 0.157367545539849 1:-0.27118643 2:-0.27118643 3:0.61904761 4:0.61904761 5:-0.29095652 6:-0.2162316 7:1.0 8:1.0 9:-0.31886217 10:-0.38718026 11:-0.32683137 12:0.08736429 13:0.11111111 14:0.11111111 15:-0.42857144 16:-0.42857144 17:-0.14285715 18:-0.14285715 19:-0.14285715 20:-0.14285715 21:-1.0 22:-1.0 23:0.33333333 24:0.33333333 25:-0.10042279 26:0.16038286 27:-0.65621231 28:-0.84419749 29:-0.09645704 30:0.1507729 31:-0.34262274 32:-0.35483849 33:-0.4985958 34:-0.4985958 35:-0.92682927 36:-0.94308943 37:-0.58317516 38:-0.58294302 39:-0.71853016 40:-0.71929772 
1.0 0.0 1:-0.37711864 2:-0.37711864 3:0.67346939 4:0.67346939 5:-0.31918748 6:-0.3556089 7:1.0 8:1.0 9:-0.52787459 10:-0.68294209 11:-0.67265327 12:-0.4659582 13:-0.33333333 14:-0.55555556 15:-0.5 16:-0.5 17:-0.24999999 18:-0.24999999 19:-0.24999999 20:-0.24999999 21:-1.0 22:-1.0 23:0.66666667 24:0.66666667 25:-0.30367813 26:-0.33755423 27:-0.85036985 28:-0.81351605 29:-0.21376019 30:-0.37818861 31:-0.58235812 32:-0.56190891 33:1.0 34:1.0 35:-0.98373984 36:-0.96747967 37:0.58108701 38:0.5812234 39:-0.04873068 40:-0.04913063 
1.0 0.0 1:0.29025424 2:0.29025424 3:0.02040816 4:0.02040816 5:-0.53869191 6:-0.5821188 7:1.0 8:1.0 9:-0.87229108 10:-0.96500547 11:0.33017768 12:0.06392785 13:-0.11111111 14:-0.33333333 15:-0.5 16:-0.5 17:-0.24999999 18:-0.24999999 19:-0.24999999 20:-0.24999999 21:-1.0 22:-1.0 23:0.66666667 24:0.66666667 25:-0.26791815 26:-0.31467497 27:-0.89561647 28:-0.61761488 29:-0.27582156 30:-0.57157215 31:-0.45519283 32:-0.49221593 33:1.0 34:1.0 35:-0.91056911 36:-0.92682927 37:0.56139444 38:0.56274145 39:0.0403717 40:0.05124208 
1.0 0.0 1:-0.16949151 2:-0.16949151 3:0.42857143 4:0.42857143 5:-0.38331708 6:-0.38331708 7:1.0 8:1.0 9:-0.70948036 10:-0.43010484 11:-0.46475708 12:-0.46475708 13:-0.11111111 14:-0.11111111 15:-0.2 16:-0.2 17:0.20000001 18:0.20000001 19:0.20000001 20:0.20000001 21:-1.0 22:-1.0 23:-0.33333333 24:-0.33333333 25:-0.85503073 26:-0.85503073 27:-0.87728631 28:-0.88965642 29:-0.74289025 30:-0.77101676 31:-0.95126073 32:-0.9489382 33:1.0 34:1.0 35:-0.87804878 36:-0.83739837 37:0.83598003 38:0.83596688 39:0.65234715 40:0.65237733 
1.0 0.0 1:0.26553672 2:0.26553672 3:0.54285714 4:0.54285714 5:-0.55354397 6:-0.4049492 7:1.0 8:1.0 9:-0.31168731 10:-0.97690856 11:0.05392218 12:0.05392218 13:0.11111111 14:0.33333333 15:-0.33333332 16:-0.33333332 17:3.0E-8 18:3.0E-8 19:3.0E-8 20:3.0E-8 21:-1.0 22:-1.0 25:-0.61102404 26:-0.53418755 27:-0.93643301 28:-0.80655699 29:-0.54157425 30:-0.52105311 31:-0.79397611 32:-0.77484332 33:1.0 34:1.0 35:-0.86178862 36:-0.86178862 37:0.73786091 38:0.758465 39:0.3613415 40:0.29655944 
1.0 0.0 1:0.23728816 2:0.23728816 3:0.23809525 4:0.23809525 5:-0.70138589 6:-0.71560595 7:1.0 8:1.0 9:-0.36312445 10:-0.90728561 11:0.14844791 12:0.15695991 13:-0.55555556 14:-0.55555556 15:-0.42857144 16:-0.42857144 17:-0.14285715 18:-0.14285715 19:-0.14285715 20:-0.14285715 21:-1.0 22:-1.0 23:0.33333333 24:0.33333333 25:-0.28406482 26:-0.28406482 27:-0.92730564 28:-0.7360452 29:-0.21765669 30:-0.42866093 31:-0.52942784 32:-0.53674911 33:1.0 34:1.0 35:-0.97560976 36:-0.95934959 37:0.66817405 38:0.66822285 39:0.08574516 40:0.08571066 
1.0 0.0 1:0.06779659 2:0.06779659 3:0.61904761 4:0.61904761 5:-0.54301369 6:-0.54208427 7:1.0 8:1.0 9:-0.79560949 10:0.08847025 11:0.08949154 12:0.11681817 13:0.11111111 14:0.55555556 15:-0.42857144 16:-0.42857144 17:-0.14285715 18:-0.14285715 19:-0.14285715 20:-0.14285715 21:-1.0 22:-1.0 23:0.33333333 24:0.33333333 25:0.01471874 26:-0.0789402 27:-0.84002974 28:-0.91777417 29:0.00128381 30:0.21626788 31:-0.56721829 32:-0.55616392 33:-0.37399353 34:-0.37399353 35:-0.84552846 36:-0.88617886 37:-0.4873625 38:-0.48941697 39:-0.55549229 40:-0.54883434 
1.0 0.0 1:0.19962335 2:0.13370997 3:0.14285714 4:0.14285714 5:-0.21771479 6:-0.1557732 7:1.0 8:1.0 9:-0.3514025 10:-0.40437908 11:-0.01945202 12:-0.0297342 13:-0.11111111 14:0.11111111 15:-0.55555556 16:-0.55555556 17:-0.33333333 18:-0.33333333 19:-0.33333333 20:-0.33333333 21:-1.0 22:-1.0 23:1.0 24:1.0 25:-0.18338827 26:0.36303803 27:-0.82451543 28:-0.89337644 29:-0.15561032 30:0.2539879 31:-0.58750678 32:-0.57532727 33:1.0 34:1.0 35:-0.92682927 36:-0.99186992 37:0.50500471 38:0.50505989 39:-0.15245435 40:-0.15265893 
1.0 0.0 1:-0.16949151 2:-0.16949151 3:-0.14285714 4:-0.14285714 5:-0.02175166 6:-0.02175166 7:1.0 8:1.0 9:-0.48407611 10:-0.48407611 11:0.24625624 12:0.24625624 13:-0.33333333 14:-0.33333333 15:-0.2 16:-0.2 17:0.20000001 18:0.20000001 19:0.20000001 20:0.20000001 21:-1.0 22:-1.0 23:-0.33333333 24:-0.33333333 25:0.88668167 26:0.20589441 27:-0.85051464 28:-0.85051464 29:1.0 30:0.59307388 31:0.32280971 32:-0.35620022 33:-0.98538203 34:-0.98538203 35:-0.88617886 36:-0.76422764 37:-0.98698749 38:-0.98703337 39:-0.9861979 40:-0.98610735 
1.0 0.0 1:0.06779659 2:0.06779659 3:0.61904761 4:0.61904761 5:-0.45773993 6:-0.45773993 7:1.0 8:1.0 9:-0.39147138 10:-0.29886977 11:0.0617258 12:0.0617258 13:-0.11111111 14:-0.11111111 15:-0.42857144 16:-0.42857144 17:-0.14285715 18:-0.14285715 19:-0.14285715 20:-0.14285715 21:-1.0 22:-1.0 23:0.33333333 24:0.33333333 25:0.12163178 26:-0.58847826 27:-0.7479326 28:-0.8413165 29:-0.02183053 30:-0.58410582 31:-0.50785874 32:-0.72756666 33:1.0 34:1.0 35:-0.94308943 36:-0.94308943 37:0.66213012 38:0.66212483 39:0.10704715 40:0.1070644 
1.0 0.32495699321613386 1:0.06779659 2:0.06779659 3:0.61904761 4:0.61904761 5:-0.01250399 6:-0.01250399 7:1.0 8:1.0 9:-0.15288077 10:-0.64682541 11:-0.0629667 12:-0.05524359 13:-0.11111111 14:0.11111111 15:-0.42857144 16:-0.42857144 17:-0.14285715 18:-0.14285715 19:-0.14285715 20:-0.14285715 21:-1.0 22:-1.0 23:0.33333333 24:0.33333333 25:-0.0282737 26:-0.61472663 27:-0.85229901 28:-0.91805472 29:0.11628841 30:-0.52367471 31:-0.44773643 32:-0.94460937 33:1.0 34:1.0 35:-0.90243902 36:-0.98373984 37:0.66796318 38:0.6679463 39:0.08639198 40:0.08681457 
1.0 0.0 1:0.00188327 2:0.00188327 3:-0.14285714 4:-0.14285714 5:-0.6808807 6:-0.66645928 7:1.0 8:1.0 9:-0.96500547 10:-0.59479885 11:-0.02051449 12:-0.03382974 13:-0.11111111 14:-0.11111111 15:-0.55555556 16:-0.55555556 17:-0.33333333 18:-0.33333333 19:-0.33333333 20:-0.33333333 21:-1.0 22:-1.0 23:1.0 24:1.0 25:-0.30224584 26:0.26713692 27:-0.86099626 28:-0.31935352 29:-0.32388408 30:-0.31543154 31:-0.55161803 32:-0.16419719 33:1.0 34:1.0 35:-0.90243902 36:-0.96747967 37:0.50116435 38:0.50546052 39:-0.13575197 40:-0.15420843 
1.0 0.0 1:-0.52542373 2:-0.52542373 3:-0.14285714 4:-0.14285714 5:1.0 6:1.0 8:1.0 9:-0.38640006 10:-0.38640006 11:-1.0 12:-1.0 13:-1.0 14:-1.0 15:-1.0 16:-1.0 17:-1.0 18:-1.0 19:-1.0 20:-1.0 21:-1.0 22:-1.0 23:-0.33333333 24:-0.33333333 25:-0.36326179 26:-0.36788643 27:-0.79158111 28:-0.7374336 29:-0.24214333 30:-0.29162166 31:-0.542504 32:-0.52904319 33:-0.99922143 34:-0.99922143 35:-0.85365854 36:-0.73170732 37:-0.99940409 38:-0.99945062 39:-0.99893598 40:-0.99893598 
1.0 0.0 1:0.06779659 2:0.06779659 3:0.54285714 4:0.54285714 5:0.28272447 6:0.28272447 8:1.0 9:-0.69320002 10:-0.58682293 11:0.34687683 12:0.34687683 13:-0.55555556 14:-0.55555556 15:-0.33333332 16:-0.33333332 17:3.0E-8 18:3.0E-8 19:3.0E-8 20:3.0E-8 21:-1.0 22:-1.0 25:-0.06014136 26:-0.06014136 27:-0.83116264 28:-0.83116264 29:-0.03677982 30:-0.07043428 31:-0.58040653 32:-0.55313942 33:-0.82561719 34:-0.82561719 35:-0.94308943 36:-0.94308943 37:-0.84596652 38:-0.84596652 39:-0.88928892 40:-0.88928892 
1.0 0.0 1:0.56214691 2:0.56214691 3:0.08571429 4:0.08571429 5:-0.22050693 6:-0.22050693 8:1.0 9:-0.27179043 10:-0.20321342 11:1.0 12:1.0 13:-0.33333333 14:-0.33333333 15:-0.33333332 16:-0.33333332 17:3.0E-8 18:3.0E-8 19:3.0E-8 20:3.0E-8 21:-1.0 22:-1.0 25:-0.42177175 26:-0.42177175 27:-0.87344702 28:-0.87401485 29:-0.41963059 30:-0.41911792 31:-0.63510017 32:-0.63522453 33:-0.99725913 34:-0.99725913 35:-0.98373984 36:-0.98373984 37:-0.99719659 38:-0.99719659 39:-0.99657149 40:-0.99657149 
1.0 0.0 1:-0.16949151 2:-0.16949151 3:1.0 4:1.0 5:-0.02175166 6:-0.02175166 7:1.0 8:1.0 9:-0.79891834 10:-0.79891834 11:-0.10171782 12:-0.10171782 13:-0.77777778 14:-0.77777778 15:-0.2 16:-0.2 17:0.20000001 18:0.20000001 19:0.20000001 20:0.20000001 21:-1.0 22:-1.0 23:-0.33333333 24:-0.33333333 25:0.21646996 26:0.21646996 27:-0.78513499 28:-0.66155339 29:0.38237695 30:0.21329916 31:0.03344114 32:0.03177723 33:-0.99991261 34:-0.99973783 35:-0.95934959 36:-0.95934959 37:-0.99986432 38:-0.99973336 39:-0.99996227 40:-0.99982945 
1.0 1.0 1:-0.52542373 2:-0.52542373 3:0.02040816 4:0.02040816 5:-0.09787069 6:-0.09787069 7:1.0 8:1.0 9:-0.71472621 10:-0.677734 11:-0.55711915 12:-0.55711915 13:-1.0 14:-1.0 15:-1.0 16:-1.0 17:-1.0 18:-1.0 19:-1.0 20:-1.0 21:-1.0 22:-1.0 23:0.66666667 24:0.66666667 25:0.22133345 26:0.16702441 27:-0.7238273 28:-0.55138826 29:0.31173015 30:0.01063161 31:-0.11142138 32:-0.16083342 33:-0.99957894 34:-0.99983316 35:-0.93495935 36:-0.93495935 37:-0.99967806 38:-0.99987516 39:-0.99968306 40:-0.99992076 
1.0 0.0 1:0.54237287 2:0.54237287 3:0.42857143 4:0.42857143 5:-0.73902719 6:0.13926938 7:1.0 8:1.0 9:-0.48141596 10:-0.51851355 11:0.05563171 12:0.08493739 13:-0.55555556 14:-0.55555556 15:-0.2 16:-0.2 17:0.20000001 18:0.20000001 19:0.20000001 20:0.20000001 21:-1.0 22:-1.0 23:-0.33333333 24:-0.33333333 25:-0.01862354 26:0.07796851 27:-0.61779336 28:-0.59971735 29:0.05190237 30:0.13659133 31:-0.27228229 32:-0.23379367 33:-0.97491906 34:-0.97410078 35:-0.88617886 36:-0.83739837 37:-0.97748962 38:-0.97680588 39:-0.97627307 40:-0.97548826 
1.0 1.0 1:0.49152541 2:0.56214691 3:0.61904761 4:0.54285714 5:-0.652034 6:-0.2091216 7:1.0 8:1.0 9:-0.46594173 10:-0.5070406 11:0.1285122 12:0.07065415 13:-0.77777778 14:-1.0 15:-0.42857144 16:-1.0 17:-0.14285715 18:-1.0 19:-0.14285715 20:-1.0 21:-1.0 22:-1.0 23:0.33333333 25:0.10118575 26:0.20023895 27:-0.68446115 28:-0.84587905 29:-0.03993483 30:0.30526687 31:-0.25922202 32:-0.22948246 33:-0.99740213 34:-0.99740213 35:-0.93495935 36:-0.7804878 37:-0.99741809 38:-0.99767561 39:-0.99581399 40:-0.99635013 
1.0 0.0 1:-0.42655367 2:-0.42655367 3:1.0 4:1.0 5:-0.65939495 6:-0.32759404 7:1.0 8:1.0 9:-0.13864293 10:-0.33705414 11:-0.44292936 12:-0.42404455 13:-0.11111111 14:-0.33333333 15:-0.33333332 16:-0.33333332 17:3.0E-8 18:3.0E-8 19:3.0E-8 20:3.0E-8 21:-1.0 22:-1.0 25:-0.18412337 26:-0.40524693 27:-0.91045353 28:-0.93207806 29:0.00891012 30:-0.11215639 31:-0.70895302 32:-0.73359475 33:1.0 34:1.0 35:-0.93495935 36:-0.87804878 37:0.76564025 38:0.76792459 39:0.27359367 40:0.26674168 
1.0 0.0 1:0.06779659 2:0.06779659 3:0.42857143 4:-0.71428571 5:0.01191639 6:0.01191639 7:1.0 8:1.0 9:-0.12504201 10:0.51424341 11:0.09266126 12:0.09266126 13:-0.55555556 14:-0.33333333 15:-0.2 16:-0.2 17:0.20000001 18:0.20000001 19:0.20000001 20:0.20000001 21:-1.0 22:-1.0 23:-0.33333333 24:-0.33333333 25:-0.19186104 26:-0.45562067 27:-0.75819014 28:-0.42180727 29:-0.16908892 30:-0.81905943 31:-0.48091302 32:-0.44724154 33:-0.84610618 34:-0.84610618 35:-0.96747967 36:-0.88617886 37:-0.85524961 38:-0.85625047 39:-0.88287461 40:-0.88048999 
1.0 1.0 1:-0.52542373 2:-0.52542373 3:1.0 4:-0.71428571 5:-0.22961518 6:-0.22961518 7:1.0 8:1.0 9:-0.75191803 10:0.06997563 11:-0.71655627 12:-0.71655627 13:-1.0 14:-1.0 15:-1.0 16:-1.0 17:-1.0 18:-1.0 19:-1.0 20:-1.0 21:-1.0 22:-1.0 23:-0.33333333 24:-0.33333333 25:0.07819772 26:0.2523935 27:-0.27743749 28:-0.43597268 29:-0.34567689 30:0.05085823 31:-0.02592567 32:-0.03407226 33:-0.99852231 34:-0.99852231 35:-0.98373984 36:-0.91869919 37:-0.99731994 38:-0.99732954 39:-0.99429352 40:-0.99429956 
1.0 0.0 1:0.30508476 2:0.30508476 3:-0.14285714 4:1.0 5:-0.77942883 6:-0.77942883 7:1.0 8:1.0 9:-0.61237846 10:-0.56356242 11:0.16281684 12:0.13305291 13:-0.77777778 14:-0.77777778 15:-0.2 16:-0.2 17:0.20000001 18:0.20000001 19:0.20000001 20:0.20000001 21:-1.0 22:-1.0 23:-0.33333333 24:-0.33333333 25:0.17294519 26:0.02541915 27:-0.87030876 28:-0.93583831 29:0.48888221 30:0.25930772 31:-0.36395803 32:-0.40634219 33:-0.87902838 34:-0.87902838 35:-0.95121951 36:-0.89430894 37:-0.88656674 38:-0.88653676 39:-0.90692603 40:-0.9066121 
1.0 0.0 1:0.06779659 2:0.06779659 3:-0.9047619 4:-0.14285714 5:0.53157517 6:0.60652314 7:1.0 8:1.0 9:0.75143885 10:-0.22348095 11:0.04699307 12:0.04056766 13:0.33333333 14:0.11111111 15:-0.42857144 16:-0.2 17:-0.14285715 18:0.20000001 19:-0.14285715 20:0.20000001 21:-1.0 22:-1.0 23:0.33333333 24:-0.33333333 25:-0.20795448 26:-0.14492094 27:-0.40026031 28:-0.38995812 29:-0.60378315 30:-0.40208916 31:-0.25573103 32:-0.26794219 33:-0.9983237 34:-0.9983237 35:-0.93495935 36:-0.68292683 37:-0.99876028 38:-0.99886447 39:-0.99643493 40:-0.99591748 
1.0 0.6935561584668761 1:-0.28813557 2:0.06779659 3:0.42857143 4:0.42857143 5:-0.77679393 6:-0.81885457 7:1.0 8:1.0 9:-0.55371148 10:-0.80435334 11:-0.17596513 12:-0.16697094 13:-0.55555556 14:-0.55555556 15:-0.2 16:-0.2 17:0.20000001 18:0.20000001 19:0.20000001 20:0.20000001 21:-1.0 22:-1.0 23:-0.33333333 24:-0.33333333 25:-0.51442961 26:-0.53418755 27:-0.67375495 28:-0.71635373 29:-0.58953932 30:-0.57607626 31:-0.64835878 32:-0.66584469 33:1.0 34:1.0 35:-0.78861789 36:-0.94308943 37:0.8358482 38:0.83588939 39:0.65259467 40:0.6526007 
1.0 0.1446813029139385 1:-0.28813557 2:0.06779659 3:-0.14285714 4:-0.14285714 5:-0.88004258 6:-0.87038132 7:1.0 8:1.0 9:-0.93001094 10:-0.93001094 11:-0.00509937 12:-0.01307219 13:-0.11111111 14:-0.11111111 15:-0.2 16:-0.2 17:0.20000001 18:0.20000001 19:0.20000001 20:0.20000001 21:-1.0 22:-1.0 23:-0.33333333 24:-0.33333333 25:-0.20730557 26:-0.20730557 27:-0.76125381 28:-0.60303206 29:-0.13082342 30:-0.33588452 31:-0.49180413 32:-0.51590154 33:-0.37399353 34:-0.37399353 35:-0.93495935 36:1.0 37:-0.37789137 38:-0.37869861 39:-0.13383355 40:-0.13380336 
1.0 0.0 1:0.36440678 2:0.06779659 3:0.54285714 4:0.54285714 5:-0.79444562 6:-0.74748485 7:1.0 8:1.0 9:-0.59300989 10:-0.11622718 11:0.21792567 12:0.22259372 13:-0.11111111 14:-0.11111111 15:-0.33333332 16:-0.33333332 17:3.0E-8 18:3.0E-8 19:3.0E-8 20:3.0E-8 21:-1.0 22:-1.0 25:0.29550176 26:0.29550176 27:-1.0 28:-0.98594622 29:0.44962711 30:0.54480322 31:-0.54848108 32:-0.55728851 33:-0.48246837 34:-0.48246837 35:-0.91869919 36:-0.91056911 37:-0.54717746 38:-0.54717925 39:-0.65722656 40:-0.65722153 
1.0 0.0 1:-0.18644065 2:0.06779659 3:0.61904761 4:0.61904761 5:-0.0451729 6:-0.27036999 7:1.0 8:1.0 9:-0.1003265 10:-0.4472693 11:0.10596216 12:0.13475773 13:-0.55555556 14:-0.33333333 15:-0.42857144 16:-0.42857144 17:-0.14285715 18:-0.14285715 19:-0.14285715 20:-0.14285715 21:-1.0 22:-1.0 23:0.33333333 24:0.33333333 25:0.11548486 26:0.23915068 27:-0.83116264 28:-0.86076962 29:0.18343544 30:0.31662756 31:-0.29437217 32:-0.26315118 33:-0.99961072 34:-0.82561719 35:-0.97560976 36:-0.94308943 37:-0.94442775 38:-0.8549168 39:-0.90515115 40:-0.9041766 
1.0 0.0 1:-0.03107341 2:-0.03107341 3:0.08571429 4:0.08571429 5:-0.60394695 6:-0.59602749 7:1.0 8:1.0 9:-0.47337658 10:-0.72739348 11:0.27313506 12:-0.0400139 13:-0.11111111 14:-0.11111111 15:-0.33333332 16:-0.33333332 17:3.0E-8 18:3.0E-8 19:3.0E-8 20:3.0E-8 21:-1.0 22:-1.0 25:-0.14008308 26:-0.06804455 27:-0.78854325 28:-0.78178299 29:-0.19498475 30:0.02792494 31:-0.39928129 32:-0.426907 33:1.0 34:1.0 35:-0.91869919 36:-0.91869919 37:0.76395297 38:0.76786989 39:0.27873519 40:0.26688254 
1.0 0.0 1:-0.27118643 2:-0.27118643 3:0.61904761 4:0.61904761 5:-0.29095652 6:-0.2162316 7:1.0 8:1.0 9:-0.31886217 10:-0.38718026 11:-0.32683137 12:0.08736429 13:0.11111111 14:0.11111111 15:-0.42857144 16:-0.42857144 17:-0.14285715 18:-0.14285715 19:-0.14285715 20:-0.14285715 21:-1.0 22:-1.0 23:0.33333333 24:0.33333333 25:-0.10042279 26:0.16038286 27:-0.65621231 28:-0.84419749 29:-0.09645704 30:0.1507729 31:-0.34262274 32:-0.35483849 33:-0.4985958 34:-0.4985958 35:-0.92682927 36:-0.94308943 37:-0.58317516 38:-0.58294302 39:-0.71853016 40:-0.71929772 
1.0 0.0 1:-0.37711864 2:-0.37711864 3:0.67346939 4:0.67346939 5:-0.3556089 6:-0.31918748 7:1.0 8:1.0 9:-0.68294209 10:-0.52787459 11:-0.4659582 12:-0.67265327 13:-0.55555556 14:-0.33333333 15:-0.5 16:-0.5 17:-0.24999999 18:-0.24999999 19:-0.24999999 20:-0.24999999 21:-1.0 22:-1.0 23:0.66666667 24:0.66666667 25:-0.33755423 26:-0.30367813 27:-0.81351605 28:-0.85036985 29:-0.37818861 30:-0.21376019 31:-0.56190891 32:-0.58235812 33:1.0 34:1.0 35:-0.96747967 36:-0.98373984 37:0.5812234 38:0.58108701 39:-0.04913063 40:-0.04873068 
1.0 0.0 1:0.29025424 2:0.29025424 3:0.02040816 4:0.02040816 5:-0.5821188 6:-0.53869191 7:1.0 8:1.0 9:-0.96500547 10:-0.87229108 11:0.06392785 12:0.33017768 13:-0.33333333 14:-0.11111111 15:-0.5 16:-0.5 17:-0.24999999 18:-0.24999999 19:-0.24999999 20:-0.24999999 21:-1.0 22:-1.0 23:0.66666667 24:0.66666667 25:-0.31467497 26:-0.26791815 27:-0.61761488 28:-0.89561647 29:-0.57157215 30:-0.27582156 31:-0.49221593 32:-0.45519283 33:1.0 34:1.0 35:-0.92682927 36:-0.91056911 37:0.56274145 38:0.56139444 39:0.05124208 40:0.0403717 
1.0 0.0 1:-0.16949151 2:-0.16949151 3:0.42857143 4:0.42857143 5:-0.38331708 6:-0.38331708 7:1.0 8:1.0 9:-0.70948036 10:-0.43010484 11:-0.46475708 12:-0.46475708 13:-0.11111111 14:-0.11111111 15:-0.2 16:-0.2 17:0.20000001 18:0.20000001 19:0.20000001 20:0.20000001 21:-1.0 22:-1.0 23:-0.33333333 24:-0.33333333 25:-0.85503073 26:-0.85503073 27:-0.87728631 28:-0.88965642 29:-0.74289025 30:-0.77101676 31:-0.95126073 32:-0.9489382 33:1.0 34:1.0 35:-0.87804878 36:-0.83739837 37:0.83598003 38:0.83596688 39:0.65234715 40:0.65237733 
1.0 0.0 1:0.26553672 2:0.26553672 3:0.54285714 4:0.54285714 5:-0.55354397 6:-0.4049492 7:1.0 8:1.0 9:-0.31168731 10:-0.97690856 11:0.05392218 12:0.05392218 13:0.11111111 14:0.33333333 15:-0.33333332 16:-0.33333332 17:3.0E-8 18:3.0E-8 19:3.0E-8 20:3.0E-8 21:-1.0 22:-1.0 25:-0.61102404 26:-0.53418755 27:-0.93643301 28:-0.80655699 29:-0.54157425 30:-0.52105311 31:-0.79397611 32:-0.77484332 33:1.0 34:1.0 35:-0.86178862 36:-0.86178862 37:0.73786091 38:0.758465 39:0.3613415 40:0.29655944 
1.0 0.0 1:0.23728816 2:0.23728816 3:0.23809525 4:0.23809525 5:-0.71560595 6:-0.70138589 7:1.0 8:1.0 9:-0.90728561 10:-0.36312445 11:0.15695991 12:0.14844791 13:-0.55555556 14:-0.55555556 15:-0.42857144 16:-0.42857144 17:-0.14285715 18:-0.14285715 19:-0.14285715 20:-0.14285715 21:-1.0 22:-1.0 23:0.33333333 24:0.33333333 25:-0.28406482 26:-0.28406482 27:-0.7360452 28:-0.92730564 29:-0.42866093 30:-0.21765669 31:-0.53674911 32:-0.52942784 33:1.0 34:1.0 35:-0.95934959 36:-0.97560976 37:0.66822285 38:0.66817405 39:0.08571066 40:0.08574516 
1.0 0.0 1:0.19962335 2:0.13370997 3:0.14285714 4:0.14285714 5:-0.21771479 6:-0.1557732 7:1.0 8:1.0 9:-0.3514025 10:-0.40437908 11:-0.01945202 12:-0.0297342 13:-0.11111111 14:0.11111111 15:-0.55555556 16:-0.55555556 17:-0.33333333 18:-0.33333333 19:-0.33333333 20:-0.33333333 21:-1.0 22:-1.0 23:1.0 24:1.0 25:-0.18338827 26:0.36303803 27:-0.82451543 28:-0.89337644 29:-0.15561032 30:0.2539879 31:-0.58750678 32:-0.57532727 33:1.0 34:1.0 35:-0.92682927 36:-0.99186992 37:0.50500471 38:0.50505989 39:-0.15245435 40:-0.15265893 
1.0 0.0 1:-0.16949151 2:-0.16949151 3:-0.14285714 4:-0.14285714 5:-0.02175166 6:-0.02175166 7:1.0 8:1.0 9:-0.48407611 10:-0.48407611 11:0.24625624 12:0.24625624 13:-0.33333333 14:-0.33333333 15:-0.2 16:-0.2 17:0.20000001 18:0.20000001 19:0.20000001 20:0.20000001 21:-1.0 22:-1.0 23:-0.33333333 24:-0.33333333 25:0.88668167 26:0.20589441 27:-0.85051464 28:-0.85051464 29:1.0 30:0.59307388 31:0.32280971 32:-0.35620022 33:-0.98538203 34:-0.98538203 35:-0.88617886 36:-0.76422764 37:-0.98698749 38:-0.98703337 39:-0.9861979 40:-0.98610735 
1.0 0.0 1:-0.42655367 2:-0.42655367 3:0.54285714 4:0.54285714 5:-0.32759404 6:-0.32759404 7:1.0 8:1.0 9:-0.72785494 10:-0.65122397 11:-0.42404455 12:-0.42404455 13:-0.11111111 14:-0.11111111 15:-0.33333332 16:-0.33333332 17:3.0E-8 18:3.0E-8 19:3.0E-8 20:3.0E-8 21:-1.0 22:-1.0 25:-0.2980967 26:0.28058365 27:-0.91947812 28:-0.91045353 29:-0.14033611 30:0.46416733 31:-0.87145543 32:-0.42940716 33:1.0 34:1.0 35:-0.90243902 36:-0.99186992 37:0.76656676 38:0.7656522 39:0.27079653 40:0.27355846 
1.0 0.0 1:0.06779659 2:0.06779659 3:0.61904761 4:0.61904761 5:-0.01250399 6:-0.01250399 7:1.0 8:1.0 9:-0.64682541 10:-0.15288077 11:-0.05524359 12:-0.0629667 13:0.11111111 14:-0.11111111 15:-0.42857144 16:-0.42857144 17:-0.14285715 18:-0.14285715 19:-0.14285715 20:-0.14285715 21:-1.0 22:-1.0 23:0.33333333 24:0.33333333 25:-0.61472663 26:-0.0282737 27:-0.91805472 28:-0.85229901 29:-0.52367471 30:0.11628841 31:-0.94460937 32:-0.44773643 33:1.0 34:1.0 35:-0.98373984 36:-0.90243902 37:0.6679463 38:0.66796318 39:0.08681457 40:0.08639198 
1.0 0.5111246539332107 1:0.00188327 2:0.00188327 3:-0.14285714 4:-0.14285714 5:-0.6808807 6:-0.66645928 7:1.0 8:1.0 9:-0.96500547 10:-0.59479885 11:-0.02051449 12:-0.03382974 13:-0.11111111 14:-0.11111111 15:-0.55555556 16:-0.55555556 17:-0.33333333 18:-0.33333333 19:-0.33333333 20:-0.33333333 21:-1.0 22:-1.0 23:1.0 24:1.0 25:-0.30224584 26:0.26713692 27:-0.86099626 28:-0.31935352 29:-0.32388408 30:-0.31543154 31:-0.55161803 32:-0.16419719 33:1.0 34:1.0 35:-0.90243902 36:-0.96747967 37:0.50116435 38:0.50546052 39:-0.13575197 40:-0.15420843 
1.0 0.8895535055160944 1:-0.52542373 2:-0.52542373 3:-0.14285714 4:-0.14285714 5:1.0 6:1.0 8:1.0 9:-0.38640006 10:-0.38640006 11:-1.0 12:-1.0 13:-1.0 14:-1.0 15:-1.0 16:-1.0 17:-1.0 18:-1.0 19:-1.0 20:-1.0 21:-1.0 22:-1.0 23:-0.33333333 24:-0.33333333 25:-0.36326179 26:-0.36788643 27:-0.79158111 28:-0.7374336 29:-0.24214333 30:-0.29162166 31:-0.542504 32:-0.52904319 33:-0.99922143 34:-0.99922143 35:-0.85365854 36:-0.73170732 37:-0.99940409 38:-0.99945062 39:-0.99893598 40:-0.99893598 
1.0 0.9960752734595636 1:0.21610169 2:0.15254238 3:-0.52380953 4:-0.52380953 5:0.59012827 6:0.76578757 8:1.0 9:0.75143885 10:-0.34776154 11:0.764261 12:0.764261 13:-0.77777778 14:-0.77777778 16:-0.42857144 17:0.50000002 18:-0.14285715 19:0.50000002 20:-0.14285715 21:-1.0 22:-1.0 23:-0.66666667 24:0.33333333 25:0.21599194 26:0.22347724 27:0.19462129 28:-0.14632313 29:-0.67783118 30:-0.40629295 31:0.28360413 32:0.27819966 33:-0.99890365 34:-0.99885599 35:-0.71544715 36:-0.78861789 37:-0.99919324 38:-0.99902626 39:-0.99801534 40:-0.9981986 
1.0 0.0 1:0.06779659 2:0.06779659 3:0.54285714 4:0.54285714 5:0.28272447 6:0.28272447 7:1.0 9:-0.58682293 10:-0.69320002 11:0.34687683 12:0.34687683 13:-0.55555556 14:-0.55555556 15:-0.33333332 16:-0.33333332 17:3.0E-8 18:3.0E-8 19:3.0E-8 20:3.0E-8 21:-1.0 22:-1.0 25:-0.06014136 26:-0.06014136 27:-0.83116264 28:-0.83116264 29:-0.07043428 30:-0.03677982 31:-0.55313942 32:-0.58040653 33:-0.82561719 34:-0.82561719 35:-0.94308943 36:-0.94308943 37:-0.84596652 38:-0.84596652 39:-0.88928892 40:-0.88928892 
1.0 0.0 1:0.56214691 2:0.56214691 3:0.08571429 4:0.08571429 5:-0.22050693 6:-0.22050693 7:1.0 9:-0.20321342 10:-0.27179043 11:1.0 12:1.0 13:-0.33333333 14:-0.33333333 15:-0.33333332 16:-0.33333332 17:3.0E-8 18:3.0E-8 19:3.0E-8 20:3.0E-8 21:-1.0 22:-1.0 25:-0.42177175 26:-0.42177175 27:-0.87401485 28:-0.87344702 29:-0.41911792 30:-0.41963059 31:-0.63522453 32:-0.63510017 33:-0.99725913 34:-0.99725913 35:-0.98373984 36:-0.98373984 37:-0.99719659 38:-0.99719659 39:-0.99657149 40:-0.99657149 
1.0 0.054644752828237345 1:-0.16949151 2:-0.16949151 3:1.0 4:1.0 5:-0.02175166 6:-0.02175166 7:1.0 8:1.0 9:-0.79891834 10:-0.79891834 11:-0.10171782 12:-0.10171782 13:-0.77777778 14:-0.77777778 15:-0.2 16:-0.2 17:0.20000001 18:0.20000001 19:0.20000001 20:0.20000001 21:-1.0 22:-1.0 23:-0.33333333 24:-0.33333333 25:0.21646996 26:0.21646996 27:-0.66155339 28:-0.78513499 29:0.21329916 30:0.38237695 31:0.03177723 32:0.03344114 33:-0.99973783 34:-0.99991261 35:-0.95934959 36:-0.95934959 37:-0.99973336 38:-0.99986432 39:-0.99982945 40:-0.99996227 
1.0 0.0 1:0.54237287 2:0.54237287 3:0.42857143 4:0.42857143 5:-0.73902719 6:0.13926938 7:1.0 8:1.0 9:-0.48141596 10:-0.51851355 11:0.05563171 12:0.08493739 13:-0.55555556 14:-0.55555556 15:-0.2 16:-0.2 17:0.20000001 18:0.20000001 19:0.20000001 20:0.20000001 21:-1.0 22:-1.0 23:-0.33333333 24:-0.33333333 25:-0.01862354 26:0.07796851 27:-0.61779336 28:-0.59971735 29:0.05190237 30:0.13659133 31:-0.27228229 32:-0.23379367 33:-0.97491906 34:-0.97410078 35:-0.88617886 36:-0.83739837 37:-0.97748962 38:-0.97680588 39:-0.97627307 40:-0.97548826 
1.0 0.0 1:0.30508476 2:0.30508476 3:0.42857143 4:0.42857143 5:-0.86003694 6:-0.68047407 7:1.0 8:1.0 9:-0.48215279 10:-0.01474726 11:0.41441273 12:0.41005012 13:-0.77777778 14:-0.55555556 15:-0.2 16:-0.2 17:0.20000001 18:0.20000001 19:0.20000001 20:0.20000001 21:-1.0 22:-1.0 23:-0.33333333 24:-0.33333333 25:0.08120398 26:0.04457577 27:-0.67877377 28:-0.63677473 29:-0.00598043 30:-0.10989969 31:-0.35848213 32:-0.32206172 33:1.0 34:1.0 35:-0.96747967 36:-0.95121951 37:0.8804638 38:0.87983741 39:0.52407896 40:0.52427215 
1.0 1.0 1:0.49152541 2:0.56214691 3:0.61904761 4:0.54285714 5:-0.652034 6:-0.2091216 7:1.0 8:1.0 9:-0.46594173 10:-0.5070406 11:0.1285122 12:0.07065415 13:-0.77777778 14:-1.0 15:-0.42857144 16:-1.0 17:-0.14285715 18:-1.0 19:-0.14285715 20:-1.0 21:-1.0 22:-1.0 23:0.33333333 25:0.10118575 26:0.20023895 27:-0.68446115 28:-0.84587905 29:-0.03993483 30:0.30526687 31:-0.25922202 32:-0.22948246 33:-0.99740213 34:-0.99740213 35:-0.93495935 36:-0.7804878 37:-0.99741809 38:-0.99767561 39:-0.99581399 40:-0.99635013 
1.0 0.0 1:-0.42655367 2:-0.42655367 3:1.0 4:1.0 5:-0.65939495 6:-0.32759404 7:1.0 8:1.0 9:-0.13864293 10:-0.33705414 11:-0.44292936 12:-0.42404455 13:-0.11111111 14:-0.33333333 15:-0.33333332 16:-0.33333332 17:3.0E-8 18:3.0E-8 19:3.0E-8 20:3.0E-8 21:-1.0 22:-1.0 25:-0.18412337 26:-0.40524693 27:-0.91045353 28:-0.93207806 29:0.00891012 30:-0.11215639 31:-0.70895302 32:-0.73359475 33:1.0 34:1.0 35:-0.93495935 36:-0.87804878 37:0.76564025 38:0.76792459 39:0.27359367 40:0.26674168 
1.0 1.0 1:1.0 2:1.0 3:-0.52380953 4:-0.52380953 5:-0.51114519 6:-0.2218718 7:1.0 8:1.0 9:-0.46635927 10:-0.46635927 11:0.52551052 12:0.49184636 13:-0.11111111 14:0.11111111 15:0.14285716 16:0.14285716 17:-0.14285715 18:-0.14285715 19:0.07142859 20:0.02857143 21:-0.07211558 22:-0.14285708 23:0.33333333 24:0.33333333 25:-0.61669464 26:-0.64419512 27:-0.78615242 28:-0.78615242 29:-0.63173221 30:-0.67596829 31:-0.73537419 32:-0.74887366 33:1.0 34:1.0 35:-0.97560976 36:-0.97560976 37:0.64631675 38:0.64631818 39:0.17863738 40:0.17863307 
1.0 1.0 1:0.06779659 2:0.06779659 3:-0.71428571 4:0.42857143 5:0.01191639 6:0.01191639 7:1.0 8:1.0 9:0.51424341 10:-0.12504201 11:0.09266126 12:0.09266126 13:-0.33333333 14:-0.55555556 15:-0.2 16:-0.2 17:0.20000001 18:0.20000001 19:0.20000001 20:0.20000001 21:-1.0 22:-1.0 23:-0.33333333 24:-0.33333333 25:-0.45562067 26:-0.19186104 27:-0.42180727 28:-0.75819014 29:-0.81905943 30:-0.16908892 31:-0.44724154 32:-0.48091302 33:-0.84610618 34:-0.84610618 35:-0.88617886 36:-0.96747967 37:-0.85625047 38:-0.85524961 39:-0.88048999 40:-0.88287461 
1.0 1.0 1:-0.52542373 2:-0.52542373 3:-0.71428571 4:1.0 5:-0.22961518 6:-0.22961518 7:1.0 8:1.0 9:0.06997563 10:-0.75191803 11:-0.71655627 12:-0.71655627 13:-1.0 14:-1.0 15:-1.0 16:-1.0 17:-1.0 18:-1.0 19:-1.0 20:-1.0 21:-1.0 22:-1.0 23:-0.33333333 24:-0.33333333 25:0.2523935 26:0.07819772 27:-0.43597268 28:-0.27743749 29:0.05085823 30:-0.34567689 31:-0.03407226 32:-0.02592567 33:-0.99852231 34:-0.99852231 35:-0.91869919 36:-0.98373984 37:-0.99732954 38:-0.99731994 39:-0.99429956 40:-0.99429352 
1.0 0.02455002832430598 1:0.30508476 2:0.30508476 3:1.0 4:-0.14285714 5:-0.77942883 6:-0.77942883 7:1.0 8:1.0 9:-0.56356242 10:-0.61237846 11:0.13305291 12:0.16281684 13:-0.77777778 14:-0.77777778 15:-0.2 16:-0.2 17:0.20000001 18:0.20000001 19:0.20000001 20:0.20000001 21:-1.0 22:-1.0 23:-0.33333333 24:-0.33333333 25:0.02541915 26:0.17294519 27:-0.93583831 28:-0.87030876 29:0.25930772 30:0.48888221 31:-0.40634219 32:-0.36395803 33:-0.87902838 34:-0.87902838 35:-0.89430894 36:-0.95121951 37:-0.88653676 38:-0.88656674 39:-0.9066121 40:-0.90692603 
1.0 0.0 1:0.06779659 2:0.06779659 3:-0.9047619 4:-0.14285714 5:0.53157517 6:0.60652314 7:1.0 8:1.0 9:0.75143885 10:-0.22348095 11:0.04699307 12:0.04056766 13:0.33333333 14:0.11111111 15:-0.42857144 16:-0.2 17:-0.14285715 18:0.20000001 19:-0.14285715 20:0.20000001 21:-1.0 22:-1.0 23:0.33333333 24:-0.33333333 25:-0.20795448 26:-0.14492094 27:-0.40026031 28:-0.38995812 29:-0.60378315 30:-0.40208916 31:-0.25573103 32:-0.26794219 33:-0.9983237 34:-0.9983237 35:-0.93495935 36:-0.68292683 37:-0.99876028 38:-0.99886447 39:-0.99643493 40:-0.99591748 
1.0 0.3570840089085792 1:0.00188327 2:0.00188327 3:-0.14285714 4:-0.42857143 5:-0.56808218 6:-0.56808218 7:1.0 8:1.0 9:-0.80618922 10:-0.59259833 11:0.18983962 12:0.18983962 13:-0.11111111 14:-0.11111111 15:-0.55555556 16:-0.55555556 17:-0.33333333 18:-0.33333333 19:-0.33333333 20:-0.33333333 21:-1.0 22:-1.0 23:1.0 24:1.0 25:0.15636074 26:0.15636074 27:-0.88389703 28:-0.76422972 29:0.27256455 30:0.21616572 31:-0.26384952 32:-0.24746891 33:1.0 34:1.0 35:-0.79674797 36:-0.79674797 37:0.50056056 38:0.50056056 39:-0.13368262 40:-0.13368262 
1.0 0.9285834512280899 1:-0.28813557 2:0.06779659 3:-0.14285714 4:-0.14285714 5:-0.88004258 6:-0.87038132 7:1.0 8:1.0 9:-0.93001094 10:-0.93001094 11:-0.00509937 12:-0.01307219 13:-0.11111111 14:-0.11111111 15:-0.2 16:-0.2 17:0.20000001 18:0.20000001 19:0.20000001 20:0.20000001 21:-1.0 22:-1.0 23:-0.33333333 24:-0.33333333 25:-0.20730557 26:-0.20730557 27:-0.76125381 28:-0.60303206 29:-0.13082342 30:-0.33588452 31:-0.49180413 32:-0.51590154 33:-0.37399353 34:-0.37399353 35:-0.93495935 36:1.0 37:-0.37789137 38:-0.37869861 39:-0.13383355 40:-0.13380336 
1.0 0.0 1:0.06779659 2:-0.18644065 3:0.61904761 4:0.61904761 5:-0.27036999 6:-0.0451729 7:1.0 8:1.0 9:-0.4472693 10:-0.1003265 11:0.13475773 12:0.10596216 13:-0.33333333 14:-0.55555556 15:-0.42857144 16:-0.42857144 17:-0.14285715 18:-0.14285715 19:-0.14285715 20:-0.14285715 21:-1.0 22:-1.0 23:0.33333333 24:0.33333333 25:0.23915068 26:0.11548486 27:-0.86076962 28:-0.83116264 29:0.31662756 30:0.18343544 31:-0.26315118 32:-0.29437217 33:-0.82561719 34:-0.99961072 35:-0.94308943 36:-0.97560976 37:-0.8549168 38:-0.94442775 39:-0.9041766 40:-0.90515115 
1.0 0.26516975926609165 1:-0.37711864 2:-0.37711864 3:0.67346939 4:0.67346939 5:-0.31918748 6:-0.3556089 7:1.0 8:1.0 9:-0.52787459 10:-0.68294209 11:-0.67265327 12:-0.4659582 13:-0.33333333 14:-0.55555556 15:-0.5 16:-0.5 17:-0.24999999 18:-0.24999999 19:-0.24999999 20:-0.24999999 21:-1.0 22:-1.0 23:0.66666667 24:0.66666667 25:-0.30367813 26:-0.33755423 27:-0.85036985 28:-0.81351605 29:-0.21376019 30:-0.37818861 31:-0.58235812 32:-0.56190891 33:1.0 34:1.0 35:-0.98373984 36:-0.96747967 37:0.58108701 38:0.5812234 39:-0.04873068 40:-0.04913063 
1.0 0.0 1:0.29025424 2:0.29025424 3:0.02040816 4:0.02040816 5:-0.53869191 6:-0.5821188 7:1.0 8:1.0 9:-0.87229108 10:-0.96500547 11:0.33017768 12:0.06392785 13:-0.11111111 14:-0.33333333 15:-0.5 16:-0.5 17:-0.24999999 18:-0.24999999 19:-0.24999999 20:-0.24999999 21:-1.0 22:-1.0 23:0.66666667 24:0.66666667 25:-0.26791815 26:-0.31467497 27:-0.89561647 28:-0.61761488 29:-0.27582156 30:-0.57157215 31:-0.45519283 32:-0.49221593 33:1.0 34:1.0 35:-0.91056911 36:-0.92682927 37:0.56139444 38:0.56274145 39:0.0403717 40:0.05124208 
1.0 0.0 1:-0.16949151 2:-0.16949151 3:0.42857143 4:0.42857143 5:-0.38331708 6:-0.38331708 7:1.0 8:1.0 9:-0.70948036 10:-0.43010484 11:-0.46475708 12:-0.46475708 13:-0.11111111 14:-0.11111111 15:-0.2 16:-0.2 17:0.20000001 18:0.20000001 19:0.20000001 20:0.20000001 21:-1.0 22:-1.0 23:-0.33333333 24:-0.33333333 25:-0.85503073 26:-0.85503073 27:-0.87728631 28:-0.88965642 29:-0.74289025 30:-0.77101676 31:-0.95126073 32:-0.9489382 33:1.0 34:1.0 35:-0.87804878 36:-0.83739837 37:0.83598003 38:0.83596688 39:0.65234715 40:0.65237733 
1.0 0.0 1:0.26553672 2:0.26553672 3:0.54285714 4:0.54285714 5:-0.55354397 6:-0.4049492 7:1.0 8:1.0 9:-0.31168731 10:-0.97690856 11:0.05392218 12:0.05392218 13:0.11111111 14:0.33333333 15:-0.33333332 16:-0.33333332 17:3.0E-8 18:3.0E-8 19:3.0E-8 20:3.0E-8 21:-1.0 22:-1.0 25:-0.61102404 26:-0.53418755 27:-0.93643301 28:-0.80655699 29:-0.54157425 30:-0.52105311 31:-0.79397611 32:-0.77484332 33:1.0 34:1.0 35:-0.86178862 36:-0.86178862 37:0.73786091 38:0.758465 39:0.3613415 40:0.29655944 
1.0 0.0 1:0.23728816 2:0.23728816 3:0.23809525 4:0.23809525 5:-0.71560595 6:-0.70138589 7:1.0 8:1.0 9:-0.90728561 10:-0.36312445 11:0.15695991 12:0.14844791 13:-0.55555556 14:-0.55555556 15:-0.42857144 16:-0.42857144 17:-0.14285715 18:-0.14285715 19:-0.14285715 20:-0.14285715 21:-1.0 22:-1.0 23:0.33333333 24:0.33333333 25:-0.28406482 26:-0.28406482 27:-0.7360452 28:-0.92730564 29:-0.42866093 30:-0.21765669 31:-0.53674911 32:-0.52942784 33:1.0 34:1.0 35:-0.95934959 36:-0.97560976 37:0.66822285 38:0.66817405 39:0.08571066 40:0.08574516 
1.0 0.0 1:0.06779659 2:0.06779659 3:0.61904761 4:0.61904761 5:-0.54301369 6:-0.54208427 7:1.0 8:1.0 9:-0.79560949 10:0.08847025 11:0.08949154 12:0.11681817 13:0.11111111 14:0.55555556 15:-0.42857144 16:-0.42857144 17:-0.14285715 18:-0.14285715 19:-0.14285715 20:-0.14285715 21:-1.0 22:-1.0 23:0.33333333 24:0.33333333 25:0.01471874 26:-0.0789402 27:-0.84002974 28:-0.91777417 29:0.00128381 30:0.21626788 31:-0.56721829 32:-0.55616392 33:-0.37399353 34:-0.37399353 35:-0.84552846 36:-0.88617886 37:-0.4873625 38:-0.48941697 39:-0.55549229 40:-0.54883434 
1.0 0.0 1:0.13370997 2:0.19962335 3:0.14285714 4:0.14285714 5:-0.1557732 6:-0.21771479 7:1.0 8:1.0 9:-0.40437908 10:-0.3514025 11:-0.0297342 12:-0.01945202 13:0.11111111 14:-0.11111111 15:-0.55555556 16:-0.55555556 17:-0.33333333 18:-0.33333333 19:-0.33333333 20:-0.33333333 21:-1.0 22:-1.0 23:1.0 24:1.0 25:0.36303803 26:-0.18338827 27:-0.89337644 28:-0.82451543 29:0.2539879 30:-0.15561032 31:-0.57532727 32:-0.58750678 33:1.0 34:1.0 35:-0.99186992 36:-0.92682927 37:0.50505989 38:0.50500471 39:-0.15265893 40:-0.15245435 
1.0 0.8648542507915916 1:-0.16949151 2:-0.16949151 3:-0.14285714 4:-0.14285714 5:-0.02175166 6:-0.02175166 7:1.0 8:1.0 9:-0.48407611 10:-0.48407611 11:0.24625624 12:0.24625624 13:-0.33333333 14:-0.33333333 15:-0.2 16:-0.2 17:0.20000001 18:0.20000001 19:0.20000001 20:0.20000001 21:-1.0 22:-1.0 23:-0.33333333 24:-0.33333333 25:0.88668167 26:0.20589441 27:-0.85051464 28:-0.85051464 29:1.0 30:0.59307388 31:0.32280971 32:-0.35620022 33:-0.98538203 34:-0.98538203 35:-0.88617886 36:-0.76422764 37:-0.98698749 38:-0.98703337 39:-0.9861979 40:-0.98610735 
1.0 1.0 1:0.06779659 2:0.06779659 3:0.61904761 4:0.61904761 5:-0.01250399 6:-0.01250399 7:1.0 8:1.0 9:-0.15288077 10:-0.64682541 11:-0.0629667 12:-0.05524359 13:-0.11111111 14:0.11111111 15:-0.42857144 16:-0.42857144 17:-0.14285715 18:-0.14285715 19:-0.14285715 20:-0.14285715 21:-1.0 22:-1.0 23:0.33333333 24:0.33333333 25:-0.0282737 26:-0.61472663 27:-0.85229901 28:-0.91805472 29:0.11628841 30:-0.52367471 31:-0.44773643 32:-0.94460937 33:1.0 34:1.0 35:-0.90243902 36:-0.98373984 37:0.66796318 38:0.6679463 39:0.08639198 40:0.08681457 
1.0 0.5966739674349765 1:-0.52542373 2:-0.52542373 3:-0.14285714 4:-0.14285714 5:1.0 6:1.0 8:1.0 9:-0.38640006 10:-0.38640006 11:-1.0 12:-1.0 13:-1.0 14:-1.0 15:-1.0 16:-1.0 17:-1.0 18:-1.0 19:-1.0 20:-1.0 21:-1.0 22:-1.0 23:-0.33333333 24:-0.33333333 25:-0.36326179 26:-0.36788643 27:-0.79158111 28:-0.7374336 29:-0.24214333 30:-0.29162166 31:-0.542504 32:-0.52904319 33:-0.99922143 34:-0.99922143 35:-0.85365854 36:-0.73170732 37:-0.99940409 38:-0.99945062 39:-0.99893598 40:-0.99893598 
1.0 0.0 1:0.06779659 2:0.06779659 3:0.54285714 4:0.54285714 5:0.28272447 6:0.28272447 8:1.0 9:-0.69320002 10:-0.58682293 11:0.34687683 12:0.34687683 13:-0.55555556 14:-0.55555556 15:-0.33333332 16:-0.33333332 17:3.0E-8 18:3.0E-8 19:3.0E-8 20:3.0E-8 21:-1.0 22:-1.0 25:-0.06014136 26:-0.06014136 27:-0.83116264 28:-0.83116264 29:-0.03677982 30:-0.07043428 31:-0.58040653 32:-0.55313942 33:-0.82561719 34:-0.82561719 35:-0.94308943 36:-0.94308943 37:-0.84596652 38:-0.84596652 39:-0.88928892 40:-0.88928892 
1.0 0.0 1:0.56214691 2:0.56214691 3:0.08571429 4:0.08571429 5:-0.22050693 6:-0.22050693 8:1.0 9:-0.27179043 10:-0.20321342 11:1.0 12:1.0 13:-0.33333333 14:-0.33333333 15:-0.33333332 16:-0.33333332 17:3.0E-8 18:3.0E-8 19:3.0E-8 20:3.0E-8 21:-1.0 22:-1.0 25:-0.42177175 26:-0.42177175 27:-0.87344702 28:-0.87401485 29:-0.41963059 30:-0.41911792 31:-0.63510017 32:-0.63522453 33:-0.99725913 34:-0.99725913 35:-0.98373984 36:-0.98373984 37:-0.99719659 38:-0.99719659 39:-0.99657149 40:-0.99657149 
1.0 0.6958164593581324 1:-0.27118643 2:-0.27118643 3:0.23809525 4:0.23809525 5:-0.13342078 6:-0.13342078 7:1.0 8:1.0 9:-0.36953719 10:-0.36953719 11:-0.32142809 12:-0.32142809 13:-0.11111111 14:0.11111111 15:-0.42857144 16:-0.42857144 17:-0.14285715 18:-0.14285715 19:-0.14285715 20:-0.14285715 21:-1.0 22:-1.0 23:0.33333333 24:0.33333333 25:-0.12102812 26:0.03733242 27:-0.56570859 28:-0.41776372 29:-0.4682652 30:-0.37114915 31:-0.33853589 32:-0.33844105 33:-0.97835111 34:-0.96593378 35:-0.92682927 36:-0.8699187 37:-0.98236874 38:-0.9722188 39:-0.98647388 40:-0.97915617 
1.0 0.0 1:0.06779659 2:0.06779659 3:0.42857143 4:0.42857143 5:-0.16950067 6:-0.15583827 7:1.0 8:1.0 9:0.14035282 10:0.14035282 11:0.01034125 12:0.01034125 13:-0.55555556 14:-0.55555556 15:-0.2 16:-0.2 17:0.20000001 18:0.20000001 19:0.20000001 20:0.20000001 21:-1.0 22:-1.0 23:-0.33333333 24:-0.33333333 25:0.08475028 26:0.08475028 27:-0.58814622 28:-0.39609517 29:-0.10581796 30:-0.28742525 31:-0.15171948 32:-0.1348018 33:-0.99324713 34:-0.97502234 35:-0.97560976 36:-0.97560976 37:-0.9936418 38:-0.97661515 39:-0.99462556 40:-0.98048086 
1.0 1.0 1:0.75988698 2:0.75988698 3:-0.37142857 4:-0.37142857 5:0.04773136 6:0.05794563 7:1.0 8:1.0 9:-0.02440708 10:-0.02440708 11:0.93753483 12:0.93753483 13:-1.0 14:-1.0 15:-1.0 16:-1.0 17:-1.0 18:-1.0 19:-1.0 20:-1.0 21:-1.0 22:-1.0 25:1.0 26:1.0 27:0.3278948 28:0.3278948 29:-0.02624488 30:0.01479268 31:0.6940166 32:0.73943923 33:-0.99751336 34:-0.99751336 35:-1.0 36:-1.0 37:-0.99787296 38:-0.99776869 39:-0.99767827 40:-0.99859388 
1.0 0.9002036345793424 1:-0.16949151 2:-0.16949151 3:1.0 4:1.0 5:-0.02175166 6:-0.02175166 7:1.0 8:1.0 9:-0.79891834 10:-0.79891834 11:-0.10171782 12:-0.10171782 13:-0.77777778 14:-0.77777778 15:-0.2 16:-0.2 17:0.20000001 18:0.20000001 19:0.20000001 20:0.20000001 21:-1.0 22:-1.0 23:-0.33333333 24:-0.33333333 25:0.21646996 26:0.21646996 27:-0.66155339 28:-0.78513499 29:0.21329916 30:0.38237695 31:0.03177723 32:0.03344114 33:-0.99973783 34:-0.99991261 35:-0.95934959 36:-0.95934959 37:-0.99973336 38:-0.99986432 39:-0.99982945 40:-0.99996227 
1.0 1.0 1:-0.52542373 2:-0.52542373 3:0.02040816 4:0.02040816 5:-0.09787069 6:-0.09787069 7:1.0 8:1.0 9:-0.71472621 10:-0.677734 11:-0.55711915 12:-0.55711915 13:-1.0 14:-1.0 15:-1.0 16:-1.0 17:-1.0 18:-1.0 19:-1.0 20:-1.0 21:-1.0 22:-1.0 23:0.66666667 24:0.66666667 25:0.22133345 26:0.16702441 27:-0.7238273 28:-0.55138826 29:0.31173015 30:0.01063161 31:-0.11142138 32:-0.16083342 33:-0.99957894 34:-0.99983316 35:-0.93495935 36:-0.93495935 37:-0.99967806 38:-0.99987516 39:-0.99968306 40:-0.99992076 
1.0 0.4370828869066895 1:0.54237287 2:0.54237287 3:0.42857143 4:0.42857143 5:-0.73902719 6:0.13926938 7:1.0 8:1.0 9:-0.48141596 10:-0.51851355 11:0.05563171 12:0.08493739 13:-0.55555556 14:-0.55555556 15:-0.2 16:-0.2 17:0.20000001 18:0.20000001 19:0.20000001 20:0.20000001 21:-1.0 22:-1.0 23:-0.33333333 24:-0.33333333 25:-0.01862354 26:0.07796851 27:-0.61779336 28:-0.59971735 29:0.05190237 30:0.13659133 31:-0.27228229 32:-0.23379367 33:-0.97491906 34:-0.97410078 35:-0.88617886 36:-0.83739837 37:-0.97748962 38:-0.97680588 39:-0.97627307 40:-0.97548826 
1.0 0.0 1:0.30508476 2:0.30508476 3:0.42857143 4:0.42857143 5:-0.86003694 6:-0.68047407 7:1.0 8:1.0 9:-0.48215279 10:-0.01474726 11:0.41441273 12:0.41005012 13:-0.77777778 14:-0.55555556 15:-0.2 16:-0.2 17:0.20000001 18:0.20000001 19:0.20000001 20:0.20000001 21:-1.0 22:-1.0 23:-0.33333333 24:-0.33333333 25:0.08120398 26:0.04457577 27:-0.67877377 28:-0.63677473 29:-0.00598043 30:-0.10989969 31:-0.35848213 32:-0.32206172 33:1.0 34:1.0 35:-0.96747967 36:-0.95121951 37:0.8804638 38:0.87983741 39:0.52407896 40:0.52427215 
1.0 0.0 1:-0.42655367 2:-0.42655367 3:1.0 4:1.0 5:-0.65939495 6:-0.32759404 7:1.0 8:1.0 9:-0.13864293 10:-0.33705414 11:-0.44292936 12:-0.42404455 13:-0.11111111 14:-0.33333333 15:-0.33333332 16:-0.33333332 17:3.0E-8 18:3.0E-8 19:3.0E-8 20:3.0E-8 21:-1.0 22:-1.0 25:-0.18412337 26:-0.40524693 27:-0.91045353 28:-0.93207806 29:0.00891012 30:-0.11215639 31:-0.70895302 32:-0.73359475 33:1.0 34:1.0 35:-0.93495935 36:-0.87804878 37:0.76564025 38:0.76792459 39:0.27359367 40:0.26674168 
1.0 0.7479514022276369 1:1.0 2:1.0 3:-0.52380953 4:-0.52380953 5:-0.51114519 6:-0.2218718 7:1.0 8:1.0 9:-0.46635927 10:-0.46635927 11:0.52551052 12:0.49184636 13:-0.11111111 14:0.11111111 15:0.14285716 16:0.14285716 17:-0.14285715 18:-0.14285715 19:0.07142859 20:0.02857143 21:-0.07211558 22:-0.14285708 23:0.33333333 24:0.33333333 25:-0.61669464 26:-0.64419512 27:-0.78615242 28:-0.78615242 29:-0.63173221 30:-0.67596829 31:-0.73537419 32:-0.74887366 33:1.0 34:1.0 35:-0.97560976 36:-0.97560976 37:0.64631675 38:0.64631818 39:0.17863738 40:0.17863307 
1.0 1.0 1:0.06779659 2:0.06779659 3:-0.71428571 4:0.42857143 5:0.01191639 6:0.01191639 7:1.0 8:1.0 9:0.51424341 10:-0.12504201 11:0.09266126 12:0.09266126 13:-0.33333333 14:-0.55555556 15:-0.2 16:-0.2 17:0.20000001 18:0.20000001 19:0.20000001 20:0.20000001 21:-1.0 22:-1.0 23:-0.33333333 24:-0.33333333 25:-0.45562067 26:-0.19186104 27:-0.42180727 28:-0.75819014 29:-0.81905943 30:-0.16908892 31:-0.44724154 32:-0.48091302 33:-0.84610618 34:-0.84610618 35:-0.88617886 36:-0.96747967 37:-0.85625047 38:-0.85524961 39:-0.88048999 40:-0.88287461 
1.0 1.0 1:-0.52542373 2:-0.52542373 3:-0.71428571 4:1.0 5:-0.22961518 6:-0.22961518 7:1.0 8:1.0 9:0.06997563 10:-0.75191803 11:-0.71655627 12:-0.71655627 13:-1.0 14:-1.0 15:-1.0 16:-1.0 17:-1.0 18:-1.0 19:-1.0 20:-1.0 21:-1.0 22:-1.0 23:-0.33333333 24:-0.33333333 25:0.2523935 26:0.07819772 27:-0.43597268 28:-0.27743749 29:0.05085823 30:-0.34567689 31:-0.03407226 32:-0.02592567 33:-0.99852231 34:-0.99852231 35:-0.91869919 36:-0.98373984 37:-0.99732954 38:-0.99731994 39:-0.99429956 40:-0.99429352 
1.0 0.08873681732638819 1:0.30508476 2:0.30508476 3:-0.14285714 4:1.0 5:-0.77942883 6:-0.77942883 7:1.0 8:1.0 9:-0.61237846 10:-0.56356242 11:0.16281684 12:0.13305291 13:-0.77777778 14:-0.77777778 15:-0.2 16:-0.2 17:0.20000001 18:0.20000001 19:0.20000001 20:0.20000001 21:-1.0 22:-1.0 23:-0.33333333 24:-0.33333333 25:0.17294519 26:0.02541915 27:-0.87030876 28:-0.93583831 29:0.48888221 30:0.25930772 31:-0.36395803 32:-0.40634219 33:-0.87902838 34:-0.87902838 35:-0.95121951 36:-0.89430894 37:-0.88656674 38:-0.88653676 39:-0.90692603 40:-0.9066121 
1.0 0.0 1:0.06779659 2:0.06779659 3:-0.9047619 4:-0.14285714 5:0.53157517 6:0.60652314 7:1.0 8:1.0 9:0.75143885 10:-0.22348095 11:0.04699307 12:0.04056766 13:0.33333333 14:0.11111111 15:-0.42857144 16:-0.2 17:-0.14285715 18:0.20000001 19:-0.14285715 20:0.20000001 21:-1.0 22:-1.0 23:0.33333333 24:-0.33333333 25:-0.20795448 26:-0.14492094 27:-0.40026031 28:-0.38995812 29:-0.60378315 30:-0.40208916 31:-0.25573103 32:-0.26794219 33:-0.9983237 34:-0.9983237 35:-0.93495935 36:-0.68292683 37:-0.99876028 38:-0.99886447 39:-0.99643493 40:-0.99591748 
1.0 1.0 1:0.00188327 2:0.00188327 3:-0.42857143 4:-0.14285714 5:-0.56808218 6:-0.56808218 7:1.0 8:1.0 9:-0.59259833 10:-0.80618922 11:0.18983962 12:0.18983962 13:-0.11111111 14:-0.11111111 15:-0.55555556 16:-0.55555556 17:-0.33333333 18:-0.33333333 19:-0.33333333 20:-0.33333333 21:-1.0 22:-1.0 23:1.0 24:1.0 25:0.15636074 26:0.15636074 27:-0.76422972 28:-0.88389703 29:0.21616572 30:0.27256455 31:-0.24746891 32:-0.26384952 33:1.0 34:1.0 35:-0.79674797 36:-0.79674797 37:0.50056056 38:0.50056056 39:-0.13368262 40:-0.13368262 
1.0 1.0 1:0.06779659 2:-0.28813557 3:-0.14285714 4:-0.14285714 5:-0.87038132 6:-0.88004258 7:1.0 8:1.0 9:-0.93001094 10:-0.93001094 11:-0.01307219 12:-0.00509937 13:-0.11111111 14:-0.11111111 15:-0.2 16:-0.2 17:0.20000001 18:0.20000001 19:0.20000001 20:0.20000001 21:-1.0 22:-1.0 23:-0.33333333 24:-0.33333333 25:-0.20730557 26:-0.20730557 27:-0.60303206 28:-0.76125381 29:-0.33588452 30:-0.13082342 31:-0.51590154 32:-0.49180413 33:-0.37399353 34:-0.37399353 35:1.0 36:-0.93495935 37:-0.37869861 38:-0.37789137 39:-0.13380336 40:-0.13383355 
1.0 0.0 1:-0.16949151 2:0.1864407 3:0.42857143 4:0.42857143 5:-0.82353884 6:-0.90530913 7:1.0 8:1.0 9:-0.80435334 10:-0.43565347 11:-0.02361524 12:-0.01287154 13:-0.33333333 14:-0.33333333 15:-0.2 16:-0.2 17:0.20000001 18:0.20000001 19:0.20000001 20:0.20000001 21:-1.0 22:-1.0 23:-0.33333333 24:-0.33333333 25:-0.54261799 26:-0.64092929 27:-0.54856285 28:-0.61454061 29:-0.75361503 30:-0.7926914 31:-0.60213007 32:-0.61544106 33:1.0 34:1.0 35:-0.96747967 36:-0.85365854 37:0.86940014 38:0.85665489 39:0.55083496 40:0.5866223 
1.0 0.0 1:0.36440678 2:0.06779659 3:0.54285714 4:0.54285714 5:-0.79444562 6:-0.74748485 7:1.0 8:1.0 9:-0.59300989 10:-0.11622718 11:0.21792567 12:0.22259372 13:-0.11111111 14:-0.11111111 15:-0.33333332 16:-0.33333332 17:3.0E-8 18:3.0E-8 19:3.0E-8 20:3.0E-8 21:-1.0 22:-1.0 25:0.29550176 26:0.29550176 27:-1.0 28:-0.98594622 29:0.44962711 30:0.54480322 31:-0.54848108 32:-0.55728851 33:-0.48246837 34:-0.48246837 35:-0.91869919 36:-0.91056911 37:-0.54717746 38:-0.54717925 39:-0.65722656 40:-0.65722153 
1.0 0.0 1:-0.18644065 2:0.06779659 3:0.61904761 4:0.61904761 5:-0.0451729 6:-0.27036999 7:1.0 8:1.0 9:-0.1003265 10:-0.4472693 11:0.10596216 12:0.13475773 13:-0.55555556 14:-0.33333333 15:-0.42857144 16:-0.42857144 17:-0.14285715 18:-0.14285715 19:-0.14285715 20:-0.14285715 21:-1.0 22:-1.0 23:0.33333333 24:0.33333333 25:0.11548486 26:0.23915068 27:-0.83116264 28:-0.86076962 29:0.18343544 30:0.31662756 31:-0.29437217 32:-0.26315118 33:-0.99961072 34:-0.82561719 35:-0.97560976 36:-0.94308943 37:-0.94442775 38:-0.8549168 39:-0.90515115 40:-0.9041766 
1.0 0.0 1:-0.03107341 2:-0.03107341 3:0.08571429 4:0.08571429 5:-0.59602749 6:-0.60394695 7:1.0 8:1.0 9:-0.72739348 10:-0.47337658 11:-0.0400139 12:0.27313506 13:-0.11111111 14:-0.11111111 15:-0.33333332 16:-0.33333332 17:3.0E-8 18:3.0E-8 19:3.0E-8 20:3.0E-8 21:-1.0 22:-1.0 25:-0.06804455 26:-0.14008308 27:-0.78178299 28:-0.78854325 29:0.02792494 30:-0.19498475 31:-0.426907 32:-0.39928129 33:1.0 34:1.0 35:-0.91869919 36:-0.91869919 37:0.76786989 38:0.76395297 39:0.26688254 40:0.27873519 
1.0 0.0 1:-0.27118643 2:-0.27118643 3:0.61904761 4:0.61904761 5:-0.2162316 6:-0.29095652 7:1.0 8:1.0 9:-0.38718026 10:-0.31886217 11:0.08736429 12:-0.32683137 13:0.11111111 14:0.11111111 15:-0.42857144 16:-0.42857144 17:-0.14285715 18:-0.14285715 19:-0.14285715 20:-0.14285715 21:-1.0 22:-1.0 23:0.33333333 24:0.33333333 25:0.16038286 26:-0.10042279 27:-0.84419749 28:-0.65621231 29:0.1507729 30:-0.09645704 31:-0.35483849 32:-0.34262274 33:-0.4985958 34:-0.4985958 35:-0.94308943 36:-0.92682927 37:-0.58294302 38:-0.58317516 39:-0.71929772 40:-0.71853016 
1.0 1.0 1:-0.37711864 2:-0.37711864 3:0.67346939 4:0.67346939 5:-0.31918748 6:-0.3556089 7:1.0 8:1.0 9:-0.52787459 10:-0.68294209 11:-0.67265327 12:-0.4659582 13:-0.33333333 14:-0.55555556 15:-0.5 16:-0.5 17:-0.24999999 18:-0.24999999 19:-0.24999999 20:-0.24999999 21:-1.0 22:-1.0 23:0.66666667 24:0.66666667 25:-0.30367813 26:-0.33755423 27:-0.85036985 28:-0.81351605 29:-0.21376019 30:-0.37818861 31:-0.58235812 32:-0.56190891 33:1.0 34:1.0 35:-0.98373984 36:-0.96747967 37:0.58108701 38:0.5812234 39:-0.04873068 40:-0.04913063 
1.0 0.0 1:0.29025424 2:0.29025424 3:0.02040816 4:0.02040816 5:-0.5821188 6:-0.53869191 7:1.0 8:1.0 9:-0.96500547 10:-0.87229108 11:0.06392785 12:0.33017768 13:-0.33333333 14:-0.11111111 15:-0.5 16:-0.5 17:-0.24999999 18:-0.24999999 19:-0.24999999 20:-0.24999999 21:-1.0 22:-1.0 23:0.66666667 24:0.66666667 25:-0.31467497 26:-0.26791815 27:-0.61761488 28:-0.89561647 29:-0.57157215 30:-0.27582156 31:-0.49221593 32:-0.45519283 33:1.0 34:1.0 35:-0.92682927 36:-0.91056911 37:0.56274145 38:0.56139444 39:0.05124208 40:0.0403717 
1.0 0.0 1:-0.16949151 2:-0.16949151 3:0.42857143 4:0.42857143 5:-0.38331708 6:-0.38331708 7:1.0 8:1.0 9:-0.43010484 10:-0.70948036 11:-0.46475708 12:-0.46475708 13:-0.11111111 14:-0.11111111 15:-0.2 16:-0.2 17:0.20000001 18:0.20000001 19:0.20000001 20:0.20000001 21:-1.0 22:-1.0 23:-0.33333333 24:-0.33333333 25:-0.85503073 26:-0.85503073 27:-0.88965642 28:-0.87728631 29:-0.77101676 30:-0.74289025 31:-0.9489382 32:-0.95126073 33:1.0 34:1.0 35:-0.83739837 36:-0.87804878 37:0.83596688 38:0.83598003 39:0.65237733 40:0.65234715 
1.0 0.0 1:0.26553672 2:0.26553672 3:0.54285714 4:0.54285714 5:-0.55354397 6:-0.4049492 7:1.0 8:1.0 9:-0.31168731 10:-0.97690856 11:0.05392218 12:0.05392218 13:0.11111111 14:0.33333333 15:-0.33333332 16:-0.33333332 17:3.0E-8 18:3.0E-8 19:3.0E-8 20:3.0E-8 21:-1.0 22:-1.0 25:-0.61102404 26:-0.53418755 27:-0.93643301 28:-0.80655699 29:-0.54157425 30:-0.52105311 31:-0.79397611 32:-0.77484332 33:1.0 34:1.0 35:-0.86178862 36:-0.86178862 37:0.73786091 38:0.758465 39:0.3613415 40:0.29655944 
1.0 0.0 1:0.23728816 2:0.23728816 3:0.23809525 4:0.23809525 5:-0.71560595 6:-0.70138589 7:1.0 8:1.0 9:-0.90728561 10:-0.36312445 11:0.15695991 12:0.14844791 13:-0.55555556 14:-0.55555556 15:-0.42857144 16:-0.42857144 17:-0.14285715 18:-0.14285715 19:-0.14285715 20:-0.14285715 21:-1.0 22:-1.0 23:0.33333333 24:0.33333333 25:-0.28406482 26:-0.28406482 27:-0.7360452 28:-0.92730564 29:-0.42866093 30:-0.21765669 31:-0.53674911 32:-0.52942784 33:1.0 34:1.0 35:-0.95934959 36:-0.97560976 37:0.66822285 38:0.66817405 39:0.08571066 40:0.08574516 
1.0 0.0 1:0.06779659 2:0.06779659 3:0.61904761 4:0.61904761 5:-0.54301369 6:-0.54208427 7:1.0 8:1.0 9:-0.79560949 10:0.08847025 11:0.08949154 12:0.11681817 13:0.11111111 14:0.55555556 15:-0.42857144 16:-0.42857144 17:-0.14285715 18:-0.14285715 19:-0.14285715 20:-0.14285715 21:-1.0 22:-1.0 23:0.33333333 24:0.33333333 25:0.01471874 26:-0.0789402 27:-0.84002974 28:-0.91777417 29:0.00128381 30:0.21626788 31:-0.56721829 32:-0.55616392 33:-0.37399353 34:-0.37399353 35:-0.84552846 36:-0.88617886 37:-0.4873625 38:-0.48941697 39:-0.55549229 40:-0.54883434 
1.0 0.0 1:0.13370997 2:0.19962335 3:0.14285714 4:0.14285714 5:-0.1557732 6:-0.21771479 7:1.0 8:1.0 9:-0.40437908 10:-0.3514025 11:-0.0297342 12:-0.01945202 13:0.11111111 14:-0.11111111 15:-0.55555556 16:-0.55555556 17:-0.33333333 18:-0.33333333 19:-0.33333333 20:-0.33333333 21:-1.0 22:-1.0 23:1.0 24:1.0 25:0.36303803 26:-0.18338827 27:-0.89337644 28:-0.82451543 29:0.2539879 30:-0.15561032 31:-0.57532727 32:-0.58750678 33:1.0 34:1.0 35:-0.99186992 36:-0.92682927 37:0.50505989 38:0.50500471 39:-0.15265893 40:-0.15245435 
1.0 0.0 1:-0.42655367 2:-0.42655367 3:0.54285714 4:0.54285714 5:-0.32759404 6:-0.32759404 7:1.0 8:1.0 9:-0.72785494 10:-0.65122397 11:-0.42404455 12:-0.42404455 13:-0.11111111 14:-0.11111111 15:-0.33333332 16:-0.33333332 17:3.0E-8 18:3.0E-8 19:3.0E-8 20:3.0E-8 21:-1.0 22:-1.0 25:-0.2980967 26:0.28058365 27:-0.91947812 28:-0.91045353 29:-0.14033611 30:0.46416733 31:-0.87145543 32:-0.42940716 33:1.0 34:1.0 35:-0.90243902 36:-0.99186992 37:0.76656676 38:0.7656522 39:0.27079653 40:0.27355846 
1.0 0.0 1:0.06779659 2:0.06779659 3:0.61904761 4:0.61904761 5:-0.45773993 6:-0.45773993 7:1.0 8:1.0 9:-0.29886977 10:-0.39147138 11:0.0617258 12:0.0617258 13:-0.11111111 14:-0.11111111 15:-0.42857144 16:-0.42857144 17:-0.14285715 18:-0.14285715 19:-0.14285715 20:-0.14285715 21:-1.0 22:-1.0 23:0.33333333 24:0.33333333 25:-0.58847826 26:0.12163178 27:-0.8413165 28:-0.7479326 29:-0.58410582 30:-0.02183053 31:-0.72756666 32:-0.50785874 33:1.0 34:1.0 35:-0.94308943 36:-0.94308943 37:0.66212483 38:0.66213012 39:0.1070644 40:0.10704715 
1.0 1.0 1:0.00188327 2:0.00188327 3:-0.14285714 4:-0.14285714 5:-0.66645928 6:-0.6808807 7:1.0 8:1.0 9:-0.59479885 10:-0.96500547 11:-0.03382974 12:-0.02051449 13:-0.11111111 14:-0.11111111 15:-0.55555556 16:-0.55555556 17:-0.33333333 18:-0.33333333 19:-0.33333333 20:-0.33333333 21:-1.0 22:-1.0 23:1.0 24:1.0 25:0.26713692 26:-0.30224584 27:-0.31935352 28:-0.86099626 29:-0.31543154 30:-0.32388408 31:-0.16419719 32:-0.55161803 33:1.0 34:1.0 35:-0.96747967 36:-0.90243902 37:0.50546052 38:0.50116435 39:-0.15420843 40:-0.13575197 
1.0 0.0 1:-0.22881354 2:-0.3276836 3:1.0 4:1.0 5:-0.40527449 6:-0.40527449 8:-1.0 9:-0.46051357 10:-0.34092847 11:0.21236959 12:0.18402087 13:-1.0 14:-1.0 15:-1.0 16:-1.0 17:-1.0 18:-1.0 19:-1.0 20:-1.0 21:-1.0 22:-1.0 23:-0.66666667 24:-1.0 25:-0.12929419 26:-0.10953625 27:-0.33132717 28:-0.54720103 29:-0.44135889 30:-0.08714299 31:-0.28917653 32:-0.31498767 33:-0.99992055 34:-0.99924527 35:-0.93495935 36:-0.92682927 37:-0.99962967 38:-0.99922628 39:-0.999185 40:-0.99886555 
1.0 0.0 1:-0.28813557 2:-0.28813557 3:1.0 4:1.0 5:0.12560697 6:0.12560697 7:1.0 9:-0.26047037 10:-0.26047037 11:-0.77662221 12:-0.77662221 13:-0.77777778 14:-0.77777778 15:-0.2 16:-0.2 17:0.20000001 18:0.20000001 19:0.20000001 20:0.20000001 21:-1.0 22:-1.0 23:-0.33333333 24:-0.33333333 25:-0.72106422 26:-0.72106422 27:-0.84352938 28:-0.82100582 29:-0.65612985 30:-0.6810864 31:-0.77468245 32:-0.76851619 33:-0.8775507 34:-0.8775507 35:-0.67479675 36:-0.67479675 37:-0.88529752 38:-0.88529752 39:-0.90541074 40:-0.90541074 
1.0 0.0 1:-0.22881354 2:-0.22881354 3:0.08571429 4:0.08571429 5:0.1228745 6:0.1228745 7:1.0 9:-0.04074192 10:-0.04074192 11:0.30300941 12:0.30300941 13:-0.11111111 14:-0.33333333 15:-0.33333332 16:-0.33333332 17:3.0E-8 18:3.0E-8 19:3.0E-8 20:3.0E-8 21:-1.0 22:-1.0 25:0.17363737 26:0.12753548 27:-0.89277083 28:-0.94751557 29:0.50778489 30:0.5682235 31:-0.25965492 32:-0.25659288 33:-0.98425391 34:-0.98425391 35:-0.72357724 36:-0.72357724 37:-0.98666693 38:-0.98684938 39:-0.98781783 40:-0.9876166 
1.0 0.0 1:0.06779659 2:0.06779659 3:0.23809525 4:0.23809525 5:-0.05395587 6:-0.05395587 9:-0.37196029 10:-0.41425133 11:0.19250772 12:0.19250772 13:-0.77777778 14:-0.77777778 17:0.50000002 18:0.50000002 19:0.50000002 20:0.50000002 21:-1.0 22:-1.0 23:-0.66666667 24:-0.66666667 25:0.08475028 26:-0.0493643 27:-0.34510154 28:-0.34510154 29:-0.2057985 30:-0.39243043 31:-0.16643164 32:-0.20464441 33:-0.99997617 34:-0.99997617 35:-0.95934959 36:-0.82113821 37:-0.99992695 38:-1.0 39:-1.0 40:-0.99987171 
1.0 1.0 1:0.54237287 2:0.54237287 3:-0.14285714 4:-0.14285714 5:-0.41405746 6:-0.41405746 7:1.0 8:1.0 9:-0.87412971 10:-0.62710409 11:0.14841233 12:0.14841233 13:-0.77777778 14:-0.55555556 15:-0.2 16:-0.2 17:0.20000001 18:0.20000001 19:0.20000001 20:0.20000001 21:-1.0 22:-1.0 23:-0.33333333 24:-0.33333333 25:0.35394291 26:0.13217215 27:-0.54490907 28:-0.39571882 29:0.34912427 30:-0.08518013 31:-0.14248028 32:-0.12643263 33:-0.99753719 34:-0.82366283 35:-0.84552846 36:-0.74796748 37:-0.99787656 38:-0.83500033 39:-0.99665399 40:-0.86304909 
1.0 0.0 1:0.23728816 2:0.15254238 3:0.23809525 4:0.23809525 5:-0.64807976 6:-0.61653199 7:1.0 8:1.0 9:-0.39726344 10:-0.87229108 11:0.151859 12:0.13851236 13:0.11111111 14:1.0 15:-0.42857144 16:-0.42857144 17:-0.14285715 18:-0.14285715 19:-0.14285715 20:-0.14285715 21:-1.0 22:-1.0 23:0.33333333 24:0.33333333 25:-0.06804455 26:-0.30013154 27:-0.91324039 28:-0.85456399 29:0.0668444 30:-0.2749117 31:-0.47733787 32:-0.4827731 33:-0.82831834 34:1.0 35:-0.98373984 36:-0.91869919 37:-0.85911683 38:0.64265765 39:-0.89619051 40:0.19062083 
1.0 0.0 1:0.54237287 2:0.54237287 3:1.0 4:1.0 5:-0.66371001 6:-1.0 7:1.0 8:1.0 9:-0.60783289 10:-0.52966435 11:0.12625162 12:0.16686048 13:-1.0 14:-1.0 15:-1.0 16:-1.0 17:-1.0 18:-1.0 19:-1.0 20:-1.0 21:-1.0 22:-1.0 23:-0.33333333 24:-0.33333333 25:0.05000682 26:-0.08522538 27:-0.77038524 28:-0.70787029 29:0.19498535 30:-0.02911603 31:-0.47972831 32:-0.49215944 33:-0.97738982 34:-0.97738982 35:-0.96747967 36:-0.97560976 37:-0.97903203 38:-0.97888865 39:-0.98176071 40:-0.98176674 
1.0 0.0 1:0.06779659 2:0.06779659 3:0.61904761 4:0.61904761 5:-0.15256673 6:-0.59533972 7:1.0 8:1.0 9:-0.72055986 10:-0.37635771 11:-0.01625127 12:-0.02579163 13:-0.77777778 14:-0.77777778 15:-0.42857144 16:-0.42857144 17:-0.14285715 18:-0.14285715 19:-0.14285715 20:-0.14285715 21:-1.0 22:-1.0 23:0.33333333 24:0.33333333 25:-0.14768268 26:0.08475028 27:-0.60632907 28:-0.89863077 29:-0.30087471 30:0.18529325 31:-0.33899219 32:-0.30262709 33:-0.45050746 34:-0.45050746 35:-0.94308943 36:-0.97560976 37:-0.5418828 38:-0.5419983 39:-0.70070806 40:-0.70046227 
1.0 0.0 1:-0.12994348 2:-0.12994348 3:0.54285714 4:0.54285714 5:-0.7488511 6:-0.56603528 7:1.0 8:1.0 9:-0.64965142 10:-0.80152221 11:-0.1728082 12:-0.16917271 13:-0.55555556 14:-0.77777778 15:-0.33333332 16:-0.33333332 17:3.0E-8 18:3.0E-8 19:3.0E-8 20:3.0E-8 21:-1.0 22:-1.0 25:-0.02933086 26:0.2523935 27:-0.7152879 28:-0.79756784 29:0.01116701 30:0.39765839 31:-0.49746333 32:-0.47408894 33:1.0 34:1.0 35:-0.93495935 36:-0.91056911 37:0.76282695 38:0.76662756 39:0.28532558 40:0.27149078 
1.0 0.0 1:0.00188327 2:0.00188327 3:0.14285714 4:0.14285714 5:-0.53785932 6:0.40349027 7:1.0 8:1.0 9:-0.47371991 10:-0.3084975 11:-0.04051509 12:-0.02519925 13:0.33333333 14:0.33333333 15:-0.55555556 16:-0.55555556 17:-0.33333333 18:-0.33333333 19:-0.33333333 20:-0.33333333 21:-1.0 22:-1.0 23:1.0 24:1.0 25:-0.45120416 26:-0.27674906 27:-0.72666037 28:-0.71571747 29:-0.46462072 30:-0.33106308 31:-0.63155187 32:-0.61548245 33:1.0 34:1.0 35:-0.96747967 36:-0.91056911 37:0.50558421 38:0.50552244 39:-0.15438619 40:-0.15416148 
1.0 0.0 1:-0.18644065 2:-0.18644065 3:0.61904761 4:-0.52380953 5:0.06315034 6:0.06315034 7:1.0 8:1.0 9:-0.37433256 10:-0.62712159 11:-0.66559814 12:-0.66559814 13:-0.77777778 14:-0.77777778 15:-0.42857144 16:-0.42857144 17:-0.14285715 18:-0.14285715 19:-0.14285715 20:-0.14285715 21:-1.0 22:-1.0 23:0.33333333 24:0.33333333 25:-0.30797439 26:-0.31467603 27:-0.78428702 28:-0.59457014 29:-0.25586172 30:-0.44946392 31:-0.47706553 32:-0.50205884 33:-0.86362391 34:-0.86362391 35:-0.93495935 36:-0.93495935 37:-0.88731131 38:-0.886869 39:-0.92224449 40:-0.92205044 
1.0 0.0 1:0.46327685 2:0.46327685 3:1.0 4:-0.37142857 5:-0.42869573 6:-0.42869573 7:1.0 8:1.0 9:-0.26369569 10:-0.25600885 11:0.15624599 12:0.15624599 13:-0.11111111 14:-0.11111111 15:-0.33333332 16:-0.33333332 17:3.0E-8 18:3.0E-8 19:3.0E-8 20:3.0E-8 21:-1.0 22:-1.0 25:0.29550176 26:0.29550176 27:-1.0 28:-1.0 29:0.63322594 30:0.51890764 31:-0.63500332 32:-0.65864405 33:-0.48246837 34:-0.48246837 35:-0.91869919 36:-0.91056911 37:-0.54717746 38:-0.54717925 39:-0.65722656 40:-0.65722153 
1.0 0.0 1:-0.18644065 2:-0.18644065 3:-0.52380953 4:1.0 5:-0.31679426 6:-0.28589122 7:1.0 8:1.0 9:-0.34346509 10:-0.35636923 11:-0.23386085 12:-0.23386085 13:-0.11111111 14:0.11111111 15:0.14285716 16:-0.42857144 17:-0.14285715 18:-0.14285715 19:0.07142859 20:-0.14285715 21:-0.07211558 22:-1.0 23:0.33333333 24:0.33333333 25:-0.07165822 26:0.0321638 27:-0.93943403 28:-0.93166503 29:0.26244276 30:0.0768571 31:-0.70481152 32:-0.72726131 33:1.0 34:1.0 35:-0.95934959 36:-0.92682927 37:0.66766636 38:0.66589214 39:0.08822033 40:0.09358464 
1.0 0.0 1:0.00188327 2:0.00188327 3:-0.42857143 4:0.14285714 5:-0.5302691 6:-0.55686196 7:1.0 8:1.0 9:0.00378286 10:-0.60559912 11:0.07061968 12:0.07116485 13:-0.33333333 14:-0.33333333 15:-0.55555556 16:-0.55555556 17:-0.33333333 18:-0.33333333 19:-0.33333333 20:-0.33333333 21:-1.0 22:-1.0 23:1.0 24:1.0 25:-0.17868908 26:-0.14180757 27:-0.86099626 28:-0.75533442 29:-0.29103095 30:-0.25096221 31:-0.42867859 32:-0.45593641 33:1.0 34:1.0 35:-0.95934959 36:-0.96747967 37:0.50567547 38:0.50573484 39:-0.15506703 40:-0.15513746 
1.0 0.4023254068645344 1:0.88347456 2:0.88347456 3:0.34693877 4:-0.63265305 5:-0.55879214 6:-0.55879214 7:1.0 8:1.0 9:-0.2093386 10:-0.46635927 11:0.28720461 12:0.28720461 13:0.11111111 14:0.33333333 17:-0.24999999 18:-0.24999999 19:-0.09999999 20:-0.12500001 21:-0.24999998 22:-0.30122873 23:0.66666667 24:0.66666667 25:-0.16112646 26:-0.64662567 27:-0.85593222 28:-0.78615242 29:-0.19928953 30:-0.72881394 31:-0.79024316 32:-0.80328604 33:-0.82583169 34:-0.82583169 35:-0.97560976 36:-0.97560976 37:-0.82862466 38:-0.82864547 39:-0.81433577 40:-0.8143169 
1.0 0.0 1:0.06779659 2:0.42372881 3:0.42857143 4:0.42857143 5:-0.69413647 6:-0.68047407 7:1.0 8:1.0 9:-0.26098509 10:0.22110901 11:0.55636837 12:0.56978305 13:-0.33333333 14:-0.33333333 15:-0.2 16:-0.2 17:0.20000001 18:0.20000001 19:0.20000001 20:0.20000001 21:-1.0 22:-1.0 23:-0.33333333 24:-0.33333333 25:-0.50777714 26:-0.55458241 27:-0.89607624 28:-0.89243731 29:-0.19639635 30:-0.32760826 31:-0.74044215 32:-0.75999693 33:-0.60135852 34:-0.60135852 35:-0.72357724 36:-0.7398374 37:-0.64377417 38:-0.64340357 39:-0.57908662 40:-0.57985935 
1.0 0.0 1:-0.3276836 2:0.26553672 3:1.0 4:1.0 5:-0.59986598 6:-0.70051225 7:1.0 8:1.0 9:-0.66682743 10:-0.64264398 11:0.16101862 12:0.12524768 13:0.11111111 14:0.11111111 15:-0.33333332 16:-0.33333332 17:3.0E-8 18:3.0E-8 19:3.0E-8 20:3.0E-8 21:-1.0 22:-1.0 25:-0.28122777 26:-0.26915483 27:-0.85229901 28:-0.87175891 29:-0.20827847 30:-0.07011758 31:-0.72094726 32:-0.71614672 33:1.0 34:1.0 35:-0.80487805 36:-0.95934959 37:0.76752557 38:0.76722443 39:0.26805976 40:0.26895524 
1.0 0.0 1:0.19962335 2:0.52919022 3:-0.42857143 4:-0.42857143 5:-0.3235441 6:-0.3491611 7:1.0 8:1.0 9:-0.51850189 10:-0.12801134 11:0.07560125 12:0.12972343 13:-0.33333333 14:-0.33333333 15:-0.55555556 16:-0.55555556 17:-0.33333333 18:-0.33333333 19:-0.33333333 20:-0.33333333 21:-1.0 22:-1.0 23:1.0 24:1.0 25:0.19273959 26:0.38925854 27:-0.58193844 28:-0.9012366 29:-0.11416982 30:0.52958348 31:-0.04328453 32:-0.09819449 33:-0.86362391 34:-0.85118274 35:-0.78861789 36:-0.85365854 37:-0.89397069 38:-0.88507783 39:-0.91365661 40:-0.90925631 
1.0 0.0 1:-0.40677962 2:-0.40677962 3:1.0 4:1.0 5:-0.46236377 6:-0.53028535 7:1.0 8:1.0 9:-0.76433041 10:-0.51637095 11:-0.53944174 12:0.00522651 13:-0.33333333 14:-0.33333333 15:-0.2 16:-0.2 17:0.20000001 18:0.20000001 19:0.20000001 20:0.20000001 21:-1.0 22:-1.0 23:-0.33333333 24:-0.33333333 25:-0.0493643 26:-0.15066568 27:-0.91045353 28:-0.91045353 29:0.08676921 30:-0.02390198 31:-0.59372447 32:-0.60545229 33:1.0 34:1.0 35:-0.95934959 36:-0.93495935 37:0.88110275 38:0.87452402 39:0.52005228 40:0.53716114 
1.0 0.0 1:-0.18644065 2:-0.18644065 3:-0.14285714 4:-0.14285714 5:-0.70812415 6:-0.7012465 7:1.0 8:1.0 9:-0.52497779 10:-0.09548907 11:-0.19559392 12:0.08680169 13:0.11111111 14:-0.11111111 15:-0.42857144 16:-0.42857144 17:-0.14285715 18:-0.14285715 19:-0.14285715 20:-0.14285715 21:-1.0 22:-1.0 23:0.33333333 24:0.33333333 25:-0.0397847 26:-0.0397847 27:-0.81219076 28:-0.75453281 29:-0.18755497 30:-0.22068807 31:-0.38200326 32:-0.34306311 33:1.0 34:1.0 35:-0.96747967 36:-0.97560976 37:0.66671704 38:0.66779217 39:0.11631395 40:0.08722854 
1.0 1.0 1:-0.76271184 2:-0.76271184 3:-0.14285714 4:-0.14285714 5:-0.24601006 6:-0.24601006 7:1.0 8:1.0 9:-0.2167021 10:-0.81534294 11:-0.48146083 12:-0.48146083 13:-0.55555556 14:-0.55555556 15:-0.2 16:-0.2 17:0.20000001 18:0.20000001 19:0.20000001 20:0.20000001 21:-1.0 22:-1.0 23:-0.33333333 24:-0.33333333 25:-0.08716069 26:-0.08716069 27:-0.11293215 28:-0.0221706 29:-0.67318546 30:-0.79518221 31:-0.04286744 32:0.01498114 33:-0.98979126 34:-0.98979126 35:-0.94308943 36:-0.62601626 37:-0.9908905 38:-0.99100385 39:-0.99074377 40:-0.99049625 
0.8431485830067446 0.0 1:0.06779659 2:-0.01694914 3:0.67346939 4:0.61904761 5:-0.43078057 6:-0.40202154 7:1.0 8:1.0 9:-0.45564231 10:-0.58370953 11:-0.47384295 12:-0.52631283 13:-0.55555556 14:-0.77777778 16:0.14285716 17:-0.24999999 18:0.71428576 19:0.12500001 20:0.71428576 21:-0.06249998 22:-1.0 23:0.66666667 24:0.33333333 25:-0.37626859 26:-0.62406892 27:-0.96344594 28:-0.85716069 29:-0.29969464 30:-0.59452623 31:-0.74796952 32:-0.73689641 33:-0.78822221 34:-0.78822221 35:-0.87804878 36:-0.87804878 37:-0.82433467 38:-0.83035996 39:-0.83066209 40:-0.84939943 
1.0 1.0 1:-0.01694914 2:-0.01694914 3:0.23809525 4:0.23809525 5:-0.25122407 6:-0.25122407 7:1.0 8:1.0 9:-0.30608611 10:-0.79900965 11:-0.25619367 12:-0.25619367 13:-0.11111111 14:-0.11111111 15:-0.42857144 16:-0.42857144 17:-0.14285715 18:-0.14285715 19:-0.14285715 20:-0.14285715 21:-1.0 22:-1.0 23:0.33333333 24:0.33333333 25:0.21241704 26:-0.51442961 27:-0.94972908 28:-0.67771993 29:0.20544023 30:-0.67890998 31:-0.56200029 32:-0.57142698 33:1.0 34:1.0 35:-0.85365854 36:-0.89430894 37:0.65533275 38:0.64576389 39:0.13364015 40:0.18103062 
1.0 0.0 1:-0.40677962 2:-0.40677962 3:1.0 4:1.0 5:-0.46236377 6:-0.46236377 7:1.0 8:1.0 9:-0.90767147 10:-0.69143637 11:-0.53944174 12:-0.53944174 13:-0.55555556 14:-0.55555556 15:-0.2 16:-0.2 17:0.20000001 18:0.20000001 19:0.20000001 20:0.20000001 21:-1.0 22:-1.0 23:-0.33333333 24:-0.33333333 25:0.19007602 26:-0.48571341 27:-0.86659153 28:-0.78555857 29:0.24167481 30:-0.43999654 31:-0.3335648 32:-0.77338542 33:-0.76700232 34:-0.76700232 35:-0.8699187 36:-0.88617886 37:-0.78102998 38:-0.78108414 39:-0.82202163 40:-0.82188277 
1.0 0.0 1:-0.12994348 2:-0.0640301 3:-0.42857143 4:-0.42857143 5:-0.64967209 6:-0.69771964 7:1.0 8:1.0 9:-0.07119716 10:-0.69660489 11:0.0954804 12:0.13829887 13:-0.11111111 14:0.11111111 15:-0.55555556 16:-0.55555556 17:-0.33333333 18:-0.33333333 19:-0.33333333 20:-0.33333333 21:-1.0 22:-1.0 23:1.0 24:1.0 25:0.31525971 26:-0.14008308 27:-0.97431687 28:-0.97431687 29:0.13253091 30:0.03162335 31:-0.08051106 32:-0.64429027 33:1.0 34:1.0 35:-0.97560976 36:-0.91056911 37:0.49312431 38:0.49089656 39:-0.08325353 40:-0.0749057 
1.0 0.0 1:-0.22881354 2:-0.3276836 3:1.0 4:1.0 5:-0.40527449 6:-0.40527449 8:-1.0 9:-0.46051357 10:-0.34092847 11:0.21236959 12:0.18402087 13:-1.0 14:-1.0 15:-1.0 16:-1.0 17:-1.0 18:-1.0 19:-1.0 20:-1.0 21:-1.0 22:-1.0 23:-0.66666667 24:-1.0 25:-0.12929419 26:-0.10953625 27:-0.33132717 28:-0.54720103 29:-0.44135889 30:-0.08714299 31:-0.28917653 32:-0.31498767 33:-0.99992055 34:-0.99924527 35:-0.93495935 36:-0.92682927 37:-0.99962967 38:-0.99922628 39:-0.999185 40:-0.99886555 
1.0 0.0 1:-0.28813557 2:-0.28813557 3:1.0 4:1.0 5:0.12560697 6:0.12560697 8:1.0 9:-0.26047037 10:-0.26047037 11:-0.77662221 12:-0.77662221 13:-0.77777778 14:-0.77777778 15:-0.2 16:-0.2 17:0.20000001 18:0.20000001 19:0.20000001 20:0.20000001 21:-1.0 22:-1.0 23:-0.33333333 24:-0.33333333 25:-0.72106422 26:-0.72106422 27:-0.82100582 28:-0.84352938 29:-0.6810864 30:-0.65612985 31:-0.76851619 32:-0.77468245 33:-0.8775507 34:-0.8775507 35:-0.67479675 36:-0.67479675 37:-0.88529752 38:-0.88529752 39:-0.90541074 40:-0.90541074 
1.0 0.0 1:0.21610169 2:0.21610169 3:0.23809525 4:0.23809525 5:0.40568599 6:0.40568599 8:-1.0 9:-0.38640006 10:-0.27124379 11:-0.09990221 12:-0.09990221 13:-0.77777778 14:-0.77777778 17:0.50000002 18:0.50000002 19:0.50000002 20:0.50000002 21:-1.0 22:-1.0 23:-0.66666667 24:-0.66666667 25:-0.46847236 26:-0.46847236 27:-0.59132122 28:-0.7425905 29:-0.62438277 30:-0.44151787 31:-0.55764114 32:-0.58870078 33:-1.0 34:-1.0 35:-0.91056911 36:-0.91056911 37:-0.99990343 38:-0.99990343 39:-0.99971324 40:-0.99971324 
1.0 0.0 1:-0.22881354 2:-0.22881354 3:0.08571429 4:0.08571429 5:0.1228745 6:0.1228745 8:1.0 9:-0.04074192 10:-0.04074192 11:0.30300941 12:0.30300941 13:-0.33333333 14:-0.11111111 15:-0.33333332 16:-0.33333332 17:3.0E-8 18:3.0E-8 19:3.0E-8 20:3.0E-8 21:-1.0 22:-1.0 25:0.12753548 26:0.17363737 27:-0.94751557 28:-0.89277083 29:0.5682235 30:0.50778489 31:-0.25659288 32:-0.25965492 33:-0.98425391 34:-0.98425391 35:-0.72357724 36:-0.72357724 37:-0.98684938 38:-0.98666693 39:-0.9876166 40:-0.98781783 
1.0 1.0 1:-0.05084746 2:-0.05084746 3:0.42857143 4:0.42857143 5:-0.83388322 6:-0.83388322 7:1.0 8:1.0 9:-0.42804858 10:-0.30429087 11:-0.16080837 12:-0.16080837 13:-1.0 14:-0.77777778 15:-1.0 16:-0.2 17:-1.0 18:0.20000001 19:-1.0 20:0.20000001 21:-1.0 22:-1.0 23:-0.33333333 24:-0.33333333 25:0.29091012 26:0.27139307 27:0.24593992 28:0.22127479 29:-0.68783826 30:-0.65444726 31:0.3350879 32:0.31891344 33:-0.99903077 34:-0.88991241 35:-0.8699187 36:-0.86178862 37:-0.99928517 38:-0.8998666 39:-0.99849528 40:-0.87288941 
1.0 1.0 1:0.54237287 2:0.54237287 3:-0.14285714 4:-0.14285714 5:-0.41405746 6:-0.41405746 7:1.0 8:1.0 9:-0.62710409 10:-0.87412971 11:0.14841233 12:0.14841233 13:-0.55555556 14:-0.77777778 15:-0.2 16:-0.2 17:0.20000001 18:0.20000001 19:0.20000001 20:0.20000001 21:-1.0 22:-1.0 23:-0.33333333 24:-0.33333333 25:0.13217215 26:0.35394291 27:-0.39571882 28:-0.54490907 29:-0.08518013 30:0.34912427 31:-0.12643263 32:-0.14248028 33:-0.82366283 34:-0.99753719 35:-0.74796748 36:-0.84552846 37:-0.83500033 38:-0.99787656 39:-0.86304909 40:-0.99665399 
1.0 0.0 1:0.15254238 2:0.23728816 3:0.23809525 4:0.23809525 5:-0.61653199 6:-0.64807976 7:1.0 8:1.0 9:-0.87229108 10:-0.39726344 11:0.13851236 12:0.151859 13:1.0 14:0.11111111 15:-0.42857144 16:-0.42857144 17:-0.14285715 18:-0.14285715 19:-0.14285715 20:-0.14285715 21:-1.0 22:-1.0 23:0.33333333 24:0.33333333 25:-0.30013154 26:-0.06804455 27:-0.85456399 28:-0.91324039 29:-0.2749117 30:0.0668444 31:-0.4827731 32:-0.47733787 33:1.0 34:-0.82831834 35:-0.91869919 36:-0.98373984 37:0.64265765 38:-0.85911683 39:0.19062083 40:-0.89619051 
1.0 0.0 1:0.15254238 2:0.15254238 3:-0.14285714 4:-0.14285714 5:-0.16878501 6:-0.23872343 7:1.0 8:1.0 9:-0.1351315 10:-0.1351315 11:0.18639148 12:0.18639148 13:-0.33333333 14:-0.11111111 15:-0.42857144 16:-0.42857144 17:-0.14285715 18:-0.14285715 19:-0.14285715 20:-0.14285715 21:-1.0 22:-1.0 23:0.33333333 24:0.33333333 25:0.03415635 26:0.067685 27:-0.88771014 28:-0.78649927 29:0.16462679 30:0.15690875 31:-0.1768434 32:-0.18406286 33:-0.84610618 34:-0.96510755 35:-0.83739837 36:-0.95934959 37:-0.87420146 38:-0.96499912 39:-0.89918314 40:-0.96384806 
1.0 0.0 1:0.54237287 2:0.54237287 3:1.0 4:1.0 5:-1.0 6:-0.66371001 7:1.0 8:1.0 9:-0.52966435 10:-0.60783289 11:0.16686048 12:0.12625162 13:-1.0 14:-1.0 15:-1.0 16:-1.0 17:-1.0 18:-1.0 19:-1.0 20:-1.0 21:-1.0 22:-1.0 23:-0.33333333 24:-0.33333333 25:-0.08522538 26:0.05000682 27:-0.70787029 28:-0.77038524 29:-0.02911603 30:0.19498535 31:-0.49215944 32:-0.47972831 33:-0.97738982 34:-0.97738982 35:-0.97560976 36:-0.96747967 37:-0.97888865 38:-0.97903203 39:-0.98176674 40:-0.98176071 
1.0 1.0 1:0.1864407 2:0.1864407 3:0.42857143 4:0.42857143 5:-0.59340738 6:-0.27780616 7:1.0 8:1.0 9:-0.35382982 10:-0.60241543 11:-0.39808539 12:-0.41924373 13:-0.77777778 14:-0.77777778 15:-0.2 16:-0.2 17:0.20000001 18:0.20000001 19:0.20000001 20:0.20000001 21:-1.0 22:-1.0 23:-0.33333333 24:-0.33333333 25:-0.36490781 26:-0.36490781 27:-0.56986283 28:-0.41671365 29:-0.5598849 30:-0.67311705 31:-0.40934021 32:-0.42026429 33:-0.95479553 34:-0.95479553 35:-0.6097561 36:-0.62601626 37:-0.95871528 38:-0.95885364 39:-0.96215856 40:-0.96183256 
1.0 0.0 1:0.06779659 2:0.06779659 3:0.61904761 4:0.61904761 5:-0.15256673 6:-0.59533972 7:1.0 8:1.0 9:-0.72055986 10:-0.37635771 11:-0.01625127 12:-0.02579163 13:-0.77777778 14:-0.77777778 15:-0.42857144 16:-0.42857144 17:-0.14285715 18:-0.14285715 19:-0.14285715 20:-0.14285715 21:-1.0 22:-1.0 23:0.33333333 24:0.33333333 25:-0.14768268 26:0.08475028 27:-0.60632907 28:-0.89863077 29:-0.30087471 30:0.18529325 31:-0.33899219 32:-0.30262709 33:-0.45050746 34:-0.45050746 35:-0.94308943 36:-0.97560976 37:-0.5418828 38:-0.5419983 39:-0.70070806 40:-0.70046227 
1.0 0.0 1:-0.12994348 2:-0.12994348 3:0.54285714 4:0.54285714 5:-0.7488511 6:-0.56603528 7:1.0 8:1.0 9:-0.64965142 10:-0.80152221 11:-0.1728082 12:-0.16917271 13:-0.55555556 14:-0.77777778 15:-0.33333332 16:-0.33333332 17:3.0E-8 18:3.0E-8 19:3.0E-8 20:3.0E-8 21:-1.0 22:-1.0 25:-0.02933086 26:0.2523935 27:-0.7152879 28:-0.79756784 29:0.01116701 30:0.39765839 31:-0.49746333 32:-0.47408894 33:1.0 34:1.0 35:-0.93495935 36:-0.91056911 37:0.76282695 38:0.76662756 39:0.28532558 40:0.27149078 
1.0 0.0 1:0.00188327 2:0.00188327 3:0.14285714 4:0.14285714 5:-0.53785932 6:0.40349027 7:1.0 8:1.0 9:-0.47371991 10:-0.3084975 11:-0.04051509 12:-0.02519925 13:0.33333333 14:0.33333333 15:-0.55555556 16:-0.55555556 17:-0.33333333 18:-0.33333333 19:-0.33333333 20:-0.33333333 21:-1.0 22:-1.0 23:1.0 24:1.0 25:-0.45120416 26:-0.27674906 27:-0.72666037 28:-0.71571747 29:-0.46462072 30:-0.33106308 31:-0.63155187 32:-0.61548245 33:1.0 34:1.0 35:-0.96747967 36:-0.91056911 37:0.50558421 38:0.50552244 39:-0.15438619 40:-0.15416148 
1.0 0.0 1:-0.18644065 2:-0.18644065 3:0.61904761 4:-0.52380953 5:0.06315034 6:0.06315034 7:1.0 8:1.0 9:-0.37433256 10:-0.62712159 11:-0.66559814 12:-0.66559814 13:-0.77777778 14:-0.77777778 15:-0.42857144 16:-0.42857144 17:-0.14285715 18:-0.14285715 19:-0.14285715 20:-0.14285715 21:-1.0 22:-1.0 23:0.33333333 24:0.33333333 25:-0.30797439 26:-0.31467603 27:-0.78428702 28:-0.59457014 29:-0.25586172 30:-0.44946392 31:-0.47706553 32:-0.50205884 33:-0.86362391 34:-0.86362391 35:-0.93495935 36:-0.93495935 37:-0.88731131 38:-0.886869 39:-0.92224449 40:-0.92205044 
1.0 0.0 1:0.00188327 2:0.00188327 3:0.14285714 4:-0.42857143 5:-0.55686196 6:-0.5302691 7:1.0 8:1.0 9:-0.60559912 10:0.00378286 11:0.07116485 12:0.07061968 13:-0.33333333 14:-0.33333333 15:-0.55555556 16:-0.55555556 17:-0.33333333 18:-0.33333333 19:-0.33333333 20:-0.33333333 21:-1.0 22:-1.0 23:1.0 24:1.0 25:-0.14180757 26:-0.17868908 27:-0.75533442 28:-0.86099626 29:-0.25096221 30:-0.29103095 31:-0.45593641 32:-0.42867859 33:1.0 34:1.0 35:-0.96747967 36:-0.95934959 37:0.50573484 38:0.50567547 39:-0.15513746 40:-0.15506703 
1.0 1.0 1:0.88347456 2:0.88347456 3:0.34693877 4:-0.63265305 5:-0.55879214 6:-0.55879214 7:1.0 8:1.0 9:-0.2093386 10:-0.46635927 11:0.28720461 12:0.28720461 13:0.11111111 14:0.33333333 17:-0.24999999 18:-0.24999999 19:-0.09999999 20:-0.12500001 21:-0.24999998 22:-0.30122873 23:0.66666667 24:0.66666667 25:-0.16112646 26:-0.64662567 27:-0.85593222 28:-0.78615242 29:-0.19928953 30:-0.72881394 31:-0.79024316 32:-0.80328604 33:-0.82583169 34:-0.82583169 35:-0.97560976 36:-0.97560976 37:-0.82862466 38:-0.82864547 39:-0.81433577 40:-0.8143169 
1.0 1.0 1:0.06779659 2:0.46327685 3:0.54285714 4:0.54285714 5:-0.61307296 6:-0.68618745 7:1.0 8:1.0 9:-0.36824266 10:-0.34219678 11:0.35849794 12:0.37989276 13:-0.11111111 14:-0.11111111 15:-0.33333332 16:-0.33333332 17:3.0E-8 18:3.0E-8 19:3.0E-8 20:3.0E-8 21:-1.0 22:-1.0 25:-0.49465054 26:-0.49465054 27:-0.89561647 28:-0.75297821 29:-0.36713206 30:-0.53414045 31:-0.76781185 32:-0.75080424 33:1.0 34:1.0 35:-0.91056911 36:-0.94308943 37:0.75909022 38:0.76254387 39:0.29379248 40:0.28309692 
1.0 0.0 1:-0.3276836 2:0.26553672 3:1.0 4:1.0 5:-0.59986598 6:-0.70051225 7:1.0 8:1.0 9:-0.66682743 10:-0.64264398 11:0.16101862 12:0.12524768 13:0.11111111 14:0.11111111 15:-0.33333332 16:-0.33333332 17:3.0E-8 18:3.0E-8 19:3.0E-8 20:3.0E-8 21:-1.0 22:-1.0 25:-0.28122777 26:-0.26915483 27:-0.85229901 28:-0.87175891 29:-0.20827847 30:-0.07011758 31:-0.72094726 32:-0.71614672 33:1.0 34:1.0 35:-0.80487805 36:-0.95934959 37:0.76752557 38:0.76722443 39:0.26805976 40:0.26895524 
1.0 1.0 1:-0.3276836 2:-0.52542373 3:0.08571429 4:0.08571429 5:-0.41073944 6:-0.27001682 7:1.0 8:1.0 9:-0.70600855 10:-0.45199164 11:-0.59725613 12:-0.61996146 13:-0.77777778 14:-0.77777778 15:-0.33333332 16:-0.33333332 17:3.0E-8 18:3.0E-8 19:3.0E-8 20:3.0E-8 21:-1.0 22:-1.0 25:0.38545618 26:0.52039179 27:-0.77771374 28:-0.72666037 29:0.63910247 30:0.70376067 31:-0.02348005 32:0.02849034 33:1.0 34:1.0 35:-0.73170732 36:-0.73170732 37:0.75957805 38:0.76428951 39:0.29254986 40:0.2776938 
1.0 0.0 1:0.52919022 2:0.19962335 3:-0.42857143 4:-0.42857143 5:-0.3491611 6:-0.3235441 7:1.0 8:1.0 9:-0.12801134 10:-0.51850189 11:0.12972343 12:0.07560125 13:-0.33333333 14:-0.33333333 15:-0.55555556 16:-0.55555556 17:-0.33333333 18:-0.33333333 19:-0.33333333 20:-0.33333333 21:-1.0 22:-1.0 23:1.0 24:1.0 25:0.38925854 26:0.19273959 27:-0.9012366 28:-0.58193844 29:0.52958348 30:-0.11416982 31:-0.09819449 32:-0.04328453 33:-0.85118274 34:-0.86362391 35:-0.85365854 36:-0.78861789 37:-0.88507783 38:-0.89397069 39:-0.90925631 40:-0.91365661 
1.0 1.0 1:0.1864407 2:0.1864407 3:-0.14285714 4:-0.14285714 5:-0.20033863 6:-0.31890865 7:1.0 8:1.0 9:-0.46635927 10:-0.81457118 11:0.39365918 12:0.09920112 13:-0.55555556 14:-0.33333333 15:-0.2 16:-0.2 17:0.20000001 18:0.20000001 19:0.20000001 20:0.20000001 21:-1.0 22:-1.0 23:-0.33333333 24:-0.33333333 25:0.05553409 26:0.05553409 27:-0.42328296 28:-0.45646913 29:-0.14677456 30:-0.16100636 31:-0.10081112 32:-0.10657805 33:-0.84610618 34:-0.84610618 35:-0.88617886 36:-0.98373984 37:-0.85551457 38:-0.85612367 39:-0.88245202 40:-0.88057451 
1.0 1.0 1:-0.88135589 2:-0.88135589 3:-0.71428571 4:-0.71428571 5:-0.43455103 6:-0.43455103 7:1.0 8:1.0 9:-0.30129747 10:-0.30129747 11:-0.39989864 12:-0.58051473 13:-0.55555556 14:-0.55555556 15:-0.2 16:-0.2 17:0.20000001 18:0.20000001 19:0.20000001 20:0.20000001 21:-1.0 22:-1.0 23:-0.33333333 24:-0.33333333 25:-0.1036895 26:-0.1036895 27:-0.49827517 28:-0.49827517 29:-0.29106341 30:-0.29106341 31:-0.29834081 32:-0.29834081 33:-0.97835111 34:-0.97835111 35:-0.95934959 36:-0.85365854 37:-0.98028126 38:-0.98033212 39:-0.9725422 40:-0.97246372 
1.0 0.0 1:-0.40677962 2:-0.40677962 3:1.0 4:1.0 5:-0.53028535 6:-0.46236377 7:1.0 8:1.0 9:-0.51637095 10:-0.76433041 11:0.00522651 12:-0.53944174 13:-0.33333333 14:-0.33333333 15:-0.2 16:-0.2 17:0.20000001 18:0.20000001 19:0.20000001 20:0.20000001 21:-1.0 22:-1.0 23:-0.33333333 24:-0.33333333 25:-0.15066568 26:-0.0493643 27:-0.91045353 28:-0.91045353 29:-0.02390198 30:0.08676921 31:-0.60545229 32:-0.59372447 33:1.0 34:1.0 35:-0.93495935 36:-0.95934959 37:0.87452402 38:0.88110275 39:0.53716114 40:0.52005228 
1.0 0.0 1:-0.18644065 2:-0.18644065 3:-0.14285714 4:-0.14285714 5:-0.70812415 6:-0.7012465 7:1.0 8:1.0 9:-0.52497779 10:-0.09548907 11:-0.19559392 12:0.08680169 13:0.11111111 14:-0.11111111 15:-0.42857144 16:-0.42857144 17:-0.14285715 18:-0.14285715 19:-0.14285715 20:-0.14285715 21:-1.0 22:-1.0 23:0.33333333 24:0.33333333 25:-0.0397847 26:-0.0397847 27:-0.81219076 28:-0.75453281 29:-0.18755497 30:-0.22068807 31:-0.38200326 32:-0.34306311 33:1.0 34:1.0 35:-0.96747967 36:-0.97560976 37:0.66671704 38:0.66779217 39:0.11631395 40:0.08722854 
1.0 1.0 1:-0.44067795 2:-0.44067795 3:0.23809525 4:0.23809525 5:-0.20619394 6:-0.20619394 7:1.0 8:1.0 9:-0.39229693 10:-0.45090486 11:0.08620995 12:-0.03716502 13:-0.33333333 14:-0.11111111 15:-0.42857144 16:-0.42857144 17:-0.14285715 18:-0.14285715 19:-0.14285715 20:-0.14285715 21:-1.0 22:-1.0 23:0.33333333 24:0.33333333 25:0.68997849 26:0.61621548 27:-0.64509312 28:-0.64509312 29:0.46942122 30:0.38645884 31:0.24887213 32:0.21988313 33:-0.98912392 34:-0.98912392 35:-0.88617886 36:-0.84552846 37:-0.99131535 38:-0.99134895 39:-0.99042812 40:-0.99040656 
1.0 1.0 1:0.42372881 2:0.42372881 3:-0.14285714 4:-0.14285714 5:-0.47553821 6:-0.52784565 7:1.0 8:1.0 9:-0.93001094 10:-0.93001094 11:0.67852899 12:0.69225248 13:-0.55555556 14:-0.33333333 15:-0.2 16:-0.2 17:0.20000001 18:0.20000001 19:0.20000001 20:0.20000001 21:-1.0 22:-1.0 23:-0.33333333 24:-0.33333333 25:-0.20730557 26:-0.20730557 27:-0.47639111 28:-0.50015498 29:-0.43745604 30:-0.42244105 31:-0.40572704 32:-0.41242438 33:1.0 34:1.0 35:-0.90243902 36:-0.92682927 37:0.78403056 38:0.78404037 39:0.99962571 40:0.99960759 
1.0 0.0 1:-0.28813557 2:-0.28813557 3:0.42857143 4:0.42857143 5:-0.77679393 6:-0.77679393 7:1.0 8:1.0 9:-0.19309388 10:-0.68124863 11:-0.4224857 12:-0.4224857 13:0.11111111 14:-0.11111111 15:-0.2 16:-0.2 17:0.20000001 18:0.20000001 19:0.20000001 20:0.20000001 21:-1.0 22:-1.0 23:-0.33333333 24:-0.33333333 25:-0.30367813 26:-0.39657294 27:-0.74079324 28:-0.405897 29:-0.31707593 30:-0.7580058 31:-0.42370967 32:-0.43532531 33:1.0 34:1.0 35:-0.96747967 36:-0.77235772 37:0.88091795 38:0.86968848 39:0.52098802 40:0.55053311 
1.0 1.0 1:-0.76271184 2:-0.76271184 3:-0.14285714 4:-0.14285714 5:-0.24601006 6:-0.24601006 7:1.0 8:1.0 9:-0.2167021 10:-0.81534294 11:-0.48146083 12:-0.48146083 13:-0.55555556 14:-0.55555556 15:-0.2 16:-0.2 17:0.20000001 18:0.20000001 19:0.20000001 20:0.20000001 21:-1.0 22:-1.0 23:-0.33333333 24:-0.33333333 25:-0.08716069 26:-0.08716069 27:-0.11293215 28:-0.0221706 29:-0.67318546 30:-0.79518221 31:-0.04286744 32:0.01498114 33:-0.98979126 34:-0.98979126 35:-0.94308943 36:-0.62601626 37:-0.9908905 38:-0.99100385 39:-0.99074377 40:-0.99049625 
1.0 0.0 1:0.06779659 2:-0.01694914 3:0.67346939 4:0.61904761 5:-0.43078057 6:-0.40202154 7:1.0 8:1.0 9:-0.45564231 10:-0.58370953 11:-0.47384295 12:-0.52631283 13:-0.55555556 14:-0.77777778 16:0.14285716 17:-0.24999999 18:0.71428576 19:0.12500001 20:0.71428576 21:-0.06249998 22:-1.0 23:0.66666667 24:0.33333333 25:-0.37626859 26:-0.62406892 27:-0.96344594 28:-0.85716069 29:-0.29969464 30:-0.59452623 31:-0.74796952 32:-0.73689641 33:-0.78822221 34:-0.78822221 35:-0.87804878 36:-0.87804878 37:-0.82433467 38:-0.83035996 39:-0.83066209 40:-0.84939943 
1.0 0.0 1:-0.01694914 2:-0.01694914 3:0.23809525 4:0.23809525 5:-0.25122407 6:-0.25122407 7:1.0 8:1.0 9:-0.79900965 10:-0.30608611 11:-0.25619367 12:-0.25619367 13:-0.11111111 14:-0.11111111 15:-0.42857144 16:-0.42857144 17:-0.14285715 18:-0.14285715 19:-0.14285715 20:-0.14285715 21:-1.0 22:-1.0 23:0.33333333 24:0.33333333 25:-0.51442961 26:0.21241704 27:-0.67771993 28:-0.94972908 29:-0.67890998 30:0.20544023 31:-0.57142698 32:-0.56200029 33:1.0 34:1.0 35:-0.89430894 36:-0.85365854 37:0.64576389 38:0.65533275 39:0.18103062 40:0.13364015 
1.0 0.3489168363735395 1:-0.40677962 2:-0.40677962 3:1.0 4:1.0 5:-0.46236377 6:-0.46236377 7:1.0 8:1.0 9:-0.90767147 10:-0.69143637 11:-0.53944174 12:-0.53944174 13:-0.55555556 14:-0.55555556 15:-0.2 16:-0.2 17:0.20000001 18:0.20000001 19:0.20000001 20:0.20000001 21:-1.0 22:-1.0 23:-0.33333333 24:-0.33333333 25:0.19007602 26:-0.48571341 27:-0.86659153 28:-0.78555857 29:0.24167481 30:-0.43999654 31:-0.3335648 32:-0.77338542 33:-0.76700232 34:-0.76700232 35:-0.8699187 36:-0.88617886 37:-0.78102998 38:-0.78108414 39:-0.82202163 40:-0.82188277 
1.0 0.0 1:0.06779659 2:0.06779659 3:-0.14285714 4:-0.14285714 5:1.0 6:1.0 7:1.0 8:1.0 9:-0.34776154 10:-0.22348095 11:0.02557498 12:0.02557498 13:-0.11111111 14:0.11111111 15:-0.2 16:-0.2 17:0.20000001 18:0.20000001 19:0.20000001 20:0.20000001 21:-1.0 22:-1.0 23:-0.33333333 24:-0.33333333 25:0.34868668 26:-0.75327958 27:-0.33622623 28:-0.66171328 29:-0.05155123 30:-0.88992518 31:0.142932 32:-0.76033644 33:-0.99847465 34:-0.99924527 35:-0.83739837 36:-0.62601626 37:-0.9988161 38:-0.99944987 39:-0.99700414 40:-0.99693169 
1.0 1.0 1:0.49152541 2:0.49152541 3:-0.14285714 4:-0.14285714 5:-0.73975805 6:-0.73975805 7:1.0 8:1.0 9:-0.43010484 10:-0.43010484 11:0.19896175 12:0.19896175 13:-0.33333333 14:-0.33333333 15:-0.42857144 16:-0.42857144 17:-0.14285715 18:-0.14285715 19:-0.14285715 20:-0.14285715 21:-1.0 22:-1.0 23:0.33333333 24:0.33333333 25:-0.43170707 26:-0.00603498 27:-0.93473869 28:-0.67771993 29:-0.31444451 30:-0.02065348 31:-0.83802939 32:-0.21258178 33:1.0 34:1.0 35:-0.91056911 36:-0.98373984 37:0.63526344 38:0.63529912 39:0.22483338 40:0.22427711 
1.0 0.0 1:-0.12994348 2:-0.0640301 3:-0.42857143 4:-0.42857143 5:-0.64967209 6:-0.69771964 7:1.0 8:1.0 9:-0.07119716 10:-0.69660489 11:0.0954804 12:0.13829887 13:-0.11111111 14:0.11111111 15:-0.55555556 16:-0.55555556 17:-0.33333333 18:-0.33333333 19:-0.33333333 20:-0.33333333 21:-1.0 22:-1.0 23:1.0 24:1.0 25:0.31525971 26:-0.14008308 27:-0.97431687 28:-0.97431687 29:0.13253091 30:0.03162335 31:-0.08051106 32:-0.64429027 33:1.0 34:1.0 35:-0.97560976 36:-0.91056911 37:0.49312431 38:0.49089656 39:-0.08325353 40:-0.0749057 
1.0 0.0 1:-0.22881354 2:-0.3276836 3:1.0 4:1.0 5:-0.40527449 6:-0.40527449 8:-1.0 9:-0.46051357 10:-0.34092847 11:0.21236959 12:0.18402087 13:-1.0 14:-1.0 15:-1.0 16:-1.0 17:-1.0 18:-1.0 19:-1.0 20:-1.0 21:-1.0 22:-1.0 23:-0.66666667 24:-1.0 25:-0.12929419 26:-0.10953625 27:-0.33132717 28:-0.54720103 29:-0.44135889 30:-0.08714299 31:-0.28917653 32:-0.31498767 33:-0.99992055 34:-0.99924527 35:-0.93495935 36:-0.92682927 37:-0.99962967 38:-0.99922628 39:-0.999185 40:-0.99886555 
1.0 0.0 1:-0.28813557 2:-0.28813557 3:1.0 4:1.0 5:0.12560697 6:0.12560697 7:1.0 9:-0.26047037 10:-0.26047037 11:-0.77662221 12:-0.77662221 13:-0.77777778 14:-0.77777778 15:-0.2 16:-0.2 17:0.20000001 18:0.20000001 19:0.20000001 20:0.20000001 21:-1.0 22:-1.0 23:-0.33333333 24:-0.33333333 25:-0.72106422 26:-0.72106422 27:-0.84352938 28:-0.82100582 29:-0.65612985 30:-0.6810864 31:-0.77468245 32:-0.76851619 33:-0.8775507 34:-0.8775507 35:-0.67479675 36:-0.67479675 37:-0.88529752 38:-0.88529752 39:-0.90541074 40:-0.90541074 
1.0 0.0 1:0.21610169 2:0.21610169 3:0.23809525 4:0.23809525 5:0.40568599 6:0.40568599 8:-1.0 9:-0.38640006 10:-0.27124379 11:-0.09990221 12:-0.09990221 13:-0.77777778 14:-0.77777778 17:0.50000002 18:0.50000002 19:0.50000002 20:0.50000002 21:-1.0 22:-1.0 23:-0.66666667 24:-0.66666667 25:-0.46847236 26:-0.46847236 27:-0.59132122 28:-0.7425905 29:-0.62438277 30:-0.44151787 31:-0.55764114 32:-0.58870078 33:-1.0 34:-1.0 35:-0.91056911 36:-0.91056911 37:-0.99990343 38:-0.99990343 39:-0.99971324 40:-0.99971324 
1.0 0.0 1:-0.22881354 2:-0.22881354 3:0.08571429 4:0.08571429 5:0.1228745 6:0.1228745 8:1.0 9:-0.04074192 10:-0.04074192 11:0.30300941 12:0.30300941 13:-0.33333333 14:-0.11111111 15:-0.33333332 16:-0.33333332 17:3.0E-8 18:3.0E-8 19:3.0E-8 20:3.0E-8 21:-1.0 22:-1.0 25:0.12753548 26:0.17363737 27:-0.94751557 28:-0.89277083 29:0.5682235 30:0.50778489 31:-0.25659288 32:-0.25965492 33:-0.98425391 34:-0.98425391 35:-0.72357724 36:-0.72357724 37:-0.98684938 38:-0.98666693 39:-0.9876166 40:-0.98781783 
1.0 0.0 1:0.06779659 2:0.06779659 3:0.23809525 4:0.23809525 5:-0.05395587 6:-0.05395587 9:-0.37196029 10:-0.41425133 11:0.19250772 12:0.19250772 13:-0.77777778 14:-0.77777778 17:0.50000002 18:0.50000002 19:0.50000002 20:0.50000002 21:-1.0 22:-1.0 23:-0.66666667 24:-0.66666667 25:0.08475028 26:-0.0493643 27:-0.34510154 28:-0.34510154 29:-0.2057985 30:-0.39243043 31:-0.16643164 32:-0.20464441 33:-0.99997617 34:-0.99997617 35:-0.95934959 36:-0.82113821 37:-0.99992695 38:-1.0 39:-1.0 40:-0.99987171 
1.0 1.0 1:-0.05084746 2:-0.05084746 3:0.42857143 4:0.42857143 5:-0.83388322 6:-0.83388322 7:1.0 8:1.0 9:-0.42804858 10:-0.30429087 11:-0.16080837 12:-0.16080837 13:-1.0 14:-0.77777778 15:-1.0 16:-0.2 17:-1.0 18:0.20000001 19:-1.0 20:0.20000001 21:-1.0 22:-1.0 23:-0.33333333 24:-0.33333333 25:0.29091012 26:0.27139307 27:0.24593992 28:0.22127479 29:-0.68783826 30:-0.65444726 31:0.3350879 32:0.31891344 33:-0.99903077 34:-0.88991241 35:-0.8699187 36:-0.86178862 37:-0.99928517 38:-0.8998666 39:-0.99849528 40:-0.87288941 
1.0 1.0 1:0.54237287 2:0.54237287 3:-0.14285714 4:-0.14285714 5:-0.41405746 6:-0.41405746 7:1.0 8:1.0 9:-0.87412971 10:-0.62710409 11:0.14841233 12:0.14841233 13:-0.77777778 14:-0.55555556 15:-0.2 16:-0.2 17:0.20000001 18:0.20000001 19:0.20000001 20:0.20000001 21:-1.0 22:-1.0 23:-0.33333333 24:-0.33333333 25:0.35394291 26:0.13217215 27:-0.54490907 28:-0.39571882 29:0.34912427 30:-0.08518013 31:-0.14248028 32:-0.12643263 33:-0.99753719 34:-0.82366283 35:-0.84552846 36:-0.74796748 37:-0.99787656 38:-0.83500033 39:-0.99665399 40:-0.86304909 
1.0 0.0 1:0.15254238 2:0.23728816 3:0.23809525 4:0.23809525 5:-0.61653199 6:-0.64807976 7:1.0 8:1.0 9:-0.87229108 10:-0.39726344 11:0.13851236 12:0.151859 13:1.0 14:0.11111111 15:-0.42857144 16:-0.42857144 17:-0.14285715 18:-0.14285715 19:-0.14285715 20:-0.14285715 21:-1.0 22:-1.0 23:0.33333333 24:0.33333333 25:-0.30013154 26:-0.06804455 27:-0.85456399 28:-0.91324039 29:-0.2749117 30:0.0668444 31:-0.4827731 32:-0.47733787 33:1.0 34:-0.82831834 35:-0.91869919 36:-0.98373984 37:0.64265765 38:-0.85911683 39:0.19062083 40:-0.89619051 
1.0 0.0 1:0.54237287 2:0.54237287 3:1.0 4:1.0 5:-1.0 6:-0.66371001 7:1.0 8:1.0 9:-0.52966435 10:-0.60783289 11:0.16686048 12:0.12625162 13:-1.0 14:-1.0 15:-1.0 16:-1.0 17:-1.0 18:-1.0 19:-1.0 20:-1.0 21:-1.0 22:-1.0 23:-0.33333333 24:-0.33333333 25:-0.08522538 26:0.05000682 27:-0.70787029 28:-0.77038524 29:-0.02911603 30:0.19498535 31:-0.49215944 32:-0.47972831 33:-0.97738982 34:-0.97738982 35:-0.97560976 36:-0.96747967 37:-0.97888865 38:-0.97903203 39:-0.98176674 40:-0.98176071 
1.0 1.0 1:0.1864407 2:0.1864407 3:0.42857143 4:0.42857143 5:-0.27780616 6:-0.59340738 7:1.0 8:1.0 9:-0.60241543 10:-0.35382982 11:-0.41924373 12:-0.39808539 13:-0.77777778 14:-0.77777778 15:-0.2 16:-0.2 17:0.20000001 18:0.20000001 19:0.20000001 20:0.20000001 21:-1.0 22:-1.0 23:-0.33333333 24:-0.33333333 25:-0.36490781 26:-0.36490781 27:-0.41671365 28:-0.56986283 29:-0.67311705 30:-0.5598849 31:-0.42026429 32:-0.40934021 33:-0.95479553 34:-0.95479553 35:-0.62601626 36:-0.6097561 37:-0.95885364 38:-0.95871528 39:-0.96183256 40:-0.96215856 
