svm_type c_svc
kernel_type rbf
gamma 0.025
nr_class 2
total_sv 70
rho 0.0
label 0 1
nr_sv 35 35
SV
1.0 1:0.19999998 2:0.19999998 3:-0.25 4:-0.25 5:-0.55496548 6:-0.52947424 7:1.0 8:-1.0 9:-0.38749234 10:0.40844697 11:0.8152629 12:0.85632036 13:-1.0 14:-1.0 15:-1.0 16:-1.0 17:-1.0 18:-1.0 19:-1.0 20:-1.0 21:-1.0 22:-1.0 23:-0.33333333 24:-1.0 25:1.0 26:0.79479769 27:0.40268213 28:1.0 29:-0.08815854 30:-1.0 31:0.90167952 32:1.0 33:-0.99963441 34:-0.99963441 35:-0.77099237 36:-0.38931298 37:-0.99896868 38:-0.99856612 39:-0.99681262 40:-0.99448675 
1.0 1:0.19999998 2:0.19999998 3:-0.25 4:-0.25 5:1.0 6:1.0 7:1.0 9:-0.11327871 10:-0.25519699 11:0.6289662 12:0.6289662 15:0.80000002 16:0.80000002 17:1.0 18:1.0 19:1.0 20:1.0 21:-1.0 22:-1.0 23:-0.33333333 24:-0.33333333 25:-0.185947 26:0.04315292 27:-0.3954361 28:-0.3954361 29:-0.52929214 30:-0.31917987 31:-0.27240694 32:-0.27998296 33:-0.99997616 34:-0.99997616 35:-0.61832061 36:-0.61832061 37:-0.99991069 38:-0.99990675 39:-0.99898997 40:-0.99901871 
1.0 1:1.0 2:1.0 3:0.375 4:0.375 5:-0.53903346 6:-0.53903346 7:1.0 9:-0.45016852 10:-0.45016852 11:0.75686088 12:0.75686088 13:-1.0 14:-1.0 15:-1.0 16:-1.0 17:-1.0 18:-1.0 19:-1.0 20:-1.0 21:-1.0 22:-1.0 23:-0.33333333 24:-0.33333333 25:0.17207759 26:0.17207759 27:-0.47440597 28:-0.47440597 29:-0.06617503 30:-0.10242446 31:-0.08267837 32:-0.10070812 33:-0.99542216 34:-0.99542216 35:-0.60305344 36:-0.60305344 37:-0.99560107 38:-0.99560107 39:-0.99408194 40:-0.99408194 
1.0 1:0.08888895 2:-0.0 3:-0.875 4:-0.875 5:0.8513011 6:0.73234201 7:1.0 8:-1.0 9:-0.25519699 10:1.0 11:0.44796999 12:0.30317297 13:0.75 16:0.80000002 17:0.1111111 18:1.0 19:0.1111111 20:1.0 21:-1.0 22:-1.0 23:1.0 24:-0.33333333 25:0.36153442 26:0.06110439 27:-0.35746684 28:-0.02812945 29:-0.16289686 30:-0.70500334 31:0.08370649 32:0.10876328 33:-0.99988079 34:-0.99989668 35:-0.78625954 36:-0.2519084 37:-0.99966609 38:-0.99991433 39:-0.99908179 40:-0.99833605 
1.0 1:0.19999998 2:0.19999998 3:1.0 4:1.0 5:-0.25799257 6:-0.25799257 7:1.0 8:1.0 9:-0.66556143 10:-0.24708432 11:0.87071151 12:0.82936004 13:-0.25 14:-0.25 15:0.80000002 16:0.80000002 17:1.0 18:1.0 19:1.0 20:1.0 21:-1.0 22:-1.0 23:-0.33333333 24:-0.33333333 25:-0.36391567 26:-0.58545003 27:-0.97556451 28:-0.80269023 29:-0.24400437 30:-0.55101825 31:-0.71985877 32:-0.7224868 33:-0.99483403 34:1.0 35:-0.75572519 36:-0.75572519 37:-0.99503248 38:0.99974705 39:-0.99432627 40:0.80932709 
1.0 1:-0.6888889 2:-0.6888889 3:-0.875 4:-0.875 5:-0.44981414 6:-0.42467693 7:1.0 8:1.0 9:-0.78913674 10:-0.78913674 11:-0.35476144 12:-0.35476144 13:-0.75 14:-0.75 17:0.1111111 18:0.1111111 19:0.1111111 20:0.1111111 21:-1.0 22:-1.0 23:1.0 24:1.0 25:0.41654452 26:0.50233966 27:0.18198679 28:0.08263738 29:-0.63554386 30:-0.42469706 31:0.29165378 32:0.26609886 33:-0.97203225 34:-0.99889528 35:-0.86259542 36:-0.86259542 37:-0.9775824 38:-0.99905462 39:-0.98649434 40:-1.0 
1.0 1:1.0 2:1.0 3:-0.25 4:-0.25 5:-0.73977696 6:0.06319702 7:1.0 8:1.0 9:-0.57418335 10:-0.57418335 11:0.79046755 12:0.72325415 13:-0.25 15:0.80000002 16:0.80000002 17:1.0 18:1.0 19:1.0 20:1.0 21:-1.0 22:-1.0 23:-0.33333333 24:-0.33333333 25:0.23760687 26:0.04534751 27:-0.72270208 28:-0.44374021 29:0.43376221 30:-0.128534 31:-0.24518989 32:-0.19451463 33:-0.94245113 34:-0.94245113 35:-0.77099237 36:-0.11450382 37:-0.94344542 38:-0.94399659 39:-0.94378724 40:-0.94231411 
1.0 1:-0.39999996 2:-0.39999996 3:1.0 4:1.0 5:-0.96813596 6:-0.73659054 7:1.0 8:1.0 9:-0.44728773 10:-0.5876376 11:-0.00745794 12:0.05731833 14:-0.5 15:0.80000002 16:0.80000002 17:1.0 18:1.0 19:1.0 20:1.0 21:-1.0 22:-1.0 23:-0.33333333 24:-0.33333333 25:-0.41512247 26:-0.58889795 27:-0.91533383 28:-0.87774438 29:-0.3559178 30:-0.57969045 31:-0.73738979 32:-0.76127581 33:1.0 34:1.0 35:-0.95419847 36:-0.70992366 37:0.99968189 38:0.99969946 39:0.80940613 40:0.80935583 
1.0 1:-0.17499996 2:-0.17499996 3:-0.42857143 4:-0.42857143 5:-0.26033685 6:0.19201881 7:1.0 8:1.0 9:-0.02971045 10:0.00421027 11:0.82114386 12:0.88085662 14:-0.25 15:0.12500001 16:0.12500001 17:0.25 18:0.25 19:0.25 20:0.25 21:-1.0 22:-1.0 23:0.66666667 24:0.66666667 25:0.71462048 26:0.83291088 27:-0.71035672 28:-0.90672805 29:0.45676935 30:1.0 31:0.15177595 32:0.09693468 33:-0.98039317 34:-0.98039317 35:-0.92366412 36:-0.92366412 37:-0.98163332 38:-0.98145646 39:-0.97862669 40:-0.97922402 
1.0 1:-0.04999995 2:-0.04999995 3:0.28571427 4:0.28571427 5:-0.76932707 6:0.02598437 7:1.0 8:1.0 9:-0.32346994 10:-0.41149658 11:0.19918379 12:0.17533645 13:0.25 15:0.12500001 16:0.12500001 17:0.25 18:0.25 19:0.25 20:0.25 21:-1.0 22:-1.0 23:0.66666667 24:0.66666667 25:-0.26178702 26:-0.24791854 27:-0.85180119 28:-0.86396416 29:-0.15460902 30:-0.32065131 31:-0.59810459 32:-0.59244428 33:1.0 34:1.0 35:-0.74045802 36:-0.81679389 37:0.66828158 38:0.67992962 39:0.19120218 40:0.1356141 
1.0 1:0.19999998 2:0.19999998 3:-0.875 4:1.0 5:-0.65639938 6:-0.65639938 7:1.0 8:1.0 9:-0.00475097 10:-0.59289643 11:0.38604254 12:0.38604254 13:-0.25 14:-0.25 15:0.80000002 16:0.80000002 17:1.0 18:1.0 19:1.0 20:1.0 21:-1.0 22:-1.0 23:-0.33333333 24:-0.33333333 25:-0.69343394 26:-0.76510006 27:-0.98217576 28:-0.91826643 29:-0.55181672 30:-0.66714734 31:-0.87396925 32:-0.86808626 33:1.0 34:1.0 35:-0.05343511 36:-0.96946565 37:0.94330352 38:0.95192365 39:1.0 40:0.96592406 
1.0 1:0.36666666 2:0.36666666 3:-1.0 4:0.5 5:-0.58666216 6:-0.58666216 7:1.0 8:1.0 9:-0.00475097 10:-0.87878625 11:1.0 12:1.0 13:-0.75 14:-0.75 15:0.50000005 16:0.50000005 17:0.6666667 18:0.6666667 19:0.6666667 20:0.6666667 21:-1.0 22:-1.0 25:-0.52069011 26:-0.41884507 27:-0.70105791 28:-0.77784804 29:-0.70765239 30:-0.55222649 31:-0.64606156 32:-0.64322695 33:-0.87976014 34:-0.87976014 35:-0.95419847 36:-0.78625954 37:-0.88769233 38:-0.88771225 39:-0.90692553 40:-0.90691356 
1.0 1:0.62857144 2:0.62857144 3:-0.66666668 4:0.58333332 5:-0.6147538 6:-0.6147538 7:1.0 8:1.0 9:-0.78825545 10:-0.54837891 11:0.82957055 12:0.82957055 13:0.5 14:0.5 15:0.28571427 16:0.28571427 17:0.4285714 18:0.4285714 19:0.4285714 20:0.4285714 21:-1.0 22:-1.0 23:0.33333333 24:0.33333333 25:-0.30542621 26:0.19537572 27:-0.39916385 28:-0.95374058 29:-0.7376755 30:0.07945321 31:-0.37002049 32:-0.41007882 33:1.0 34:1.0 35:-0.9389313 36:-0.90839695 37:0.74666568 38:0.74209673 39:0.41420573 40:0.43093368 
1.0 1:-0.6888889 2:-0.6888889 3:-0.875 4:-0.5625 5:-0.42467693 6:-0.42467693 7:1.0 8:1.0 9:-0.78913674 10:-0.49209094 11:-0.35476144 12:-0.35476144 13:-0.75 14:-0.75 17:0.1111111 18:0.1111111 19:0.1111111 20:0.1111111 21:-1.0 22:-1.0 23:1.0 24:1.0 25:0.50233966 26:0.50233966 27:0.08263738 28:-0.74485227 29:-0.48822251 30:0.11672296 31:0.17862144 32:0.13702227 33:-0.99889528 34:-0.99889528 35:-0.83206107 36:-0.86259542 37:-0.99906205 38:-0.99905462 39:-0.99997605 40:-1.0 
1.0 1:-0.67500001 2:-0.67500001 3:-0.78571428 4:0.28571427 5:-0.37356801 6:-0.37356801 7:1.0 8:1.0 9:-1.0 10:-0.63731372 11:-0.40210735 12:-0.40210735 13:-0.5 14:-0.5 15:0.12500001 16:0.12500001 17:0.25 18:0.25 19:0.25 20:0.25 21:-1.0 22:-1.0 23:0.66666667 24:0.66666667 25:0.13099589 26:0.04482495 27:-0.77558661 28:-0.70135741 29:0.0525433 30:-0.29836534 31:-0.35177771 32:-0.33121864 33:-0.76769046 34:-0.76769046 35:-0.83206107 36:-0.95419847 37:-0.80478371 38:-0.80473914 39:-0.86844309 40:-0.86882035 
1.0 1:-0.59999995 2:-0.0 3:0.375 4:0.375 5:-0.09739777 6:-0.13276688 7:1.0 8:1.0 9:0.13942478 10:-0.06918007 11:0.66027759 12:0.64746077 13:-0.5 14:-0.5 15:0.80000002 16:0.80000002 17:1.0 18:1.0 19:1.0 20:1.0 21:-1.0 22:-1.0 23:-0.33333333 24:-0.33333333 25:0.57944769 26:0.57944769 27:-0.47576139 28:-0.93406873 29:0.45391171 30:0.66142166 31:-0.02849338 32:-0.06797237 33:-0.93659372 34:-0.93659372 35:-0.86259542 36:-0.86259542 37:-0.9369496 38:-0.93777271 39:-0.94148054 40:-0.93869237 
1.0 1:0.19999998 2:-0.39999996 3:0.375 4:0.375 5:-0.83961764 6:-0.85512481 7:1.0 8:1.0 9:-0.66825031 10:-0.7765875 11:0.7133066 12:0.7507075 13:-0.25 15:0.80000002 16:0.80000002 17:1.0 18:1.0 19:1.0 20:1.0 21:-1.0 22:-1.0 23:-0.33333333 24:-0.33333333 25:-0.57956653 26:-0.57956653 27:-0.93096225 28:-0.79149079 29:-0.47046811 30:-0.6482997 31:-0.69848016 32:-0.68560204 33:-0.91835388 34:-0.91835388 35:-0.32824427 36:-0.3129771 37:-0.92258313 38:-0.92258659 39:-0.90320798 40:-0.9032008 
1.0 1:0.08888895 2:-0.6888889 3:-0.25 4:-0.25 5:-0.67226703 6:-0.66241812 7:1.0 8:1.0 9:-0.62546568 10:-0.6744686 11:-0.09007032 12:-0.12354891 13:0.5 14:-0.25 15:1.0 17:0.1111111 18:0.1111111 19:0.2962963 20:0.1111111 21:0.72132617 22:-1.0 23:1.0 24:1.0 25:-0.22831026 26:-0.06136525 27:-0.63468482 28:-0.52611142 29:-0.58637072 30:-0.47487085 31:-0.41367051 32:-0.41506757 33:1.0 34:1.0 35:-0.9389313 36:-1.0 37:0.60005668 38:0.60065297 39:0.00757083 40:0.00512361 
1.0 1:-0.37142856 2:0.05714289 3:-0.25 4:-0.25 5:0.14604354 6:0.17381078 7:1.0 8:1.0 9:-0.18436851 10:0.02904553 11:0.69528016 12:0.6861253 13:-0.25 14:-0.25 15:0.28571427 16:0.28571427 17:0.4285714 18:0.4285714 19:0.4285714 20:0.4285714 21:-1.0 22:-1.0 23:0.33333333 24:0.33333333 25:0.68426465 26:0.68426465 27:-0.47576139 28:-0.59634337 29:0.45940213 30:0.34707464 31:0.15923239 32:0.19067238 33:-0.93659372 34:-0.93659372 35:-0.92366412 36:-0.92366412 37:-0.94391442 38:-0.94430327 39:-0.95862527 40:-0.95663886 
1.0 1:0.3111111 2:-0.46666665 3:0.375 4:0.375 5:-0.90374804 6:-0.87286837 7:1.0 8:1.0 9:-0.73951923 10:-0.53583988 11:0.52767889 12:0.49789268 14:-0.25 15:1.0 17:0.1111111 18:0.1111111 19:0.3888889 20:0.1111111 21:1.0 22:-1.0 23:1.0 24:1.0 25:-0.24388452 26:0.19960489 27:-1.0 28:-0.95572929 29:-0.08697124 30:0.04078851 31:-0.5463408 32:-0.52828211 33:1.0 34:1.0 35:-0.98473282 36:-0.86259542 37:0.59126582 38:0.60052218 39:0.05202413 40:0.00546295 
1.0 1:-1.0 2:-1.0 3:-0.25 4:-0.25 5:-0.41858736 6:-0.41858736 7:1.0 8:1.0 9:-0.75162566 10:-0.75162566 11:-0.05951447 12:-0.37748968 13:-0.75 14:-0.75 15:0.80000002 16:0.80000002 17:1.0 18:1.0 19:1.0 20:1.0 21:-1.0 22:-1.0 23:-0.33333333 24:-0.33333333 25:0.10441678 26:0.01597747 27:-0.38247006 28:-0.38247006 29:-0.3551509 30:-0.44993611 31:-0.13077675 32:-0.17969569 33:-0.95895043 34:-0.95895043 35:-0.90839695 36:-0.8778626 37:-0.96096593 38:-0.96097295 39:-0.95034086 40:-0.95032648 
1.0 1:-1.0 2:-1.0 3:-0.25 4:-0.25 5:-0.49442379 6:-0.49442379 7:1.0 8:1.0 9:-1.0 10:-1.0 11:-0.44167334 12:-0.60610022 13:-0.5 14:-0.5 15:0.80000002 16:0.80000002 17:1.0 18:1.0 19:1.0 20:1.0 21:-1.0 22:-1.0 23:-0.33333333 24:-0.33333333 25:0.32567607 26:0.23643256 27:-0.4628812 28:-0.25733034 29:0.15580434 30:-0.13825527 31:-0.00369832 32:0.01559608 33:-0.49917941 34:-0.49917941 35:-0.61832061 36:-0.64885496 37:-0.50819865 38:-0.50387156 39:-0.51847038 40:-0.53279204 
1.0 1:0.80000002 2:0.80000002 3:0.375 4:0.375 5:-0.90523826 6:-0.96863806 7:1.0 8:1.0 9:-0.32535312 10:-0.16922701 11:0.79277044 12:0.32905776 13:-0.75 14:-0.5 15:0.80000002 16:0.80000002 17:1.0 18:1.0 19:1.0 20:1.0 21:-1.0 22:-1.0 23:-0.33333333 24:-0.33333333 25:-0.80755293 26:-0.6766356 27:-0.72018333 28:-0.82240387 29:-0.94419902 30:-0.71093855 31:-0.81324955 32:-0.813604 33:-0.82903035 34:-0.82903035 35:-0.89312977 36:-0.75572519 37:-0.82966343 38:-0.8300962 39:-0.8405462 40:-0.84041685 
1.0 1:-0.0 2:-0.0 3:0.375 4:0.375 5:-1.0 6:-0.9944769 7:1.0 8:1.0 9:-0.36889806 10:-0.18755594 11:0.74826801 12:0.3256982 13:-0.5 14:-0.75 15:0.80000002 16:0.80000002 17:1.0 18:1.0 19:1.0 20:1.0 21:-1.0 22:-1.0 23:-0.33333333 24:-0.33333333 25:0.16387454 26:0.45259101 27:-0.38422837 28:-0.84150956 29:-0.111084 30:0.59733881 31:-0.09448307 32:-0.12924332 33:1.0 34:1.0 35:-0.84732824 36:-0.84732824 37:0.99863373 38:1.0 39:0.81189967 40:0.80799768 
1.0 1:-0.24444441 2:-0.35555553 3:0.6875 4:0.6875 5:-0.16581105 6:-0.04723551 7:1.0 8:1.0 9:-0.30459001 10:-0.43092024 11:-0.14632065 12:-0.39033984 17:0.1111111 18:0.1111111 19:0.1111111 20:0.1111111 21:-1.0 22:-1.0 23:1.0 24:1.0 25:-0.11192853 26:0.0026787 27:-0.95732924 28:-0.98133913 29:-0.00267344 30:0.06552131 31:-0.57019979 32:-0.58731379 33:1.0 34:1.0 35:-0.92366412 36:-0.92366412 37:0.60073815 38:0.59552777 39:0.0043052 40:0.03000308 
1.0 1:-0.22857138 2:-0.22857138 3:1.0 4:1.0 5:-0.64175249 6:-0.72966139 7:1.0 8:1.0 9:-0.49391371 10:-0.5803269 11:-0.03079916 12:-0.08930011 14:0.5 15:0.28571427 16:0.28571427 17:0.4285714 18:0.4285714 19:0.4285714 20:0.4285714 21:-1.0 22:-1.0 23:0.33333333 24:0.33333333 25:-0.03335664 26:-0.03335664 27:-0.86274201 28:-0.96109916 29:-0.01184767 30:0.28564832 31:-0.50885377 32:-0.52656546 33:1.0 34:1.0 35:-0.84732824 36:-0.84732824 37:0.77222695 38:0.77287952 39:0.29605275 40:0.29946096 
1.0 1:0.36666666 2:0.36666666 3:0.5 4:0.5 5:-0.2929722 6:-0.35613384 7:1.0 8:1.0 9:-0.55663937 10:-0.87878625 11:0.77251807 12:0.80366316 13:0.25 14:0.5 15:0.50000005 16:0.50000005 17:0.6666667 18:0.6666667 19:0.6666667 20:0.6666667 21:-1.0 22:-1.0 25:0.08185456 26:-0.12979506 27:-0.73709496 28:-0.83097034 29:-0.05553318 30:-0.22262007 31:-0.49709339 32:-0.47989582 33:1.0 34:1.0 35:-0.77099237 36:-0.64885496 37:0.87927593 38:0.87933903 39:0.50816847 40:0.50795888 
1.0 1:0.19999998 2:0.08888895 3:0.0625 4:0.0625 5:-0.91458129 6:-0.93316866 7:1.0 8:1.0 9:-0.31623938 10:-0.72366634 11:0.55516493 12:0.50599335 14:0.25 15:1.0 17:0.1111111 18:0.1111111 19:0.3888889 20:0.1111111 21:1.0 22:-1.0 23:1.0 24:1.0 25:-0.24388452 26:-0.45317919 27:-1.0 28:-0.46776708 29:-0.07897541 30:-0.86470696 31:-0.52326105 32:-0.48712846 33:1.0 34:1.0 35:-0.98473282 36:-0.8778626 37:0.59128754 38:0.58533532 39:0.05193231 40:0.09862923 
1.0 1:-0.02222217 2:-0.02222217 3:0.375 4:0.375 5:-0.82716705 6:-0.8017439 7:1.0 8:1.0 9:-0.34952647 10:-0.72345634 11:0.71175277 12:0.67703781 17:0.1111111 18:0.1111111 19:0.1111111 20:0.1111111 21:-1.0 22:-1.0 23:1.0 24:1.0 25:0.39471511 26:0.3104872 27:-0.94942917 28:-0.94942917 29:0.30202031 30:0.17881202 31:-0.56801569 32:-0.53551256 33:1.0 34:1.0 35:-0.77099237 36:-0.54198473 37:0.59799836 38:0.59495689 39:0.01729986 40:0.03154408 
1.0 1:-0.24444441 2:-0.24444441 3:-0.875 4:-0.875 5:0.42998761 6:0.42998761 7:1.0 8:1.0 9:-0.25519699 10:-0.25519699 11:0.20705331 12:0.20705331 13:0.25 17:0.1111111 18:0.1111111 19:0.1111111 20:0.1111111 21:-1.0 22:-1.0 23:1.0 24:1.0 25:0.08294125 26:0.01137013 27:-0.38387925 28:-0.26328397 29:-0.26485328 30:-0.59645611 31:-0.15693749 32:-0.10126644 33:-0.99995231 34:-0.99937214 35:-0.90839695 36:-0.83206107 37:-0.99974003 38:-0.99932133 39:-0.99904586 40:-0.99901792 
1.0 1:0.40000005 2:0.40000005 3:1.0 4:1.0 5:-0.86031962 6:-0.86031962 7:1.0 8:1.0 9:-0.14940611 10:-0.20619423 11:0.22725119 12:0.22725119 15:0.80000002 16:0.80000002 17:1.0 18:1.0 19:1.0 20:1.0 21:-1.0 22:-1.0 23:-0.33333333 24:-0.33333333 25:-0.91292594 26:-0.01637389 27:-0.99409879 28:-0.89382793 29:-0.78405323 30:0.15278544 31:-0.99374482 32:-0.57328371 33:-0.7889186 34:-0.7889186 35:-0.72519084 36:1.0 37:-0.7926462 38:-0.7928957 39:-0.79716441 40:-0.79723627 
1.0 1:-0.37142856 2:-0.37142856 3:0.58333332 4:0.58333332 5:-0.32159927 6:-0.32159927 7:1.0 8:1.0 9:0.08373393 10:-0.69191259 11:-0.22287128 12:-0.22287128 13:-0.5 14:-0.5 15:0.28571427 16:0.28571427 17:0.4285714 18:0.4285714 19:0.4285714 20:0.4285714 21:-1.0 22:-1.0 23:0.33333333 24:0.33333333 25:-0.4825048 26:-0.17148362 27:-0.87832845 28:-0.87832845 29:-0.37677443 30:-0.19326634 31:-0.7716742 32:-0.51685469 33:1.0 34:1.0 35:-0.90839695 36:-0.90839695 37:0.77352537 38:0.77349651 39:0.29125354 40:0.29121761 
1.0 1:0.19999998 2:0.19999998 3:0.375 4:0.375 5:-0.29695522 6:-0.24727091 7:1.0 8:1.0 9:-0.33058456 10:-0.40851034 11:0.58474248 12:0.63054415 13:0.5 14:0.5 17:0.1111111 18:0.1111111 19:0.1111111 20:0.1111111 21:-1.0 22:-1.0 23:1.0 24:1.0 25:-0.47002477 26:0.14905038 27:-0.95182983 28:-0.90109227 29:-0.43279926 30:0.23183442 31:-0.78301658 32:-0.40253115 33:1.0 34:1.0 35:-0.95419847 36:-0.95419847 37:0.59697426 38:0.59644726 39:0.02208652 40:0.02518847 
1.0 1:0.3111111 2:0.42222222 3:-0.25 4:-0.25 5:-0.9465316 6:-0.95697858 7:1.0 8:1.0 9:-0.55034116 10:-0.27202265 11:0.98891068 12:0.99741148 13:0.75 14:1.0 17:0.1111111 18:0.1111111 19:0.1111111 20:0.1111111 21:-1.0 22:-1.0 23:1.0 24:1.0 25:0.08279437 26:0.42220067 27:-0.97135923 28:-0.38450731 29:-0.10831086 30:0.08393627 31:-0.50911085 32:0.09673451 33:1.0 34:1.0 35:-0.90839695 36:-0.90839695 37:0.57164572 38:0.5693628 39:0.18724839 40:0.18722843 
1.0 1:-0.80000002 2:-0.80000002 3:0.375 4:0.375 5:1.0 6:1.0 9:0.08317005 10:0.18723922 11:-1.0 12:-1.0 13:-1.0 14:-1.0 15:-1.0 16:-1.0 17:-1.0 18:-1.0 19:-1.0 20:-1.0 21:-1.0 22:-1.0 23:-0.33333333 24:-0.33333333 25:-0.29314615 26:-1.0 27:-0.50035727 28:-0.89050535 29:-0.61323847 30:-0.97720276 31:-0.41263016 32:-1.0 33:-1.0 34:-1.0 35:-0.78625954 36:-0.40458015 37:-0.99985718 38:-1.0 39:-0.99965108 40:-0.99965108 
-1.0 1:0.19999998 2:0.19999998 3:-0.25 4:-0.25 5:-0.52947424 6:-0.55496548 7:-1.0 8:1.0 9:0.40844697 10:-0.38749234 11:0.85632036 12:0.8152629 13:-1.0 14:-1.0 15:-1.0 16:-1.0 17:-1.0 18:-1.0 19:-1.0 20:-1.0 21:-1.0 22:-1.0 23:-1.0 24:-0.33333333 25:0.79479769 26:1.0 27:1.0 28:0.40268213 29:-1.0 30:-0.08815854 31:1.0 32:0.90167952 33:-0.99963441 34:-0.99963441 35:-0.38931298 36:-0.77099237 37:-0.99856612 38:-0.99896868 39:-0.99448675 40:-0.99681262 
-1.0 1:0.19999998 2:0.19999998 3:-0.25 4:-0.25 5:1.0 6:1.0 8:1.0 9:-0.25519699 10:-0.11327871 11:0.6289662 12:0.6289662 15:0.80000002 16:0.80000002 17:1.0 18:1.0 19:1.0 20:1.0 21:-1.0 22:-1.0 23:-0.33333333 24:-0.33333333 25:0.04315292 26:-0.185947 27:-0.3954361 28:-0.3954361 29:-0.31917987 30:-0.52929214 31:-0.27998296 32:-0.27240694 33:-0.99997616 34:-0.99997616 35:-0.61832061 36:-0.61832061 37:-0.99990675 38:-0.99991069 39:-0.99901871 40:-0.99898997 
-1.0 1:1.0 2:1.0 3:0.375 4:0.375 5:-0.53903346 6:-0.53903346 8:1.0 9:-0.45016852 10:-0.45016852 11:0.75686088 12:0.75686088 13:-1.0 14:-1.0 15:-1.0 16:-1.0 17:-1.0 18:-1.0 19:-1.0 20:-1.0 21:-1.0 22:-1.0 23:-0.33333333 24:-0.33333333 25:0.17207759 26:0.17207759 27:-0.47440597 28:-0.47440597 29:-0.10242446 30:-0.06617503 31:-0.10070812 32:-0.08267837 33:-0.99542216 34:-0.99542216 35:-0.60305344 36:-0.60305344 37:-0.99560107 38:-0.99560107 39:-0.99408194 40:-0.99408194 
-1.0 1:-0.0 2:0.08888895 3:-0.875 4:-0.875 5:0.73234201 6:0.8513011 7:-1.0 8:1.0 9:1.0 10:-0.25519699 11:0.30317297 12:0.44796999 14:0.75 15:0.80000002 17:1.0 18:0.1111111 19:1.0 20:0.1111111 21:-1.0 22:-1.0 23:-0.33333333 24:1.0 25:0.06110439 26:0.36153442 27:-0.02812945 28:-0.35746684 29:-0.70500334 30:-0.16289686 31:0.10876328 32:0.08370649 33:-0.99989668 34:-0.99988079 35:-0.2519084 36:-0.78625954 37:-0.99991433 38:-0.99966609 39:-0.99833605 40:-0.99908179 
-1.0 1:0.19999998 2:0.19999998 3:1.0 4:1.0 5:-0.25799257 6:-0.25799257 7:1.0 8:1.0 9:-0.24708432 10:-0.66556143 11:0.82936004 12:0.87071151 13:-0.25 14:-0.25 15:0.80000002 16:0.80000002 17:1.0 18:1.0 19:1.0 20:1.0 21:-1.0 22:-1.0 23:-0.33333333 24:-0.33333333 25:-0.58545003 26:-0.36391567 27:-0.80269023 28:-0.97556451 29:-0.55101825 30:-0.24400437 31:-0.7224868 32:-0.71985877 33:1.0 34:-0.99483403 35:-0.75572519 36:-0.75572519 37:0.99974705 38:-0.99503248 39:0.80932709 40:-0.99432627 
-1.0 1:-0.6888889 2:-0.6888889 3:-0.875 4:-0.875 5:-0.42467693 6:-0.44981414 7:1.0 8:1.0 9:-0.78913674 10:-0.78913674 11:-0.35476144 12:-0.35476144 13:-0.75 14:-0.75 17:0.1111111 18:0.1111111 19:0.1111111 20:0.1111111 21:-1.0 22:-1.0 23:1.0 24:1.0 25:0.50233966 26:0.41654452 27:0.08263738 28:0.18198679 29:-0.42469706 30:-0.63554386 31:0.26609886 32:0.29165378 33:-0.99889528 34:-0.97203225 35:-0.86259542 36:-0.86259542 37:-0.99905462 38:-0.9775824 39:-1.0 40:-0.98649434 
-1.0 1:1.0 2:1.0 3:-0.25 4:-0.25 5:0.06319702 6:-0.73977696 7:1.0 8:1.0 9:-0.57418335 10:-0.57418335 11:0.72325415 12:0.79046755 14:-0.25 15:0.80000002 16:0.80000002 17:1.0 18:1.0 19:1.0 20:1.0 21:-1.0 22:-1.0 23:-0.33333333 24:-0.33333333 25:0.04534751 26:0.23760687 27:-0.44374021 28:-0.72270208 29:-0.128534 30:0.43376221 31:-0.19451463 32:-0.24518989 33:-0.94245113 34:-0.94245113 35:-0.11450382 36:-0.77099237 37:-0.94399659 38:-0.94344542 39:-0.94231411 40:-0.94378724 
-1.0 1:-0.39999996 2:-0.39999996 3:1.0 4:1.0 5:-0.73659054 6:-0.96813596 7:1.0 8:1.0 9:-0.5876376 10:-0.44728773 11:0.05731833 12:-0.00745794 13:-0.5 15:0.80000002 16:0.80000002 17:1.0 18:1.0 19:1.0 20:1.0 21:-1.0 22:-1.0 23:-0.33333333 24:-0.33333333 25:-0.58889795 26:-0.41512247 27:-0.87774438 28:-0.91533383 29:-0.57969045 30:-0.3559178 31:-0.76127581 32:-0.73738979 33:1.0 34:1.0 35:-0.70992366 36:-0.95419847 37:0.99969946 38:0.99968189 39:0.80935583 40:0.80940613 
-1.0 1:-0.17499996 2:-0.17499996 3:-0.42857143 4:-0.42857143 5:0.19201881 6:-0.26033685 7:1.0 8:1.0 9:0.00421027 10:-0.02971045 11:0.88085662 12:0.82114386 13:-0.25 15:0.12500001 16:0.12500001 17:0.25 18:0.25 19:0.25 20:0.25 21:-1.0 22:-1.0 23:0.66666667 24:0.66666667 25:0.83291088 26:0.71462048 27:-0.90672805 28:-0.71035672 29:1.0 30:0.45676935 31:0.09693468 32:0.15177595 33:-0.98039317 34:-0.98039317 35:-0.92366412 36:-0.92366412 37:-0.98145646 38:-0.98163332 39:-0.97922402 40:-0.97862669 
-1.0 1:-0.04999995 2:-0.04999995 3:0.28571427 4:0.28571427 5:0.02598437 6:-0.76932707 7:1.0 8:1.0 9:-0.41149658 10:-0.32346994 11:0.17533645 12:0.19918379 14:0.25 15:0.12500001 16:0.12500001 17:0.25 18:0.25 19:0.25 20:0.25 21:-1.0 22:-1.0 23:0.66666667 24:0.66666667 25:-0.24791854 26:-0.26178702 27:-0.86396416 28:-0.85180119 29:-0.32065131 30:-0.15460902 31:-0.59244428 32:-0.59810459 33:1.0 34:1.0 35:-0.81679389 36:-0.74045802 37:0.67992962 38:0.66828158 39:0.1356141 40:0.19120218 
-1.0 1:0.19999998 2:0.19999998 3:1.0 4:-0.875 5:-0.65639938 6:-0.65639938 7:1.0 8:1.0 9:-0.59289643 10:-0.00475097 11:0.38604254 12:0.38604254 13:-0.25 14:-0.25 15:0.80000002 16:0.80000002 17:1.0 18:1.0 19:1.0 20:1.0 21:-1.0 22:-1.0 23:-0.33333333 24:-0.33333333 25:-0.76510006 26:-0.69343394 27:-0.91826643 28:-0.98217576 29:-0.66714734 30:-0.55181672 31:-0.86808626 32:-0.87396925 33:1.0 34:1.0 35:-0.96946565 36:-0.05343511 37:0.95192365 38:0.94330352 39:0.96592406 40:1.0 
-1.0 1:0.36666666 2:0.36666666 3:0.5 4:-1.0 5:-0.58666216 6:-0.58666216 7:1.0 8:1.0 9:-0.87878625 10:-0.00475097 11:1.0 12:1.0 13:-0.75 14:-0.75 15:0.50000005 16:0.50000005 17:0.6666667 18:0.6666667 19:0.6666667 20:0.6666667 21:-1.0 22:-1.0 25:-0.41884507 26:-0.52069011 27:-0.77784804 28:-0.70105791 29:-0.55222649 30:-0.70765239 31:-0.64322695 32:-0.64606156 33:-0.87976014 34:-0.87976014 35:-0.78625954 36:-0.95419847 37:-0.88771225 38:-0.88769233 39:-0.90691356 40:-0.90692553 
-1.0 1:0.62857144 2:0.62857144 3:0.58333332 4:-0.66666668 5:-0.6147538 6:-0.6147538 7:1.0 8:1.0 9:-0.54837891 10:-0.78825545 11:0.82957055 12:0.82957055 13:0.5 14:0.5 15:0.28571427 16:0.28571427 17:0.4285714 18:0.4285714 19:0.4285714 20:0.4285714 21:-1.0 22:-1.0 23:0.33333333 24:0.33333333 25:0.19537572 26:-0.30542621 27:-0.95374058 28:-0.39916385 29:0.07945321 30:-0.7376755 31:-0.41007882 32:-0.37002049 33:1.0 34:1.0 35:-0.90839695 36:-0.9389313 37:0.74209673 38:0.74666568 39:0.43093368 40:0.41420573 
-1.0 1:-0.6888889 2:-0.6888889 3:-0.5625 4:-0.875 5:-0.42467693 6:-0.42467693 7:1.0 8:1.0 9:-0.49209094 10:-0.78913674 11:-0.35476144 12:-0.35476144 13:-0.75 14:-0.75 17:0.1111111 18:0.1111111 19:0.1111111 20:0.1111111 21:-1.0 22:-1.0 23:1.0 24:1.0 25:0.50233966 26:0.50233966 27:-0.74485227 28:0.08263738 29:0.11672296 30:-0.48822251 31:0.13702227 32:0.17862144 33:-0.99889528 34:-0.99889528 35:-0.86259542 36:-0.83206107 37:-0.99905462 38:-0.99906205 39:-1.0 40:-0.99997605 
-1.0 1:-0.67500001 2:-0.67500001 3:0.28571427 4:-0.78571428 5:-0.37356801 6:-0.37356801 7:1.0 8:1.0 9:-0.63731372 10:-1.0 11:-0.40210735 12:-0.40210735 13:-0.5 14:-0.5 15:0.12500001 16:0.12500001 17:0.25 18:0.25 19:0.25 20:0.25 21:-1.0 22:-1.0 23:0.66666667 24:0.66666667 25:0.04482495 26:0.13099589 27:-0.70135741 28:-0.77558661 29:-0.29836534 30:0.0525433 31:-0.33121864 32:-0.35177771 33:-0.76769046 34:-0.76769046 35:-0.95419847 36:-0.83206107 37:-0.80473914 38:-0.80478371 39:-0.86882035 40:-0.86844309 
-1.0 1:-0.0 2:-0.59999995 3:0.375 4:0.375 5:-0.13276688 6:-0.09739777 7:1.0 8:1.0 9:-0.06918007 10:0.13942478 11:0.64746077 12:0.66027759 13:-0.5 14:-0.5 15:0.80000002 16:0.80000002 17:1.0 18:1.0 19:1.0 20:1.0 21:-1.0 22:-1.0 23:-0.33333333 24:-0.33333333 25:0.57944769 26:0.57944769 27:-0.93406873 28:-0.47576139 29:0.66142166 30:0.45391171 31:-0.06797237 32:-0.02849338 33:-0.93659372 34:-0.93659372 35:-0.86259542 36:-0.86259542 37:-0.93777271 38:-0.9369496 39:-0.93869237 40:-0.94148054 
-1.0 1:-0.39999996 2:0.19999998 3:0.375 4:0.375 5:-0.85512481 6:-0.83961764 7:1.0 8:1.0 9:-0.7765875 10:-0.66825031 11:0.7507075 12:0.7133066 14:-0.25 15:0.80000002 16:0.80000002 17:1.0 18:1.0 19:1.0 20:1.0 21:-1.0 22:-1.0 23:-0.33333333 24:-0.33333333 25:-0.57956653 26:-0.57956653 27:-0.79149079 28:-0.93096225 29:-0.6482997 30:-0.47046811 31:-0.68560204 32:-0.69848016 33:-0.91835388 34:-0.91835388 35:-0.3129771 36:-0.32824427 37:-0.92258659 38:-0.92258313 39:-0.9032008 40:-0.90320798 
-1.0 1:-0.6888889 2:0.08888895 3:-0.25 4:-0.25 5:-0.66241812 6:-0.67226703 7:1.0 8:1.0 9:-0.6744686 10:-0.62546568 11:-0.12354891 12:-0.09007032 13:-0.25 14:0.5 16:1.0 17:0.1111111 18:0.1111111 19:0.1111111 20:0.2962963 21:-1.0 22:0.72132617 23:1.0 24:1.0 25:-0.06136525 26:-0.22831026 27:-0.52611142 28:-0.63468482 29:-0.47487085 30:-0.58637072 31:-0.41506757 32:-0.41367051 33:1.0 34:1.0 35:-1.0 36:-0.9389313 37:0.60065297 38:0.60005668 39:0.00512361 40:0.00757083 
-1.0 1:0.05714289 2:-0.37142856 3:-0.25 4:-0.25 5:0.17381078 6:0.14604354 7:1.0 8:1.0 9:0.02904553 10:-0.18436851 11:0.6861253 12:0.69528016 13:-0.25 14:-0.25 15:0.28571427 16:0.28571427 17:0.4285714 18:0.4285714 19:0.4285714 20:0.4285714 21:-1.0 22:-1.0 23:0.33333333 24:0.33333333 25:0.68426465 26:0.68426465 27:-0.59634337 28:-0.47576139 29:0.34707464 30:0.45940213 31:0.19067238 32:0.15923239 33:-0.93659372 34:-0.93659372 35:-0.92366412 36:-0.92366412 37:-0.94430327 38:-0.94391442 39:-0.95663886 40:-0.95862527 
-1.0 1:-0.46666665 2:0.3111111 3:0.375 4:0.375 5:-0.87286837 6:-0.90374804 7:1.0 8:1.0 9:-0.53583988 10:-0.73951923 11:0.49789268 12:0.52767889 13:-0.25 16:1.0 17:0.1111111 18:0.1111111 19:0.1111111 20:0.3888889 21:-1.0 22:1.0 23:1.0 24:1.0 25:0.19960489 26:-0.24388452 27:-0.95572929 28:-1.0 29:0.04078851 30:-0.08697124 31:-0.52828211 32:-0.5463408 33:1.0 34:1.0 35:-0.86259542 36:-0.98473282 37:0.60052218 38:0.59126582 39:0.00546295 40:0.05202413 
-1.0 1:-1.0 2:-1.0 3:-0.25 4:-0.25 5:-0.41858736 6:-0.41858736 7:1.0 8:1.0 9:-0.75162566 10:-0.75162566 11:-0.37748968 12:-0.05951447 13:-0.75 14:-0.75 15:0.80000002 16:0.80000002 17:1.0 18:1.0 19:1.0 20:1.0 21:-1.0 22:-1.0 23:-0.33333333 24:-0.33333333 25:0.01597747 26:0.10441678 27:-0.38247006 28:-0.38247006 29:-0.44993611 30:-0.3551509 31:-0.17969569 32:-0.13077675 33:-0.95895043 34:-0.95895043 35:-0.8778626 36:-0.90839695 37:-0.96097295 38:-0.96096593 39:-0.95032648 40:-0.95034086 
-1.0 1:-1.0 2:-1.0 3:-0.25 4:-0.25 5:-0.49442379 6:-0.49442379 7:1.0 8:1.0 9:-1.0 10:-1.0 11:-0.60610022 12:-0.44167334 13:-0.5 14:-0.5 15:0.80000002 16:0.80000002 17:1.0 18:1.0 19:1.0 20:1.0 21:-1.0 22:-1.0 23:-0.33333333 24:-0.33333333 25:0.23643256 26:0.32567607 27:-0.25733034 28:-0.4628812 29:-0.13825527 30:0.15580434 31:0.01559608 32:-0.00369832 33:-0.49917941 34:-0.49917941 35:-0.64885496 36:-0.61832061 37:-0.50387156 38:-0.50819865 39:-0.53279204 40:-0.51847038 
-1.0 1:0.80000002 2:0.80000002 3:0.375 4:0.375 5:-0.96863806 6:-0.90523826 7:1.0 8:1.0 9:-0.16922701 10:-0.32535312 11:0.32905776 12:0.79277044 13:-0.5 14:-0.75 15:0.80000002 16:0.80000002 17:1.0 18:1.0 19:1.0 20:1.0 21:-1.0 22:-1.0 23:-0.33333333 24:-0.33333333 25:-0.6766356 26:-0.80755293 27:-0.82240387 28:-0.72018333 29:-0.71093855 30:-0.94419902 31:-0.813604 32:-0.81324955 33:-0.82903035 34:-0.82903035 35:-0.75572519 36:-0.89312977 37:-0.8300962 38:-0.82966343 39:-0.84041685 40:-0.8405462 
-1.0 1:-0.0 2:-0.0 3:0.375 4:0.375 5:-0.9944769 6:-1.0 7:1.0 8:1.0 9:-0.18755594 10:-0.36889806 11:0.3256982 12:0.74826801 13:-0.75 14:-0.5 15:0.80000002 16:0.80000002 17:1.0 18:1.0 19:1.0 20:1.0 21:-1.0 22:-1.0 23:-0.33333333 24:-0.33333333 25:0.45259101 26:0.16387454 27:-0.84150956 28:-0.38422837 29:0.59733881 30:-0.111084 31:-0.12924332 32:-0.09448307 33:1.0 34:1.0 35:-0.84732824 36:-0.84732824 37:1.0 38:0.99863373 39:0.80799768 40:0.81189967 
-1.0 1:-0.35555553 2:-0.24444441 3:0.6875 4:0.6875 5:-0.04723551 6:-0.16581105 7:1.0 8:1.0 9:-0.43092024 10:-0.30459001 11:-0.39033984 12:-0.14632065 17:0.1111111 18:0.1111111 19:0.1111111 20:0.1111111 21:-1.0 22:-1.0 23:1.0 24:1.0 25:0.0026787 26:-0.11192853 27:-0.98133913 28:-0.95732924 29:0.06552131 30:-0.00267344 31:-0.58731379 32:-0.57019979 33:1.0 34:1.0 35:-0.92366412 36:-0.92366412 37:0.59552777 38:0.60073815 39:0.03000308 40:0.0043052 
-1.0 1:-0.22857138 2:-0.22857138 3:1.0 4:1.0 5:-0.72966139 6:-0.64175249 7:1.0 8:1.0 9:-0.5803269 10:-0.49391371 11:-0.08930011 12:-0.03079916 13:0.5 15:0.28571427 16:0.28571427 17:0.4285714 18:0.4285714 19:0.4285714 20:0.4285714 21:-1.0 22:-1.0 23:0.33333333 24:0.33333333 25:-0.03335664 26:-0.03335664 27:-0.96109916 28:-0.86274201 29:0.28564832 30:-0.01184767 31:-0.52656546 32:-0.50885377 33:1.0 34:1.0 35:-0.84732824 36:-0.84732824 37:0.77287952 38:0.77222695 39:0.29946096 40:0.29605275 
-1.0 1:0.36666666 2:0.36666666 3:0.5 4:0.5 5:-0.35613384 6:-0.2929722 7:1.0 8:1.0 9:-0.87878625 10:-0.55663937 11:0.80366316 12:0.77251807 13:0.5 14:0.25 15:0.50000005 16:0.50000005 17:0.6666667 18:0.6666667 19:0.6666667 20:0.6666667 21:-1.0 22:-1.0 25:-0.12979506 26:0.08185456 27:-0.83097034 28:-0.73709496 29:-0.22262007 30:-0.05553318 31:-0.47989582 32:-0.49709339 33:1.0 34:1.0 35:-0.64885496 36:-0.77099237 37:0.87933903 38:0.87927593 39:0.50795888 40:0.50816847 
-1.0 1:0.08888895 2:0.19999998 3:0.0625 4:0.0625 5:-0.93316866 6:-0.91458129 7:1.0 8:1.0 9:-0.72366634 10:-0.31623938 11:0.50599335 12:0.55516493 13:0.25 16:1.0 17:0.1111111 18:0.1111111 19:0.1111111 20:0.3888889 21:-1.0 22:1.0 23:1.0 24:1.0 25:-0.45317919 26:-0.24388452 27:-0.46776708 28:-1.0 29:-0.86470696 30:-0.07897541 31:-0.48712846 32:-0.52326105 33:1.0 34:1.0 35:-0.8778626 36:-0.98473282 37:0.58533532 38:0.59128754 39:0.09862923 40:0.05193231 
-1.0 1:-0.02222217 2:-0.02222217 3:0.375 4:0.375 5:-0.8017439 6:-0.82716705 7:1.0 8:1.0 9:-0.72345634 10:-0.34952647 11:0.67703781 12:0.71175277 17:0.1111111 18:0.1111111 19:0.1111111 20:0.1111111 21:-1.0 22:-1.0 23:1.0 24:1.0 25:0.3104872 26:0.39471511 27:-0.94942917 28:-0.94942917 29:0.17881202 30:0.30202031 31:-0.53551256 32:-0.56801569 33:1.0 34:1.0 35:-0.54198473 36:-0.77099237 37:0.59495689 38:0.59799836 39:0.03154408 40:0.01729986 
-1.0 1:-0.24444441 2:-0.24444441 3:-0.875 4:-0.875 5:0.42998761 6:0.42998761 7:1.0 8:1.0 9:-0.25519699 10:-0.25519699 11:0.20705331 12:0.20705331 14:0.25 17:0.1111111 18:0.1111111 19:0.1111111 20:0.1111111 21:-1.0 22:-1.0 23:1.0 24:1.0 25:0.01137013 26:0.08294125 27:-0.26328397 28:-0.38387925 29:-0.59645611 30:-0.26485328 31:-0.10126644 32:-0.15693749 33:-0.99937214 34:-0.99995231 35:-0.83206107 36:-0.90839695 37:-0.99932133 38:-0.99974003 39:-0.99901792 40:-0.99904586 
-1.0 1:0.40000005 2:0.40000005 3:1.0 4:1.0 5:-0.86031962 6:-0.86031962 7:1.0 8:1.0 9:-0.20619423 10:-0.14940611 11:0.22725119 12:0.22725119 15:0.80000002 16:0.80000002 17:1.0 18:1.0 19:1.0 20:1.0 21:-1.0 22:-1.0 23:-0.33333333 24:-0.33333333 25:-0.01637389 26:-0.91292594 27:-0.89382793 28:-0.99409879 29:0.15278544 30:-0.78405323 31:-0.57328371 32:-0.99374482 33:-0.7889186 34:-0.7889186 35:1.0 36:-0.72519084 37:-0.7928957 38:-0.7926462 39:-0.79723627 40:-0.79716441 
-1.0 1:-0.37142856 2:-0.37142856 3:0.58333332 4:0.58333332 5:-0.32159927 6:-0.32159927 7:1.0 8:1.0 9:-0.69191259 10:0.08373393 11:-0.22287128 12:-0.22287128 13:-0.5 14:-0.5 15:0.28571427 16:0.28571427 17:0.4285714 18:0.4285714 19:0.4285714 20:0.4285714 21:-1.0 22:-1.0 23:0.33333333 24:0.33333333 25:-0.17148362 26:-0.4825048 27:-0.87832845 28:-0.87832845 29:-0.19326634 30:-0.37677443 31:-0.51685469 32:-0.7716742 33:1.0 34:1.0 35:-0.90839695 36:-0.90839695 37:0.77349651 38:0.77352537 39:0.29121761 40:0.29125354 
-1.0 1:0.19999998 2:0.19999998 3:0.375 4:0.375 5:-0.24727091 6:-0.29695522 7:1.0 8:1.0 9:-0.40851034 10:-0.33058456 11:0.63054415 12:0.58474248 13:0.5 14:0.5 17:0.1111111 18:0.1111111 19:0.1111111 20:0.1111111 21:-1.0 22:-1.0 23:1.0 24:1.0 25:0.14905038 26:-0.47002477 27:-0.90109227 28:-0.95182983 29:0.23183442 30:-0.43279926 31:-0.40253115 32:-0.78301658 33:1.0 34:1.0 35:-0.95419847 36:-0.95419847 37:0.59644726 38:0.59697426 39:0.02518847 40:0.02208652 
-1.0 1:0.42222222 2:0.3111111 3:-0.25 4:-0.25 5:-0.95697858 6:-0.9465316 7:1.0 8:1.0 9:-0.27202265 10:-0.55034116 11:0.99741148 12:0.98891068 13:1.0 14:0.75 17:0.1111111 18:0.1111111 19:0.1111111 20:0.1111111 21:-1.0 22:-1.0 23:1.0 24:1.0 25:0.42220067 26:0.08279437 27:-0.38450731 28:-0.97135923 29:0.08393627 30:-0.10831086 31:0.09673451 32:-0.50911085 33:1.0 34:1.0 35:-0.90839695 36:-0.90839695 37:0.5693628 38:0.57164572 39:0.18722843 40:0.18724839 
-1.0 1:-0.80000002 2:-0.80000002 3:0.375 4:0.375 5:1.0 6:1.0 9:0.18723922 10:0.08317005 11:-1.0 12:-1.0 13:-1.0 14:-1.0 15:-1.0 16:-1.0 17:-1.0 18:-1.0 19:-1.0 20:-1.0 21:-1.0 22:-1.0 23:-0.33333333 24:-0.33333333 25:-1.0 26:-0.29314615 27:-0.89050535 28:-0.50035727 29:-0.97720276 30:-0.61323847 31:-1.0 32:-0.41263016 33:-1.0 34:-1.0 35:-0.40458015 36:-0.78625954 37:-1.0 38:-0.99985718 39:-0.99965108 40:-0.99965108 
