svm_type c_svc
kernel_type rbf
gamma 0.025
nr_class 2
total_sv 70
rho 0.0
label 0 1
nr_sv 35 35
SV
1.0 1:-0.59663869 2:-0.59663869 3:-0.33333333 4:-0.33333333 5:1.0 6:1.0 7:1.0 8:-1.0 9:-0.29759772 10:1.0 11:-1.0 12:-1.0 13:-1.0 14:-1.0 15:-1.0 16:-1.0 17:-1.0 18:-1.0 19:-1.0 20:-1.0 21:-1.0 22:-1.0 23:-0.33333333 24:-1.0 25:-0.29336531 26:-0.79954039 27:-0.66544312 28:-0.06667225 29:0.02450278 30:-1.0 31:-0.44050387 32:-0.48979955 33:-0.99922143 34:-0.99989672 35:-0.61702128 36:-0.06382979 37:-0.99932552 38:-0.99957087 39:-0.99883779 40:-0.99827713 
1.0 1:-0.2605042 2:-0.37254903 3:1.0 4:1.0 5:-0.40527449 6:-0.40527449 8:-1.0 9:-0.50648796 10:-0.37450619 11:0.5446333 12:0.5085153 13:-1.0 14:-1.0 15:-1.0 16:-1.0 17:-1.0 18:-1.0 19:-1.0 20:-1.0 21:-1.0 22:-1.0 23:-0.66666667 24:-1.0 25:-0.13531004 26:-0.10793039 27:0.07336287 28:-0.27316082 29:-0.3449788 30:0.09836719 31:-0.06428306 32:-0.10828741 33:-0.99992055 34:-0.99924527 35:-0.70212766 36:-0.65957447 37:-0.99960627 38:-0.99917738 39:-0.99894875 40:-0.99853669 
1.0 1:0.24369747 2:0.24369747 3:0.11111112 4:0.11111112 5:0.40568599 6:0.40568599 8:-1.0 9:-0.42469155 10:-0.29759772 11:0.14677985 12:0.14677985 13:-0.77777778 14:-0.77777778 15:0.74999997 16:0.74999997 17:0.74999997 18:0.74999997 19:0.74999997 20:0.74999997 21:-1.0 22:-1.0 23:-0.66666667 24:-0.66666667 25:-0.60532739 26:-0.60532739 27:-0.34398317 28:-0.58680271 29:-0.57405633 30:-0.34517778 31:-0.52197746 32:-0.57492978 33:-1.0 34:-1.0 35:-0.57446809 36:-0.57446809 37:-0.99989733 38:-0.99989733 39:-0.99963012 40:-0.99963012 
1.0 1:-0.2605042 2:-0.2605042 3:-0.06666667 4:-0.06666667 5:0.1228745 6:0.1228745 7:1.0 9:-0.04320113 10:-0.04320113 11:0.660114 12:0.660114 13:-0.11111111 14:-0.33333333 15:0.16666667 16:0.16666667 17:0.16666667 18:0.16666667 19:0.16666667 20:0.16666667 21:-1.0 22:-1.0 25:0.28447845 26:0.22059259 27:-0.82787426 28:-0.91575127 29:0.84299466 30:0.91864123 31:-0.01395286 32:-0.00873252 33:-0.98425391 34:-0.98425391 35:0.40425532 36:0.40425532 37:-0.9858242 38:-0.98601818 39:-0.98428648 40:-0.98402691 
1.0 1:0.07563022 2:0.07563022 3:0.11111112 4:0.11111112 5:-0.05395587 6:-0.05395587 9:-0.40875489 10:-0.45542999 11:0.51932806 12:0.51932806 13:-0.77777778 14:-0.77777778 15:0.74999997 16:0.74999997 17:0.74999997 18:0.74999997 19:0.74999997 20:0.74999997 21:-1.0 22:-1.0 23:-0.66666667 24:-0.66666667 25:0.16130285 26:-0.0245469 27:0.05125206 28:0.05125206 29:-0.05014518 30:-0.28373865 31:0.14497973 32:0.07983232 33:-0.99997617 34:-0.99997617 35:-0.82978723 36:-0.10638298 37:-0.99992234 38:-1.0 39:-1.0 40:-0.99983453 
1.0 1:-0.05882355 2:-0.05882355 3:0.33333333 4:0.33333333 5:-0.83388322 6:-0.83388322 7:1.0 8:1.0 9:-0.3340706 10:-0.47065752 11:0.06918167 12:0.06918167 13:-0.77777778 14:-1.0 15:0.39999998 16:-1.0 17:0.39999998 18:-1.0 19:0.39999998 20:-1.0 21:-1.0 22:-1.0 23:-0.33333333 24:-0.33333333 25:0.41994376 26:0.44698959 27:0.96040719 28:1.0 29:-0.61168584 30:-0.6534789 31:0.97242483 32:1.0 33:-0.88991241 34:-0.99903077 35:-0.31914894 36:-0.36170213 37:-0.89353756 38:-0.99923999 39:-0.83604272 40:-0.99805909 
1.0 1:0.61344536 2:0.61344536 3:-0.33333333 4:-0.33333333 5:-0.41405746 6:-0.41405746 7:1.0 8:1.0 9:-0.96298117 10:-0.6903479 11:0.46314783 12:0.46314783 13:-0.77777778 14:-0.55555556 15:0.39999998 16:0.39999998 17:0.39999998 18:0.39999998 19:0.39999998 20:0.39999998 21:-1.0 22:-1.0 23:-0.33333333 24:-0.33333333 25:0.53433749 26:0.22701787 27:-0.26948174 28:-0.02999948 29:0.64441084 30:0.10082395 31:0.18581341 32:0.21317241 33:-0.99753719 34:-0.82366283 35:-0.23404255 36:0.27659574 37:-0.99774235 38:-0.82457134 39:-0.99568405 40:-0.82334991 
1.0 1:0.26770711 2:0.17166867 3:0.11111112 4:0.11111112 5:-0.64807976 6:-0.61653199 7:1.0 8:1.0 9:-0.43668106 10:-0.96095193 11:0.46753909 12:0.45053465 13:0.11111111 14:1.0 15:-3.0E-8 16:-3.0E-8 17:-3.0E-8 18:-3.0E-8 19:-3.0E-8 20:-3.0E-8 21:-1.0 22:-1.0 23:0.33333333 24:0.33333333 25:-0.05043312 26:-0.37204849 27:-0.86073227 28:-0.76654411 29:0.29110188 30:-0.1366491 31:-0.38507168 32:-0.39433799 33:-0.82831834 34:1.0 35:-0.95744681 36:-0.61702128 37:-0.85021215 38:0.7464837 39:-0.86609833 40:0.53575673 
1.0 1:0.17166867 2:0.17166867 3:-0.33333333 4:-0.33333333 5:-0.16878501 6:-0.23872343 7:1.0 8:1.0 9:-0.14737551 10:-0.14737551 11:0.51153559 12:0.51153559 13:-0.33333333 14:-0.11111111 15:-3.0E-8 16:-3.0E-8 17:-3.0E-8 18:-3.0E-8 19:-3.0E-8 20:-3.0E-8 21:-1.0 22:-1.0 23:0.33333333 24:0.33333333 25:0.09119214 26:0.13765458 27:-0.81975076 28:-0.65728568 29:0.4134889 30:0.4038288 31:0.12722913 32:0.11492097 33:-0.84610618 34:-0.96510755 35:-0.19148936 36:-0.82978723 37:-0.86625022 38:-0.96278685 39:-0.86995845 40:-0.95336837 
1.0 1:0.61344536 2:0.61344536 3:1.0 4:1.0 5:-0.66371001 6:-1.0 7:1.0 8:1.0 9:-0.66907897 10:-0.58280717 11:0.43491371 12:0.4866519 13:-1.0 14:-1.0 15:-1.0 16:-1.0 17:-1.0 18:-1.0 19:-1.0 20:-1.0 21:-1.0 22:-1.0 23:-0.33333333 24:-0.33333333 25:0.11315698 26:-0.07424152 27:-0.6314192 28:-0.53106935 29:0.45148648 30:0.17099527 31:-0.38914704 32:-0.41034036 33:-0.97738982 34:-0.97738982 35:-0.87234043 36:-0.91489362 37:-0.97770672 38:-0.97755429 39:-0.97647352 40:-0.97648131 
1.0 1:0.21008405 2:0.21008405 3:0.33333333 4:0.33333333 5:-0.27780616 6:-0.59340738 7:1.0 8:1.0 9:-0.66309991 10:-0.38874495 11:-0.26008086 12:-0.23312383 13:-0.77777778 14:-0.77777778 15:0.39999998 16:0.39999998 17:0.39999998 18:0.39999998 19:0.39999998 20:0.39999998 21:-1.0 22:-1.0 23:-0.33333333 24:-0.33333333 25:-0.46181245 26:-0.46181245 27:-0.06370068 28:-0.30953786 29:-0.63505345 30:-0.49332909 31:-0.28776925 32:-0.26914523 33:-0.95479553 34:-0.95479553 35:0.91489362 36:1.0 37:-0.95625294 38:-0.95610583 39:-0.95076863 40:-0.95118912 
1.0 1:0.07563022 2:0.07563022 3:0.55555555 4:0.55555555 5:-0.15256673 6:-0.59533972 7:1.0 8:1.0 9:-0.79349167 10:-0.41360817 11:0.25335628 12:0.24120129 13:-0.77777778 14:-0.77777778 15:-3.0E-8 16:-3.0E-8 17:-3.0E-8 18:-3.0E-8 19:-3.0E-8 20:-3.0E-8 21:-1.0 22:-1.0 23:0.33333333 24:0.33333333 25:-0.16079195 26:0.16130285 27:-0.36807398 28:-0.83728071 29:-0.16914509 30:0.43935559 31:-0.14921175 32:-0.08721437 33:-0.45050746 34:-0.45050746 35:-0.74468085 36:-0.91489362 37:-0.51292698 38:-0.51304978 39:-0.61394964 40:-0.61363259 
1.0 1:-0.14845937 2:-0.14845937 3:0.46666667 4:0.46666667 5:-0.7488511 6:-0.56603528 7:1.0 8:1.0 9:-0.71523257 10:-0.88284688 11:0.05389314 12:0.05852498 13:-0.55555556 14:-0.77777778 15:0.16666667 16:0.16666667 17:0.16666667 18:0.16666667 19:0.16666667 20:0.16666667 21:-1.0 22:-1.0 25:0.00321451 26:0.39361504 27:-0.5429762 28:-0.67505309 29:0.22141458 30:0.70515742 31:-0.41938276 32:-0.3795327 33:1.0 34:1.0 35:-0.70212766 36:-0.57446809 37:0.87424845 38:0.87828928 39:0.6579144 40:0.64006919 
1.0 1:9.3373E-4 2:9.3373E-4 5:-0.53785932 6:0.40349027 7:1.0 8:1.0 9:-0.52106331 10:-0.3387133 11:0.22244269 12:0.24195602 13:0.33333333 14:0.33333333 15:-0.22222224 16:-0.22222224 17:-0.22222224 18:-0.22222224 19:-0.22222224 20:-0.22222224 21:-1.0 22:-1.0 23:1.0 24:1.0 25:-0.58139792 26:-0.33964614 27:-0.56123144 28:-0.54366574 29:-0.37409393 30:-0.20692965 31:-0.64798485 32:-0.62058876 33:1.0 34:1.0 35:-0.87234043 36:-0.57446809 37:0.60074638 38:0.6006807 39:0.09073945 40:0.0910293 
1.0 1:-0.21248498 2:-0.21248498 3:0.55555555 4:-0.77777779 5:0.06315034 6:0.06315034 7:1.0 8:1.0 9:-0.41137308 10:-0.69036722 11:-0.5739515 12:-0.5739515 13:-0.77777778 14:-0.77777778 15:-3.0E-8 16:-3.0E-8 17:-3.0E-8 18:-3.0E-8 19:-3.0E-8 20:-3.0E-8 21:-1.0 22:-1.0 23:0.33333333 24:0.33333333 25:-0.38291675 26:-0.39220357 27:-0.65373454 28:-0.34919838 29:-0.11280564 30:-0.35512328 31:-0.38460738 32:-0.42721746 33:-0.86362391 34:-0.86362391 35:-0.70212766 36:-0.70212766 37:-0.88018869 38:-0.87971843 39:-0.8997048 40:-0.89945451 
1.0 1:0.52380954 2:0.52380954 3:1.0 4:-0.6 5:-0.42869573 6:-0.42869573 7:1.0 8:1.0 9:-0.28926716 10:-0.28078347 11:0.47312838 12:0.47312838 13:-0.11111111 14:-0.11111111 15:0.16666667 16:0.16666667 17:0.16666667 18:0.16666667 19:0.16666667 20:0.16666667 21:-1.0 22:-1.0 25:0.45335247 26:0.45335247 27:-1.0 28:-1.0 29:1.0 30:0.8569162 31:-0.65386911 32:-0.69417321 33:-0.48246837 34:-0.48246837 35:-0.61702128 36:-0.57446809 37:-0.51855629 38:-0.5185582 39:-0.55786375 40:-0.55785726 
1.0 1:-0.21248498 2:-0.21248498 3:-0.77777779 4:1.0 5:-0.31679426 6:-0.28589122 7:1.0 8:1.0 9:-0.37730577 10:-0.3915476 11:-0.02389167 12:-0.02389167 13:-0.11111111 14:0.11111111 15:1.0 16:-3.0E-8 17:-3.0E-8 18:-3.0E-8 19:0.24999999 20:-3.0E-8 21:0.97948672 22:-1.0 23:0.33333333 24:0.33333333 25:-0.05544078 26:0.08843095 27:-0.90277866 28:-0.89030777 29:0.53591797 30:0.30363404 31:-0.77288227 32:-0.811156 33:1.0 34:1.0 35:-0.82978723 36:-0.65957447 37:0.77307312 38:0.77118676 39:0.40367249 40:0.4105918 
1.0 1:1.0 2:1.0 3:0.23809523 4:-0.90476189 5:-0.55879214 6:-0.55879214 7:1.0 8:1.0 9:-0.2292752 10:-0.51293964 11:0.63997771 12:0.63997771 13:0.11111111 14:0.33333333 15:0.74999997 16:0.74999997 17:-0.12500001 18:-0.12500001 19:0.04999998 20:0.02083329 21:0.6 22:0.490712 23:0.66666667 24:0.66666667 25:-0.17942171 26:-0.85220398 27:-0.76874041 28:-0.6567289 29:-0.04199839 30:-0.70476515 31:-0.91853119 32:-0.94076747 33:-0.82583169 34:-0.82583169 35:-0.91489362 36:-0.91489362 37:-0.81779269 38:-0.81781481 39:-0.76051562 40:-0.76049128 
1.0 1:0.07563022 2:0.47899159 3:0.33333333 4:0.33333333 5:-0.69413647 6:-0.68047407 7:1.0 8:1.0 9:-0.28627556 10:0.2457943 11:0.98290887 12:1.0 13:-0.33333333 14:-0.33333333 15:0.39999998 16:0.39999998 17:0.39999998 18:0.39999998 19:0.39999998 20:0.39999998 21:-1.0 22:-1.0 23:-0.33333333 24:-0.33333333 25:-0.65979412 26:-0.72465469 27:-0.83318015 28:-0.82733888 29:-0.03837721 30:-0.20260551 31:-0.83362747 32:-0.86696562 33:-0.60135852 34:-0.60135852 35:0.40425532 36:0.31914894 37:-0.62125851 38:-0.62086449 39:-0.45707269 40:-0.45806943 
1.0 1:0.52380954 2:0.07563022 3:0.46666667 4:0.46666667 5:-0.68618745 6:-0.61307296 7:1.0 8:1.0 9:-0.37590598 10:-0.40465188 11:0.7580681 12:0.73080979 13:-0.11111111 14:-0.11111111 15:0.16666667 16:0.16666667 17:0.16666667 18:0.16666667 19:0.16666667 20:0.16666667 21:-1.0 22:-1.0 25:-0.64160389 26:-0.64160389 27:-0.6034772 28:-0.83244211 29:-0.46110666 30:-0.25207454 31:-0.85129338 32:-0.88028897 33:1.0 34:1.0 35:-0.74468085 36:-0.57446809 37:0.87394747 38:0.87027553 39:0.6550397 40:0.66883567 
1.0 1:-0.37254903 2:0.29971988 3:1.0 4:1.0 5:-0.59986598 6:-0.70051225 7:1.0 8:1.0 9:-0.73418912 10:-0.70749872 11:0.47920901 12:0.43363464 13:0.11111111 14:0.11111111 15:0.16666667 16:0.16666667 17:0.16666667 18:0.16666667 19:0.16666667 20:0.16666667 21:-1.0 22:-1.0 25:-0.34585254 26:-0.32912241 27:-0.76290832 28:-0.79414562 29:-0.05324918 30:0.11967664 31:-0.80039143 32:-0.79220719 33:1.0 34:1.0 35:-0.0212766 36:-0.82978723 37:0.87924405 38:0.87892387 39:0.63564357 40:0.63679865 
1.0 1:0.22502333 2:0.59850609 3:-0.66666667 4:-0.66666667 5:-0.3235441 6:-0.3491611 7:1.0 8:1.0 9:-0.57048757 10:-0.13951724 11:0.37038204 12:0.43933701 13:-0.33333333 14:-0.33333333 15:-0.22222224 16:-0.22222224 17:-0.22222224 18:-0.22222224 19:-0.22222224 20:-0.22222224 21:-1.0 22:-1.0 23:1.0 24:1.0 25:0.31094943 26:0.58327625 27:-0.3289218 28:-0.84146362 29:0.0645397 30:0.87027835 31:0.35492822 32:0.26131446 33:-0.86362391 34:-0.85118274 35:0.06382979 36:-0.27659574 37:-0.88726899 38:-0.87781404 39:-0.88862748 40:-0.88295162 
1.0 1:0.21008405 2:0.21008405 3:-0.33333333 4:-0.33333333 5:-0.20033863 6:-0.31890865 7:1.0 8:1.0 9:-0.51293964 10:-0.89724857 11:0.77560737 12:0.40044973 13:-0.55555556 14:-0.33333333 15:0.39999998 16:0.39999998 17:0.39999998 18:0.39999998 19:0.39999998 20:0.39999998 21:-1.0 22:-1.0 23:-0.33333333 24:-0.33333333 25:0.12081642 26:0.12081642 27:-0.07424583 28:-0.12751673 29:0.02373074 30:0.00591784 31:0.25685348 32:0.24702168 33:-0.84610618 34:-0.84610618 35:-0.44680851 36:-0.95744681 37:-0.8463822 38:-0.84702981 39:-0.84837733 40:-0.84595558 
1.0 1:-1.0 2:-1.0 3:-1.0 4:-1.0 5:-0.43455103 6:-0.43455103 7:1.0 8:1.0 9:-0.33076689 10:-0.33076689 11:-0.23543402 12:-0.46555001 13:-0.55555556 14:-0.55555556 15:0.39999998 16:0.39999998 17:0.39999998 18:0.39999998 19:0.39999998 20:0.39999998 21:-1.0 22:-1.0 23:-0.33333333 24:-0.33333333 25:-0.09982824 26:-0.09982824 27:-0.19462436 28:-0.19462436 29:-0.156865 30:-0.156865 31:-0.07990687 32:-0.07990687 33:-0.97835111 34:-0.97835111 35:-0.82978723 36:-0.27659574 37:-0.97903491 38:-0.97908899 39:-0.96458277 40:-0.96448154 
1.0 1:-0.46218486 2:-0.46218486 3:1.0 4:1.0 5:-0.46236377 6:-0.53028535 7:1.0 8:1.0 9:-0.84179964 10:-0.56813573 11:-0.4132205 12:0.28072029 13:-0.33333333 14:-0.33333333 15:0.39999998 16:0.39999998 17:0.39999998 18:0.39999998 19:0.39999998 20:0.39999998 21:-1.0 22:-1.0 23:-0.33333333 24:-0.33333333 25:-0.0245469 26:-0.16492565 27:-0.85625876 28:-0.85625876 29:0.3160403 30:0.17752131 31:-0.58349446 32:-0.60348875 33:1.0 34:1.0 35:-0.82978723 36:-0.70212766 37:1.0 38:0.99300545 39:0.96068343 40:0.98275179 
1.0 1:-0.21248498 2:-0.21248498 3:-0.33333333 4:-0.33333333 5:-0.70812415 6:-0.7012465 7:1.0 8:1.0 9:-0.57763479 10:-0.10362358 11:0.02486273 12:0.38465209 13:0.11111111 14:-0.11111111 15:-3.0E-8 16:-3.0E-8 17:-3.0E-8 18:-3.0E-8 19:-3.0E-8 20:-3.0E-8 21:-1.0 22:-1.0 23:0.33333333 24:0.33333333 25:-0.01127193 26:-0.01127193 27:-0.69852601 28:-0.60597267 29:-0.0273111 30:-0.06878137 31:-0.22253958 32:-0.15615209 33:1.0 34:1.0 35:-0.87234043 36:-0.91489362 37:0.77206379 38:0.77320688 39:0.43990986 40:0.4023932 
1.0 1:-0.50060025 2:-0.50060025 3:0.11111112 4:0.11111112 5:-0.20619394 6:-0.20619394 7:1.0 8:1.0 9:-0.43119971 10:-0.49588317 11:0.38389817 12:0.22671089 13:-0.33333333 14:-0.11111111 15:-3.0E-8 16:-3.0E-8 17:-3.0E-8 18:-3.0E-8 19:-3.0E-8 20:-3.0E-8 21:-1.0 22:-1.0 23:0.33333333 24:0.33333333 25:1.0 26:0.89778264 27:-0.43029856 28:-0.43029856 29:0.79497768 30:0.69113977 31:0.85301424 32:0.80359207 33:-0.98912392 34:-0.98912392 35:-0.44680851 36:-0.23404255 37:-0.99076643 38:-0.99080215 39:-0.98765343 40:-0.98762562 
1.0 1:-0.32773109 2:-0.32773109 3:0.33333333 4:0.33333333 5:-0.77679393 6:-0.77679393 7:1.0 8:1.0 9:-0.21134649 10:-0.75010527 11:-0.26421132 12:-0.26421132 13:0.11111111 14:-0.11111111 15:0.39999998 16:0.39999998 17:0.39999998 18:0.39999998 19:0.39999998 20:0.39999998 21:-1.0 22:-1.0 23:-0.33333333 24:-0.33333333 25:-0.37696319 26:-0.50569251 27:-0.58391773 28:-0.04633764 29:-0.18942296 30:-0.74130246 31:-0.29364314 32:-0.31344617 33:1.0 34:1.0 35:-0.87234043 36:0.14893617 37:0.99980352 38:0.98786427 39:0.96189041 40:1.0 
1.0 1:-0.86554623 2:-0.86554623 3:-0.33333333 4:-0.33333333 5:-0.24601006 6:-0.24601006 7:1.0 8:1.0 9:-0.23740204 10:-0.89810033 11:-0.33934926 12:-0.33934926 13:-0.55555556 14:-0.55555556 15:0.39999998 16:0.39999998 17:0.39999998 18:0.39999998 19:0.39999998 20:0.39999998 21:-1.0 22:-1.0 23:-0.33333333 24:-0.33333333 25:-0.07692339 26:-0.07692339 27:0.42393358 28:0.56962529 29:-0.63513907 30:-0.78783343 31:0.3556393 32:0.454263 33:-0.98979126 34:-0.98979126 35:-0.74468085 36:0.91489362 37:-0.99031472 38:-0.99043524 39:-0.98806058 40:-0.98774131 
1.0 1:0.07563022 2:-0.02040816 3:0.61904763 4:0.55555555 5:-0.43078057 6:-0.40202154 7:1.0 8:1.0 9:-0.50111172 10:-0.64245489 11:-0.32964361 12:-0.39649347 13:-0.55555556 14:-0.77777778 15:0.74999997 16:1.0 17:-0.12500001 18:1.0 19:0.31249998 20:1.0 21:1.0 22:-1.0 23:0.66666667 24:0.33333333 25:-0.47755569 26:-0.82094587 27:-0.94132292 28:-0.77071237 29:-0.16766808 30:-0.5366871 31:-0.84646059 32:-0.82758249 33:-0.78822221 34:-0.78822221 35:-0.40425532 36:-0.40425532 37:-0.81323155 38:-0.81963767 39:-0.78157459 40:-0.8057435 
1.0 1:-0.02040816 2:-0.02040816 3:0.11111112 4:0.11111112 5:-0.25122407 6:-0.25122407 7:1.0 8:1.0 9:-0.33605194 10:-0.88007386 11:-0.05234507 12:-0.05234507 13:-0.11111111 14:-0.11111111 15:-3.0E-8 16:-3.0E-8 17:-3.0E-8 18:-3.0E-8 19:-3.0E-8 20:-3.0E-8 21:-1.0 22:-1.0 23:0.33333333 24:0.33333333 25:0.33821751 26:-0.66901281 27:-0.91930443 28:-0.48267157 29:0.46457208 30:-0.64230403 31:-0.52940919 32:-0.54548038 33:1.0 34:1.0 35:-0.27659574 36:-0.4893617 37:0.75995995 38:0.74978628 39:0.46225856 40:0.52338652 
1.0 1:0.07563022 2:0.07563022 3:0.33333333 4:0.33333333 5:-0.50481476 6:-0.50481476 7:1.0 8:1.0 9:-0.07400486 10:-0.07400486 11:0.4045071 12:0.4045071 13:-0.55555556 14:-0.55555556 15:0.39999998 16:0.39999998 17:0.39999998 18:0.39999998 19:0.39999998 20:0.39999998 21:-1.0 22:-1.0 23:-0.33333333 24:-0.33333333 25:0.16753562 26:-0.82347422 27:-0.06747994 28:-0.47344149 29:0.09092946 30:-0.70513337 31:0.13084175 32:-0.66344313 33:-0.9359749 34:-0.9359749 35:-1.0 36:-0.78723404 37:-0.93603671 38:-0.93604936 39:-0.93715695 40:-0.93711801 
1.0 1:-0.46218486 2:-0.46218486 3:1.0 4:1.0 5:-0.46236377 6:-0.46236377 7:1.0 8:1.0 9:-1.0 10:-0.76134912 11:-0.4132205 12:-0.4132205 13:-0.55555556 14:-0.55555556 15:0.39999998 16:0.39999998 17:0.39999998 18:0.39999998 19:0.39999998 20:0.39999998 21:-1.0 22:-1.0 23:-0.33333333 24:-0.33333333 25:0.30725838 26:-0.62921924 27:-0.78585088 28:-0.65577565 29:0.50992425 30:-0.34327365 31:-0.13995881 32:-0.88979111 33:-0.76700232 34:-0.76700232 35:-0.36170213 36:-0.44680851 37:-0.76718973 38:-0.76724732 39:-0.77042944 40:-0.77025034 
1.0 1:0.07563022 2:0.07563022 3:-0.33333333 4:-0.33333333 5:1.0 6:1.0 7:1.0 8:1.0 9:-0.3820476 10:-0.2448836 11:0.30664549 12:0.30664549 13:-0.11111111 14:0.11111111 15:0.39999998 16:0.39999998 17:0.39999998 18:0.39999998 19:0.39999998 20:0.39999998 21:-1.0 22:-1.0 23:-0.33333333 24:-0.33333333 25:0.52705366 26:-1.0 27:0.06549884 28:-0.45697748 29:0.14291478 30:-0.90641624 31:0.67240121 32:-0.86754444 33:-0.99847465 34:-0.99924527 35:-0.19148936 36:0.91489362 37:-0.99874127 38:-0.9994151 39:-0.9961357 40:-0.99604226 
1.0 1:0.55582231 2:0.55582231 3:-0.33333333 4:-0.33333333 5:-0.73975805 6:-0.73975805 7:1.0 8:1.0 9:-0.47292693 10:-0.47292693 11:0.52755088 12:0.52755088 13:-0.33333333 14:-0.33333333 15:-3.0E-8 16:-3.0E-8 17:-3.0E-8 18:-3.0E-8 19:-3.0E-8 20:-3.0E-8 21:-1.0 22:-1.0 23:0.33333333 24:0.33333333 25:0.03549685 26:-0.55437975 27:-0.48267157 28:-0.89524164 29:0.18158722 30:-0.18612941 31:0.06630023 32:-1.0 33:1.0 34:1.0 35:-0.95744681 36:-0.57446809 37:0.73866007 38:0.73862213 39:0.57916927 40:0.57988679 
-1.0 1:-0.59663869 2:-0.59663869 3:-0.33333333 4:-0.33333333 5:1.0 6:1.0 7:-1.0 8:1.0 9:1.0 10:-0.29759772 11:-1.0 12:-1.0 13:-1.0 14:-1.0 15:-1.0 16:-1.0 17:-1.0 18:-1.0 19:-1.0 20:-1.0 21:-1.0 22:-1.0 23:-1.0 24:-0.33333333 25:-0.79954039 26:-0.29336531 27:-0.06667225 28:-0.66544312 29:-1.0 30:0.02450278 31:-0.48979955 32:-0.44050387 33:-0.99989672 34:-0.99922143 35:-0.06382979 36:-0.61702128 37:-0.99957087 38:-0.99932552 39:-0.99827713 40:-0.99883779 
-1.0 1:-0.37254903 2:-0.2605042 3:1.0 4:1.0 5:-0.40527449 6:-0.40527449 7:-1.0 9:-0.37450619 10:-0.50648796 11:0.5085153 12:0.5446333 13:-1.0 14:-1.0 15:-1.0 16:-1.0 17:-1.0 18:-1.0 19:-1.0 20:-1.0 21:-1.0 22:-1.0 23:-1.0 24:-0.66666667 25:-0.10793039 26:-0.13531004 27:-0.27316082 28:0.07336287 29:0.09836719 30:-0.3449788 31:-0.10828741 32:-0.06428306 33:-0.99924527 34:-0.99992055 35:-0.65957447 36:-0.70212766 37:-0.99917738 38:-0.99960627 39:-0.99853669 40:-0.99894875 
-1.0 1:0.24369747 2:0.24369747 3:0.11111112 4:0.11111112 5:0.40568599 6:0.40568599 7:-1.0 9:-0.29759772 10:-0.42469155 11:0.14677985 12:0.14677985 13:-0.77777778 14:-0.77777778 15:0.74999997 16:0.74999997 17:0.74999997 18:0.74999997 19:0.74999997 20:0.74999997 21:-1.0 22:-1.0 23:-0.66666667 24:-0.66666667 25:-0.60532739 26:-0.60532739 27:-0.58680271 28:-0.34398317 29:-0.34517778 30:-0.57405633 31:-0.57492978 32:-0.52197746 33:-1.0 34:-1.0 35:-0.57446809 36:-0.57446809 37:-0.99989733 38:-0.99989733 39:-0.99963012 40:-0.99963012 
-1.0 1:-0.2605042 2:-0.2605042 3:-0.06666667 4:-0.06666667 5:0.1228745 6:0.1228745 8:1.0 9:-0.04320113 10:-0.04320113 11:0.660114 12:0.660114 13:-0.33333333 14:-0.11111111 15:0.16666667 16:0.16666667 17:0.16666667 18:0.16666667 19:0.16666667 20:0.16666667 21:-1.0 22:-1.0 25:0.22059259 26:0.28447845 27:-0.91575127 28:-0.82787426 29:0.91864123 30:0.84299466 31:-0.00873252 32:-0.01395286 33:-0.98425391 34:-0.98425391 35:0.40425532 36:0.40425532 37:-0.98601818 38:-0.9858242 39:-0.98402691 40:-0.98428648 
-1.0 1:0.07563022 2:0.07563022 3:0.11111112 4:0.11111112 5:-0.05395587 6:-0.05395587 9:-0.45542999 10:-0.40875489 11:0.51932806 12:0.51932806 13:-0.77777778 14:-0.77777778 15:0.74999997 16:0.74999997 17:0.74999997 18:0.74999997 19:0.74999997 20:0.74999997 21:-1.0 22:-1.0 23:-0.66666667 24:-0.66666667 25:-0.0245469 26:0.16130285 27:0.05125206 28:0.05125206 29:-0.28373865 30:-0.05014518 31:0.07983232 32:0.14497973 33:-0.99997617 34:-0.99997617 35:-0.10638298 36:-0.82978723 37:-1.0 38:-0.99992234 39:-0.99983453 40:-1.0 
-1.0 1:-0.05882355 2:-0.05882355 3:0.33333333 4:0.33333333 5:-0.83388322 6:-0.83388322 7:1.0 8:1.0 9:-0.47065752 10:-0.3340706 11:0.06918167 12:0.06918167 13:-1.0 14:-0.77777778 15:-1.0 16:0.39999998 17:-1.0 18:0.39999998 19:-1.0 20:0.39999998 21:-1.0 22:-1.0 23:-0.33333333 24:-0.33333333 25:0.44698959 26:0.41994376 27:1.0 28:0.96040719 29:-0.6534789 30:-0.61168584 31:1.0 32:0.97242483 33:-0.99903077 34:-0.88991241 35:-0.36170213 36:-0.31914894 37:-0.99923999 38:-0.89353756 39:-0.99805909 40:-0.83604272 
-1.0 1:0.61344536 2:0.61344536 3:-0.33333333 4:-0.33333333 5:-0.41405746 6:-0.41405746 7:1.0 8:1.0 9:-0.6903479 10:-0.96298117 11:0.46314783 12:0.46314783 13:-0.55555556 14:-0.77777778 15:0.39999998 16:0.39999998 17:0.39999998 18:0.39999998 19:0.39999998 20:0.39999998 21:-1.0 22:-1.0 23:-0.33333333 24:-0.33333333 25:0.22701787 26:0.53433749 27:-0.02999948 28:-0.26948174 29:0.10082395 30:0.64441084 31:0.21317241 32:0.18581341 33:-0.82366283 34:-0.99753719 35:0.27659574 36:-0.23404255 37:-0.82457134 38:-0.99774235 39:-0.82334991 40:-0.99568405 
-1.0 1:0.17166867 2:0.26770711 3:0.11111112 4:0.11111112 5:-0.61653199 6:-0.64807976 7:1.0 8:1.0 9:-0.96095193 10:-0.43668106 11:0.45053465 12:0.46753909 13:1.0 14:0.11111111 15:-3.0E-8 16:-3.0E-8 17:-3.0E-8 18:-3.0E-8 19:-3.0E-8 20:-3.0E-8 21:-1.0 22:-1.0 23:0.33333333 24:0.33333333 25:-0.37204849 26:-0.05043312 27:-0.76654411 28:-0.86073227 29:-0.1366491 30:0.29110188 31:-0.39433799 32:-0.38507168 33:1.0 34:-0.82831834 35:-0.61702128 36:-0.95744681 37:0.7464837 38:-0.85021215 39:0.53575673 40:-0.86609833 
-1.0 1:0.17166867 2:0.17166867 3:-0.33333333 4:-0.33333333 5:-0.23872343 6:-0.16878501 7:1.0 8:1.0 9:-0.14737551 10:-0.14737551 11:0.51153559 12:0.51153559 13:-0.11111111 14:-0.33333333 15:-3.0E-8 16:-3.0E-8 17:-3.0E-8 18:-3.0E-8 19:-3.0E-8 20:-3.0E-8 21:-1.0 22:-1.0 23:0.33333333 24:0.33333333 25:0.13765458 26:0.09119214 27:-0.65728568 28:-0.81975076 29:0.4038288 30:0.4134889 31:0.11492097 32:0.12722913 33:-0.96510755 34:-0.84610618 35:-0.82978723 36:-0.19148936 37:-0.96278685 38:-0.86625022 39:-0.95336837 40:-0.86995845 
-1.0 1:0.61344536 2:0.61344536 3:1.0 4:1.0 5:-1.0 6:-0.66371001 7:1.0 8:1.0 9:-0.58280717 10:-0.66907897 11:0.4866519 12:0.43491371 13:-1.0 14:-1.0 15:-1.0 16:-1.0 17:-1.0 18:-1.0 19:-1.0 20:-1.0 21:-1.0 22:-1.0 23:-0.33333333 24:-0.33333333 25:-0.07424152 26:0.11315698 27:-0.53106935 28:-0.6314192 29:0.17099527 30:0.45148648 31:-0.41034036 32:-0.38914704 33:-0.97738982 34:-0.97738982 35:-0.91489362 36:-0.87234043 37:-0.97755429 38:-0.97770672 39:-0.97648131 40:-0.97647352 
-1.0 1:0.21008405 2:0.21008405 3:0.33333333 4:0.33333333 5:-0.59340738 6:-0.27780616 7:1.0 8:1.0 9:-0.38874495 10:-0.66309991 11:-0.23312383 12:-0.26008086 13:-0.77777778 14:-0.77777778 15:0.39999998 16:0.39999998 17:0.39999998 18:0.39999998 19:0.39999998 20:0.39999998 21:-1.0 22:-1.0 23:-0.33333333 24:-0.33333333 25:-0.46181245 26:-0.46181245 27:-0.30953786 28:-0.06370068 29:-0.49332909 30:-0.63505345 31:-0.26914523 32:-0.28776925 33:-0.95479553 34:-0.95479553 35:1.0 36:0.91489362 37:-0.95610583 38:-0.95625294 39:-0.95118912 40:-0.95076863 
-1.0 1:0.07563022 2:0.07563022 3:0.55555555 4:0.55555555 5:-0.59533972 6:-0.15256673 7:1.0 8:1.0 9:-0.41360817 10:-0.79349167 11:0.24120129 12:0.25335628 13:-0.77777778 14:-0.77777778 15:-3.0E-8 16:-3.0E-8 17:-3.0E-8 18:-3.0E-8 19:-3.0E-8 20:-3.0E-8 21:-1.0 22:-1.0 23:0.33333333 24:0.33333333 25:0.16130285 26:-0.16079195 27:-0.83728071 28:-0.36807398 29:0.43935559 30:-0.16914509 31:-0.08721437 32:-0.14921175 33:-0.45050746 34:-0.45050746 35:-0.91489362 36:-0.74468085 37:-0.51304978 38:-0.51292698 39:-0.61363259 40:-0.61394964 
-1.0 1:-0.14845937 2:-0.14845937 3:0.46666667 4:0.46666667 5:-0.56603528 6:-0.7488511 7:1.0 8:1.0 9:-0.88284688 10:-0.71523257 11:0.05852498 12:0.05389314 13:-0.77777778 14:-0.55555556 15:0.16666667 16:0.16666667 17:0.16666667 18:0.16666667 19:0.16666667 20:0.16666667 21:-1.0 22:-1.0 25:0.39361504 26:0.00321451 27:-0.67505309 28:-0.5429762 29:0.70515742 30:0.22141458 31:-0.3795327 32:-0.41938276 33:1.0 34:1.0 35:-0.57446809 36:-0.70212766 37:0.87828928 38:0.87424845 39:0.64006919 40:0.6579144 
-1.0 1:9.3373E-4 2:9.3373E-4 5:0.40349027 6:-0.53785932 7:1.0 8:1.0 9:-0.3387133 10:-0.52106331 11:0.24195602 12:0.22244269 13:0.33333333 14:0.33333333 15:-0.22222224 16:-0.22222224 17:-0.22222224 18:-0.22222224 19:-0.22222224 20:-0.22222224 21:-1.0 22:-1.0 23:1.0 24:1.0 25:-0.33964614 26:-0.58139792 27:-0.54366574 28:-0.56123144 29:-0.20692965 30:-0.37409393 31:-0.62058876 32:-0.64798485 33:1.0 34:1.0 35:-0.57446809 36:-0.87234043 37:0.6006807 38:0.60074638 39:0.0910293 40:0.09073945 
-1.0 1:-0.21248498 2:-0.21248498 3:-0.77777779 4:0.55555555 5:0.06315034 6:0.06315034 7:1.0 8:1.0 9:-0.69036722 10:-0.41137308 11:-0.5739515 12:-0.5739515 13:-0.77777778 14:-0.77777778 15:-3.0E-8 16:-3.0E-8 17:-3.0E-8 18:-3.0E-8 19:-3.0E-8 20:-3.0E-8 21:-1.0 22:-1.0 23:0.33333333 24:0.33333333 25:-0.39220357 26:-0.38291675 27:-0.34919838 28:-0.65373454 29:-0.35512328 30:-0.11280564 31:-0.42721746 32:-0.38460738 33:-0.86362391 34:-0.86362391 35:-0.70212766 36:-0.70212766 37:-0.87971843 38:-0.88018869 39:-0.89945451 40:-0.8997048 
-1.0 1:0.52380954 2:0.52380954 3:-0.6 4:1.0 5:-0.42869573 6:-0.42869573 7:1.0 8:1.0 9:-0.28078347 10:-0.28926716 11:0.47312838 12:0.47312838 13:-0.11111111 14:-0.11111111 15:0.16666667 16:0.16666667 17:0.16666667 18:0.16666667 19:0.16666667 20:0.16666667 21:-1.0 22:-1.0 25:0.45335247 26:0.45335247 27:-1.0 28:-1.0 29:0.8569162 30:1.0 31:-0.69417321 32:-0.65386911 33:-0.48246837 34:-0.48246837 35:-0.57446809 36:-0.61702128 37:-0.5185582 38:-0.51855629 39:-0.55785726 40:-0.55786375 
-1.0 1:-0.21248498 2:-0.21248498 3:1.0 4:-0.77777779 5:-0.28589122 6:-0.31679426 7:1.0 8:1.0 9:-0.3915476 10:-0.37730577 11:-0.02389167 12:-0.02389167 13:0.11111111 14:-0.11111111 15:-3.0E-8 16:1.0 17:-3.0E-8 18:-3.0E-8 19:-3.0E-8 20:0.24999999 21:-1.0 22:0.97948672 23:0.33333333 24:0.33333333 25:0.08843095 26:-0.05544078 27:-0.89030777 28:-0.90277866 29:0.30363404 30:0.53591797 31:-0.811156 32:-0.77288227 33:1.0 34:1.0 35:-0.65957447 36:-0.82978723 37:0.77118676 38:0.77307312 39:0.4105918 40:0.40367249 
-1.0 1:1.0 2:1.0 3:-0.90476189 4:0.23809523 5:-0.55879214 6:-0.55879214 7:1.0 8:1.0 9:-0.51293964 10:-0.2292752 11:0.63997771 12:0.63997771 13:0.33333333 14:0.11111111 15:0.74999997 16:0.74999997 17:-0.12500001 18:-0.12500001 19:0.02083329 20:0.04999998 21:0.490712 22:0.6 23:0.66666667 24:0.66666667 25:-0.85220398 26:-0.17942171 27:-0.6567289 28:-0.76874041 29:-0.70476515 30:-0.04199839 31:-0.94076747 32:-0.91853119 33:-0.82583169 34:-0.82583169 35:-0.91489362 36:-0.91489362 37:-0.81781481 38:-0.81779269 39:-0.76049128 40:-0.76051562 
-1.0 1:0.47899159 2:0.07563022 3:0.33333333 4:0.33333333 5:-0.68047407 6:-0.69413647 7:1.0 8:1.0 9:0.2457943 10:-0.28627556 11:1.0 12:0.98290887 13:-0.33333333 14:-0.33333333 15:0.39999998 16:0.39999998 17:0.39999998 18:0.39999998 19:0.39999998 20:0.39999998 21:-1.0 22:-1.0 23:-0.33333333 24:-0.33333333 25:-0.72465469 26:-0.65979412 27:-0.82733888 28:-0.83318015 29:-0.20260551 30:-0.03837721 31:-0.86696562 32:-0.83362747 33:-0.60135852 34:-0.60135852 35:0.31914894 36:0.40425532 37:-0.62086449 38:-0.62125851 39:-0.45806943 40:-0.45707269 
-1.0 1:0.07563022 2:0.52380954 3:0.46666667 4:0.46666667 5:-0.61307296 6:-0.68618745 7:1.0 8:1.0 9:-0.40465188 10:-0.37590598 11:0.73080979 12:0.7580681 13:-0.11111111 14:-0.11111111 15:0.16666667 16:0.16666667 17:0.16666667 18:0.16666667 19:0.16666667 20:0.16666667 21:-1.0 22:-1.0 25:-0.64160389 26:-0.64160389 27:-0.83244211 28:-0.6034772 29:-0.25207454 30:-0.46110666 31:-0.88028897 32:-0.85129338 33:1.0 34:1.0 35:-0.57446809 36:-0.74468085 37:0.87027553 38:0.87394747 39:0.66883567 40:0.6550397 
-1.0 1:0.29971988 2:-0.37254903 3:1.0 4:1.0 5:-0.70051225 6:-0.59986598 7:1.0 8:1.0 9:-0.70749872 10:-0.73418912 11:0.43363464 12:0.47920901 13:0.11111111 14:0.11111111 15:0.16666667 16:0.16666667 17:0.16666667 18:0.16666667 19:0.16666667 20:0.16666667 21:-1.0 22:-1.0 25:-0.32912241 26:-0.34585254 27:-0.79414562 28:-0.76290832 29:0.11967664 30:-0.05324918 31:-0.79220719 32:-0.80039143 33:1.0 34:1.0 35:-0.82978723 36:-0.0212766 37:0.87892387 38:0.87924405 39:0.63679865 40:0.63564357 
-1.0 1:0.59850609 2:0.22502333 3:-0.66666667 4:-0.66666667 5:-0.3491611 6:-0.3235441 7:1.0 8:1.0 9:-0.13951724 10:-0.57048757 11:0.43933701 12:0.37038204 13:-0.33333333 14:-0.33333333 15:-0.22222224 16:-0.22222224 17:-0.22222224 18:-0.22222224 19:-0.22222224 20:-0.22222224 21:-1.0 22:-1.0 23:1.0 24:1.0 25:0.58327625 26:0.31094943 27:-0.84146362 28:-0.3289218 29:0.87027835 30:0.0645397 31:0.26131446 32:0.35492822 33:-0.85118274 34:-0.86362391 35:-0.27659574 36:0.06382979 37:-0.87781404 38:-0.88726899 39:-0.88295162 40:-0.88862748 
-1.0 1:0.21008405 2:0.21008405 3:-0.33333333 4:-0.33333333 5:-0.31890865 6:-0.20033863 7:1.0 8:1.0 9:-0.89724857 10:-0.51293964 11:0.40044973 12:0.77560737 13:-0.33333333 14:-0.55555556 15:0.39999998 16:0.39999998 17:0.39999998 18:0.39999998 19:0.39999998 20:0.39999998 21:-1.0 22:-1.0 23:-0.33333333 24:-0.33333333 25:0.12081642 26:0.12081642 27:-0.12751673 28:-0.07424583 29:0.00591784 30:0.02373074 31:0.24702168 32:0.25685348 33:-0.84610618 34:-0.84610618 35:-0.95744681 36:-0.44680851 37:-0.84702981 38:-0.8463822 39:-0.84595558 40:-0.84837733 
-1.0 1:-1.0 2:-1.0 3:-1.0 4:-1.0 5:-0.43455103 6:-0.43455103 7:1.0 8:1.0 9:-0.33076689 10:-0.33076689 11:-0.46555001 12:-0.23543402 13:-0.55555556 14:-0.55555556 15:0.39999998 16:0.39999998 17:0.39999998 18:0.39999998 19:0.39999998 20:0.39999998 21:-1.0 22:-1.0 23:-0.33333333 24:-0.33333333 25:-0.09982824 26:-0.09982824 27:-0.19462436 28:-0.19462436 29:-0.156865 30:-0.156865 31:-0.07990687 32:-0.07990687 33:-0.97835111 34:-0.97835111 35:-0.27659574 36:-0.82978723 37:-0.97908899 38:-0.97903491 39:-0.96448154 40:-0.96458277 
-1.0 1:-0.46218486 2:-0.46218486 3:1.0 4:1.0 5:-0.53028535 6:-0.46236377 7:1.0 8:1.0 9:-0.56813573 10:-0.84179964 11:0.28072029 12:-0.4132205 13:-0.33333333 14:-0.33333333 15:0.39999998 16:0.39999998 17:0.39999998 18:0.39999998 19:0.39999998 20:0.39999998 21:-1.0 22:-1.0 23:-0.33333333 24:-0.33333333 25:-0.16492565 26:-0.0245469 27:-0.85625876 28:-0.85625876 29:0.17752131 30:0.3160403 31:-0.60348875 32:-0.58349446 33:1.0 34:1.0 35:-0.70212766 36:-0.82978723 37:0.99300545 38:1.0 39:0.98275179 40:0.96068343 
-1.0 1:-0.21248498 2:-0.21248498 3:-0.33333333 4:-0.33333333 5:-0.7012465 6:-0.70812415 7:1.0 8:1.0 9:-0.10362358 10:-0.57763479 11:0.38465209 12:0.02486273 13:-0.11111111 14:0.11111111 15:-3.0E-8 16:-3.0E-8 17:-3.0E-8 18:-3.0E-8 19:-3.0E-8 20:-3.0E-8 21:-1.0 22:-1.0 23:0.33333333 24:0.33333333 25:-0.01127193 26:-0.01127193 27:-0.60597267 28:-0.69852601 29:-0.06878137 30:-0.0273111 31:-0.15615209 32:-0.22253958 33:1.0 34:1.0 35:-0.91489362 36:-0.87234043 37:0.77320688 38:0.77206379 39:0.4023932 40:0.43990986 
-1.0 1:-0.50060025 2:-0.50060025 3:0.11111112 4:0.11111112 5:-0.20619394 6:-0.20619394 7:1.0 8:1.0 9:-0.49588317 10:-0.43119971 11:0.22671089 12:0.38389817 13:-0.11111111 14:-0.33333333 15:-3.0E-8 16:-3.0E-8 17:-3.0E-8 18:-3.0E-8 19:-3.0E-8 20:-3.0E-8 21:-1.0 22:-1.0 23:0.33333333 24:0.33333333 25:0.89778264 26:1.0 27:-0.43029856 28:-0.43029856 29:0.69113977 30:0.79497768 31:0.80359207 32:0.85301424 33:-0.98912392 34:-0.98912392 35:-0.23404255 36:-0.44680851 37:-0.99080215 38:-0.99076643 39:-0.98762562 40:-0.98765343 
-1.0 1:-0.32773109 2:-0.32773109 3:0.33333333 4:0.33333333 5:-0.77679393 6:-0.77679393 7:1.0 8:1.0 9:-0.75010527 10:-0.21134649 11:-0.26421132 12:-0.26421132 13:-0.11111111 14:0.11111111 15:0.39999998 16:0.39999998 17:0.39999998 18:0.39999998 19:0.39999998 20:0.39999998 21:-1.0 22:-1.0 23:-0.33333333 24:-0.33333333 25:-0.50569251 26:-0.37696319 27:-0.04633764 28:-0.58391773 29:-0.74130246 30:-0.18942296 31:-0.31344617 32:-0.29364314 33:1.0 34:1.0 35:0.14893617 36:-0.87234043 37:0.98786427 38:0.99980352 39:1.0 40:0.96189041 
-1.0 1:-0.86554623 2:-0.86554623 3:-0.33333333 4:-0.33333333 5:-0.24601006 6:-0.24601006 7:1.0 8:1.0 9:-0.89810033 10:-0.23740204 11:-0.33934926 12:-0.33934926 13:-0.55555556 14:-0.55555556 15:0.39999998 16:0.39999998 17:0.39999998 18:0.39999998 19:0.39999998 20:0.39999998 21:-1.0 22:-1.0 23:-0.33333333 24:-0.33333333 25:-0.07692339 26:-0.07692339 27:0.56962529 28:0.42393358 29:-0.78783343 30:-0.63513907 31:0.454263 32:0.3556393 33:-0.98979126 34:-0.98979126 35:0.91489362 36:-0.74468085 37:-0.99043524 38:-0.99031472 39:-0.98774131 40:-0.98806058 
-1.0 1:-0.02040816 2:0.07563022 3:0.55555555 4:0.61904763 5:-0.40202154 6:-0.43078057 7:1.0 8:1.0 9:-0.64245489 10:-0.50111172 11:-0.39649347 12:-0.32964361 13:-0.77777778 14:-0.55555556 15:1.0 16:0.74999997 17:1.0 18:-0.12500001 19:1.0 20:0.31249998 21:-1.0 22:1.0 23:0.33333333 24:0.66666667 25:-0.82094587 26:-0.47755569 27:-0.77071237 28:-0.94132292 29:-0.5366871 30:-0.16766808 31:-0.82758249 32:-0.84646059 33:-0.78822221 34:-0.78822221 35:-0.40425532 36:-0.40425532 37:-0.81963767 38:-0.81323155 39:-0.8057435 40:-0.78157459 
-1.0 1:-0.02040816 2:-0.02040816 3:0.11111112 4:0.11111112 5:-0.25122407 6:-0.25122407 7:1.0 8:1.0 9:-0.88007386 10:-0.33605194 11:-0.05234507 12:-0.05234507 13:-0.11111111 14:-0.11111111 15:-3.0E-8 16:-3.0E-8 17:-3.0E-8 18:-3.0E-8 19:-3.0E-8 20:-3.0E-8 21:-1.0 22:-1.0 23:0.33333333 24:0.33333333 25:-0.66901281 26:0.33821751 27:-0.48267157 28:-0.91930443 29:-0.64230403 30:0.46457208 31:-0.54548038 32:-0.52940919 33:1.0 34:1.0 35:-0.4893617 36:-0.27659574 37:0.74978628 38:0.75995995 39:0.52338652 40:0.46225856 
-1.0 1:0.07563022 2:0.07563022 3:0.33333333 4:0.33333333 5:-0.50481476 6:-0.50481476 7:1.0 8:1.0 9:-0.07400486 10:-0.07400486 11:0.4045071 12:0.4045071 13:-0.55555556 14:-0.55555556 15:0.39999998 16:0.39999998 17:0.39999998 18:0.39999998 19:0.39999998 20:0.39999998 21:-1.0 22:-1.0 23:-0.33333333 24:-0.33333333 25:-0.82347422 26:0.16753562 27:-0.47344149 28:-0.06747994 29:-0.70513337 30:0.09092946 31:-0.66344313 32:0.13084175 33:-0.9359749 34:-0.9359749 35:-0.78723404 36:-1.0 37:-0.93604936 38:-0.93603671 39:-0.93711801 40:-0.93715695 
-1.0 1:-0.46218486 2:-0.46218486 3:1.0 4:1.0 5:-0.46236377 6:-0.46236377 7:1.0 8:1.0 9:-0.76134912 10:-1.0 11:-0.4132205 12:-0.4132205 13:-0.55555556 14:-0.55555556 15:0.39999998 16:0.39999998 17:0.39999998 18:0.39999998 19:0.39999998 20:0.39999998 21:-1.0 22:-1.0 23:-0.33333333 24:-0.33333333 25:-0.62921924 26:0.30725838 27:-0.65577565 28:-0.78585088 29:-0.34327365 30:0.50992425 31:-0.88979111 32:-0.13995881 33:-0.76700232 34:-0.76700232 35:-0.44680851 36:-0.36170213 37:-0.76724732 38:-0.76718973 39:-0.77025034 40:-0.77042944 
-1.0 1:0.07563022 2:0.07563022 3:-0.33333333 4:-0.33333333 5:1.0 6:1.0 7:1.0 8:1.0 9:-0.2448836 10:-0.3820476 11:0.30664549 12:0.30664549 13:0.11111111 14:-0.11111111 15:0.39999998 16:0.39999998 17:0.39999998 18:0.39999998 19:0.39999998 20:0.39999998 21:-1.0 22:-1.0 23:-0.33333333 24:-0.33333333 25:-1.0 26:0.52705366 27:-0.45697748 28:0.06549884 29:-0.90641624 30:0.14291478 31:-0.86754444 32:0.67240121 33:-0.99924527 34:-0.99847465 35:0.91489362 36:-0.19148936 37:-0.9994151 38:-0.99874127 39:-0.99604226 40:-0.9961357 
-1.0 1:0.55582231 2:0.55582231 3:-0.33333333 4:-0.33333333 5:-0.73975805 6:-0.73975805 7:1.0 8:1.0 9:-0.47292693 10:-0.47292693 11:0.52755088 12:0.52755088 13:-0.33333333 14:-0.33333333 15:-3.0E-8 16:-3.0E-8 17:-3.0E-8 18:-3.0E-8 19:-3.0E-8 20:-3.0E-8 21:-1.0 22:-1.0 23:0.33333333 24:0.33333333 25:-0.55437975 26:0.03549685 27:-0.89524164 28:-0.48267157 29:-0.18612941 30:0.18158722 31:-1.0 32:0.06630023 33:1.0 34:1.0 35:-0.57446809 36:-0.95744681 37:0.73862213 38:0.73866007 39:0.57988679 40:0.57916927 
